-5.459053907543420792e-03
1.044476777315139771e-02
6.271315272897481918e-03
2.682400168851017952e-03
8.652942255139350891e-03
-6.461517419666051865e-03
-5.469459109008312225e-03
8.571701124310493469e-03
9.390071965754032135e-03
5.049038678407669067e-03
-1.900990318972617388e-04
-8.249346166849136353e-03
-3.165257396176457405e-03
-3.529205219820141792e-03
-4.689705092459917068e-03
-1.348844915628433228e-02
-1.194502040743827820e-02
-9.957302361726760864e-03
1.209263224154710770e-02
-8.400002494454383850e-03
1.282790303230285645e-02
1.156529970467090607e-02
-1.991312019526958466e-03
1.385298091918230057e-03
-3.460297826677560806e-03
-7.763313129544258118e-03
-2.551004523411393166e-03
-6.950050592422485352e-03
3.130238270387053490e-03
-3.157316939905285835e-03
4.048833623528480530e-03
-1.193787809461355209e-02
-2.619644161313772202e-03
1.732302625896409154e-04
-1.461833890061825514e-04
1.033514272421598434e-02
-1.348441652953624725e-02
1.118514500558376312e-02
-9.070529602468013763e-03
1.227508648298680782e-03
-6.258816923946142197e-03
1.821560203097760677e-03
-7.996604777872562408e-03
5.666084587574005127e-03
-1.127584744244813919e-02
-4.959808662533760071e-03
-1.041263993829488754e-02
1.116373110562562943e-02
-2.867883013095706701e-04
-8.919131942093372345e-03
-1.035401131957769394e-02
-1.136339362710714340e-02
1.208603382110595703e-02
-5.884103011339902878e-03
1.114637125283479691e-02
5.827160086482763290e-03
6.098064128309488297e-03
3.672164864838123322e-03
9.709814563393592834e-03
-6.480567622929811478e-03
1.020436082035303116e-02
-1.057720929384231567e-02
1.615161541849374771e-03
7.721386384218931198e-03
-9.993688203394412994e-03
-1.087480597198009491e-02
4.416645504534244537e-03
-6.374453660100698471e-03
-8.837291970849037170e-03
1.186299044638872147e-02
6.207156926393508911e-03
6.768646184355020523e-03
3.664499672595411539e-04
1.232845708727836609e-03
6.472621113061904907e-03
4.270134493708610535e-03
7.281912956386804581e-03
4.165446851402521133e-03
-9.988038800656795502e-03
-2.471260493621230125e-03
3.814769675955176353e-03
-4.007450304925441742e-03
1.134220324456691742e-02
-2.117147669196128845e-03
-7.726812269538640976e-03
-7.737656706012785435e-04
3.700451459735631943e-03
-3.356011584401130676e-03
1.121517457067966461e-02
6.534096319228410721e-03
7.780645973980426788e-03
8.518716320395469666e-03
1.275568502023816109e-04
-8.720122277736663818e-03
5.650701466947793961e-03
9.998631663620471954e-03
2.928875619545578957e-03
-1.100454945117235184e-02
-9.677880443632602692e-03
-7.470780983567237854e-03
1.186312176287174225e-02
-1.334912609308958054e-02
-1.015603914856910706e-02
-3.576629096642136574e-04
-8.367839269340038300e-03
2.269932767376303673e-03
9.937860886566340923e-05
-8.669839240610599518e-03
6.114516407251358032e-03
1.003253459930419922e-02
4.603603854775428772e-03
3.435692517086863518e-03
-3.445835318416357040e-03
1.380416937172412872e-02
-1.676587155088782310e-03
5.093445070087909698e-04
-1.036503352224826813e-02
-1.334350905381143093e-03
-6.519751623272895813e-03
-9.694570675492286682e-03
-2.074653311865404248e-04
-1.244921144098043442e-02
2.356237731873989105e-03
-8.724201470613479614e-03
-1.253922376781702042e-02
8.535251952707767487e-03
2.425834303721785545e-03
2.140021184459328651e-03
7.084486423991620541e-04
1.285955403000116348e-02
5.708682350814342499e-03
-1.067152060568332672e-02
-2.387596527114510536e-03
-2.695005852729082108e-03
6.695585325360298157e-03
2.807733602821826935e-03
-1.146408356726169586e-02
-8.342836052179336548e-03
-1.235258532688021660e-03
4.561080131679773331e-03
-6.278453860431909561e-03
-8.331479504704475403e-03
9.660502895712852478e-03
-1.238860748708248138e-02
7.583052385598421097e-03
1.205504499375820160e-02
-7.108272984623908997e-03
8.641340769827365875e-03
1.444383291527628899e-03
-1.163287647068500519e-02
-3.416010877117514610e-03
1.308119762688875198e-02
-3.764152526855468750e-03
6.566764321178197861e-03
1.025172974914312363e-02
3.613786073401570320e-03
2.450411673635244370e-03
-7.630991283804178238e-03
-4.470372572541236877e-03
-1.298681087791919708e-02
1.533493341412395239e-04
-7.435099105350673199e-04
2.197991358116269112e-03
7.029824890196323395e-03
5.251849652267992496e-04
1.320294570177793503e-02
2.362433588132262230e-04
-6.525068311020731926e-04
-8.894349448382854462e-03
1.344313658773899078e-02
7.682765368372201920e-03
1.337689254432916641e-02
9.911554865539073944e-03
9.222379885613918304e-03
9.371732012368738651e-04
-1.121297478675842285e-02
9.597311727702617645e-03
-3.990501631051301956e-03
-4.269356373697519302e-03
-6.001517176628112793e-04
-3.395907813683152199e-03
-1.347205974161624908e-02
6.780879106372594833e-03
1.160022895783185959e-02
-6.866818759590387344e-03
6.697451230138540268e-03
-5.552046466618776321e-03
-8.666625944897532463e-04
-1.424627611413598061e-03
8.141919970512390137e-03
-9.990417398512363434e-03
7.101990748196840286e-03
-1.362723857164382935e-02
9.259574115276336670e-03
-2.853178186342120171e-03
-3.596667200326919556e-03
-7.318608462810516357e-03
1.322924438863992691e-02
-3.560051089152693748e-03
-6.485560443252325058e-03
-2.819075016304850578e-03
8.894396014511585236e-03
4.907300230115652084e-03
1.321802474558353424e-02
8.607356809079647064e-03
-7.254278752952814102e-03
-7.837795652449131012e-03
1.140190009027719498e-02
-8.740595541894435883e-03
1.246229559183120728e-02
6.095090415328741074e-03
5.190957337617874146e-03
6.292346399277448654e-03
2.543715760111808777e-03
-6.747684907168149948e-03
3.914758563041687012e-03
4.967913962900638580e-03
7.783845067024230957e-03
-6.110242102295160294e-03
6.622796878218650818e-03
-1.704479800537228584e-03
-8.619857951998710632e-03
-1.241615228354930878e-02
5.189772695302963257e-03
1.302461698651313782e-02
1.051063183695077896e-02
1.033807825297117233e-02
1.270585786551237106e-02
2.342455845791846514e-04
2.205836819484829903e-03
7.711136713624000549e-03
-9.993771091103553772e-03
-1.224570814520120621e-02
-2.232043538242578506e-03
9.983058087527751923e-03
-2.010369207710027695e-03
4.343787208199501038e-03
-6.823625415563583374e-03
6.429497618228197098e-03
-2.171380678191781044e-03
-9.191489778459072113e-03
-9.899403899908065796e-03
-1.065242104232311249e-02
6.297869142144918442e-03
-1.141896564513444901e-02
-1.276671420782804489e-02
-1.274090260267257690e-02
-7.619573734700679779e-03
9.732202626764774323e-03
-1.244757045060396194e-02
2.372832968831062317e-03
1.676692045293748379e-03
-8.733818307518959045e-03
7.509968709200620651e-03
8.154017850756645203e-03
-9.454824961721897125e-03
-1.676449319347739220e-03
1.228458527475595474e-02
5.854586139321327209e-03
3.505127737298607826e-03
4.879508633166551590e-03
2.380259102210402489e-03
1.092679146677255630e-02
-8.439218625426292419e-03
-7.310085929930210114e-03
-1.354727894067764282e-03
-9.135526604950428009e-03
-2.706072118598967791e-04
3.597579197958111763e-03
1.151739619672298431e-02
-8.367386646568775177e-03
-4.689931869506835938e-03
-1.210689172148704529e-02
-3.303501987829804420e-03
-5.846766289323568344e-04
3.643657313659787178e-03
9.877243079245090485e-03
1.240049861371517181e-02
1.771091017872095108e-03
-1.310630794614553452e-02
-5.007535684853792191e-03
1.317276898771524429e-02
-7.153455633670091629e-03
1.081404648721218109e-02
8.730524219572544098e-03
8.365839719772338867e-03
7.327364757657051086e-03
9.572840295732021332e-03
-5.608435720205307007e-03
-1.165617909282445908e-02
5.237201694399118423e-03
6.351932417601346970e-03
9.065279737114906311e-03
-9.501386433839797974e-03
-2.260023495182394981e-03
8.203322999179363251e-03
-1.325395982712507248e-02
1.276179496198892593e-02
8.278124034404754639e-03
-7.790832314640283585e-03
7.680188864469528198e-03
-1.244047284126281738e-02
-6.627658382058143616e-03
9.950619423761963844e-04
1.287261303514242172e-02
6.571285892277956009e-03
2.574536716565489769e-03
1.057446817867457867e-03
4.814625717699527740e-03
2.097420627251267433e-03
1.109289471060037613e-02
-1.118457131087779999e-02
4.159115254878997803e-03
-1.088790223002433777e-02
-5.223146639764308929e-03
8.771169930696487427e-03
1.349166501313447952e-02
8.492699824273586273e-03
6.355367600917816162e-03
-5.993399303406476974e-03
-4.967943765223026276e-03
-2.820147899910807610e-03
1.985679380595684052e-03
-1.067382842302322388e-02
-1.669281773502007127e-04
-1.275392062962055206e-02
1.186019275337457657e-02
4.594588186591863632e-03
-5.415225867182016373e-03
-1.176610682159662247e-02
-1.127244089730083942e-03
-1.737821381539106369e-03
1.341527048498392105e-02
-1.102658919990062714e-02
-4.721685778349637985e-03
-3.981409594416618347e-03
2.902717096731066704e-03
-6.894162856042385101e-03
-3.968873992562294006e-03
-8.115651085972785950e-03
1.250291056931018829e-02
-1.480774721130728722e-03
3.907527308911085129e-03
-2.353846561163663864e-03
-2.324478002265095711e-03
-8.536538109183311462e-03
-3.598664887249469757e-03
2.267538511659950018e-04
-8.883410133421421051e-03
1.015742495656013489e-02
-7.097783964127302170e-03
-3.728859883267432451e-04
-1.687730313278734684e-03
7.472386583685874939e-03
-7.533756084740161896e-03
-5.316087510436773300e-03
6.368884351104497910e-03
-5.959607660770416260e-03
-1.434397534467279911e-03
1.308679021894931793e-02
-1.387614291161298752e-03
-6.122510414570569992e-03
5.575859453529119492e-03
8.773537352681159973e-03
-1.310948398895561695e-03
-4.338491708040237427e-03
-9.739761240780353546e-03
3.615705762058496475e-03
2.977997995913028717e-03
1.578093942953273654e-04
-3.887290367856621742e-03
-3.298234660178422928e-04
3.838046221062541008e-03
6.123837083578109741e-03
1.032262202352285385e-02
7.399650756269693375e-03
-6.125694606453180313e-03
1.182998996227979660e-02
-4.676186654251068830e-04
3.805530024692416191e-03
-2.056889701634645462e-03
-1.328289974480867386e-02
-1.066293567419052124e-03
1.402462832629680634e-03
-3.470903728157281876e-03
2.801678376272320747e-03
-1.272734347730875015e-02
6.383784115314483643e-03
6.190333515405654907e-03
5.362281575798988342e-03
9.147853590548038483e-03
3.690224839374423027e-03
-1.199369877576828003e-02
-1.330517884343862534e-02
1.377806346863508224e-02
-1.163822785019874573e-02
2.474246779456734657e-03
1.121900230646133423e-02
-1.136565674096345901e-02
9.044028818607330322e-03
-6.118770223110914230e-03
-1.246751402504742146e-03
-7.240631384775042534e-04
-4.370904993265867233e-03
1.078497897833585739e-02
-3.190621209796518087e-04
1.055648736655712128e-02
1.152023952454328537e-02
8.281332440674304962e-03
3.081478644162416458e-03
9.233862161636352539e-03
1.099994406104087830e-02
-6.095442222431302071e-04
-3.342673182487487793e-03
-6.225562654435634613e-03
-1.321882288902997971e-02
-9.655802510678768158e-03
-9.311640635132789612e-03
-4.584438167512416840e-03
9.559390135109424591e-03
1.106746960431337357e-02
1.146295480430126190e-02
-1.357141975313425064e-02
1.120629999786615372e-02
-5.478288978338241577e-03
1.250735833309590816e-03
-1.384581718593835831e-02
7.776538375765085220e-03
-1.042467076331377029e-02
6.705978419631719589e-03
-7.461863569915294647e-03
1.315859705209732056e-02
-2.435922622680664062e-03
8.627251721918582916e-03
-1.378390192985534668e-02
9.462610818445682526e-03
-9.022839367389678955e-03
1.199541520327329636e-02
1.839535078033804893e-03
5.370632279664278030e-03
-2.064867876470088959e-03
-1.487191999331116676e-03
-1.370171085000038147e-02
4.845679271966218948e-03
-5.804671440273523331e-03
-6.308740936219692230e-03
-2.730876440182328224e-03
9.709287434816360474e-03
-8.131721056997776031e-03
-1.979415072128176689e-03
-9.511361829936504364e-03
-1.158896647393703461e-02
2.345685614272952080e-03
5.210951436311006546e-03
1.225139200687408447e-02
4.282202105969190598e-03
-1.051604561507701874e-02
3.978074993938207626e-03
-4.851145204156637192e-03
-7.961994037032127380e-03
-5.843929946422576904e-03
-4.805906210094690323e-03
7.013777736574411392e-03
-2.626268193125724792e-03
2.957089105620980263e-03
1.248217187821865082e-02
-5.572621710598468781e-03
-7.435312028974294662e-03
-9.653376415371894836e-03
-1.359408907592296600e-02
1.126601081341505051e-02
-1.191482972353696823e-02
-2.776276320219039917e-03
-5.380358081310987473e-03
-8.153130300343036652e-03
-2.581345150247216225e-03
-1.342501491308212280e-02
-2.371374750509858131e-03
-1.350463018752634525e-03
-1.132251042872667313e-02
-2.133093308657407761e-03
-6.119225639849901199e-03
-7.578154560178518295e-03
-5.540060810744762421e-03
9.648442268371582031e-03
-1.128055271692574024e-03
-1.159335859119892120e-02
6.814530119299888611e-03
-1.180300395935773849e-02
-2.444617450237274170e-03
-1.821868587285280228e-03
7.018158212304115295e-03
8.361234329640865326e-03
1.241817045956850052e-02
9.215864352881908417e-03
-1.212304737418889999e-02
1.197600737214088440e-03
1.277012191712856293e-02
7.149318233132362366e-03
1.040444895625114441e-02
-4.360431921668350697e-04
-5.122540052980184555e-03
-5.638254806399345398e-04
-4.505563527345657349e-03
2.408464904874563217e-03
-1.093715801835060120e-02
-6.973529700189828873e-03
3.056790446862578392e-03
-2.207092475146055222e-03
1.066835038363933563e-02
-1.106813736259937286e-02
-1.324250455945730209e-02
