3.226152434945106506e-02
2.211191691458225250e-02
-2.799393609166145325e-02
-1.166457310318946838e-02
-3.976603620685636997e-04
1.318924315273761749e-02
-4.005540907382965088e-02
3.491686657071113586e-02
-1.744882762432098389e-02
-2.943057194352149963e-02
-3.444412024691700935e-03
1.024522352963685989e-02
-3.402039036154747009e-02
1.612630300223827362e-02
2.816999098286032677e-03
8.986311964690685272e-03
6.995521020144224167e-03
-3.930892329663038254e-03
-2.817884553223848343e-03
8.649437688291072845e-03
-4.303517192602157593e-02
1.235562842339277267e-02
1.652034930884838104e-02
1.841533556580543518e-02
-4.368591308593750000e-02
4.628424998372793198e-03
1.081661693751811981e-02
-3.694735933095216751e-03
-1.789453108358429745e-06
-1.739412918686866760e-02
2.574456296861171722e-02
3.099169582128524780e-02
1.020163670182228088e-02
-4.217806085944175720e-02
1.207291614264249802e-02
-1.637275889515876770e-02
-3.149705007672309875e-02
-3.760025836527347565e-03
1.880321651697158813e-02
-1.268118526786565781e-02
-7.484692614525556564e-03
1.747430115938186646e-02
-2.185428515076637268e-02
-2.348078973591327667e-02
-1.840152218937873840e-02
-1.292675454169511795e-02
-1.985040865838527679e-02
-3.547919169068336487e-02
3.803544444963335991e-03
9.766616858541965485e-03
-8.755376562476158142e-03
1.520985271781682968e-02
-2.448802627623081207e-02
-6.347139831632375717e-03
1.537247281521558762e-02
-2.618532441556453705e-02
2.396474592387676239e-02
-2.046616282314062119e-03
-1.407087128609418869e-02
-4.047812893986701965e-02
-7.392920670099556446e-04
-4.737385082989931107e-03
-4.246558994054794312e-02
2.647404931485652924e-02
1.356497057713568211e-03
-3.890365734696388245e-02
-1.120559498667716980e-02
1.501279510557651520e-02
1.456216815859079361e-02
-7.701703812927007675e-03
-3.386411815881729126e-02
-2.806646376848220825e-02
2.942486479878425598e-02
-2.292096801102161407e-02
3.410487622022628784e-02
3.311389312148094177e-02
-4.247249662876129150e-02
3.567785397171974182e-02
-2.986023761332035065e-02
3.780792281031608582e-02
3.796416893601417542e-02
-2.843564376235008240e-02
-3.979758918285369873e-02
4.337386041879653931e-02
-8.422195911407470703e-03
4.367914516478776932e-03
4.303415119647979736e-02
-1.657997258007526398e-02
2.948406897485256195e-02
1.677459478378295898e-02
-3.606689721345901489e-02
-8.796698239166289568e-06
7.407129276543855667e-03
-3.891073167324066162e-02
2.912638883572071791e-04
3.523105382919311523e-02
-3.791926056146621704e-02
2.299485355615615845e-02
3.606526181101799011e-02
1.277039013803005219e-02
-2.472234144806861877e-02
-1.033294387161731720e-02
-1.068550534546375275e-02
2.316444739699363708e-02
-1.404019072651863098e-02
1.614586333744227886e-03
-2.170421183109283447e-02
-1.691597164608538151e-03
1.834575831890106201e-02
-2.725389041006565094e-02
4.752468317747116089e-03
8.453409187495708466e-03
-2.566242357715964317e-03
2.401197561994194984e-03
-1.847811974585056305e-02
-1.288915867917239666e-03
-1.657074876129627228e-02
3.513579070568084717e-02
1.563408039510250092e-02
-3.495288267731666565e-02
3.432290256023406982e-02
-4.340018332004547119e-02
-1.004273630678653717e-02
-4.230444785207509995e-03
-2.602537162601947784e-02
-4.151897504925727844e-02
-4.142083972692489624e-02
-4.222539812326431274e-02
3.057162463665008545e-02
2.166427858173847198e-02
1.313008368015289307e-02
1.152434200048446655e-02
-4.285496473312377930e-02
-2.984002232551574707e-02
-3.432166948914527893e-02
-1.807150244712829590e-02
8.002557791769504547e-03
-1.765650324523448944e-02
-1.534062437713146210e-02
4.239609092473983765e-02
-8.511923253536224365e-03
-2.039200067520141602e-02
1.049843057990074158e-02
4.185526818037033081e-02
5.454862257465720177e-04
8.805042132735252380e-03
4.461486358195543289e-03
4.308428615331649780e-02
4.042674601078033447e-02
4.089216142892837524e-02
-2.795200562104582787e-03
-3.189915046095848083e-02
-8.315090090036392212e-03
-5.592126399278640747e-04
-2.960936725139617920e-02
-3.279796615242958069e-02
-2.469130558893084526e-03
-3.849291475489735603e-03
4.274614155292510986e-02
2.359821274876594543e-02
-2.807231806218624115e-02
4.209214821457862854e-02
1.035335846245288849e-02
-3.370950371026992798e-02
3.494841605424880981e-02
-3.926582261919975281e-02
-1.347191538661718369e-02
3.158022463321685791e-02
6.800618954002857208e-03
1.550522912293672562e-02
-4.235669597983360291e-02
-2.930947765707969666e-02
-4.352967068552970886e-02
-7.203395478427410126e-03
2.724880166351795197e-02
-8.655540645122528076e-03
2.904125861823558807e-02
3.644349053502082825e-02
1.131440885365009308e-02
-2.111621666699647903e-03
-4.353887960314750671e-02
2.393590286374092102e-02
-2.799553796648979187e-02
3.132760990411043167e-03
-2.150727994740009308e-02
-1.310285553336143494e-02
-1.142734102904796600e-02
-2.939134649932384491e-02
3.540500253438949585e-02
1.470144651830196381e-02
-2.263438887894153595e-02
-5.018091760575771332e-03
1.649389788508415222e-02
-3.972169011831283569e-02
-2.902998216450214386e-02
-1.492604147642850876e-02
4.177098348736763000e-02
-4.392381012439727783e-02
1.913160271942615509e-02
2.749772928655147552e-02
1.938231871463358402e-03
9.981203824281692505e-03
-3.557484224438667297e-02
4.657734651118516922e-03
-3.745994530618190765e-03
-4.000716656446456909e-02
5.952173523837700486e-06
4.975924734026193619e-03
3.320898488163948059e-02
3.356846794486045837e-02
-1.215746626257896423e-02
2.316030487418174744e-02
2.013571374118328094e-02
-2.376481518149375916e-02
4.351717978715896606e-02
3.382997587323188782e-02
-9.820701554417610168e-03
3.611377032939344645e-04
-5.649802740663290024e-03
-4.201962426304817200e-02
-1.975474320352077484e-02
-8.240383118391036987e-03
-1.745463721454143524e-02
1.738451421260833740e-02
2.389260195195674896e-02
-2.387098595499992371e-02
-7.035210262984037399e-03
-7.759412284940481186e-03
-3.119364380836486816e-02
-1.205950416624546051e-02
2.615038864314556122e-02
-1.946445554494857788e-02
-9.436403401196002960e-03
-1.660398789681494236e-03
-3.502034395933151245e-02
2.342934906482696533e-02
-4.341439157724380493e-02
-5.955049768090248108e-03
2.310955710709095001e-02
3.013704530894756317e-02
6.378629244863986969e-03
-1.472680922597646713e-02
-7.710016798228025436e-03
1.418383046984672546e-02
2.278663776814937592e-02
2.585446927696466446e-03
-2.228012867271900177e-02
2.860727161169052124e-02
-3.472077846527099609e-02
-1.673151552677154541e-02
-2.710930816829204559e-02
-2.259759930893778801e-03
1.598289050161838531e-02
1.905727386474609375e-02
-2.619470842182636261e-02
-2.518034912645816803e-02
