-1.774829626083374023e-02
-2.842902950942516327e-02
6.097039207816123962e-02
-4.699102789163589478e-02
8.045790717005729675e-03
-1.875350484624505043e-03
4.962543770670890808e-02
5.633004754781723022e-02
-5.915568396449089050e-02
1.389936730265617371e-02
-3.268001833930611610e-03
-1.934055052697658539e-02
5.549943074584007263e-02
5.801858752965927124e-02
3.996535018086433411e-02
-3.668905794620513916e-02
1.849259622395038605e-02
2.451032586395740509e-02
-7.293314673006534576e-03
4.432753100991249084e-02
-2.709474414587020874e-02
2.459588088095188141e-02
-5.008671805262565613e-02
2.253444120287895203e-02
2.974656410515308380e-02
-2.895068377256393433e-02
-2.352591231465339661e-02
5.172836035490036011e-02
7.426607422530651093e-03
-2.602854557335376740e-02
3.447566926479339600e-02
-3.183722496032714844e-02
4.756072163581848145e-02
-4.877281188964843750e-02
1.455595530569553375e-02
-1.595728471875190735e-02
-2.405050769448280334e-02
3.919631615281105042e-02
-3.178386390209197998e-02
4.617595672607421875e-02
-3.817719593644142151e-02
4.122451692819595337e-02
3.617173433303833008e-02
3.460078686475753784e-02
6.985210813581943512e-03
-3.451664699241518974e-03
-4.437945317476987839e-03
-5.986318364739418030e-02
4.133099690079689026e-02
4.165745899081230164e-02
-4.178811982274055481e-02
-5.439111962914466858e-02
7.869875058531761169e-03
3.685051575303077698e-02
-2.681609615683555603e-02
-5.713825300335884094e-02
5.805865302681922913e-02
1.270415075123310089e-02
-8.905179798603057861e-03
6.083306297659873962e-02
6.010904908180236816e-02
-8.479876443743705750e-03
1.100732944905757904e-02
4.800435900688171387e-02
2.986129932105541229e-02
4.126090928912162781e-02
-1.418389729224145412e-03
-3.075313195586204529e-02
2.253091149032115936e-02
-2.818710915744304657e-02
3.777765110135078430e-02
-6.615741644054651260e-03
1.465971022844314575e-02
-4.669881425797939301e-03
-4.656026512384414673e-02
2.252064831554889679e-02
-3.671413287520408630e-02
1.077512186020612717e-02
6.165470555424690247e-02
-4.090743511915206909e-02
-4.518438130617141724e-02
-8.089498151093721390e-04
-3.706308454275131226e-02
1.397677697241306305e-02
-4.933244362473487854e-02
-1.038329210132360458e-02
-1.209466718137264252e-03
1.410673465579748154e-02
9.968790225684642792e-03
9.729431942105293274e-03
-5.556690692901611328e-02
1.040348503738641739e-02
6.915300618857145309e-03
-3.759863227605819702e-02
2.076684497296810150e-02
3.985353559255599976e-02
-4.327519983053207397e-02
-3.051559440791606903e-02
-4.660213738679885864e-02
-2.006486244499683380e-02
-5.791819095611572266e-02
4.473493248224258423e-02
5.630405992269515991e-02
-5.207501351833343506e-02
-3.684747964143753052e-02
3.389634937047958374e-02
-5.041737481951713562e-02
2.627019770443439484e-02
1.334169879555702209e-02
-4.492317885160446167e-02
4.006390646100044250e-02
6.220179796218872070e-02
2.562081906944513321e-03
4.907192662358283997e-02
2.580538019537925720e-02
-1.077227294445037842e-02
-3.584451228380203247e-02
-5.625148490071296692e-02
-2.427499927580356598e-02
-2.359973452985286713e-02
4.060452058911323547e-02
-5.191001668572425842e-02
2.121097035706043243e-02
3.618034720420837402e-02
-5.112219229340553284e-02
-2.605050802230834961e-02
3.451375663280487061e-02
-4.487027879804372787e-03
