3.575943410396575928e-02 5.041429772973060608e-02 5.135439708828926086e-02 1.893401704728603363e-02 8.313058642670512199e-04 4.423294588923454285e-02 -4.957364127039909363e-02 -2.823873423039913177e-02 4.461669176816940308e-02 -3.375565633177757263e-02 1.736465841531753540e-02 -5.983198061585426331e-02 -4.933784157037734985e-02 -4.363924264907836914e-02 1.921340450644493103e-02 5.489537119865417480e-02 -2.835500752553343773e-03 -6.350988894701004028e-02 -5.024529993534088135e-02 -4.839573428034782410e-02 -2.585000917315483093e-02 -4.630881175398826599e-02 -2.249890379607677460e-02 2.802773192524909973e-02 -2.172868140041828156e-02 -5.015423521399497986e-02 -1.777729392051696777e-02 1.249379944056272507e-02 3.775119408965110779e-02 -7.138022780418395996e-02 -4.628177359700202942e-02 -3.401250019669532776e-02 5.256119370460510254e-02 1.221218984574079514e-02 -1.027843356132507324e-02 2.268987521529197693e-02 -1.554469019174575806e-02 -4.837954044342041016e-02 5.928691476583480835e-03 3.601535409688949585e-02 -3.242594376206398010e-02 5.298477038741111755e-02 -4.208435118198394775e-02 3.421024605631828308e-02 -5.320817232131958008e-02 -3.803650289773941040e-02 -1.546103414148092270e-02 -7.696283049881458282e-03 2.713270299136638641e-02 5.453030392527580261e-02 -5.571969226002693176e-02 4.728609323501586914e-02 -2.341998554766178131e-02 -4.802143946290016174e-02 1.160981319844722748e-02 4.543097689747810364e-02 2.232423238456249237e-02 -2.229667454957962036e-02 -1.076992694288492203e-02 8.023292757570743561e-03 2.579423598945140839e-02 2.322067879140377045e-02 4.115273430943489075e-02 -2.708735875785350800e-02 -6.699125468730926514e-02 -1.331620011478662491e-02 -8.237343281507492065e-02 -3.869969025254249573e-02 2.812463603913784027e-02 -6.692592799663543701e-02 -5.149792134761810303e-02 -6.018595024943351746e-02 -3.199690580368041992e-02 5.121007561683654785e-02 5.224877968430519104e-02 -1.680194959044456482e-02 5.332012474536895752e-02 -5.383592471480369568e-02 -3.981520980596542358e-02 1.268540974706411362e-03 -6.504281610250473022e-02 3.426301851868629456e-02 -2.386604249477386475e-02 5.876245349645614624e-02 7.457987219095230103e-02 -3.567512333393096924e-02 3.932163491845130920e-02 -2.916042320430278778e-02 4.114348813891410828e-02 2.902493998408317566e-02 -3.798737376928329468e-02 1.062129251658916473e-02 3.830548003315925598e-02 2.577634528279304504e-02 -2.221868932247161865e-02 1.565052010118961334e-02 7.175328582525253296e-02 4.694481939077377319e-02 2.084994688630104065e-02 4.382268711924552917e-02 -2.393925562500953674e-02 -3.816087171435356140e-02 5.539274588227272034e-02 2.710974588990211487e-02 -3.231132030487060547e-02 -1.888550445437431335e-02 2.234019571915268898e-03 4.632440954446792603e-02 -3.631648793816566467e-02 3.665757551789283752e-02 2.893277630209922791e-02 -2.461887337267398834e-02 -3.539294376969337463e-02 2.009291388094425201e-02 4.573151096701622009e-02 5.883764103055000305e-02 -3.608114644885063171e-02 5.607975274324417114e-02 -4.306147620081901550e-02 -6.216229125857353210e-02 4.609679058194160461e-02 -4.961752891540527344e-02 1.821075752377510071e-02 -3.517424315214157104e-02 5.110024288296699524e-02 7.112126797437667847e-03 1.411229930818080902e-02 2.527626045048236847e-02 -4.106415063142776489e-02 4.576832428574562073e-02 4.301198199391365051e-02 4.872230440378189087e-02 1.156528759747743607e-02 1.342481840401887894e-02 -4.893089085817337036e-02 2.455926034599542618e-03 -6.420093774795532227e-02 -1.929546892642974854e-02 6.736586242914199829e-02 -2.419781312346458435e-02 3.551474213600158691e-02 -6.025516614317893982e-02 6.940168794244527817e-03 -2.892482280731201172e-02 2.562209265306591988e-03 -1.088047865778207779e-02 4.675534367561340332e-02 2.704247087240219116e-02 -5.853188037872314453e-02 -8.631845004856586456e-03 -2.532175742089748383e-02 -4.571262747049331665e-02 1.576680876314640045e-02 3.848592564463615417e-02 3.419792279601097107e-02 4.713427647948265076e-02 1.043390296399593353e-02 3.139651939272880554e-02 -2.752443216741085052e-02 -6.433028727769851685e-02 4.605893790721893311e-02 3.916216269135475159e-02 -3.116331063210964203e-02 -2.790014818310737610e-02 -1.614913530647754669e-02 -3.791514784097671509e-02 7.742721587419509888e-03 3.989116474986076355e-02 -2.079026028513908386e-02 -2.361964061856269836e-02 -3.959385678172111511e-02 -2.549326047301292419e-02 -1.742729451507329941e-03 -1.534882932901382446e-03 1.181985624134540558e-02 2.638356573879718781e-02 -4.296073690056800842e-02 1.628224365413188934e-02 9.609712287783622742e-03 1.932705380022525787e-02 -2.312025427818298340e-02 4.385441914200782776e-02 2.155967801809310913e-02 -5.107231438159942627e-03 3.407411277294158936e-02 8.887483738362789154e-03 2.584095485508441925e-02 2.555009908974170685e-02 3.219648823142051697e-02 -2.803340926766395569e-02 -3.424983471632003784e-02 -5.201480537652969360e-02 -2.527289651334285736e-02 5.984015390276908875e-02 -3.446167334914207458e-02 -2.279075048863887787e-02 -4.623520746827125549e-02 6.358513981103897095e-02 -2.001427114009857178e-03 8.202525787055492401e-03 -3.272982686758041382e-02 -2.842324413359165192e-02 3.465842828154563904e-02 5.502679944038391113e-02 4.283538460731506348e-02 -3.179182112216949463e-02 -5.348395556211471558e-03 5.306211113929748535e-02 1.936318731168285012e-04 -5.765783414244651794e-02 -4.958235472440719604e-02 -4.599820077419281006e-02 5.711882561445236206e-02 2.649436704814434052e-03 4.725498706102371216e-02 2.187614142894744873e-02 1.982522197067737579e-02 3.261212632060050964e-02 4.255077801644802094e-03 4.747671540826559067e-03 7.631536573171615601e-02 -1.273848116397857666e-02 6.043094396591186523e-02 1.738628186285495758e-02 -5.844164639711380005e-02 -5.245229694992303848e-03 -2.381658181548118591e-02 2.445752546191215515e-02 5.341680953279137611e-04 6.069912761449813843e-02 3.113262169063091278e-02 5.192185193300247192e-02 2.275853231549263000e-02 -4.089096933603286743e-02 3.672554343938827515e-02 3.762045130133628845e-02 4.126801714301109314e-02 4.056918993592262268e-02 2.746995352208614349e-02 3.928348794579505920e-02 -3.177391365170478821e-02 -5.128984898328781128e-02 -2.673432976007461548e-02 -2.667600847780704498e-02 3.293263912200927734e-02 -9.942437522113323212e-03 -4.471539333462715149e-02 5.283394455909729004e-02 2.842657826840877533e-02 6.540849804878234863e-02 5.502229183912277222e-02 -5.753698572516441345e-02 4.933951422572135925e-02 -4.244719073176383972e-02 2.559145912528038025e-02 -5.515204742550849915e-02
2.938831597566604614e-02 -2.635960839688777924e-02 3.458447009325027466e-02 -4.170797392725944519e-02 4.431766923516988754e-03 1.936646550893783569e-02 -6.188693270087242126e-02 5.957505665719509125e-03 -2.029291586950421333e-03 -3.710618242621421814e-02 -1.668785139918327332e-02 -4.747096821665763855e-02 3.610593080520629883e-02 3.953662887215614319e-02 1.068755518645048141e-02 -2.551547810435295105e-02 -2.491854876279830933e-02 -2.498122677206993103e-02 1.325435470789670944e-02 -5.400610715150833130e-02 2.019338309764862061e-02 3.195219486951828003e-02 -4.179776459932327271e-02 5.161296203732490540e-02 -3.956673666834831238e-02 -3.265038132667541504e-02 -2.234081365168094635e-02 4.954032227396965027e-02 -6.204831600189208984e-02 6.408677995204925537e-02 3.241055458784103394e-02 2.410897053778171539e-02 5.453187972307205200e-02 2.143753692507743835e-02 1.756318844854831696e-02 6.268482655286788940e-02 2.429697103798389435e-02 1.028608158230781555e-02 -4.491724073886871338e-02 5.666329711675643921e-02 9.206634946167469025e-03 3.615429997444152832e-02 -3.031301684677600861e-02 -5.643920972943305969e-02 1.672062650322914124e-02 4.614850133657455444e-02 1.256402023136615753e-02 2.871262095868587494e-02 5.162548646330833435e-02 -7.892219349741935730e-03 -5.874997377395629883e-02 4.506712034344673157e-02 3.110089898109436035e-02 2.950298832729458809e-03 4.498110711574554443e-02 1.122364122420549393e-02 6.920149549841880798e-03 3.081223554909229279e-02 7.169405464082956314e-03 -1.574106700718402863e-02 6.034311652183532715e-02 -5.087708681821823120e-02 6.336143612861633301e-02 2.493051439523696899e-02 -3.212982043623924255e-02 -5.366011336445808411e-02 4.947797581553459167e-02 -4.210555180907249451e-02 4.151389002799987793e-02 3.824329748749732971e-02 5.570290982723236084e-02 1.079129893332719803e-02 8.260813541710376740e-03 1.150111481547355652e-02 -3.209658712148666382e-02 3.015916422009468079e-02 -4.313861951231956482e-02 -5.901898071169853210e-02 -3.005939535796642303e-02 -4.809607192873954773e-02 1.946291141211986542e-02 2.944698557257652283e-02 9.461293928325176239e-03 -5.525797605514526367e-02 5.522524937987327576e-02 1.036794763058423996e-02 -3.058623895049095154e-02 -3.012109361588954926e-02 6.390869617462158203e-02 -6.071326136589050293e-02 1.429035235196352005e-02 -5.472905002534389496e-03 -4.074111953377723694e-02 1.870615966618061066e-02 1.936278678476810455e-02 -4.585015028715133667e-02 5.425841361284255981e-02 5.151000618934631348e-02 5.336182937026023865e-02 1.146977581083774567e-02 -2.060502581298351288e-02 -2.522031404078006744e-02 -4.749587178230285645e-02 4.807937890291213989e-02 6.548293749801814556e-04 9.384955279529094696e-03 -5.257241427898406982e-03 5.032925866544246674e-03 -1.920266076922416687e-02 -1.668291538953781128e-02 -5.916078016161918640e-02 -6.365521252155303955e-02 3.891517221927642822e-02 -2.805661410093307495e-02 -5.672506615519523621e-02 4.522679373621940613e-02 -1.061563752591609955e-02 -3.379011899232864380e-02 4.641341418027877808e-02 -3.754599392414093018e-02 -6.715875864028930664e-02 6.158465519547462463e-02 3.800796344876289368e-02 4.442161321640014648e-02 4.806271195411682129e-02 -5.477035418152809143e-02 -2.095464244484901428e-02 8.290960453450679779e-03 2.235339954495429993e-02 5.089545622467994690e-02 1.192686520516872406e-02 1.215210999362170696e-03 2.017907053232192993e-02 -4.502282664179801941e-02 4.566366225481033325e-02 -3.879942744970321655e-02 3.999650850892066956e-02 6.197709217667579651e-02 -1.855179294943809509e-02 -1.042747870087623596e-02 2.035671286284923553e-02 -7.528163492679595947e-02 -2.777682803571224213e-02 3.373444452881813049e-02 3.790748119354248047e-02 4.703624173998832703e-02 4.645671322941780090e-02 2.559292130172252655e-02 -1.048214174807071686e-02 5.607130751013755798e-02 -1.280388794839382172e-02 2.667597122490406036e-02 1.915758289396762848e-02 -1.239857543259859085e-02 -2.249257080256938934e-02 -1.479451078921556473e-02 1.961240731179714203e-02 3.533644974231719971e-02 5.432927049696445465e-03 4.561157897114753723e-02 5.297813937067985535e-02 -5.789650604128837585e-02 -3.786021098494529724e-02 1.009996747598052025e-03 -6.185851991176605225e-02 -3.075578808784484863e-02 -5.212971568107604980e-02 -2.472474239766597748e-02 -5.490411072969436646e-03 3.782134875655174255e-02 -4.249521717429161072e-02 1.620747521519660950e-02 -3.401703387498855591e-02 3.636843338608741760e-02 4.261762276291847229e-02 -2.190134860575199127e-02 -5.189536605030298233e-03 -2.042370103299617767e-02 3.886167332530021667e-02 -5.032055545598268509e-03 1.152190566062927246e-02 -4.448559135198593140e-02 -3.023403696715831757e-02 3.166233655065298080e-03 -6.226682453416287899e-04 4.203348606824874878e-02 -3.885193169116973877e-02 8.668508380651473999e-03 -5.980922840535640717e-03 -1.536139659583568573e-02 -3.782235831022262573e-02 -3.497863560914993286e-02 -7.517858594655990601e-02 -4.485682770609855652e-02 -3.460240736603736877e-02 1.472505088895559311e-02 5.834579840302467346e-02 2.839352702721953392e-03 -4.411269724369049072e-02 -6.806486845016479492e-02 -3.740657120943069458e-02 4.905446618795394897e-02 -2.990723773837089539e-02 -4.981774464249610901e-02 5.364673957228660583e-02 -4.670030251145362854e-02 -1.249194145202636719e-02 4.808541387319564819e-02 -1.099443342536687851e-02 -7.861636579036712646e-03 -4.913913831114768982e-02 -2.201656997203826904e-02 -3.285598382353782654e-02 -7.785963825881481171e-03 -4.348365217447280884e-02 -4.023610427975654602e-02 4.639033228158950806e-02 -3.021181747317314148e-02 3.902712371200323105e-03 -2.038959227502346039e-02 6.039981916546821594e-02 -4.366592690348625183e-02 3.246692940592765808e-02 -5.929492786526679993e-02 1.766500249505043030e-02 3.633806109428405762e-02 -4.323146864771842957e-02 -4.111553356051445007e-02 6.311741471290588379e-02 -3.045604377985000610e-02 -3.141202405095100403e-02 -2.748567610979080200e-02 -5.653158761560916901e-03 4.975476861000061035e-02 -8.599191904067993164e-03 5.340225249528884888e-02 2.060045488178730011e-02 -3.600991889834403992e-02 -2.449440397322177887e-02 7.366321515291929245e-03 -1.625163108110427856e-02 4.755011200904846191e-02 -4.846210405230522156e-02 -1.885795965790748596e-02 5.053576081991195679e-02 -2.201746962964534760e-02 -7.140984386205673218e-02 3.641123697161674500e-02 2.125424146652221680e-02 5.500299111008644104e-02 2.157476358115673065e-02 3.976422920823097229e-02 -3.655992820858955383e-02 5.167801678180694580e-02 1.286259666085243225e-02 -3.524753823876380920e-02
1.880191825330257416e-02 4.020232334733009338e-02 -3.273110091686248779e-02 4.257396981120109558e-02 -1.104084774851799011e-02 -1.099740620702505112e-02 -5.152875185012817383e-02 -5.410531163215637207e-02 -2.861926518380641937e-02 -2.709435299038887024e-02 3.876745002344250679e-03 -1.315016020089387894e-02 -1.181637588888406754e-02 -7.263994961977005005e-02 5.143681541085243225e-02 4.884778708219528198e-02 2.170371264219284058e-02 -4.161001369357109070e-02 -2.155865542590618134e-02 -1.910041272640228271e-02 -1.488573034293949604e-03 6.081474199891090393e-02 -7.066943217068910599e-03 6.613899953663349152e-03 2.190032601356506348e-02 5.446981638669967651e-02 -1.491904910653829575e-02 -5.215575173497200012e-02 4.565738141536712646e-02 -1.238014921545982361e-02 -4.873947799205780029e-02 1.306726131588220596e-02 -6.239930633455514908e-03 4.652597382664680481e-02 4.200034961104393005e-02 -4.832313582301139832e-02 -3.324359282851219177e-02 -5.714864470064640045e-03 -4.057514667510986328e-02 -5.669431388378143311e-02 -2.924053370952606201e-02 -2.107774652540683746e-02 1.377159170806407928e-02 2.205526269972324371e-02 -3.228208422660827637e-02 3.413695469498634338e-02 2.275342494249343872e-02 -1.508923061192035675e-02 -2.894463948905467987e-02 4.630593582987785339e-02 3.468593349680304527e-03 3.050103411078453064e-02 -6.328782066702842712e-03 2.754964167252182961e-03 -1.011588051915168762e-02 -2.168569155037403107e-02 7.079521566629409790e-02 -2.106986381113529205e-02 3.129783272743225098e-02 8.554413914680480957e-03 3.307679295539855957e-02 4.741302400361746550e-04 3.345388919115066528e-02 -1.417339546605944633e-03 -2.031359262764453888e-02 8.719153702259063721e-03 4.836104065179824829e-02 -5.541501939296722412e-02 6.041821837425231934e-02 3.541486710309982300e-02 4.770951718091964722e-02 4.722495377063751221e-02 -3.891640156507492065e-02 2.621352300047874451e-02 4.895907640457153320e-02 -2.732293866574764252e-02 1.110749877989292145e-02 -1.662557013332843781e-02 -9.079459123313426971e-03 -9.608817286789417267e-03 4.114303272217512131e-03 -2.439079992473125458e-02 5.088663659989833832e-03 6.514641642570495605e-02 3.192168846726417542e-02 -1.086781453341245651e-02 -3.331081196665763855e-02 3.076857514679431915e-02 1.607322506606578827e-02 2.718197926878929138e-02 -6.147908978164196014e-03 -3.898702934384346008e-02 6.039416790008544922e-02 -2.543044090270996094e-02 -2.610919065773487091e-02 4.987356718629598618e-03 -5.107453837990760803e-02 1.412991061806678772e-02 -1.772544346749782562e-02 -1.923594041727483273e-03 4.041057825088500977e-02 3.162759169936180115e-02 -2.526187896728515625e-02 4.091157019138336182e-02 -6.849833577871322632e-02 -3.726328909397125244e-02 -4.080234095454216003e-02 1.399212144315242767e-02 -2.580806985497474670e-02 6.328112632036209106e-02 -7.967082783579826355e-03 -2.099812217056751251e-02 3.178798407316207886e-02 -5.607903376221656799e-02 -1.037707435898482800e-03 -1.623586192727088928e-02 -5.354728922247886658e-02 -2.266457490622997284e-02 -3.296845033764839172e-02 3.923738002777099609e-02 3.392938151955604553e-02 -1.719397259876132011e-03 -4.383519291877746582e-02 -5.946705862879753113e-02 5.837863683700561523e-02 -1.869298703968524933e-02 -7.256236858665943146e-03 -1.219179108738899231e-02 2.086627297103404999e-02 -3.282491490244865417e-02 -1.758008822798728943e-02 2.508790045976638794e-02 -2.850022725760936737e-02 1.734286360442638397e-02 -5.013601109385490417e-02 -5.299983173608779907e-02 2.578962780535221100e-02 1.063975869328714907e-04 -4.156157001852989197e-02 -4.092494491487741470e-03 -1.992085203528404236e-02 -3.320054709911346436e-02 2.482822909951210022e-02 8.414577692747116089e-02 3.117538429796695709e-02 -2.542399615049362183e-02 2.095703966915607452e-02 5.225447192788124084e-02 7.227124180644750595e-03 2.822252176702022552e-02 3.653359785676002502e-02 -2.825895138084888458e-02 -6.373108923435211182e-02 5.624360218644142151e-02 5.220456793904304504e-02 4.668858647346496582e-02 3.259304165840148926e-02 5.061738193035125732e-02 -4.736665263772010803e-02 6.217108573764562607e-03 -4.103806614875793457e-02 5.810939148068428040e-02 -3.758332878351211548e-02 -4.245382919907569885e-02 -6.258397549390792847e-02 3.498351573944091797e-02 3.636926412582397461e-02 1.603099144995212555e-02 1.523801218718290329e-02 1.775551587343215942e-02 -5.158427357673645020e-02 -7.011996954679489136e-02 -4.906247183680534363e-02 5.587745457887649536e-03 -3.476653620600700378e-02 4.483592137694358826e-02 6.557086948305368423e-03 -2.522417716681957245e-02 -6.482273805886507034e-03 -3.226790949702262878e-02 -4.984487593173980713e-02 5.948757287114858627e-03 -4.209941625595092773e-02 1.591787859797477722e-02 -6.009468436241149902e-02 -2.506597526371479034e-02 9.715707972645759583e-03 -1.916784793138504028e-02 -5.920104309916496277e-02 3.877202048897743225e-02 -1.930900663137435913e-02 -3.458405658602714539e-02 -4.581913162837736309e-05 -4.720794036984443665e-02 -3.681702911853790283e-02 1.223390921950340271e-02 -3.575151041150093079e-02 5.189850926399230957e-02 4.892755299806594849e-02 3.929082676768302917e-02 4.287144634872674942e-03 -5.512880161404609680e-02 -9.736562147736549377e-03 3.733773157000541687e-02 -9.471735917031764984e-03 4.479767009615898132e-02 -3.132444247603416443e-02 -3.994846343994140625e-02 9.568368084728717804e-03 -3.396163880825042725e-02 -1.314708217978477478e-02 2.215736359357833862e-02 -2.635439671576023102e-02 2.629080787301063538e-02 -4.775482416152954102e-02 -5.483857914805412292e-02 -2.852418925613164902e-03 5.331583321094512939e-02 1.552357152104377747e-02 -4.655652493238449097e-02 1.544972974807024002e-02 -5.569932982325553894e-02 -1.666459999978542328e-02 5.762457847595214844e-02 -4.430668056011199951e-02 7.508895359933376312e-03 2.671064250171184540e-02 3.115034196525812149e-03 -2.534360811114311218e-02 -2.616553567349910736e-02 1.261839177459478378e-02 8.869371376931667328e-03 -6.197888031601905823e-02 -1.233863737434148788e-02 -3.633974865078926086e-02 -2.096527532557956874e-05 4.142884165048599243e-02 2.682488784193992615e-02 5.035188049077987671e-02 -1.014052703976631165e-02 -1.984237506985664368e-02 -6.917710602283477783e-02 -2.731997892260551453e-02 2.013568393886089325e-02 3.155979514122009277e-02 -6.461755186319351196e-02 -2.350673824548721313e-02 2.611518651247024536e-02 2.345119975507259369e-02 -2.717926539480686188e-02 -3.383912518620491028e-02 -5.519486218690872192e-02 4.079743474721908569e-02 -1.663790270686149597e-02 1.062272116541862488e-02 2.249596267938613892e-02
-5.203069373965263367e-02 7.388758007436990738e-03 -4.699468985199928284e-02 2.532689459621906281e-02 -9.213463403284549713e-03 2.587434463202953339e-02 3.935616463422775269e-02 -2.084727957844734192e-02 3.909650444984436035e-02 -1.092591974884271622e-02 3.896719589829444885e-02 2.205771394073963165e-02 2.293246611952781677e-02 6.219366565346717834e-03 2.806098200380802155e-02 2.026423439383506775e-02 -3.250501304864883423e-02 4.873916879296302795e-02 3.412554040551185608e-02 3.245678171515464783e-02 -3.980105742812156677e-02 3.156448155641555786e-02 -2.921580336987972260e-02 4.006735607981681824e-02 -3.284054249525070190e-02 -5.406516790390014648e-02 -8.662308566272258759e-03 -3.662498295307159424e-02 -2.010877989232540131e-02 1.918785087764263153e-02 -4.061358422040939331e-02 -1.899385079741477966e-02 -4.973201081156730652e-02 -2.681981213390827179e-02 4.338740184903144836e-02 -5.396033450961112976e-02 -3.375760838389396667e-02 2.091553248465061188e-02 3.527285903692245483e-02 -5.463722720742225647e-02 -5.213339626789093018e-02 4.561240971088409424e-02 -4.119934886693954468e-02 -2.246097661554813385e-02 -1.925799250602722168e-02 -1.785236224532127380e-02 4.054293408989906311e-02 -1.147452462464570999e-02 -4.193770885467529297e-02 -5.936979129910469055e-02 -4.472751170396804810e-02 9.931356908055022359e-05 4.349257051944732666e-02 2.808528952300548553e-02 2.877004072070121765e-02 -4.660712927579879761e-02 4.222191870212554932e-02 -2.428759587928652763e-03 -4.170218482613563538e-03 4.295952245593070984e-02 -5.908177793025970459e-02 -3.902006149291992188e-02 -6.043165922164916992e-02 -4.310902208089828491e-02 -2.707669511437416077e-02 6.116674747318029404e-03 6.035511195659637451e-02 3.363828361034393311e-02 -3.548382967710494995e-02 -2.989837527275085449e-02 3.602792695164680481e-02 9.295268682762980461e-04 -1.570879295468330383e-02 -1.546263135969638824e-02 -9.100569412112236023e-03 -5.836524441838264465e-02 3.323858231306076050e-02 2.998882718384265900e-02 -3.465495631098747253e-02 3.768980130553245544e-02 2.451941603794693947e-03 -1.212798058986663818e-02 2.928968146443367004e-02 -5.105823650956153870e-02 -4.489761218428611755e-02 1.309687551110982895e-02 -1.572106406092643738e-02 -6.683835387229919434e-02 -4.944442957639694214e-02 -3.617102652788162231e-02 2.379292622208595276e-02 3.930774983018636703e-04 -3.615674003958702087e-02 2.868228033185005188e-02 -2.127845957875251770e-02 3.199528902769088745e-02 4.608761053532361984e-03 3.647714108228683472e-02 1.968776620924472809e-02 -6.802237033843994141e-02 5.723575875163078308e-02 1.623276062309741974e-02 -2.119927434250712395e-03 -5.096749961376190186e-02 -2.029385650530457497e-03 7.033545523881912231e-02 2.679431252181529999e-02 -1.619398035109043121e-02 4.431943967938423157e-02 -4.520944133400917053e-02 7.274792995303869247e-03 1.161690894514322281e-02 -5.154230445623397827e-02 -4.006700962781906128e-02 -2.265914157032966614e-02 -3.260402008891105652e-02 2.493853867053985596e-02 -3.489036345854401588e-03 -1.650081016123294830e-02 2.042754366993904114e-02 -2.649817382916808128e-03 -1.103760767728090286e-02 -6.583801470696926117e-03 -2.919864095747470856e-02 3.250143676996231079e-02 -6.176687777042388916e-02 -2.421417832374572754e-02 -3.499035909771919250e-02 -4.298095405101776123e-02 6.082998123019933701e-03 -1.027211640030145645e-02 3.766085952520370483e-02 1.559006236493587494e-02 4.960720613598823547e-02 6.079327780753374100e-03 3.201800212264060974e-02 4.679287597537040710e-02 4.932665452361106873e-02 4.288158565759658813e-02 1.267383340746164322e-03 -4.715007543563842773e-02 2.980404160916805267e-02 -6.358247250318527222e-03 1.313406694680452347e-02 2.534532221034169197e-03 -6.159724295139312744e-02 3.305580094456672668e-02 -2.675583586096763611e-02 -6.440637260675430298e-02 -1.069434825330972672e-02 -3.320778533816337585e-02 -1.976849511265754700e-02 3.155857697129249573e-02 -2.601631358265876770e-02 -3.162849321961402893e-02 3.636222705245018005e-02 1.169979572296142578e-02 4.399587959051132202e-02 2.042767032980918884e-02 -5.176948010921478271e-02 -2.457671239972114563e-02 -3.334980923682451248e-03 -4.375700373202562332e-03 -6.717126816511154175e-02 8.130877278745174408e-03 -5.002501979470252991e-02 -7.678125984966754913e-03 -2.300644293427467346e-02 5.337467417120933533e-03 6.221024692058563232e-02 4.356353357434272766e-02 3.034170344471931458e-02 4.706806968897581100e-03 -3.627536818385124207e-02 -3.429732471704483032e-02 5.268077924847602844e-02 -6.164203584194183350e-02 -4.296635091304779053e-02 3.987682983279228210e-02 -6.289535760879516602e-02 -7.153459638357162476e-02 1.963142864406108856e-02 -4.039790481328964233e-02 1.795012503862380981e-02 -6.484996993094682693e-03 -3.051731362938880920e-02 4.590755701065063477e-02 -1.083802059292793274e-02 -5.438378080725669861e-02 7.793208584189414978e-03 -1.402471587061882019e-02 2.446330524981021881e-02 4.646130278706550598e-02 1.376906689256429672e-02 -4.279202781617641449e-03 4.339361563324928284e-02 1.547684520483016968e-02 1.714305020868778229e-03 -6.579192355275154114e-03 -6.206532940268516541e-02 3.208079934120178223e-02 2.903700992465019226e-02 5.200878251343965530e-03 -7.914970628917217255e-03 4.770067171193659306e-04 -4.857736453413963318e-02 -3.472108393907546997e-02 6.736368406563997269e-03 5.295477434992790222e-02 -1.292531937360763550e-02 1.975025795400142670e-02 8.088071830570697784e-03 5.513406172394752502e-02 2.605191431939601898e-02 -1.022532116621732712e-02 -4.564643371850252151e-03 4.131357371807098389e-02 -1.483790297061204910e-02 2.680622972548007965e-03 -3.142696619033813477e-02 3.627019748091697693e-02 -4.970861971378326416e-02 -2.567419409751892090e-02 -2.949511446058750153e-02 3.333865106105804443e-02 -1.524959784001111984e-02 1.407051365822553635e-02 9.225745685398578644e-03 -5.280374363064765930e-02 -2.962475828826427460e-02 6.013377383351325989e-02 -1.370410528033971786e-02 6.188466772437095642e-02 -1.978227868676185608e-02 4.758322983980178833e-02 -6.425499450415372849e-03 -7.962248288094997406e-03 -3.955895453691482544e-02 -4.052828997373580933e-02 -1.313071511685848236e-02 -5.450046155601739883e-03 -9.693212807178497314e-03 5.159414559602737427e-02 -4.881632328033447266e-02 -3.307668119668960571e-02 4.882448539137840271e-02 5.648300424218177795e-02 -5.391920357942581177e-02 6.533213704824447632e-02 -2.410536073148250580e-02 -5.073031783103942871e-02 6.635420024394989014e-02 1.105011813342571259e-02 -1.756531186401844025e-02 -2.568857371807098389e-02 5.713486112654209137e-03
-3.877074271440505981e-02 -3.623483702540397644e-02 -4.109379276633262634e-02 9.538504295051097870e-03 1.543205138295888901e-02 5.735244229435920715e-02 -4.603145644068717957e-02 -3.872881084680557251e-02 1.887385360896587372e-02 -8.765304461121559143e-03 3.301243111491203308e-02 3.066039644181728363e-03 -3.719632700085639954e-02 5.234263092279434204e-02 -6.573553383350372314e-02 -3.284081816673278809e-02 -5.675406754016876221e-02 4.136300459504127502e-02 5.232419073581695557e-02 -6.268767267465591431e-02 -2.873548120260238647e-02 -4.458191618323326111e-02 -6.804975122213363647e-02 -3.311266005039215088e-02 -1.837655715644359589e-02 -5.098982527852058411e-02 3.225522115826606750e-02 3.757879137992858887e-02 -2.602944709360599518e-02 1.905518001876771450e-04 -3.260886669158935547e-02 4.420594498515129089e-02 -9.268033318221569061e-03 2.740146219730377197e-02 3.816916421055793762e-02 4.371481761336326599e-02 7.948816567659378052e-02 -3.986414894461631775e-02 2.591556310653686523e-02 -2.828700095415115356e-02 -6.446374952793121338e-02 4.861011728644371033e-02 -1.655457913875579834e-02 -4.835411533713340759e-02 -2.412986196577548981e-02 -6.589952856302261353e-02 6.650085002183914185e-02 -4.403017833828926086e-02 4.372002556920051575e-02 -1.326842978596687317e-02 2.113553136587142944e-02 1.952822878956794739e-02 3.153859451413154602e-02 -2.504415065050125122e-02 4.711154848337173462e-02 -4.053751472383737564e-03 4.800127819180488586e-02 -5.377459526062011719e-02 -1.120695960707962513e-03 4.835542663931846619e-02 3.539697825908660889e-02 5.327670276165008545e-02 2.095245569944381714e-02 4.935291782021522522e-02 -3.429799526929855347e-02 -7.248014956712722778e-02 -2.949587069451808929e-02 3.451328352093696594e-02 -1.167708542197942734e-02 -2.320024371147155762e-02 -1.952194957993924618e-03 2.101210877299308777e-02 1.539041008800268173e-02 -2.026282250881195068e-02 2.541118673980236053e-02 -2.534524537622928619e-02 4.265568032860755920e-02 -5.353893712162971497e-02 5.067121610045433044e-02 -1.923006027936935425e-02 1.797105371952056885e-02 -1.681799814105033875e-02 -1.373430248349905014e-02 -1.219275314360857010e-02 -3.331760689616203308e-02 -2.211456745862960815e-02 2.152655832469463348e-02 -2.227999642491340637e-02 -5.115658789873123169e-02 8.068461902439594269e-03 5.054803565144538879e-02 -3.370934352278709412e-02 -4.964624065905809402e-03 4.956034570932388306e-02 -2.800742629915475845e-03 3.882433846592903137e-02 1.276595611125230789e-02 -5.677923187613487244e-02 2.418968267738819122e-02 -1.310347579419612885e-02 -4.141047596931457520e-02 4.041698947548866272e-02 2.115438506007194519e-02 5.352887674234807491e-04 -4.440505802631378174e-02 -9.648171253502368927e-04 -2.955606766045093536e-02 3.550457954406738281e-02 -2.564953081309795380e-02 -3.517419472336769104e-02 -2.912671479862183332e-04 1.573657430708408356e-02 -7.076035719364881516e-03 -2.995540760457515717e-02 1.942964084446430206e-02 2.427330054342746735e-02 -4.006914421916007996e-02 6.042822822928428650e-02 2.846146747469902039e-02 -3.245703503489494324e-02 3.627504780888557434e-02 -1.693582162261009216e-02 2.113676257431507111e-02 -5.899129807949066162e-02 -3.055182099342346191e-02 3.231481090188026428e-02 -4.052361845970153809e-02 -1.899014040827751160e-02 3.486448526382446289e-02 6.427567452192306519e-02 5.515836179256439209e-02 4.367069900035858154e-02 -4.415599256753921509e-02 -3.378198249265551567e-03 4.305997118353843689e-02 7.781608495861291885e-03 -3.835594654083251953e-02 -3.744833171367645264e-02 1.637287996709346771e-02 4.264613986015319824e-02 5.389030277729034424e-02 3.744658827781677246e-02 -5.588192865252494812e-02 -3.048286400735378265e-02 1.685990719124674797e-03 3.377867164090275764e-03 5.002764239907264709e-02 4.994040355086326599e-02 -4.627341404557228088e-02 -6.358109414577484131e-02 2.834207564592361450e-02 -1.898613013327121735e-02 5.878024175763130188e-02 -4.901995509862899780e-02 -8.117932826280593872e-03 3.996742144227027893e-02 -4.956415668129920959e-02 -8.769165724515914917e-03 5.245803669095039368e-02 2.458769455552101135e-02 4.986047744750976562e-02 -8.559590205550193787e-03 3.189921379089355469e-02 -8.093133568763732910e-03 3.328522294759750366e-02 1.729126088321208954e-02 -1.454092748463153839e-02 -6.838844716548919678e-02 1.288200914859771729e-02 -5.282077193260192871e-02 -3.749566897749900818e-02 -3.840293362736701965e-02 -6.631147861480712891e-02 2.933571115136146545e-02 4.595717415213584900e-03 4.452039301395416260e-02 -2.210767194628715515e-02 -3.028772212564945221e-02 2.740957960486412048e-02 -3.668589144945144653e-02 1.181537564843893051e-02 -5.564137920737266541e-02 -2.242081239819526672e-02 4.412566125392913818e-02 -4.672020673751831055e-02 -4.104247689247131348e-02 3.173590451478958130e-02 6.253754720091819763e-03 1.080379728227853775e-02 -5.175057798624038696e-03 4.277499392628669739e-02 3.600246459245681763e-02 -5.159233510494232178e-02 2.483791112899780273e-02 -5.176890641450881958e-02 -5.172933265566825867e-02 7.294607348740100861e-03 1.344333682209253311e-02 -1.397190336138010025e-02 -1.402737013995647430e-02 1.035148929804563522e-02 2.114795381203293800e-03 -4.254926741123199463e-02 -6.002184003591537476e-03 -6.427057087421417236e-02 1.940936781466007233e-02 -7.332237437367439270e-03 -9.040961973369121552e-03 8.423175662755966187e-03 -4.879363346844911575e-03 1.511491602286696434e-03 -5.602705478668212891e-02 -3.369629383087158203e-02 4.979315027594566345e-02 1.467545703053474426e-02 -4.302568733692169189e-02 -3.604847937822341919e-02 3.071613423526287079e-02 5.110637843608856201e-02 1.011251099407672882e-02 7.336185313761234283e-03 3.611788153648376465e-02 -5.786261055618524551e-03 4.592240601778030396e-02 -3.225508332252502441e-02 -6.690208800137042999e-03 6.371713429689407349e-02 -2.873930148780345917e-02 4.347426444292068481e-02 -3.091927804052829742e-02 -2.043205872178077698e-02 5.787447560578584671e-03 4.150816425681114197e-02 -7.305750995874404907e-02 -2.775653731077909470e-03 1.034135092049837112e-02 4.850551858544349670e-02 -2.052463963627815247e-02 -6.067035347223281860e-02 -4.913888126611709595e-02 -5.974721908569335938e-02 3.929417580366134644e-02 5.295826494693756104e-02 -1.548461709171533585e-02 -1.047470234334468842e-02 2.135650254786014557e-02 -6.092857569456100464e-02 -1.731874048709869385e-02 7.361398637294769287e-02 -4.444383829832077026e-02 5.316942185163497925e-02 5.197417736053466797e-02 2.273057401180267334e-02 3.681099042296409607e-02 9.197022882290184498e-04 -4.153416492044925690e-03
-2.072351053357124329e-02 -1.027399953454732895e-02 -4.213467240333557129e-02 2.539256401360034943e-02 -1.650890894234180450e-02 -5.973963066935539246e-02 5.908070877194404602e-02 -3.099429607391357422e-02 5.046458914875984192e-02 -6.015454418957233429e-03 3.853661939501762390e-02 2.371224202215671539e-02 -5.980751290917396545e-02 2.889855578541755676e-02 2.345163002610206604e-02 1.723924651741981506e-02 -2.385105565190315247e-02 -4.227010533213615417e-02 5.246297642588615417e-02 1.239618379622697830e-02 -4.038235545158386230e-02 -5.381377413868904114e-02 -5.583164165727794170e-04 3.453385084867477417e-02 3.428371250629425049e-02 -3.733113035559654236e-02 6.741910427808761597e-02 -3.041499480605125427e-02 -4.128158465027809143e-02 4.554445296525955200e-02 -5.132325459271669388e-03 -3.103970363736152649e-02 -1.803325302898883820e-02 3.746584802865982056e-02 -1.824627257883548737e-02 -2.014721371233463287e-02 3.907638043165206909e-02 -1.915364409796893597e-03 1.746203750371932983e-03 4.607587121427059174e-03 7.162875030189752579e-03 1.611536554992198944e-02 -5.310364067554473877e-02 5.498658865690231323e-02 -3.205233812332153320e-02 -1.705757901072502136e-02 4.748106375336647034e-02 2.700749225914478302e-02 -3.549318760633468628e-03 -5.475709214806556702e-02 1.190479961223900318e-03 7.360802590847015381e-02 -3.568462282419204712e-02 7.568144239485263824e-03 3.534742444753646851e-02 -5.952855572104454041e-02 7.275207340717315674e-02 4.456053301692008972e-02 6.331455707550048828e-02 -1.717499457299709320e-02 -4.486326873302459717e-02 4.502837546169757843e-03 5.728736147284507751e-02 -4.370228573679924011e-02 1.723357848823070526e-02 -3.703130781650543213e-02 -5.544237419962882996e-02 -6.504104286432266235e-02 -5.533887445926666260e-02 3.637370094656944275e-02 -5.301165580749511719e-02 2.498214319348335266e-02 -4.381657019257545471e-02 -6.211582198739051819e-02 -7.954748347401618958e-03 -8.069331757724285126e-03 2.225043484941124916e-03 1.944288145750761032e-03 2.588304318487644196e-02 -7.343968842178583145e-03 -1.328101661056280136e-02 6.157353892922401428e-02 1.431106496602296829e-02 -3.806702792644500732e-02 6.888297945261001587e-02 2.348007075488567352e-02 3.568981960415840149e-02 4.109636321663856506e-02 -1.527393143624067307e-02 -2.240305021405220032e-02 6.976954638957977295e-03 5.564833432435989380e-02 1.893353834748268127e-02 3.140357136726379395e-02 1.255044434219598770e-02 1.875298842787742615e-02 -1.743768341839313507e-02 -1.055149082094430923e-02 9.951359592378139496e-03 1.356467418372631073e-02 -3.555679321289062500e-02 5.426105856895446777e-02 6.549056619405746460e-02 -4.044492170214653015e-02 1.990278251469135284e-02 -5.167030170559883118e-02 3.384093195199966431e-02 4.836660623550415039e-02 -1.199386082589626312e-02 3.146201744675636292e-02 -5.941755697131156921e-02 -2.664962969720363617e-02 -7.997059263288974762e-03 -6.473140418529510498e-02 -1.020788215100765228e-02 4.750558361411094666e-02 5.110265314579010010e-02 -5.399886891245841980e-02 5.953353643417358398e-02 5.627075675874948502e-03 -1.329421717673540115e-02 -2.543955296277999878e-02 -4.223420470952987671e-02 -4.719022661447525024e-02 3.817248856648802757e-03 -5.633421614766120911e-02 1.660905964672565460e-02 1.471688132733106613e-02 -3.091526031494140625e-02 -3.158271312713623047e-02 4.195642098784446716e-02 -5.333289131522178650e-02 -3.011220693588256836e-02 -9.643256664276123047e-03 1.215265318751335144e-02 -3.956136479973793030e-02 -2.320273779332637787e-02 -1.275790855288505554e-03 5.883312597870826721e-02 5.784929543733596802e-02 -5.767067149281501770e-02 -4.543378949165344238e-02 -3.599401190876960754e-02 2.976163104176521301e-02 -4.001411423087120056e-02 1.238595694303512573e-02 3.989578038454055786e-02 9.479773230850696564e-03 -3.892754018306732178e-02 1.043083984404802322e-02 3.131723776459693909e-02 1.642384007573127747e-02 3.712353855371475220e-02 -8.269667159765958786e-04 -2.083973214030265808e-02 -2.538926666602492332e-03 -5.564511939883232117e-02 5.462300404906272888e-02 4.053032025694847107e-02 -4.817797988653182983e-02 4.816162213683128357e-02 2.930036745965480804e-02 5.782535672187805176e-02 -6.408608704805374146e-02 4.664465785026550293e-02 2.478433889336884022e-04 4.616460297256708145e-03 -5.864370148628950119e-03 3.044199757277965546e-02 1.855581998825073242e-02 1.927926763892173767e-02 -3.896045684814453125e-02 -6.417255103588104248e-02 -5.472936853766441345e-02 -3.559492528438568115e-02 -1.117261475883424282e-03 -2.737914957106113434e-02 5.754366517066955566e-03 5.037232115864753723e-02 -6.179564073681831360e-02 -4.749180004000663757e-02 4.998319968581199646e-02 -4.390712082386016846e-02 -5.136727541685104370e-02 8.204768411815166473e-03 2.533343248069286346e-02 -5.961621180176734924e-02 -1.130531821399927139e-02 4.635916650295257568e-02 2.725178189575672150e-02 -4.805208370089530945e-02 4.607322067022323608e-02 -1.054412126541137695e-02 1.586523838341236115e-02 -1.195390615612268448e-02 1.685489155352115631e-02 -5.006070435047149658e-02 8.027801290154457092e-03 -3.725683200173079967e-04 -3.279171511530876160e-02 -2.415283396840095520e-02 -5.603163037449121475e-03 2.051479183137416840e-02 -1.997310481965541840e-02 9.760363027453422546e-03 6.635738164186477661e-02 -1.948525570333003998e-02 -3.741569072008132935e-02 -5.719340592622756958e-02 -4.420808702707290649e-02 -4.664418473839759827e-02 5.517855286598205566e-02 -4.600802063941955566e-02 6.140122190117835999e-03 -1.687848567962646484e-02 3.072326444089412689e-02 4.807847365736961365e-02 1.574722491204738617e-02 3.793395310640335083e-02 -5.295709520578384399e-02 -3.378102183341979980e-02 4.578158259391784668e-02 3.263270109891891479e-02 -4.314954206347465515e-02 -1.149532292038202286e-02 -6.245299056172370911e-02 2.961960062384605408e-02 2.712318906560540199e-03 2.259957976639270782e-02 3.189521282911300659e-02 1.684668473899364471e-02 -1.140882726758718491e-02 3.614613041281700134e-02 1.955040171742439270e-02 5.418426916003227234e-02 -4.678604751825332642e-02 3.087873803451657295e-03 6.032530590891838074e-02 -8.132771588861942291e-03 5.852961912751197815e-02 -3.442204743623733521e-02 8.833154104650020599e-03 5.831890553236007690e-02 -5.737327411770820618e-02 -6.004225462675094604e-03 2.337923645973205566e-02 4.195049405097961426e-02 -3.069229796528816223e-02 -2.766434289515018463e-02 2.599849738180637360e-02 -5.526208877563476562e-02 -6.401590257883071899e-02 5.753810703754425049e-02 -5.474314838647842407e-02 -2.890865504741668701e-02 -3.361744806170463562e-02
-3.735494986176490784e-02 3.980192821472883224e-03 -2.018338814377784729e-02 -3.223259001970291138e-02 -4.994133859872817993e-02 -3.533389419317245483e-02 -1.233233138918876648e-02 -3.172314912080764771e-02 -6.561592221260070801e-02 3.582743555307388306e-02 2.967610396444797516e-02 2.838140539824962616e-02 -6.840221583843231201e-02 3.969300538301467896e-02 1.236205734312534332e-02 4.076969996094703674e-02 -2.862596139311790466e-02 -1.106449775397777557e-02 1.214282121509313583e-02 1.738660968840122223e-02 3.348087146878242493e-02 -1.364660263061523438e-02 7.870575413107872009e-03 3.471837937831878662e-02 1.980276964604854584e-02 1.781262829899787903e-02 4.486346244812011719e-02 9.910044027492403984e-04 1.065149717032909393e-02 -3.917370736598968506e-02 2.755484892986714840e-04 -1.747356168925762177e-02 -5.203320458531379700e-02 -2.341345697641372681e-02 -3.680415824055671692e-02 2.092732302844524384e-02 -4.051382839679718018e-02 -5.716955289244651794e-02 -5.019497126340866089e-02 1.056688837707042694e-02 -1.316408440470695496e-02 1.001732703298330307e-02 -9.960015304386615753e-03 -3.070219047367572784e-02 -5.588717013597488403e-02 -2.135646156966686249e-02 -3.095339052379131317e-02 1.857124455273151398e-02 4.525746032595634460e-02 -4.056617990136146545e-02 -3.520334139466285706e-02 4.953039810061454773e-02 -5.174429714679718018e-02 1.687969639897346497e-02 1.379499025642871857e-02 -2.643373049795627594e-02 1.768986694514751434e-02 -5.155415460467338562e-02 -1.566655933856964111e-02 -2.723553217947483063e-03 2.823792956769466400e-02 -3.927686810493469238e-02 4.270288720726966858e-02 5.904971435666084290e-02 -2.757497690618038177e-02 -2.743072621524333954e-02 3.196430043317377567e-04 6.243140995502471924e-02 5.071831401437520981e-03 -5.599750671535730362e-03 4.502322897315025330e-02 -6.725728162564337254e-04 -1.635611988604068756e-02 4.210888873785734177e-04 -3.350257501006126404e-02 -5.282223224639892578e-02 6.119832023978233337e-02 1.289108116179704666e-02 -6.326873600482940674e-02 5.679423920810222626e-03 6.615411490201950073e-02 -6.435149163007736206e-02 5.401688441634178162e-02 1.884346455335617065e-02 3.563228622078895569e-02 -5.640033632516860962e-02 4.264524579048156738e-02 4.386377707123756409e-02 -5.005435273051261902e-02 4.097277671098709106e-02 8.560915477573871613e-03 -1.605456322431564331e-02 -1.491185836493968964e-02 -1.519667450338602066e-02 -3.484673798084259033e-02 -4.756399616599082947e-02 -2.009042538702487946e-02 1.267167180776596069e-02 -3.988407552242279053e-02 1.250088121742010117e-02 -1.388712506741285324e-02 -3.531300649046897888e-02 1.480107288807630539e-02 -3.577803075313568115e-02 -3.260373696684837341e-02 3.882072120904922485e-02 1.866873353719711304e-02 -3.166650421917438507e-03 4.437933862209320068e-02 -1.692150835879147053e-03 -3.064952231943607330e-02 6.134981662034988403e-02 -1.531212590634822845e-02 7.302778214216232300e-02 4.158750176429748535e-02 -2.149342186748981476e-02 1.075873430818319321e-02 4.881704971194267273e-02 -5.730951949954032898e-02 -5.670029297471046448e-02 -1.436331961303949356e-02 2.973097609356045723e-03 1.512460410594940186e-02 -3.074471838772296906e-02 -1.952597685158252716e-02 3.026602976024150848e-02 -1.477801147848367691e-02 1.236912794411182404e-02 -8.324567228555679321e-03 -2.349772723391652107e-03 -5.267124623060226440e-02 -2.172227203845977783e-02 4.205621033906936646e-02 1.547387614846229553e-02 3.457449376583099365e-02 -1.773604564368724823e-02 -4.529942572116851807e-02 -2.013339288532733917e-02 1.558832358568906784e-02 9.919396601617336273e-03 2.219914644956588745e-02 5.099087581038475037e-02 -3.842484205961227417e-02 5.452302843332290649e-02 -8.853778243064880371e-03 2.855463139712810516e-02 -6.185542047023773193e-02 1.189436390995979309e-02 3.894463926553726196e-02 -1.172994496300816536e-03 -7.044589146971702576e-03 -3.650524094700813293e-02 -5.451999977231025696e-02 4.634597525000572205e-02 1.280654408037662506e-02 7.693077437579631805e-03 -2.970066852867603302e-02 6.548054516315460205e-02 1.933079212903976440e-02 -5.113313719630241394e-02 -5.233768746256828308e-02 -4.891849681735038757e-02 4.028112441301345825e-02 1.726458407938480377e-02 1.310465019196271896e-02 -2.808805741369724274e-02 -4.933165013790130615e-02 6.177793815732002258e-02 6.152511108666658401e-03 2.162527106702327728e-02 -4.727758467197418213e-02 6.686720252037048340e-02 5.407936871051788330e-02 5.085287615656852722e-02 7.319057825952768326e-03 2.920027077198028564e-02 -5.199116840958595276e-02 2.474008500576019287e-02 -2.189785428345203400e-02 4.638024792075157166e-02 5.104130133986473083e-02 -3.462118329480290413e-03 1.353687420487403870e-02 -5.601243302226066589e-02 3.524419665336608887e-02 -3.619569540023803711e-02 6.252636760473251343e-02 3.564400970935821533e-02 -3.712977049872279167e-03 2.737209387123584747e-02 -3.391317324712872505e-03 -4.501453414559364319e-02 -1.522042416036128998e-02 5.224648490548133850e-02 1.875438727438449860e-02 -5.236046761274337769e-02 -5.757922306656837463e-02 -1.677957922220230103e-02 -2.119016274809837341e-02 -2.962926588952541351e-02 -4.327663779258728027e-02 -5.173929780721664429e-02 -1.096479222178459167e-02 2.014998719096183777e-02 6.194024905562400818e-02 1.896268874406814575e-02 4.959267750382423401e-02 -3.749896958470344543e-02 5.577744916081428528e-02 2.561449259519577026e-02 -2.532402053475379944e-02 -3.164261206984519958e-02 5.248070880770683289e-02 5.665599554777145386e-02 1.046599820256233215e-02 -2.002308331429958344e-02 -4.375954717397689819e-02 -4.479703307151794434e-02 -3.553594229742884636e-03 3.084386885166168213e-02 -3.468541800975799561e-02 -4.734849557280540466e-02 -4.949044808745384216e-02 -8.678975515067577362e-03 -4.437862336635589600e-02 -4.019816592335700989e-02 -3.564143180847167969e-02 -1.632574759423732758e-02 2.726064063608646393e-02 3.572725132107734680e-02 4.159870371222496033e-02 2.231444604694843292e-02 3.829551860690116882e-02 2.512921020388603210e-02 -3.391610458493232727e-02 4.792242124676704407e-02 2.053476870059967041e-02 -1.500235497951507568e-02 4.240115359425544739e-02 3.843697533011436462e-02 3.495980799198150635e-02 -2.263242006301879883e-02 -2.023291215300559998e-02 -1.618052087724208832e-02 -8.746567182242870331e-03 4.824373405426740646e-03 -5.097961798310279846e-02 3.873381018638610840e-02 2.067832276225090027e-02 -3.306379541754722595e-02 -5.491425469517707825e-02 -5.258494988083839417e-02 -5.070077255368232727e-02 2.560993656516075134e-03 4.298180714249610901e-02 5.067998077720403671e-03
2.415485866367816925e-02 -5.195963894948363304e-04 -3.565503656864166260e-02 -4.693270102143287659e-02 2.314402349293231964e-02 -5.018455162644386292e-02 2.889645099639892578e-02 -4.649428650736808777e-02 6.713708862662315369e-03 -4.523897171020507812e-02 -4.059525951743125916e-02 -5.349496006965637207e-02 6.159361079335212708e-02 -5.276554822921752930e-02 2.489483170211315155e-02 -4.219319671392440796e-02 -1.937643066048622131e-02 -9.378718212246894836e-03 -3.189310058951377869e-02 2.388188801705837250e-02 2.345710247755050659e-02 3.340028971433639526e-02 -5.169250071048736572e-02 -5.923760589212179184e-03 6.072511523962020874e-02 6.968029774725437164e-03 -2.004624344408512115e-02 6.133686006069183350e-02 -4.900141805410385132e-02 6.533154100179672241e-02 -4.016570374369621277e-02 2.641387656331062317e-02 -6.247436255216598511e-02 -4.863012954592704773e-02 -1.602149941027164459e-02 1.446144841611385345e-02 -4.674909263849258423e-02 4.722788184881210327e-02 3.353368118405342102e-02 3.420973569154739380e-02 5.356616154313087463e-02 -1.065951026976108551e-02 -5.058036372065544128e-02 2.729652076959609985e-02 -2.103447355329990387e-02 4.563349112868309021e-02 -4.289937764406204224e-02 -1.508158072829246521e-02 8.010482415556907654e-03 -4.166145995259284973e-02 -6.753278896212577820e-03 4.309602454304695129e-02 1.876558177173137665e-02 4.575580358505249023e-02 2.393713919445872307e-03 -6.019563227891921997e-02 6.541428714990615845e-02 1.248714234679937363e-02 -1.095100585371255875e-02 -3.494494780898094177e-02 6.616150587797164917e-02 4.665120691061019897e-02 -2.801931649446487427e-02 -5.325113609433174133e-02 -5.454816389828920364e-03 -3.619538620114326477e-02 1.401629950851202011e-02 -4.464197903871536255e-03 -6.253244820982217789e-03 -2.360294747631996870e-04 5.930949747562408447e-02 -2.502993680536746979e-02 -7.891277782618999481e-03 -1.937151327729225159e-02 -2.881423383951187134e-02 9.764993563294410706e-03 4.652370885014533997e-02 2.163437753915786743e-02 -4.181281849741935730e-02 3.230810910463333130e-02 -2.212440408766269684e-02 -2.978043258190155029e-02 1.601132750511169434e-02 1.605419069528579712e-02 5.686758551746606827e-03 -3.982846811413764954e-02 -1.527351792901754379e-02 1.546327769756317139e-02 2.908033318817615509e-02 2.489046938717365265e-02 1.425548736006021500e-02 -3.572160378098487854e-02 -1.147484639659523964e-03 -3.787104040384292603e-03 8.617844432592391968e-03 -6.496098637580871582e-02 -2.424673177301883698e-02 6.273829843848943710e-03 3.279028460383415222e-02 1.990941353142261505e-02 -6.345392763614654541e-02 5.292050912976264954e-02 -4.102325066924095154e-02 1.087127253413200378e-02 -5.317609384655952454e-02 1.662136986851692200e-03 5.422457307577133179e-02 -1.029340270906686783e-02 -2.467399463057518005e-02 3.246480226516723633e-02 -5.966214835643768311e-02 -5.014010891318321228e-02 2.397368289530277252e-02 5.528913438320159912e-02 3.443023934960365295e-02 5.444268882274627686e-02 -7.674074731767177582e-03 -2.775857411324977875e-02 3.400166705250740051e-02 -1.576562225818634033e-02 5.876806378364562988e-02 3.643947467207908630e-02 -3.848109394311904907e-02 3.121807239949703217e-02 5.129082500934600830e-02 -3.653344511985778809e-02 -6.406015902757644653e-02 5.662312731146812439e-02 -4.895536601543426514e-02 -3.547371551394462585e-02 5.932997167110443115e-02 5.873030796647071838e-02 -3.885835409164428711e-02 5.166181921958923340e-02 2.189455740153789520e-02 2.033142186701297760e-02 1.199595630168914795e-02 -4.844301939010620117e-02 7.511797361075878143e-03 -4.710434004664421082e-02 -3.507257625460624695e-02 5.237943306565284729e-02 2.949153259396553040e-02 1.378976460546255112e-02 8.247981779277324677e-03 8.052075281739234924e-03 -6.012300774455070496e-02 -1.473932433873414993e-02 4.975793510675430298e-02 -2.507638745009899139e-02 8.164366008713841438e-04 -4.900385066866874695e-02 -4.980408400297164917e-02 -2.428536489605903625e-02 -5.462686344981193542e-02 -4.121946170926094055e-03 4.397805780172348022e-02 2.697635814547538757e-02 -2.167610824108123779e-02 3.052773512899875641e-02 1.063902396708726883e-03 1.143837720155715942e-02 3.441731631755828857e-02 -5.618618801236152649e-02 3.854044154286384583e-02 -1.642393693327903748e-02 3.190612187609076500e-03 -2.130414918065071106e-02 -5.538856610655784607e-03 5.905720219016075134e-02 5.400700122117996216e-02 -3.294417634606361389e-03 4.277709126472473145e-02 4.110843408852815628e-03 3.784467279911041260e-02 5.687458813190460205e-02 2.205838635563850403e-02 6.315025687217712402e-02 5.481674335896968842e-03 -4.025105014443397522e-02 2.441090159118175507e-02 5.249656364321708679e-02 4.851270839571952820e-02 -4.060530103743076324e-03 -1.608861796557903290e-02 -4.982722550630569458e-02 -1.260462030768394470e-02 2.063646912574768066e-02 -2.134823473170399666e-03 3.666782751679420471e-02 -5.484887212514877319e-02 6.612289231270551682e-03 -2.829009667038917542e-02 -5.161550641059875488e-02 -1.700544729828834534e-02 4.675780981779098511e-02 2.262873761355876923e-02 -4.684013873338699341e-02 1.696458784863352776e-03 -6.667281687259674072e-02 -1.747667230665683746e-02 -5.970679689198732376e-03 -6.014788057655096054e-03 4.224820062518119812e-02 4.623325541615486145e-02 1.415184419602155685e-02 -1.143724843859672546e-02 3.459658846259117126e-02 -4.478923231363296509e-02 6.056559458374977112e-02 -1.856290176510810852e-02 5.012198165059089661e-02 2.512762881815433502e-02 5.503603816032409668e-02 6.059907749295234680e-02 2.565915696322917938e-02 -4.421491920948028564e-02 3.677875921130180359e-02 -2.300897054374217987e-02 -4.989888519048690796e-02 -3.773934021592140198e-02 1.468890812247991562e-02 4.838595166802406311e-02 -4.461233317852020264e-02 2.508828043937683105e-02 -2.782310359179973602e-02 5.178107321262359619e-02 -2.570588327944278717e-02 2.579582855105400085e-03 -5.750981345772743225e-02 1.868415810167789459e-02 1.341826841235160828e-02 2.169182524085044861e-02 1.401237118989229202e-02 3.102334588766098022e-02 -3.316714242100715637e-02 5.657180398702621460e-02 -3.653867170214653015e-02 -4.637186229228973389e-02 -1.789626898244023323e-03 2.061239443719387054e-02 4.085504263639450073e-02 -1.230671256780624390e-02 1.587655162438750267e-03 -1.667522639036178589e-02 7.071264088153839111e-03 -6.323955208063125610e-02 -4.874392971396446228e-02 -4.950178554281592369e-04 -4.118331149220466614e-02 -2.222826890647411346e-02 -2.855611220002174377e-02 5.022141616791486740e-03 6.096126884222030640e-02 -3.548216819763183594e-02 -5.938911437988281250e-02
-5.348401889204978943e-02 -3.157624974846839905e-02 -4.958217218518257141e-02 -5.730802565813064575e-02 -8.786698803305625916e-03 -2.413212321698665619e-02 -1.650983095169067383e-02 3.785789012908935547e-02 -3.227385506033897400e-02 4.876251891255378723e-02 2.926427498459815979e-02 -6.039148569107055664e-02 2.884734235703945160e-02 5.123382434248924255e-02 -2.723596431314945221e-02 1.519606169313192368e-02 5.182687938213348389e-02 -1.647155918180942535e-02 3.934373706579208374e-02 -1.228444557636976242e-02 -1.114206202328205109e-02 4.340928047895431519e-02 1.778640039265155792e-02 1.536492910236120224e-02 3.095082379877567291e-02 -4.502314329147338867e-02 2.175514772534370422e-02 -1.609533093869686127e-02 -5.292832478880882263e-02 6.002977024763822556e-03 1.081822905689477921e-02 -3.528597205877304077e-02 -1.204502396285533905e-02 -4.961979575455188751e-03 -4.631969146430492401e-03 4.596753418445587158e-02 -2.579187229275703430e-02 5.063551664352416992e-02 1.436214521527290344e-02 1.913534849882125854e-02 3.244290128350257874e-02 4.258000291883945465e-03 -5.857633054256439209e-02 5.279494449496269226e-02 -5.641384795308113098e-02 -4.810775443911552429e-02 9.797115810215473175e-03 -4.735470563173294067e-02 2.866930142045021057e-02 -2.538961172103881836e-02 -4.458406567573547363e-02 5.491023510694503784e-02 -4.977088794112205505e-02 1.874025445431470871e-03 6.038187071681022644e-03 -3.841372905299067497e-03 -2.213230356574058533e-03 -2.465463802218437195e-02 1.006082631647586823e-02 -4.689320176839828491e-02 5.237478762865066528e-02 -4.217883199453353882e-02 -2.169606648385524750e-02 2.469277568161487579e-02 -6.523406505584716797e-02 2.610224764794111252e-03 -1.659070514142513275e-02 -6.102765724062919617e-02 -5.009479820728302002e-02 2.271198481321334839e-02 -3.669208660721778870e-02 -7.054679095745086670e-02 -5.622915923595428467e-02 -5.930221453309059143e-02 6.324958801269531250e-02 -4.173514246940612793e-02 4.682013764977455139e-02 8.141427679220214486e-05 -1.564872637391090393e-02 2.962747029960155487e-02 -1.404053065925836563e-02 -3.447040170431137085e-02 -3.994427621364593506e-02 -4.877915233373641968e-02 -1.344672776758670807e-02 -2.975546754896640778e-02 -6.421768665313720703e-02 -2.078184671700000763e-02 3.729125857353210449e-02 -1.407536026090383530e-02 2.364126592874526978e-02 -8.149598725140094757e-03 -1.570148766040802002e-02 2.019121870398521423e-02 -3.126913309097290039e-02 -4.461290687322616577e-02 3.595203161239624023e-02 -1.403297856450080872e-02 4.425471276044845581e-02 3.852419927716255188e-02 5.712916702032089233e-02 5.080812610685825348e-03 -5.654654814861714840e-04 3.598375618457794189e-02 3.439141437411308289e-03 -2.510197460651397705e-02 2.622973546385765076e-02 5.131049826741218567e-02 5.035287514328956604e-02 1.625452004373073578e-02 -2.415212430059909821e-02 -1.731689833104610443e-02 -1.879480294883251190e-02 3.890365734696388245e-02 -4.588735464494675398e-04 3.062833286821842194e-02 -5.019286647439002991e-02 6.025031954050064087e-02 -3.314127400517463684e-02 3.359472379088401794e-02 -5.572851002216339111e-02 -3.704166784882545471e-02 -9.467565454542636871e-03 4.345002770423889160e-02 6.204397603869438171e-02 -2.010993286967277527e-02 -9.764434769749641418e-03 -2.605585614219307899e-03 2.443896606564521790e-02 -4.919725283980369568e-02 -2.182094752788543701e-02 5.269202217459678650e-02 6.091981753706932068e-02 2.855941466987133026e-02 2.509420923888683319e-02 -2.806968800723552704e-02 -4.128678143024444580e-02 -4.428629577159881592e-02 5.055998638272285461e-02 2.934919670224189758e-02 6.707693636417388916e-02 -1.728633046150207520e-02 9.122861549258232117e-03 1.117103360593318939e-02 -7.620460353791713715e-03 -4.625916853547096252e-02 4.961154237389564514e-02 -3.905433914042077959e-06 -5.352221801877021790e-02 -1.601261086761951447e-02 3.602665383368730545e-03 2.860837243497371674e-02 4.391854628920555115e-02 -2.932164445519447327e-02 -4.414092749357223511e-02 2.711652219295501709e-02 -1.785519719123840332e-02 2.272307313978672028e-02 -3.751069307327270508e-02 1.592754945158958435e-02 4.227734729647636414e-02 -1.035235729068517685e-02 -1.967194490134716034e-02 -2.245792187750339508e-02 -4.795317351818084717e-02 -5.574985221028327942e-02 -6.678637862205505371e-02 -7.315906882286071777e-02 -8.459519594907760620e-03 4.153350740671157837e-02 3.497323766350746155e-02 1.089505571871995926e-02 -7.383707165718078613e-02 -3.817157819867134094e-02 -2.823084220290184021e-02 -4.647540301084518433e-02 -2.881634049117565155e-02 4.428778216242790222e-02 4.874566197395324707e-02 -5.661708861589431763e-02 -3.835294162854552269e-03 -1.629094779491424561e-02 -7.839180529117584229e-03 -1.915584132075309753e-02 3.198765218257904053e-02 4.563821479678153992e-02 1.930910535156726837e-02 -4.721822962164878845e-02 -2.101331390440464020e-02 -4.769923537969589233e-02 -5.652755126357078552e-02 1.680831611156463623e-02 -2.857243828475475311e-02 1.438267808407545090e-02 2.940552122890949249e-02 -5.024949833750724792e-02 2.200014190748333931e-03 6.349315494298934937e-02 2.128729037940502167e-02 3.801787644624710083e-02 -8.419685997068881989e-03 4.265411570668220520e-02 -2.840819582343101501e-02 4.037069529294967651e-02 2.726237522438168526e-03 -6.098466366529464722e-02 -4.599290341138839722e-02 -3.340348601341247559e-02 -5.925915902480483055e-04 -2.972896443679928780e-03 4.774678871035575867e-02 -5.946695432066917419e-02 5.269133672118186951e-02 2.442380227148532867e-02 4.615087807178497314e-02 4.395296424627304077e-02 3.576641157269477844e-02 3.304677456617355347e-02 6.438335403800010681e-03 -9.719149209558963776e-03 5.058368667960166931e-03 -2.470300905406475067e-02 2.324355999007821083e-03 2.256227843463420868e-02 3.576849028468132019e-02 4.897358641028404236e-02 4.485160857439041138e-02 -4.831646382808685303e-02 -7.325252890586853027e-02 1.326393918134272099e-03 -4.784605279564857483e-02 4.961779713630676270e-02 -4.739926755428314209e-02 -1.176086161285638809e-02 -6.260490417480468750e-02 2.333445847034454346e-02 -1.580380275845527649e-02 7.267991080880165100e-03 -2.285215817391872406e-02 3.759761527180671692e-02 -1.992756500840187073e-02 2.349940873682498932e-02 -5.512151867151260376e-02 -5.754946917295455933e-02 -2.009739167988300323e-02 6.224650423973798752e-03 -1.314779929816722870e-02 1.603970536962151527e-03 4.435998201370239258e-02 1.553676743060350418e-02 -3.433857485651969910e-02 -4.264690354466438293e-02 4.801282659173011780e-03 3.757177665829658508e-02 -6.059575080871582031e-02 -2.213841676712036133e-02
-1.483866665512323380e-02 7.841689512133598328e-03 -3.382720751687884331e-03 -2.239281125366687775e-02 2.673316746950149536e-02 8.432259201072156429e-04 -5.039228871464729309e-02 -3.069380111992359161e-02 4.365862905979156494e-02 -1.708705350756645203e-02 1.073088776320219040e-02 -3.604413196444511414e-02 2.760552428662776947e-02 -9.167825803160667419e-03 5.192524194717407227e-02 -5.315047129988670349e-02 -5.186039581894874573e-02 -3.051154129207134247e-02 -3.713053592946380377e-04 -4.698781669139862061e-02 -1.914934627711772919e-02 -2.024589292705059052e-02 -1.445910893380641937e-02 6.582637317478656769e-03 -3.582010790705680847e-02 -4.997432604432106018e-02 1.937207765877246857e-02 -2.766085788607597351e-02 -5.802040547132492065e-02 -5.259410478174686432e-03 3.940988332033157349e-03 -3.859395906329154968e-02 -7.886263728141784668e-02 -4.305733740329742432e-02 3.836784511804580688e-02 -5.115582793951034546e-02 5.890671536326408386e-02 8.043497800827026367e-03 -2.339217625558376312e-02 -3.263965249061584473e-02 1.986659504473209381e-02 -3.692726790904998779e-02 1.422610366716980934e-03 5.141281336545944214e-02 3.257580846548080444e-02 1.493746601045131683e-02 1.000450458377599716e-02 2.727248333394527435e-02 -2.709211222827434540e-02 5.633457377552986145e-02 -3.658151254057884216e-02 8.558862609788775444e-04 4.642048850655555725e-02 8.384833112359046936e-03 4.915363341569900513e-02 -2.462404221296310425e-02 2.069362963084131479e-04 -2.101138979196548462e-02 -4.343911260366439819e-02 3.202731534838676453e-02 -7.961167953908443451e-03 9.753609076142311096e-03 -1.801975816488265991e-02 4.283280298113822937e-02 6.327494978904724121e-03 -1.121635641902685165e-02 -8.802697062492370605e-03 4.697356745600700378e-02 1.998486369848251343e-02 2.071791794151067734e-03 1.213503908365964890e-02 2.392549626529216766e-02 -3.182373940944671631e-02 9.394475258886814117e-03 -3.697349131107330322e-02 -4.681092500686645508e-02 6.347671151161193848e-02 -5.589553713798522949e-02 2.615753747522830963e-02 2.350149909034371376e-03 1.044721156358718872e-02 2.088248915970325470e-02 -4.261577874422073364e-02 1.694982126355171204e-02 -2.677772007882595062e-02 2.031172858551144600e-03 1.285804621875286102e-02 6.382240355014801025e-02 -5.371037404984235764e-03 2.282310649752616882e-02 4.394697025418281555e-02 -1.507077738642692566e-02 -1.723726838827133179e-02 -4.082005470991134644e-02 2.008867636322975159e-02 -6.029492616653442383e-02 5.381628870964050293e-02 -5.931102856993675232e-02 -4.357556998729705811e-02 1.945938169956207275e-02 -1.862946152687072754e-02 -4.207688570022583008e-02 -5.231076851487159729e-02 6.613783072680234909e-03 -4.824609309434890747e-02 3.641703398898243904e-03 2.018961124122142792e-02 -4.237874597311019897e-02 -1.773577556014060974e-02 -4.655535519123077393e-02 -4.057684540748596191e-02 -9.207093156874179840e-03 4.019873589277267456e-02 5.770837143063545227e-02 3.762849420309066772e-02 -1.531506422907114029e-02 -2.529000118374824524e-02 -4.959223419427871704e-02 4.647130519151687622e-02 2.722145244479179382e-02 -7.241101562976837158e-02 2.540358155965805054e-02 -3.546893969178199768e-02 2.266247384250164032e-02 3.206806629896163940e-02 2.094487659633159637e-02 -4.153443500399589539e-02 -5.097828805446624756e-02 4.219056107103824615e-03 -2.509356848895549774e-02 -5.015993490815162659e-02 -5.984413251280784607e-02 -5.166000686585903168e-03 -6.863124668598175049e-02 -9.632955305278301239e-03 -2.955129370093345642e-02 4.088174551725387573e-02 4.580366611480712891e-02 8.255164138972759247e-03 3.103999607264995575e-02 -3.487573191523551941e-02 -4.920238256454467773e-02 -3.169305855408310890e-03 -3.983676433563232422e-02 -9.012467227876186371e-03 2.242469973862171173e-02 6.529465899802744389e-04 -3.569723293185234070e-02 -4.774279892444610596e-02 -4.326865449547767639e-02 4.365595057606697083e-02 3.402862697839736938e-02 3.884213790297508240e-02 2.221432141959667206e-02 6.696634739637374878e-02 -6.281778216361999512e-02 2.532603964209556580e-02 -1.563666760921478271e-02 1.947660557925701141e-02 4.666714370250701904e-02 3.501928597688674927e-02 3.483043611049652100e-02 -1.730273477733135223e-02 1.632888987660408020e-02 -5.023254454135894775e-02 2.719597518444061279e-02 -8.478430099785327911e-03 -1.197787467390298843e-02 4.512229934334754944e-02 5.222708731889724731e-02 -2.552253380417823792e-02 6.759200245141983032e-02 2.068557776510715485e-02 -6.074637919664382935e-02 -7.335962727665901184e-03 -5.646523460745811462e-02 7.879913784563541412e-03 -1.790237426757812500e-02 -1.747818849980831146e-02 -8.247826248407363892e-03 8.665177971124649048e-03 2.970444038510322571e-03 -4.675186052918434143e-02 2.541789039969444275e-02 -2.258588932454586029e-02 7.286344189196825027e-03 6.741239875555038452e-02 4.650567471981048584e-02 5.549988150596618652e-02 5.771977826952934265e-02 3.033455833792686462e-02 -3.142325580120086670e-02 -1.018464192748069763e-02 -2.881432510912418365e-02 4.392822086811065674e-02 2.158115245401859283e-02 -2.827282622456550598e-02 3.268680348992347717e-02 -6.365828961133956909e-02 -1.127514522522687912e-03 3.385658562183380127e-02 1.936760172247886658e-02 4.561161994934082031e-02 -5.204422399401664734e-02 1.169276237487792969e-02 1.850357092916965485e-02 1.350648980587720871e-02 -5.587843433022499084e-02 -4.765629023313522339e-02 -2.363008074462413788e-02 2.779303677380084991e-02 5.091149359941482544e-02 4.602926969528198242e-02 4.212749656289815903e-03 -3.919583931565284729e-02 3.975312784314155579e-02 -1.611063070595264435e-02 -1.660609245300292969e-02 -4.178643971681594849e-02 3.916367143392562866e-02 -2.299612388014793396e-02 -5.857463926076889038e-02 -2.819373086094856262e-02 -5.619888007640838623e-02 -5.662710219621658325e-02 -4.356254264712333679e-02 2.978751994669437408e-02 7.099358364939689636e-03 2.215867862105369568e-02 1.072579063475131989e-02 -3.221044316887855530e-02 5.601433664560317993e-02 -4.253450408577919006e-02 -5.222202837467193604e-02 1.160261593759059906e-02 4.053154587745666504e-02 -2.726013958454132080e-02 1.748226955533027649e-02 -3.609662875533103943e-02 5.705349147319793701e-02 -1.000461168587207794e-02 5.664891004562377930e-02 3.686429560184478760e-02 -1.508266851305961609e-02 1.238776312675327063e-04 1.559187751263380051e-02 -5.599362403154373169e-02 1.521239709109067917e-02 -1.937335915863513947e-02 -4.514748603105545044e-02 -4.725133255124092102e-02 -1.210272405296564102e-02 -4.197742417454719543e-02 5.298824235796928406e-02 3.759431838989257812e-02 4.226756095886230469e-02
-4.364182054996490479e-02 -4.014287889003753662e-02 5.150054395198822021e-02 3.133054822683334351e-02 1.677969843149185181e-02 -4.168931022286415100e-02 -2.315377257764339447e-02 -2.333937399089336395e-02 -7.371211051940917969e-02 -1.946754567325115204e-02 4.672098532319068909e-02 -5.418464168906211853e-02 -4.384263604879379272e-02 -3.138037398457527161e-02 -1.034664828330278397e-02 -6.331577897071838379e-02 3.754154965281486511e-02 3.451925143599510193e-02 -1.086472254246473312e-02 -5.462282523512840271e-02 -5.471397563815116882e-02 -4.779547452926635742e-02 6.056217104196548462e-02 8.584880270063877106e-03 1.806547516025602818e-03 -3.396563604474067688e-02 -1.032415498048067093e-02 -1.761557348072528839e-02 -7.829432375729084015e-03 7.188493013381958008e-02 1.732992194592952728e-02 -2.909788303077220917e-02 -8.995249867439270020e-03 -8.922231383621692657e-03 4.443113505840301514e-02 4.329542070627212524e-02 -2.495170943439006805e-02 -5.286586284637451172e-02 -3.880574367940425873e-03 -8.819130249321460724e-03 -5.868293717503547668e-02 6.085742264986038208e-03 -2.603549137711524963e-02 3.908649832010269165e-02 -4.239292815327644348e-02 3.054765111301094294e-04 -5.542989354580640793e-03 5.220972467213869095e-03 4.092945903539657593e-02 -3.768176957964897156e-02 -2.511744946241378784e-02 -6.471547484397888184e-02 1.532051619142293930e-02 2.939616329967975616e-02 -5.823279917240142822e-02 -1.750325225293636322e-02 -8.775186724960803986e-03 1.171357091516256332e-02 -1.372859464026987553e-03 -4.109260812401771545e-02 5.983147770166397095e-02 4.019297659397125244e-02 5.634299293160438538e-02 -2.417631447315216064e-02 3.312116116285324097e-02 1.660462468862533569e-02 -5.798257142305374146e-02 -4.981079697608947754e-02 -6.841199472546577454e-03 6.591334193944931030e-02 7.024506479501724243e-02 3.670327365398406982e-03 3.917140886187553406e-02 5.367900431156158447e-02 -2.057178504765033722e-02 -5.000835750252008438e-03 -1.728537958115339279e-03 1.628440804779529572e-02 -2.038678713142871857e-02 3.637394309043884277e-02 5.813302937895059586e-03 -3.462957218289375305e-02 -5.892955139279365540e-02 -4.759472981095314026e-02 1.064643077552318573e-02 1.586110144853591919e-02 9.288485161960124969e-03 8.710803231224417686e-04 4.608385637402534485e-02 4.298675805330276489e-02 -5.764663964509963989e-02 -4.132710024714469910e-02 2.809068933129310608e-02 -6.963789463043212891e-02 7.740352884866297245e-04 -5.707658082246780396e-02 -3.449408337473869324e-02 -2.067504450678825378e-02 -3.010660223662853241e-02 -5.599986016750335693e-02 2.374760247766971588e-02 -2.575628273189067841e-02 -4.691803082823753357e-02 -6.583686172962188721e-02 5.168599262833595276e-02 -6.211628392338752747e-02 -3.073723055422306061e-02 -4.829552024602890015e-02 -4.712588712573051453e-02 2.421849407255649567e-02 2.848144806921482086e-02 2.138039283454418182e-02 -2.790845744311809540e-02 5.459553003311157227e-02 -1.175065897405147552e-02 -2.802859805524349213e-02 7.282668258994817734e-03 3.910328075289726257e-02 3.535693511366844177e-02 1.653654500842094421e-02 -5.913668125867843628e-02 5.515411868691444397e-02 -5.009078606963157654e-02 -3.689015656709671021e-02 5.169998109340667725e-02 -3.067965246737003326e-02 -3.056648932397365570e-02 -5.051999539136886597e-02 -4.455855861306190491e-02 -2.393690124154090881e-02 1.543729379773139954e-02 -9.355808142572641373e-04 -8.321517962031066418e-04 2.542612701654434204e-02 1.372855063527822495e-02 -3.128829970955848694e-02 1.032566465437412262e-02 -6.731419358402490616e-03 -1.546732429414987564e-02 -5.221117287874221802e-03 -7.498742640018463135e-02 2.772417152300477028e-03 4.091790877282619476e-03 -4.844621941447257996e-02 -4.886716231703758240e-02 -1.252350397408008575e-02 4.014014080166816711e-02 -4.901517182588577271e-02 1.307101268321275711e-02 1.432385528460144997e-03 3.842619061470031738e-02 5.252088978886604309e-02 -5.967574566602706909e-02 2.947068028151988983e-02 2.223501726984977722e-02 -2.069617621600627899e-02 -3.112621977925300598e-02 5.575225222855806351e-03 -4.399955272674560547e-02 -1.480752695351839066e-02 3.228928521275520325e-02 -7.100706920027732849e-03 7.980144582688808441e-03 4.047436267137527466e-02 1.265065092593431473e-02 -5.667872726917266846e-03 -4.548709839582443237e-02 3.883332014083862305e-02 2.496558241546154022e-02 -1.721188984811306000e-02 5.589322745800018311e-02 -2.185257151722908020e-02 6.240243464708328247e-02 -5.590859800577163696e-02 3.640461713075637817e-02 -5.076887831091880798e-02 5.647536739706993103e-02 -3.087559714913368225e-02 -3.872375935316085815e-02 -1.647667773067951202e-02 -1.495396811515092850e-02 -4.555089399218559265e-02 1.880634576082229614e-02 -3.200527653098106384e-02 5.056688934564590454e-02 -6.384589523077011108e-02 -5.199595820158720016e-03 -2.651278302073478699e-02 4.977102857083082199e-03 -2.956657111644744873e-02 -9.783563204109668732e-03 -5.351956561207771301e-02 2.890902943909168243e-02 5.534666404128074646e-02 4.035839065909385681e-02 -7.670786231756210327e-03 9.914001449942588806e-03 -4.136996716260910034e-02 -3.724018810316920280e-03 3.138571511954069138e-03 -6.149081885814666748e-02 -4.146296903491020203e-02 3.325926885008811951e-02 5.954869091510772705e-02 5.897054448723793030e-02 5.070945248007774353e-02 1.700583845376968384e-02 -1.159051526337862015e-02 2.847793884575366974e-02 3.121238667517900467e-03 -6.449877750128507614e-03 6.681711226701736450e-02 3.534840419888496399e-02 4.006876423954963684e-02 2.409391850233078003e-02 4.875195026397705078e-02 3.225842863321304321e-02 -4.371286183595657349e-02 -3.409018507227301598e-03 -2.419433183968067169e-02 3.051307983696460724e-02 -2.646267414093017578e-02 -1.118650846183300018e-02 -3.944687545299530029e-02 2.997995726764202118e-02 2.360308356583118439e-02 4.274043813347816467e-02 5.972740054130554199e-02 -1.715941168367862701e-02 5.414708331227302551e-02 3.368477895855903625e-02 6.186833977699279785e-02 3.241802332922816277e-03 4.511762037873268127e-02 1.109614409506320953e-02 6.483671814203262329e-02 2.532478421926498413e-02 4.244636371731758118e-02 -4.422477632761001587e-02 8.826170116662979126e-03 6.882142275571823120e-02 -4.115229099988937378e-02 4.465713724493980408e-02 -3.179916739463806152e-02 -6.239734590053558350e-03 4.030954092741012573e-02 -3.629838116466999054e-03 -1.102625485509634018e-02 -6.523819267749786377e-02 3.364804014563560486e-02 2.662341110408306122e-02 -2.629729732871055603e-02 3.647914901375770569e-02 8.463926613330841064e-03 -2.608231455087661743e-02 -3.886170312762260437e-02
1.839323528110980988e-02 1.968136988580226898e-02 -2.342734485864639282e-02 -2.618331648409366608e-02 1.663716509938240051e-02 -5.899849161505699158e-02 -4.506070539355278015e-02 -2.325173653662204742e-02 -5.693693459033966064e-02 3.666793182492256165e-02 1.827576011419296265e-02 -6.836488097906112671e-02 3.475390374660491943e-02 -4.150957986712455750e-02 -2.272827364504337311e-02 -4.734934121370315552e-02 -5.277007818222045898e-02 4.377456381916999817e-02 1.918159052729606628e-02 -3.209671378135681152e-02 -3.050970146432518959e-03 -3.239714726805686951e-02 1.733131147921085358e-02 -1.059579849243164062e-02 1.360761933028697968e-02 3.035158291459083557e-02 -9.392093867063522339e-03 1.819022372364997864e-02 -2.303299680352210999e-02 2.364854514598846436e-02 5.508516728878021240e-02 5.781754385679960251e-03 -7.367873564362525940e-03 -4.766720533370971680e-02 -4.736982658505439758e-02 6.250710040330886841e-02 -1.124389749020338058e-02 -3.665191307663917542e-02 5.152030289173126221e-02 3.164898976683616638e-02 -6.036071851849555969e-02 3.848256077617406845e-03 -3.243172541260719299e-02 -4.005446098744869232e-03 1.428942382335662842e-02 -3.042474575340747833e-02 6.622261571465060115e-05 -3.724290058016777039e-02 -6.101121380925178528e-02 -5.412348359823226929e-02 -3.972893580794334412e-02 -3.925824537873268127e-02 -3.959378227591514587e-02 -2.919288724660873413e-02 4.008910432457923889e-02 -1.791587099432945251e-02 -3.863883763551712036e-02 3.216488659381866455e-02 -5.856900010257959366e-03 -5.803678557276725769e-02 2.471649460494518280e-02 3.486987575888633728e-02 6.260915100574493408e-02 2.950147725641727448e-02 1.565456204116344452e-02 -1.742036454379558563e-02 -2.105307951569557190e-02 6.846076343208551407e-03 4.885191470384597778e-02 -4.766808822751045227e-02 7.611631415784358978e-03 5.659766122698783875e-02 2.635232545435428619e-02 5.388635024428367615e-02 -3.992875665426254272e-02 -4.851396754384040833e-02 -3.810887783765792847e-02 2.777199074625968933e-02 2.644549682736396790e-02 -4.098666831851005554e-02 5.163252353668212891e-02 -5.490951985120773315e-02 -3.055657073855400085e-02 1.993767917156219482e-02 2.518063411116600037e-02 2.205216512084007263e-02 4.871219396591186523e-02 -4.789122939109802246e-02 -3.637849166989326477e-02 -1.532343029975891113e-02 1.035116985440254211e-02 -2.381979860365390778e-02 -3.406796231865882874e-02 -3.994812257587909698e-03 -6.260229647159576416e-02 -5.280407518148422241e-02 -1.039837393909692764e-02 2.932037925347685814e-03 -1.803939975798130035e-02 -6.670985370874404907e-02 -1.249982323497533798e-02 -5.819465219974517822e-02 -6.824572384357452393e-02 5.867708474397659302e-03 -6.481558829545974731e-02 -5.032043531537055969e-02 -3.308282420039176941e-02 -5.276820156723260880e-03 3.280760720372200012e-02 -5.273706465959548950e-02 1.430155802518129349e-02 2.592481300234794617e-02 -5.569681897759437561e-02 -1.616518758237361908e-02 -1.180003397166728973e-02 -3.329846309497952461e-03 -3.912401944398880005e-02 1.595482043921947479e-02 -2.676741452887654305e-03 -5.842084437608718872e-02 -6.071624159812927246e-02 -4.057404119521379471e-03 6.066019646823406219e-03 2.927739359438419342e-02 -1.896274648606777191e-02 4.691719263792037964e-02 -2.841712161898612976e-02 6.449482403695583344e-03 3.123101778328418732e-02 -8.518650196492671967e-03 -4.714036360383033752e-02 -1.028503105044364929e-02 5.464024841785430908e-02 -4.054715856909751892e-02 3.136301413178443909e-02 -2.489099092781543732e-02 1.226061256602406502e-03 -1.310128066688776016e-02 5.987892672419548035e-02 6.870314478874206543e-03 4.984427616000175476e-02 -2.186954952776432037e-02 -4.501224309206008911e-02 -1.085947267711162567e-02 -1.033117156475782394e-02 1.720585569273680449e-04 3.266360610723495483e-02 -2.194205485284328461e-02 -4.052972793579101562e-02 -2.658332139253616333e-02 -3.973624855279922485e-02 1.712782494723796844e-02 -7.156449556350708008e-02 -5.466750264167785645e-02 2.625975012779235840e-02 -5.944173783063888550e-02 8.295007981359958649e-03 1.671136915683746338e-02 1.974165439605712891e-02 -4.349821712821722031e-03 -3.526748716831207275e-02 -3.049033135175704956e-02 -2.804270945489406586e-02 3.103689476847648621e-02 4.223141446709632874e-02 8.953085169196128845e-03 2.422587573528289795e-02 1.606525108218193054e-02 6.925527006387710571e-02 2.743869787082076073e-03 -1.481954474002122879e-02 2.767823636531829834e-02 2.914442308247089386e-02 1.344206649810075760e-02 8.007622323930263519e-03 -5.640567839145660400e-02 -5.274129100143909454e-03 3.984285518527030945e-02 -3.707980364561080933e-02 3.399866446852684021e-02 -4.490468278527259827e-02 2.714553149417042732e-03 -1.480589807033538818e-02 -5.318080633878707886e-02 -5.456474795937538147e-02 -4.079578444361686707e-02 -1.476547215133905411e-02 -2.513088658452033997e-02 4.784391820430755615e-02 2.133542671799659729e-02 -3.219554200768470764e-02 1.594048179686069489e-02 -2.308390103280544281e-02 -5.751645937561988831e-02 2.409369312226772308e-02 3.107579797506332397e-02 5.310176685452461243e-02 3.190307691693305969e-02 -1.250776927918195724e-03 4.787629097700119019e-02 1.607736200094223022e-02 1.524203736335039139e-02 2.057312056422233582e-02 2.823881432414054871e-02 7.254699617624282837e-02 2.814735658466815948e-02 -6.381543725728988647e-02 -2.634344808757305145e-02 -6.593681871891021729e-02 7.925617508590221405e-03 4.299003630876541138e-02 4.218674451112747192e-02 -4.105237126350402832e-02 -2.841821499168872833e-02 -1.669348217546939850e-02 -4.525074735283851624e-02 6.041265279054641724e-02 4.354012012481689453e-02 -1.037096697837114334e-02 -4.139186814427375793e-02 -4.629527032375335693e-02 -5.042265728116035461e-02 1.099473237991333008e-02 -1.197071839123964310e-02 4.539445508271455765e-03 -6.635695695877075195e-03 7.134379819035530090e-03 4.193049669265747070e-02 4.995216615498065948e-03 -2.030033245682716370e-02 -1.054835785180330276e-02 4.232986643910408020e-02 -4.774347320199012756e-02 3.954469785094261169e-02 -2.725607343018054962e-02 1.089577563107013702e-02 5.950162559747695923e-02 4.738977923989295959e-02 -1.641888543963432312e-02 5.825667083263397217e-02 3.506255894899368286e-02 3.236048668622970581e-02 -1.490317843854427338e-02 3.333115577697753906e-02 2.666329592466354370e-02 -3.932936862111091614e-02 -4.879087954759597778e-02 1.193641684949398041e-02 2.605130150914192200e-02 -5.017313733696937561e-02 -3.910294908564537764e-04 -8.452626876533031464e-03 2.742094919085502625e-02 1.073043048381805420e-02 -4.516865685582160950e-02 1.808881573379039764e-02
-1.899163797497749329e-02 -3.696478903293609619e-02 2.543617039918899536e-02 -7.140982896089553833e-02 2.181737497448921204e-02 6.548724137246608734e-03 -2.841137116774916649e-03 -5.770680308341979980e-02 1.806275919079780579e-02 -9.065290912985801697e-03 2.337031997740268707e-02 3.711902722716331482e-02 2.492897957563400269e-02 -8.475869894027709961e-03 1.738398708403110504e-02 -2.593366056680679321e-02 -5.704252049326896667e-02 -2.846859954297542572e-02 5.098539963364601135e-02 3.056533634662628174e-02 7.487939670681953430e-03 5.261904373764991760e-02 -7.179332524538040161e-02 5.449673905968666077e-02 -4.322143271565437317e-02 -1.431563310325145721e-02 1.905600354075431824e-02 4.242871329188346863e-02 2.117464132606983185e-02 3.158014267683029175e-03 2.259368263185024261e-02 -1.589621976017951965e-02 -1.295051304623484612e-03 3.784064948558807373e-02 1.117081847041845322e-02 -8.645975030958652496e-04 2.393971197307109833e-02 6.111153215169906616e-02 -2.777613513171672821e-02 2.988791465759277344e-02 -4.872676450759172440e-03 2.693686261773109436e-02 4.943585023283958435e-02 -5.200609192252159119e-02 6.363695114850997925e-02 -8.459587581455707550e-03 3.809968382120132446e-02 3.962482139468193054e-02 2.266274765133857727e-02 2.854514867067337036e-02 4.032531008124351501e-02 -6.109914183616638184e-02 2.243597805500030518e-02 -2.396091073751449585e-02 -4.261058568954467773e-02 -3.968551754951477051e-02 6.402852479368448257e-03 -2.249393239617347717e-02 -4.743853211402893066e-02 4.198114201426506042e-02 9.128858335316181183e-03 -3.799040615558624268e-02 -9.800338186323642731e-03 -2.585358731448650360e-02 1.556907873600721359e-02 2.042006142437458038e-02 3.038431331515312195e-02 2.229309082031250000e-02 1.965977810323238373e-02 7.214623503386974335e-03 3.246611356735229492e-02 -5.732070654630661011e-03 5.608872696757316589e-02 5.578378215432167053e-02 4.896463826298713684e-03 -3.696389496326446533e-02 -2.590378187596797943e-02 -1.359640504233539104e-03 -2.326608821749687195e-02 -4.182807728648185730e-02 -4.409931227564811707e-02 1.279003825038671494e-02 2.075074985623359680e-02 -2.354853413999080658e-02 3.533434867858886719e-02 -1.340775005519390106e-02 3.203107789158821106e-02 -5.184283480048179626e-02 4.657601192593574524e-02 -5.349106155335903168e-03 -4.946712031960487366e-02 7.141358405351638794e-02 1.638433709740638733e-02 -5.083412397652864456e-03 3.782692365348339081e-03 1.750218565575778484e-03 1.930220797657966614e-02 -2.028822898864746094e-03 3.957631811499595642e-02 -4.023766890168190002e-02 5.951325409114360809e-03 7.442652713507413864e-03 5.768810212612152100e-02 2.449938654899597168e-02 -1.510601397603750229e-02 5.799344182014465332e-02 2.621253021061420441e-02 3.820139681920409203e-03 5.055158957839012146e-02 3.389145433902740479e-02 2.503612637519836426e-02 -1.876280456781387329e-02 1.801016181707382202e-02 -5.484132468700408936e-02 6.404002755880355835e-02 2.971324324607849121e-02 3.862494975328445435e-02 -3.691777214407920837e-02 2.543291077017784119e-02 1.030293293297290802e-02 1.890411949716508389e-03 -1.198077853769063950e-02 -1.082927081733942032e-02 -1.370316557586193085e-02 5.616029724478721619e-02 4.654005914926528931e-02 -3.622151166200637817e-02 -8.630005642771720886e-03 4.700090736150741577e-02 2.532986924052238464e-02 1.684029400348663330e-02 6.274970620870590210e-02 -5.177750065922737122e-02 5.935139954090118408e-02 4.912563413381576538e-02 -1.336813345551490784e-02 5.699065700173377991e-02 -1.034676004201173782e-02 -3.630580380558967590e-02 -6.078177317976951599e-02 -2.268325909972190857e-02 2.426086924970149994e-02 -5.121075361967086792e-02 -3.526427224278450012e-02 5.725210905075073242e-02 5.188327282667160034e-02 6.232268735766410828e-02 4.470790550112724304e-02 4.523295909166336060e-02 2.734556794166564941e-02 3.518218174576759338e-02 2.947307936847209930e-02 -1.357306446880102158e-02 3.602067381143569946e-02 4.061254113912582397e-02 2.913835085928440094e-02 1.198837626725435257e-02 2.580753713846206665e-02 -7.250470574945211411e-03 -2.440025471150875092e-02 -3.412207588553428650e-03 -3.141109272837638855e-02 5.108566209673881531e-02 5.401092348620295525e-04 2.522518485784530640e-02 -4.053466953337192535e-03 4.779137298464775085e-02 1.657998375594615936e-02 -2.367777563631534576e-02 4.405272193253040314e-03 -2.957850508391857147e-02 2.865832857787609100e-02 -5.817785486578941345e-02 -3.178951144218444824e-02 -1.030860003083944321e-02 -1.274662464857101440e-02 -2.276719547808170319e-02 -5.078360438346862793e-02 -4.622340574860572815e-02 -3.596030583139508963e-04 -6.287419050931930542e-02 -6.497988943010568619e-03 1.360195782035589218e-02 -1.037066709250211716e-02 3.777003288269042969e-02 4.415634274482727051e-02 -4.669065400958061218e-02 -1.508491579443216324e-02 -5.944216251373291016e-02 6.014089286327362061e-02 3.001525439321994781e-02 -4.482765495777130127e-02 7.110641151666641235e-02 2.308488637208938599e-02 -2.252441272139549255e-02 1.389166340231895447e-02 -2.182872965931892395e-02 3.582604229450225830e-02 2.998485602438449860e-02 -3.367264568805694580e-02 1.564950123429298401e-02 -5.589453503489494324e-02 -4.243243020027875900e-03 -5.870950408279895782e-03 -4.237425699830055237e-02 -6.732813268899917603e-02 2.725194767117500305e-02 -4.292899370193481445e-02 3.947371616959571838e-02 -1.349382381886243820e-02 5.383846163749694824e-02 3.153345081955194473e-03 -5.912746302783489227e-03 1.803578622639179230e-02 4.846623167395591736e-02 -1.149852201342582703e-02 3.907062858343124390e-02 -4.118591919541358948e-02 5.392334237694740295e-02 1.198158878833055496e-02 -4.050746560096740723e-02 -3.525520116090774536e-02 3.712858632206916809e-02 5.476737767457962036e-02 4.777190461754798889e-02 -1.061006542295217514e-02 -4.862331971526145935e-02 -1.569182239472866058e-02 -7.238872349262237549e-02 -4.680789634585380554e-02 4.217743501067161560e-02 -5.349065735936164856e-02 5.424505472183227539e-02 -5.183907970786094666e-02 -1.190629601478576660e-02 4.811906069517135620e-02 4.693602770566940308e-02 4.271490871906280518e-02 3.204156458377838135e-02 3.610312193632125854e-02 -1.191739831119775772e-02 9.075554087758064270e-03 -2.352583408355712891e-02 1.620893925428390503e-02 -3.354113176465034485e-02 2.378546632826328278e-02 4.483802989125251770e-02 -4.952176939696073532e-03 1.779721491038799286e-02 2.421788685023784637e-02 4.798373579978942871e-02 4.136031121015548706e-02 6.147374212741851807e-02 -3.361476957798004150e-02 4.454739019274711609e-02 -6.957454234361648560e-02
1.272664032876491547e-02 2.356222085654735565e-02 6.828501820564270020e-02 9.525866247713565826e-03 7.151207327842712402e-02 -3.757028654217720032e-02 -4.714710265398025513e-02 5.022736638784408569e-02 6.499537266790866852e-03 -2.903497591614723206e-02 2.988195978105068207e-02 -5.134831741452217102e-02 5.881047993898391724e-02 7.336618751287460327e-02 1.030225493013858795e-02 3.252475336194038391e-02 2.778706699609756470e-02 -5.568213388323783875e-02 4.622795432806015015e-02 -1.556258648633956909e-02 -1.762156933546066284e-02 -2.706564962863922119e-02 4.867116361856460571e-02 -5.059423670172691345e-02 -4.060303419828414917e-02 1.362159382551908493e-02 4.715863242745399475e-02 -7.874866016209125519e-03 5.038893967866897583e-02 -1.597664877772331238e-02 -4.659007862210273743e-02 3.804856166243553162e-02 2.875091508030891418e-02 1.950613595545291901e-02 3.316643461585044861e-02 -2.293176576495170593e-02 3.282976150512695312e-02 8.875469677150249481e-03 4.238830413669347763e-03 2.898557484149932861e-02 4.149695113301277161e-02 4.556392505764961243e-02 -4.573245067149400711e-03 -5.217592045664787292e-02 -5.868132039904594421e-02 -6.355021148920059204e-02 -9.958640672266483307e-03 -2.522286213934421539e-02 -2.258123271167278290e-02 -3.726418688893318176e-02 2.396617457270622253e-02 5.116094276309013367e-02 4.707657545804977417e-02 -5.830300599336624146e-02 -2.199410460889339447e-02 2.778949774801731110e-02 -5.167444795370101929e-02 5.041631311178207397e-02 3.670281171798706055e-02 -4.212279245257377625e-02 3.014067746698856354e-02 4.153363406658172607e-02 3.254664689302444458e-02 -2.853302285075187683e-02 -1.722692698240280151e-02 -2.445379272103309631e-02 -3.218199685215950012e-02 4.817686229944229126e-02 -5.209908634424209595e-02 6.153905019164085388e-02 6.722131278365850449e-03 7.227594498544931412e-03 5.094980075955390930e-02 1.593771041370928288e-03 -2.085606101900339127e-03 -2.877471223473548889e-02 3.255904838442802429e-02 2.364767715334892273e-02 -6.167561188340187073e-02 3.150491788983345032e-02 4.640147089958190918e-02 5.760722607374191284e-02 1.354429032653570175e-02 -5.781138315796852112e-03 3.043345361948013306e-02 -3.798311576247215271e-02 4.267818760126829147e-03 6.967631634324789047e-03 5.682365596294403076e-02 2.492556720972061157e-02 2.071884088218212128e-02 -2.269327268004417419e-02 -5.163655150681734085e-03 3.413389995694160461e-02 -1.428702846169471741e-03 -3.002694062888622284e-02 2.170906215906143188e-02 2.398835122585296631e-02 5.527251586318016052e-02 -2.804211573675274849e-03 4.649203643202781677e-02 2.761000767350196838e-03 -3.709268197417259216e-02 2.326969988644123077e-02 4.885003343224525452e-02 1.598243485204875469e-03 -5.705626681447029114e-02 6.112200766801834106e-02 -2.941090986132621765e-02 3.144133463501930237e-02 -5.587296094745397568e-03 -1.150284335017204285e-02 2.993621304631233215e-02 2.483863942325115204e-02 -8.110894821584224701e-03 1.722817495465278625e-02 5.797839537262916565e-02 1.231525093317031860e-02 3.129030810669064522e-03 2.788958512246608734e-02 4.504723101854324341e-02 -1.459474954754114151e-02 3.967428952455520630e-02 -1.046180911362171173e-02 -6.803965196013450623e-03 3.557223826646804810e-02 -4.221957921981811523e-02 -1.582906953990459442e-02 4.336632788181304932e-02 -9.405724704265594482e-04 -2.589159645140171051e-02 -1.131034921854734421e-02 3.950393199920654297e-02 -3.756906837224960327e-02 -2.013526298105716705e-02 -3.830102086067199707e-02 -3.724461421370506287e-02 2.311538159847259521e-02 4.853813722729682922e-02 1.397133618593215942e-02 8.856799453496932983e-03 -1.511625666171312332e-02 5.323127657175064087e-02 3.066872619092464447e-02 -3.440272808074951172e-02 -3.178633004426956177e-02 -3.371067345142364502e-02 7.381715346127748489e-03 -4.271287098526954651e-02 -3.371611237525939941e-02 8.108874782919883728e-03 -1.910735387355089188e-03 5.105644091963768005e-02 -2.237390726804733276e-02 -3.239633888006210327e-02 2.834623306989669800e-02 -1.645516604185104370e-02 -7.235252112150192261e-02 -4.285577684640884399e-02 -3.009642101824283600e-02 -4.888158664107322693e-02 5.978949740529060364e-02 1.576993986964225769e-02 3.326746448874473572e-02 -1.059749815613031387e-02 -3.255377337336540222e-02 4.258867725729942322e-02 4.015842452645301819e-02 -1.754675246775150299e-02 -5.959699302911758423e-02 3.273539245128631592e-02 4.425331950187683105e-02 5.344475433230400085e-02 -2.469377033412456512e-02 -4.837134480476379395e-02 -3.268226981163024902e-02 -3.158240020275115967e-02 5.013827234506607056e-03 -1.642008125782012939e-02 4.787967726588249207e-02 -1.816345006227493286e-02 3.982696309685707092e-02 4.385489225387573242e-02 -2.233011834323406219e-02 -2.760813105851411819e-03 3.593049570918083191e-02 1.837901584804058075e-02 2.575339749455451965e-02 -5.650826729834079742e-03 -5.835521221160888672e-02 4.290760681033134460e-02 -5.481475219130516052e-02 -2.490063756704330444e-02 1.405050326138734818e-02 -5.035644024610519409e-02 5.576804280281066895e-02 -4.187783226370811462e-02 7.512440439313650131e-03 -9.423942305147647858e-03 3.620576858520507812e-02 5.396042019128799438e-03 5.322254821658134460e-02 -3.315721452236175537e-02 -5.907870829105377197e-02 -5.359631497412919998e-03 5.722520872950553894e-02 9.725489653646945953e-03 1.750512979924678802e-02 3.703980520367622375e-02 5.927308648824691772e-02 1.220925897359848022e-02 8.685784414410591125e-03 -5.526553373783826828e-03 1.010675635188817978e-02 5.066007003188133240e-02 -6.981892138719558716e-02 6.099282950162887573e-02 6.341910362243652344e-02 -5.023358762264251709e-02 3.138259425759315491e-02 -3.196501731872558594e-02 2.628691727295517921e-03 3.168649598956108093e-02 -5.279145017266273499e-02 5.413708090782165527e-02 6.353798788040876389e-03 7.190794683992862701e-03 4.430118203163146973e-02 2.749474532902240753e-02 5.119776353240013123e-02 1.015533600002527237e-02 -2.624115906655788422e-02 4.794093221426010132e-02 6.165756285190582275e-02 -4.200253263115882874e-02 -3.649206086993217468e-02 1.182075403630733490e-02 -3.227960318326950073e-02 3.218492865562438965e-02 -4.127870313823223114e-03 5.426581576466560364e-02 -1.544440351426601410e-02 7.397050969302654266e-03 -3.079830482602119446e-02 -3.883920982480049133e-02 9.714955464005470276e-03 -2.662302553653717041e-02 -1.449061091989278793e-02 -7.332638371735811234e-03 6.425809115171432495e-03 -3.388500586152076721e-02 2.804160118103027344e-03 -1.221105083823204041e-02 3.099313192069530487e-02 -3.673541545867919922e-02 -1.635268144309520721e-02
-2.941050939261913300e-02 6.044932082295417786e-02 -5.271844565868377686e-02 3.639421239495277405e-02 -3.651699796319007874e-02 -3.947198763489723206e-02 4.457372054457664490e-02 2.610397152602672577e-02 -2.269045449793338776e-02 5.145183578133583069e-02 1.528873015195131302e-02 -5.781827867031097412e-02 -4.590391367673873901e-02 -1.577773503959178925e-02 -4.684123396873474121e-02 -6.103930622339248657e-02 -1.259248983114957809e-02 1.433383114635944366e-02 -2.841057442128658295e-02 -7.283166050910949707e-02 -1.645386591553688049e-02 -4.990181885659694672e-03 -5.020399577915668488e-03 -3.015210106968879700e-02 1.402470842003822327e-02 -5.073422566056251526e-02 -8.556342683732509613e-03 4.799941927194595337e-02 -9.744012728333473206e-03 1.333676557987928391e-02 2.762844227254390717e-02 1.120555400848388672e-02 9.436892345547676086e-03 -2.764292247593402863e-02 -3.950401395559310913e-02 -3.665359690785408020e-02 4.193999990820884705e-02 -3.535715118050575256e-02 5.273809656500816345e-02 2.153441496193408966e-02 -1.514686737209558487e-02 5.116518959403038025e-02 -2.583757974207401276e-02 5.514704063534736633e-02 -1.969092339277267456e-02 1.333059277385473251e-03 -1.460021547973155975e-02 -1.112845353782176971e-02 -1.690437644720077515e-02 -3.968854621052742004e-02 -6.497313082218170166e-02 3.425911441445350647e-02 5.101441591978073120e-02 -3.320366516709327698e-02 -1.517502963542938232e-02 3.048323839902877808e-02 -1.973645575344562531e-02 3.324356675148010254e-02 4.996585100889205933e-02 1.173122902400791645e-03 4.836542904376983643e-02 -5.756465345621109009e-02 -6.274817511439323425e-03 3.339928761124610901e-02 3.361702337861061096e-02 -5.782624334096908569e-02 5.261341482400894165e-02 3.565153107047080994e-02 -2.652256563305854797e-02 3.497511148452758789e-02 -2.467016689479351044e-02 -4.372012987732887268e-02 -2.942956797778606415e-02 4.352594539523124695e-02 5.068943835794925690e-03 -5.636797100305557251e-02 -2.876749821007251740e-02 2.836572378873825073e-02 4.271962493658065796e-02 -3.742794319987297058e-02 1.349368505179882050e-02 1.148326508700847626e-02 -5.363712087273597717e-02 -3.937558084726333618e-02 5.393383093178272247e-03 3.683229535818099976e-02 -3.029206208884716034e-02 8.920818567276000977e-03 -8.744188584387302399e-03 -1.100090984255075455e-02 6.172841042280197144e-02 -4.801024869084358215e-02 -3.158465400338172913e-02 1.026312168687582016e-02 -4.986945167183876038e-02 -3.011036850512027740e-02 3.071549348533153534e-03 -6.388179212808609009e-02 4.401715006679296494e-03 -2.801422774791717529e-02 -1.378328446298837662e-02 -5.355437844991683960e-02 -6.083048880100250244e-03 -7.373233884572982788e-02 2.065858617424964905e-02 -3.764942288398742676e-02 5.312430858612060547e-02 5.261021107435226440e-02 3.550973907113075256e-02 -4.483834281563758850e-02 3.216981515288352966e-02 -3.136515617370605469e-02 -5.496200919151306152e-02 2.741755452007055283e-03 4.279731959104537964e-02 4.529775306582450867e-02 1.544755604118108749e-02 4.080721735954284668e-02 -5.486683174967765808e-02 2.884513512253761292e-02 -1.783148944377899170e-02 3.652100684121251106e-03 4.028323665261268616e-02 4.197610169649124146e-02 3.600804135203361511e-02 3.750993683934211731e-02 2.800673618912696838e-02 5.376324057579040527e-02 -6.214854773133993149e-03 -4.748893156647682190e-02 6.686383392661809921e-03 5.588778108358383179e-02 2.169422991573810577e-02 4.604903049767017365e-03 4.857845604419708252e-02 -5.049497634172439575e-02 -3.180690854787826538e-02 4.497342556715011597e-02 5.800768733024597168e-02 5.188565701246261597e-02 6.038954481482505798e-02 -5.973827093839645386e-02 -5.847526714205741882e-02 -1.110484125092625618e-03 6.258989125490188599e-02 -2.979208482429385185e-03 5.811861529946327209e-02 -3.080138750374317169e-02 3.278280794620513916e-02 -4.496084526181221008e-02 -1.652469113469123840e-02 5.782170221209526062e-02 -2.392098680138587952e-02 -2.875820547342300415e-02 -1.143393572419881821e-02 3.418319299817085266e-02 -5.447728931903839111e-02 2.051209285855293274e-02 -1.955955103039741516e-02 1.713211275637149811e-02 4.465009644627571106e-02 1.818650774657726288e-02 -2.512524835765361786e-02 -1.250437833368778229e-02 4.079206287860870361e-02 5.128255486488342285e-02 -3.597102593630552292e-03 -6.787449866533279419e-02 1.870897039771080017e-02 -5.378894973546266556e-03 -3.789658471941947937e-02 3.151570260524749756e-02 6.135658174753189087e-02 5.975624080747365952e-03 -1.280743069946765900e-02 -6.441186368465423584e-02 -4.266033880412578583e-03 2.116612344980239868e-02 -2.852780558168888092e-02 2.892865613102912903e-02 -2.877116203308105469e-02 2.150654979050159454e-02 -2.060791663825511932e-02 4.597540572285652161e-02 -5.336282402276992798e-02 -2.631445042788982391e-02 3.675187006592750549e-02 4.318328946828842163e-02 4.474849253892898560e-02 4.302804823964834213e-03 -3.182071819901466370e-02 -3.854937851428985596e-03 9.287947788834571838e-03 5.215251818299293518e-02 -3.910732641816139221e-02 7.023163139820098877e-02 1.935917139053344727e-02 2.979839965701103210e-02 -5.284208804368972778e-02 3.629992529749870300e-02 6.822975818067789078e-03 -2.939682081341743469e-02 4.445302858948707581e-02 3.877051547169685364e-02 6.972969323396682739e-02 -3.165448829531669617e-02 -2.734423801302909851e-02 -1.916418597102165222e-02 -2.122895047068595886e-02 4.560462757945060730e-02 1.702686026692390442e-02 4.775286465883255005e-02 -9.261823259294033051e-03 3.201966360211372375e-02 6.931069493293762207e-02 3.737001121044158936e-02 -5.015082284808158875e-02 -4.728658869862556458e-02 -3.681888431310653687e-02 -4.752685874700546265e-02 -2.398373745381832123e-02 -4.154254868626594543e-02 -2.850736677646636963e-02 1.870320178568363190e-02 -4.890597984194755554e-02 -1.720751449465751648e-02 3.024841845035552979e-02 4.218440875411033630e-02 8.079277351498603821e-03 1.520270016044378281e-02 4.569780081510543823e-03 4.144779965281486511e-02 2.409939467906951904e-02 4.355048388242721558e-02 -5.513549968600273132e-02 5.044171959161758423e-02 4.494533315300941467e-02 5.739228334277868271e-03 -3.918556869029998779e-02 4.959450289607048035e-02 4.650711640715599060e-02 -5.779384169727563858e-03 3.114145994186401367e-02 -5.206310749053955078e-02 4.962627217173576355e-02 -1.339869480580091476e-02 -8.123573660850524902e-02 -4.938486218452453613e-02 1.627929508686065674e-02 -2.358987368643283844e-02 -3.064185753464698792e-02 -3.607909427955746651e-03 2.254533395171165466e-02 -1.625728234648704529e-02 4.386768862605094910e-02 -4.488469101488590240e-03
