-7.684689015150070190e-02
4.341261461377143860e-02
-7.196574658155441284e-02
-8.431322127580642700e-02
2.627472020685672760e-02
-5.588232725858688354e-02
8.166575431823730469e-02
-4.743052646517753601e-02
-7.672648876905441284e-02
-4.044301435351371765e-02
5.364918615669012070e-03
-4.676531627774238586e-02
-6.920596212148666382e-02
-1.792486198246479034e-02
-3.158179298043251038e-02
-4.988840222358703613e-02
4.909630492329597473e-02
-7.294960319995880127e-02
-4.966107383370399475e-02
2.334615029394626617e-02
5.903324857354164124e-02
-1.383814774453639984e-02
6.082928553223609924e-02
-5.758763849735260010e-02
-3.180318325757980347e-02
-6.345979124307632446e-02
-6.161576509475708008e-02
-6.451258808374404907e-02
-4.290389642119407654e-02
-2.922297641634941101e-02
-3.273748978972434998e-02
8.483090996742248535e-02
-2.399428561329841614e-02
-7.943313568830490112e-02
-2.379827201366424561e-02
-6.375785917043685913e-02
4.346768558025360107e-02
-6.649062782526016235e-02
-1.957342587411403656e-02
3.847977146506309509e-02
-8.692964911460876465e-02
3.883221745491027832e-02
8.273726701736450195e-02
-7.633608579635620117e-02
-5.373939871788024902e-03
4.019791632890701294e-02
-1.422845944762229919e-02
5.988132208585739136e-02
8.211466483771800995e-03
-7.202661782503128052e-02
2.636288292706012726e-02
-8.163737505674362183e-02
8.565735816955566406e-02
6.507864594459533691e-02
4.790115356445312500e-02
-1.700713485479354858e-02
-3.351721540093421936e-02
-6.164322793483734131e-02
7.414567470550537109e-02
-8.155871182680130005e-02
-2.186190569773316383e-03
-5.264264345169067383e-02
-1.885237637907266617e-03
5.046599358320236206e-02
