-1.369596719741821289e-01 -4.650803282856941223e-02 5.876431614160537720e-02 1.492258310317993164e-01 -4.115447029471397400e-02 1.756165623664855957e-01 -1.126833856105804443e-01 1.912383139133453369e-01 -6.453838199377059937e-02 -1.666625589132308960e-02 -1.081705763936042786e-01 4.436405748128890991e-02 -1.238593012094497681e-01 -1.431324332952499390e-01 8.479395508766174316e-02 -4.250042140483856201e-02 -1.380206495523452759e-01 1.754624992609024048e-01 -8.006429672241210938e-02 1.297262310981750488e-01 -8.634755015373229980e-02 9.801553934812545776e-02 1.552221477031707764e-01 -5.235592648386955261e-02 -1.489691734313964844e-01 -1.252973079681396484e-01 -1.037473380565643311e-01 -1.385820806026458740e-01 -8.447629213333129883e-02 1.512759923934936523e-01 1.944180428981781006e-01 -1.096131876111030579e-01 1.427807360887527466e-01 -1.097129210829734802e-01 -1.191010251641273499e-01 -6.861823052167892456e-02 1.103269606828689575e-01 1.640801727771759033e-01 -1.416351795196533203e-01 -5.522252619266510010e-02 -1.049158275127410889e-01 -6.793285906314849854e-02 -3.536120429635047913e-02 -1.545093953609466553e-01 2.743836864829063416e-02 -1.596617549657821655e-01 -1.451168507337570190e-01 -8.004776388406753540e-02 -2.751826867461204529e-02 -4.789501428604125977e-02 1.538032442331314087e-01 -2.807880379259586334e-02 -8.522973209619522095e-02 -4.545249789953231812e-02 -1.391223073005676270e-01 -1.756983846426010132e-01 -1.222849786281585693e-01 -2.701028808951377869e-02 -1.923889219760894775e-01 -5.213969945907592773e-02 -1.545916683971881866e-02 1.730191707611083984e-01 2.443183399736881256e-02 7.875289767980575562e-02
-1.685562171041965485e-02 1.199588477611541748e-01 1.666003912687301636e-01 1.073271706700325012e-01 -1.265349090099334717e-01 -6.347039341926574707e-02 6.440753489732742310e-02 1.405448615550994873e-01 1.387338638305664062e-01 1.326097734272480011e-02 -4.183377895969897509e-04 4.017461091279983521e-02 -3.138214349746704102e-02 -1.660566329956054688e-01 -9.393376111984252930e-02 -1.443474888801574707e-01 -5.748807638883590698e-02 -1.005329638719558716e-01 -1.379581391811370850e-01 -5.370484665036201477e-02 -7.444678246974945068e-02 -1.604063361883163452e-01 -1.424237340688705444e-01 -7.920225709676742554e-02 1.027989983558654785e-01 1.486283913254737854e-02 9.104837477207183838e-02 7.774353493005037308e-03 2.207694575190544128e-03 4.372279345989227295e-02 1.128194704651832581e-01 1.404170994646847248e-03 -1.806870400905609131e-01 -2.284979447722434998e-02 -1.768228560686111450e-01 -5.183329805731773376e-02 1.820499077439308167e-02 9.556004777550697327e-03 -2.505620068404823542e-04 -1.685689091682434082e-01 -5.338414013385772705e-02 -1.417633295059204102e-01 1.561690568923950195e-01 6.409351527690887451e-02 1.074955537915229797e-01 1.560934185981750488e-01 1.092064604163169861e-01 -6.962622050195932388e-03 -7.332281768321990967e-02 1.934643983840942383e-01 -1.695689409971237183e-01 1.522688381373882294e-02 1.343545466661453247e-01 -3.500837087631225586e-02 4.176270589232444763e-02 1.499907523393630981e-01 7.752783596515655518e-02 -6.755605340003967285e-02 -7.742647081613540649e-02 -8.938336372375488281e-02 -1.710416823625564575e-01 -3.887433931231498718e-02 9.548995643854141235e-02 1.344967484474182129e-01
-8.485159277915954590e-02 -3.811328113079071045e-02 -1.305167004466056824e-02 -1.108596250414848328e-01 -1.209772601723670959e-01 -5.046785622835159302e-02 8.107790350914001465e-02 -2.798915281891822815e-02 3.159212693572044373e-02 -5.243206024169921875e-02 8.292963355779647827e-02 1.839463859796524048e-01 -1.260461509227752686e-01 -1.778966635465621948e-01 -6.269722431898117065e-02 1.636447012424468994e-02 1.303646154701709747e-02 -4.285441339015960693e-02 1.496389806270599365e-01 -1.247293502092361450e-01 1.476577669382095337e-01 -3.288708627223968506e-02 4.912753030657768250e-02 -1.275957226753234863e-01 -5.756779387593269348e-02 -9.511804580688476562e-02 7.403941452503204346e-02 -1.642964035272598267e-01 -2.570499666035175323e-02 -4.116788133978843689e-02 8.374284952878952026e-03 -7.035958580672740936e-03 -3.381451824679970741e-03 1.778406053781509399e-01 -3.180323913693428040e-02 9.312836825847625732e-02 -4.718152433633804321e-02 -8.977640420198440552e-02 -5.158509686589241028e-02 7.965840399265289307e-02 -8.391778916120529175e-02 9.244319051504135132e-02 -1.443542242050170898e-01 1.505466550588607788e-01 3.637720271944999695e-02 -8.445968478918075562e-02 -3.290875256061553955e-02 1.398479342460632324e-01 1.873125135898590088e-01 -1.467762440443038940e-01 -2.363544143736362457e-02 1.493814289569854736e-01 -1.127390339970588684e-01 1.906511038541793823e-01 2.846379578113555908e-02 -1.269165724515914917e-01 -1.588694155216217041e-01 -4.513706266880035400e-02 -3.847391530871391296e-02 1.654793322086334229e-01 -1.261551082134246826e-01 8.205447345972061157e-02 -1.621491312980651855e-01 2.035084646195173264e-03
1.085539311170578003e-01 1.291962563991546631e-01 1.353080123662948608e-01 -1.229093689471483231e-02 -1.481453031301498413e-01 2.815897110849618912e-03 -8.201675862073898315e-02 -1.383798290044069290e-02 -1.326658129692077637e-01 -2.176392637193202972e-02 1.697728484869003296e-01 -7.298608310520648956e-03 -1.178877502679824829e-01 -1.882915496826171875e-01 -1.219789311289787292e-02 2.732979506254196167e-02 -4.782163072377443314e-03 7.300927489995956421e-02 3.096882440149784088e-02 -5.686847120523452759e-02 5.828365311026573181e-02 2.408685721457004547e-02 -5.548723787069320679e-02 4.937846213579177856e-02 -1.639662981033325195e-01 -6.312286853790283203e-02 -1.688514836132526398e-02 6.523982435464859009e-02 1.703105419874191284e-01 -7.892000675201416016e-02 1.627221852540969849e-01 1.563249826431274414e-01 -9.665636718273162842e-02 -1.085825413465499878e-01 -1.759866923093795776e-01 8.849593997001647949e-02 6.652765907347202301e-03 -1.541884392499923706e-01 -1.288215909153223038e-02 4.497566074132919312e-02 1.853420734405517578e-01 -1.721720546483993530e-01 7.919515669345855713e-02 -1.484071463346481323e-02 1.545230299234390259e-01 -2.342874929308891296e-02 1.222275495529174805e-01 -1.320586055517196655e-01 4.758111014962196350e-02 3.461105376482009888e-02 3.877316415309906006e-02 -1.506974101066589355e-01 5.591806396842002869e-02 -1.414117813110351562e-01 4.790186416357755661e-03 5.569421499967575073e-02 2.125545963644981384e-02 7.030789554119110107e-02 1.592613160610198975e-01 -1.076984778046607971e-01 -7.352191209793090820e-02 -5.302578955888748169e-02 4.806895926594734192e-02 -1.155289039015769958e-01
1.337922364473342896e-01 -1.486375629901885986e-01 5.125045031309127808e-02 1.124469116330146790e-01 1.453521698713302612e-01 1.023733243346214294e-01 2.756877057254314423e-02 -7.543669641017913818e-02 1.566722802817821503e-02 1.363317519426345825e-01 7.492254674434661865e-02 1.342914812266826630e-02 1.402121782302856445e-01 2.569887042045593262e-02 1.284732669591903687e-01 -1.413032263517379761e-01 -1.665079444646835327e-01 -1.047423630952835083e-01 -1.683874428272247314e-01 1.556903570890426636e-01 3.383243456482887268e-03 1.488528251647949219e-01 4.441889375448226929e-02 -2.742010913789272308e-02 1.364092975854873657e-01 -3.274875134229660034e-02 -4.374645277857780457e-02 -9.020553529262542725e-02 -1.058661937713623047e-01 2.008279226720333099e-02 -3.478900715708732605e-02 -1.576221585273742676e-01 1.249825656414031982e-01 1.580534279346466064e-01 -6.210646405816078186e-02 6.146119534969329834e-02 -6.037362664937973022e-02 -5.201656837016344070e-03 -1.750551611185073853e-01 1.082869097590446472e-01 -4.875797405838966370e-02 1.647898852825164795e-01 -1.502451449632644653e-01 -1.367288082838058472e-01 -5.398136749863624573e-02 1.593761593103408813e-01 4.257912933826446533e-02 -1.736339330673217773e-01 -1.119588389992713928e-01 -1.040300205349922180e-01 1.258014887571334839e-01 4.292209073901176453e-02 -1.609580218791961670e-01 -3.690126538276672363e-02 -4.751092940568923950e-02 -6.810189038515090942e-02 -1.159510761499404907e-02 -4.959531128406524658e-02 -1.035568863153457642e-01 -4.277998581528663635e-02 -2.791908383369445801e-02 4.505532234907150269e-02 1.910469532012939453e-01 -5.183035507798194885e-02
1.629862040281295776e-01 -5.431110411882400513e-02 1.017813012003898621e-01 -1.612803190946578979e-01 -1.385089606046676636e-01 -1.146695110946893692e-03 8.883883059024810791e-02 -1.475776880979537964e-01 -7.090425491333007812e-02 1.070189327001571655e-01 -2.549003064632415771e-02 1.533556729555130005e-01 -9.240539371967315674e-02 1.662251949310302734e-01 1.477233171463012695e-01 -6.272388994693756104e-02 -7.173305004835128784e-02 5.996561422944068909e-02 -1.008433327078819275e-01 4.548224620521068573e-03 1.095938496291637421e-02 1.650990396738052368e-01 3.979419916868209839e-02 -1.346920579671859741e-01 -6.258495897054672241e-02 1.408957839012145996e-01 -1.448487192392349243e-01 1.312271207571029663e-01 -2.351600863039493561e-02 -1.524778753519058228e-01 -1.183250173926353455e-01 -1.860197782516479492e-01 3.053154563531279564e-03 1.521130651235580444e-01 1.716647744178771973e-01 -7.140348851680755615e-02 1.826064437627792358e-01 -3.372628986835479736e-02 -2.522052265703678131e-02 1.008318960666656494e-01 -9.424707293510437012e-02 -1.185092628002166748e-01 1.366002857685089111e-01 -1.792382895946502686e-01 -2.052018791437149048e-02 7.736698538064956665e-02 -4.974483326077461243e-02 -5.516252294182777405e-02 3.254399448633193970e-02 5.878557264804840088e-02 -1.077038496732711792e-01 -1.111315339803695679e-01 -1.012222990393638611e-01 -1.748577356338500977e-01 1.696187406778335571e-01 3.243358805775642395e-02 -1.252141743898391724e-01 -6.758067011833190918e-02 -1.670892089605331421e-01 1.095610409975051880e-01 1.667394787073135376e-01 1.286830753087997437e-01 1.868984289467334747e-02 -9.058647789061069489e-03
-1.060280874371528625e-01 -1.215761154890060425e-01 -2.466139011085033417e-02 -7.218725979328155518e-02 -1.198390796780586243e-01 -1.432431638240814209e-01 1.367511153221130371e-01 -2.814519777894020081e-02 -1.469544470310211182e-01 -7.728063315153121948e-02 -7.346487045288085938e-02 -2.945213392376899719e-02 1.149896085262298584e-01 1.278246939182281494e-01 -8.924932777881622314e-02 1.915314793586730957e-01 1.896685957908630371e-01 -1.226656138896942139e-01 -7.022269815206527710e-02 -2.648941613733768463e-02 1.381826847791671753e-01 -7.885963656008243561e-03 -1.781946420669555664e-02 1.475269347429275513e-01 -1.103674024343490601e-01 1.045794412493705750e-01 5.774202570319175720e-02 6.590315699577331543e-02 1.497192531824111938e-01 7.514493167400360107e-02 1.179043427109718323e-01 -3.108723461627960205e-02 -1.097387224435806274e-01 -3.061631321907043457e-02 -8.106777817010879517e-02 1.242195367813110352e-01 -1.944907754659652710e-02 6.756748259067535400e-02 1.538565903902053833e-01 -1.749716252088546753e-01 3.376987949013710022e-02 2.486989274621009827e-02 -6.605869531631469727e-02 -1.568553745746612549e-01 1.506278216838836670e-01 -1.492331773042678833e-01 1.487033814191818237e-01 7.401260733604431152e-02 5.166082456707954407e-02 -1.624656915664672852e-01 -7.712620496749877930e-02 -9.561391919851303101e-02 -1.563736349344253540e-01 4.141801595687866211e-02 1.591719388961791992e-01 -1.477538198232650757e-01 -8.625118434429168701e-02 1.021541282534599304e-01 -1.373810321092605591e-01 1.180073060095310211e-02 1.356858294457197189e-02 -1.481352150440216064e-01 -1.141128465533256531e-01 -4.777580499649047852e-02
-7.362388819456100464e-02 -7.689141482114791870e-02 -6.870849523693323135e-03 -1.731008291244506836e-01 1.906074136495590210e-01 5.133816599845886230e-02 1.004452481865882874e-01 -6.355997920036315918e-02 3.082100488245487213e-02 -1.305405199527740479e-01 -1.528745889663696289e-01 -1.430195383727550507e-02 1.716159731149673462e-01 7.298498600721359253e-02 -1.859046518802642822e-01 1.634905114769935608e-02 1.275553256273269653e-01 6.726279854774475098e-02 -6.428087502717971802e-02 -5.626867525279521942e-03 7.576378434896469116e-02 8.106116205453872681e-02 4.535556584596633911e-02 -1.480210125446319580e-01 1.219865232706069946e-01 1.582464389503002167e-02 1.507126241922378540e-01 -1.161715462803840637e-01 -1.775385290384292603e-01 -4.757815599441528320e-02 -1.214816514402627945e-02 1.740820854902267456e-01 5.837472155690193176e-02 -1.613704115152359009e-01 1.811290234327316284e-01 1.685497909784317017e-01 -1.664711087942123413e-01 -1.013633385300636292e-01 3.753814473748207092e-02 1.571668982505798340e-01 -3.002355247735977173e-02 1.674950122833251953e-01 4.406165331602096558e-02 1.514760106801986694e-01 1.199236139655113220e-02 2.328444086015224457e-02 -1.037824898958206177e-01 1.479969024658203125e-01 -1.387677043676376343e-01 -1.973917149007320404e-02 1.046930812299251556e-02 -1.553323958069086075e-02 -1.235731318593025208e-01 -8.471161127090454102e-03 4.896754026412963867e-02 -1.812580674886703491e-01 -8.470509201288223267e-02 1.177747966721653938e-03 -1.295468211174011230e-01 -1.046675518155097961e-01 1.037636473774909973e-01 -1.813085377216339111e-01 8.210976421833038330e-02 -1.246691197156906128e-01
