-1.271510481834411621e+00
-4.802834987640380859e-01
-7.495067268610000610e-02
-1.067863702774047852e-01
-5.143343657255172729e-02
-2.732356488704681396e-01
-6.946593523025512695e-01
-7.450272440910339355e-01
-1.392337918281555176e+00
-6.506671905517578125e-01
-8.329798579216003418e-01
5.158235505223274231e-02
-9.587966203689575195e-01
-1.240241900086402893e-01
-1.647796779870986938e-01
-9.254695177078247070e-01
-5.177841782569885254e-01
-9.898743033409118652e-01
-3.170689642429351807e-01
-5.554323792457580566e-01
-8.605519309639930725e-03
1.958544924855232239e-02
-1.802517056465148926e+00
-7.846974730491638184e-01
-2.333227634429931641e+00
-5.861018300056457520e-01
-9.621469974517822266e-01
-2.958296835422515869e-01
-1.871765851974487305e-01
-1.339789181947708130e-01
-2.027680158615112305e+00
-5.545495152473449707e-01
-6.893457770347595215e-01
-3.031476438045501709e-01
-1.938914209604263306e-01
-9.476058185100555420e-02
-1.043708086013793945e+00
-9.412677884101867676e-01
-2.276304811239242554e-01
-7.087302207946777344e-01
-1.642499268054962158e-01
-3.488758504390716553e-01
-9.358324110507965088e-02
-6.641584634780883789e-01
-4.150533080101013184e-01
-5.380963440984487534e-03
-5.772562623023986816e-01
-9.985548257827758789e-01
-9.840621948242187500e-01
-1.075082659721374512e+00
-1.614634275436401367e+00
-1.828208565711975098e-01
-1.049726247787475586e+00
-3.635594248771667480e-01
-2.901555597782135010e-01
-1.395432651042938232e-01
-3.221268057823181152e-01
-5.705083012580871582e-01
-5.170470476150512695e-01
-5.421227216720581055e-01
-5.072938799858093262e-01
-1.651041030883789062e+00
-1.321508288383483887e+00
-2.866787314414978027e-01
-1.368548631668090820e+00
-3.248387575149536133e-01
-5.059586837887763977e-02
5.227539222687482834e-03
-6.581175327301025391e-02
-2.958081066608428955e-01
-6.829072237014770508e-01
-7.164241075515747070e-01
-1.329909086227416992e+00
-6.129952073097229004e-01
-9.299598336219787598e-01
-3.696220740675926208e-02
-8.584842681884765625e-01
-1.490790396928787231e-01
-6.909886747598648071e-02
-8.894209861755371094e-01
-5.778847336769104004e-01
-9.597764015197753906e-01
-2.218254953622817993e-01
-6.577183008193969727e-01
-3.976717963814735413e-02
-1.186840161681175232e-01
-1.716008186340332031e+00
-8.600349426269531250e-01
-2.249524593353271484e+00
-5.074422955513000488e-01
-9.715318083763122559e-01
-2.915866672992706299e-01
-3.503011465072631836e-01
-3.492043912410736084e-01
-1.657577395439147949e+00
-5.694666504859924316e-01
-6.287677884101867676e-01
-3.714651167392730713e-01
-3.174053430557250977e-01
9.152173995971679688e-03
-1.021523475646972656e+00
-8.453329205513000488e-01
-1.573396027088165283e-01
-7.106394767761230469e-01
-5.456938967108726501e-02
-3.079387545585632324e-01
4.961254820227622986e-02
-6.113528609275817871e-01
-6.153109669685363770e-01
-1.516341567039489746e-01
-5.856180787086486816e-01
-1.053604125976562500e+00
-1.072802662849426270e+00
-1.052840232849121094e+00
-1.788473606109619141e+00
-3.600953221321105957e-01
-1.119513750076293945e+00
-2.514298856258392334e-01
-1.619505286216735840e-01
-2.371352910995483398e-01
-2.370038777589797974e-01
-5.337005257606506348e-01
-5.619670152664184570e-01
-5.352014303207397461e-01
-4.359962046146392822e-01
-1.596857905387878418e+00
-1.476874709129333496e+00
-3.626435101032257080e-01
-1.412825942039489746e+00
-3.658438026905059814e-01
-9.639226645231246948e-02
6.686500739306211472e-03
-1.242913752794265747e-01
-3.088728785514831543e-01
-5.559080243110656738e-01
-7.792014479637145996e-01
-1.247439980506896973e+00
-3.976495862007141113e-01
-9.447949528694152832e-01
7.439527660608291626e-02
-6.760981082916259766e-01
-2.215389758348464966e-01
-6.018736958503723145e-02
-9.725096821784973145e-01
-7.533772587776184082e-01
-8.343825936317443848e-01
-2.892804145812988281e-01
-4.679372310638427734e-01
-1.355935931205749512e-01
-6.466087698936462402e-02
-1.619734883308410645e+00
-8.450729250907897949e-01
-2.087372541427612305e+00
-6.058276891708374023e-01
-9.314932823181152344e-01
-2.854088544845581055e-01
-3.074447512626647949e-01
-4.997234046459197998e-01
-1.619547486305236816e+00
-5.999286174774169922e-01
-5.274962782859802246e-01
-4.067183434963226318e-01
-1.240273341536521912e-01
-9.777897596359252930e-02
-9.999132156372070312e-01
-8.784381747245788574e-01
-1.405166536569595337e-01
-6.778598427772521973e-01
-1.410277187824249268e-01
-3.206490278244018555e-01
4.822609573602676392e-02
-8.094192147254943848e-01
-6.295615434646606445e-01
-6.837666779756546021e-02
-6.186686754226684570e-01
-1.108725786209106445e+00
-1.114975214004516602e+00
-1.041258454322814941e+00
-1.545284509658813477e+00
-2.495172768831253052e-01
-1.229512333869934082e+00
-4.795937240123748779e-01
-2.979024052619934082e-01
-2.376405894756317139e-01
-1.516210436820983887e-01
-6.732060313224792480e-01
-7.131963372230529785e-01
-5.374420285224914551e-01
-6.287506818771362305e-01
-1.815876603126525879e+00
-1.476208209991455078e+00
-2.188118249177932739e-01
-8.693382143974304199e-01
-4.865829348564147949e-01
-2.455679699778556824e-02
-2.189914733171463013e-01
-2.436917275190353394e-02
-6.893454194068908691e-01
-6.864653229713439941e-01
-1.377185881137847900e-01
-1.392846345901489258e+00
-2.085421532392501831e-01
-6.955879330635070801e-01
-1.228343024849891663e-01
-8.337946534156799316e-01
-1.303558796644210815e-01
-3.603588640689849854e-01
-1.176872611045837402e+00
-5.443659424781799316e-01
-4.248517751693725586e-02
-6.695517301559448242e-01
-4.635109305381774902e-01
-2.148119360208511353e-01
-1.448218822479248047e-01
-2.000399827957153320e+00
-1.160882830619812012e+00
-1.812737941741943359e+00
-6.860873699188232422e-01
-1.645095944404602051e-01
-8.038780689239501953e-01
-5.990575551986694336e-01
-6.355300545692443848e-01
-1.715799689292907715e+00
-4.733192324638366699e-01
7.422906905412673950e-02
-4.079453945159912109e-01
-2.018919140100479126e-01
-9.285899251699447632e-02
-1.164401993155479431e-01
-1.790481060743331909e-01
-5.079207420349121094e-01
1.847674101591110229e-01
-1.839088052511215210e-01
-8.772548288106918335e-02
3.311990201473236084e-02
-9.330540299415588379e-01
-7.034282088279724121e-01
-3.426063656806945801e-01
-9.797497093677520752e-02
-1.681463956832885742e+00
-1.404809713363647461e+00
-2.943719550967216492e-02
-2.313503026962280273e+00
-7.315229773521423340e-01
-1.614947795867919922e+00
-7.871906161308288574e-01
-4.776378571987152100e-01
-1.407478302717208862e-01
-3.203042745590209961e-01
-8.945290446281433105e-01
-1.915753930807113647e-01
-2.804461717605590820e-01
-7.036030888557434082e-01
-8.236409425735473633e-01
-1.205189466476440430e+00
-3.454194962978363037e-01
1.028182357549667358e-01
-3.597965463995933533e-02
-1.928441375494003296e-01
-4.013782143592834473e-01
-3.722903430461883545e-01
-1.616098731756210327e-01
-1.745580285787582397e-01
-1.638274788856506348e-01
6.223971024155616760e-02
1.296022906899452209e-02
-2.567502856254577637e-01
-3.687485754489898682e-01
9.690894931554794312e-02
-4.706030786037445068e-01
6.768898665904998779e-02
-2.601779699325561523e-01
-1.059851273894309998e-01
5.026268213987350464e-02
-8.441665023565292358e-02
-9.002929925918579102e-02
-4.213182628154754639e-01
-1.097985580563545227e-01
-1.745125465095043182e-02
-2.421359717845916748e-01
-1.150291636586189270e-01
-2.471015416085720062e-02
-9.343798272311687469e-03
-3.438536077737808228e-02
-9.418886154890060425e-03
-2.646840214729309082e-01
-8.207694441080093384e-02
-8.633429557085037231e-02
-9.934592992067337036e-02
-6.093206256628036499e-02
-1.239399015903472900e-01
-2.893045246601104736e-01
1.477132458239793777e-02
2.957434765994548798e-02
-7.569693326950073242e-01
3.454538760706782341e-03
-7.856746762990951538e-02
-4.741231724619865417e-02
-2.069195955991744995e-01
-1.116278916597366333e-01
-9.874666333198547363e-01
8.667185157537460327e-02
-5.820968362968415022e-05
-2.164274267852306366e-02
3.407278284430503845e-02
-1.908268928527832031e-01
-7.896629720926284790e-02
2.982344850897789001e-02
-8.120603859424591064e-02
-1.652309596538543701e-01
-2.542930543422698975e-01
-5.148079618811607361e-02
-9.961218386888504028e-02
4.535182565450668335e-02
-1.223183199763298035e-01
-4.544544219970703125e-02
-7.024419307708740234e-02
-3.368779271841049194e-02
4.137542098760604858e-02
-3.473322093486785889e-01
6.815065443515777588e-02
5.047251656651496887e-02
-2.875353693962097168e-01
-2.610073983669281006e-01
-4.879704713821411133e-01
-1.563109606504440308e-01
-4.944666475057601929e-02
-1.190926060080528259e-01
6.206143274903297424e-02
2.238116227090358734e-02
-2.098336666822433472e-01
-2.134450674057006836e-01
-1.905788481235504150e-02
-2.077527195215225220e-01
-1.274726986885070801e-01
-4.894784092903137207e-02
-6.226568669080734253e-02
-2.637723088264465332e-01
-1.893623620271682739e-01
5.117294937372207642e-02
-2.628502249717712402e-01
-1.131191197782754898e-02
-4.045632109045982361e-02
-5.578195452690124512e-01
-1.640070527791976929e-01
-1.048858612775802612e-01
-3.906285762786865234e-02
-1.404467970132827759e-02
-1.455657780170440674e-01
-5.409162640571594238e-01
2.535843104124069214e-02
-1.616917997598648071e-01
4.319242201745510101e-03
-1.169638484716415405e-01
-4.467913508415222168e-01
-6.749261021614074707e-01
-7.754419930279254913e-03
1.147067174315452576e-01
-1.501498073339462280e-01
-2.414732426404953003e-02
-3.316196799278259277e-01
-2.244069874286651611e-01
-3.071308135986328125e-01
-3.812816366553306580e-02
-2.869718149304389954e-02
3.766551986336708069e-02
-6.513547617942094803e-03
6.416014581918716431e-02
6.119413301348686218e-02
-4.678259417414665222e-02
3.798559308052062988e-02
-4.942118376493453979e-02
-9.035888314247131348e-02
-1.282869726419448853e-01
-2.533982992172241211e-01
-3.051662445068359375e-01
6.941044330596923828e-02
-3.726428747177124023e-02
-5.141659453511238098e-02
-9.646723419427871704e-02
-2.776561863720417023e-02
-7.599885016679763794e-02
-6.837110221385955811e-02
-5.944038629531860352e-01
1.015241593122482300e-01
-1.789733208715915680e-02
-6.697562932968139648e-01
-5.405320972204208374e-02
-4.489149153232574463e-01
-2.799177169799804688e-02
-8.393352478742599487e-02
-6.615284085273742676e-02
5.026249587535858154e-02
-7.724827621132135391e-03
-1.972012072801589966e-01
-7.025032639503479004e-01
-5.024773627519607544e-02
-5.057796239852905273e-01
-1.737917959690093994e-01
-9.922009706497192383e-02
5.965333431959152222e-02
2.896250039339065552e-02
-9.424794465303421021e-02
1.089406758546829224e-01
-2.448516786098480225e-01
-8.981715887784957886e-02
-2.899957634508609772e-02
-4.233961701393127441e-01
-8.027037978172302246e-02
-5.422649160027503967e-02
-4.514438658952713013e-02
-5.997697357088327408e-03
3.480820357799530029e-02
-6.509193778038024902e-01
-3.803433850407600403e-02
-2.254954427480697632e-01
-8.230016380548477173e-02
7.824948988854885101e-03
-3.923844397068023682e-01
-3.282034397125244141e-01
-4.360133409500122070e-02
2.840160205960273743e-02
-2.255847603082656860e-01
2.352773956954479218e-02
-4.869510233402252197e-01
-3.715475797653198242e-01
-1.538197547197341919e-01
6.680383533239364624e-02
-1.030280962586402893e-01
-4.100567847490310669e-02
4.072110354900360107e-02
1.736882515251636505e-02
-2.184760756790637970e-02
-7.955504953861236572e-02
-9.472924470901489258e-02
-5.409478023648262024e-02
-1.479307413101196289e-01
-1.517622172832489014e-01
-5.824509859085083008e-01
-5.407546758651733398e-01
5.894693359732627869e-02
-1.008456423878669739e-01
-2.813894115388393402e-02
5.419181287288665771e-02
5.264194309711456299e-02
-3.612894937396049500e-02
3.015941381454467773e-02
-1.607932895421981812e-01
1.521327067166566849e-02
-1.442322134971618652e-02
-5.506926178932189941e-01
-2.872416675090789795e-01
-1.677871495485305786e-01
-1.918310374021530151e-01
-6.002243980765342712e-02
-6.794710457324981689e-02
-4.405672103166580200e-02
6.210662797093391418e-02
-2.322522997856140137e-01
-1.811812222003936768e-01
-2.131385356187820435e-02
-4.914456605911254883e-01
-6.593582779169082642e-02
3.219265490770339966e-02
-2.609973400831222534e-02
-6.770488619804382324e-02
-1.347780227661132812e-02
-4.047426581382751465e-02
-4.874837100505828857e-01
-2.181980907917022705e-01
-6.592212244868278503e-03
-1.391310989856719971e-01
-8.414366841316223145e-02
-9.596025943756103516e-02
-1.532246917486190796e-02
-6.210258975625038147e-02
-9.964544326066970825e-02
-6.377885937690734863e-01
3.009957494214177132e-03
-1.109343767166137695e-01
7.346553355455398560e-02
-9.846397675573825836e-03
-3.609045147895812988e-01
-2.666577398777008057e-01
9.484615176916122437e-02
2.726404555141925812e-02
-2.454207837581634521e-01
-5.213966220617294312e-02
-1.809576451778411865e-01
-1.020018458366394043e-01
-2.532709836959838867e-01
-1.890147924423217773e-01
-2.361552119255065918e-01
8.082085847854614258e-02
-4.971753805875778198e-02
3.341097384691238403e-02
-3.013513342011719942e-04
-5.414356291294097900e-02
2.087671495974063873e-02
-3.410525619983673096e-02
-1.248460356146097183e-02
-1.986806094646453857e-02
-4.736408591270446777e-01
-3.964037895202636719e-01
-8.583273738622665405e-03
-4.953884705901145935e-02
6.401953846216201782e-02
-3.042007051408290863e-02
-7.000385969877243042e-02
-2.186374971643090248e-03
-9.905819594860076904e-02
-4.339395165443420410e-01
6.955710798501968384e-02
-6.661740690469741821e-02
-3.808880448341369629e-01
-1.866377890110015869e-01
-5.098431706428527832e-01
-1.097903326153755188e-01
-1.148666366934776306e-01
-7.355903089046478271e-02
2.373797073960304260e-02
5.610014870762825012e-02
-1.060371249914169312e-01
-9.612579345703125000e-01
1.828243583440780640e-02
-5.778598785400390625e-01
-1.518322825431823730e-01
-1.752320975065231323e-01
-3.396068513393402100e-02
2.378273569047451019e-02
4.651143029332160950e-02
-1.924786367453634739e-03
-3.171638548374176025e-01
1.285514049232006073e-02
-2.382582286372780800e-03
-2.653155326843261719e-01
-1.563955098390579224e-02
-7.135835289955139160e-02
2.265150286257266998e-02
-3.087536804378032684e-02
-6.523555517196655273e-02
-7.307360172271728516e-01
-6.030578166246414185e-02
-6.960282474756240845e-02
-4.460167512297630310e-02
7.788286893628537655e-04
-6.343478560447692871e-01
-3.202790915966033936e-01
1.964128948748111725e-02
-5.139993131160736084e-02
-4.554392993450164795e-01
-3.137367311865091324e-04
-8.580213785171508789e-02
-9.278730750083923340e-01
-4.300700724124908447e-01
-1.276408731937408447e-01
-5.253701806068420410e-01
-9.787197411060333252e-02
3.268821537494659424e-02
5.772792175412178040e-02
-3.371609747409820557e-02
-3.682145103812217712e-02
6.674291938543319702e-02
-3.540775924921035767e-02
-1.443121135234832764e-01
-9.573423862457275391e-02
-2.246284931898117065e-01
-3.772743940353393555e-01
1.068526785820722580e-02
3.554899618029594421e-02
-1.129814758896827698e-01
-1.336953695863485336e-02
-1.266554743051528931e-01
-8.952344208955764771e-02
7.866010069847106934e-02
-6.791824102401733398e-01
7.356387376785278320e-02
-1.587560586631298065e-02
-3.809285461902618408e-01
-3.814089596271514893e-01
-2.738657295703887939e-01
-2.085165232419967651e-01
-4.627818241715431213e-02
-1.184363812208175659e-01
4.993737861514091492e-02
-6.479308009147644043e-02
-1.647010296583175659e-01
-3.711306452751159668e-01
-1.572815817780792713e-03
-5.844149589538574219e-01
-1.073006466031074524e-01
-1.660948544740676880e-01
-2.179153077304363251e-02
-1.153286918997764587e-02
-1.426589302718639374e-02
-6.998804956674575806e-02
-3.811859786510467529e-01
-5.711177829653024673e-03
6.145460158586502075e-02
-1.458220779895782471e-01
-7.362403720617294312e-02
-1.217163056135177612e-01
-1.957739703357219696e-02
-6.690570712089538574e-02
-2.764096483588218689e-02
-1.772215515375137329e-01
-5.677188932895660400e-02
-1.264284849166870117e-01
-3.451095521450042725e-02
-6.025099381804466248e-02
-6.477891206741333008e-01
-1.569102108478546143e-01
5.617975071072578430e-02
4.017287120223045349e-02
-3.802832365036010742e-01
-4.408151656389236450e-02
-5.566573515534400940e-02
-1.688982844352722168e-01
-1.146444320678710938e+00
-7.215698808431625366e-02
-1.602485477924346924e-01
2.241091988980770111e-02
5.575707927346229553e-02
3.703799471259117126e-02
-7.286611944437026978e-03
-1.912371814250946045e-02
8.517909795045852661e-02
1.524511817842721939e-02
-6.901241838932037354e-02
-3.923149779438972473e-02
-2.553754746913909912e-01
-1.895615607500076294e-01
8.353319019079208374e-03
-5.194653198122978210e-02
2.090687490999698639e-02
-1.835515536367893219e-02
-3.040444850921630859e-02
-9.528229944407939911e-03
6.286195665597915649e-02
-6.124162673950195312e-01
-1.179542765021324158e-01
-2.613235451281070709e-02
-2.857801318168640137e-01
-5.859779939055442810e-02
-8.347628265619277954e-02
-2.811297178268432617e-01
-3.846027702093124390e-02
-4.217963665723800659e-02
-4.186925292015075684e-02
1.770132966339588165e-02
-8.484831452369689941e-02
2.250288613140583038e-02
-5.707465857267379761e-02
-6.083627790212631226e-02
-9.407606720924377441e-02
-2.143750190734863281e-01
-3.101827204227447510e-02
1.823220774531364441e-02
-6.149290874600410461e-02
-3.148556570522487164e-04
-2.808417975902557373e-01
6.543431431055068970e-02
-8.514049649238586426e-02
-2.507999241352081299e-01
-4.411323368549346924e-02
-7.558567821979522705e-02
-5.368442833423614502e-02
7.336758077144622803e-02
-8.772584795951843262e-02
-5.462826490402221680e-01
1.440592706203460693e-01
1.380332186818122864e-02
5.994847789406776428e-02
-2.008777298033237457e-02
-3.791555166244506836e-01
-4.452752768993377686e-01
-3.393610194325447083e-02
1.074998080730438232e-01
-8.845435827970504761e-02
3.052828647196292877e-02
-2.558147311210632324e-01
-8.890970051288604736e-02
-3.143073916435241699e-01
9.662157855927944183e-03
1.665807701647281647e-02
2.982633560895919800e-02
-3.441665321588516235e-02
-5.536298826336860657e-02
6.083359196782112122e-02
-3.110054135322570801e-02
-7.232967298477888107e-03
-7.676919549703598022e-02
-1.770251840353012085e-01
-1.060077399015426636e-01
-7.832937687635421753e-02
-3.041330277919769287e-01
4.089125618338584900e-02
-2.611277252435684204e-02
3.237271308898925781e-02
-5.693967686966061592e-04
-1.141593903303146362e-01
-6.532339006662368774e-02
-1.410213112831115723e-01
-8.987964987754821777e-01
-6.237730383872985840e-02
2.593712136149406433e-02
-4.746115803718566895e-01
-3.139760196208953857e-01
-1.778581887483596802e-01
-9.810476005077362061e-02
-2.241757698357105255e-02
-1.146495789289474487e-01
-1.258900761604309082e-01
2.327510342001914978e-02
-4.112051799893379211e-02
-3.019493222236633301e-01
4.667843133211135864e-02
-1.776800453662872314e-01
-1.493296921253204346e-01
-6.449125707149505615e-02
-3.413168713450431824e-02
4.544609691947698593e-03
2.156183123588562012e-02
9.522329270839691162e-02
-4.867418706417083740e-01
-1.437650769948959351e-01
3.778760507702827454e-02
-6.730107963085174561e-02
-4.563825577497482300e-02
-1.079925298690795898e-01
4.787880927324295044e-02
4.064668901264667511e-03
-5.035628378391265869e-02
-2.982297241687774658e-01
2.243893779814243317e-02
-9.217225015163421631e-02
-1.533287763595581055e-02
-5.680813267827033997e-02
-6.756134629249572754e-01
-2.061495780944824219e-01
7.877318561077117920e-02
3.814240172505378723e-02
-7.131654769182205200e-02
7.392334192991256714e-02
-2.231248170137405396e-01
-1.487376093864440918e-01
-2.871124744415283203e-01
-1.143558230251073837e-02
-1.428012549877166748e-01
-5.323809385299682617e-02
1.313820015639066696e-02
1.002563983201980591e-01
-5.793087929487228394e-02
-9.238780289888381958e-02
-2.605589479207992554e-02
-7.653088122606277466e-02
-1.052506864070892334e-01
-8.879808336496353149e-02
-7.780060172080993652e-01
-6.811338663101196289e-02
6.969735026359558105e-03
-1.216741427779197693e-01
-7.934995740652084351e-02
1.491357944905757904e-02
-7.937465608119964600e-02
6.575294770300388336e-03
-5.813505128026008606e-02
-6.118020415306091309e-01
-8.873010426759719849e-02
-9.812975674867630005e-02
-6.600079536437988281e-01
-3.423329591751098633e-01
-9.596165418624877930e-01
-9.099119156599044800e-02
1.967431977391242981e-02
-2.076798826456069946e-01
-1.506773382425308228e-01
-7.058655843138694763e-03
-4.649723693728446960e-02
-4.440457820892333984e-01
-1.421750430017709732e-02
-3.870758414268493652e-01
-8.135748654603958130e-02
-5.253293514251708984e-01
4.551129415631294250e-03
4.445997066795825958e-03
-1.396984420716762543e-02
3.935342282056808472e-02
-5.753378868103027344e-01
-8.388800173997879028e-02
1.680241152644157410e-02
-1.860820204019546509e-01
2.159075997769832611e-02
-5.040156841278076172e-02
-9.126432240009307861e-03
-1.169108822941780090e-01
-1.598794311285018921e-01
-8.493890762329101562e-01
-6.569521129131317139e-02
-1.549369543790817261e-01
-1.241491455584764481e-02
-2.918873354792594910e-02
-4.369488656520843506e-01
-2.091167420148849487e-01
3.548241779208183289e-02
-5.543974414467811584e-02
-1.481812447309494019e-01
1.165080294013023376e-01
3.908070549368858337e-02
-2.594460546970367432e-01
-3.479616940021514893e-01
-2.801313996315002441e-02
-2.113315165042877197e-01
-7.353251427412033081e-02
2.138387784361839294e-02
-3.278836607933044434e-02
-1.489160582423210144e-02
-1.081385388970375061e-01
3.180971741676330566e-02
1.061310619115829468e-02
-1.300294548273086548e-01
-1.532009989023208618e-01
-5.445194244384765625e-01
-3.429439365863800049e-01
-2.113622054457664490e-02
-3.636367246508598328e-02
-1.818129122257232666e-01
-4.728375747799873352e-02
-1.423032134771347046e-01
-2.288664691150188446e-04
9.756585955619812012e-02
-5.877614021301269531e-01
3.821327909827232361e-02
-1.942713707685470581e-01
-3.953370153903961182e-01
-2.348569482564926147e-01
-7.348909378051757812e-01
-4.932183399796485901e-02
-3.667924553155899048e-02
-1.699412614107131958e-01
-1.215367168188095093e-01
-4.039632529020309448e-02
-9.377527981996536255e-02
-6.754076480865478516e-01
-7.573278993368148804e-02
-4.985427558422088623e-01
-4.629189521074295044e-02
-5.933387875556945801e-01
-1.214195881038904190e-02
2.258235355839133263e-03
1.945074647665023804e-02
4.536081477999687195e-02
-5.210796594619750977e-01
-1.284108608961105347e-01
-5.055534839630126953e-02
-3.920062184333801270e-01
-8.038786239922046661e-03
-1.756772957742214203e-02
-5.434282496571540833e-02
4.135859012603759766e-02
-9.101356379687786102e-03
-5.296754837036132812e-01
-4.472946748137474060e-02
-8.328529447317123413e-02
-2.842221036553382874e-02
-5.530450120568275452e-02
-5.761091113090515137e-01
-4.318305552005767822e-01
-5.981675349175930023e-03
-9.359470009803771973e-02
-4.750196039676666260e-01
1.302503794431686401e-01
-1.113557741045951843e-01
-4.163960218429565430e-01
-1.778800189495086670e-01
-9.513918310403823853e-02
-3.817900419235229492e-01
-1.603412628173828125e-02
3.447162359952926636e-02
-7.706167548894882202e-02
1.145110465586185455e-03
-2.176625281572341919e-01
-4.982061684131622314e-02
-2.159638702869415283e-02
-1.137621924281120300e-01
-1.512057185173034668e-01
-6.470164656639099121e-01
-3.635566830635070801e-01
-2.419749833643436432e-02
5.131551623344421387e-02
-1.706184595823287964e-01
3.981870133429765701e-03
-1.156560704112052917e-01
5.224138870835304260e-02
8.992221951484680176e-02
-8.065751791000366211e-01
-1.438391278497874737e-03
-1.496708393096923828e-01
-2.181337624788284302e-01
-4.039905592799186707e-02
-2.010473608970642090e-01
2.518051490187644958e-02
1.243528164923191071e-02
-1.709533631801605225e-01
-1.574247777462005615e-01
2.652247995138168335e-02
-1.395492255687713623e-01
-3.777022659778594971e-01
-9.419431537389755249e-02
-2.261621356010437012e-01
-6.543876230716705322e-02
-1.013713404536247253e-01
1.341603044420480728e-02
-2.495559491217136383e-02
2.279067039489746094e-02
3.387961164116859436e-02
1.234678402543067932e-01
-8.992888033390045166e-02
-2.888530865311622620e-02
-2.220135927200317383e-01
2.308784425258636475e-02
2.475532516837120056e-02
-1.274879723787307739e-01
-1.088304817676544189e-01
-1.263688802719116211e-01
-3.313067555427551270e-01
1.414532074704766273e-03
-7.132458966225385666e-03
3.897395730018615723e-02
-7.556525617837905884e-02
-2.766088545322418213e-01
-4.116575717926025391e-01
-1.740784756839275360e-02
-4.839526861906051636e-02
-9.525740891695022583e-02
1.018512621521949768e-01
-5.637918040156364441e-02
-2.473080009222030640e-01
-4.510404467582702637e-01
-8.100466430187225342e-02
-1.893756836652755737e-01
-9.861397743225097656e-02
5.323544889688491821e-02
-3.411683440208435059e-02
2.016491629183292389e-02
-1.303953677415847778e-01
3.234751522541046143e-02
-5.643348675221204758e-03
-1.616550385951995850e-01
-3.215194121003150940e-02
-2.223477959632873535e-01
-2.872117161750793457e-01
3.401256725192070007e-02
6.041363626718521118e-02
-6.825734674930572510e-02
-4.429750517010688782e-02
-1.189790070056915283e-01
6.460433453321456909e-02
8.112790435552597046e-02
-2.986208796501159668e-01
4.729006439447402954e-02
5.551414564251899719e-03
-2.895660102367401123e-01
-2.853749096393585205e-01
-4.728197753429412842e-01
-1.412589401006698608e-01
3.826950490474700928e-02
-1.141555011272430420e-01
2.299493178725242615e-02
3.142611309885978699e-02
-7.940173894166946411e-02
-1.839907020330429077e-01
-6.912332773208618164e-02
-4.625988602638244629e-01
-9.918053448200225830e-02
-1.121456697583198547e-01
7.961211353540420532e-02
-3.821677714586257935e-02
-1.759283803403377533e-02
-2.044443972408771515e-02
-3.040423393249511719e-01
-9.973028302192687988e-02
-1.113160979002714157e-03
-4.262286424636840820e-01
-1.228255406022071838e-02
-1.074824705719947815e-01
3.489417256787419319e-03
-6.797175854444503784e-02
-1.536914259195327759e-01
-6.929083466529846191e-01
-1.537341251969337463e-02
-1.088154762983322144e-01
-2.498752623796463013e-02
2.524699782952666283e-03
-4.682317376136779785e-01
-2.864024043083190918e-01
-2.532593905925750732e-03
6.686693429946899414e-02
-3.478471636772155762e-01
2.770066726952791214e-03
-2.884102426469326019e-02
-3.807335495948791504e-01
-5.013777613639831543e-01
1.107485406100749969e-02
-1.632582992315292358e-01
-9.720707312226295471e-04
1.100327912718057632e-02
-8.034124970436096191e-03
-9.417477995157241821e-03
-6.092868745326995850e-02
2.794008515775203705e-02
-7.164615206420421600e-03
-1.174016222357749939e-01
-5.558434501290321350e-02
-1.334826052188873291e-01
-2.557431757450103760e-01
4.403182864189147949e-02
1.189783494919538498e-02
-6.152581423521041870e-02
4.863528534770011902e-03
-1.097404360771179199e-01
-1.697811856865882874e-02
1.107692047953605652e-01
-6.601256728172302246e-01
-2.701375633478164673e-02
2.747870981693267822e-03
-2.998906373977661133e-01
-2.990354895591735840e-01
-2.051083147525787354e-01
-1.339356750249862671e-01
-1.194339916110038757e-01
-2.059541046619415283e-01
-3.319257870316505432e-02
-1.249794140458106995e-01
-1.401753723621368408e-01
-1.950574815273284912e-01
1.237896233797073364e-01
-4.698418378829956055e-01
-1.001308560371398926e-01
-2.111804485321044922e-01
-3.720635548233985901e-02
-4.720119386911392212e-02
-1.325581520795822144e-01
-3.766940534114837646e-02
-1.679201871156692505e-01
-1.669414713978767395e-02
1.660909131169319153e-02
-1.399116069078445435e-01
-9.023251384496688843e-02
4.030460026115179062e-03
5.394971743226051331e-02
3.360173851251602173e-02
2.149313502013683319e-02
-6.212722659111022949e-01
6.741701066493988037e-02
-8.602787554264068604e-02
-8.525212854146957397e-02
-3.045398741960525513e-02
-7.276125997304916382e-02
-7.593231648206710815e-02
9.460956603288650513e-02
1.030948758125305176e-01
-2.098497599363327026e-01
-3.448875620961189270e-02
-9.391137212514877319e-02
-2.819644808769226074e-01
-1.180092617869377136e-01
4.062391351908445358e-03
-1.446254700422286987e-01
-6.880319863557815552e-02
-7.834943942725658417e-03
-1.118272729218006134e-02
6.558193825185298920e-03
-2.306381165981292725e-01
-6.148575246334075928e-02
-1.687869131565093994e-01
-3.697793558239936829e-02
-1.524713486433029175e-01
-3.886322379112243652e-01
-3.691861033439636230e-01
5.320225656032562256e-02
-3.868660032749176025e-01
-5.009968578815460205e-02
2.443534694612026215e-02
9.370349347591400146e-02
-5.826907977461814880e-02
-9.339088946580886841e-02
-3.225100040435791016e-01
-7.638288289308547974e-02
-1.174546852707862854e-01
-2.711682617664337158e-01
-2.589391171932220459e-01
-2.508241534233093262e-01
-2.580291628837585449e-01
-2.209192365407943726e-01
5.831220746040344238e-02
-1.029589623212814331e-01
3.128604963421821594e-02
-9.189660847187042236e-02
-1.940405815839767456e-01
3.620884567499160767e-02
-4.438891410827636719e-01
-1.343163847923278809e-01
-9.066887944936752319e-02
-7.662671804428100586e-02
-7.315365970134735107e-02
-2.318198233842849731e-02
-1.537801623344421387e-01
-1.771507412195205688e-01
-9.629947692155838013e-02
-7.933611422777175903e-02
-1.511655151844024658e-01
1.805656030774116516e-02
-1.272113919258117676e-01
7.966999709606170654e-02
-6.854127161204814911e-03
-6.111583113670349121e-02
-1.014042019844055176e+00
-6.547851860523223877e-02
-1.708681583404541016e-01
1.984004490077495575e-02
1.239389926195144653e-01
-4.944698512554168701e-01
-1.947119832038879395e-01
7.103338837623596191e-02
5.633620172739028931e-02
-1.369319707155227661e-01
2.608152106404304504e-02
-6.135067343711853027e-02
-1.130677908658981323e-01
-3.309275209903717041e-02
1.742788590490818024e-02
-3.303474187850952148e-01
-1.152868494391441345e-01
-1.169110685586929321e-01
-6.061995401978492737e-02
-1.090412866324186325e-02
-1.542742401361465454e-01
-4.611558094620704651e-02
5.427111871540546417e-03
-3.383856639266014099e-02
-5.387438926845788956e-03
-4.521875977516174316e-01
-2.455803453922271729e-01
-6.082012504339218140e-02
-1.336137056350708008e-01
1.221310347318649292e-02
1.168501302599906921e-01
-1.964968293905258179e-01
-7.011239975690841675e-02
2.257818356156349182e-02
-2.115147858858108521e-01
1.130483970046043396e-01
6.755723059177398682e-02
-4.038269221782684326e-01
-2.641199231147766113e-01
-3.903728723526000977e-01
-5.297614634037017822e-02
-1.015298906713724136e-02
-2.273212224245071411e-01
6.501264125108718872e-02
-6.061052531003952026e-02
-2.031733244657516479e-01
-9.833173751831054688e-01
-6.108826398849487305e-02
-4.749565422534942627e-01
-1.022348850965499878e-01
-1.078645214438438416e-01
3.690511733293533325e-02
-2.486681193113327026e-02
-3.405582904815673828e-02
9.771638363599777222e-02
-5.586891174316406250e-01
-2.143192440271377563e-01
2.863492071628570557e-02
-3.641347289085388184e-01
-9.023135155439376831e-02
-6.835053116083145142e-02
-9.266316145658493042e-02
-2.424340397119522095e-01
-2.650532126426696777e-02
-7.507582902908325195e-01
2.967645414173603058e-03
-1.489933431148529053e-01
-9.491670876741409302e-03
-8.880656957626342773e-02
-2.988491058349609375e-01
-2.984631061553955078e-01
-7.004491239786148071e-02
1.693162508308887482e-02
-7.345142960548400879e-01
2.594846114516258240e-02
-8.053133487701416016e-01
-1.638572663068771362e-01
-6.665573120117187500e-01
-3.151268884539604187e-02
-5.883949995040893555e-01
-6.618333607912063599e-02
1.147550866007804871e-01
6.510852277278900146e-02
9.802815504372119904e-03
-4.069625213742256165e-02
-2.426279895007610321e-02
-3.328558057546615601e-02
-1.751362085342407227e-01
-9.128516912460327148e-02
-1.576165258884429932e-01
-4.117542803287506104e-01
-5.648147687315940857e-02
-1.232297644019126892e-01
-4.661491140723228455e-02
-1.010371819138526917e-01
-2.419936209917068481e-01
-5.068760365247726440e-03
3.676359727978706360e-02
-5.569623708724975586e-01
-1.169093791395425797e-02
-4.152628034353256226e-02
-3.725568950176239014e-01
-1.836384683847427368e-01
-1.838344186544418335e-01
-2.026524208486080170e-02
-9.780620783567428589e-02
-2.676899358630180359e-02
6.047668308019638062e-02
6.771779805421829224e-02
-2.467452287673950195e-01
-1.796781718730926514e-01
3.209370374679565430e-02
-4.663223922252655029e-01
-4.280487820506095886e-02
4.487452656030654907e-02
5.173907428979873657e-02
-4.788764566183090210e-02
-1.682944223284721375e-02
8.156698197126388550e-02
-1.403702348470687866e-01
-9.416660666465759277e-02
-4.953723400831222534e-02
-2.087324410676956177e-01
-8.770652115345001221e-02
-7.253731787204742432e-02
-3.972463682293891907e-02
-1.312372684478759766e-01
-1.391704976558685303e-01
-3.941954374313354492e-01
2.196449972689151764e-02
-1.889546662569046021e-01
8.476476371288299561e-02
-2.240848727524280548e-03
-4.889561235904693604e-01
-2.821981012821197510e-01
-1.022984683513641357e-01
7.301893085241317749e-02
-1.263669431209564209e-01
-5.156556516885757446e-02
-1.073530241847038269e-01
-7.098346948623657227e-02
-1.122658029198646545e-01
-6.396241486072540283e-02
-2.275706231594085693e-01
4.647952690720558167e-02
6.849391013383865356e-02
7.673323154449462891e-02
6.732394546270370483e-02
-4.701977595686912537e-02
-2.196425385773181915e-02
-1.442472822964191437e-02
-1.882254034280776978e-01
-4.094788804650306702e-02
-1.196772754192352295e-01
-2.051878869533538818e-01
-8.345473557710647583e-02
-1.928508579730987549e-01
-2.692043967545032501e-02
-2.237366139888763428e-02
-2.473074495792388916e-01
-1.206324552185833454e-03
-1.249701678752899170e-01
-6.873462796211242676e-01
9.657090157270431519e-02
-4.899780731648206711e-03
-2.082740068435668945e-01
-1.218478083610534668e-01
-3.906704187393188477e-01
-4.926114156842231750e-02
-2.449482083320617676e-01
-9.389599412679672241e-02
2.817179076373577118e-02
-7.483411580324172974e-02
-1.211183667182922363e-01
-5.940487384796142578e-01
1.292560994625091553e-01
-5.886388421058654785e-01
-1.487048715353012085e-01
-2.120103389024734497e-01
-3.753700107336044312e-02
-3.921973053365945816e-03
-6.892294436693191528e-02
9.297698736190795898e-02
-1.719036102294921875e-01
-4.106300882995128632e-03
-2.625856176018714905e-02
-1.108570992946624756e-01
-9.488164447247982025e-03
1.761634135618805885e-03
2.104019001126289368e-02
2.470351755619049072e-02
3.497998416423797607e-02
-7.211577296257019043e-01
-7.243566215038299561e-02
-2.305471301078796387e-01
-6.448061764240264893e-02
2.927891537547111511e-02
-2.813062369823455811e-01
-3.085731565952301025e-01
-7.245327532291412354e-02
3.180200979113578796e-02
-4.845858514308929443e-01
4.173033311963081360e-02
-2.578714489936828613e-01
-3.948752582073211670e-01
-2.468439005315303802e-02
-1.229247450828552246e-02
-2.084189951419830322e-01
-1.191793009638786316e-01
8.577974513173103333e-03
2.017697878181934357e-02
1.910652220249176025e-02
-1.925079524517059326e-01
-1.461502537131309509e-02
-6.660081446170806885e-02
-1.534864455461502075e-01
-7.044806331396102905e-02
-4.251433312892913818e-01
-3.531317114830017090e-01
-7.622715551406145096e-03
-1.557384729385375977e-01
-1.202723458409309387e-01
6.339448504149913788e-03
1.261514145880937576e-02
-4.158252850174903870e-02
-6.009129807353019714e-02
-6.669324636459350586e-01
5.306846275925636292e-02
6.548933684825897217e-02
-3.515490889549255371e-01
-2.568456828594207764e-01
-2.683129906654357910e-01
-1.396825462579727173e-01
-4.637342691421508789e-02
-1.353017240762710571e-01
4.638681560754776001e-02
-6.244068220257759094e-02
-1.096616685390472412e-01
-5.096299052238464355e-01
5.266940593719482422e-02
-5.508620142936706543e-01
-1.398241519927978516e-01
-1.703499108552932739e-01
-1.110054738819599152e-02
-1.922837346792221069e-01
-2.344698878005146980e-03
8.746694773435592651e-02
-4.020438194274902344e-01
-1.277497261762619019e-01
5.049718543887138367e-02
-2.255470901727676392e-01
-1.654860079288482666e-01
-1.559469699859619141e-01
-1.802579313516616821e-02
-2.251379378139972687e-02
-1.017006710171699524e-01
-5.187034606933593750e-01
-1.515473145991563797e-02
-8.688574284315109253e-02
-5.004223063588142395e-02
-6.549728661775588989e-02
-5.417243838310241699e-01
-4.086421132087707520e-01
-6.025952752679586411e-03
1.068849340081214905e-01
-2.214151769876480103e-01
-4.348753020167350769e-02
-1.967455148696899414e-01
-4.156375527381896973e-01
-3.107366561889648438e-01
-1.011353917419910431e-02
-7.105765491724014282e-02
-6.639557331800460815e-02
3.374690935015678406e-02
1.167713627219200134e-01
2.857516705989837646e-02
-5.904573015868663788e-03
4.083972424268722534e-02
-4.272427409887313843e-02
-1.362887322902679443e-01
-1.039956212043762207e-01
-3.686025738716125488e-01
-2.899885177612304688e-01
-3.445301204919815063e-02
-3.104887902736663818e-01
-9.559059888124465942e-02
-4.968870803713798523e-02
-7.685786485671997070e-02
-9.436452388763427734e-02
-2.725739590823650360e-02
-5.831915140151977539e-01
7.119444757699966431e-02
6.212494801729917526e-03
-3.709083795547485352e-01
-1.129391491413116455e-01
-2.675547003746032715e-01
-1.670328676700592041e-01
-2.494079992175102234e-02
-9.533023089170455933e-02
7.903042435646057129e-02
8.000368252396583557e-03
-2.864248156547546387e-01
-3.990066051483154297e-01
-3.309570625424385071e-02
-2.540841996669769287e-01
-1.415410488843917847e-01
-8.771948516368865967e-02
4.496078938245773315e-02
-4.434859380125999451e-02
-3.246513754129409790e-02
-4.558167234063148499e-02
-4.527374207973480225e-01
-7.424861192703247070e-02
-3.230951726436614990e-02
-2.074449062347412109e-01
-3.710270300507545471e-02
-8.173933625221252441e-02
6.018621847033500671e-03
-5.231335759162902832e-02
-1.237734854221343994e-01
-5.863613486289978027e-01
-4.963102191686630249e-02
-8.506754785776138306e-02
-2.871527336537837982e-02
1.364109572023153305e-03
-4.642955958843231201e-01
-2.577818334102630615e-01
-6.910778582096099854e-02
8.883056044578552246e-02
-3.465550839900970459e-01
-8.727764338254928589e-02
-4.552415758371353149e-02
-2.795428931713104248e-01
-5.100642442703247070e-01
-4.208127036690711975e-02
-1.364666521549224854e-01
1.244840491563081741e-02
1.631026342511177063e-02
1.669165492057800293e-02
2.117503993213176727e-02
-1.256041601300239563e-02
6.436561793088912964e-02
1.649154350161552429e-02
-1.183191835880279541e-01
-1.212602667510509491e-02
-1.260177344083786011e-01
-2.310123145580291748e-01
-3.360188007354736328e-02
-5.169493332505226135e-02
-4.475041478872299194e-02
-8.336921781301498413e-02
-2.010511904954910278e-01
-4.779439046978950500e-02
8.886670321226119995e-02
-2.208825796842575073e-01
-1.659072041511535645e-01
-1.613518446683883667e-01
-3.206609562039375305e-02
-1.510849744081497192e-01
-9.145343303680419922e-02
-8.853263407945632935e-02
-7.248841971158981323e-02
2.056826278567314148e-02
-9.516718238592147827e-02
8.744700253009796143e-02
-3.514006361365318298e-02
-1.718703210353851318e-01
5.341086536645889282e-02
-2.502371966838836670e-01
-4.704227298498153687e-02
-1.042687445878982544e-01
9.506255388259887695e-03
2.824255079030990601e-02
5.955341830849647522e-02
1.959549449384212494e-02
-1.369862407445907593e-01
-1.191081553697586060e-01
-1.666828989982604980e-01
-1.434339284896850586e-01
4.100912809371948242e-02
-5.776008591055870056e-02
6.608062982559204102e-02
-1.148428320884704590e-01
-3.563073650002479553e-02
-6.589378714561462402e-01
-5.175844207406044006e-02
-1.004969179630279541e-01
3.189763054251670837e-02
6.259077042341232300e-02
-1.474707573652267456e-01
-1.596689224243164062e-01
-1.216134428977966309e-02
-3.888181969523429871e-02
-3.963008224964141846e-01
4.310940951108932495e-02
-1.213655248284339905e-01
-3.296433091163635254e-01
-1.254002600908279419e-01
-7.729828357696533203e-02
-3.832062780857086182e-01
-9.924497455358505249e-02
4.692724719643592834e-02
2.333688177168369293e-02
-9.270327165722846985e-03
-1.700552999973297119e-01
9.014599025249481201e-02
-2.982526272535324097e-02
-1.222836673259735107e-01
-4.635131359100341797e-02
-1.686644256114959717e-01
-2.781080603599548340e-01
-1.232116818428039551e-01
-1.206193938851356506e-01
-2.196937985718250275e-02
5.674901604652404785e-02
-3.175853490829467773e-01
-4.937541112303733826e-02
-3.859741240739822388e-02
-2.595495581626892090e-01
-3.547244518995285034e-02
4.660066589713096619e-02
-1.573968380689620972e-01
-3.210224509239196777e-01
-1.986347138881683350e-01
-4.848405346274375916e-02
-2.396825328469276428e-02
-1.672450304031372070e-01
-1.645700484514236450e-01
-5.612148717045783997e-02
-3.425943478941917419e-02
-1.349835842847824097e-01
5.989449471235275269e-02
-1.378430128097534180e-01
-1.332775801420211792e-01
-2.924432754516601562e-01
-3.283588215708732605e-02
1.275387965142726898e-02
1.522441022098064423e-02
6.371872127056121826e-02
-6.001741811633110046e-02
-4.044703394174575806e-02
2.496858127415180206e-02
-1.651032119989395142e-01
3.269432857632637024e-02
-1.321523934602737427e-01
2.562471292912960052e-02
-2.249396219849586487e-02
-5.719386041164398193e-03
-1.902362406253814697e-01
-3.453913703560829163e-02
-9.724789857864379883e-02
-3.619072586297988892e-02
-6.498961709439754486e-03
-4.908380210399627686e-01
-1.916745305061340332e-01
2.158518135547637939e-02
-4.251831024885177612e-02
-3.724511265754699707e-01
9.813400357961654663e-02
-6.244560331106185913e-02
-1.214814037084579468e-01
-2.359380722045898438e-01
-6.925061810761690140e-03
-1.201333552598953247e-01
-7.102450728416442871e-02
9.447086602449417114e-02
2.252664417028427124e-02
-1.002496667206287384e-02
-1.563722640275955200e-01
1.008483916521072388e-01
-6.711530685424804688e-02
-1.326479762792587280e-01
-1.692672818899154663e-01
-2.746319472789764404e-01
-2.421886622905731201e-01
2.600067853927612305e-02
-1.039691716432571411e-01
-1.116199716925621033e-01
6.974117457866668701e-02
-3.589543700218200684e-02
-8.186152577400207520e-02
-1.873780600726604462e-02
-1.814643144607543945e-01
4.224450327455997467e-03
4.581031203269958496e-02
-3.436333835124969482e-01
-3.348786830902099609e-01
-2.636014223098754883e-01
-2.046680822968482971e-02
-1.369106471538543701e-01
-1.034648492932319641e-01
2.406468987464904785e-02
-6.308110058307647705e-02
-9.666932374238967896e-02
-1.177491322159767151e-01
2.993145957589149475e-02
-2.267366349697113037e-01
-1.048078089952468872e-01
-1.225009933114051819e-01
-9.109896607697010040e-03
-2.086245454847812653e-02
-6.918428093194961548e-02
1.119382604956626892e-01
-8.863288909196853638e-02
-2.353865802288055420e-01
3.657583892345428467e-02
-4.088978767395019531e-01
-2.083337306976318359e-02
-2.386558614671230316e-02
-1.087428182363510132e-01
-7.104867696762084961e-02
-8.106815814971923828e-02
-2.878617942333221436e-01
-2.862548828125000000e-02
-1.095157042145729065e-01
-2.461411617696285248e-02
-3.640500828623771667e-02
-3.916823863983154297e-01
-2.221054285764694214e-01
-6.331764161586761475e-02
-2.757405862212181091e-02
-2.681847810745239258e-01
2.239984832704067230e-02
-2.119751274585723877e-01
-8.234519511461257935e-02
-2.975981831550598145e-01
-5.164076015353202820e-02
-4.993616789579391479e-02
1.959931291639804840e-02
1.116497218608856201e-01
6.613326072692871094e-02
8.989007025957107544e-02
-5.584978312253952026e-02
8.207256346940994263e-02
-3.872764855623245239e-02
-2.907552123069763184e-01
-8.182203769683837891e-02
-1.465681642293930054e-01
-2.520594596862792969e-01
-8.672719821333885193e-03
-1.394775360822677612e-01
-1.465725004673004150e-01
-6.291571259498596191e-02
-8.897404372692108154e-02
-1.043177470564842224e-01
5.927324760705232620e-03
-3.082417547702789307e-01
-4.520658403635025024e-02
-1.674307323992252350e-02
-3.885987997055053711e-01
-1.574036777019500732e-01
-2.549773156642913818e-01
-3.445177152752876282e-02
-1.059640944004058838e-01
-2.590244822204113007e-02
4.021876025944948196e-03
2.133063599467277527e-02
-1.087442636489868164e-01
6.285247392952442169e-03
5.176017433404922485e-02
-6.270576715469360352e-01
-6.601002812385559082e-02
-8.721473813056945801e-02
-8.958900580182671547e-04
-8.384927175939083099e-03
-1.466156449168920517e-02
1.367041170597076416e-01
-1.192637681961059570e-01
1.374702062457799911e-02
-2.153082285076379776e-03
-2.227097153663635254e-01
-8.120780438184738159e-02
-7.812235504388809204e-02
1.453061029314994812e-02
3.252401202917098999e-02
-7.569789886474609375e-02
-5.229554176330566406e-01
-1.112779695540666580e-02
-9.766498208045959473e-02
-2.579176612198352814e-02
-6.308436393737792969e-02
-3.376765251159667969e-01
-4.072582125663757324e-01
-2.370688132941722870e-02
1.169788241386413574e-01
-6.469269841909408569e-02
1.732379198074340820e-02
-1.228241920471191406e-01
-1.710636317729949951e-01
-7.521084696054458618e-02
5.738868936896324158e-02
-8.901517838239669800e-03
3.066700138151645660e-02
1.624400727450847626e-02
8.266936242580413818e-02
7.941290736198425293e-02
-7.385198771953582764e-02
-1.019570529460906982e-01
-5.927139148116111755e-02
-2.198283076286315918e-01
-9.574642032384872437e-02
-3.148258626461029053e-01
-2.218630909919738770e-01
4.042492061853408813e-02
-2.178826332092285156e-01
-5.009702220559120178e-02
-5.178475286811590195e-03
-2.101524621248245239e-01
-2.523986995220184326e-02
-9.825295954942703247e-02
-9.758899807929992676e-01
7.527536712586879730e-03
-3.620633482933044434e-02
-4.504399299621582031e-01
-1.953260302543640137e-01
-6.503479182720184326e-02
-1.847181767225265503e-01
2.170935645699501038e-02
-8.860090374946594238e-02
-3.491180762648582458e-02
-4.393745213747024536e-02
-3.199723362922668457e-02
-3.921188712120056152e-01
-2.521742880344390869e-02
-9.373855590820312500e-02
-1.759856045246124268e-01
-2.253163307905197144e-01
1.645497232675552368e-02
1.400973647832870483e-02
-1.144938468933105469e-01
3.103576041758060455e-02
-5.232400894165039062e-01
-7.932335883378982544e-02
8.502946794033050537e-02
-6.461459398269653320e-02
-1.206132993102073669e-01
-8.007717877626419067e-02
-4.041517153382301331e-02
-8.681802451610565186e-02
-7.336337864398956299e-02
-4.940910935401916504e-01
-4.944998025894165039e-02
-9.913735836744308472e-02
-6.993021070957183838e-02
1.812717691063880920e-02
-4.715742170810699463e-01
-3.060022592544555664e-01
7.069156318902969360e-02
1.077915634959936142e-02
2.540939953178167343e-03
-9.631805121898651123e-03
-1.656434535980224609e-01
-1.270802766084671021e-01
-2.014198601245880127e-01
-5.422534421086311340e-02
-1.339266002178192139e-01
-6.242152675986289978e-02
8.509442955255508423e-02
-5.553535185754299164e-03
-9.732718020677566528e-02
-2.885736711323261261e-02
-6.425706297159194946e-02
-7.092964649200439453e-02
-1.543212383985519409e-01
-1.207394450902938843e-01
-3.756042420864105225e-01
1.910359598696231842e-02
9.993964433670043945e-02
-2.089822478592395782e-02
-7.649821043014526367e-02
-4.371705651283264160e-02
3.536034375429153442e-02
7.276277244091033936e-02
2.752753905951976776e-03
-4.567349851131439209e-01
-2.936843782663345337e-03
-1.978065818548202515e-01
-3.263542056083679199e-01
-2.572301924228668213e-01
-1.809774637222290039e-01
-4.834193736314773560e-02
8.117665536701679230e-03
-1.345276534557342529e-01
-1.450095027685165405e-01
-3.142799437046051025e-02
-2.169239968061447144e-01
-2.097906321287155151e-01
-1.552314013242721558e-01
-2.203759700059890747e-01
-1.348230391740798950e-01
-2.499359846115112305e-01
2.710680849850177765e-02
-1.132389083504676819e-01
-1.042097210884094238e-01
-6.150237470865249634e-02
-2.871948480606079102e-01
-1.202792897820472717e-01
4.567325860261917114e-02
-6.957253068685531616e-02
-1.848418563604354858e-01
1.027414128184318542e-01
-6.658400595188140869e-02
-1.878094673156738281e-01
-4.259201884269714355e-02
-6.888592243194580078e-01
1.225580573081970215e-01
8.976340293884277344e-02
7.660544663667678833e-02
1.834716089069843292e-02
-1.211916878819465637e-01
-2.471965551376342773e-01
-1.648621819913387299e-02
-1.554226279258728027e-01
3.831318020820617676e-02
-8.231472223997116089e-02
-5.609540343284606934e-01
-1.799172461032867432e-01
-2.975347638130187988e-01
-4.937011003494262695e-02
-1.961805671453475952e-01
-7.632340490818023682e-02
3.261819109320640564e-02
-9.499280899763107300e-02
-1.020825430750846863e-01
-3.181266039609909058e-02
1.034384965896606445e-02
-5.716330558061599731e-02
-1.472386866807937622e-01
3.897157683968544006e-02
-3.727674856781959534e-02
-2.268922030925750732e-01
-1.481015351600944996e-05
-2.861618436872959137e-02
3.138094395399093628e-02
8.108334615826606750e-03
-2.245484851300716400e-02
3.446579724550247192e-02
1.276797987520694733e-02
-4.366469085216522217e-01
-1.201837137341499329e-01
-6.090849637985229492e-02
-1.027949675917625427e-01
-1.775232851505279541e-01
-1.823472604155540466e-02
-2.194976508617401123e-01
-4.759378731250762939e-03
-6.336075812578201294e-02
-3.139712661504745483e-02
3.701157867908477783e-02
-8.072301745414733887e-02
-1.097986996173858643e-01
4.270119126886129379e-03
-9.031677991151809692e-02
-5.599362030625343323e-02
-9.213854558765888214e-03
-5.317284166812896729e-02
-4.912628978490829468e-02
-9.314993023872375488e-02
-6.326801329851150513e-02
-1.332814544439315796e-01
-5.806853994727134705e-02
1.256421394646167755e-02
-2.019610852003097534e-01
-1.101564094424247742e-01
-1.258231252431869507e-01
-6.748108565807342529e-02
5.212107673287391663e-02
-7.307791709899902344e-02
-1.178578019142150879e+00
5.040882155299186707e-02
-4.427212849259376526e-02
7.285701483488082886e-02
8.349165320396423340e-03
-2.188031524419784546e-01
-4.094648361206054688e-01
-2.818261645734310150e-02
6.281831860542297363e-02
-1.020311266183853149e-01
3.707724157720804214e-03
-4.814812541007995605e-01
7.027402520179748535e-02
-2.442779690027236938e-01
3.126800432801246643e-02
-1.509257555007934570e-01
2.639022842049598694e-02
-1.730814576148986816e-03
-5.716536194086074829e-02
-4.899463057518005371e-02
-1.598912663757801056e-02
-7.991459220647811890e-02
-5.427024792879819870e-03
-2.053741961717605591e-01
-8.908410370349884033e-02
-2.494535595178604126e-01
-1.244702711701393127e-01
6.030969694256782532e-02
-7.354057580232620239e-02
6.233122199773788452e-02
-3.682969883084297180e-02
-1.307919174432754517e-01
1.062481105327606201e-01
-2.131658941507339478e-01
-3.653676509857177734e-01
-9.965145587921142578e-02
-1.136796921491622925e-01
-1.742061972618103027e-01
-1.697784811258316040e-01
-1.994960308074951172e-01
-2.081138789653778076e-01
4.705385770648717880e-03
-5.785004794597625732e-02
-8.487579226493835449e-02
7.597634941339492798e-02
-6.103631854057312012e-02
-3.104103803634643555e-01
-3.415578976273536682e-02
-7.807144522666931152e-02
-8.188225328922271729e-02
-2.945168875157833099e-02
2.801750972867012024e-02
6.484878808259963989e-02
-6.090588495135307312e-02
-4.379767924547195435e-02
-4.486494362354278564e-01
-2.524829469621181488e-02
1.955100335180759430e-02
-9.269035421311855316e-03
-2.313747815787792206e-02
8.356257341802120209e-03
4.566033557057380676e-02
-8.657509833574295044e-02
-1.064055562019348145e-01
-4.565936028957366943e-01
-3.528389707207679749e-02
1.186230219900608063e-02
-2.965847775340080261e-02
-8.141240477561950684e-02
-5.968530178070068359e-01
-1.775505840778350830e-01
7.094435393810272217e-02
-9.400427341461181641e-02
1.082048937678337097e-02
-5.892090871930122375e-02
-9.756302088499069214e-02
-2.943220436573028564e-01
-1.655548959970474243e-01
-2.099946737289428711e-01
-2.825859785079956055e-01
-5.177168920636177063e-02
5.276059359312057495e-02
-3.674798458814620972e-02
-8.101410418748855591e-02
-5.790765210986137390e-02
3.614536300301551819e-02
1.821272633969783783e-02
-1.571805477142333984e-01
-3.147254697978496552e-03
-2.215191870927810669e-01
-1.593879610300064087e-01
1.802758127450942993e-02
-8.431632071733474731e-03
-7.628090679645538330e-02
-6.788773089647293091e-02
-1.308818757534027100e-01
6.460721045732498169e-02
1.172865740954875946e-02
-3.391677737236022949e-01
-1.394175410270690918e+00
-4.525368213653564453e-01
-1.141810640692710876e-01
-9.958104230463504791e-03
-1.252366304397583008e-01
-3.099023401737213135e-01
-5.564073920249938965e-01
-5.284979343414306641e-01
-1.134455919265747070e+00
-5.326250195503234863e-01
-9.530832767486572266e-01
-1.301639527082443237e-01
-8.962150216102600098e-01
-1.634795069694519043e-01
-1.481984108686447144e-01
-1.055687785148620605e+00
-5.186682939529418945e-01
-8.786731362342834473e-01
-2.729271650314331055e-01
-5.291963219642639160e-01
-3.113645017147064209e-01
9.253931790590286255e-02
-1.906865000724792480e+00
-8.245456218719482422e-01
-2.183565855026245117e+00
-4.316298365592956543e-01
-9.302207231521606445e-01
-1.074664816260337830e-01
-2.887721061706542969e-01
-2.758241891860961914e-01
-1.689320802688598633e+00
-4.026848077774047852e-01
-5.412599444389343262e-01
-2.949531078338623047e-01
-2.241055071353912354e-01
-1.339103560894727707e-02
-1.026094317436218262e+00
-8.799322247505187988e-01
-2.108742594718933105e-01
-8.370134234428405762e-01
4.241457954049110413e-02
-2.742393314838409424e-01
-7.467996329069137573e-02
-7.514004111289978027e-01
-4.868171513080596924e-01
-1.388434767723083496e-01
-6.124389767646789551e-01
-1.187361001968383789e+00
-1.027231931686401367e+00
-1.132387399673461914e+00
-1.561010837554931641e+00
-4.256873130798339844e-01
-9.847699999809265137e-01
-2.670541405677795410e-01
-1.511558741331100464e-01
-1.074812635779380798e-01
-4.878734648227691650e-01
-6.818043589591979980e-01
-5.652046203613281250e-01
-7.239325642585754395e-01
-3.731873929500579834e-01
-1.532523155212402344e+00
-1.272931218147277832e+00
-3.481778204441070557e-01
-1.293558627367019653e-01
-9.796488285064697266e-02
-3.202056288719177246e-01
-2.520415484905242920e-01
-3.355321586132049561e-01
-1.308379620313644409e-01
5.714784562587738037e-02
-1.137495934963226318e-01
-3.103224746882915497e-02
-1.224279925227165222e-01
-5.168780311942100525e-02
-9.224213659763336182e-02
-3.416879475116729736e-02
-4.839982092380523682e-01
-1.112007498741149902e-01
-1.411532759666442871e-01
-1.216902025043964386e-02
-8.311615139245986938e-02
-1.001594439148902893e-01
9.827307611703872681e-02
-2.693052962422370911e-02
-1.964973099529743195e-02
6.486603617668151855e-02
-1.389513611793518066e-01
-1.099468618631362915e-01
-3.227317333221435547e-02
-1.181578040122985840e-01
-2.860329858958721161e-02
4.832893610000610352e-02
-7.015315294265747070e-01
9.968358278274536133e-02
7.996823638677597046e-03
-4.429591353982686996e-03
-9.183440357446670532e-02
-4.689476490020751953e-01
-4.419362545013427734e-01
-6.158649921417236328e-02
7.784882932901382446e-02
-6.244495138525962830e-02
3.565167263150215149e-02
-2.453225106000900269e-01
-1.444947868585586548e-01
-2.092393040657043457e-01
1.161949485540390015e-01
-2.999279089272022247e-02
-1.927242800593376160e-02
2.031153254210948944e-02
-3.441786020994186401e-02
1.477578748017549515e-02
-5.649547651410102844e-02
-6.384141743183135986e-02
-2.324200049042701721e-02
-1.996795386075973511e-01
-4.863474145531654358e-02
-2.913816273212432861e-01
-1.749005466699600220e-01
6.458285450935363770e-02
-1.382322758436203003e-01
-2.023554034531116486e-02
-5.345764104276895523e-03
-1.284360187128186226e-03
4.297989606857299805e-02
-1.304407566785812378e-01
-7.141579985618591309e-01
-5.479130521416664124e-02
-1.491026431322097778e-01
-2.346052378416061401e-01
-1.248654648661613464e-01
-3.056905865669250488e-01
-3.428623378276824951e-01
6.786103546619415283e-02
-2.208533138036727905e-01
-1.123290807008743286e-01
-1.526928991079330444e-01
-1.274897009134292603e-01
-7.739582657814025879e-02
-5.491374805569648743e-02
-3.101978600025177002e-01
-3.132780790328979492e-01
-2.178635001182556152e-01
8.211828768253326416e-03
-1.205576434731483459e-01
-9.202079474925994873e-02
4.234871640801429749e-02
-1.827002018690109253e-01
-1.473929435014724731e-01
5.869735404849052429e-02
-2.628948688507080078e-01
-1.444958597421646118e-01
2.147794142365455627e-02
-1.494483351707458496e-01
-4.938301071524620056e-02
6.268684566020965576e-02
-4.234707057476043701e-01
1.180677711963653564e-01
3.497981280088424683e-02
-2.834234200417995453e-02
-1.409919410943984985e-01
-5.413579344749450684e-01
-2.277992665767669678e-01
-1.363141275942325592e-02
1.844684965908527374e-02
-1.456342637538909912e-01
-2.106642909348011017e-02
-1.686961650848388672e-01
-1.132099255919456482e-01
-2.642408013343811035e-01
9.863190352916717529e-02
-2.530482970178127289e-02
-2.508047595620155334e-02
-6.181929633021354675e-02
-1.317419409751892090e-01
-6.669503450393676758e-02
-7.027558982372283936e-02
-3.492779284715652466e-02
-1.035298854112625122e-01
-1.410293132066726685e-01
-6.025568768382072449e-02
-3.107451498508453369e-01
-4.446781873703002930e-01
1.095843613147735596e-01
-1.319099664688110352e-01
-2.800332382321357727e-02
4.375487193465232849e-02
4.898245632648468018e-02
-1.749356742948293686e-03
-1.173477023839950562e-01
-4.763996005058288574e-01
-3.761494997888803482e-03
9.887008927762508392e-03
-4.198121130466461182e-01
-1.412988603115081787e-01
-1.441290378570556641e-01
-1.791938096284866333e-01
1.112654358148574829e-01
-7.379503548145294189e-02
-7.709901779890060425e-02
-4.436611756682395935e-02
-9.927032887935638428e-02
-1.380372643470764160e-01
-1.426807492971420288e-01
-2.217113673686981201e-01
-9.693332761526107788e-02
-1.101894676685333252e-01
9.646462649106979370e-02
-2.500686235725879669e-02
8.341869688592851162e-04
-6.234019622206687927e-02
-2.388610392808914185e-01
-1.427214145660400391e-01
3.497106581926345825e-02
-1.554838716983795166e-01
-3.010141476988792419e-02
-4.391304776072502136e-02
-7.330598682165145874e-02
-1.817638613283634186e-02
-9.356617182493209839e-02
-5.251477360725402832e-01
1.104549095034599304e-01
-2.555805817246437073e-02
-1.758168567903339863e-03
2.150982245802879333e-02
-2.049210518598556519e-01
-4.983717575669288635e-02
-2.816042490303516388e-02
-2.360730059444904327e-02
-1.890928894281387329e-01
-1.420580409467220306e-02
-2.239209562540054321e-01
-1.121117025613784790e-01
-2.544700801372528076e-01
8.214257657527923584e-03
-1.423362344503402710e-01
2.805958129465579987e-02
1.981475763022899628e-02
-1.713415235280990601e-01
-5.721943825483322144e-02
-5.166654288768768311e-02
3.056351095438003540e-02
-6.758570671081542969e-02
-1.353023946285247803e-01
-4.262857139110565186e-02
-1.065131723880767822e-01
-4.680624008178710938e-01
4.698929563164710999e-02
-6.939689628779888153e-03
4.806980118155479431e-02
-4.470485076308250427e-02
-6.513759493827819824e-02
4.615994915366172791e-02
5.568844079971313477e-02
-6.800045371055603027e-01
-4.282044619321823120e-02
-5.611036717891693115e-02
-2.878600656986236572e-01
-1.879891157150268555e-01
-4.471200108528137207e-01
-1.696393787860870361e-01
-4.314192384481430054e-02
-9.568717330694198608e-02
-1.006314903497695923e-01
1.075844094157218933e-01
-5.912641063332557678e-02
-2.102257460355758667e-01
4.465153068304061890e-02
-3.319748342037200928e-01
-1.643492281436920166e-01
-5.282965302467346191e-02
-2.598956041038036346e-02
6.467246264219284058e-02
-5.111551284790039062e-02
-5.510156229138374329e-02
1.356994267553091049e-02
-1.092076003551483154e-01
-8.634078502655029297e-02
-8.339426666498184204e-02
3.412777557969093323e-02
-1.066346913576126099e-01
7.458840310573577881e-02
2.972764777950942516e-04
-4.719210416078567505e-02
-1.217953786253929138e-01
-4.425209760665893555e-02
-1.460073888301849365e-01
-4.253141954541206360e-02
-3.002087213099002838e-02
-4.607301950454711914e-01
-1.300695538520812988e-01
3.298771381378173828e-02
2.383075281977653503e-02
-1.064913943409919739e-01
-9.385383687913417816e-03
-5.820220336318016052e-02
-1.917223185300827026e-01
-8.781456202268600464e-02
-6.836102902889251709e-02
-2.458022534847259521e-01
3.730884939432144165e-02
4.263144358992576599e-02
-6.819307059049606323e-02
-6.204316020011901855e-02
-1.794040054082870483e-01
5.929108336567878723e-02
-9.770230203866958618e-02
-1.129470616579055786e-01
-1.039279997348785400e-01
-4.666647315025329590e-01
3.553504357114434242e-03
2.607187198009341955e-04
-8.569596707820892334e-02
-1.537768691778182983e-01
4.544796422123908997e-02
-1.057223975658416748e-01
-6.685689091682434082e-02
-9.936227463185787201e-03
-5.703727006912231445e-01
-1.287985086441040039e+00
-2.886820733547210693e-01
-1.763433404266834259e-02
2.535848692059516907e-02
-1.894797831773757935e-01
-2.157225012779235840e-01
-5.008922219276428223e-01
-3.076857328414916992e-01
-1.436862826347351074e+00
-5.644980072975158691e-01
-8.856184482574462891e-01
-1.739423424005508423e-01
-8.073957562446594238e-01
-1.329373717308044434e-01
-2.549211084842681885e-01
-9.851931333541870117e-01
-6.119322776794433594e-01
-1.005955100059509277e+00
-2.081556618213653564e-01
-5.737215280532836914e-01
-1.805324554443359375e-01
-1.389300823211669922e-01
-1.968897938728332520e+00
-6.515905857086181641e-01
-2.154906749725341797e+00
-5.546099543571472168e-01
-1.080874919891357422e+00
-3.298140466213226318e-01
-3.389467597007751465e-01
-5.379300117492675781e-01
-1.689468383789062500e+00
-6.194328665733337402e-01
-6.960985064506530762e-01
-4.099215567111968994e-01
-2.975293993949890137e-01
5.057062581181526184e-02
-1.103730797767639160e+00
-7.860015034675598145e-01
-2.141545861959457397e-01
-8.289991021156311035e-01
-6.769863516092300415e-02
-2.992724776268005371e-01
-8.735251426696777344e-02
-9.591438770294189453e-01
-5.637784600257873535e-01
-2.416598349809646606e-01
-4.542792439460754395e-01
-1.162714481353759766e+00
-8.673764467239379883e-01
-1.130478620529174805e+00
-1.666724681854248047e+00
-3.871453702449798584e-01
-9.588357806205749512e-01
-4.398804605007171631e-01
-2.883571088314056396e-01
-1.449591517448425293e-01
-4.193868935108184814e-01
-7.433657050132751465e-01
-7.254341244697570801e-01
-6.730114221572875977e-01
-3.762555718421936035e-01
-1.511373043060302734e+00
-1.242109060287475586e+00
-2.979286611080169678e-01
9.809655137360095978e-03
-4.472314938902854919e-02
-3.023983538150787354e-01
-3.763974905014038086e-01
-3.833537995815277100e-01
-2.283968925476074219e-01
2.784386090934276581e-02
-7.627017050981521606e-02
5.425871908664703369e-02
1.580546796321868896e-02
-3.015968799591064453e-01
-3.168981969356536865e-01
-6.687752902507781982e-02
-4.516473114490509033e-01
6.217729300260543823e-02
-6.257236599922180176e-01
-6.064395606517791748e-02
3.707665205001831055e-02
-1.512964069843292236e-01
-4.584082216024398804e-02
-3.253631889820098877e-01
-5.249501019716262817e-02
5.899637937545776367e-02
-2.486147731542587280e-01
-1.374473720788955688e-01
5.085472762584686279e-02
-1.261027008295059204e-01
-1.519632935523986816e-01
-4.347167909145355225e-02
-8.919344544410705566e-01
9.404812008142471313e-02
7.095514982938766479e-02
-4.970173165202140808e-02
-1.353095322847366333e-01
-6.485735774040222168e-01
-4.034693241119384766e-01
-8.689501881599426270e-02
8.696707338094711304e-02
2.596023306250572205e-02
-6.277866661548614502e-02
-2.668443620204925537e-01
-2.543411552906036377e-01
-3.523796498775482178e-01
5.377299338579177856e-02
-2.090823501348495483e-01
4.738996550440788269e-02
-1.774408854544162750e-02
-8.580889552831649780e-02
3.922648355364799500e-02
2.055410481989383698e-02
-7.752240449190139771e-02
1.037966758012771606e-01
-1.882700324058532715e-01
-1.039509177207946777e-01
1.061362922191619873e-01
-4.953345954418182373e-01
-7.849077880382537842e-02
-5.261942744255065918e-01
-1.496834214776754379e-02
-1.610217839479446411e-01
-2.356119006872177124e-01
-3.156667202711105347e-02
2.219187654554843903e-02
-9.307282567024230957e-01
-3.306015580892562866e-02
-8.522771298885345459e-02
-2.674188911914825439e-01
-2.050957679748535156e-01
-3.752323389053344727e-01
-4.223129153251647949e-02
-1.180299445986747742e-01
-1.529500335454940796e-01
-7.527458481490612030e-03
1.951928064227104187e-02
-1.799832880496978760e-01
-4.353461861610412598e-01
6.043491885066032410e-02
-6.165805459022521973e-01
-1.542841494083404541e-01
-6.390150636434555054e-02
-1.957437954843044281e-02
-5.902851000428199768e-02
-7.016673684120178223e-02
6.404352188110351562e-02
-5.258842110633850098e-01
-1.606288366019725800e-02
-1.532610226422548294e-02
-1.997081786394119263e-01
-3.940648585557937622e-02
-3.802213072776794434e-02
-3.580608963966369629e-02
-2.249320447444915771e-01
-1.124422773718833923e-01
-3.177362978458404541e-01
-1.625674813985824585e-01
-7.263674587011337280e-02
-4.146817699074745178e-02
-8.510554581880569458e-02
-3.473457694053649902e-01
-1.856847405433654785e-01
-2.709673903882503510e-02
3.052847459912300110e-03
-1.647865623235702515e-01
-1.104276161640882492e-02
-4.726163577288389206e-03
-1.621002554893493652e-01
-3.874525427818298340e-01
-1.215874776244163513e-01
-2.389840036630630493e-01
2.139742486178874969e-02
-9.998757392168045044e-03
7.824949175119400024e-02
8.814764022827148438e-02
-5.912078171968460083e-02
8.284553140401840210e-02
5.817881226539611816e-02
-1.502396762371063232e-01
1.752416417002677917e-02
-2.543238401412963867e-01
-2.001349925994873047e-01
-9.070254117250442505e-02
-2.956549227237701416e-01
-1.002884581685066223e-01
-6.507275998592376709e-02
-7.462140172719955444e-02
-6.197362393140792847e-02
7.358166575431823730e-02
-5.003328919410705566e-01
1.977160014212131500e-02
-6.568069756031036377e-02
-2.346077561378479004e-01
-2.944223582744598389e-01
-1.856205761432647705e-01
-1.381272375583648682e-01
-9.144484251737594604e-02
4.197344556450843811e-02
6.544987112283706665e-02
3.553258627653121948e-02
-2.360193133354187012e-01
-2.148878127336502075e-01
-4.951460659503936768e-02
-1.083478182554244995e-01
-9.258835762739181519e-02
-1.438801176846027374e-02
2.437704242765903473e-03
2.667820639908313751e-02
-1.209543794393539429e-01
-8.305743336677551270e-02
-9.416993707418441772e-02
-5.637105554342269897e-02
-3.660312667489051819e-02
-1.443301290273666382e-01
-1.116650030016899109e-01
-7.591591775417327881e-02
-9.429839253425598145e-02
-8.654941618442535400e-02
-6.169394776225090027e-02
-7.339726686477661133e-01
6.017963588237762451e-02
-6.978823244571685791e-02
1.242608875036239624e-01
5.989547446370124817e-02
-3.752461373805999756e-01
-3.697800636291503906e-01
-1.288457065820693970e-01
8.407447487115859985e-02
-9.957525134086608887e-02
-9.573454409837722778e-02
-1.156853139400482178e-01
-8.352551609277725220e-02
-1.408132761716842651e-01
-6.885902583599090576e-02
-1.968504041433334351e-01
-8.437058888375759125e-03
-3.394051268696784973e-02
1.228670869022607803e-02
4.137429594993591309e-02
5.041876807808876038e-02
-1.812067441642284393e-02
-7.613595575094223022e-02
-1.309392303228378296e-01
1.564680784940719604e-02
-2.780258655548095703e-01
-3.785553276538848877e-01
-1.269164532423019409e-01
-2.822347879409790039e-01
7.694344222545623779e-02
-5.763245001435279846e-02
-3.361534178256988525e-01
-1.913017593324184418e-02
-8.935412764549255371e-02
-6.891925334930419922e-01
6.575357913970947266e-02
-1.475548446178436279e-01
-3.282232284545898438e-01
-2.913151383399963379e-01
-1.260730028152465820e-01
-1.125051602721214294e-01
7.869954407215118408e-02
-9.525994956493377686e-02
3.954377025365829468e-02
1.267809234559535980e-02
-1.360744237899780273e-01
-4.274114072322845459e-01
-9.984020143747329712e-02
-2.492314279079437256e-01
-7.763834297657012939e-02
-1.547465622425079346e-01
3.340200334787368774e-02
-4.610271379351615906e-02
-5.546348914504051208e-02
1.210417877882719040e-02
-2.591712176799774170e-01
-7.248067110776901245e-02
7.988699525594711304e-02
-1.180597767233848572e-01
-1.741162836551666260e-01
6.941037252545356750e-03
-3.254568576812744141e-02
-1.969252079725265503e-01
-1.130960062146186829e-01
-7.490948438644409180e-01
2.565565519034862518e-02
4.092670977115631104e-02
-2.630906179547309875e-02
-8.535814285278320312e-02
-9.890435636043548584e-02
-4.014893770217895508e-01
-4.629799723625183105e-02
-3.566732630133628845e-02
-5.922019854187965393e-02
-1.025410294532775879e-01
-5.220383033156394958e-02
-8.817355334758758545e-02
-3.117616772651672363e-01
-3.832617774605751038e-03
-1.978079527616500854e-01
-4.853951930999755859e-02
-2.092164941132068634e-02
-3.140005841851234436e-02
-1.530372304841876030e-03
3.690907359123229980e-02
-4.163180291652679443e-02
5.932161211967468262e-02
-1.860823333263397217e-01
4.180604964494705200e-02
-9.319637715816497803e-02
-3.032589554786682129e-01
-3.172999247908592224e-02
-1.072519943118095398e-01
3.512084484100341797e-02
-1.256411075592041016e-01
-1.512276977300643921e-01
8.346158266067504883e-02
1.749836467206478119e-02
-3.094843626022338867e-01
