-6.146921217441558838e-02
-5.753180012106895447e-03
4.185415059328079224e-02
-1.349544078111648560e-01
-3.296058252453804016e-02
-2.263324148952960968e-02
8.343469351530075073e-02
1.051897034049034119e-01
-1.101895570755004883e-01
-3.289582207798957825e-02
-3.341474756598472595e-02
7.498603779822587967e-03
-1.433957368135452271e-01
-5.943964421749114990e-02
1.033266335725784302e-01
-8.366089314222335815e-02
8.933939039707183838e-02
-1.802573502063751221e-01
-1.228939816355705261e-01
-2.001173980534076691e-02
-1.236286908388137817e-01
1.226686593145132065e-02
4.750423505902290344e-02
-6.236283574253320694e-03
3.428145498037338257e-02
2.243788167834281921e-02
2.478304132819175720e-02
2.284155040979385376e-02
-4.995631054043769836e-02
-1.198623888194561005e-02
9.600295126438140869e-02
-5.912593379616737366e-02
1.464432924985885620e-01
4.048407450318336487e-02
-7.881492376327514648e-02
-1.736360341310501099e-01
4.116576537489891052e-02
-6.126505136489868164e-02
-2.106505185365676880e-01
1.359962224960327148e-01
-7.738873362541198730e-02
-4.110010340809822083e-02
1.080942228436470032e-01
-9.485185891389846802e-02
3.782265260815620422e-02
-4.412523284554481506e-02
2.573593333363533020e-02
-5.766429752111434937e-02
-8.199959248304367065e-02
8.683999627828598022e-02
1.161703988909721375e-01
3.849417902529239655e-03
-8.570860326290130615e-02
-1.182883605360984802e-02
-3.099854290485382080e-02
-1.882591396570205688e-01
-1.027196645736694336e-01
-4.185894876718521118e-02
7.886763662099838257e-02
-8.008172363042831421e-02
9.490536153316497803e-02
-6.333615630865097046e-02
1.628723926842212677e-02
5.838280916213989258e-02
-1.068126261234283447e-01
3.311729431152343750e-02
-1.104625687003135681e-01
-6.230348721146583557e-02
-6.182130053639411926e-02
-1.723012626171112061e-01
-1.458237227052450180e-02
8.235649019479751587e-02
-1.429265644401311874e-02
-1.179546043276786804e-01
1.597178354859352112e-02
-5.501656234264373779e-02
7.576743513345718384e-02
5.938462167978286743e-02
-2.277776598930358887e-02
-3.106250427663326263e-02
1.240888377651572227e-03
-3.450722247362136841e-02
7.278998941183090210e-02
2.049223892390727997e-02
6.648921966552734375e-02
1.095831617712974548e-01
1.045004725456237793e-01
-5.657381936907768250e-02
-7.365141808986663818e-02
-6.708790361881256104e-02
2.683262899518013000e-02
6.946972012519836426e-02
-1.818896969780325890e-03
-1.214064806699752808e-01
-5.846068263053894043e-02
-1.122635304927825928e-01
1.041909456253051758e-01
-8.059723675251007080e-02
-9.338373318314552307e-03
-2.163683995604515076e-02
1.069056242704391479e-01
7.851431518793106079e-02
-9.303582832217216492e-03
9.929882735013961792e-02
-1.473325490951538086e-01
3.970780223608016968e-02
-3.186327964067459106e-02
2.334495447576045990e-02
8.959803730249404907e-02
-2.823877893388271332e-02
-9.798395633697509766e-02
-7.641088962554931641e-02
-8.099615573883056641e-02
-1.072585731744766235e-01
2.643063850700855255e-02
-5.889260023832321167e-02
5.407274141907691956e-02
4.653751477599143982e-02
-1.449683308601379395e-01
-9.930045902729034424e-02
5.107452347874641418e-02
6.747215986251831055e-02
-1.124059855937957764e-01
-7.769028097391128540e-02
6.857870519161224365e-02
-2.550902776420116425e-02
-1.099676489830017090e-01
2.380887744948267937e-03
-2.927413024008274078e-02
2.948534488677978516e-02
4.847871139645576477e-02
7.706894725561141968e-02
9.861899167299270630e-02
-8.684160560369491577e-02
-1.296338140964508057e-01
-2.042549848556518555e-02
9.268034249544143677e-02
3.022841550409793854e-02
-4.532783851027488708e-02
2.637889608740806580e-02
9.969633817672729492e-02
2.924025524407625198e-03
-3.875754401087760925e-02
1.928316988050937653e-02
-4.310061037540435791e-02
-1.891509592533111572e-01
-5.462322756648063660e-02
-1.974852383136749268e-02
-9.164255112409591675e-02
-2.818686142563819885e-02
-2.909904578700661659e-03
8.121458441019058228e-02
-4.689256101846694946e-02
-1.182014197111129761e-01
1.577496342360973358e-02
-1.892378367483615875e-02
-4.200782999396324158e-02
1.123450323939323425e-02
-1.347449421882629395e-01
5.833765119314193726e-02
-8.553355187177658081e-02
-6.066796556115150452e-02
6.871324777603149414e-02
5.883169174194335938e-02
8.486360311508178711e-03
-1.379022747278213501e-01
4.645381867885589600e-02
-7.266785949468612671e-02
-1.068435087800025940e-01
8.984462916851043701e-02
-1.858997531235218048e-02
9.264437109231948853e-02
-5.450740829110145569e-02
7.012661546468734741e-02
4.793122783303260803e-02
-2.792927064001560211e-02
9.271530061960220337e-02
-7.769956439733505249e-02
9.751775860786437988e-02
-4.607947543263435364e-02
9.697631001472473145e-02
-3.337907418608665466e-02
4.251857474446296692e-02
-2.665487118065357208e-03
4.847230389714241028e-02
3.505241125822067261e-02
-1.334245502948760986e-01
-1.801307313144207001e-02
4.038188606500625610e-02
7.729580998420715332e-02
6.374734640121459961e-02
-8.331940509378910065e-03
-1.037968471646308899e-01
-4.566631838679313660e-02
-4.826159216463565826e-03
7.534136623144149780e-02
1.902476139366626740e-02
-1.283830851316452026e-01
2.704234234988689423e-02
1.148179545998573303e-02
-1.349818240851163864e-02
1.774962432682514191e-02
-6.248619407415390015e-02
-5.511174444109201431e-03
-3.389049787074327469e-03
-1.481673866510391235e-02
-9.092560410499572754e-02
-5.277168005704879761e-03
-3.409562632441520691e-02
-7.804680615663528442e-02
4.765981435775756836e-02
2.086702734231948853e-02
1.016138494014739990e-01
8.431793749332427979e-02
3.313168510794639587e-02
-4.541215486824512482e-03
-1.160321850329637527e-02
-8.491904288530349731e-02
2.086107805371284485e-02
-9.250825271010398865e-03
-8.665975183248519897e-02
-1.930424384772777557e-02
-4.181588441133499146e-02
-6.130481883883476257e-02
2.563669532537460327e-02
8.716127276420593262e-02
3.511196235194802284e-03
5.130183883011341095e-03
4.160661622881889343e-02
1.451665312051773071e-01
7.514844089746475220e-02
-2.345494367182254791e-02
4.576354846358299255e-02
-3.495769202709197998e-02
-1.819418221712112427e-01
8.071780204772949219e-02
7.790073752403259277e-02
-4.357185214757919312e-02
-7.366719096899032593e-02
-2.877105958759784698e-02
-2.656402811408042908e-02
5.226126313209533691e-02
2.865486964583396912e-02
2.171407267451286316e-02
3.878201544284820557e-02
8.817370980978012085e-02
-6.683392077684402466e-02
-7.809402793645858765e-02
-1.870582625269889832e-02
9.470794349908828735e-02
-6.028317660093307495e-02
-5.123810842633247375e-02
7.472487539052963257e-02
-6.195316836237907410e-02
5.776330083608627319e-02
-4.218024387955665588e-02
1.483713369816541672e-02
2.093322016298770905e-02
-1.148718595504760742e-01
1.274479087442159653e-02
9.531999379396438599e-02
1.114780679345130920e-01
3.076659888029098511e-02
8.493021130561828613e-02
-3.470319136977195740e-02
2.873030863702297211e-02
1.250781212002038956e-02
-3.471600264310836792e-02
-3.536417335271835327e-02
2.842107042670249939e-02
-1.464808080345392227e-02
1.314900070428848267e-01
7.291261106729507446e-02
-1.055195182561874390e-01
-1.105603799223899841e-01
-2.660697326064109802e-02
-1.793639361858367920e-02
-2.116588689386844635e-02
-6.460557132959365845e-02
-1.080716308206319809e-02
-6.845255848020315170e-03
-7.646548002958297729e-02
9.280139952898025513e-02
-5.408236384391784668e-02
-7.027914375066757202e-02
4.256868362426757812e-02
8.768850006163120270e-03
2.831386961042881012e-02
9.505169838666915894e-02
-2.849553478881716728e-03
-5.920565873384475708e-02
2.996280789375305176e-02
8.925203233957290649e-02
-9.857517480850219727e-02
-7.963677495718002319e-02
1.061555147171020508e-01
-9.377370029687881470e-02
1.491736900061368942e-02
2.675107866525650024e-02
3.385682776570320129e-02
3.162620961666107178e-02
-8.309791982173919678e-02
1.102273687720298767e-01
-1.939718872308731079e-01
4.436248540878295898e-02
5.180655792355537415e-02
1.321651414036750793e-02
-4.291436076164245605e-02
-3.694323077797889709e-02
-2.079908363521099091e-02
-1.041976958513259888e-01
-9.837628155946731567e-02
-1.056887283921241760e-01
6.616497784852981567e-02
1.350436545908451080e-02
-1.170360594987869263e-01
-1.326080318540334702e-02
6.289691478013992310e-02
1.160071343183517456e-01
-1.247688196599483490e-02
6.174717843532562256e-02
8.567872643470764160e-02
-2.126954030245542526e-03
4.063051566481590271e-02
1.236364468932151794e-01
1.032581366598606110e-02
-8.309878408908843994e-02
-3.719946742057800293e-02
-3.129279613494873047e-02
8.850549906492233276e-02
-1.044722869992256165e-01
-9.714256227016448975e-02
2.681257203221321106e-02
-1.621034890413284302e-01
-8.539074659347534180e-02
1.527881771326065063e-01
-2.867798693478107452e-02
-6.204696744680404663e-02
-1.276068240404129028e-01
1.263585090637207031e-01
7.274746149778366089e-02
-1.476950645446777344e-01
-1.503777951002120972e-01
3.897618502378463745e-02
-4.933055862784385681e-02
1.959421299397945404e-02
8.953512459993362427e-02
3.568398579955101013e-02
-9.202202409505844116e-02
1.651727128773927689e-03
-7.709309458732604980e-02
-3.812496736645698547e-02
3.569341078400611877e-02
3.858195617794990540e-02
-1.552832275629043579e-01
7.402022927999496460e-02
-1.714555360376834869e-02
-2.159686386585235596e-02
-1.476085633039474487e-01
6.182944402098655701e-02
9.289734065532684326e-02
6.230172887444496155e-02
2.837597392499446869e-02
-5.501596257090568542e-03
-1.079294309020042419e-01
-2.097496204078197479e-02
7.032124698162078857e-02
6.972257792949676514e-02
-3.396580740809440613e-02
1.618780195713043213e-03
-1.769650354981422424e-02
-8.148515224456787109e-02
-1.002219021320343018e-01
-1.106691826134920120e-02
-1.108009591698646545e-01
-8.101730048656463623e-02
8.287623524665832520e-02
-6.143356487154960632e-02
-1.341518461704254150e-01
8.965560048818588257e-02
1.014500111341476440e-01
8.495334535837173462e-02
7.328486535698175430e-03
-1.419261544942855835e-01
9.164907969534397125e-03
-2.254079096019268036e-02
-2.127035334706306458e-02
2.463528141379356384e-02
-2.585775963962078094e-02
-9.663331508636474609e-02
-8.725144714117050171e-02
5.441478639841079712e-02
-8.943594247102737427e-02
-4.431442916393280029e-02
-1.112167611718177795e-01
-3.713423386216163635e-02
5.096575245261192322e-02
-2.292320132255554199e-02
-9.087723493576049805e-02
9.744009375572204590e-02
-5.039553344249725342e-02
-5.562330037355422974e-02
7.783275842666625977e-02
-9.907379746437072754e-03
6.393845379352569580e-02
2.255797572433948517e-02
-1.008275747299194336e-01
8.848382532596588135e-02
6.287061609327793121e-03
2.702735178172588348e-02
-6.221397966146469116e-02
-5.265931598842144012e-03
-1.333066970109939575e-01
-1.055926755070686340e-01
-1.120371073484420776e-01
-8.342199027538299561e-02
-5.074170976877212524e-02
5.091298744082450867e-02
8.887324482202529907e-02
9.980221092700958252e-02
-8.373965322971343994e-02
-2.923995628952980042e-02
2.719445526599884033e-02
-3.054882027208805084e-02
-8.615583926439285278e-02
-5.559872463345527649e-02
5.290437117218971252e-02
6.899794191122055054e-02
-1.385062932968139648e-01
-2.038909122347831726e-02
-1.402246765792369843e-02
6.103688478469848633e-02
9.078584611415863037e-02
-7.526986300945281982e-02
-3.598432615399360657e-02
1.392026245594024658e-01
-4.816902801394462585e-02
-2.826145151630043983e-03
-5.182838812470436096e-02
-6.777960062026977539e-02
-1.065675914287567139e-02
5.386115983128547668e-02
-1.022571623325347900e-01
3.483014646917581558e-03
-4.593251273036003113e-02
1.338790506124496460e-01
7.999070733785629272e-02
-1.174266040325164795e-01
3.761504590511322021e-02
-1.345274783670902252e-02
-4.361937195062637329e-02
2.384479157626628876e-02
-5.844018980860710144e-02
-7.501175254583358765e-02
-4.373363777995109558e-02
7.970263808965682983e-02
-1.849398203194141388e-02
-4.469663277268409729e-02
-6.157645955681800842e-02
3.301323950290679932e-02
7.005832344293594360e-02
3.056310676038265228e-02
3.564924746751785278e-02
2.143461257219314575e-02
1.060832962393760681e-01
-5.964163690805435181e-02
-4.408563673496246338e-02
-2.074144780635833740e-02
-1.367568969726562500e-02
-5.803835019469261169e-02
2.321528590982779860e-04
-1.673701778054237366e-02
1.121268644928932190e-01
-1.328210383653640747e-01
-9.222523868083953857e-02
-2.586900815367698669e-02
-8.810906857252120972e-02
-5.016970448195934296e-03
-7.078807055950164795e-02
-5.506543815135955811e-02
-8.244583755731582642e-02
-1.696282625198364258e-02
1.330035179853439331e-01
4.180280119180679321e-02
-1.675738953053951263e-03
-1.327667832374572754e-01
-1.002451311796903610e-02
5.102372169494628906e-02
-4.930330812931060791e-02
7.128143310546875000e-02
-2.860859408974647522e-02
7.741902768611907959e-02
-1.274947673082351685e-01
9.302799403667449951e-02
2.951903035864233971e-03
-8.998969197273254395e-02
9.746273607015609741e-02
-2.396144205704331398e-03
2.115515619516372681e-02
-7.718880660831928253e-04
-1.111457794904708862e-01
3.815666586160659790e-02
-9.589899331331253052e-02
1.017998438328504562e-02
-4.616066813468933105e-02
1.420735009014606476e-02
2.418053150177001953e-02
-6.792740523815155029e-02
-8.431003428995609283e-03
1.252598613500595093e-01
1.208002492785453796e-01
-7.500717043876647949e-02
4.773696884512901306e-02
1.218828409910202026e-01
1.427951902151107788e-01
6.021444499492645264e-02
-7.738987356424331665e-02
-1.059869453310966492e-01
-1.835217773914337158e-01
2.168337255716323853e-02
9.776627272367477417e-02
-8.087676763534545898e-02
-5.326640978455543518e-02
2.693881047889590263e-03
-6.133448705077171326e-02
-1.571082137525081635e-02
-5.760121345520019531e-02
-1.032968908548355103e-01
9.851747192442417145e-03
-1.160119324922561646e-01
1.621912978589534760e-02
-6.669682916253805161e-03
-2.681998908519744873e-02
-1.406468357890844345e-02
-1.223481595516204834e-01
-3.547170665115118027e-03
-4.092816263437271118e-02
-1.123418509960174561e-01
3.310475870966911316e-02
-1.836602017283439636e-02
-4.409717861562967300e-03
7.708677649497985840e-02
-2.918016538023948669e-02
-1.157588907517492771e-03
-9.328925982117652893e-03
1.086391042917966843e-02
5.843594297766685486e-02
-8.292923122644424438e-02
-3.800151497125625610e-02
-7.396541535854339600e-02
1.186591386795043945e-01
-6.173983961343765259e-02
-4.276794940233230591e-02
-2.299647219479084015e-02
8.272071182727813721e-02
9.448903612792491913e-03
-4.645005613565444946e-02
-2.919833362102508545e-02
8.861821144819259644e-03
-1.207183599472045898e-01
-2.001316985115408897e-03
5.816318839788436890e-02
8.531033247709274292e-02
4.330835118889808655e-02
1.108103320002555847e-01
1.416527330875396729e-01
1.726800054311752319e-01
2.111064270138740540e-03
-1.396962553262710571e-01
6.166309490799903870e-02
-8.136837929487228394e-02
-3.907153010368347168e-02
-1.092982441186904907e-01
-7.453942298889160156e-02
6.860090792179107666e-02
-9.193317592144012451e-02
-6.119843572378158569e-02
-1.165128275752067566e-01
3.504709154367446899e-02
-4.797198623418807983e-02
-8.972238749265670776e-03
-1.587248742580413818e-01
-2.796685881912708282e-02
1.220456734299659729e-01
3.099223598837852478e-02
-1.031856164336204529e-01
8.809490501880645752e-02
-2.929093874990940094e-02
7.282174378633499146e-02
8.954731374979019165e-02
-5.648451391607522964e-03
3.101559542119503021e-02
8.917348831892013550e-02
-3.280795365571975708e-02
2.786112949252128601e-02
4.642320796847343445e-02
2.859149314463138580e-02
1.001670509576797485e-01
6.154724583029747009e-02
-6.675034761428833008e-02
-4.996284469962120056e-02
-4.932345822453498840e-02
-1.022186037153005600e-02
8.073765784502029419e-02
6.465356051921844482e-02
-1.511598378419876099e-01
-1.510488567873835564e-03
-3.534755203872919083e-03
3.560491278767585754e-02
8.427767083048820496e-03
-8.241321193054318428e-04
5.330492183566093445e-02
-3.952828422188758850e-02
7.894278317689895630e-02
6.291711330413818359e-02
-2.084628306329250336e-02
-1.068736165761947632e-01
3.459796309471130371e-02
-7.842249423265457153e-02
-3.408434614539146423e-02
-4.126154351979494095e-03
-2.234954759478569031e-02
-1.525915414094924927e-01
6.645070388913154602e-03
-4.250144958496093750e-02
1.668801903724670410e-02
-1.389562897384166718e-02
-4.011456295847892761e-02
6.487080454826354980e-02
2.097818069159984589e-03
-7.641902565956115723e-02
-9.307670593261718750e-02
8.541809022426605225e-02
8.473289012908935547e-02
-4.055764153599739075e-02
-8.107496798038482666e-02
9.121187776327133179e-02
2.462066709995269775e-02
-6.871151179075241089e-02
-1.193322092294692993e-01
