-5.027189105749130249e-02
-3.092026710510253906e-01
-2.142379134893417358e-01
-1.609122008085250854e-01
-3.211614787578582764e-01
-2.392773777246475220e-01
-1.013252064585685730e-01
-7.189344167709350586e-01
-2.716830931603908539e-02
2.413999885320663452e-01
-2.915518581867218018e-01
-3.949650377035140991e-02
3.644252717494964600e-01
-5.418097972869873047e-01
-1.774822175502777100e-01
-1.519951373338699341e-01
-2.620083987712860107e-01
3.135217428207397461e-01
-3.825180232524871826e-01
-2.927598059177398682e-01
-3.543316125869750977e-01
-1.738969832658767700e-01
-5.769484043121337891e-01
-1.544110197573900223e-02
4.201455116271972656e-01
-5.332875251770019531e-01
8.914022892713546753e-02
2.856139540672302246e-01
-2.609889507293701172e-01
-4.069387912750244141e-01
2.031207382678985596e-01
-3.733301758766174316e-01
-1.599944531917572021e-01
-5.531593561172485352e-01
-2.597675919532775879e-01
-2.716327011585235596e-01
5.226162075996398926e-01
2.119905054569244385e-01
-4.768259227275848389e-01
-7.283274531364440918e-01
-2.124452143907546997e-01
-3.461722433567047119e-01
-3.622918725013732910e-01
-7.429368495941162109e-01
-7.239552587270736694e-02
3.649051785469055176e-01
9.131158888339996338e-02
-2.222581207752227783e-02
-6.007950380444526672e-02
-1.196441501379013062e-01
3.872737586498260498e-01
-2.597064971923828125e-01
-4.969974048435688019e-03
-4.177756905555725098e-01
-7.867554426193237305e-01
-3.637607991695404053e-01
1.523522287607192993e-01
-1.254866272211074829e-01
7.639466226100921631e-02
-1.905785351991653442e-01
-7.297977060079574585e-02
4.307118952274322510e-01
-1.311781555414199829e-01
-2.894896268844604492e-01
