-5.465743541717529297e+00
-5.572260379791259766e+00
-5.426918983459472656e+00
-6.917044520378112793e-01
1.481072604656219482e-01
6.818605959415435791e-02
-2.044141292572021484e-01
2.882664799690246582e-01
-2.030566036701202393e-01
9.572344273328781128e-02
1.018342599272727966e-01
1.449784487485885620e-01
-4.130742549896240234e-01
-2.964555621147155762e-01
-1.260169148445129395e-01
2.363601773977279663e-01
3.230687975883483887e-01
-3.774614632129669189e-01
-4.094268977642059326e-01
3.511273860931396484e-01
1.402947306632995605e-01
3.286265581846237183e-02
3.828745186328887939e-01
-3.784102797508239746e-01
-2.848707735538482666e-01
2.120802551507949829e-01
1.036128476262092590e-01
3.280497714877128601e-02
-6.684807538986206055e-01
2.216350585222244263e-01
-1.610004603862762451e-01
-5.544751644134521484e+00
-3.374516367912292480e-01
-2.750438153743743896e-01
2.174267768859863281e-01
8.600287437438964844e-01
-5.549054622650146484e+00
-3.755039572715759277e-01
-2.703766226768493652e-01
-9.492889791727066040e-02
-3.842874169349670410e-01
