6.092723086476325989e-02
7.450825721025466919e-02
3.075005114078521729e-02
2.631722390651702881e-02
1.164342369884252548e-02
6.947780959308147430e-03
1.424002647399902344e-02
3.393517807126045227e-02
4.334326833486557007e-02
3.632361069321632385e-02
1.120893936604261398e-02
1.922485046088695526e-02
4.938142001628875732e-02
2.105625532567501068e-02
4.787958785891532898e-02
8.801969140768051147e-02
7.977780699729919434e-02
6.030414998531341553e-02
1.121769938617944717e-02
2.853380516171455383e-02
3.303350135684013367e-02
1.335354801267385483e-02
-2.478596195578575134e-02
-5.437191575765609741e-03
-2.836023923009634018e-03
4.077184200286865234e-02
3.198261186480522156e-02
4.890442360192537308e-03
1.935394853353500366e-02
-2.042320789769291878e-03
2.415850386023521423e-02
1.060544513165950775e-02
6.820027530193328857e-02
5.351866129785776138e-03
4.620771855115890503e-02
1.601385697722434998e-02
-2.519329823553562164e-02
-1.052674204111099243e-01
-1.321659684181213379e-01
-8.994293957948684692e-02
-8.686212450265884399e-02
-4.664860293269157410e-02
-8.457601070404052734e-02
-1.020913645625114441e-01
-8.325262367725372314e-02
-7.167439162731170654e-02
-5.554985627532005310e-02
-6.574825197458267212e-02
-3.835204243659973145e-02
-9.428105503320693970e-02
-5.019285529851913452e-02
-1.016205251216888428e-01
-1.364026069641113281e-01
-1.360026150941848755e-01
-1.349146217107772827e-01
-1.172244176268577576e-01
-4.101051017642021179e-02
-5.244350992143154144e-03
-7.687595207244157791e-03
-1.089415233582258224e-02
-3.724830597639083862e-02
-8.752187341451644897e-02
-1.709908992052078247e-02
-4.570768028497695923e-02
-1.148741245269775391e-01
-1.132918149232864380e-01
-6.958438456058502197e-02
-3.703656792640686035e-02
-2.133064158260822296e-02
-2.504937909543514252e-02
-1.464575715363025665e-02
4.462831094861030579e-02
-2.373166941106319427e-02
3.922793269157409668e-02
3.091423958539962769e-02
4.360000416636466980e-02
7.191353011876344681e-03
5.860471352934837341e-02
3.362201154232025146e-02
-1.332969963550567627e-02
3.250502049922943115e-02
7.731454074382781982e-02
1.365601569414138794e-01
1.467041522264480591e-01
1.022834107279777527e-01
3.708292543888092041e-02
4.649203643202781677e-02
7.625650614500045776e-02
6.504693627357482910e-02
-2.353072538971900940e-02
1.662044599652290344e-02
-1.893798634409904480e-02
2.751855179667472839e-02
4.792885854840278625e-02
-1.701141591183841228e-03
5.590236559510231018e-02
-3.372249379754066467e-02
-9.473194181919097900e-02
-6.893146783113479614e-02
-8.284435421228408813e-02
-3.631208091974258423e-02
-7.552371174097061157e-02
-6.890339404344558716e-02
-4.889281466603279114e-02
-5.021637305617332458e-02
-7.103537768125534058e-02
-1.068252846598625183e-01
-9.636998176574707031e-02
-1.146045401692390442e-01
-1.332275271415710449e-01
-1.677021235227584839e-01
-1.115726679563522339e-01
-2.875856123864650726e-02
-3.062047250568866730e-02
-2.810601517558097839e-02
-5.759911239147186279e-02
-4.492181912064552307e-02
-4.573722928762435913e-02
2.441181428730487823e-02
2.807896211743354797e-02
-1.125167217105627060e-02
-9.439062327146530151e-03
-6.109786406159400940e-02
-6.955201178789138794e-02
-1.078683417290449142e-02
-3.312781825661659241e-02
-1.325630843639373779e-01
-7.825293391942977905e-02
-7.561007142066955566e-02
-3.920074924826622009e-02
6.041523441672325134e-02
7.407111674547195435e-02
4.610979929566383362e-02
1.277067884802818298e-02
5.996155366301536560e-02
7.043072581291198730e-02
5.002845451235771179e-02
8.965334296226501465e-02
8.755608648061752319e-02
1.035217642784118652e-01
6.953556835651397705e-02
8.448093384504318237e-02
3.284016391262412071e-03
-1.723477244377136230e-02
1.071260124444961548e-02
3.159036859869956970e-02
-9.959744289517402649e-03
-3.766046836972236633e-02
-3.540650010108947754e-02
-5.045984312891960144e-02
-1.032373029738664627e-02
4.040551185607910156e-02
4.676513373851776123e-02
6.908326596021652222e-02
-1.961537636816501617e-02
2.557710185647010803e-02
1.197924166917800903e-01
9.727636724710464478e-02
5.358329042792320251e-02
9.133881889283657074e-03
5.779991671442985535e-02
-5.080783367156982422e-02
-8.663818985223770142e-02
-1.065978407859802246e-01
-6.058927252888679504e-02
-9.992423653602600098e-02
-1.357465833425521851e-01
-1.237485092133283615e-02
4.209037404507398605e-03
-7.316854596138000488e-02
-7.490000873804092407e-02
-4.126064479351043701e-02
-1.146210208535194397e-01
1.459442730993032455e-02
-1.250639855861663818e-01
-1.340863853693008423e-01
-3.168042376637458801e-02
-8.821019530296325684e-02
-1.914825290441513062e-02
-5.088118091225624084e-02
-9.007091820240020752e-02
-6.021126732230186462e-02
-4.621905833482742310e-02
2.414875291287899017e-02
2.928667701780796051e-02
4.860315099358558655e-02
3.165941312909126282e-02
2.879584394395351410e-02
1.136443577706813812e-02
-5.617932975292205811e-02
-4.183089733123779297e-02
6.206775433383882046e-04
1.366173941642045975e-02
4.283524304628372192e-02
1.374507099390029907e-01
1.117061823606491089e-01
1.304605603218078613e-01
9.233946353197097778e-02
8.980664610862731934e-02
1.192195340991020203e-01
1.128115728497505188e-01
1.680155098438262939e-01
1.186788529157638550e-01
1.218925938010215759e-01
9.428063780069351196e-02
1.320457607507705688e-01
1.350748986005783081e-01
1.186115816235542297e-01
1.291095744818449020e-02
7.492212951183319092e-02
1.249204762279987335e-02
1.373176276683807373e-02
-2.292234823107719421e-02
2.215441875159740448e-02
7.054559886455535889e-02
1.747482568025588989e-01
1.508094370365142822e-01
1.378644704818725586e-01
1.992506086826324463e-01
2.844962477684020996e-01
2.754414975643157959e-01
1.895269900560379028e-01
2.175102680921554565e-01
1.895162463188171387e-01
-6.103270500898361206e-02
3.058679401874542236e-02
2.068811468780040741e-02
-9.675296954810619354e-03
-5.071867257356643677e-02
-8.969617635011672974e-02
-7.752725388854742050e-03
2.645544335246086121e-02
7.456163410097360611e-03
3.317058831453323364e-02
4.442370310425758362e-02
4.350467398762702942e-02
4.566659033298492432e-02
-1.775597967207431793e-02
-3.342237323522567749e-02
4.450040310621261597e-02
-1.031202077865600586e-02
4.612136259675025940e-02
-1.411122549325227737e-02
-3.978459537029266357e-02
-4.459027573466300964e-02
7.583920657634735107e-02
3.609699383378028870e-02
7.401062548160552979e-02
4.673471301794052124e-02
3.856257069855928421e-03
5.237825587391853333e-02
1.469863057136535645e-01
1.746137998998165131e-02
-5.089158192276954651e-02
1.789537630975246429e-02
-1.550070103257894516e-02
2.220887839794158936e-01
1.760630309581756592e-01
1.061647608876228333e-01
3.489325195550918579e-02
2.215260826051235199e-02
4.333396907895803452e-03
9.089054167270660400e-02
4.694383591413497925e-02
-3.286666795611381531e-02
-3.512153029441833496e-02
-1.119521539658308029e-02
4.389250651001930237e-02
4.051287844777107239e-02
4.017884656786918640e-02
2.601164765655994415e-02
9.517619758844375610e-02
5.835811421275138855e-02
-6.432031840085983276e-02
-3.405750915408134460e-02
1.903978991322219372e-03
2.546865865588188171e-02
-1.222278643399477005e-02
1.509380713105201721e-02
2.747721038758754730e-02
-2.809003554284572601e-02
-7.510235533118247986e-03
2.854817733168601990e-02
2.959408052265644073e-02
-2.645985689014196396e-03
-4.016588255763053894e-02
-1.939132995903491974e-02
-4.344378039240837097e-02
-7.891336828470230103e-02
-6.457314640283584595e-02
5.817006155848503113e-02
4.746765270829200745e-02
-3.111977130174636841e-02
-6.337669491767883301e-02
-7.961491495370864868e-02
-4.210256785154342651e-02
-1.136805117130279541e-01
-3.659362718462944031e-02
-2.458529770374298096e-01
-1.517136245965957642e-01
-6.162751000374555588e-03
-2.911376580595970154e-02
8.415631949901580811e-03
1.499761343002319336e-01
1.021618917584419250e-01
1.423086524009704590e-01
1.203381419181823730e-01
8.428460359573364258e-02
-5.103250499814748764e-03
-3.304752334952354431e-02
6.807781010866165161e-02
1.187869310379028320e-01
2.828111313283443451e-02
-3.818520531058311462e-02
-1.828247122466564178e-02
7.218055427074432373e-03
1.394580677151679993e-02
-8.554393053054809570e-02
-1.005260050296783447e-01
-2.038569748401641846e-02
9.365423023700714111e-02
-3.973063454031944275e-02
-6.308890879154205322e-02
-1.067194715142250061e-02
-5.076150223612785339e-02
5.588883161544799805e-02
1.199640333652496338e-01
2.399235032498836517e-02
9.176312386989593506e-02
1.248425394296646118e-01
8.550316095352172852e-02
1.269730478525161743e-01
7.607518881559371948e-02
-9.739452600479125977e-02
-7.825966924428939819e-02
1.020950302481651306e-01
1.343335807323455811e-01
8.493922650814056396e-02
7.784424722194671631e-02
1.508686840534210205e-01
1.181738153100013733e-01
1.346906274557113647e-01
2.189420908689498901e-01
1.933559030294418335e-01
5.508357286453247070e-02
1.123022660613059998e-01
1.139655113220214844e-01
1.733913421630859375e-01
1.963162571191787720e-01
8.043377846479415894e-02
8.520962297916412354e-02
1.994455307722091675e-01
6.401299685239791870e-02
-1.489514112472534180e-01
-1.013686647638678551e-03
6.354951299726963043e-03
-1.394196748733520508e-01
-5.152374505996704102e-02
4.469700902700424194e-02
1.738182157278060913e-01
1.634974032640457153e-01
7.318799197673797607e-02
2.872181124985218048e-03
-1.804309897124767303e-02
-5.014565959572792053e-02
-1.115754097700119019e-01
-1.047812625765800476e-01
-1.567394584417343140e-01
-1.232729703187942505e-01
8.914966881275177002e-02
1.794086210429668427e-02
-5.427543073892593384e-02
4.142628237605094910e-02
1.058915853500366211e-01
1.070265993475914001e-01
-7.158543914556503296e-02
-9.390112012624740601e-02
-2.225887216627597809e-02
-3.742660954594612122e-02
-4.989645257592201233e-02
-2.655471302568912506e-02
-3.191433101892471313e-02
-1.183890476822853088e-01
4.670111928135156631e-03
7.380675524473190308e-02
1.385485474020242691e-02
-9.333110600709915161e-02
8.424144983291625977e-02
-1.079668179154396057e-01
2.565443515777587891e-03
7.845354266464710236e-03
1.187183558940887451e-01
9.414874762296676636e-02
1.280310004949569702e-01
1.262819319963455200e-01
1.856759935617446899e-01
2.162482142448425293e-01
2.091789990663528442e-01
1.842779219150543213e-01
1.352980136871337891e-01
1.903629750013351440e-01
1.400071829557418823e-01
2.007663398981094360e-01
1.385494321584701538e-01
2.724352180957794189e-01
2.272213399410247803e-01
2.343252152204513550e-01
1.214969158172607422e-01
3.683086112141609192e-02
1.502665728330612183e-01
7.333463523536920547e-03
7.469127327203750610e-02
1.414686888456344604e-01
7.670089602470397949e-02
1.032065823674201965e-01
1.977170258760452271e-02
6.001490727066993713e-02
-2.882428467273712158e-02
-8.616334944963455200e-02
-7.132494356483221054e-04
9.432193823158740997e-03
5.206018686294555664e-02
2.440523542463779449e-02
-6.542395800352096558e-02
-9.707972407341003418e-03
-7.062283158302307129e-02
-9.706297516822814941e-02
-1.766914427280426025e-01
-1.157177984714508057e-01
-8.621948957443237305e-02
7.601144723594188690e-03
2.342543564736843109e-02
-9.191910922527313232e-02
-1.749262958765029907e-01
-8.948373049497604370e-02
-3.570989891886711121e-02
-4.137434065341949463e-02
9.994881693273782730e-04
2.096804045140743256e-02
-1.151787266135215759e-01
-1.340203583240509033e-01
-1.274701654911041260e-01
-6.984326988458633423e-02
-5.663185939192771912e-02
-1.019315049052238464e-01
-4.456898570060729980e-02
-1.063196063041687012e-01
-2.951463311910629272e-02
1.216168478131294250e-01
7.843956351280212402e-02
9.157785773277282715e-02
1.187239736318588257e-01
8.494757115840911865e-02
5.974242463707923889e-02
1.581542491912841797e-01
1.718222051858901978e-01
1.647934764623641968e-01
6.052580475807189941e-02
2.172921039164066315e-02
3.780928999185562134e-02
1.998956315219402313e-02
1.777333170175552368e-01
1.222481727600097656e-01
9.599197655916213989e-02
-5.689023435115814209e-02
-9.326867759227752686e-02
-2.015271596610546112e-02
1.040700152516365051e-01
-7.709811907261610031e-03
7.156369835138320923e-02
3.369615972042083740e-02
1.541167348623275757e-01
-3.031782433390617371e-02
6.277230381965637207e-02
2.672728300094604492e-01
1.100097671151161194e-01
1.322460025548934937e-01
2.545956373214721680e-01
1.470523923635482788e-01
2.541862428188323975e-01
6.694336235523223877e-02
-5.794912949204444885e-02
5.433876533061265945e-03
1.035169735550880432e-01
-8.133156225085258484e-03
-9.625850617885589600e-02
2.692197449505329132e-02
1.045486629009246826e-01
7.405410055071115494e-03
-1.069771945476531982e-01
-2.634628675878047943e-02
1.612472161650657654e-02
-2.331823296844959259e-02
3.794264793395996094e-02
-5.023558437824249268e-02
-7.096653431653976440e-02
-1.644111871719360352e-01
-7.154391705989837646e-02
-2.217989414930343628e-02
-6.717904657125473022e-02
-9.946295619010925293e-02
-1.388793438673019409e-01
-1.991115212440490723e-01
-1.157961562275886536e-01
-1.511095613241195679e-01
-1.026394367218017578e-01
-9.997459501028060913e-02
-4.012041166424751282e-02
-1.105949729681015015e-01
1.217501536011695862e-01
-3.662069886922836304e-02
-5.280045419931411743e-02
3.725835680961608887e-02
6.317855417728424072e-02
5.209418758749961853e-02
1.166146472096443176e-01
6.633680313825607300e-02
-3.780514746904373169e-02
1.098847249522805214e-03
2.686588466167449951e-02
-1.269589364528656006e-01
-3.338181227445602417e-02
3.993767872452735901e-02
-1.019075233489274979e-02
1.302700042724609375e-01
3.837565425783395767e-03
7.850564271211624146e-02
6.800125539302825928e-02
3.532418236136436462e-02
-1.584485173225402832e-02
2.127910219132900238e-02
3.063993342220783234e-02
-3.262631967663764954e-02
-2.917296439409255981e-02
-8.974909782409667969e-02
-5.124253034591674805e-02
-1.270906031131744385e-01
-1.173720881342887878e-01
-2.376982942223548889e-02
-1.090848259627819061e-02
-1.471039094030857086e-02
2.186405658721923828e-02
8.650366216897964478e-02
-7.670940458774566650e-02
-7.119099050760269165e-02
-2.003169246017932892e-02
8.056343346834182739e-02
5.315941572189331055e-02
1.993280053138732910e-01
4.561770707368850708e-03
7.835403084754943848e-02
-1.285284571349620819e-02
-5.255839601159095764e-02
-1.275279521942138672e-01
-2.991653420031070709e-02
-7.906242460012435913e-02
-9.460021555423736572e-02
3.957847133278846741e-02
-8.358657360076904297e-02
-1.068764701485633850e-01
-6.986376643180847168e-02
-6.553480029106140137e-02
-9.162352979183197021e-02
-8.831148594617843628e-02
-2.243419587612152100e-01
-2.556941285729408264e-02
-1.113144531846046448e-01
-1.314349174499511719e-01
-1.815204173326492310e-01
-1.888052076101303101e-01
-1.878443919122219086e-02
3.203608468174934387e-02
-1.066715940833091736e-01
-1.672365963459014893e-01
-3.923765197396278381e-02
-1.586158424615859985e-01
8.001900464296340942e-02
1.510153859853744507e-01
2.380950599908828735e-01
9.935962408781051636e-02
1.632875651121139526e-01
-1.263867598026990891e-02
1.823682039976119995e-01
2.582096457481384277e-01
1.149137094616889954e-01
-1.695989514701068401e-03
-3.093751333653926849e-02
1.099103391170501709e-01
1.296777874231338501e-01
1.556882709264755249e-01
-1.664727739989757538e-02
-7.558188587427139282e-02
1.036042422056198120e-01
7.345678657293319702e-02
-2.430406166240572929e-03
1.704561337828636169e-02
-6.309429556131362915e-02
-4.542694985866546631e-02
1.168983653187751770e-01
1.475867256522178650e-02
-5.476702749729156494e-02
-8.807387948036193848e-02
-3.696622699499130249e-02
-3.053303062915802002e-02
1.362440828233957291e-02
-1.143829673528671265e-01
1.230235770344734192e-02
2.067106589674949646e-02
9.015461057424545288e-02
2.017989521846175194e-03
-3.863849118351936340e-02
-9.913460165262222290e-02
2.927528694272041321e-02
-1.020423173904418945e-01
-3.343656286597251892e-02
-5.083724856376647949e-02
-6.384749710559844971e-02
2.214324101805686951e-02
6.858925521373748779e-02
1.560469418764114380e-01
-4.431178420782089233e-02
-7.492812722921371460e-02
-3.861052170395851135e-02
-1.063489541411399841e-01
2.761675603687763214e-02
3.427446261048316956e-02
-3.164992481470108032e-02
2.730249054729938507e-02
1.871713250875473022e-01
1.064761206507682800e-01
1.695412397384643555e-01
-1.095959842205047607e-01
-6.903368979692459106e-02
4.345648735761642456e-02
-2.310095541179180145e-02
-2.081967592239379883e-01
-2.636782228946685791e-01
-2.424313426017761230e-01
-6.619015336036682129e-02
-2.187511026859283447e-01
6.003590300679206848e-02
-1.077265664935112000e-02
7.355244457721710205e-02
-2.204745262861251831e-02
1.334945708513259888e-01
1.049145832657814026e-01
9.002047032117843628e-02
9.821070730686187744e-02
2.564018592238426208e-02
2.075663581490516663e-02
7.039882987737655640e-02
1.986173167824745178e-02
1.088874489068984985e-01
-1.164371799677610397e-02
-5.959108471870422363e-02
-1.073915809392929077e-01
-1.440078392624855042e-02
3.614080324769020081e-02
9.557385742664337158e-02
9.500032663345336914e-02
7.138706743717193604e-02
1.191725879907608032e-01
-6.538712233304977417e-02
-1.600845903158187866e-01
-4.090978181920945644e-04
2.740449272096157074e-03
-3.806682676076889038e-02
2.167416550219058990e-02
-5.519542098045349121e-02
-6.478766351938247681e-02
1.569049060344696045e-02
-2.377036493271589279e-03
-2.358131110668182373e-02
8.221189491450786591e-03
-6.724261492490768433e-02
-3.519770875573158264e-02
-6.474739313125610352e-02
1.493305861949920654e-01
1.545695308595895767e-02
5.777954682707786560e-02
-2.853595279157161713e-02
1.505449712276458740e-01
1.664225459098815918e-01
4.852027073502540588e-02
6.762993335723876953e-02
1.330616977065801620e-02
-3.869482129812240601e-02
-3.139409422874450684e-02
9.723652899265289307e-02
9.092117659747600555e-03
1.528782397508621216e-01
2.113845646381378174e-01
-1.317312847822904587e-02
9.006593376398086548e-02
4.679659008979797363e-02
1.338812261819839478e-01
9.918478131294250488e-02
6.733561307191848755e-02
-1.302751898765563965e-02
-8.490325510501861572e-02
3.714732825756072998e-02
5.544946342706680298e-02
-5.227839201688766479e-02
-1.488763839006423950e-01
1.510545704513788223e-02
1.138997822999954224e-01
8.026824891567230225e-02
4.254576191306114197e-02
-8.361233398318290710e-03
1.137542873620986938e-01
1.225276850163936615e-02
3.693949431180953979e-02
1.005612015724182129e-01
1.468781381845474243e-01
1.827533245086669922e-01
1.941114068031311035e-01
2.284705936908721924e-01
7.890339195728302002e-02
9.249142557382583618e-02
-7.426541298627853394e-02
-1.517584361135959625e-02
2.465783618390560150e-02
1.723555922508239746e-01
1.425544768571853638e-01
7.953370921313762665e-03
5.561029538512229919e-02
1.249783784151077271e-01
2.600308060646057129e-01
2.813278734683990479e-01
1.940790750086307526e-02
1.285762786865234375e-01
-1.335781812667846680e-01
-4.344120249152183533e-02
2.146514505147933960e-02
-4.419101029634475708e-02
-4.057639464735984802e-02
-2.775405906140804291e-02
-4.287146031856536865e-02
7.499812170863151550e-03
5.508077889680862427e-02
5.856998264789581299e-02
1.684804409742355347e-01
7.486464083194732666e-02
7.126641273498535156e-02
-3.444388136267662048e-02
6.109922379255294800e-02
-1.619932949542999268e-01
1.181321144104003906e-01
-7.443810254335403442e-02
-4.290758073329925537e-02
-9.103856980800628662e-02
-2.005699127912521362e-01
-1.526207029819488525e-01
-4.861468449234962463e-02
4.786417260766029358e-02
7.128871232271194458e-02
1.028064489364624023e-01
1.077779233455657959e-01
-1.321050897240638733e-02
-3.768181661143898964e-03
-3.019670583307743073e-02
-2.063700705766677856e-01
-1.291177272796630859e-01
-7.293690741062164307e-02
-8.791210502386093140e-02
-5.136081948876380920e-02
-9.999338537454605103e-02
-9.907227754592895508e-02
5.636068060994148254e-02
-5.370993539690971375e-02
1.990944892168045044e-02
3.152449801564216614e-02
6.447159219533205032e-03
-3.484673053026199341e-02
1.134360656142234802e-01
6.131886318325996399e-02
1.650947034358978271e-01
1.495255678892135620e-01
4.418681841343641281e-03
6.470569223165512085e-02
-3.623874485492706299e-02
7.108511775732040405e-02
6.406499538570642471e-03
1.376529932022094727e-01
1.383066773414611816e-01
7.740860432386398315e-02
1.159446164965629578e-01
1.589590013027191162e-01
1.153369098901748657e-01
1.739800572395324707e-01
2.010110765695571899e-01
2.292754054069519043e-01
1.540467143058776855e-01
1.417917758226394653e-01
6.918175518512725830e-02
3.360859677195549011e-02
2.060887217521667480e-02
2.014743685722351074e-01
1.575024724006652832e-01
1.353181004524230957e-01
9.509605914354324341e-02
1.941230893135070801e-02
-9.661504067480564117e-03
-1.576337590813636780e-02
-1.014561951160430908e-01
-1.152566298842430115e-01
7.311081141233444214e-02
1.408507674932479858e-01
1.390177905559539795e-01
1.836293190717697144e-01
1.847002469003200531e-02
3.799558058381080627e-02
1.156604010611772537e-02
1.663290858268737793e-01
2.937121316790580750e-02
4.150617495179176331e-02
-9.717920795083045959e-03
-3.248061984777450562e-02
-7.521960139274597168e-02
3.945704665966331959e-04
-5.396268516778945923e-02
-1.151923183351755142e-02
1.327544450759887695e-01
2.368534170091152191e-02
8.999542333185672760e-03
3.184155374765396118e-02
-1.304703764617443085e-02
-7.801064848899841309e-02
-1.197438761591911316e-01
-3.285329788923263550e-02
9.310618042945861816e-02
1.353549212217330933e-01
1.834557503461837769e-01
1.459055542945861816e-01
5.748229846358299255e-02
5.520452558994293213e-02
7.150164246559143066e-02
7.544428110122680664e-02
1.895654946565628052e-01
2.913043200969696045e-01
2.366042584180831909e-01
1.866454333066940308e-01
1.103819906711578369e-01
1.284843403846025467e-02
-6.156129390001296997e-02
1.344829201698303223e-01
1.690657064318656921e-02
2.684828639030456543e-02
-2.902887575328350067e-02
7.826208602637052536e-04
-5.555105209350585938e-02
-2.183375321328639984e-02
-6.339535862207412720e-02
-1.230088323354721069e-01
-1.092007234692573547e-01
-6.306961178779602051e-02
-1.312621533870697021e-01
-1.278448253870010376e-01
-1.423542499542236328e-01
3.736718324944376945e-03
-2.332906983792781830e-02
7.403439283370971680e-02
1.528572291135787964e-01
1.995410472154617310e-01
1.554543972015380859e-01
-1.572457700967788696e-02
-1.598120927810668945e-01
1.199713256210088730e-02
-3.938236087560653687e-02
1.150689180940389633e-02
6.631094217300415039e-02
5.538152530789375305e-02
7.677938789129257202e-02
2.000345289707183838e-01
4.990033432841300964e-02
6.210495904088020325e-02
5.552527308464050293e-02
3.130529448390007019e-02
-1.249602716416120529e-02
-6.884883344173431396e-02
-6.027217209339141846e-02
-3.744497522711753845e-02
-9.643728286027908325e-02
-5.143741890788078308e-02
-4.664403200149536133e-02
-1.066038906574249268e-01
5.128822103142738342e-02
8.202555030584335327e-02
-1.303201466798782349e-01
1.283834502100944519e-02
-4.870091751217842102e-02
-2.847449854016304016e-02
7.163295894861221313e-02
1.873741447925567627e-01
8.143223822116851807e-02
-2.585885860025882721e-02
1.364061236381530762e-01
3.646659478545188904e-02
-6.896859407424926758e-02
3.941874951124191284e-02
2.014925144612789154e-02
-2.837823703885078430e-02
-8.757323957979679108e-03
5.016908049583435059e-02
7.790507376194000244e-02
1.445823758840560913e-01
1.425709724426269531e-01
3.768410906195640564e-02
4.173132590949535370e-03
7.930853217840194702e-02
7.014406472444534302e-02
1.137007120996713638e-02
4.905589669942855835e-02
5.739163979887962341e-02
1.635987013578414917e-01
1.791666299104690552e-01
7.610312104225158691e-02
1.150928437709808350e-01
2.010042369365692139e-01
1.463714838027954102e-01
1.541984826326370239e-01
4.142621532082557678e-02
7.468100637197494507e-02
1.042950823903083801e-01
4.916813224554061890e-02
1.130354553461074829e-01
4.003340005874633789e-02
-3.436065092682838440e-02
1.880079209804534912e-01
-2.396724931895732880e-02
-2.660996466875076294e-02
-2.906158380210399628e-02
-1.054182425141334534e-01
-1.002691984176635742e-01
-1.407802104949951172e-01
-2.258711261674761772e-03
-3.810368711128830910e-03
4.086600616574287415e-02
1.539816558361053467e-01
1.227333992719650269e-01
8.769427984952926636e-02
1.741036027669906616e-01
1.195384636521339417e-01
4.751630872488021851e-02
7.602604478597640991e-02
-2.685790508985519409e-02
8.918486535549163818e-02
1.508151441812515259e-01
1.088807359337806702e-01
9.467566013336181641e-02
-2.895879000425338745e-02
-1.955992579460144043e-01
-9.817524999380111694e-02
3.000189922749996185e-02
-8.564574271440505981e-02
8.279608935117721558e-02
-1.405947208404541016e-01
-5.748238414525985718e-02
-1.245277151465415955e-01
1.413123756647109985e-01
2.602207940071821213e-03
1.257776767015457153e-01
1.284496933221817017e-01
1.087852418422698975e-01
1.544742286205291748e-01
1.287769675254821777e-01
-8.783021569252014160e-02
9.134521335363388062e-02
9.786453098058700562e-02
-1.328747137449681759e-03
7.574474904686212540e-03
1.339625716209411621e-01
2.117608189582824707e-01
9.782993793487548828e-02
1.802894175052642822e-01
4.574141651391983032e-02
8.198722451925277710e-02
-7.650383282452821732e-03
1.682221773080527782e-03
5.169624462723731995e-03
7.120005041360855103e-02
1.359353028237819672e-02
1.507005691528320312e-01
-1.123659163713455200e-01
-1.238747090101242065e-01
8.117347955703735352e-02
-1.160932471975684166e-03
-2.045079693198204041e-02
-2.749050268903374672e-03
-1.378882378339767456e-01
-1.973555684089660645e-01
-1.151517499238252640e-02
3.508136421442031860e-02
-8.755773305892944336e-03
9.636338055133819580e-02
5.882600788027048111e-03
-1.092696413397789001e-01
2.461504749953746796e-02
-2.112264335155487061e-01
5.602209642529487610e-02
1.389904171228408813e-01
-9.039882570505142212e-02
-9.214015305042266846e-02
1.512797828763723373e-02
1.884548962116241455e-01
1.410547494888305664e-01
-2.977036498486995697e-02
1.161318644881248474e-01
7.069416344165802002e-02
4.703747853636741638e-02
1.841286569833755493e-01
1.388294715434312820e-02
1.167348697781562805e-01
-1.747001893818378448e-02
-1.901649497449398041e-02
-8.916591852903366089e-02
4.872921109199523926e-02
1.511930972337722778e-01
6.293585896492004395e-02
8.219553530216217041e-02
1.010492965579032898e-01
-1.407436281442642212e-01
-5.483751744031906128e-02
1.263795047998428345e-01
-1.283562630414962769e-01
-4.677965119481086731e-02
-1.920351386070251465e-02
-1.242264211177825928e-01
-3.313683345913887024e-02
6.627228576689958572e-03
-7.253931369632482529e-03
1.440175175666809082e-01
2.448663413524627686e-01
-5.719182547181844711e-03
-1.655953675508499146e-01
-8.890990167856216431e-02
1.221605911850929260e-01
3.535123169422149658e-02
-1.294843014329671860e-02
1.796646118164062500e-01
1.078218296170234680e-01
4.602262005209922791e-02
1.480031311511993408e-01
7.581077050417661667e-03
-4.743808880448341370e-03
-6.555031239986419678e-02
-3.004477173089981079e-02
-9.188020974397659302e-02
1.997338235378265381e-02
-6.372903287410736084e-02
-6.798638962209224701e-03
-9.291260689496994019e-02
-3.020573407411575317e-02
1.729995012283325195e-02
1.250732131302356720e-02
2.320929467678070068e-01
-4.172690957784652710e-02
3.934652730822563171e-02
1.058791577816009521e-02
6.063247844576835632e-02
5.122101865708827972e-03
2.214738726615905762e-01
2.514163553714752197e-01
1.486587971448898315e-01
9.676868468523025513e-02
1.382974237203598022e-01
-7.509584724903106689e-02
-9.900134056806564331e-02
-5.607521906495094299e-02
1.389149576425552368e-02
5.555937066674232483e-02
3.779091686010360718e-02
6.396713852882385254e-02
-8.422181755304336548e-02
9.109658002853393555e-02
4.763280972838401794e-02
8.955573663115501404e-03
8.990619331598281860e-02
1.270335316658020020e-01
-2.219037152826786041e-02
-1.973209381103515625e-01
-3.879085928201675415e-02
1.911369338631629944e-02
-4.096520692110061646e-02
1.126379705965518951e-02
1.780728623270988464e-02
4.138956591486930847e-02
-3.704563016071915627e-03
3.124603256583213806e-02
7.327902317047119141e-02
-1.035852506756782532e-01
-7.803248707205057144e-03
-1.032065898180007935e-01
2.134780436754226685e-01
2.290116846561431885e-01
1.324241161346435547e-01
1.543904989957809448e-01
2.447358518838882446e-01
2.083510160446166992e-01
-9.674998000264167786e-03
5.243816971778869629e-02
-8.718752302229404449e-03
5.028202384710311890e-02
3.365069255232810974e-02
-1.294854581356048584e-01
1.493178904056549072e-01
2.131859362125396729e-01
9.556362032890319824e-02
3.211840987205505371e-02
-4.222431406378746033e-02
2.058873325586318970e-01
1.476122140884399414e-01
-4.525379091501235962e-02
-6.418035179376602173e-02
-5.667670816183090210e-02
6.881953682750463486e-03
-1.998811401426792145e-02
3.256562352180480957e-02
1.140023618936538696e-01
4.316868633031845093e-02
-8.515872992575168610e-03
-5.228510499000549316e-02
-7.501929253339767456e-02
-3.443700820207595825e-02
2.440927177667617798e-02
7.941488921642303467e-02
8.477465808391571045e-02
-4.004697874188423157e-02
6.921565532684326172e-02
9.729647636413574219e-02
8.302435278892517090e-02
-8.760777115821838379e-02
-8.575865626335144043e-02
-5.060178041458129883e-02
-1.016110703349113464e-01
-1.035661846399307251e-01
-1.005840376019477844e-01
-1.888616196811199188e-02
-5.538911372423171997e-02
-3.958699107170104980e-02
-2.111217975616455078e-01
-2.208649516105651855e-01
7.627748697996139526e-02
7.643809914588928223e-02
-8.658213168382644653e-02
1.502661965787410736e-02
-9.039182960987091064e-02
1.057012602686882019e-01
2.022960409522056580e-02
-1.114841848611831665e-01
-2.082729339599609375e-01
-2.585585415363311768e-02
-8.087006211280822754e-02
-2.820161916315555573e-02
-1.118787229061126709e-01
-3.720185905694961548e-02
-1.498101837933063507e-02
-1.171641722321510315e-01
-9.884968400001525879e-02
-6.661293655633926392e-02
-3.842947632074356079e-02
1.821833699941635132e-01
1.568684913218021393e-02
-4.535849764943122864e-02
1.451043412089347839e-02
-3.286655619740486145e-02
1.330959498882293701e-01
1.067652478814125061e-01
-1.883429847657680511e-02
1.186059489846229553e-01
5.231937021017074585e-02
1.380499601364135742e-01
-1.084642186760902405e-01
-3.669334948062896729e-02
-2.781399339437484741e-02
8.157272636890411377e-02
-1.030247285962104797e-01
7.660146802663803101e-02
1.046286374330520630e-01
3.629031404852867126e-02
-3.514157142490148544e-03
-1.898179203271865845e-02
-1.643180660903453827e-02
-2.029059529304504395e-01
-1.694641411304473877e-01
-2.198680117726325989e-02
1.419818401336669922e-01
-1.280061993747949600e-02
-1.326210200786590576e-01
-1.783913820981979370e-01
-9.383008629083633423e-02
2.636634930968284607e-02
-1.851892471313476562e-02
-6.489333510398864746e-02
-2.455568686127662659e-02
-2.059590220451354980e-01
-2.153037786483764648e-01
-1.709604263305664062e-01
-7.516723871231079102e-02
-9.589938074350357056e-02
-2.307673394680023193e-01
6.311704963445663452e-02
3.151692077517509460e-02
-7.320418208837509155e-02
-1.001434102654457092e-01
3.864835202693939209e-02
3.255314379930496216e-02
-8.199340850114822388e-02
-4.341613501310348511e-02
-1.875802278518676758e-01
-1.319107264280319214e-01
1.282510720193386078e-02
-1.059624776244163513e-01
7.084956020116806030e-02
-5.509466677904129028e-02
-3.139066398143768311e-01
-7.887179031968116760e-03
-1.023614406585693359e-01
-6.710348278284072876e-02
7.377418875694274902e-02
-8.713646978139877319e-02
-1.210616081953048706e-01
-5.056265741586685181e-02
-1.290158033370971680e-01
-9.035455435514450073e-02
-2.061587125062942505e-01
-1.404839605093002319e-01
-1.029355600476264954e-01
5.783803388476371765e-02
1.040340214967727661e-01
3.702142089605331421e-02
-2.007210701704025269e-01
-2.044634968042373657e-01
8.627709746360778809e-02
6.049013230949640274e-03
3.899020329117774963e-02
-6.420134752988815308e-02
5.435542389750480652e-02
1.093009933829307556e-01
1.991630643606185913e-01
-8.747399598360061646e-02
1.746888644993305206e-02
1.121056005358695984e-01
2.131999582052230835e-01
-2.675872761756181717e-03
2.339332364499568939e-02
8.257555961608886719e-02
-1.640286445617675781e-01
-6.920295953750610352e-02
-4.242926463484764099e-02
2.347895875573158264e-02
-1.937166750431060791e-01
-6.288723647594451904e-02
5.117943882942199707e-02
8.120254427194595337e-02
-1.983821988105773926e-01
-5.696266144514083862e-02
-2.181986868381500244e-01
-1.792331337928771973e-01
-1.645523458719253540e-01
-2.349080741405487061e-01
-1.045101210474967957e-01
3.341022878885269165e-02
-1.107821986079216003e-01
-5.585937201976776123e-02
-5.587644502520561218e-02
-8.066426217555999756e-02
-1.257586409337818623e-03
-1.364069581031799316e-01
-2.907020412385463715e-02
3.117577917873859406e-02
-1.652494817972183228e-01
8.107312768697738647e-02
-5.049988627433776855e-02
6.338733434677124023e-02
5.127605795860290527e-02
-2.382510602474212646e-01
-5.592597648501396179e-02
1.246718391776084900e-01
9.668146073818206787e-02
1.186354830861091614e-02
1.217394229024648666e-02
2.748145908117294312e-02
2.793719060719013214e-02
-3.472204320132732391e-03
4.812954738736152649e-02
3.554733842611312866e-02
-2.295195870101451874e-02
-3.871031478047370911e-02
-9.766703844070434570e-02
-4.375189915299415588e-02
1.029749363660812378e-01
2.429149746894836426e-01
2.347366064786911011e-01
8.614163100719451904e-02
-6.642464548349380493e-02
-1.985949575901031494e-01
-1.206319481134414673e-01
-6.770905852317810059e-02
-8.607604540884494781e-03
8.318964391946792603e-02
5.430709943175315857e-02
2.450703829526901245e-02
-4.207237623631954193e-03
1.295888330787420273e-02
4.264025017619132996e-02
4.137635976076126099e-02
4.901932179927825928e-02
1.072694733738899231e-02
6.064202636480331421e-02
5.419787764549255371e-02
2.525513432919979095e-02
-2.237517014145851135e-02
-7.019367814064025879e-02
-4.448616877198219299e-02
-7.249937951564788818e-02
-1.002779528498649597e-01
-1.265590637922286987e-01
-1.272546350955963135e-01
-1.278732270002365112e-01
-1.467434614896774292e-01
-5.642974004149436951e-02
-5.028683319687843323e-02
-1.630158349871635437e-02
6.016508862376213074e-02
1.072631180286407471e-01
1.402084082365036011e-01
9.825299680233001709e-02
2.557837776839733124e-02
7.694363128393888474e-03
-4.680793266743421555e-03
-4.676573351025581360e-02
-4.572604224085807800e-02
-1.633431948721408844e-02
2.288850257173180580e-03
-7.502669095993041992e-02
-5.859253928065299988e-02
-4.631993547081947327e-02
-4.703428968787193298e-02
-8.853324688971042633e-03
-6.994299590587615967e-02
-6.468426436185836792e-02
-8.753044903278350830e-02
-6.415519118309020996e-02
-7.748760282993316650e-02
-4.885462671518325806e-02
-7.565920799970626831e-02
7.448513060808181763e-02
1.084788516163825989e-01
7.047937065362930298e-02
5.446895211935043335e-02
3.748739510774612427e-02
7.290545105934143066e-02
1.056684087961912155e-02
1.780864223837852478e-02
-1.036372855305671692e-01
-2.130243182182312012e-01
-1.722990125417709351e-01
1.288440264761447906e-02
9.565315395593643188e-02
2.511266805231571198e-02
3.305027261376380920e-02
-1.233067922294139862e-02
-7.162215560674667358e-02
-5.126380920410156250e-02
-3.075681440532207489e-02
-2.022258006036281586e-02
7.498955726623535156e-02
2.283141762018203735e-02
3.497679531574249268e-02
6.299982219934463501e-02
5.375217646360397339e-02
6.566979573108255863e-04
-7.123212516307830811e-02
-8.019547164440155029e-02
-8.162441849708557129e-02
-1.694677770137786865e-02
-4.376469179987907410e-02
-7.125069200992584229e-02
-8.614918589591979980e-02
-1.441720128059387207e-01
-1.028189361095428467e-01
-4.251275211572647095e-02
1.702024973928928375e-02
4.478989169001579285e-02
1.180953755974769592e-01
8.543667197227478027e-02
-7.578223478049039841e-03
-2.794444933533668518e-02
-4.026451334357261658e-02
-6.946140527725219727e-02
-9.912256896495819092e-02
-7.981821894645690918e-02
-1.150823011994361877e-01
-1.198318079113960266e-01
-7.181555032730102539e-02
-1.895433478057384491e-02
8.760643750429153442e-02
8.188596367835998535e-02
8.671617507934570312e-02
1.014092043042182922e-01
3.156905993819236755e-02
1.184592619538307190e-01
1.940372958779335022e-02
-2.815000899136066437e-02
-9.734904766082763672e-02
-3.233988583087921143e-02
-3.488822281360626221e-02
1.138932555913925171e-01
2.625290537253022194e-03
-1.228396967053413391e-01
-2.260322310030460358e-02
-1.322465091943740845e-01
-1.786739230155944824e-01
-1.490651667118072510e-01
-6.764820963144302368e-02
-2.450547413900494576e-03
9.620390832424163818e-02
8.025866746902465820e-02
2.130899950861930847e-02
-4.650629311800003052e-02
-1.046391725540161133e-01
-6.246247887611389160e-02
2.592942491173744202e-02
-2.454596385359764099e-02
9.437502361834049225e-03
-2.067162469029426575e-02
-2.489590458571910858e-02
-9.120381437242031097e-03
-3.758706524968147278e-02
2.125013247132301331e-02
-9.189094603061676025e-02
1.820902526378631592e-02
1.067601069808006287e-01
1.859433501958847046e-01
1.327642053365707397e-01
9.160579741001129150e-02
4.818464443087577820e-02
8.605173230171203613e-02
1.186863109469413757e-01
-2.878890559077262878e-02
-6.801621615886688232e-02
-4.202485829591751099e-02
-1.720133237540721893e-02
-1.346183754503726959e-02
-1.674528867006301880e-01
-2.668167836964130402e-02
1.357498615980148315e-01
7.315994054079055786e-02
5.470139905810356140e-02
1.135642528533935547e-01
2.913036942481994629e-01
1.774915605783462524e-01
1.737728267908096313e-01
2.296362817287445068e-01
1.358520835638046265e-01
-1.047513540834188461e-02
-1.132949292659759521e-01
-2.874665334820747375e-02
-6.111276149749755859e-02
3.737294673919677734e-02
-2.451613312587141991e-03
1.405741870403289795e-01
4.785576369613409042e-03
3.761113062500953674e-02
1.020933017134666443e-01
2.126121670007705688e-01
1.403619647026062012e-01
6.581779569387435913e-02
4.052723199129104614e-02
8.243965916335582733e-03
1.239451542496681213e-01
-8.053830265998840332e-02
-7.171588391065597534e-02
-1.190131530165672302e-02
-7.148874551057815552e-02
-8.626620471477508545e-02
-1.673950254917144775e-01
-4.815262928605079651e-02
-4.117199033498764038e-02
-8.250755816698074341e-02
1.651524007320404053e-02
1.460502147674560547e-01
2.592397630214691162e-01
2.408823966979980469e-01
1.253704428672790527e-01
1.130133047699928284e-01
3.639047220349311829e-02
1.154009774327278137e-01
-8.216610178351402283e-03
-6.830690801143646240e-02
-4.596772044897079468e-02
-1.222762092947959900e-01
1.861611194908618927e-02
6.718401610851287842e-02
3.657587990164756775e-02
1.361275166273117065e-01
1.710158139467239380e-01
-7.079462055116891861e-03
-6.688920548185706139e-04
1.020278856158256531e-01
5.709241330623626709e-02
-1.177170546725392342e-03
2.871461212635040283e-02
6.522884219884872437e-02
-5.911099538207054138e-02
-6.636513024568557739e-02
2.943462878465652466e-02
1.430329829454421997e-01
2.451654374599456787e-01
1.931525468826293945e-01
1.401869356632232666e-01
8.341201394796371460e-02
3.174291923642158508e-02
6.391254067420959473e-02
5.903544370085000992e-03
-6.746917217969894409e-02
-1.468774527311325073e-01
-3.616708517074584961e-02
2.763150446116924286e-02
1.230024769902229309e-01
4.086090717464685440e-03
-1.221593283116817474e-02
-9.625144302845001221e-02
-1.607293188571929932e-01
-1.064664795994758606e-01
-8.766674995422363281e-02
2.375416457653045654e-02
7.546550035476684570e-02
5.225430801510810852e-02
-1.410468220710754395e-01
-1.022230833768844604e-01
-3.673302754759788513e-02
-7.924060523509979248e-02
-1.109810452908277512e-02
-9.374518878757953644e-03
4.537333548069000244e-02
-2.494988404214382172e-02
5.959320813417434692e-02
-5.162439495325088501e-02
-9.806079417467117310e-02
-3.127110889181494713e-03
-9.433306753635406494e-02
-5.356639623641967773e-02
6.987088173627853394e-02
1.886163954623043537e-05
1.247876905836164951e-03
-1.841965690255165100e-02
-1.101870834827423096e-01
-9.402520954608917236e-02
-2.890754863619804382e-02
-6.558488588780164719e-03
6.621332466602325439e-02
1.006572041660547256e-02
3.501842916011810303e-02
-3.341624513268470764e-02
-1.011584550142288208e-01
-5.284301191568374634e-02
-3.132057934999465942e-02
-9.134925901889801025e-02
1.079181209206581116e-02
8.482436835765838623e-02
-9.306399524211883545e-02
-4.233413562178611755e-02
-8.130218833684921265e-03
-1.285205930471420288e-01
-1.588064283132553101e-01
-5.231480300426483154e-02
1.030740514397621155e-01
-6.498252600431442261e-02
-9.164761751890182495e-02
4.563129972666501999e-03
-4.860483482480049133e-02
-1.521682143211364746e-01
-8.117775619029998779e-02
-1.408548951148986816e-01
-1.026508063077926636e-01
-5.149102956056594849e-02
4.597286880016326904e-02
6.709837354719638824e-03
-3.744344040751457214e-02
-2.018072605133056641e-01
-1.884393543004989624e-01
-1.658769249916076660e-01
-2.390624582767486572e-02
3.343264013528823853e-02
-2.616293728351593018e-02
6.917656958103179932e-02
1.044014245271682739e-01
-1.720732427202165127e-03
7.616248726844787598e-02
1.737124100327491760e-02
2.511092275381088257e-02
-5.183364264667034149e-03
-8.965327590703964233e-02
-9.384844452142715454e-03
5.221590399742126465e-04
-1.717700809240341187e-02
-6.913448125123977661e-02
-7.801558822393417358e-02
-2.086260728538036346e-02
-3.957811568398028612e-04
6.831073760986328125e-02
-2.960154600441455841e-02
2.852508984506130219e-02
3.189532086253166199e-02
-6.288411468267440796e-02
-1.655078232288360596e-01
-1.748668253421783447e-01
-2.049678713083267212e-01
-2.587046027183532715e-01
-1.846005469560623169e-01
-1.763369888067245483e-01
-1.502025127410888672e-01
-1.018706895411014557e-02
1.047939136624336243e-01
2.167713791131973267e-01
2.382742613554000854e-01
1.490707993507385254e-01
7.248304039239883423e-02
1.750351041555404663e-01
6.492203474044799805e-02
2.030895836651325226e-02
1.127547366195358336e-04
1.972234807908535004e-02
6.053343415260314941e-03
-4.961064457893371582e-02
-1.093367673456668854e-02
1.225695013999938965e-01
4.147609695792198181e-02
8.786039054393768311e-02
-3.491656482219696045e-02
4.686074331402778625e-03
6.404905114322900772e-03
1.540728658437728882e-01
1.766601353883743286e-01
1.427267938852310181e-01
4.902022331953048706e-02
3.175828978419303894e-02
-1.498305890709161758e-02
-1.851495355367660522e-02
-1.711580604314804077e-01
-3.270562291145324707e-01
-2.234208583831787109e-01
-2.056347727775573730e-01
-1.030705273151397705e-01
3.624881803989410400e-02
1.038810703903436661e-02
-8.983119390904903412e-03
1.905870810151100159e-02
2.839353494346141815e-02
-7.252934575080871582e-02
3.970754519104957581e-02
8.526871353387832642e-02
1.059841811656951904e-01
-6.155272573232650757e-02
-2.990847639739513397e-02
-5.729454383254051208e-02
1.303324382752180099e-02
8.863898366689682007e-02
8.178640156984329224e-02
-6.563692539930343628e-02
3.456708416342735291e-02
8.059930056333541870e-02
-1.229051128029823303e-01
9.279795736074447632e-02
9.083069860935211182e-03
1.804073154926300049e-02
-1.057297587394714355e-01
-8.850752562284469604e-02
-3.041933663189411163e-02
-1.027007773518562317e-01
-4.011674597859382629e-02
4.681279882788658142e-02
-1.318843513727188110e-01
-1.031374931335449219e-01
-1.131847277283668518e-01
-1.364057064056396484e-01
-2.041723132133483887e-01
-1.663439720869064331e-01
-1.157645061612129211e-01
-1.413721889257431030e-01
-5.759949609637260437e-02
8.088526129722595215e-02
4.373193159699440002e-02
3.963303938508033752e-02
-7.329739164561033249e-04
-2.219654619693756104e-02
4.131735861301422119e-02
4.537077993154525757e-02
2.950547076761722565e-02
2.914268709719181061e-02
2.019304782152175903e-01
2.327785938978195190e-01
4.686429724097251892e-02
2.408757805824279785e-01
1.070558428764343262e-01
9.146502241492271423e-03
-1.780967041850090027e-02
2.943942137062549591e-02
-1.519793570041656494e-01
-1.487933695316314697e-01
-1.603711843490600586e-01
-2.074054926633834839e-01
-2.194944918155670166e-01
-2.832569926977157593e-02
-4.474367946386337280e-03
-2.119388580322265625e-01
-1.545446068048477173e-01
-4.606214910745620728e-02
-3.109325282275676727e-02
-1.557128131389617920e-01
-1.139342486858367920e-01
-1.993477344512939453e-01
8.697120845317840576e-02
7.571049034595489502e-02
1.765666455030441284e-01
9.061433374881744385e-02
2.154533006250858307e-02
-9.337879717350006104e-02
-1.007447391748428345e-01
2.400189787149429321e-01
1.728424578905105591e-01
7.973910868167877197e-02
8.650172501802444458e-02
2.143367230892181396e-01
7.864324003458023071e-02
2.687973976135253906e-01
1.223389431834220886e-01
2.364607900381088257e-02
-1.018592417240142822e-01
2.060049911960959435e-03
5.684522911906242371e-02
-1.203744113445281982e-01
-2.198121100664138794e-01
-7.548089325428009033e-02
-1.357105672359466553e-01
2.804692275822162628e-02
9.197579324245452881e-02
1.879073083400726318e-01
1.055935248732566833e-01
1.385931205004453659e-02
5.983528494834899902e-02
9.962916374206542969e-02
6.751244515180587769e-02
3.748184815049171448e-02
7.088773697614669800e-02
8.984892070293426514e-02
6.551145017147064209e-02
1.408430840820074081e-02
-2.405385859310626984e-02
-5.491935834288597107e-02
1.198342721909284592e-02
1.488326489925384521e-01
1.312873661518096924e-01
3.049598634243011475e-02
-3.353855339810252190e-03
-1.237777620553970337e-01
-1.617631167173385620e-01
5.286618601530790329e-03
4.324573650956153870e-02
1.144583243876695633e-02
2.329931594431400299e-02
-6.356686353683471680e-02
1.409839093685150146e-01
-1.089367317035794258e-03
8.359504491090774536e-02
9.105903655290603638e-02
3.113820590078830719e-02
-2.079962342977523804e-01
-9.539328515529632568e-02
-1.259786933660507202e-01
-3.908460214734077454e-02
-9.883607923984527588e-02
-5.922381207346916199e-02
-3.900194540619850159e-02
1.030555889010429382e-01
1.311397701501846313e-01
-8.433350175619125366e-02
-4.559630900621414185e-02
4.951688647270202637e-02
-1.073936372995376587e-01
-6.142604723572731018e-02
4.433048889040946960e-03
1.432537883520126343e-01
1.717793196439743042e-01
2.825409471988677979e-01
8.043017983436584473e-02
3.574392199516296387e-02
1.198168694972991943e-01
-2.204694412648677826e-02
-2.179447375237941742e-02
-5.917011760175228119e-03
9.901867806911468506e-02
1.305421441793441772e-01
2.824170701205730438e-02
-1.317106280475854874e-02
7.073612883687019348e-03
2.361163869500160217e-02
7.381603866815567017e-02
8.297826349735260010e-02
1.162394285202026367e-01
-5.326544493436813354e-02
-8.103828132152557373e-02
-1.584575921297073364e-01
-6.490581482648849487e-02
2.884987974539399147e-03
-1.936359144747257233e-02
1.358018070459365845e-01
1.941659860312938690e-02
2.002239227294921875e-02
-2.638149634003639221e-02
-9.656812064349651337e-03
-9.524282068014144897e-02
-2.655883319675922394e-03
-3.142535686492919922e-02
9.705354273319244385e-02
-3.183447942137718201e-02
3.229121863842010498e-02
1.034777015447616577e-01
-1.346879173070192337e-03
-1.100234761834144592e-01
-5.300327017903327942e-02
-1.389848440885543823e-01
-1.914723366498947144e-01
-2.475712299346923828e-01
-4.966900497674942017e-02
2.135497704148292542e-02
-1.015863567590713501e-01
-2.080663591623306274e-01
-1.865396499633789062e-01
-1.633434742689132690e-01
-2.356247305870056152e-01
-1.273427754640579224e-01
-2.856284938752651215e-02
-2.668620645999908447e-02
-1.123480945825576782e-01
-8.430201560258865356e-02
-9.609870612621307373e-02
1.864168560132384300e-03
-7.192331552505493164e-02
3.975840657949447632e-02
4.005935415625572205e-02
-1.004355307668447495e-02
8.455337584018707275e-02
6.228960305452346802e-02
1.668361574411392212e-02
-1.686324179172515869e-01
-1.006748750805854797e-01
-3.087586164474487305e-02
-3.655549883842468262e-02
-6.920393556356430054e-02
-1.012567151337862015e-02
-2.602427825331687927e-02
9.019463509321212769e-02
-1.623543798923492432e-01
-3.841437399387359619e-02
-9.359437227249145508e-02
-2.159221172332763672e-01
-2.086509615182876587e-01
-5.138611793518066406e-02
-1.047462895512580872e-01
-1.397327184677124023e-01
-7.613012194633483887e-02
1.812106557190418243e-02
-1.064976118505001068e-02
-5.913665890693664551e-02
-1.953437328338623047e-01
-2.845291495323181152e-01
-1.775698661804199219e-01
-2.385853528976440430e-01
-1.387948840856552124e-01
3.695767745375633240e-02
4.958996921777725220e-02
-7.881020754575729370e-02
2.279408834874629974e-02
-9.592173993587493896e-02
-7.800731807947158813e-03
-1.207886487245559692e-01
-1.008096784353256226e-01
-2.371864952147006989e-02
1.492629349231719971e-01
1.757639832794666290e-02
-5.631240084767341614e-02
7.013315707445144653e-02
-4.874089732766151428e-02
-1.463772263377904892e-02
-9.626842290163040161e-02
1.268725469708442688e-02
5.849761143326759338e-02
1.408549994230270386e-01
-6.479316391050815582e-03
-1.205768901854753494e-03
-5.636760592460632324e-02
-5.310568213462829590e-02
7.868548855185508728e-03
-2.453766390681266785e-02
2.099327370524406433e-02
4.766286909580230713e-02
-1.146264448761940002e-01
-2.101310491561889648e-01
-3.472907245159149170e-01
-3.108270168304443359e-01
-1.498848348855972290e-01
4.596276208758354187e-02
-7.839725166559219360e-02
1.854815520346164703e-02
3.684172779321670532e-02
1.747089065611362457e-02
1.037468835711479187e-01
7.705807685852050781e-02
1.590600609779357910e-01
-1.463205274194478989e-02
-7.303878664970397949e-02
7.918566465377807617e-02
1.667543351650238037e-01
1.704443097114562988e-01
2.055385857820510864e-01
4.205197840929031372e-02
-2.795355580747127533e-02
2.588460445404052734e-01
8.569097146391868591e-03
-1.064535453915596008e-01
2.427279017865657806e-02
8.407491445541381836e-02
4.006167128682136536e-02
1.458051651716232300e-01
1.102144494652748108e-01
3.228284791111946106e-02
9.287165105342864990e-02
5.160620808601379395e-02
1.337978392839431763e-01
1.043658852577209473e-01
1.227205470204353333e-01
6.983531266450881958e-02
3.838930651545524597e-02
9.866241365671157837e-02
1.527318805456161499e-01
1.687176227569580078e-01
1.139038279652595520e-01
1.059253737330436707e-01
-2.466505020856857300e-02
1.136841718107461929e-02
-3.980684652924537659e-02
-1.405642479658126831e-01
-1.028033122420310974e-01
2.323875948786735535e-02
2.660794556140899658e-02
-3.059629909694194794e-02
2.236206457018852234e-02
-2.214209586381912231e-01
-6.447419524192810059e-02
-2.507080696523189545e-02
-1.294182687997817993e-01
-1.123872250318527222e-01
-8.232209831476211548e-02
6.060757208615541458e-03
1.225780323147773743e-02
3.621812537312507629e-02
-1.236266270279884338e-01
-2.100067585706710815e-01
-2.497248724102973938e-02
1.283849030733108521e-02
-1.042347326874732971e-01
-6.240930408239364624e-02
-6.610174477100372314e-02
-2.414400689303874969e-02
4.298130795359611511e-02
5.251363292336463928e-02
6.569425016641616821e-02
-4.270819574594497681e-02
-4.231579229235649109e-02
2.852248586714267731e-02
-2.564979530870914459e-02
1.537469327449798584e-01
3.447500616312026978e-02
-1.112327724695205688e-01
-8.267702907323837280e-02
-2.873537503182888031e-02
1.101781651377677917e-01
4.955910891294479370e-02
1.588256508111953735e-01
1.119799986481666565e-01
1.517021656036376953e-01
2.107412964105606079e-01
6.821442395448684692e-02
-1.247635483741760254e-01
7.741217315196990967e-02
9.888245165348052979e-02
1.299655586481094360e-01
-4.243874456733465195e-03
-4.284095950424671173e-03
-2.227708399295806885e-01
-1.780114918947219849e-01
-1.154151111841201782e-01
-5.279384180903434753e-02
-1.091416254639625549e-01
-3.333953022956848145e-02
2.129504084587097168e-02
5.422051250934600830e-02
9.104689955711364746e-02
9.588378667831420898e-02
8.905211091041564941e-02
1.819300949573516846e-01
1.616657525300979614e-01
1.178075671195983887e-01
4.036628175526857376e-03
7.484867423772811890e-02
1.095762997865676880e-01
8.402940630912780762e-02
-1.983590424060821533e-03
5.332330241799354553e-03
-2.819331735372543335e-02
-1.515122056007385254e-01
-7.326278090476989746e-02
-2.187987267971038818e-01
1.716569811105728149e-01
1.529954671859741211e-01
-8.725330233573913574e-02
1.454214155673980713e-01
1.325600221753120422e-02
5.789244547486305237e-02
2.270313948392868042e-01
8.173209428787231445e-02
2.619549818336963654e-02
8.156829280778765678e-04
1.085039451718330383e-01
-1.876346208155155182e-02
-1.178223192691802979e-01
-8.857048302888870239e-02
-1.292672157287597656e-01
2.243201062083244324e-02
-7.188691198825836182e-02
9.702179580926895142e-02
4.473482444882392883e-02
1.608832180500030518e-01
2.880064770579338074e-02
8.983613550662994385e-02
-1.137569546699523926e-01
3.006773069500923157e-02
1.357007957994937897e-02
-1.717102080583572388e-01
-1.042013615369796753e-01
-5.973896011710166931e-02
-6.473747640848159790e-02
-2.679563872516155243e-02
-2.409465312957763672e-01
-1.081848144531250000e-01
-3.056201934814453125e-01
-1.306954026222229004e-01
6.676601618528366089e-02
6.197478622198104858e-03
-5.604159832000732422e-02
-1.589916064403951168e-04
5.096268653869628906e-02
5.522015690803527832e-02
7.834206521511077881e-02
-5.715285614132881165e-02
2.451811917126178741e-02
2.378989197313785553e-02
-2.678104303777217865e-02
-9.081564098596572876e-02
-1.455579102039337158e-01
-1.431540399789810181e-01
-1.386370956897735596e-01
-5.651631206274032593e-02
-2.641212753951549530e-02
1.261296123266220093e-01
1.378451585769653320e-01
7.014957815408706665e-02
2.616998553276062012e-02
-8.429784327745437622e-02
-1.765681803226470947e-01
-1.825467646121978760e-01
-9.256057441234588623e-02
-5.990121141076087952e-02
-1.088406667113304138e-01
2.128562703728675842e-02
-1.187748014926910400e-01
-9.692808240652084351e-02
-2.529624104499816895e-01
4.645094648003578186e-02
2.998327612876892090e-01
8.405639231204986572e-02
-8.535294979810714722e-02
1.624772846698760986e-01
-1.030722856521606445e-01
-1.508247200399637222e-02
-1.149673759937286377e-01
-1.356087028980255127e-01
-6.730139255523681641e-02
-2.733585797250270844e-02
8.402563631534576416e-03
2.841976657509803772e-02
5.724094808101654053e-03
1.068961992859840393e-02
1.373949497938156128e-01
5.844090133905410767e-02
2.405468821525573730e-01
2.104700058698654175e-01
6.782796233892440796e-02
1.508949100971221924e-01
1.534895896911621094e-01
7.826842367649078369e-02
-2.063349448144435883e-02
-6.018720567226409912e-02
-1.588142961263656616e-01
-7.744338363409042358e-02
-4.368996596895158291e-04
-1.245919056236743927e-02
-2.109219133853912354e-01
-1.141997724771499634e-01
-1.750239729881286621e-01
-1.356206834316253662e-02
1.206097751855850220e-01
1.448967121541500092e-02
-1.214691996574401855e-01
-2.396165393292903900e-02
-3.373446688055992126e-02
1.892992258071899414e-01
2.057242579758167267e-02
9.822864085435867310e-03
2.934434264898300171e-02
1.441640257835388184e-01
6.712956726551055908e-02
6.775559484958648682e-02
-8.598855137825012207e-02
-6.875317543745040894e-02
1.076387092471122742e-01
9.023290872573852539e-02
-5.275417491793632507e-02
-5.334251001477241516e-02
-2.186513692140579224e-02
-7.173246145248413086e-02
1.237261369824409485e-01
-1.117028947919607162e-02
1.814231276512145996e-02
-1.014585494995117188e-01
-8.308585733175277710e-02
-4.137831553816795349e-02
6.765516847372055054e-02
-6.539865583181381226e-02
1.114330738782882690e-01
9.688991308212280273e-02
1.438588947057723999e-01
1.323484629392623901e-01
2.333215773105621338e-01
1.411119699478149414e-01
4.440045729279518127e-02
-4.467517603188753128e-03
-1.438912302255630493e-01
5.452176928520202637e-02
1.835779994726181030e-01
1.083284839987754822e-01
9.518768638372421265e-02
-4.834386333823204041e-02
-4.983929172158241272e-02
-4.738409072160720825e-02
-8.150475472211837769e-02
4.515811055898666382e-02
-3.449647873640060425e-02
1.025803610682487488e-01
-4.317992925643920898e-02
-1.321722194552421570e-02
1.542331725358963013e-01
7.273141294717788696e-02
1.853127181529998779e-01
-1.054004281759262085e-01
1.121250167489051819e-01
3.361871838569641113e-02
1.284519433975219727e-01
1.058348864316940308e-01
1.829742640256881714e-01
2.770039997994899750e-02
1.604096591472625732e-01
-1.284495741128921509e-01
-6.480515003204345703e-02
1.881449073553085327e-01
3.398744463920593262e-01
2.610617876052856445e-01
8.238229900598526001e-02
1.379435807466506958e-01
1.117912232875823975e-01
6.303553283214569092e-02
1.485716104507446289e-01
1.609538495540618896e-01
-7.306379824876785278e-02
-4.471547529101371765e-02
-2.247646450996398926e-02
-1.874828711152076721e-02
3.886868059635162354e-02
2.073786407709121704e-01
2.853756844997406006e-01
7.161081582307815552e-02
4.378908127546310425e-02
-2.803812967613339424e-04
8.044703863561153412e-03
-4.966444149613380432e-02
1.026834473013877869e-01
1.060548722743988037e-01
-3.778909146785736084e-02
4.068808630108833313e-02
-8.474735915660858154e-02
-1.328522991389036179e-02
-2.199876308441162109e-01
6.154305860400199890e-02
3.468553349375724792e-02
8.686261624097824097e-02
-3.659923002123832703e-02
-9.327928535640239716e-03
-3.625993058085441589e-02
2.750962786376476288e-02
-7.952746003866195679e-02
-1.276828534901142120e-02
-1.000240594148635864e-01
-6.224064528942108154e-02
-9.239169210195541382e-02
-7.247047871351242065e-02
-5.441977456212043762e-02
1.770794019103050232e-02
1.092447191476821899e-01
-1.688722074031829834e-01
-1.321608871221542358e-01
4.199594259262084961e-03
-1.372651895508170128e-03
-6.501513719558715820e-02
1.228645741939544678e-01
3.266539797186851501e-02
1.166539788246154785e-01
-1.975124701857566833e-02
-1.801930018700659275e-03
-8.296051621437072754e-02
-2.280667573213577271e-01
-6.705052405595779419e-02
-8.921665698289871216e-02
-9.432731568813323975e-02
-9.176293015480041504e-02
-4.945655167102813721e-02
1.298335194587707520e-02
-3.499072790145874023e-02
-1.138263046741485596e-01
-2.541873604059219360e-02
-1.317126005887985229e-01
9.235839243046939373e-04
-1.237110942602157593e-01
-1.097640097141265869e-01
-1.526506096124649048e-01
-7.076400518417358398e-02
1.313638780266046524e-02
-1.551617830991744995e-01
3.359772090334445238e-04
1.852207481861114502e-01
2.133007049560546875e-01
2.414608746767044067e-02
6.389351189136505127e-02
7.493258267641067505e-02
4.317204654216766357e-02
-1.069643646478652954e-01
-3.278206661343574524e-02
-1.126985400915145874e-01
9.447925537824630737e-02
2.026861533522605896e-02
7.366223260760307312e-03
2.544583939015865326e-02
-6.376183126121759415e-03
-1.460309773683547974e-01
-5.376991257071495056e-02
-1.970563232898712158e-01
-1.253716498613357544e-01
-1.686205863952636719e-01
2.700549922883510590e-02
6.838536262512207031e-02
1.326226349920034409e-02
1.285420637577772141e-02
3.072087652981281281e-02
-4.491060506552457809e-03
-3.356429636478424072e-01
-8.781899511814117432e-02
-3.112676143646240234e-01
-2.402740567922592163e-01
-1.875162571668624878e-01
-6.217835471034049988e-02
-1.747510880231857300e-01
-1.839516758918762207e-01
-6.892631947994232178e-02
-2.641459107398986816e-01
-8.375610411167144775e-02
-8.869588375091552734e-02
-1.049693394452333450e-02
3.539831191301345825e-02
-3.403193131089210510e-02
-8.455450879409909248e-04
6.044868007302284241e-02
1.027862206101417542e-01
-2.008718103170394897e-01
-2.221107929944992065e-01
-9.472537040710449219e-02
-1.056497916579246521e-02
-1.886385530233383179e-01
-1.297754496335983276e-01
1.749018020927906036e-02
-5.176612176001071930e-04
-8.906152844429016113e-02
9.459874033927917480e-02
5.951412487775087357e-03
-7.298690080642700195e-02
-5.144314840435981750e-02
3.288706648163497448e-05
-2.640630304813385010e-01
-9.773513674736022949e-02
-4.196755588054656982e-02
-3.845649957656860352e-02
2.298125065863132477e-02
2.722588367760181427e-02
-8.251949399709701538e-02
-3.201082348823547363e-02
9.259987622499465942e-02
-2.192155271768569946e-02
1.065500006079673767e-01
-2.564850747585296631e-01
-2.775626778602600098e-01
-1.758130788803100586e-01
-1.870898902416229248e-01
-1.209621131420135498e-01
-1.191067919135093689e-01
-1.628891080617904663e-01
-8.435163646936416626e-02
-2.065447121858596802e-01
-5.129178985953330994e-02
2.693586051464080811e-03
-1.427131295204162598e-01
-7.615260779857635498e-02
-2.849558368325233459e-02
6.892976816743612289e-03
4.402243718504905701e-02
3.377079591155052185e-02
7.134275883436203003e-02
7.649172842502593994e-02
2.425927110016345978e-02
4.346051067113876343e-02
2.655349439010024071e-03
-1.312516033649444580e-01
-2.561588399112224579e-02
3.966302424669265747e-02
1.290272641927003860e-02
6.195162609219551086e-02
-6.777250766754150391e-02
-9.412135183811187744e-02
-9.950795210897922516e-04
1.036363020539283752e-01
-7.832892984151840210e-02
-1.521189361810684204e-01
-1.232567578554153442e-01
-3.238945081830024719e-02
-1.042011454701423645e-01
-3.478980660438537598e-01
-9.401211142539978027e-02
-1.082683801651000977e-01
4.789120331406593323e-02
5.992912873625755310e-02
1.869217120110988617e-02
-2.455693110823631287e-02
1.412494182586669922e-01
-5.811483785510063171e-02
2.604551799595355988e-02
4.981473553925752640e-03
8.026030659675598145e-02
-8.754316717386245728e-02
1.614791601896286011e-01
1.215531304478645325e-01
1.223346740007400513e-01
5.111018195748329163e-03
-2.033486217260360718e-01
3.853413090109825134e-02
5.130722746253013611e-02
1.468578577041625977e-01
7.909861952066421509e-02
-4.581078886985778809e-02
6.463056802749633789e-02
-1.621403694152832031e-01
-8.032893529161810875e-04
-1.047879457473754883e-01
-1.673448085784912109e-01
-8.608111739158630371e-02
-2.059171348810195923e-01
-6.466233730316162109e-02
-6.023420486599206924e-03
9.726379066705703735e-02
-9.969139844179153442e-02
8.730351179838180542e-02
-2.634143270552158356e-02
5.097164958715438843e-02
-6.727569550275802612e-02
7.719867676496505737e-02
1.417865157127380371e-01
3.622733801603317261e-02
8.203659951686859131e-02
-6.649480015039443970e-02
-6.821338832378387451e-02
-4.566865414381027222e-02
-7.176108658313751221e-02
7.383567839860916138e-02
3.247052058577537537e-02
8.646551519632339478e-02
2.489630598574876785e-03
-8.235367946326732635e-03
3.093110769987106323e-02
1.401972770690917969e-01
7.970345765352249146e-02
3.062537498772144318e-02
8.927685022354125977e-02
6.155126169323921204e-02
4.089987277984619141e-02
1.155143454670906067e-01
8.828002959489822388e-02
6.133565306663513184e-02
1.276521384716033936e-01
-3.135567903518676758e-02
1.017222329974174500e-01
-1.550919190049171448e-02
-1.185604464262723923e-02
2.383113279938697815e-02
-3.979450836777687073e-02
3.041085004806518555e-01
2.676020264625549316e-01
1.651861965656280518e-01
4.993005469441413879e-02
1.924647986888885498e-01
7.484980672597885132e-02
1.465707570314407349e-01
1.618691682815551758e-01
-1.437349021434783936e-01
1.181407794356346130e-01
1.173968091607093811e-01
-1.151243895292282104e-01
-2.974022366106510162e-02
4.858202859759330750e-02
5.271033570170402527e-02
1.437650471925735474e-01
8.076552301645278931e-02
-2.324381656944751740e-02
-6.400133669376373291e-02
1.583865433931350708e-01
1.475097388029098511e-01
4.559201747179031372e-02
2.688970044255256653e-02
1.438662707805633545e-01
1.016539558768272400e-01
2.177059799432754517e-01
2.774019539356231689e-01
1.822938024997711182e-01
6.332135200500488281e-02
3.277729079127311707e-02
5.380587652325630188e-02
1.235537752509117126e-01
1.173340305685997009e-01
8.104922622442245483e-02
1.921223104000091553e-01
-1.903533004224300385e-03
-6.499709933996200562e-02
-2.995512261986732483e-02
2.279709838330745697e-02
-1.464468091726303101e-01
-1.006701067090034485e-01
1.586450934410095215e-01
1.230694204568862915e-01
1.807531863451004028e-01
1.384638901799917221e-02
-9.818556159734725952e-02
-5.787366628646850586e-02
2.413977533578872681e-01
1.648265123367309570e-01
-9.079865179955959320e-03
1.911305263638496399e-02
8.993050456047058105e-02
-1.215516626834869385e-01
-1.802198141813278198e-01
-7.131549715995788574e-02
9.065160900354385376e-02
-9.326741844415664673e-02
3.920399770140647888e-02
3.330885469913482666e-01
3.112901151180267334e-01
6.270113587379455566e-02
-8.387760818004608154e-02
-1.926215887069702148e-01
1.256954520940780640e-01
5.061770975589752197e-02
2.496447563171386719e-01
4.929238557815551758e-02
-5.721926316618919373e-02
-8.222197741270065308e-02
5.498839914798736572e-02
-7.151925563812255859e-02
3.604642301797866821e-02
2.131763845682144165e-02
7.697828114032745361e-02
6.630490534007549286e-03
1.289070546627044678e-01
2.078218460083007812e-01
1.673702746629714966e-01
2.347814291715621948e-01
1.435162425041198730e-01
-7.955309934914112091e-03
9.260247461497783661e-03
-5.590019747614860535e-02
-9.546456485986709595e-02
-1.126595810055732727e-01
-1.941247880458831787e-01
-7.373055815696716309e-02
-2.243912033736705780e-02
-4.577930271625518799e-02
2.961676940321922302e-02
1.200396046042442322e-01
2.901114337146282196e-02
1.084946468472480774e-01
-1.072421371936798096e-01
1.917545311152935028e-02
-1.695987209677696228e-02
1.628359258174896240e-01
5.591998994350433350e-02
5.536027997732162476e-02
9.827928245067596436e-02
7.046112418174743652e-02
3.036168217658996582e-01
1.117631718516349792e-01
1.230737119913101196e-01
-3.603232651948928833e-02
-1.950878500938415527e-01
7.539393752813339233e-02
1.344160586595535278e-01
-9.911198168992996216e-02
1.728360056877136230e-01
2.575809359550476074e-01
1.690689921379089355e-01
1.103415936231613159e-01
1.750555485486984253e-01
1.240998413413763046e-02
-2.664308845996856689e-01
-6.999724358320236206e-02
-1.825280189514160156e-01
-7.052732259035110474e-02
-1.650145798921585083e-01
-1.760919988155364990e-01
-7.403570413589477539e-02
-5.420709401369094849e-02
2.353378385305404663e-01
-1.161026023328304291e-02
1.756862848997116089e-01
-4.846054129302501678e-03
-2.780291624367237091e-02
5.776393786072731018e-02
-9.329335764050483704e-03
4.898138046264648438e-01
8.016247302293777466e-02
5.794295296072959900e-02
1.093972772359848022e-01
-7.700004428625106812e-02
2.328631579875946045e-01
1.262908428907394409e-02
6.826387718319892883e-03
-2.181020751595497131e-02
4.605490714311599731e-03
1.722707413136959076e-02
7.412957027554512024e-03
1.449704021215438843e-01
2.334076464176177979e-01
1.944922804832458496e-01
6.360521167516708374e-02
-2.797088213264942169e-02
-8.559729903936386108e-02
-1.124576330184936523e-01
-1.222189888358116150e-01
-4.353429749608039856e-02
-4.627216979861259460e-02
-5.211831256747245789e-02
-5.598014686256647110e-03
-2.753715962171554565e-02
2.543410845100879669e-02
2.481475099921226501e-02
2.965325489640235901e-02
-2.942421007901430130e-03
6.874572020024061203e-03
-1.968533964827656746e-03
5.000053439289331436e-03
3.777277842164039612e-02
1.606059819459915161e-02
1.651800982654094696e-02
4.015669226646423340e-02
4.748318716883659363e-02
5.759022757411003113e-02
8.946339786052703857e-02
5.005363002419471741e-02
1.145291700959205627e-01
1.693773418664932251e-01
1.619677245616912842e-01
1.741221994161605835e-01
1.060366183519363403e-01
1.835650764405727386e-02
-2.982888370752334595e-02
-5.980600789189338684e-02
-4.855020716786384583e-02
-1.813142932951450348e-02
5.139146000146865845e-02
5.100098252296447754e-02
-3.119274508208036423e-03
-2.116960100829601288e-02
-5.557961761951446533e-02
-7.199244946241378784e-02
-4.058638587594032288e-02
-5.467766895890235901e-02
-3.560991212725639343e-02
4.880183376371860504e-03
-2.879409492015838623e-02
-2.566699497401714325e-02
3.905883291736245155e-03
9.030033834278583527e-03
-1.025673672556877136e-01
-9.812703728675842285e-02
-7.679075002670288086e-02
-6.573159992694854736e-02
-6.641101092100143433e-02
-2.321491204202175140e-02
-4.831081256270408630e-03
7.216157391667366028e-04
7.977348566055297852e-02
-9.032236784696578979e-02
-5.292400345206260681e-02
-1.859316602349281311e-02
-1.992770843207836151e-02
1.666460745036602020e-02
9.862764179706573486e-02
2.041684985160827637e-01
2.350490242242813110e-01
1.040529683232307434e-01
8.649066835641860962e-02
1.650355383753776550e-02
8.161776699125766754e-03
-7.706046104431152344e-02
-1.000951901078224182e-01
-5.848712846636772156e-02
-6.343092769384384155e-02
-5.104499310255050659e-02
4.848167300224304199e-02
7.332297414541244507e-02
-1.685453020036220551e-02
-2.455444075167179108e-02
-2.095274254679679871e-02
1.788596622645854950e-02
8.140347898006439209e-03
-2.449739351868629456e-02
-6.845207512378692627e-02
-9.215290844440460205e-02
-1.101825460791587830e-01
-1.872056722640991211e-01
-9.844972938299179077e-02
2.542707920074462891e-01
1.147837415337562561e-01
9.682898223400115967e-02
7.234867662191390991e-02
4.307852312922477722e-02
-2.322358079254627228e-02
-7.416561990976333618e-02
-4.120365902781486511e-02
6.152182817459106445e-02
8.342174440622329712e-02
1.209271773695945740e-01
-3.387087211012840271e-02
-8.050396293401718140e-02
-1.478597223758697510e-01
-1.077709347009658813e-01
3.437851741909980774e-02
5.664544180035591125e-02
-8.991857990622520447e-03
-1.748768389225006104e-01
-7.243477553129196167e-02
5.495992302894592285e-02
3.556565567851066589e-02
1.329483240842819214e-01
1.875295042991638184e-01
1.480809450149536133e-01
-4.976133932359516621e-04
2.234472427517175674e-03
1.118685826659202576e-01
1.324834674596786499e-01
2.078326195478439331e-01
3.995712101459503174e-02
6.934914737939834595e-03
3.208032250404357910e-01
2.495745569467544556e-01
1.888307183980941772e-01
1.481897234916687012e-01
1.959068626165390015e-01
9.379597008228302002e-02
-1.164565756916999817e-01
-2.318776100873947144e-01
-3.050620853900909424e-01
-3.302037119865417480e-01
-2.650630772113800049e-01
-1.885824352502822876e-01
-1.748797893524169922e-01
-1.413398534059524536e-01
-1.335326582193374634e-01
-2.169970609247684479e-02
1.000282466411590576e-01
1.629016995429992676e-01
-8.633817546069622040e-03
8.447045832872390747e-02
2.276821285486221313e-01
2.360010445117950439e-01
2.059382945299148560e-01
1.918317228555679321e-01
2.198987603187561035e-01
7.553520798683166504e-02
1.922387033700942993e-01
9.068778157234191895e-02
2.939891535788774490e-03
-2.240700088441371918e-02
-2.441278100013732910e-02
-1.786624789237976074e-01
-3.725280053913593292e-03
-6.248631328344345093e-02
-9.260319056920707226e-04
-4.363916814327239990e-03
6.397878378629684448e-02
1.190447583794593811e-01
6.251381337642669678e-02
-3.400914371013641357e-02
-2.767024636268615723e-01
-2.907572388648986816e-01
-2.860734164714813232e-01
-3.184372186660766602e-01
-1.569239795207977295e-01
5.942538380622863770e-02
5.931396409869194031e-02
7.535432279109954834e-02
3.149734437465667725e-01
2.642978727817535400e-01
1.265759021043777466e-01
5.605088919401168823e-02
-3.301697224378585815e-02
-2.496964670717716217e-02
-8.355762064456939697e-02
-1.532566398382186890e-01
2.045762166380882263e-02
-2.809702232480049133e-02
-6.781582534313201904e-02
-6.325671076774597168e-02
-6.171249598264694214e-02
1.744523993693292141e-03
6.912841647863388062e-02
6.310265511274337769e-02
-1.290024518966674805e-01
-2.076098024845123291e-01
2.623766893520951271e-03
2.322103129699826241e-03
1.297983229160308838e-01
1.140451729297637939e-01
1.176348403096199036e-01
4.248575493693351746e-02
6.340271234512329102e-02
-3.847687039524316788e-03
-3.467584401369094849e-02
-1.547490954399108887e-01
-4.826943576335906982e-02
1.656950563192367554e-01
2.404946237802505493e-01
1.677378267049789429e-01
1.288313120603561401e-01
7.756178081035614014e-02
-9.480041265487670898e-02
-4.701074957847595215e-02
3.235746920108795166e-02
1.121599823236465454e-01
5.059149488806724548e-02
-3.349353000521659851e-02
-4.830474779009819031e-02
9.711945056915283203e-02
6.522380560636520386e-02
6.019630283117294312e-02
-6.372620910406112671e-02
-2.835645340383052826e-02
2.033108472824096680e-02
-4.835952073335647583e-02
-4.572730883955955505e-02
-1.138564497232437134e-01
-2.701961994171142578e-01
-1.921072900295257568e-01
-9.522137045860290527e-02
-8.494909852743148804e-02
-1.293358355760574341e-01
-2.967985533177852631e-02
-8.497637510299682617e-02
-3.666706616058945656e-03
5.224005505442619324e-02
8.740215003490447998e-02
1.010392233729362488e-01
1.014382541179656982e-01
9.510858356952667236e-02
1.892516016960144043e-01
1.381571292877197266e-01
3.013551421463489532e-02
4.528243094682693481e-02
1.848036050796508789e-01
1.499543488025665283e-01
1.656078398227691650e-01
2.351099252700805664e-02
2.891996875405311584e-02
-8.349101245403289795e-02
-1.014596819877624512e-01
5.815717391669750214e-03
-1.516417264938354492e-01
-1.029596999287605286e-01
1.141948811709880829e-02
-8.845870196819305420e-02
-6.799612194299697876e-02
-4.113548621535301208e-02
-2.912670671939849854e-01
-2.245465070009231567e-01
-2.218914180994033813e-01
-3.553363382816314697e-01
-1.794736236333847046e-01
-8.952281624078750610e-02
4.712540656328201294e-02
1.061267256736755371e-01
1.142129078507423401e-01
2.305678576231002808e-01
1.884297430515289307e-01
2.445178925991058350e-01
2.579466700553894043e-01
1.878323405981063843e-01
1.027377769351005554e-01
-9.061585366725921631e-02
-1.028628051280975342e-01
-1.048620939254760742e-01
-1.711463928222656250e-01
-1.792418956756591797e-01
-2.247166633605957031e-02
1.012235507369041443e-02
-1.424746811389923096e-01
-8.377142250537872314e-02
-1.738696917891502380e-02
2.488389797508716583e-02
-3.753377497196197510e-02
-1.063183844089508057e-01
1.096415426582098007e-02
-3.761304914951324463e-02
-2.987951785326004028e-02
-1.347059756517410278e-01
-2.404671907424926758e-01
-2.269554734230041504e-01
-1.160066351294517517e-01
-3.157430291175842285e-01
-4.210243467241525650e-03
1.817815303802490234e-01
5.046563223004341125e-02
-7.960164546966552734e-02
3.859414532780647278e-02
1.472986042499542236e-01
8.487567305564880371e-02
-1.395432054996490479e-01
-1.464327126741409302e-01
-2.250749059021472931e-02
-1.411407291889190674e-01
-1.245133429765701294e-01
-1.083617284893989563e-01
-1.320483535528182983e-02
-3.180001396685838699e-03
-1.605338603258132935e-02
-5.338886007666587830e-02
-1.678069531917572021e-01
-2.252704277634620667e-02
-6.516204029321670532e-02
-1.778305135667324066e-02
1.607051789760589600e-01
4.014076292514801025e-02
-5.556745920330286026e-03
1.157043427228927612e-01
4.986831918358802795e-02
-6.803634110838174820e-03
-3.307898342609405518e-02
3.999370336532592773e-02
1.526444256305694580e-01
1.866544187068939209e-01
-8.109563589096069336e-02
-1.038203611969947815e-01
3.667313605546951294e-02
6.574481725692749023e-02
2.181160002946853638e-01
1.888651400804519653e-01
2.328971773386001587e-01
5.979278311133384705e-02
-7.164657860994338989e-02
7.462245970964431763e-02
4.120028018951416016e-02
-5.492153391242027283e-02
7.389992475509643555e-03
3.969014063477516174e-02
9.998743981122970581e-02
7.371719926595687866e-02
6.478156894445419312e-02
1.051433086395263672e-01
-8.474585413932800293e-02
-3.761569410562515259e-02
-4.749100282788276672e-02
-1.044655665755271912e-01
-6.490701809525489807e-03
1.135116741061210632e-01
3.336165845394134521e-02
-1.510306540876626968e-02
1.436943374574184418e-02
1.315696239471435547e-01
-1.646451354026794434e-01
-2.356970012187957764e-01
-2.341040521860122681e-01
-2.477116435766220093e-01
-2.003024667501449585e-01
-1.259202510118484497e-02
4.783419892191886902e-02
1.285705268383026123e-01
2.229958921670913696e-01
1.977476626634597778e-01
2.290841042995452881e-01
2.636518888175487518e-02
2.662440203130245209e-02
5.461525917053222656e-02
7.151933759450912476e-02
-4.237003624439239502e-03
6.252088397741317749e-02
-5.606172233819961548e-02
4.855901747941970825e-02
7.643520832061767578e-02
1.072293892502784729e-02
-6.725932657718658447e-02
-1.300160028040409088e-02
1.681395322084426880e-01
-2.075325697660446167e-02
-5.910591036081314087e-02
-1.277442276477813721e-01
9.408015012741088867e-02
-6.624000519514083862e-02
-8.113900572061538696e-02
7.725400477647781372e-02
7.721022516489028931e-02
-1.655987948179244995e-01
-4.320267215371131897e-02
-7.416015118360519409e-02
-1.961555629968643188e-01
-1.213655322790145874e-01
-9.807564318180084229e-02
2.741101663559675217e-03
-9.344435483217239380e-02
-1.324652731418609619e-01
-4.594037309288978577e-03
-2.029781229794025421e-02
-1.675564050674438477e-02
-1.959489844739437103e-02
-3.972613252699375153e-03
-2.730502374470233917e-02
2.408582717180252075e-02
-3.212014213204383850e-02
-6.805901229381561279e-02
3.271461650729179382e-02
3.162056207656860352e-02
1.272648125886917114e-01
-2.782682701945304871e-02
2.977911010384559631e-02
4.078184813261032104e-02
1.938592046499252319e-01
-3.559120371937751770e-02
-6.947201490402221680e-02
-6.041332334280014038e-02
-1.335855275392532349e-01
-2.096567749977111816e-01
-1.830407530069351196e-01
3.831547510344535112e-04
-3.378667309880256653e-02
1.485943347215652466e-01
-3.746878355741500854e-02
-1.639197319746017456e-01
-2.762228548526763916e-01
-3.619957864284515381e-01
-1.610813736915588379e-01
-8.747213333845138550e-02
-2.272290177643299103e-02
-7.218213379383087158e-02
2.642592601478099823e-02
8.347689360380172729e-02
2.502419650554656982e-01
3.391826897859573364e-02
-8.685831725597381592e-02
-3.688892722129821777e-02
-4.414783045649528503e-02
1.944974623620510101e-02
-1.139303147792816162e-01
-9.730956703424453735e-02
-1.425367146730422974e-01
1.544663216918706894e-02
-1.347995270043611526e-02
-8.751381188631057739e-02
1.534566581249237061e-01
1.899463683366775513e-01
9.077300876379013062e-02
-7.231923937797546387e-02
-1.449182033538818359e-01
2.344142645597457886e-02
-2.648816406726837158e-01
-3.276064526289701462e-03
-7.471648044884204865e-03
2.158212512731552124e-01
1.205833852291107178e-01
2.198222652077674866e-02
-2.149225398898124695e-02
-7.842835783958435059e-02
-2.572316862642765045e-02
-5.326349660754203796e-02
-1.305790245532989502e-01
-1.235848963260650635e-01
7.154007256031036377e-02
1.703476160764694214e-01
8.786843717098236084e-02
4.039363563060760498e-02
-1.371894925832748413e-01
-7.970181107521057129e-02
-6.214969605207443237e-02
-6.082897260785102844e-02
-1.690646409988403320e-01
-6.215581670403480530e-02
-1.211415603756904602e-01
5.765174701809883118e-02
-1.523338705301284790e-01
-3.086520731449127197e-01
7.922708988189697266e-03
1.436461210250854492e-01
1.045546028763055801e-02
3.485498204827308655e-02
-2.307225167751312256e-01
-6.141289137303829193e-03
4.657307639718055725e-02
7.465886417776346207e-03
-1.595933139324188232e-01
-1.366686820983886719e-01
-1.185819208621978760e-01
-1.139354109764099121e-01
-2.135256305336952209e-02
-1.661849468946456909e-01
-1.066489145159721375e-01
7.710570096969604492e-02
7.935923337936401367e-02
5.847499519586563110e-02
1.072333604097366333e-01
9.469865262508392334e-02
8.410771936178207397e-02
1.008787229657173157e-01
-1.509751658886671066e-02
4.387724399566650391e-02
4.986593127250671387e-02
1.527426093816757202e-01
9.144811332225799561e-02
1.641232967376708984e-01
1.204518787562847137e-02
9.263699501752853394e-02
1.858449280261993408e-01
2.578607201576232910e-02
3.753038868308067322e-02
-9.834086894989013672e-02
-4.176723957061767578e-02
1.310809701681137085e-01
9.673421084880828857e-02
4.164594039320945740e-02
1.291271448135375977e-01
1.433662623167037964e-01
1.192825138568878174e-01
5.722609534859657288e-02
-1.726829260587692261e-01
-1.615778505802154541e-01
-1.590577960014343262e-01
-1.582900136709213257e-01
-2.084497548639774323e-02
1.916834712028503418e-02
-1.019673980772495270e-02
-2.211360186338424683e-01
-2.683259844779968262e-01
-2.144723683595657349e-01
-1.295143812894821167e-01
-1.416966915130615234e-01
9.306725859642028809e-02
-3.288524970412254333e-02
-3.829731792211532593e-02
6.186681985855102539e-02
6.036582216620445251e-02
3.981230035424232483e-02
6.131860241293907166e-02
-2.735107019543647766e-02
1.296205520629882812e-01
3.531640395522117615e-02
1.342343259602785110e-02
1.131310313940048218e-01
1.051593273878097534e-01
3.712180256843566895e-02
1.634563058614730835e-01
3.891406208276748657e-02
7.462953776121139526e-02
2.031273841857910156e-01
-7.394544780254364014e-02
6.100327707827091217e-03
1.019629240036010742e-01
4.568989202380180359e-02
6.124623585492372513e-03
-2.638721652328968048e-02
1.594434976577758789e-01
-4.705368354916572571e-02
-1.352589279413223267e-01
-2.811042368412017822e-01
-1.233227923512458801e-01
3.302626684308052063e-02
-1.490783989429473877e-01
-1.010951027274131775e-01
1.135846134275197983e-02
-1.777923107147216797e-01
1.523330360651016235e-01
2.036731094121932983e-01
1.157416328787803650e-01
1.436128914356231689e-01
1.874560117721557617e-01
1.300999661907553673e-03
8.691332302987575531e-03
-4.707791656255722046e-02
-9.435316175222396851e-02
8.306153863668441772e-02
4.084336012601852417e-02
-4.556234553456306458e-02
1.578405350446701050e-01
-2.646674960851669312e-02
8.230996131896972656e-02
2.513257563114166260e-01
-1.166862323880195618e-01
-3.964149951934814453e-02
1.427027583122253418e-02
-7.876319438219070435e-02
9.477241337299346924e-02
9.750571846961975098e-02
8.620958030223846436e-02
9.615419059991836548e-02
3.024355135858058929e-02
-2.075060904026031494e-01
3.087090328335762024e-02
9.425725042819976807e-02
-8.138300478458404541e-02
-1.835317350924015045e-02
-5.811097472906112671e-02
2.440642006695270538e-02
1.010967865586280823e-01
-1.211544200778007507e-01
3.275927528738975525e-02
2.156985849142074585e-01
2.513683140277862549e-01
1.662316024303436279e-01
-4.101445153355598450e-02
1.291320621967315674e-01
-2.187803536653518677e-01
-2.289896085858345032e-02
-9.080771356821060181e-02
-1.168623659759759903e-02
1.171412914991378784e-01
-1.144964341074228287e-02
-9.970027953386306763e-03
-1.369057297706604004e-01
1.910665184259414673e-01
1.144287455826997757e-02
2.188068814575672150e-02
3.348113894462585449e-01
-5.760131403803825378e-02
1.428525149822235107e-01
-7.194019109010696411e-02
-1.561905443668365479e-01
-5.913499742746353149e-02
-1.190288886427879333e-01
-5.486051365733146667e-02
-1.093837916851043701e-01
-2.685978412628173828e-01
-2.189580351114273071e-01
1.036075968295335770e-02
-9.033057838678359985e-03
3.029915876686573029e-02
1.108613014221191406e-01
5.547988042235374451e-02
1.139766126871109009e-01
3.497933223843574524e-02
-3.066903352737426758e-02
2.540240623056888580e-02
1.068719029426574707e-01
-1.762065291404724121e-01
-1.273188740015029907e-01
-3.346270322799682617e-02
2.731926739215850830e-01
1.905816048383712769e-01
8.536574244499206543e-02
-1.000877767801284790e-01
6.167972832918167114e-02
7.030398398637771606e-02
-1.470397710800170898e-01
-6.466979533433914185e-02
-7.662657648324966431e-02
-9.919916838407516479e-02
1.260169744491577148e-01
1.399179697036743164e-01
-1.229127123951911926e-02
9.227225929498672485e-02
5.075810104608535767e-02
-3.890469670295715332e-02
7.737111300230026245e-02
9.468473494052886963e-02
1.913536153733730316e-02
-2.179940491914749146e-01
-5.270160362124443054e-02
-2.124897390604019165e-01
1.895776204764842987e-02
9.120327979326248169e-02
2.070572040975093842e-02
1.995188742876052856e-01
6.719903647899627686e-02
1.228800490498542786e-01
-6.358284503221511841e-02
-8.215397596359252930e-02
-1.211398243904113770e-01
-4.268842935562133789e-02
8.876952528953552246e-02
7.240384072065353394e-02
8.826028555631637573e-02
-1.082859337329864502e-01
2.271105945110321045e-01
1.176237538456916809e-01
2.034093439579010010e-01
1.746236234903335571e-01
2.247643023729324341e-01
3.177734315395355225e-01
1.619330495595932007e-01
1.700297743082046509e-02
3.818438202142715454e-02
-5.445695295929908752e-02
-4.745437577366828918e-02
-1.042925864458084106e-01
-6.336445361375808716e-02
-1.885769218206405640e-01
-1.395206004381179810e-01
-1.479281038045883179e-01
-2.849099338054656982e-01
-3.996391594409942627e-01
-2.019855976104736328e-01
-5.967058241367340088e-02
1.649794280529022217e-01
1.518583893775939941e-01
4.387022927403450012e-02
5.060305446386337280e-02
-2.253105044364929199e-01
1.778706535696983337e-02
4.472417384386062622e-02
-1.729392260313034058e-02
-1.095283776521682739e-02
1.733781769871711731e-02
2.562516629695892334e-01
4.803295806050300598e-02
2.827491164207458496e-01
-2.060778737068176270e-01
2.516071796417236328e-01
1.978114545345306396e-01
2.320924699306488037e-01
8.117076754570007324e-02
1.391407698392868042e-01
4.647430405020713806e-02
6.593528389930725098e-02
-6.795742362737655640e-02
-8.356925845146179199e-02
-4.957122355699539185e-02
1.253245621919631958e-01
-4.943078756332397461e-02
5.870592594146728516e-02
8.436660468578338623e-02
-1.018129438161849976e-01
-5.102540180087089539e-02
8.419736474752426147e-02
1.951126381754875183e-02
-4.413987323641777039e-02
8.351130783557891846e-02
6.848551332950592041e-02
4.439092054963111877e-02
-1.222826093435287476e-01
-1.256263256072998047e-01
1.072806492447853088e-02
-7.298471778631210327e-02
-1.667942702770233154e-01
-5.348917841911315918e-02
7.505849748849868774e-02
7.480726391077041626e-02
-1.703361123800277710e-01
9.363958984613418579e-02
2.371510565280914307e-01
1.740636676549911499e-01
-7.309145759791135788e-03
4.115423932671546936e-02
-2.610022015869617462e-02
-1.096716523170471191e-02
-3.938207030296325684e-02
1.398062407970428467e-01
-1.200136840343475342e-01
-4.874356091022491455e-03
-5.471050739288330078e-03
-8.193708956241607666e-02
-2.627981640398502350e-02
1.329644769430160522e-01
1.654000766575336456e-02
1.819071173667907715e-02
-1.079821437597274780e-01
-2.711032982915639877e-03
3.077679872512817383e-01
2.447116076946258545e-01
-1.061439421027898788e-02
9.008500725030899048e-02
2.204021215438842773e-01
2.319788187742233276e-02
1.619127690792083740e-01
-1.295840181410312653e-02
-3.899898752570152283e-02
5.479688942432403564e-02
-2.665172144770622253e-02
9.381888061761856079e-02
-2.416232973337173462e-01
2.202965132892131805e-02
-4.686286300420761108e-02
-2.962268516421318054e-02
-8.342051878571510315e-03
-5.028034374117851257e-02
-1.104257553815841675e-01
8.029528707265853882e-02
-1.833475008606910706e-02
-7.432614266872406006e-02
-1.256907284259796143e-01
-1.105356812477111816e-01
-6.514085084199905396e-02
1.330958027392625809e-02
-2.934386767446994781e-02
9.593252092599868774e-02
-1.869784481823444366e-02
1.025807633996009827e-01
7.054499536752700806e-02
1.115825772285461426e-01
1.545688360929489136e-01
8.093220740556716919e-02
6.012858077883720398e-02
-3.597745671868324280e-02
3.425932228565216064e-01
-1.459611207246780396e-02
-1.201714798808097839e-01
-1.240494623780250549e-01
1.321338713169097900e-01
-4.170317575335502625e-02
1.238761022686958313e-01
2.015635073184967041e-01
3.293152898550033569e-02
7.042790204286575317e-02
-1.575552672147750854e-01
2.352000772953033447e-02
-1.289613395929336548e-01
-1.020404696464538574e-01
-1.201639920473098755e-01
-2.955559641122817993e-02
-1.256110370159149170e-01
9.332831203937530518e-02
8.641199208796024323e-03
1.383197754621505737e-01
7.421279698610305786e-02
-7.126230746507644653e-02
3.619464114308357239e-02
7.596969604492187500e-02
9.342601150274276733e-02
-1.587347872555255890e-02
-1.872276514768600464e-01
4.067841544747352600e-02
1.915707439184188843e-02
-5.946703255176544189e-02
-1.470634192228317261e-01
-1.222759708762168884e-01
1.781823113560676575e-02
-9.950023889541625977e-02
-1.061890348792076111e-01
-1.951018869876861572e-01
4.766763746738433838e-02
-9.064263105392456055e-02
1.942499540746212006e-02
7.627742737531661987e-02
-1.423237323760986328e-01
-1.120251417160034180e-01
-4.832602664828300476e-02
2.134768851101398468e-02
5.311034992337226868e-02
-6.217522174119949341e-02
-5.687874928116798401e-02
1.056399121880531311e-01
2.093294858932495117e-01
1.600346267223358154e-01
-7.212898880243301392e-02
1.666585505008697510e-01
-6.157054379582405090e-02
-8.231964707374572754e-02
-8.618534356355667114e-02
-4.658168926835060120e-02
-1.594942659139633179e-01
1.723058521747589111e-01
2.287703100591897964e-03
2.055461332201957703e-02
-2.228632718324661255e-01
5.546428263187408447e-02
9.423543512821197510e-02
7.136350870132446289e-02
-4.014200717210769653e-02
3.168478608131408691e-01
2.885512411594390869e-01
2.654873132705688477e-01
5.411969870328903198e-02
-6.928290426731109619e-02
3.291422501206398010e-02
2.953071594238281250e-01
1.356287151575088501e-01
3.478958904743194580e-01
8.576802909374237061e-02
-1.774048507213592529e-01
-1.699469685554504395e-01
-8.532028645277023315e-02
-2.001159638166427612e-01
5.947334691882133484e-02
-2.212677150964736938e-02
9.969732165336608887e-02
4.073600843548774719e-02
6.048213690519332886e-02
-6.665538251399993896e-02
7.277218997478485107e-02
-2.065815031528472900e-02
1.197909042239189148e-01
-3.626123070716857910e-02
-1.616383790969848633e-01
-6.420713663101196289e-02
-1.858013868331909180e-01
-1.471183300018310547e-01
9.452101588249206543e-02
4.787439107894897461e-02
2.279644012451171875e-01
2.712597250938415527e-01
3.534372448921203613e-01
2.753500938415527344e-01
3.929345402866601944e-03
1.647557504475116730e-02
-9.446985274553298950e-02
-2.413017209619283676e-03
1.172334477305412292e-01
2.339044027030467987e-02
3.312392532825469971e-01
1.262720078229904175e-01
5.385541915893554688e-02
-7.216869853436946869e-03
4.110005497932434082e-02
6.891937553882598877e-02
-1.170070096850395203e-01
-1.610094010829925537e-01
-8.090551942586898804e-02
-1.736639142036437988e-01
-6.061919033527374268e-02
-1.274418532848358154e-01
-2.349341362714767456e-01
-8.805371820926666260e-02
1.011854037642478943e-01
-7.439385354518890381e-02
1.047446653246879578e-01
-2.995295682922005653e-03
-1.900968551635742188e-01
-1.227544397115707397e-01
1.044509634375572205e-01
2.037769705057144165e-01
-3.347213566303253174e-02
9.490296361036598682e-04
2.047080360352993011e-02
-1.099393703043460846e-02
1.537191271781921387e-01
1.142671629786491394e-01
2.962784282863140106e-02
-4.270243458449840546e-03
-1.812508255243301392e-01
6.149405613541603088e-02
2.915060846135020256e-03
9.625400602817535400e-02
1.039554998278617859e-01
3.001383878290653229e-02
-1.835806518793106079e-01
-9.754876047372817993e-02
2.244696319103240967e-01
2.906967140734195709e-02
-6.594149023294448853e-02
3.307323157787322998e-02
-2.214411087334156036e-02
-1.458400636911392212e-01
-1.659444123506546021e-01
2.979489229619503021e-02
-7.049990445375442505e-02
1.209518965333700180e-02
1.097652316093444824e-01
-2.511297762393951416e-01
-1.190986409783363342e-01
-1.249357014894485474e-01
3.256618231534957886e-02
2.270521223545074463e-01
-6.467846781015396118e-02
9.853696078062057495e-02
-5.596866458654403687e-02
1.188569068908691406e-01
2.611670494079589844e-01
1.200610473752021790e-01
1.858841031789779663e-01
-7.338040973991155624e-03
9.101460129022598267e-02
2.502512931823730469e-01
1.318467557430267334e-01
-9.988079220056533813e-02
8.264830708503723145e-02
2.165108686313033104e-03
6.198939867317676544e-03
2.849380113184452057e-02
1.611998379230499268e-01
1.767059117555618286e-01
1.200736835598945618e-01
-1.326409634202718735e-02
9.856078028678894043e-02
1.371907740831375122e-01
1.996649652719497681e-01
8.933691307902336121e-03
8.908540010452270508e-02
1.631801947951316833e-02
-7.960958778858184814e-02
-3.160733282566070557e-01
1.144384518265724182e-01
1.399500221014022827e-01
6.483602523803710938e-02
9.026674553751945496e-03
-1.015824079513549805e-02
1.434425115585327148e-01
-9.253176301717758179e-02
1.120813488960266113e-01
1.699365377426147461e-01
-3.564498201012611389e-02
1.541440784931182861e-01
3.021742403507232666e-01
2.497185766696929932e-01
1.531593054533004761e-01
1.364377737045288086e-01
5.476194620132446289e-02
7.974132895469665527e-02
1.872181892395019531e-02
4.191535338759422302e-02
2.883090823888778687e-02
1.925116926431655884e-01
8.992715924978256226e-02
1.073720008134841919e-01
1.905132383108139038e-01
-1.792319677770137787e-02
-1.295037660747766495e-02
7.876575738191604614e-02
1.584246158599853516e-01
-2.045089900493621826e-01
-1.304071396589279175e-01
-3.764777481555938721e-01
-9.770531207323074341e-02
2.328857332468032837e-01
2.196342051029205322e-01
1.988557726144790649e-02
-3.435158729553222656e-01
1.001029238104820251e-01
4.524032026529312134e-02
6.986401230096817017e-02
-2.395917102694511414e-02
1.718454211950302124e-01
3.492849469184875488e-01
2.213114798069000244e-01
3.730569779872894287e-01
2.540623843669891357e-01
2.108554728329181671e-02
-7.473084330558776855e-02
2.559222048148512840e-04
1.102767698466777802e-02
4.094138368964195251e-02
-1.967819035053253174e-01
-2.819066643714904785e-01
5.975139793008565903e-03
1.332740783691406250e-01
1.102383732795715332e-01
1.259273439645767212e-01
1.223315969109535217e-01
4.768558219075202942e-02
1.925291568040847778e-01
-1.676860302686691284e-01
-1.389788836240768433e-01
5.278694257140159607e-02
-6.198909133672714233e-02
-2.150133699178695679e-01
9.531262516975402832e-02
1.256230175495147705e-01
3.434482216835021973e-02
-2.041483297944068909e-02
5.476369988173246384e-04
1.467406898736953735e-01
-3.028796613216400146e-02
-2.218967303633689880e-02
8.989363908767700195e-02
2.332916259765625000e-01
1.865895539522171021e-01
8.844020217657089233e-02
-5.700393393635749817e-02
-8.423892408609390259e-02
-3.720870018005371094e-01
-1.586896628141403198e-01
-2.115377187728881836e-01
1.061927340924739838e-02
-4.729359876364469528e-03
-3.079996816813945770e-02
-3.329511359333992004e-02
1.410331726074218750e-01
1.458557546138763428e-01
1.642445623874664307e-01
2.069604024291038513e-02
-1.850133538246154785e-01
-1.313285976648330688e-01
-1.309904456138610840e-01
1.080652549862861633e-01
-9.319597482681274414e-02
3.340579941868782043e-02
-3.699920699000358582e-02
2.009578198194503784e-01
1.081802099943161011e-01
-3.666852787137031555e-02
1.392207443714141846e-01
-1.227140426635742188e-01
-6.680985540151596069e-02
-6.407402455806732178e-02
9.105621278285980225e-02
8.763495087623596191e-02
1.411747932434082031e-01
1.081328690052032471e-01
2.027098089456558228e-01
8.302851021289825439e-02
1.163345575332641602e-01
3.298283368349075317e-02
-1.208816766738891602e-01
-8.344513922929763794e-02
5.221216008067131042e-02
1.101814582943916321e-02
-9.806272573769092560e-03
5.042741075158119202e-02
-1.359347254037857056e-01
-1.831043511629104614e-01
-1.143622100353240967e-01
-9.828189760446548462e-02
-3.508981084451079369e-03
7.048907876014709473e-02
1.353216618299484253e-01
4.331007227301597595e-02
-1.554628089070320129e-02
1.620114967226982117e-02
2.184395939111709595e-01
3.288387358188629150e-01
2.158666700124740601e-01
7.941688597202301025e-02
1.901324540376663208e-01
3.194323778152465820e-01
1.571658551692962646e-01
2.767803668975830078e-01
3.134354352951049805e-01
-1.602021604776382446e-01
9.526786953210830688e-02
1.335385441780090332e-01
-1.007971614599227905e-01
4.314375221729278564e-01
2.779797613620758057e-01
2.799754031002521515e-02
2.996368519961833954e-02
7.511255890130996704e-02
1.402311376295983791e-03
-1.876463592052459717e-01
-1.973134279251098633e-01
-3.443457782268524170e-01
-2.118894904851913452e-01
-1.440153121948242188e-01
-6.008072569966316223e-02
-1.610923409461975098e-01
-5.526098608970642090e-02
1.889492124319076538e-01
2.041481286287307739e-01
2.633367776870727539e-01
3.915671706199645996e-01
9.583606570959091187e-02
1.094644516706466675e-01
1.543886512517929077e-01
3.886911645531654358e-02
-4.502346739172935486e-02
-1.462411284446716309e-01
-1.021156460046768188e-01
-3.161066025495529175e-02
3.440451920032501221e-01
3.982206284999847412e-01
-2.292709350585937500e-01
2.444894015789031982e-01
3.005099892616271973e-01
-4.807860404253005981e-02
4.166149199008941650e-01
1.113109886646270752e-01
1.619912385940551758e-01
7.487252354621887207e-03
-9.520857036113739014e-02
-1.013426780700683594e-01
-7.365423440933227539e-02
-7.433633785694837570e-03
-9.946631034836173058e-04
-3.360063433647155762e-01
-2.922129333019256592e-01
-1.659659296274185181e-01
-1.578736007213592529e-01
-3.831687942147254944e-02
-1.047981157898902893e-01
-3.043095581233501434e-02
1.849031597375869751e-01
9.698627889156341553e-02
-1.451474726200103760e-01
-6.292471289634704590e-02
2.578721567988395691e-02
8.152150362730026245e-02
1.491336524486541748e-01
1.140277683734893799e-01
-7.699504494667053223e-02
-6.344242393970489502e-02
8.651503175497055054e-02
-4.552613571286201477e-02
3.485414013266563416e-02
-2.319642305374145508e-01
-1.855111718177795410e-01
-2.114281058311462402e-01
-1.913966424763202667e-02
-2.251499891281127930e-01
2.854677736759185791e-01
2.059234231710433960e-01
7.067262381315231323e-02
7.513275742530822754e-02
-6.263279914855957031e-02
-1.704231202602386475e-01
-1.837238967418670654e-01
-1.048076376318931580e-01
-7.857206463813781738e-02
-2.256296873092651367e-01
-1.643287837505340576e-01
4.085788503289222717e-02
1.115366443991661072e-01
5.636272951960563660e-02
3.976328074932098389e-01
1.701419800519943237e-01
1.557350903749465942e-01
2.247571796178817749e-01
1.418956816196441650e-01
9.849521517753601074e-02
-6.936739385128021240e-02
1.774032264947891235e-01
1.562654599547386169e-02
2.008488518185913563e-04
-4.766333475708961487e-02
1.848025061190128326e-02
-3.250840678811073303e-02
9.328164905309677124e-02
-1.373694390058517456e-01
-1.483072191476821899e-01
-1.093516275286674500e-01
4.130155965685844421e-02
3.130998313426971436e-01
1.294861584901809692e-01
-3.534972667694091797e-02
2.132713235914707184e-02
1.948991790413856506e-02
-1.571637229062616825e-03
-1.498869806528091431e-01
-3.262864351272583008e-01
-1.000919342041015625e-01
-3.356703370809555054e-02
-1.096703484654426575e-01
1.251750290393829346e-01
3.591172993183135986e-01
1.658613383769989014e-01
9.125779569149017334e-02
-5.945506040006875992e-03
1.949396431446075439e-01
3.380543887615203857e-01
2.227715253829956055e-01
1.788641214370727539e-01
1.335330903530120850e-01
2.483706027269363403e-01
-2.477793022990226746e-02
3.824690729379653931e-02
-1.231895294040441513e-02
8.516341447830200195e-02
-2.717041969299316406e-01
-1.912093013525009155e-01
6.004832684993743896e-03
8.288320153951644897e-02
-1.531087756156921387e-01
6.719385087490081787e-02
1.525272130966186523e-01
2.571322023868560791e-01
-7.149399071931838989e-02
2.679613791406154633e-02
1.709083318710327148e-01
4.894392099231481552e-03
-8.891896903514862061e-02
-2.011974602937698364e-01
-2.043372541666030884e-01
1.016917079687118530e-01
-5.669021233916282654e-02
-1.837650127708911896e-02
2.328765988349914551e-01
-2.720668613910675049e-01
2.140209078788757324e-01
9.840507060289382935e-02
-1.156591176986694336e-01
9.387681633234024048e-02
1.356011033058166504e-01
-1.444293856620788574e-01
1.123508512973785400e-01
-1.816800981760025024e-02
1.930037140846252441e-01
1.524323225021362305e-01
1.880711317062377930e-01
6.376366317272186279e-02
-3.823356702923774719e-02
-4.886557906866073608e-02
-1.503163576126098633e-01
-1.694221980869770050e-02
2.140810042619705200e-01
3.523707091808319092e-01
8.129769563674926758e-02
6.672504544258117676e-02
3.024763800203800201e-02
1.083541574189439416e-04
4.604471474885940552e-02
5.376530066132545471e-02
2.624922897666692734e-03
-1.800337433815002441e-02
1.514750905334949493e-02
2.645870298147201538e-02
2.142962254583835602e-02
1.442533638328313828e-02
1.521406043320894241e-02
7.008785847574472427e-03
7.909091189503669739e-03
1.255199592560529709e-02
4.729282110929489136e-02
3.542558848857879639e-02
2.252367697656154633e-02
2.877271547913551331e-02
2.245075255632400513e-02
-2.860148996114730835e-02
-3.783655539155006409e-02
-2.340247295796871185e-02
-1.481140777468681335e-02
6.978318560868501663e-03
2.064928598701953888e-02
-1.836883835494518280e-02
1.818452030420303345e-02
-1.956915296614170074e-02
6.531620025634765625e-02
4.048948362469673157e-02
-8.622408658266067505e-02
-5.963977053761482239e-02
-6.211612373590469360e-02
-2.407236956059932709e-02
-1.342831552028656006e-01
-1.389281153678894043e-01
-2.148441076278686523e-01
-1.254490613937377930e-01
-9.309001266956329346e-02
-3.620693832635879517e-02
-4.946621879935264587e-02
-5.762321501970291138e-02
-1.981376856565475464e-02
-5.556109920144081116e-02
-3.590207174420356750e-02
-3.021814487874507904e-02
-1.889542117714881897e-02
-7.787176221609115601e-02
-8.758912235498428345e-02
-9.147036820650100708e-02
-1.211846694350242615e-01
-1.050228103995323181e-01
-1.094261854887008667e-01
-1.070001795887947083e-01
-9.638997167348861694e-02
-1.485854387283325195e-02
-3.164582885801792145e-03
-7.933604530990123749e-03
6.107037886977195740e-03
-3.487315028905868530e-02
1.813638024032115936e-02
-5.409743264317512512e-02
-9.349837899208068848e-02
-9.425592608749866486e-03
4.957617446780204773e-02
-2.148911915719509125e-02
-6.090582907199859619e-02
-1.104900315403938293e-01
-8.312689512968063354e-02
-9.986026585102081299e-02
-5.572820454835891724e-02
-2.644180692732334137e-02
-1.713107526302337646e-02
-8.581150323152542114e-03
2.891329862177371979e-02
4.388867691159248352e-02
1.234997762367129326e-04
2.528847754001617432e-02
3.824691474437713623e-02
-3.170326724648475647e-02
-8.066650480031967163e-04
3.934643417596817017e-02
7.499668281525373459e-03
