-4.920351207256317139e-01
-8.456545472145080566e-01
-9.124845266342163086e-02
-9.482092261314392090e-01
-4.746321439743041992e-01
-1.974455475807189941e+00
-3.536296188831329346e-01
-2.961408197879791260e-01
-5.458184480667114258e-01
-1.550696939229965210e-01
-1.857386976480484009e-01
-7.543926835060119629e-01
-4.316765367984771729e-01
-2.542152106761932373e-01
5.507846549153327942e-02
-8.272100985050201416e-02
-6.871147751808166504e-01
-2.252288579940795898e+00
-4.550606012344360352e-01
-5.796142816543579102e-01
-6.675388216972351074e-01
-9.659904837608337402e-01
-2.464894950389862061e-02
-7.530856132507324219e-01
-2.369985282421112061e-01
-3.815348446369171143e-02
-5.088255405426025391e-01
-1.229292154312133789e+00
-6.863818764686584473e-01
-1.148378849029541016e+00
-4.741343855857849121e-01
-1.333612084388732910e+00
-3.493183553218841553e-01
8.806134015321731567e-02
-9.534747004508972168e-01
-6.622111797332763672e-01
-2.958537340164184570e-01
-5.864315032958984375e-01
-4.876825809478759766e-01
-2.671032845973968506e-01
-3.539211153984069824e-01
-3.158955872058868408e-01
-4.915271699428558350e-01
-5.020945668220520020e-01
-1.767096161842346191e+00
-3.144820332527160645e-01
-4.702985286712646484e-01
-5.091403722763061523e-01
-4.287851154804229736e-01
-3.055221438407897949e-01
-2.346215546131134033e-01
-3.425036072731018066e-01
1.082017272710800171e-02
-1.148902893066406250e+00
-1.334292888641357422e+00
-2.635904550552368164e+00
-5.608670115470886230e-01
-8.478420376777648926e-01
-1.190170407295227051e+00
-3.898483514785766602e-01
-4.169570505619049072e-01
-1.174233760684728622e-02
-5.980533361434936523e-01
-1.045788407325744629e+00
-4.884893298149108887e-01
-7.960712909698486328e-01
-2.550476491451263428e-01
-9.005638360977172852e-01
-4.607169926166534424e-01
-2.067012310028076172e+00
-2.920247316360473633e-01
-5.933532714843750000e-01
-6.917294859886169434e-01
-1.328098475933074951e-01
-2.108529806137084961e-01
-8.676772117614746094e-01
-4.059263169765472412e-01
-3.878203332424163818e-01
1.352938078343868256e-02
-3.659470751881599426e-02
-6.226568222045898438e-01
-2.339349746704101562e+00
-3.975300490856170654e-01
-6.177152991294860840e-01
-7.877807617187500000e-01
-1.034888386726379395e+00
1.322201732546091080e-02
-7.687817811965942383e-01
-1.794949173927307129e-01
4.073750600218772888e-02
-5.025655031204223633e-01
-1.103815078735351562e+00
-6.167912483215332031e-01
-9.629626274108886719e-01
-5.776702761650085449e-01
-1.301719069480895996e+00
-3.403883278369903564e-01
7.294161617755889893e-02
-1.212827324867248535e+00
-4.413926899433135986e-01
-3.125331997871398926e-01
-5.729529261589050293e-01
-5.358494520187377930e-01
-5.658045411109924316e-01
-2.547556459903717041e-01
-4.360234439373016357e-01
-6.607788801193237305e-01
-3.671504855155944824e-01
-1.960532665252685547e+00
-3.507645428180694580e-01
-5.568421483039855957e-01
-5.163359642028808594e-01
-5.535129308700561523e-01
-5.084934234619140625e-01
-4.099984169006347656e-01
-3.210314512252807617e-01
-1.556665897369384766e-01
-1.295364379882812500e+00
-1.471157789230346680e+00
-2.722434043884277344e+00
-6.440370082855224609e-01
-1.032968163490295410e+00
-1.495195388793945312e+00
-4.262740314006805420e-01
-3.705519735813140869e-01
-2.418779954314231873e-02
-6.052250862121582031e-01
-9.319650530815124512e-01
-5.111743211746215820e-01
-6.175572276115417480e-01
-7.184439897537231445e-02
-1.023685455322265625e+00
-3.727824091911315918e-01
-2.072706460952758789e+00
-4.275851845741271973e-01
-2.820047140121459961e-01
-3.655302822589874268e-01
-2.250332087278366089e-01
-2.761460244655609131e-01
-8.672760128974914551e-01
-2.577345669269561768e-01
-1.274736821651458740e-01
6.940124928951263428e-02
-5.031366646289825439e-02
-3.456196188926696777e-01
-2.235308408737182617e+00
-3.314005732536315918e-01
-7.958540916442871094e-01
-8.979167342185974121e-01
-1.058897495269775391e+00
-2.288044393062591553e-01
-5.277310013771057129e-01
-1.234397366642951965e-01
-8.979206532239913940e-02
-6.103671789169311523e-01
-1.253620505332946777e+00
-5.565632581710815430e-01
-9.670021533966064453e-01
-4.553473889827728271e-01
-1.012273430824279785e+00
-2.976045012474060059e-01
-2.285227552056312561e-02
-9.071187973022460938e-01
-4.920811951160430908e-01
-2.778491377830505371e-01
-6.246630549430847168e-01
-5.284819006919860840e-01
-2.782214283943176270e-01
-2.500596940517425537e-01
-2.397279143333435059e-01
-3.956801891326904297e-01
-3.548807203769683838e-01
-1.485917448997497559e+00
-3.057444691658020020e-01
-5.226017832756042480e-01
-3.576918244361877441e-01
-6.119177937507629395e-01
-4.168517887592315674e-01
-2.140118181705474854e-01
-5.151593685150146484e-01
1.396642066538333893e-02
-1.090312957763671875e+00
-1.293898701667785645e+00
-2.544651746749877930e+00
-4.840125441551208496e-01
-9.112400412559509277e-01
-1.277970075607299805e+00
-2.883294820785522461e-01
-2.950366735458374023e-01
1.903856289573013783e-03
-3.809290528297424316e-01
-8.497173190116882324e-01
-8.305798172950744629e-01
-9.137547016143798828e-01
-1.956337541341781616e-01
-1.447554707527160645e+00
-6.271454691886901855e-01
-2.937607049942016602e+00
-6.518115997314453125e-01
-5.236585736274719238e-01
-7.351944446563720703e-01
-3.403205573558807373e-01
-3.069358170032501221e-01
-1.019485950469970703e+00
-5.199882388114929199e-01
4.310901090502738953e-02
8.192716538906097412e-02
-3.617088794708251953e-01
-1.161373496055603027e+00
-2.526528835296630859e+00
-6.378598213195800781e-01
-3.261820971965789795e-01
-1.061705589294433594e+00
-4.452099204063415527e-01
-2.589722573757171631e-01
-3.257328867912292480e-01
-7.007930874824523926e-01
-2.698835134506225586e-01
-7.846935987472534180e-01
-1.572732567787170410e+00
-6.854344010353088379e-01
-8.349613547325134277e-01
-6.367104053497314453e-01
-4.627416655421257019e-02
-1.943987309932708740e-01
4.238262027502059937e-02
-7.704372406005859375e-01
-9.304667115211486816e-01
-6.635801494121551514e-02
-3.518539369106292725e-01
-7.758817672729492188e-01
-7.532514929771423340e-01
-2.685208618640899658e-01
-2.236676961183547974e-01
-8.847739100456237793e-01
-1.044975360855460167e-03
-5.070430636405944824e-01
-2.462788522243499756e-01
-2.627352774143218994e-01
-5.073723793029785156e-01
-3.988338112831115723e-01
-9.159155488014221191e-01
2.121658623218536377e-01
-9.539339542388916016e-01
-7.225672900676727295e-02
-1.793924212455749512e+00
-5.706828832626342773e-01
-1.958768606185913086e+00
-2.939585149288177490e-01
-2.247094810009002686e-01
-8.722107410430908203e-01
-2.194088697433471680e-01
-7.059720158576965332e-01
7.268992811441421509e-02
-1.349699646234512329e-01
-9.479652047157287598e-01
-6.044823676347732544e-03
1.439280360937118530e-01
-4.545542299747467041e-01
-5.762520805001258850e-02
-2.406226247549057007e-01
9.097780287265777588e-02
-4.295348376035690308e-02
1.967163523659110069e-03
-4.187562167644500732e-01
-4.200541675090789795e-01
-1.684799343347549438e-01
-1.823928020894527435e-02
-3.186570405960083008e-01
8.468766510486602783e-02
-2.181150019168853760e-01
-2.457147687673568726e-01
-2.407575547695159912e-01
-1.565701812505722046e-01
-5.006252229213714600e-02
-1.620340347290039062e-02
-1.028221398591995239e-01
3.554266318678855896e-02
-1.772041022777557373e-01
-8.160474151372909546e-02
-3.870039060711860657e-02
3.938723355531692505e-03
5.536144971847534180e-02
-6.752879172563552856e-02
-2.030361592769622803e-01
-1.299159973859786987e-01
-1.082505509257316589e-01
-1.269895434379577637e-01
-3.780459612607955933e-02
-5.877913832664489746e-01
2.112621255218982697e-02
-2.623356319963932037e-02
-1.167487949132919312e-01
-6.333789229393005371e-02
-1.857620477676391602e-01
-1.028732955455780029e-02
-1.572543978691101074e-01
-3.072214424610137939e-01
-2.615082859992980957e-01
-1.372900456190109253e-01
-1.461514458060264587e-02
3.431870415806770325e-02
-6.489086896181106567e-02
3.691466152667999268e-02
9.708487428724765778e-03
1.264129281044006348e-01
-7.977847941219806671e-03
8.697302639484405518e-02
-5.376494675874710083e-02
1.606779173016548157e-02
-1.281139813363552094e-02
-1.781566254794597626e-02
-1.708211749792098999e-02
5.162841454148292542e-02
-1.119235530495643616e-01
-3.189576556906104088e-03
-3.106968998908996582e-01
-2.516021393239498138e-02
4.084742069244384766e-02
-5.356796458363533020e-02
5.457615852355957031e-02
1.033274829387664795e-01
-5.692707896232604980e-01
-8.344445377588272095e-02
-7.568256556987762451e-02
2.546099387109279633e-02
-1.659274995326995850e-01
-1.737365685403347015e-02
-5.604939535260200500e-02
-3.546051084995269775e-01
-7.898186892271041870e-02
3.408442437648773193e-02
-1.481772363185882568e-01
5.411980301141738892e-02
-2.000663876533508301e-01
-2.846322357654571533e-01
-6.088129431009292603e-02
-7.154996693134307861e-02
-4.782405868172645569e-02
-2.026497945189476013e-02
-5.774663090705871582e-01
-5.422117188572883606e-02
-1.848525553941726685e-01
-1.157492101192474365e-01
-9.786868095397949219e-02
-1.231518909335136414e-01
-9.180615842342376709e-02
1.404669508337974548e-02
-3.261502981185913086e-01
-3.817575052380561829e-02
-1.819375343620777130e-02
-8.630072325468063354e-02
-3.818012028932571411e-02
-6.442581415176391602e-01
-5.350872874259948730e-02
5.991168320178985596e-03
9.587452746927738190e-03
-3.988851234316825867e-02
-2.328280806541442871e-01
-1.137274429202079773e-01
-4.681653976440429688e-01
-1.744087636470794678e-01
-1.394453942775726318e-01
-4.075589403510093689e-02
9.184198081493377686e-02
2.704331651329994202e-02
4.075156152248382568e-02
3.312961012125015259e-02
-2.998813986778259277e-02
-6.142938137054443359e-02
4.329646006226539612e-02
2.045295760035514832e-02
-2.470651865005493164e-01
2.772338874638080597e-02
4.187143594026565552e-02
-4.751757532358169556e-02
8.473915606737136841e-02
2.866567485034465790e-02
-3.736286610364913940e-02
-4.222870618104934692e-02
-1.208191663026809692e-01
-1.557698994874954224e-01
8.670309931039810181e-02
2.060430124402046204e-02
-1.447087060660123825e-02
6.260083988308906555e-03
-1.509652137756347656e-01
-1.199150457978248596e-01
-1.991422623395919800e-01
2.194601856172084808e-02
1.961839757859706879e-02
6.668015569448471069e-02
-1.387472003698348999e-01
-1.610241830348968506e-01
-6.780283153057098389e-02
-2.505146525800228119e-02
-4.931222498416900635e-01
8.425653725862503052e-02
-1.752523034811019897e-01
4.210961982607841492e-03
-3.550289571285247803e-02
-9.191744774580001831e-02
-4.632161185145378113e-02
-1.946105994284152985e-02
-2.132211625576019287e-01
-3.902704268693923950e-02
-2.222001552581787109e-01
-4.978061839938163757e-02
-8.384346961975097656e-03
-1.304673105478286743e-01
6.502771377563476562e-02
-8.339934982359409332e-03
-1.945903152227401733e-01
-6.051097810268402100e-02
-4.395093023777008057e-02
-2.977455966174602509e-02
-5.748920142650604248e-02
-4.816456437110900879e-01
-1.133870333433151245e-01
-3.971667215228080750e-02
-4.717219993472099304e-02
7.691084593534469604e-02
-5.659042671322822571e-02
-5.157892126590013504e-03
-2.910653948783874512e-01
-3.403100371360778809e-01
-9.990238398313522339e-02
-4.544305801391601562e-02
5.044738948345184326e-02
-6.219870597124099731e-02
-5.752115510404109955e-03
-2.274548262357711792e-02
-2.199233509600162506e-02
-7.977893576025962830e-03
1.411741692572832108e-02
-1.446520723402500153e-02
-9.717080742120742798e-03
8.735089749097824097e-02
-7.532154768705368042e-02
-2.139261737465858459e-02
5.516906455159187317e-02
4.200941696763038635e-02
2.229360118508338928e-02
-5.097444728016853333e-02
-3.731142356991767883e-02
-3.081480264663696289e-01
4.213454574346542358e-02
-8.452409505844116211e-02
5.484940856695175171e-02
-8.788120001554489136e-03
-4.466531574726104736e-01
-1.027609854936599731e-01
-1.210672184824943542e-01
-2.062846161425113678e-02
-8.694352209568023682e-02
-2.273936755955219269e-03
5.456081125885248184e-03
-7.277514338493347168e-01
-7.108463346958160400e-02
8.200148493051528931e-02
-2.256752252578735352e-01
-1.420403644442558289e-02
-2.306303940713405609e-03
-1.937202364206314087e-01
-9.701701998710632324e-02
-8.887780457735061646e-02
-1.571850329637527466e-01
-3.253345936536788940e-02
-1.343932300806045532e-01
4.989238083362579346e-02
-3.729885816574096680e-02
1.745541580021381378e-02
7.112474739551544189e-02
-2.234109044075012207e-01
-9.507799521088600159e-03
-5.272242799401283264e-02
-1.197040900588035583e-01
-5.627349391579627991e-02
-9.549785405397415161e-03
-9.505644440650939941e-02
-5.278513208031654358e-02
-3.863376677036285400e-01
-5.261116847395896912e-02
-2.139412425458431244e-02
7.429065555334091187e-02
-9.957352280616760254e-02
-4.627766013145446777e-01
-1.643285737372934818e-03
-4.256080389022827148e-01
-1.201507896184921265e-01
-3.057145141065120697e-02
1.011899933218955994e-01
9.222237020730972290e-02
-4.521825467236340046e-04
-5.817671306431293488e-03
-5.625607818365097046e-02
-3.669568151235580444e-02
-7.342111319303512573e-02
6.836046278476715088e-02
-1.008682250976562500e-01
-1.514089852571487427e-01
-1.684821844100952148e-01
4.885958507657051086e-02
-2.546756155788898468e-02
-4.690838512033224106e-03
3.556338697671890259e-02
-1.212811321020126343e-01
-1.164291985332965851e-02
-1.462391018867492676e-01
-1.407271176576614380e-01
4.450036585330963135e-02
-9.629712440073490143e-03
8.738289028406143188e-02
-2.740336954593658447e-02
-4.537401497364044189e-01
8.061133325099945068e-03
-9.106969088315963745e-02
7.050763815641403198e-02
-9.428699314594268799e-02
-3.152852505445480347e-02
-3.580505251884460449e-01
-9.083044528961181641e-01
-1.005266699939966202e-02
-2.220531553030014038e-02
-1.958210766315460205e-01
8.297679573297500610e-02
-4.385825395584106445e-01
-5.148453116416931152e-01
-4.975588619709014893e-01
-1.035002693533897400e-01
-2.337833493947982788e-01
-4.139320179820060730e-02
-1.539528071880340576e-01
9.870110079646110535e-03
-1.385704874992370605e-01
-2.356955222785472870e-02
-3.794703260064125061e-02
-7.322248071432113647e-03
5.465609580278396606e-02
4.195941612124443054e-02
-1.259423978626728058e-02
4.161924496293067932e-02
-9.038642048835754395e-02
-5.903797224164009094e-02
2.521370537579059601e-03
-2.576810121536254883e-01
1.767482608556747437e-02
-1.998492330312728882e-01
-5.790454149246215820e-02
-1.167599111795425415e-02
-6.808213144540786743e-02
-1.217714394442737103e-03
-4.345745146274566650e-01
-1.604442149400711060e-01
-4.474996775388717651e-02
1.313038356602191925e-02
-8.263998478651046753e-02
-1.314148008823394775e-01
-6.148996576666831970e-02
-1.080430820584297180e-01
-8.991780132055282593e-02
8.283203467726707458e-03
7.492642104625701904e-02
-2.296875230967998505e-02
1.325752027332782745e-02
-1.986934617161750793e-02
5.321646109223365784e-02
5.762270651757717133e-03
-3.710079193115234375e-02
1.260713115334510803e-02
-8.267172425985336304e-02
1.026312261819839478e-02
-1.779551506042480469e-01
-2.900915145874023438e-01
1.156754419207572937e-01
1.923049986362457275e-02
8.075634390115737915e-02
8.989694528281688690e-03
-8.140857219696044922e-01
1.872296561487019062e-03
-7.117626070976257324e-02
8.232504129409790039e-02
-6.079658493399620056e-02
1.572852209210395813e-02
-2.012700140476226807e-01
-4.685768187046051025e-01
-1.607080847024917603e-01
7.946506887674331665e-02
-2.510147094726562500e-01
6.840356439352035522e-02
-9.350159019231796265e-02
-1.351809948682785034e-01
-9.272638708353042603e-02
-1.458873748779296875e-01
-3.932930901646614075e-02
-9.504233300685882568e-02
-1.316997557878494263e-01
8.131545968353748322e-03
-2.164733409881591797e-01
-1.899847702588886023e-04
7.430854439735412598e-02
-1.741646230220794678e-01
1.241009216755628586e-02
1.187575398944318295e-03
-1.136647388339042664e-01
5.713287740945816040e-02
-4.510711506009101868e-02
3.032580716535449028e-03
-3.951393067836761475e-02
-1.540321409702301025e-01
-3.507921099662780762e-02
-1.316710263490676880e-01
-3.972937539219856262e-02
-1.211110502481460571e-01
-1.112916693091392517e-01
-3.095732629299163818e-02
-2.231420278549194336e-01
-2.960340678691864014e-01
-3.645678609609603882e-02
-1.151262037456035614e-02
1.071758661419153214e-02
-6.833511590957641602e-02
3.929654136300086975e-02
-8.743353188037872314e-02
1.116478815674781799e-02
-1.029577478766441345e-02
1.123130992054939270e-01
-1.594604365527629852e-02
-2.161364257335662842e-02
-2.354488708078861237e-02
8.529901504516601562e-02
-5.256916210055351257e-02
-2.303096838295459747e-02
2.448420412838459015e-02
-1.341341435909271240e-01
4.782471433281898499e-02
-1.580128446221351624e-03
-1.954289525747299194e-01
-4.928874317556619644e-03
-3.990803658962249756e-02
2.528602816164493561e-02
5.403229966759681702e-02
-2.394832521677017212e-01
-1.208894401788711548e-01
2.873680181801319122e-02
-1.379105746746063232e-01
-2.293366789817810059e-01
-5.026912689208984375e-02
-1.498604267835617065e-01
-5.040840506553649902e-01
-2.538883127272129059e-02
-8.963946253061294556e-03
5.004981160163879395e-02
-4.877815488725900650e-03
-9.351315349340438843e-02
-5.535957962274551392e-02
1.332603674381971359e-02
4.976474493741989136e-02
-2.920773997902870178e-02
1.008620560169219971e-01
-1.708005070686340332e-01
-1.156376674771308899e-01
-2.059297263622283936e-01
-1.123386844992637634e-01
-7.833199948072433472e-02
-5.907069519162178040e-02
-7.909427583217620850e-02
4.194458574056625366e-02
-2.717511355876922607e-01
-1.388926655054092407e-01
-1.017125025391578674e-01
-1.148603856563568115e-02
-1.550588384270668030e-02
-3.192547261714935303e-01
9.067944437265396118e-02
-1.566697470843791962e-02
2.611753158271312714e-02
-9.348744153976440430e-02
-3.526543378829956055e-01
-7.930808514356613159e-02
-1.200700998306274414e-01
-1.710325181484222412e-01
-6.266438215970993042e-02
-3.280900046229362488e-02
6.761647760868072510e-02
6.395933777093887329e-02
-5.871434137225151062e-02
2.903868444263935089e-03
-6.087889196351170540e-04
-2.256593555212020874e-01
-1.291379481554031372e-01
5.158611759543418884e-02
-2.354390174150466919e-01
-1.818959601223468781e-02
4.396896064281463623e-02
-8.285222202539443970e-02
6.039702147245407104e-02
9.971089893952012062e-04
-6.022803857922554016e-02
-7.352069020271301270e-02
4.175254330039024353e-02
-9.864065796136856079e-02
2.176329307258129120e-02
2.354257507249712944e-03
2.316912263631820679e-02
2.966758981347084045e-02
-1.187639355659484863e+00
-1.766524612903594971e-01
-1.093914210796356201e-01
-2.722429297864437103e-02
-1.078947484493255615e-01
-2.238672412931919098e-02
-2.734644711017608643e-01
-6.928950548171997070e-01
3.259326517581939697e-02
-7.054614275693893433e-02
-1.870564520359039307e-01
5.772856995463371277e-02
-1.159240454435348511e-01
-2.716488391160964966e-02
2.221761085093021393e-02
-7.080048322677612305e-02
-1.008683890104293823e-01
1.134664751589298248e-02
-4.256390780210494995e-02
1.559489592909812927e-02
-1.607956439256668091e-01
4.431356862187385559e-02
-7.903008162975311279e-02
-1.992423236370086670e-01
-3.432841971516609192e-02
-5.126850679516792297e-02
-8.491725474596023560e-02
-1.185866445302963257e-01
-3.951838985085487366e-02
3.634291887283325195e-02
-7.396056503057479858e-02
-2.975816428661346436e-01
-6.872837245464324951e-02
-1.859363913536071777e-02
2.958075143396854401e-02
3.632364794611930847e-02
-2.631613612174987793e-01
-7.625262439250946045e-02
-3.047039806842803955e-01
-2.389493584632873535e-01
-8.449902385473251343e-02
9.931671619415283203e-02
-2.330411784350872040e-02
-4.239071533083915710e-02
-3.529212251305580139e-02
-8.268797770142555237e-03
-3.897791728377342224e-02
-6.596682965755462646e-02
1.014704164117574692e-02
-1.744752563536167145e-02
1.992028579115867615e-02
-2.573368884623050690e-02
3.764209896326065063e-02
6.572706252336502075e-02
1.061966568231582642e-01
4.134528338909149170e-02
2.130246721208095551e-02
2.898839535191655159e-03
1.488224137574434280e-02
-5.890865996479988098e-02
3.571208938956260681e-02
7.724327151663601398e-04
5.127697810530662537e-02
-2.088880399242043495e-03
-3.516209423542022705e-01
-8.700006641447544098e-03
-1.194472685456275940e-01
-6.885935366153717041e-02
-2.057396024465560913e-01
4.020331427454948425e-02
-3.741873800754547119e-01
-3.286123871803283691e-01
-3.656054660677909851e-02
-6.150277704000473022e-02
-2.062755078077316284e-01
1.328880041837692261e-01
-4.166354835033416748e-01
-3.477679193019866943e-02
-3.013717234134674072e-01
-3.131095319986343384e-02
-5.470907315611839294e-02
-1.990784145891666412e-02
-3.907607495784759521e-02
-3.765055909752845764e-03
-4.658924937248229980e-01
2.469941601157188416e-02
-6.672794371843338013e-02
-9.735489636659622192e-02
-7.807103544473648071e-02
1.659256219863891602e-02
-1.159991919994354248e-01
4.640860855579376221e-02
-8.183597773313522339e-02
3.679853677749633789e-02
-1.248489245772361755e-01
-6.017438769340515137e-01
-7.644609361886978149e-02
-7.874982804059982300e-02
-4.401342570781707764e-02
-1.932778507471084595e-01
-1.255762428045272827e-01
-4.249660670757293701e-02
-5.246518254280090332e-01
-9.230239987373352051e-01
-6.280175875872373581e-04
9.960888884961605072e-03
-1.535319983959197998e-01
-6.988389045000076294e-02
2.522088028490543365e-02
-5.241047963500022888e-02
1.560150086879730225e-02
-4.019422084093093872e-02
-4.947421699762344360e-02
4.450917616486549377e-02
-9.494423866271972656e-02
1.597914285957813263e-02
-2.830322086811065674e-02
8.885726332664489746e-02
-4.220139235258102417e-02
-2.750552259385585785e-02
-1.103237718343734741e-01
6.742113083600997925e-02
-1.751406639814376831e-01
-3.088022768497467041e-01
-3.824865072965621948e-02
-1.261583995074033737e-02
-1.045276038348674774e-02
6.653723120689392090e-02
6.461735069751739502e-02
-6.811136752367019653e-02
-4.581588506698608398e-02
-6.229567527770996094e-02
-4.802691340446472168e-01
2.638789638876914978e-02
-9.078966379165649414e-01
-4.318872690200805664e-01
1.126801967620849609e-02
-9.648033976554870605e-02
-3.457101881504058838e-01
1.430663168430328369e-01
-9.114583134651184082e-01
-1.986136138439178467e-01
-1.964425891637802124e-01
-4.681158810853958130e-02
-1.836339235305786133e-01
1.548055279999971390e-02
-4.983427375555038452e-02
-3.162038326263427734e-02
-1.862910240888595581e-01
7.023483514785766602e-02
-5.872722342610359192e-02
2.176934294402599335e-02
3.033695393241941929e-04
4.594192281365394592e-02
-1.333513110876083374e-01
-2.673934958875179291e-02
-4.625273495912551880e-02
1.841449737548828125e-02
-1.194259375333786011e-01
-3.083193600177764893e-01
3.552403301000595093e-02
-7.890699803829193115e-02
-1.127516478300094604e-01
1.742092333734035492e-02
-5.702028051018714905e-02
-5.185140296816825867e-02
-3.152597844600677490e-01
-5.684384107589721680e-01
2.210433408617973328e-02
3.050891123712062836e-02
-1.350822299718856812e-01
-7.769283652305603027e-02
-5.416779592633247375e-02
-1.722643338143825531e-02
-3.842221200466156006e-02
5.248890444636344910e-02
-1.072581186890602112e-01
-1.592018827795982361e-02
-9.924273937940597534e-02
6.595055758953094482e-02
-3.199467435479164124e-02
4.611365869641304016e-02
-7.092688232660293579e-02
-5.303345620632171631e-02
-1.151295304298400879e-01
-4.533962532877922058e-02
-4.314771294593811035e-01
-1.041416153311729431e-01
-1.663029007613658905e-02
2.836477756500244141e-02
9.825370460748672485e-02
-4.894825071096420288e-02
2.006620541214942932e-02
-1.827112957835197449e-02
-9.039580076932907104e-02
-1.050433591008186340e-01
-2.141794264316558838e-01
-2.550658024847507477e-02
-6.257688999176025391e-01
-4.262355864048004150e-01
-1.788895949721336365e-02
-9.263522922992706299e-02
-2.725654542446136475e-01
8.100418001413345337e-02
-2.599044740200042725e-01
-1.855174899101257324e-01
-1.330439001321792603e-01
-6.297306716442108154e-02
-9.501704573631286621e-02
2.272569807246327400e-03
-1.620833575725555420e-02
-3.468695655465126038e-02
-5.442377179861068726e-02
9.288263320922851562e-02
1.188625022768974304e-02
-1.309357024729251862e-02
-7.559886574745178223e-02
5.479815229773521423e-02
-1.911153644323348999e-01
-1.329289050772786140e-03
1.515815127640962601e-02
1.096010673791170120e-02
1.168504543602466583e-02
-4.982102811336517334e-01
3.518420457839965820e-02
-1.025931313633918762e-01
-9.424788504838943481e-02
1.011347211897373199e-02
-3.703399002552032471e-02
-3.018220514059066772e-02
-2.508994042873382568e-01
-9.585855901241302490e-02
2.246944047510623932e-02
6.886231154203414917e-02
-4.892264679074287415e-02
-7.804474979639053345e-02
-2.624550089240074158e-02
4.978531226515769958e-02
-9.084087796509265900e-03
-4.087807238101959229e-02
-2.046168223023414612e-02
4.926783964037895203e-02
-1.328312605619430542e-01
5.989746004343032837e-02
-5.839796736836433411e-02
1.899050548672676086e-02
-5.084481835365295410e-02
-4.490467905998229980e-02
-1.383457183837890625e-01
-2.320880070328712463e-02
-1.919085532426834106e-01
6.846161931753158569e-02
2.937509678304195404e-02
2.439510263502597809e-02
4.525562003254890442e-02
-3.824929893016815186e-02
-6.268107891082763672e-01
6.056613102555274963e-02
-6.424357742071151733e-02
4.090666305273771286e-03
-1.222798004746437073e-01
-6.506641209125518799e-02
-1.826634854078292847e-01
-2.125177979469299316e-01
-8.267188072204589844e-02
4.623002931475639343e-02
-1.408526003360748291e-01
5.150909721851348877e-02
-1.945632100105285645e-01
-1.659219115972518921e-01
-1.247162148356437683e-01
-2.313455194234848022e-02
-3.654460236430168152e-02
2.122951857745647430e-02
-2.889918088912963867e-01
5.091711500426754355e-05
-1.736048460006713867e-01
-1.004095152020454407e-01
1.640490069985389709e-02
-4.772745445370674133e-02
-4.102842509746551514e-02
3.318748623132705688e-02
-1.088195666670799255e-01
1.122382581233978271e-01
-5.971219763159751892e-02
-3.421972505748271942e-03
-4.170000925660133362e-02
-3.699856102466583252e-01
-3.252236172556877136e-02
-7.121717184782028198e-02
-8.532106876373291016e-02
-1.622801125049591064e-01
-1.896844059228897095e-02
-7.805076241493225098e-02
-1.925765126943588257e-01
-4.519795775413513184e-01
-7.029414921998977661e-02
-3.317918255925178528e-02
1.180464588105678558e-02
-5.567586421966552734e-02
5.147017538547515869e-02
-3.911541402339935303e-02
-6.680250167846679688e-02
-8.948208391666412354e-02
1.829655095934867859e-02
7.597495615482330322e-02
-4.389111697673797607e-02
4.838529229164123535e-02
-1.012246962636709213e-02
-7.379328832030296326e-03
-5.341078503988683224e-04
2.255114028230309486e-03
-7.930558919906616211e-02
7.209762185811996460e-02
2.832636609673500061e-02
-1.043404564261436462e-01
6.014468520879745483e-02
3.267361968755722046e-02
-3.562825173139572144e-02
3.482411801815032959e-02
-2.955500185489654541e-01
-1.296581625938415527e-01
-5.338419973850250244e-02
-1.929316855967044830e-02
1.417232095263898373e-03
1.203975304961204529e-01
-3.048887252807617188e-01
-2.355751842260360718e-01
-8.580504916608333588e-03
-2.564059011638164520e-02
-1.611929088830947876e-01
2.642108313739299774e-02
5.628197640180587769e-02
-5.787465721368789673e-03
9.919670224189758301e-02
-1.424966193735599518e-02
-7.451081275939941406e-02
-4.334586113691329956e-02
-1.418012380599975586e-01
1.879838854074478149e-02
-4.129852633923292160e-03
-5.705823376774787903e-02
2.388039790093898773e-02
-3.108713030815124512e-01
4.495365917682647705e-02
-1.367690414190292358e-01
-6.210228055715560913e-02
-1.214515119791030884e-01
-1.565670520067214966e-01
-7.640624046325683594e-02
-7.604806683957576752e-03
-1.484304070472717285e-01
-1.700045913457870483e-01
-1.341233402490615845e-01
-6.960789859294891357e-02
-1.063053533434867859e-01
-5.080940127372741699e-01
6.818679720163345337e-02
-1.758098900318145752e-01
-4.050622284412384033e-01
-2.625395357608795166e-01
-6.080847606062889099e-02
3.204557672142982483e-02
2.957751229405403137e-02
-2.620304189622402191e-02
-1.400345861911773682e-01
-4.631142318248748779e-02
-1.413057837635278702e-02
-5.469746887683868408e-02
6.934966892004013062e-02
-1.304724216461181641e-01
-1.674381643533706665e-01
8.269833028316497803e-02
-2.115782164037227631e-02
1.197043582797050476e-01
3.796469420194625854e-02
-4.640556871891021729e-02
1.028178185224533081e-01
7.514352351427078247e-02
-1.568097770214080811e-01
-4.911980777978897095e-02
-2.712998352944850922e-02
-7.068935781717300415e-02
-1.050611361861228943e-01
-5.462836623191833496e-01
-4.313567653298377991e-02
-1.393064260482788086e-01
-9.907547384500503540e-03
-8.292048424482345581e-02
-1.307734549045562744e-01
-1.998066008090972900e-01
-2.410260885953903198e-01
8.953274227678775787e-03
-3.573676198720932007e-02
-2.575203180313110352e-01
-1.915890350937843323e-02
-6.772758066654205322e-02
-2.866508997976779938e-02
-1.101633459329605103e-01
-1.145941466093063354e-01
-2.771934568881988525e-01
-5.104437470436096191e-02
-5.878156423568725586e-02
6.721358001232147217e-02
-2.225546240806579590e-01
-3.961083665490150452e-02
2.040038444101810455e-02
-2.411510348320007324e-01
4.519239068031311035e-02
-7.983633130788803101e-02
-3.804777981713414192e-03
1.483665406703948975e-02
-1.132963746786117554e-01
-1.244473736733198166e-02
-5.785531550645828247e-02
-1.042226031422615051e-01
-3.740754723548889160e-02
-4.469015076756477356e-02
1.136701926589012146e-01
-1.493579596281051636e-01
-1.441310197114944458e-01
4.533382877707481384e-02
-6.366664767265319824e-01
-4.158493503928184509e-02
-1.948153525590896606e-01
3.942269366234540939e-03
-4.745543003082275391e-02
-2.343466319143772125e-02
-1.456757783889770508e-01
-9.544169902801513672e-02
-1.170839220285415649e-01
-5.309081450104713440e-02
-1.177608147263526917e-01
2.823950536549091339e-02
-1.499925851821899414e-01
-2.212503105401992798e-01
5.064579099416732788e-02
7.149790972471237183e-02
5.073247849941253662e-02
-3.882400691509246826e-02
-1.101073622703552246e-01
9.139464050531387329e-02
3.680618479847908020e-02
-1.405209004878997803e-01
7.369163632392883301e-02
-4.613121598958969116e-02
9.269547648727893829e-03
1.484613865613937378e-02
-1.005442976951599121e+00
-2.847753278911113739e-02
-1.002777740359306335e-01
6.214172393083572388e-02
-1.317701786756515503e-01
8.097768574953079224e-02
-2.750886082649230957e-01
-4.307953715324401855e-01
1.703363656997680664e-02
1.768844574689865112e-02
-5.163260102272033691e-01
5.314194411039352417e-02
-3.784055709838867188e-01
-3.216026723384857178e-01
-3.271467089653015137e-01
-5.380115658044815063e-02
-4.440535604953765869e-01
-1.170398965477943420e-01
-4.617941975593566895e-01
-1.468700170516967773e-01
-1.211939901113510132e-01
-1.595992781221866608e-02
4.045730084180831909e-02
-1.539241671562194824e-01
-2.166054770350456238e-02
-3.863948211073875427e-02
-6.097612977027893066e-01
-5.088907852768898010e-02
1.431777980178594589e-02
-3.513421863317489624e-02
-1.327150873839855194e-02
-4.659164249897003174e-01
-5.189144611358642578e-02
-7.228443026542663574e-02
-1.363489776849746704e-01
4.375787079334259033e-02
-7.504600286483764648e-02
-5.013834312558174133e-02
-2.647672295570373535e-01
-4.190029203891754150e-01
-2.363478019833564758e-02
-3.260387480258941650e-02
3.729383274912834167e-02
-1.191912442445755005e-01
4.767386987805366516e-02
3.213875368237495422e-02
-8.862630464136600494e-03
-3.110401704907417297e-02
1.085639297962188721e-01
-5.459276214241981506e-02
-1.553446147590875626e-02
1.001511290669441223e-01
3.462959825992584229e-02
-3.714776411652565002e-02
-1.767330057919025421e-02
6.161982938647270203e-02
-3.931630402803421021e-02
-7.093617320060729980e-02
-1.212430074810981750e-01
-1.227775216102600098e-01
-1.205623336136341095e-02
-6.946522742509841919e-02
6.365612894296646118e-02
4.906386137008666992e-02
-5.056405663490295410e-01
-1.435868293046951294e-01
-4.363384470343589783e-02
-7.977313362061977386e-03
-2.014043182134628296e-01
-1.539681293070316315e-02
-1.867709159851074219e-01
-3.706599473953247070e-01
5.736559629440307617e-02
2.330207824707031250e-02
-1.652464866638183594e-01
-1.195956319570541382e-01
-1.008588895201683044e-01
-1.585072576999664307e-01
-1.944288909435272217e-01
-2.498528920114040375e-02
-3.459626734256744385e-01
-7.615276426076889038e-02
-1.652830541133880615e-01
-4.401192069053649902e-02
-1.058848127722740173e-01
6.463241763412952423e-03
-3.746926411986351013e-02
-1.790729314088821411e-01
-9.165869653224945068e-02
-7.602991163730621338e-02
-7.017346471548080444e-02
-1.068354025483131409e-01
8.113555610179901123e-02
4.241052549332380295e-03
4.343421757221221924e-02
-2.424683868885040283e-01
-9.577161073684692383e-02
4.612400010228157043e-02
3.702621534466743469e-02
2.813938446342945099e-02
-1.170838922262191772e-01
-1.337332651019096375e-02
-4.278489649295806885e-01
3.327360376715660095e-02
-3.432015702128410339e-02
-2.066838555037975311e-02
5.250236764550209045e-02
8.066938072443008423e-02
-3.434294089674949646e-02
7.676275074481964111e-02
-1.106705050915479660e-02
-1.224780157208442688e-01
6.855704635381698608e-02
-1.124884560704231262e-01
-6.546147167682647705e-02
3.045723587274551392e-02
6.626477465033531189e-03
-2.826778031885623932e-02
-3.034739196300506592e-02
7.915829122066497803e-02
-2.471521869301795959e-02
-6.891207396984100342e-02
-1.385105550289154053e-01
-1.969392299652099609e-01
8.575318008661270142e-02
-1.621818989515304565e-01
4.695423319935798645e-02
3.542182967066764832e-02
-2.064346671104431152e-01
-1.300340890884399414e-01
-1.464921683073043823e-01
9.558530896902084351e-02
-3.962019085884094238e-02
1.743783950805664062e-01
-2.887549102306365967e-01
-8.560395836830139160e-01
8.150607347488403320e-02
-6.840979307889938354e-02
-1.925878226757049561e-01
6.067667528986930847e-02
-1.385318934917449951e-01
-1.203887760639190674e-01
-1.053317561745643616e-01
-1.558259129524230957e-01
-2.274215817451477051e-01
-1.508472412824630737e-01
-6.001339480280876160e-02
-4.530688002705574036e-02
-9.249994158744812012e-02
-1.115977242588996887e-01
-7.043432444334030151e-03
-1.774387955665588379e-01
1.855533197522163391e-02
-1.690301448106765747e-01
-1.376857161521911621e-01
-5.617954581975936890e-02
-5.150470137596130371e-02
-3.442717343568801880e-02
-1.179971825331449509e-02
-2.343325167894363403e-01
-8.531966805458068848e-02
-1.001342236995697021e-01
-3.078835085034370422e-02
5.616047233343124390e-02
-1.135972440242767334e-01
1.057984009385108948e-01
-1.710690855979919434e-01
-1.678200811147689819e-01
-3.836554288864135742e-02
-1.964116692543029785e-01
-4.628032818436622620e-02
-4.383457079529762268e-02
-8.490861952304840088e-02
-3.195761935785412788e-03
5.280604586005210876e-03
1.112254336476325989e-02
3.568268194794654846e-02
-1.954274624586105347e-02
-6.958580762147903442e-02
2.986625209450721741e-02
3.633343800902366638e-02
2.814055047929286957e-02
9.133064746856689453e-02
-1.177215855568647385e-02
-6.508565973490476608e-03
-1.029773429036140442e-01
-1.220264583826065063e-01
-5.747358500957489014e-02
3.742647543549537659e-02
-1.071858853101730347e-01
4.142033308744430542e-02
1.726374216377735138e-02
-3.710650503635406494e-01
-7.377365231513977051e-02
-5.921731516718864441e-02
9.889448434114456177e-02
-1.570609807968139648e-01
5.570640042424201965e-02
-4.482707977294921875e-01
-1.083729505538940430e+00
6.372645497322082520e-03
-3.249505162239074707e-02
-4.792175590991973877e-01
9.653823450207710266e-03
-2.058293670415878296e-01
-9.241341799497604370e-02
-7.018622756004333496e-02
-9.693544358015060425e-02
-1.573984473943710327e-01
-1.196155324578285217e-02
-2.492043226957321167e-01
-5.935389176011085510e-02
-2.783147096633911133e-01
-1.065183728933334351e-01
-5.272748693823814392e-02
-1.450318247079849243e-01
-5.693399161100387573e-02
-1.565950512886047363e-01
-1.828224360942840576e-01
-8.545910567045211792e-02
1.803945563733577728e-02
1.726122573018074036e-02
-1.240917854011058807e-02
-2.768492996692657471e-01
-1.725855767726898193e-01
-6.964162737131118774e-02
-2.964027598500251770e-02
2.552499063313007355e-03
-1.773274391889572144e-01
-2.867219038307666779e-03
-2.526832520961761475e-01
-2.072150260210037231e-01
-3.725156560540199280e-02
-4.895676858723163605e-03
2.089673280715942383e-02
-1.699016056954860687e-02
-1.621452718973159790e-02
-4.942730301991105080e-04
-3.440054133534431458e-02
-8.146850019693374634e-02
1.257082670927047729e-01
3.171871230006217957e-02
2.781473845243453979e-02
2.761033549904823303e-02
8.028137683868408203e-02
-5.261822417378425598e-02
1.152934134006500244e-01
3.030277788639068604e-02
-7.689199410378932953e-03
-2.994268573820590973e-02
8.075724542140960693e-02
-2.291506826877593994e-01
-1.581364776939153671e-03
-4.398631677031517029e-02
6.559871882200241089e-02
1.883898861706256866e-02
-4.640375077724456787e-01
6.047080457210540771e-02
-5.708432197570800781e-02
6.001762673258781433e-02
-1.237631812691688538e-01
-9.681992232799530029e-03
-2.770246267318725586e-01
-2.606814205646514893e-01
-5.343573540449142456e-02
8.446602523326873779e-02
-1.159033551812171936e-01
-1.135652232915163040e-02
-3.049501776695251465e-01
-4.193426072597503662e-01
-2.250139415264129639e-01
-3.239146620035171509e-02
-1.787882596254348755e-01
-7.165394723415374756e-02
-2.440440207719802856e-01
-3.775416687130928040e-02
-1.323735564947128296e-01
-1.194295883178710938e-01
6.218621879816055298e-02
-3.936729580163955688e-02
-7.267329841852188110e-02
-4.820745438337326050e-03
-1.697360873222351074e-01
9.582410007715225220e-02
1.897287741303443909e-02
-4.069651663303375244e-02
9.812357835471630096e-03
-2.997584044933319092e-01
-3.040703944861888885e-02
-1.009723767638206482e-01
-4.709992930293083191e-02
-1.396233737468719482e-01
-6.854853034019470215e-02
3.961317986249923706e-02
-2.035719454288482666e-01
-1.706730127334594727e-01
-8.315281569957733154e-02
-1.026734262704849243e-01
-8.746914565563201904e-03
-2.353893779218196869e-02
-5.997147876769304276e-03
-7.620444986969232559e-03
-3.160826861858367920e-02
-5.164054036140441895e-02
1.022251546382904053e-01
4.474683105945587158e-02
-3.578756377100944519e-02
2.212731912732124329e-02
7.943621836602687836e-03
-4.376183450222015381e-02
-2.240535616874694824e-02
-7.724056486040353775e-03
-1.488191783428192139e-01
3.327931836247444153e-02
9.456648491322994232e-03
-2.274679392576217651e-01
6.554046273231506348e-02
-1.425886247307062149e-02
8.506716042757034302e-02
-5.007078871130943298e-03
-1.578295826911926270e-01
-1.362891644239425659e-01
-2.248226664960384369e-02
-7.439272850751876831e-02
-3.544094264507293701e-01
3.041111864149570465e-02
-3.093843162059783936e-01
-2.230122834444046021e-01
7.275077700614929199e-02
-1.407007575035095215e-01
-1.093023344874382019e-01
-5.217682570219039917e-02
-2.757938504219055176e-01
-7.713885307312011719e-01
-1.873104721307754517e-01
-1.809549778699874878e-01
-2.444371283054351807e-01
-6.574865430593490601e-02
-4.277893900871276855e-02
1.000158395618200302e-02
-1.298801302909851074e-01
-6.385069340467453003e-02
-8.693055808544158936e-02
-1.323446184396743774e-01
1.033301930874586105e-02
3.139848262071609497e-02
6.434727925807237625e-03
-3.579829260706901550e-02
-5.614044144749641418e-02
-2.811265923082828522e-02
-2.017362974584102631e-03
5.614833906292915344e-02
-2.551937662065029144e-02
-3.960786852985620499e-03
4.973994940519332886e-02
-8.241237699985504150e-02
-1.040385439991950989e-01
5.788533389568328857e-02
-2.638115286827087402e-01
2.587949298322200775e-02
-7.535288482904434204e-02
2.359065972268581390e-02
-7.653568685054779053e-02
-5.657170899212360382e-03
-1.058975607156753540e-01
4.091436043381690979e-02
-1.257373541593551636e-01
-1.435418277978897095e-01
-7.733910530805587769e-02
-4.324575886130332947e-02
-1.160210445523262024e-01
-5.529513955116271973e-02
5.580152198672294617e-02
9.440709650516510010e-02
-4.972236603498458862e-02
5.300687160342931747e-03
-1.147994622588157654e-01
2.586451545357704163e-02
-1.650958955287933350e-01
-1.752797812223434448e-01
1.007357016205787659e-01
-2.697167545557022095e-02
1.128736957907676697e-01
2.289795503020286560e-02
-3.497225046157836914e-01
-1.250409483909606934e-01
-8.434373140335083008e-02
-2.503617852926254272e-02
-8.721499145030975342e-02
4.667112976312637329e-02
-5.650969743728637695e-01
-3.340123593807220459e-01
6.441368162631988525e-02
-7.549858838319778442e-02
-1.605980992317199707e-01
7.522013038396835327e-02
-1.831466853618621826e-01
-2.753434181213378906e-01
-1.047909632325172424e-01
-1.135203316807746887e-01
-8.633695542812347412e-02
-2.657353319227695465e-02
-1.394073963165283203e-01
-6.374978274106979370e-02
-1.936225444078445435e-01
-4.115693643689155579e-02
-9.940353780984878540e-02
-1.392133831977844238e-01
5.459542572498321533e-02
1.143232919275760651e-02
-1.245263218879699707e-02
-5.721243843436241150e-02
-9.434236586093902588e-02
-1.379248593002557755e-02
-4.218602553009986877e-02
-6.400129944086074829e-02
-5.326319113373756409e-02
-1.497626900672912598e-01
-2.423597499728202820e-02
6.134575232863426208e-02
-7.657898962497711182e-02
-3.406216204166412354e-02
-3.398244082927703857e-01
-1.070083603262901306e-01
3.110569529235363007e-02
-9.816428646445274353e-03
-1.253324151039123535e-01
-7.585099339485168457e-02
1.919037103652954102e-02
1.744940318167209625e-02
-1.153598800301551819e-01
-7.624115049839019775e-02
-3.946303203701972961e-02
-2.099499851465225220e-02
-9.484577924013137817e-02
-1.191677991300821304e-02
1.191847100853919983e-01
7.722125202417373657e-02
3.080774843692779541e-02
4.154307767748832703e-03
-3.691137954592704773e-02
-2.625641040503978729e-02
-2.607657574117183685e-02
-2.604102194309234619e-01
4.570951219648122787e-03
3.428108058869838715e-03
1.373252272605895996e-01
5.135922133922576904e-02
-6.960025429725646973e-01
-1.703575998544692993e-01
-2.023086883127689362e-02
4.906935244798660278e-02
-1.048839762806892395e-01
6.774887442588806152e-02
-4.017831385135650635e-01
-3.790896236896514893e-01
4.261079058051109314e-02
-3.268201276659965515e-02
-1.692122220993041992e-01
2.396329864859580994e-02
-2.269922196865081787e-01
-3.584820628166198730e-01
-1.288746744394302368e-01
-1.315318793058395386e-01
-1.922619193792343140e-01
-1.198485493659973145e-02
-1.978092938661575317e-01
-1.241580769419670105e-01
-2.189611196517944336e-01
3.683952614665031433e-02
-5.354011803865432739e-02
-7.877846062183380127e-02
-9.832096099853515625e-02
6.350359879434108734e-03
-1.993777900934219360e-01
-2.802098542451858521e-02
1.684141531586647034e-02
-5.225008726119995117e-02
-7.444673683494329453e-03
-3.683722019195556641e-01
-8.065553754568099976e-02
-5.917969718575477600e-02
-1.815751940011978149e-01
6.721897423267364502e-02
-5.402735248208045959e-02
-1.822408474981784821e-02
-3.753445744514465332e-01
-7.848320901393890381e-02
6.044393777847290039e-02
-6.846489757299423218e-02
-4.314001277089118958e-02
-5.332431569695472717e-02
-6.406117975711822510e-02
8.089122176170349121e-02
-3.842572122812271118e-02
-9.616792947053909302e-02
5.962900072336196899e-02
-1.323124617338180542e-01
-1.435388922691345215e-01
7.434319704771041870e-02
9.032537043094635010e-02
-2.507373318076133728e-02
-7.944935350678861141e-04
-8.259477093815803528e-03
-5.456924438476562500e-02
-1.693229079246520996e-01
2.558075264096260071e-02
-1.850462406873703003e-01
-2.378755621612071991e-02
-9.015277773141860962e-02
-7.490502670407295227e-03
9.238518029451370239e-02
-1.826868653297424316e-01
-1.574599295854568481e-01
-9.858880937099456787e-02
-1.208844501525163651e-02
-1.690868139266967773e-01
-5.613261088728904724e-02
-2.085713148117065430e-01
-5.166764259338378906e-01
5.027589574456214905e-02
-1.097526028752326965e-01
-2.690203785896301270e-01
-2.975046262145042419e-02
-3.172598183155059814e-01
-1.001265719532966614e-01
-7.013335824012756348e-02
-7.142070680856704712e-02
-1.313900947570800781e-01
3.790304064750671387e-02
-2.051079869270324707e-01
-2.348846197128295898e-02
-2.434971928596496582e-01
-1.500325743108987808e-02
-1.580551862716674805e-01
-1.387443393468856812e-01
-3.218275308609008789e-02
-6.044423207640647888e-02
-1.825260519981384277e-01
-8.427642285823822021e-02
1.356043387204408646e-02
-1.621505804359912872e-02
-4.459880292415618896e-02
-3.463430702686309814e-01
-6.065685302019119263e-02
6.750455498695373535e-02
3.489645197987556458e-02
7.801010459661483765e-02
-1.131235137581825256e-01
-3.490652516484260559e-02
-2.260718941688537598e-01
-7.442586869001388550e-02
-1.246186420321464539e-01
-1.566544733941555023e-02
-3.646099567413330078e-02
4.232058301568031311e-02
-6.568579375743865967e-02
4.333868995308876038e-02
-5.490849912166595459e-02
-7.661764323711395264e-02
2.349120564758777618e-02
-7.525546848773956299e-02
-2.300235070288181305e-02
5.123271420598030090e-02
2.999022789299488068e-02
2.362396335229277611e-04
1.150460243225097656e-01
2.067273855209350586e-02
4.894895851612091064e-02
-8.639726787805557251e-02
6.862620264291763306e-02
-2.163769155740737915e-01
4.501091316342353821e-02
-1.350485682487487793e-01
6.344442814588546753e-02
-5.024449527263641357e-02
-6.050963401794433594e-01
-8.250858634710311890e-02
-1.137634217739105225e-01
-3.514539450407028198e-02
-1.445837616920471191e-01
5.849540233612060547e-02
-4.235535860061645508e-01
-2.903528213500976562e-01
-1.763675808906555176e-01
1.468563545495271683e-02
-1.591834723949432373e-01
1.435237228870391846e-01
-6.185403466224670410e-02
-4.524498805403709412e-02
-4.083629325032234192e-02
-1.067895144224166870e-01
-5.405955389142036438e-02
-4.850289598107337952e-02
3.234679996967315674e-02
-2.266463823616504669e-02
-1.550128757953643799e-01
6.380986422300338745e-02
-2.602656930685043335e-02
-2.195806801319122314e-01
-4.228981584310531616e-02
-7.703315932303667068e-03
-3.968082740902900696e-02
-5.178814753890037537e-02
-4.696342721581459045e-02
9.164454042911529541e-02
-7.765353471040725708e-02
-3.826900124549865723e-01
-1.030828878283500671e-01
-1.311388462781906128e-01
2.811325527727603912e-02
-3.229048475623130798e-02
-4.572910070419311523e-01
-1.257426142692565918e-01
-2.585506141185760498e-01
-5.029528960585594177e-02
-4.276890680193901062e-02
6.145968660712242126e-02
2.016159892082214355e-02
-1.138582751154899597e-01
4.766727238893508911e-02
-8.500725775957107544e-02
4.832514002919197083e-02
-4.436444863677024841e-02
-4.748439788818359375e-02
-1.969997212290763855e-02
-2.168770693242549896e-02
-2.235309220850467682e-02
1.843017153441905975e-02
-9.671159833669662476e-02
4.798714816570281982e-02
6.122333928942680359e-02
-4.598647728562355042e-02
3.842465952038764954e-02
-4.893394559621810913e-02
-2.858200073242187500e-01
-1.200805976986885071e-01
-3.281025961041450500e-02
1.038495674729347229e-01
-5.920279398560523987e-02
-3.083817064762115479e-01
3.620803356170654297e-02
-5.913981050252914429e-02
-1.294713318347930908e-01
-9.443829208612442017e-02
-4.511579405516386032e-03
-2.460235208272933960e-01
-3.968835175037384033e-01
-7.042929530143737793e-02
-1.483652833849191666e-02
-8.567232638597488403e-02
-8.193206973373889923e-03
-3.867217153310775757e-02
-1.347263306379318237e-01
1.602053269743919373e-02
5.768549814820289612e-02
1.255569141358137131e-02
-7.167436927556991577e-02
3.887032344937324524e-02
-8.723723143339157104e-02
-4.420836269855499268e-02
1.088577657938003540e-01
7.374309003353118896e-02
-3.274689018726348877e-01
-8.453463762998580933e-02
-1.667886972427368164e-01
-5.393905565142631531e-02
-1.985691674053668976e-02
5.853809788823127747e-02
5.916888639330863953e-02
9.937810897827148438e-02
-3.030325770378112793e-01
7.821344584226608276e-02
-1.180105879902839661e-01
-1.223224103450775146e-01
-1.681316494941711426e-01
-2.094445973634719849e-01
4.304968938231468201e-02
-7.239351421594619751e-02
-3.505352139472961426e-01
-1.566490828990936279e-01
5.791119858622550964e-02
7.119615375995635986e-02
-8.391629904508590698e-02
-7.728933542966842651e-02
-5.359895527362823486e-02
1.724788360297679901e-02
-1.355814337730407715e-01
4.435074701905250549e-02
-4.519535973668098450e-02
-2.387374080717563629e-02
3.646877408027648926e-02
-4.594306461513042450e-03
-2.287638783454895020e-01
-5.281862244009971619e-02
-3.518695011734962463e-02
-1.610167473554611206e-01
2.171421796083450317e-02
-2.375026345252990723e-01
-1.472751945257186890e-01
-1.857292354106903076e-01
-9.700413048267364502e-02
1.924475282430648804e-02
-5.850926041603088379e-02
-1.132223978638648987e-01
-2.073078751564025879e-01
-7.921698689460754395e-02
-2.407948970794677734e-01
-7.845468819141387939e-02
-7.636801153421401978e-02
-9.565061330795288086e-02
-1.997791826725006104e-01
-7.090009748935699463e-02
1.968334428966045380e-02
-1.227373033761978149e-01
-1.114543993026018143e-03
-7.558725029230117798e-02
-1.581028699874877930e-01
-7.515394687652587891e-02
-3.934135660529136658e-03
-1.020063087344169617e-01
8.251971751451492310e-02
-2.904845215380191803e-02
-1.043365430086851120e-02
-7.779565453529357910e-02
2.135579101741313934e-02
-2.694870904088020325e-02
-2.901487611234188080e-02
-2.996442373842000961e-03
-4.438851773738861084e-02
-1.627543419599533081e-01
-9.789801388978958130e-02
-4.582964349538087845e-03
7.987935841083526611e-02
-5.445036222226917744e-04
-2.132297456264495850e-01
-5.560437217354774475e-03
4.162504896521568298e-02
1.156900078058242798e-01
-4.878402128815650940e-02
-3.739442825317382812e-01
-6.250456720590591431e-02
-2.329328060150146484e-01
-8.292525261640548706e-02
-8.288230001926422119e-02
4.618946090340614319e-02
7.368666678667068481e-02
-1.527827465906739235e-03
-7.286565750837326050e-02
-7.579847425222396851e-02
3.161149471998214722e-02
-2.248085588216781616e-01
-5.341976508498191833e-02
-2.209351584315299988e-02
-3.858850300312042236e-01
-4.604726284742355347e-02
-4.182089120149612427e-02
-8.751441538333892822e-02
8.832895196974277496e-03
3.859107568860054016e-02
-6.167037412524223328e-02
-1.121755540370941162e-01
-7.641593366861343384e-02
-1.179997026920318604e-01
-2.359528007218614221e-04
-7.317528873682022095e-02
1.587874740362167358e-01
-1.878216862678527832e-03
-3.498159646987915039e-01
-2.973397262394428253e-03
-8.211527019739151001e-02
-4.769010469317436218e-02
-1.920694261789321899e-01
-8.709117770195007324e-02
-1.494580805301666260e-01
-5.850371122360229492e-01
-8.744274079799652100e-02
-5.768082663416862488e-02
-1.672421097755432129e-01
9.259630925953388214e-03
-5.576543882489204407e-02
-2.401003092527389526e-01
-1.226512566208839417e-01
-7.978937029838562012e-02
-5.396559089422225952e-02
-6.386329233646392822e-02
5.915400013327598572e-02
4.103025048971176147e-02
-4.527943953871726990e-02
9.010297060012817383e-02
-6.715858820825815201e-03
-2.281510233879089355e-01
-5.520202219486236572e-02
-1.898766844533383846e-03
4.010288417339324951e-02
5.883335322141647339e-02
-5.091147869825363159e-02
5.961981043219566345e-02
1.028151437640190125e-02
-8.775415271520614624e-02
1.051008328795433044e-02
-7.567482441663742065e-02
-6.817562133073806763e-02
-1.666658669710159302e-01
-2.387436777353286743e-01
8.315017446875572205e-03
-2.110528945922851562e-01
-8.370853960514068604e-02
-1.060456335544586182e-01
8.192843943834304810e-02
-8.783438801765441895e-02
-3.604655340313911438e-02
-4.364420101046562195e-02
7.087992038577795029e-03
4.275623708963394165e-02
-9.528855979442596436e-02
-2.073268219828605652e-02
-6.222181767225265503e-02
3.497673431411385536e-03
-9.758030623197555542e-02
-1.514261960983276367e-02
-4.347546771168708801e-02
-9.862644970417022705e-02
6.229937076568603516e-02
-1.118064895272254944e-01
5.780739709734916687e-02
-8.821956813335418701e-02
-3.277309536933898926e-01
-2.620328031480312347e-02
-6.645356118679046631e-02
-3.529054224491119385e-01
-6.188047528266906738e-01
-1.638657450675964355e-01
-1.096740007400512695e+00
-2.419530302286148071e-01
-2.270849466323852539e+00
-2.574542164802551270e-01
-7.433862239122390747e-02
-2.381830662488937378e-01
-1.132258102297782898e-01
-3.378382027149200439e-01
-8.499004840850830078e-01
-3.372173905372619629e-01
-1.958068013191223145e-01
-3.696330636739730835e-02
-1.410748809576034546e-01
-3.704721331596374512e-01
-2.082370042800903320e+00
-5.132680535316467285e-01
-7.444128990173339844e-01
-7.825539112091064453e-01
-1.158866047859191895e+00
-2.084785401821136475e-01
-7.255221009254455566e-01
-2.895692884922027588e-01
3.872313350439071655e-02
-5.645006895065307617e-01
-1.165935158729553223e+00
-3.669910132884979248e-01
-1.034345626831054688e+00
-6.108604073524475098e-01
-1.005336165428161621e+00
-2.839697897434234619e-01
6.965184211730957031e-02
-8.091052174568176270e-01
-6.245858669281005859e-01
-2.093788683414459229e-01
-5.952695608139038086e-01
-1.799739301204681396e-01
-1.502577513456344604e-01
-3.647736907005310059e-01
-3.666467368602752686e-01
-5.206926465034484863e-01
-3.211820125579833984e-01
-1.630674123764038086e+00
-3.664392232894897461e-01
-5.034080743789672852e-01
-2.439369410276412964e-01
-5.734903216361999512e-01
-4.651399850845336914e-01
-2.488219439983367920e-01
-5.140320062637329102e-01
3.873823955655097961e-02
-1.082489490509033203e+00
-1.295869350433349609e+00
-2.632578611373901367e+00
-4.506389796733856201e-01
-1.056609869003295898e+00
-1.241273164749145508e+00
-3.422314822673797607e-01
-1.823401898145675659e-01
-1.060554683208465576e-01
-3.909841775894165039e-01
-8.609654903411865234e-01
-3.626074269413948059e-02
9.069295600056648254e-03
-5.981011390686035156e-01
-8.689594268798828125e-02
-7.436870783567428589e-02
-1.061153039336204529e-01
-1.169713735580444336e-01
4.063406586647033691e-02
-6.468968838453292847e-02
-2.410228252410888672e-01
-2.204309962689876556e-02
-6.786224246025085449e-02
-2.355327606201171875e-01
4.052212089300155640e-02
-9.975428879261016846e-02
6.215887516736984253e-02
9.063948690891265869e-02
4.103480279445648193e-02
-2.211247384548187256e-02
7.011333107948303223e-02
-1.982382684946060181e-02
-1.232015416026115417e-01
-3.469411432743072510e-01
5.936078727245330811e-03
-1.705466061830520630e-01
-8.809312433004379272e-02
6.933732889592647552e-03
-3.472693637013435364e-02
-2.369913011789321899e-01
-1.099707037210464478e-01
-5.701972171664237976e-02
6.220922991633415222e-02
-1.345668360590934753e-02
-9.674908965826034546e-02
2.100839838385581970e-02
-2.753856126219034195e-03
-9.875988960266113281e-02
-1.199900824576616287e-02
-3.038796782493591309e-01
-3.322181850671768188e-02
-2.157479375600814819e-01
-2.154560834169387817e-01
-4.891922697424888611e-02
1.822439208626747131e-02
-1.515174866653978825e-03
3.511341637931764126e-04
-1.178950443863868713e-02
-8.996566757559776306e-03
1.449807826429605484e-02
-1.087566986680030823e-01
-8.645933121442794800e-02
4.865598678588867188e-02
-3.888772055506706238e-02
8.389375358819961548e-02
1.444298494607210159e-02
-6.933170557022094727e-02
9.066502749919891357e-02
-5.330334231257438660e-02
3.055840358138084412e-02
-4.599323868751525879e-02
5.797598883509635925e-02
-1.513421237468719482e-01
-6.256387382745742798e-02
-6.481226533651351929e-02
-4.925959929823875427e-02
-9.809960424900054932e-02
-3.176693320274353027e-01
-3.540747612714767456e-02
-6.827952712774276733e-02
-1.223591119050979614e-01
-1.294246017932891846e-01
8.129959553480148315e-02
-1.260655075311660767e-01
-4.150407016277313232e-01
-1.302202790975570679e-01
-5.357332900166511536e-02
-9.566161036491394043e-02
1.505562756210565567e-02
-6.578721106052398682e-02
1.084443181753158569e-01
1.521821320056915283e-01
3.029208071529865265e-02
6.199482828378677368e-02
4.433384910225868225e-02
-8.569946140050888062e-02
-3.638497740030288696e-02
-1.437611281871795654e-01
5.987480282783508301e-03
-1.495561450719833374e-01
-2.366893589496612549e-01
4.124136269092559814e-02
-2.254316583275794983e-02
-1.903966516256332397e-01
-7.831763476133346558e-02
-6.769803911447525024e-02
4.919055476784706116e-02
4.167705774307250977e-03
-1.496554613113403320e-01
-3.149594366550445557e-02
-3.065172210335731506e-02
-1.088527739048004150e-01
-7.394800335168838501e-02
-5.437257885932922363e-01
-3.289253264665603638e-02
-3.209209442138671875e-01
-1.216665431857109070e-01
-6.446240097284317017e-02
2.335329726338386536e-02
4.966045916080474854e-02
-5.719701200723648071e-02
1.687541045248508453e-02
-6.979106366634368896e-02
-8.849950507283210754e-03
-1.053632795810699463e-01
-2.090638875961303711e-01
7.844174653291702271e-02
-1.763717383146286011e-01
2.390597388148307800e-02
1.769443042576313019e-02
-1.676537543535232544e-01
7.551744580268859863e-02
-5.937912687659263611e-02
1.492529641836881638e-02
5.734804552048444748e-03
6.029611825942993164e-02
-1.554072052240371704e-01
-2.347042411565780640e-01
-4.144601896405220032e-02
2.008216269314289093e-02
-5.279338732361793518e-02
-4.122228026390075684e-01
2.211113832890987396e-02
-1.164250969886779785e-01
-1.362291574478149414e-01
-1.941815018653869629e-01
4.634133540093898773e-03
-1.364029198884963989e-01
-1.671052426099777222e-01
-8.788497745990753174e-02
7.070574164390563965e-02
-1.285344809293746948e-01
1.027118880301713943e-02
-8.480246365070343018e-02
1.035963371396064758e-02
-2.282759547233581543e-02
3.433316946029663086e-02
5.651540681719779968e-02
4.925804212689399719e-02
-2.079619318246841431e-01
-6.377372890710830688e-02
-7.190719991922378540e-02
-3.115309774875640869e-02
6.127882748842239380e-02
-6.790487677790224552e-04
3.095562383532524109e-02
1.862416416406631470e-02
-1.143702492117881775e-01
1.990151777863502502e-02
-4.453180357813835144e-02
8.795643597841262817e-02
-4.777953401207923889e-02
-4.881909489631652832e-01
4.276432096958160400e-02
-1.926293075084686279e-01
-5.347305908799171448e-02
-2.516001760959625244e-01
-8.850568532943725586e-02
-6.015089899301528931e-02
-1.423901319503784180e-01
-4.032633006572723389e-01
1.023674849420785904e-02
2.848456613719463348e-02
3.812171891331672668e-02
-4.728079959750175476e-02
5.330713838338851929e-02
-8.409367501735687256e-02
2.374877221882343292e-03
-8.993101865053176880e-02
-9.811948984861373901e-02
9.365306794643402100e-02
-1.658662408590316772e-02
7.010524626821279526e-03
3.660693392157554626e-02
-2.711494639515876770e-02
-6.054070964455604553e-02
-7.921086251735687256e-02
-1.185304597020149231e-01
9.648980572819709778e-03
-3.559917211532592773e-02
-1.555602103471755981e-01
9.701352566480636597e-03
-5.498472601175308228e-02
1.131019741296768188e-01
4.429315775632858276e-02
-1.377110481262207031e-01
-9.655626863241195679e-02
-7.736190408468246460e-02
-5.671655014157295227e-02
-1.110496148467063904e-01
7.843534462153911591e-03
-1.810521632432937622e-01
-3.843697011470794678e-01
-1.153820753097534180e-02
-6.842456758022308350e-02
-6.445070356130599976e-02
-5.756389722228050232e-02
-4.181959480047225952e-02
-4.664209187030792236e-01
-3.117825984954833984e-01
-1.639714837074279785e-01
-2.274408489465713501e-01
-9.348991326987743378e-03
-8.786263316869735718e-02
5.429676547646522522e-02
-9.538104385137557983e-02
-5.363127216696739197e-02
-1.272365748882293701e-01
-2.973119728267192841e-02
3.437680378556251526e-02
1.377230044454336166e-02
-5.594254005700349808e-03
5.693373084068298340e-02
-1.095563098788261414e-01
-5.188447609543800354e-02
4.567057825624942780e-03
-1.203424558043479919e-01
-2.418829314410686493e-02
-8.585393428802490234e-02
-6.044699251651763916e-02
-6.344316899776458740e-02
-1.118127480149269104e-01
4.415669292211532593e-02
-2.754532396793365479e-01
-3.323017060756683350e-02
-7.061803340911865234e-02
9.832623414695262909e-03
-3.096954710781574249e-02
-1.837236061692237854e-02
-3.375891968607902527e-02
-4.214944317936897278e-02
-5.564118176698684692e-02
-3.146261721849441528e-02
-6.354804337024688721e-02
-3.392834216356277466e-02
-7.607363164424896240e-02
-8.749455213546752930e-02
4.294914007186889648e-02
3.693411499261856079e-02
2.074986929073929787e-03
1.022095680236816406e-01
-1.321594864130020142e-01
7.270781695842742920e-02
-5.215211957693099976e-02
-8.564458042383193970e-02
7.250605523586273193e-02
-6.009682547301054001e-03
-4.070596396923065186e-01
-5.954151749610900879e-01
-4.705239459872245789e-02
-1.124381661415100098e+00
-6.126475930213928223e-01
-2.267800807952880859e+00
-1.602092236280441284e-01
-2.582260966300964355e-01
-2.556277811527252197e-01
-1.759636402130126953e-01
-2.308434545993804932e-01
-5.943017601966857910e-01
-3.700214922428131104e-01
-2.420223802328109741e-01
-6.672521680593490601e-02
-1.794221438467502594e-02
-4.246549904346466064e-01
-2.320634841918945312e+00
-2.695944905281066895e-01
-6.833292841911315918e-01
-7.847468256950378418e-01
-1.222883939743041992e+00
-2.365386635065078735e-01
-7.205680012702941895e-01
-2.926275134086608887e-01
6.207622587680816650e-02
-5.571654438972473145e-01
-1.033996701240539551e+00
-6.525784134864807129e-01
-1.144546389579772949e+00
-5.954033136367797852e-01
-1.047057747840881348e+00
-3.452630043029785156e-01
1.086575910449028015e-01
-9.313638210296630859e-01
-6.881298422813415527e-01
-1.946262419223785400e-01
-7.365061640739440918e-01
-1.722463518381118774e-01
-8.205205947160720825e-02
-1.951351910829544067e-01
-1.961534470319747925e-01
-5.823679566383361816e-01
-3.225208818912506104e-01
-1.514916539192199707e+00
-4.097900092601776123e-01
-5.956363081932067871e-01
-1.871306300163269043e-01
-5.426313281059265137e-01
-4.084989726543426514e-01
-3.298931419849395752e-01
-3.902907669544219971e-01
-4.282179288566112518e-03
-1.156077623367309570e+00
-1.480931162834167480e+00
-2.602186203002929688e+00
-5.416238903999328613e-01
-7.938037514686584473e-01
-1.090022444725036621e+00
-5.208473801612854004e-01
-2.613601982593536377e-01
9.406147897243499756e-02
-5.089387893676757812e-01
-9.705018401145935059e-01
-1.885150908492505550e-03
1.098558828234672546e-01
-9.037528187036514282e-02
2.619905211031436920e-02
-1.242157816886901855e-01
-2.968379110097885132e-02
-3.053911328315734863e-01
2.256931178271770477e-02
-3.225784301757812500e-01
-3.100421428680419922e-01
3.452930104685947299e-05
1.298002619296312332e-02
-9.147215485572814941e-01
-1.360628902912139893e-01
-2.968833148479461670e-01
-9.469516575336456299e-02
-9.757161140441894531e-03
8.986897766590118408e-02
-5.807881429791450500e-02
-2.070848271250724792e-02
-5.325461030006408691e-01
-1.103792786598205566e-01
-4.655592143535614014e-01
5.633204802870750427e-02
-8.344204252352938056e-05
-3.920807540416717529e-01
-3.203688189387321472e-02
-2.506158351898193359e-01
3.653984144330024719e-02
5.604990199208259583e-02
-1.211652532219886780e-01
-3.347496269270777702e-03
-7.919803261756896973e-02
-1.992436498403549194e-01
1.014245748519897461e-01
6.730484892614185810e-04
-9.658060222864151001e-02
-2.308883368968963623e-01
-2.426782995462417603e-01
-1.789001934230327606e-02
-1.887370049953460693e-01
-3.017691373825073242e-01
-2.820155322551727295e-01
-6.095122173428535461e-02
1.502299588173627853e-02
1.453343182802200317e-01
-1.280944515019655228e-02
9.659451246261596680e-02
9.940854460000991821e-02
-7.006968557834625244e-02
-4.322158545255661011e-02
-3.695236518979072571e-02
-9.262046962976455688e-02
2.899723500013351440e-02
-8.033243007957935333e-03
-1.161043345928192139e-01
-1.267309673130512238e-02
2.911443263292312622e-02
-8.351848274469375610e-02
8.699437975883483887e-02
-1.295594871044158936e-01
-1.217359229922294617e-01
-3.718492388725280762e-02
-2.074854969978332520e-01
1.223319694399833679e-01
5.152789875864982605e-02
-6.096468567848205566e-01
-6.138304248452186584e-02
-7.892569154500961304e-02
6.674289703369140625e-02
-2.637530267238616943e-01
1.539763063192367554e-03
-4.615944027900695801e-01
-8.953503370285034180e-01
-8.661043643951416016e-02
1.834019646048545837e-02
-2.473017275333404541e-01
-1.635612361133098602e-02
-3.141178190708160400e-01
-3.782522082328796387e-01
-2.753375172615051270e-01
-1.044759824872016907e-01
-1.055006608366966248e-01
-5.273858457803726196e-02
-1.856813579797744751e-01
7.679419126361608505e-03
-1.763986051082611084e-01
-2.125452458858489990e-02
6.422840803861618042e-02
-2.352428734302520752e-01
-3.961358219385147095e-02
-4.890239611268043518e-02
-6.986261159181594849e-02
5.849397927522659302e-02
4.653190448880195618e-02
-5.190782621502876282e-02
1.987856626510620117e-02
-2.270375937223434448e-01
-1.384116858243942261e-01
-6.104893609881401062e-02
-1.602091640233993530e-02
-4.588835686445236206e-02
-8.617900311946868896e-02
-5.998774990439414978e-02
-1.328248232603073120e-01
-4.699648171663284302e-02
-1.570594608783721924e-01
-3.649799153208732605e-02
-1.053073331713676453e-01
2.770676463842391968e-02
-6.837834417819976807e-02
5.431251600384712219e-02
2.503659203648567200e-02
-4.939123243093490601e-02
1.258178502321243286e-01
2.987003512680530548e-02
-1.601062566041946411e-01
8.321912027895450592e-03
6.427660118788480759e-03
6.025646626949310303e-02
-5.194781813770532608e-03
-2.788526937365531921e-02
-1.268680989742279053e-01
2.617566846311092377e-02
-3.907220959663391113e-01
-1.609127223491668701e-01
3.696747124195098877e-02
-1.011342257261276245e-01
2.852813899517059326e-02
3.994537051767110825e-03
-5.943126678466796875e-01
-1.215576454997062683e-01
-1.962606050074100494e-02
-2.740533463656902313e-02
-2.055549025535583496e-01
-3.952919319272041321e-02
-4.914619401097297668e-02
-5.079140663146972656e-01
-2.462867088615894318e-02
4.278386384248733521e-02
-1.865301877260208130e-01
-2.095925509929656982e-01
-8.166605979204177856e-02
-6.514855474233627319e-02
-1.597269773483276367e-01
4.383289813995361328e-02
-3.174131810665130615e-01
-1.351127773523330688e-02
-1.588473916053771973e-01
-9.757869690656661987e-02
-9.881051629781723022e-02
2.494307793676853180e-02
3.557553887367248535e-02
-1.792950481176376343e-01
-9.127113223075866699e-02
-6.023748964071273804e-02
-1.532999575138092041e-01
-8.731130510568618774e-02
8.025491982698440552e-02
-7.809764146804809570e-02
8.197822421789169312e-02
-1.536123007535934448e-01
-1.717445999383926392e-02
7.852338254451751709e-03
1.296043992042541504e-01
-1.297764927148818970e-01
-1.554330587387084961e-01
1.672799885272979736e-02
-4.637371599674224854e-01
8.417031168937683105e-02
-1.246541514992713928e-01
-1.297266632318496704e-01
9.443237632513046265e-02
5.558633804321289062e-02
-4.337199032306671143e-02
-4.925952479243278503e-02
2.442435547709465027e-02
-7.958194613456726074e-02
5.232620984315872192e-02
-1.031177118420600891e-01
-3.913335204124450684e-01
2.413106849417090416e-03
1.805525831878185272e-02
-1.161016151309013367e-01
-1.159281879663467407e-01
-3.699894994497299194e-02
-1.642632037401199341e-01
-6.992559134960174561e-02
-8.404563367366790771e-02
-1.981658041477203369e-01
6.835580617189407349e-02
-1.362858712673187256e-01
3.051085025072097778e-02
-2.799410372972488403e-03
-3.173848688602447510e-01
5.205064266920089722e-02
-7.063674181699752808e-02
-2.877143211662769318e-02
-2.487908005714416504e-01
2.352299541234970093e-02
-2.564308941364288330e-01
-3.858484923839569092e-01
-1.190793141722679138e-01
5.982378497719764709e-02
-2.303354442119598389e-01
-2.462637796998023987e-02
-9.693042188882827759e-02
-1.072962954640388489e-01
-9.865534305572509766e-02
7.128798216581344604e-02
-8.269741386175155640e-02
-2.014767751097679138e-02
-5.392303317785263062e-02
-3.391128033399581909e-02
-1.691548973321914673e-01
6.645906716585159302e-02
1.383648365736007690e-01
-8.437859266996383667e-02
-4.561091959476470947e-02
-1.184339523315429688e-01
-1.118174344301223755e-01
5.706166476011276245e-02
3.785534948110580444e-02
6.895629316568374634e-02
-1.862791739404201508e-02
-3.690842986106872559e-01
1.912734843790531158e-02
-1.442834883928298950e-01
-4.892022907733917236e-02
-1.694902181625366211e-01
-1.928788572549819946e-01
6.623002141714096069e-02
-1.522844098508358002e-02
-3.085331022739410400e-01
-1.186758503317832947e-01
-3.477052319794893265e-03
3.318257257342338562e-02
-3.213539021089673042e-03
1.039285492151975632e-02
-8.222314715385437012e-02
1.334756165742874146e-01
-9.871245920658111572e-02
9.473629295825958252e-02
1.271526515483856201e-02
-4.022135585546493530e-02
6.097836047410964966e-02
-7.959965616464614868e-02
-1.473572701215744019e-01
-8.883890509605407715e-02
-2.355233579874038696e-02
-1.326257437467575073e-01
2.071291673928499222e-03
-1.359595209360122681e-01
-2.027282863855361938e-01
-1.888823322951793671e-02
-2.025348693132400513e-01
