1.135652419179677963e-02
3.646183758974075317e-02
4.909942671656608582e-02
2.609184384346008301e-02
-2.869634144008159637e-02
1.995087368413805962e-03
-3.234316408634185791e-02
3.069621324539184570e-02
-1.460171677172183990e-02
-4.009283334016799927e-02
-1.731912232935428619e-02
-4.831927362829446793e-03
-4.287016391754150391e-02
-7.013668864965438843e-02
-5.597181245684623718e-02
-3.830398991703987122e-02
-2.405737526714801788e-02
-2.363399788737297058e-02
-2.303506061434745789e-02
-4.286787658929824829e-02
-1.134273945353925228e-03
6.515230983495712280e-02
1.826992332935333252e-01
1.856335550546646118e-01
1.110570952296257019e-01
1.779792457818984985e-02
7.240565121173858643e-02
5.779797956347465515e-02
1.790089905261993408e-01
2.052252888679504395e-01
3.609762787818908691e-01
5.849342942237854004e-01
-2.535224258899688721e-01
-2.036201804876327515e-01
-1.468735933303833008e-01
-1.093943640589714050e-01
-1.576234102249145508e-01
-1.112354174256324768e-01
4.971248656511306763e-02
-8.362288028001785278e-02
-1.238880455493927002e-01
-9.600523859262466431e-02
6.926967948675155640e-02
-6.042631715536117554e-02
5.268103443086147308e-03
-8.808390796184539795e-02
-1.385303139686584473e-01
-9.705324470996856689e-02
-1.495490819215774536e-01
-2.738848924636840820e-01
-2.760740816593170166e-01
-6.149795278906822205e-02
5.763213336467742920e-02
8.052392303943634033e-02
-4.840817674994468689e-02
-4.528700932860374451e-02
-2.480967044830322266e-01
-2.933674454689025879e-01
-1.828854382038116455e-01
-1.789407879114151001e-01
-1.074037551879882812e-01
-6.785387545824050903e-02
3.519607335329055786e-02
1.445556879043579102e-01
4.823591187596321106e-02
6.882327795028686523e-02
1.013991758227348328e-01
1.450066119432449341e-01
1.461119800806045532e-01
1.443896740674972534e-01
2.163279503583908081e-01
1.023244187235832214e-01
1.470745801925659180e-01
1.011418476700782776e-01
7.548707723617553711e-02
2.186879282817244530e-03
-7.358177751302719116e-02
1.232240274548530579e-01
9.019993245601654053e-02
3.555313870310783386e-02
1.409372538328170776e-01
-4.129224270582199097e-02
1.031270995736122131e-01
4.107639193534851074e-03
-1.987840794026851654e-02
-1.094499230384826660e-01
-7.548630237579345703e-02
1.649498790502548218e-01
1.616722494363784790e-01
2.661398053169250488e-01
3.160673975944519043e-01
1.226878389716148376e-01
2.431974411010742188e-01
2.516111359000205994e-02
-1.935050822794437408e-02
-1.532350182533264160e-01
5.240107700228691101e-02
-1.593300849199295044e-01
-1.433048695325851440e-01
1.450814008712768555e-01
1.541609019041061401e-01
-1.065568998456001282e-02
-1.092855334281921387e-01
-2.074214965105056763e-01
-2.941606044769287109e-01
-3.199332356452941895e-01
-4.087396264076232910e-01
-4.190256595611572266e-01
-3.020856380462646484e-01
-1.324317455291748047e-01
-2.600222080945968628e-02
2.892948500812053680e-02
2.526419460773468018e-01
2.281698584556579590e-01
7.723858207464218140e-02
-1.702617295086383820e-02
1.669951528310775757e-01
1.693090796470642090e-01
3.480908274650573730e-01
4.068859517574310303e-01
4.796632826328277588e-01
3.257233202457427979e-01
2.405070662498474121e-01
1.666088849306106567e-01
2.181517779827117920e-01
1.243300884962081909e-01
7.630916684865951538e-02
-2.034833654761314392e-02
2.748183347284793854e-02
2.218339443206787109e-01
2.277839556336402893e-02
-6.256625801324844360e-02
-6.606656312942504883e-02
1.440927013754844666e-02
7.540845125913619995e-02
2.100420594215393066e-01
2.528471946716308594e-01
9.830790013074874878e-02
1.162205860018730164e-01
1.970249861478805542e-01
8.416251838207244873e-02
-2.392038516700267792e-02
2.538734674453735352e-01
3.617556095123291016e-01
4.968268871307373047e-01
3.066731393337249756e-01
3.426369726657867432e-01
2.954902350902557373e-01
6.387901306152343750e-02
2.088413015007972717e-02
1.153843030333518982e-01
2.370643913745880127e-01
2.088861316442489624e-01
1.932926625013351440e-01
1.171549111604690552e-01
3.894153982400894165e-02
6.644968688488006592e-02
3.326566144824028015e-02
-1.056480929255485535e-01
-1.662385165691375732e-01
2.589043676853179932e-01
2.533697485923767090e-01
-1.851970888674259186e-02
1.112978607416152954e-01
-3.039999678730964661e-02
-1.266110986471176147e-01
-2.285757213830947876e-01
-1.670548692345619202e-02
7.196517661213874817e-03
1.472436040639877319e-01
1.559745799750089645e-02
2.081432640552520752e-01
-2.683935314416885376e-02
-8.037357032299041748e-02
-5.171947926282882690e-02
-1.906016469001770020e-01
-1.367325633764266968e-01
-6.014416366815567017e-02
8.212288469076156616e-02
-2.192976884543895721e-02
-7.591243088245391846e-02
-9.524871408939361572e-02
-2.599297761917114258e-01
-7.151850033551454544e-03
8.926655352115631104e-02
-5.634678527712821960e-02
-1.369290202856063843e-01
-2.057637125253677368e-01
-1.368232071399688721e-01
-6.533072143793106079e-02
-1.040590479969978333e-01
-1.427547633647918701e-01
1.759498380124568939e-02
2.234717011451721191e-01
3.196476995944976807e-01
3.855578899383544922e-01
2.032588422298431396e-01
4.096007943153381348e-01
4.184989929199218750e-01
3.279719650745391846e-01
2.134236134588718414e-02
2.735134065151214600e-01
3.463787734508514404e-01
2.532151341438293457e-01
1.101076751947402954e-01
7.337030023336410522e-02
6.896317005157470703e-02
1.766462475061416626e-01
-1.021265387535095215e-01
-1.913645491003990173e-02
5.599922314286231995e-02
5.544792488217353821e-02
-1.265194118022918701e-01
-2.530740201473236084e-01
-1.504813581705093384e-01
-1.515022814273834229e-01
-8.699705451726913452e-02
-2.060559988021850586e-01
-2.497054040431976318e-01
-3.532372117042541504e-01
-2.713889777660369873e-01
-6.505727022886276245e-02
-1.393590867519378662e-01
5.531978234648704529e-02
-5.492099002003669739e-02
-4.483796283602714539e-02
-6.316991895437240601e-02
-6.595619767904281616e-02
-2.867999374866485596e-01
-1.074456125497817993e-01
-1.352051794528961182e-01
-1.632759720087051392e-01
-2.490966469049453735e-01
-3.211829960346221924e-01
-3.205022513866424561e-01
-1.241276711225509644e-01
-6.356421858072280884e-02
-4.068643972277641296e-02
-1.067900508642196655e-01
1.959580555558204651e-02
1.330419629812240601e-01
2.271848320960998535e-01
7.414460927248001099e-02
1.073440313339233398e-01
3.729234635829925537e-01
1.681000590324401855e-01
3.663027584552764893e-01
3.013693094253540039e-01
1.304253339767456055e-01
8.692910522222518921e-02
1.437097638845443726e-01
1.373745873570442200e-02
-1.964873373508453369e-01
-1.704415380954742432e-01
-3.437380492687225342e-01
-2.592431306838989258e-01
-8.977270126342773438e-02
-2.218201905488967896e-01
-1.080316379666328430e-01
7.385135442018508911e-02
2.532757520675659180e-01
1.314470022916793823e-01
3.651820588856935501e-05
1.118835508823394775e-01
1.803712248802185059e-01
6.577030569314956665e-02
-1.155954301357269287e-01
-2.480715364217758179e-01
-2.039412595331668854e-02
2.027043327689170837e-02
1.545553952455520630e-01
2.552671730518341064e-01
2.451962828636169434e-01
4.077895283699035645e-01
-3.770992904901504517e-02
-6.690225750207901001e-02
-2.158721387386322021e-01
-2.393200695514678955e-01
-1.799250394105911255e-01
-1.575378924608230591e-01
7.833659648895263672e-03
7.166888564825057983e-02
3.188048303127288818e-02
-2.424481064081192017e-01
-1.048007681965827942e-01
-8.317048661410808563e-03
2.750367112457752228e-02
1.247614547610282898e-01
-2.207254916429519653e-01
-4.324696362018585205e-01
-3.684716820716857910e-01
-2.710227966308593750e-01
-1.535355895757675171e-01
-1.474749892950057983e-01
-1.876242458820343018e-01
-4.616831541061401367e-01
-3.924863934516906738e-01
-3.141082823276519775e-01
-1.391351372003555298e-01
-9.038140997290611267e-03
-8.727660775184631348e-02
-1.574386507272720337e-01
-9.158385917544364929e-03
1.173376739025115967e-01
-7.821084000170230865e-04
-1.970657892525196075e-02
2.699343487620353699e-02
7.821961492300033569e-02
1.074528545141220093e-01
9.364320337772369385e-02
-2.738530188798904419e-02
-8.524498343467712402e-02
-2.525478601455688477e-01
-1.579165309667587280e-01
3.059354797005653381e-02
7.981830090284347534e-02
-1.053906828165054321e-01
6.714542955160140991e-02
3.639312386512756348e-01
2.131995707750320435e-01
1.705596745014190674e-01
-1.037108227610588074e-01
9.880724828690290451e-04
-6.850408390164375305e-03
1.988200992345809937e-01
1.903100162744522095e-01
-1.800439693033695221e-02
4.801575839519500732e-02
-6.259860098361968994e-02
-1.717378348112106323e-01
2.751293182373046875e-01
3.670586943626403809e-01
2.632364332675933838e-01
-4.085461422801017761e-02
2.172119766473770142e-01
2.107200026512145996e-01
2.768203914165496826e-01
2.811759412288665771e-01
2.894080877304077148e-01
2.468180209398269653e-01
-7.412022352218627930e-02
1.419405490159988403e-01
-1.092314999550580978e-02
-1.151435822248458862e-01
-5.412606522440910339e-02
5.673840269446372986e-02
1.280416101217269897e-01
1.327394992113113403e-01
-8.540766313672065735e-03
2.381515204906463623e-01
1.509966552257537842e-01
5.855692178010940552e-02
-2.874751389026641846e-01
-8.489743620157241821e-02
3.312246128916740417e-02
-1.979411020874977112e-02
-9.945232421159744263e-02
1.137612946331501007e-02
-3.945134878158569336e-01
-2.407810278236865997e-02
-2.882777750492095947e-01
-6.458869576454162598e-02
-1.161287277936935425e-01
-3.269979357719421387e-01
-2.217087596654891968e-01
-1.493885666131973267e-01
-2.763162134215235710e-03
9.882911294698715210e-02
2.123038768768310547e-01
8.431224524974822998e-02
-2.803219556808471680e-01
-3.293864130973815918e-01
-4.443276822566986084e-01
-1.181882470846176147e-01
-3.628038167953491211e-01
-1.518831700086593628e-01
9.427126497030258179e-03
2.420814186334609985e-01
6.445538252592086792e-02
6.245561316609382629e-02
-4.849901795387268066e-02
8.877414464950561523e-02
5.284490063786506653e-02
2.628624737262725830e-01
-5.214315280318260193e-02
-1.481806039810180664e-01
-2.359849959611892700e-01
-7.696241140365600586e-02
-3.552718460559844971e-01
-6.693504005670547485e-02
-1.486749202013015747e-01
-3.453089669346809387e-02
-1.118614226579666138e-01
-3.263758029788732529e-03
7.159785181283950806e-02
-1.239915266633033752e-01
1.320323348045349121e-01
-1.674812585115432739e-01
-3.335285484790802002e-01
-3.305248022079467773e-01
-1.641050577163696289e-01
7.942934334278106689e-02
-1.639435291290283203e-01
-4.829872399568557739e-02
-2.322738766670227051e-01
-4.607565328478813171e-02
-1.291923075914382935e-01
-1.286913007497787476e-01
2.861434407532215118e-02
2.368800044059753418e-01
2.710929512977600098e-01
3.022684454917907715e-01
1.415321826934814453e-01
-1.182467415928840637e-01
-2.261746674776077271e-01
-4.249389469623565674e-01
-1.504647284746170044e-01
6.173895671963691711e-02
-1.812008172273635864e-01
-1.480534821748733521e-01
-2.596463561058044434e-01
-9.309823811054229736e-02
2.924514003098011017e-02
9.250554442405700684e-02
1.130084842443466187e-01
-1.706603318452835083e-01
1.031245365738868713e-01
4.848346114158630371e-02
1.896693855524063110e-01
-3.483652323484420776e-02
-4.636012017726898193e-02
-2.172127217054367065e-01
-2.092981636524200439e-01
-1.725559234619140625e-01
1.072640158236026764e-02
-8.494715392589569092e-02
-8.930404484272003174e-02
3.850086405873298645e-02
-6.976061314344406128e-02
-1.013024598360061646e-01
-6.828444451093673706e-02
-4.123738408088684082e-02
1.244808435440063477e-01
2.239668965339660645e-01
2.187931388616561890e-01
-4.556606337428092957e-02
-1.787855327129364014e-01
-4.257166013121604919e-02
3.086002171039581299e-01
1.752372235059738159e-01
1.991880089044570923e-01
2.722289562225341797e-01
4.017848670482635498e-01
2.208149433135986328e-01
2.064907103776931763e-01
1.983174532651901245e-01
-3.388210013508796692e-02
5.928037688136100769e-02
2.325637191534042358e-01
2.683274745941162109e-01
5.355560183525085449e-01
4.834277629852294922e-01
2.850061655044555664e-01
3.189195990562438965e-01
1.888950318098068237e-01
1.716040968894958496e-01
3.727459907531738281e-01
1.882017850875854492e-01
3.143975436687469482e-01
1.290365606546401978e-01
3.676266968250274658e-02
7.339461147785186768e-02
7.652025669813156128e-02
-4.272728040814399719e-02
-1.401363015174865723e-01
4.000119492411613464e-02
7.646380364894866943e-02
-3.108820132911205292e-02
5.473175272345542908e-02
1.181029006838798523e-01
1.066752150654792786e-01
-3.409335017204284668e-01
-3.644049763679504395e-01
-1.484735757112503052e-01
-3.190475106239318848e-01
-3.801738023757934570e-01
-6.782305240631103516e-02
3.592016547918319702e-02
8.044307678937911987e-02
7.251725345849990845e-02
2.885718941688537598e-01
-7.682330161333084106e-02
-1.304074227809906006e-01
1.629108041524887085e-01
-3.836286813020706177e-02
1.472076028585433960e-01
2.612893097102642059e-02
-1.211909484118223190e-02
-1.479391604661941528e-01
-8.616577833890914917e-02
-1.234003901481628418e-01
-2.464359402656555176e-01
2.352857775986194611e-02
-6.019398570060729980e-02
-5.622158199548721313e-02
1.588375866413116455e-01
3.996655941009521484e-01
1.893885135650634766e-01
1.258131489157676697e-02
-2.057262696325778961e-02
9.035342931747436523e-02
5.897863581776618958e-02
9.133540838956832886e-02
1.117227785289287567e-02
8.312992006540298462e-02
1.549795120954513550e-01
3.541024029254913330e-01
2.547647356986999512e-01
1.185594797134399414e-01
2.233962267637252808e-01
3.471267595887184143e-02
1.489113420248031616e-01
1.331247836351394653e-01
8.234182745218276978e-02
-2.712216600775718689e-02
-7.498324662446975708e-02
-5.759736523032188416e-02
1.638987660408020020e-01
1.040352284908294678e-01
-8.300538361072540283e-02
-2.457027137279510498e-01
-3.156721293926239014e-01
-2.992860414087772369e-02
2.109574675559997559e-01
-7.915885746479034424e-02
-3.413555622100830078e-01
-4.247376322746276855e-01
6.177374720573425293e-02
2.751324176788330078e-01
1.730915755033493042e-01
9.885242581367492676e-02
8.942614495754241943e-02
-6.044556200504302979e-02
9.947682172060012817e-02
-2.929344773292541504e-01
-4.769109487533569336e-01
-5.532348901033401489e-02
-9.025734663009643555e-02
1.202066391706466675e-01
1.065363958477973938e-01
-1.354611068964004517e-01
-3.912227600812911987e-02
-3.621951118111610413e-02
-1.392812579870223999e-01
-2.542912364006042480e-01
-1.655490547418594360e-01
1.469891369342803955e-01
-4.249460995197296143e-01
-2.090246677398681641e-01
-1.974475234746932983e-01
9.398680925369262695e-02
1.149159111082553864e-02
2.559243738651275635e-01
-1.852902024984359741e-01
7.715851068496704102e-02
1.884155422449111938e-01
-3.056738674640655518e-01
-3.998290300369262695e-01
-1.181446164846420288e-01
2.811878547072410583e-02
6.564589589834213257e-02
7.980254292488098145e-02
-3.603258728981018066e-02
-1.646564304828643799e-01
-1.890546679496765137e-01
-2.131922841072082520e-01
5.621646996587514877e-03
3.099447190761566162e-01
3.862989842891693115e-01
2.355145663022994995e-01
1.261735707521438599e-01
3.997806832194328308e-02
-1.955764591693878174e-01
-2.057772874832153320e-01
-1.150742769241333008e-01
-1.871989965438842773e-01
-1.381605863571166992e-01
-1.568749099969863892e-01
-3.815092891454696655e-02
-1.380742620676755905e-02
2.273483127355575562e-01
-8.687076717615127563e-02
-9.977935254573822021e-02
2.642886936664581299e-01
8.847945928573608398e-02
7.284356653690338135e-02
-1.384547203779220581e-01
-7.760629057884216309e-02
-9.853685647249221802e-02
-3.224706277251243591e-02
8.216117322444915771e-02
3.016726858913898468e-02
-1.170867085456848145e-01
-8.883968740701675415e-02
-2.261438816785812378e-01
-1.255574077367782593e-01
-8.299632370471954346e-02
6.099945679306983948e-02
9.693312644958496094e-02
-2.360405027866363525e-02
-1.787368357181549072e-01
-7.316669821739196777e-02
-1.318431198596954346e-01
1.039486974477767944e-01
-2.399818599224090576e-01
-3.693088293075561523e-01
-2.216575443744659424e-01
-4.185148477554321289e-01
-1.550746560096740723e-01
-2.357331365346908569e-01
-1.998631805181503296e-01
-2.721007913351058960e-03
1.936476379632949829e-01
7.859908789396286011e-02
1.417997330427169800e-01
8.610252290964126587e-02
-2.192107886075973511e-01
-1.421885043382644653e-01
-1.391431689262390137e-01
4.462589323520660400e-02
4.227565228939056396e-02
-5.839597433805465698e-03
2.285328209400177002e-01
2.469213753938674927e-01
1.299917511641979218e-02
-3.176632821559906006e-01
-1.583442687988281250e-01
-9.555232524871826172e-02
-1.283886432647705078e-01
-4.031049907207489014e-01
5.068841576576232910e-01
-7.576108723878860474e-02
9.630461037158966064e-02
6.032674107700586319e-03
-1.522508859634399414e-01
-1.040549250319600105e-03
-4.968659207224845886e-02
1.340902596712112427e-01
-1.976242065429687500e-01
-1.550083607435226440e-01
-1.960702240467071533e-01
1.510396152734756470e-01
-1.027134954929351807e-01
-1.734981872141361237e-02
2.433176487684249878e-01
2.591382563114166260e-01
3.008036017417907715e-01
4.599885940551757812e-01
1.352964192628860474e-01
-1.247134208679199219e-01
8.443625271320343018e-02
7.042199373245239258e-02
-1.223776042461395264e-01
-5.934445559978485107e-02
1.784856319427490234e-01
2.625854611396789551e-01
2.959039807319641113e-02
-8.788236975669860840e-02
-3.982051834464073181e-02
7.182884961366653442e-02
1.695683300495147705e-01
-2.233078144490718842e-02
1.619566529989242554e-01
-4.284968376159667969e-01
-2.312930971384048462e-01
-2.641442120075225830e-01
-7.706538308411836624e-04
-3.986194431781768799e-01
-1.426007002592086792e-01
2.660713717341423035e-02
2.324817031621932983e-01
1.751758507452905178e-03
-1.645424067974090576e-01
-8.815901353955268860e-03
-2.204295992851257324e-02
-3.793927431106567383e-01
-1.705063693225383759e-02
4.762385040521621704e-02
9.900745749473571777e-02
3.158688545227050781e-01
4.462969005107879639e-01
2.019151002168655396e-01
2.173877805471420288e-01
1.179133579134941101e-01
1.294167488813400269e-01
4.681077972054481506e-02
-3.364823991432785988e-03
4.495793581008911133e-02
-2.213206440210342407e-01
-2.594307661056518555e-01
-1.555802524089813232e-01
1.150529831647872925e-01
1.539868265390396118e-01
5.854451060295104980e-01
3.611266613006591797e-02
-3.317167609930038452e-02
1.908854842185974121e-01
2.234946191310882568e-01
2.555477991700172424e-02
-1.624818146228790283e-02
-1.373830251395702362e-02
1.697845607995986938e-01
2.914061248302459717e-01
7.569391280412673950e-02
1.278341263532638550e-01
2.923056483268737793e-02
2.262178510427474976e-01
-1.754960268735885620e-01
6.521631032228469849e-02
5.645019933581352234e-02
-1.444319188594818115e-01
-1.720670312643051147e-01
-9.304118342697620392e-03
3.118611276149749756e-01
1.048822402954101562e-01
8.622269332408905029e-02
1.024064272642135620e-01
1.650816202163696289e-01
2.524724006652832031e-01
1.138269081711769104e-01
7.627659291028976440e-02
7.284038513898849487e-02
9.460395574569702148e-02
-1.287057399749755859e-01
-2.204979956150054932e-02
2.259997576475143433e-01
-7.144495844841003418e-02
3.686476126313209534e-02
-9.759623557329177856e-02
-2.536347806453704834e-01
-4.613386094570159912e-02
-9.302264451980590820e-02
8.130490034818649292e-02
-2.654476463794708252e-01
4.887654446065425873e-03
-2.399241775274276733e-01
-6.009460613131523132e-02
1.443062275648117065e-01
-2.277603838592767715e-03
-2.699023783206939697e-01
-2.595211863517761230e-01
-4.630162715911865234e-01
-2.770465612411499023e-01
-2.637189924716949463e-01
-1.707681715488433838e-01
1.091189086437225342e-01
-2.272963374853134155e-01
-2.261083722114562988e-01
7.320653647184371948e-02
-9.382440149784088135e-02
-1.320835947990417480e-01
1.487293629907071590e-04
-1.585688441991806030e-01
-1.331950724124908447e-01
-8.206201344728469849e-02
-2.348289042711257935e-01
8.158890902996063232e-02
1.113240718841552734e-01
-3.692725002765655518e-01
-6.282471865415573120e-02
-2.871602773666381836e-01
-3.922982215881347656e-01
-1.481010019779205322e-01
-3.752129077911376953e-01
-7.543648779392242432e-02
-2.020240873098373413e-01
6.009303033351898193e-02
-4.709070920944213867e-02
-2.488767653703689575e-01
-2.449160665273666382e-01
8.997717499732971191e-02
-1.452070623636245728e-01
-2.528700232505798340e-01
1.546025574207305908e-01
4.181590974330902100e-01
6.628867238759994507e-02
8.979053050279617310e-02
3.618877232074737549e-01
1.204678863286972046e-01
1.289773285388946533e-01
1.329535245895385742e-01
3.800857439637184143e-02
3.497482463717460632e-02
-3.169369399547576904e-01
-5.128282308578491211e-02
-8.448591083288192749e-02
-2.259165495634078979e-01
-2.953359484672546387e-01
-1.261069923639297485e-01
-2.099537253379821777e-01
-4.767382144927978516e-01
-5.647981911897659302e-02
6.673963367938995361e-02
2.515258789062500000e-01
-1.594566106796264648e-01
-3.433333039283752441e-01
-1.685583293437957764e-01
-2.374460250139236450e-01
-1.443376094102859497e-01
-5.569130182266235352e-02
-2.367256879806518555e-01
-8.546449244022369385e-02
1.030846834182739258e-01
-1.983148306608200073e-01
-3.072602152824401855e-01
2.300631999969482422e-01
1.571354717016220093e-01
1.413698047399520874e-01
-2.406950145959854126e-01
2.551488876342773438e-01
1.313129216432571411e-01
2.515771389007568359e-01
2.494692802429199219e-01
1.384213417768478394e-01
-9.793096780776977539e-02
-1.965532898902893066e-01
3.884612768888473511e-02
2.795888781547546387e-01
1.172519028186798096e-01
1.775524467229843140e-01
2.752678692340850830e-01
-1.091474369168281555e-01
-2.548919916152954102e-01
-1.972611695528030396e-01
2.756225168704986572e-01
1.564280986785888672e-01
-5.194824188947677612e-02
-2.855574786663055420e-01
-4.626059532165527344e-01
-9.540718048810958862e-02
-3.155557811260223389e-02
1.484369486570358276e-01
2.959332801401615143e-02
-1.233460158109664917e-01
-6.995847076177597046e-02
9.459358453750610352e-02
8.244083821773529053e-02
1.533160954713821411e-01
-1.866427361965179443e-01
-2.926681563258171082e-02
-7.666173577308654785e-02
3.113604485988616943e-01
8.613676577806472778e-02
3.533053398132324219e-01
2.784708440303802490e-01
2.382765114307403564e-01
8.134568482637405396e-02
1.996190287172794342e-02
3.485250771045684814e-01
3.158547878265380859e-01
1.834715604782104492e-01
3.158361315727233887e-01
5.388432741165161133e-01
1.201440766453742981e-01
-3.747293949127197266e-01
3.113396763801574707e-01
2.636846005916595459e-01
-2.393819242715835571e-01
-2.212752252817153931e-01
1.677362024784088135e-01
1.109099909663200378e-01
9.871020168066024780e-02
9.979412704706192017e-02
3.194342553615570068e-02
2.371907681226730347e-01
1.184647306799888611e-01
1.711576581001281738e-01
3.630398586392402649e-02
-7.077373564243316650e-02
-6.976384902372956276e-04
-4.616461694240570068e-01
-3.847211897373199463e-01
-3.396008312702178955e-01
1.981620192527770996e-01
3.950269520282745361e-01
3.570895493030548096e-01
3.825766742229461670e-01
1.915205717086791992e-01
7.463860511779785156e-02
1.444031447172164917e-01
3.658359050750732422e-01
2.436918467283248901e-01
3.122492730617523193e-01
1.476150453090667725e-01
5.686327815055847168e-01
3.422323465347290039e-01
4.490200057625770569e-02
1.946624219417572021e-01
1.809475384652614594e-02
-3.884451985359191895e-01
-3.102683424949645996e-01
3.961453586816787720e-02
8.331039547920227051e-02
2.736054360866546631e-01
3.583620861172676086e-02
-6.798734515905380249e-02
1.400724798440933228e-01
-1.083143278956413269e-01
1.813695728778839111e-01
1.452268809080123901e-01
1.686835438013076782e-01
-1.037477627396583557e-01
-1.443079300224781036e-02
-1.499206125736236572e-01
2.138473540544509888e-01
5.556761845946311951e-02
1.404186338186264038e-01
2.257362753152847290e-01
1.776043623685836792e-01
9.559888392686843872e-02
-1.003683730959892273e-01
1.447010189294815063e-01
1.275620758533477783e-01
1.921062022447586060e-01
8.443368226289749146e-02
7.318585366010665894e-02
2.831853032112121582e-01
4.079436957836151123e-01
1.086425259709358215e-01
-4.228029549121856689e-01
-7.263807207345962524e-02
-5.210912600159645081e-02
-2.409547418355941772e-01
1.030813977122306824e-01
2.614655345678329468e-02
5.808239057660102844e-02
-4.789105951786041260e-01
-1.196428760886192322e-01
-1.900715976953506470e-01
-1.358653753995895386e-01
-6.493646651506423950e-02
-9.775128215551376343e-02
-2.691878676414489746e-01
-3.881512954831123352e-02
-1.371547281742095947e-01
1.311152428388595581e-01
1.996382772922515869e-01
-1.872971355915069580e-01
1.010829657316207886e-01
9.422478079795837402e-02
1.102855727076530457e-01
6.726549938321113586e-03
-1.700193807482719421e-02
-9.170776233077049255e-03
-2.119045108556747437e-01
-4.783732891082763672e-01
-1.899550110101699829e-01
-2.472086548805236816e-01
-8.012685179710388184e-02
-5.489256605505943298e-02
5.462201237678527832e-01
1.064966097474098206e-01
6.798510998487472534e-02
-3.616149770095944405e-03
3.183485269546508789e-01
3.849624991416931152e-01
-3.333346173167228699e-02
2.638285458087921143e-01
4.114961996674537659e-02
4.176854789257049561e-01
1.213122531771659851e-01
2.768784761428833008e-01
3.377919197082519531e-01
7.388016581535339355e-02
-1.535985711961984634e-02
-1.853534281253814697e-01
-2.821722328662872314e-01
-1.150986626744270325e-01
1.023723557591438293e-02
-2.973298430442810059e-01
-2.012349814176559448e-01
-5.389514937996864319e-02
1.668474227190017700e-01
1.181018427014350891e-01
-3.707945048809051514e-01
4.103366285562515259e-02
2.551380991935729980e-01
7.346230745315551758e-02
-1.386934965848922729e-01
9.426216781139373779e-02
2.467978745698928833e-01
2.932372987270355225e-01
2.273006737232208252e-01
1.491804867982864380e-01
-6.173833832144737244e-02
-1.503554433584213257e-01
1.545922160148620605e-01
1.445811390876770020e-01
-8.574621379375457764e-02
1.144027188420295715e-01
2.760951817035675049e-01
-1.153673529624938965e-01
-3.103356659412384033e-01
1.490282118320465088e-01
3.812030851840972900e-01
-1.470178812742233276e-01
1.169705912470817566e-01
-2.905305922031402588e-01
-1.140719354152679443e-01
2.543785981833934784e-02
-5.557418614625930786e-02
3.389938920736312866e-02
-1.786132752895355225e-01
-3.047834038734436035e-01
-3.157350122928619385e-01
1.289523541927337646e-01
-8.343601226806640625e-02
-8.582170307636260986e-02
4.224107563495635986e-01
3.381911814212799072e-01
2.946271002292633057e-01
4.504507184028625488e-01
6.296245753765106201e-02
1.040544360876083374e-01
3.880812227725982666e-01
1.635891944169998169e-01
1.938157081604003906e-01
3.698869347572326660e-01
-1.524886637926101685e-01
-2.865895032882690430e-01
7.462508231401443481e-02
-1.595281362533569336e-01
4.231113195419311523e-02
-7.374404072761535645e-01
-4.810366034507751465e-01
-2.600825764238834381e-02
-1.388862580060958862e-01
-2.163896411657333374e-01
-2.488175034523010254e-01
-2.073718309402465820e-01
-1.673832163214683533e-02
3.178593218326568604e-01
-6.397215276956558228e-02
8.764071762561798096e-02
-1.017130389809608459e-01
-3.697418570518493652e-01
-4.031625986099243164e-01
-1.945763975381851196e-01
-9.553506225347518921e-02
-9.319860488176345825e-02
1.482182145118713379e-01
3.268418088555335999e-02
-5.144520103931427002e-02
1.008299738168716431e-01
2.140708267688751221e-02
4.469613730907440186e-01
8.063603192567825317e-02
1.541210245341062546e-02
2.917704880237579346e-01
-2.313984334468841553e-01
-1.287631839513778687e-01
-3.237337470054626465e-01
-1.764414906501770020e-01
-6.923622637987136841e-02
-3.713588118553161621e-01
-4.884310066699981689e-01
-2.743408083915710449e-01
-2.011470198631286621e-01
-6.417779326438903809e-01
-3.306809067726135254e-01
-3.773863017559051514e-01
-9.129617363214492798e-02
1.883101612329483032e-01
-6.426989287137985229e-02
7.409572601318359375e-03
2.489140778779983521e-01
6.614647805690765381e-02
-1.414893567562103271e-01
2.553813457489013672e-01
2.047438323497772217e-01
1.115857958793640137e-01
-1.121160313487052917e-01
-6.755601614713668823e-02
-1.678592413663864136e-01
-1.519980579614639282e-01
1.483240276575088501e-01
2.640935480594635010e-01
3.190914094448089600e-01
2.358045130968093872e-01
2.135147899389266968e-01
4.805467426776885986e-01
1.655508577823638916e-01
-1.135481335222721100e-02
2.656385898590087891e-01
-2.276136353611946106e-02
2.350035905838012695e-01
-8.511494100093841553e-02
1.250929981470108032e-01
-1.930163353681564331e-01
1.534065455198287964e-01
-1.773566901683807373e-01
-2.657646536827087402e-01
-2.357124239206314087e-01
3.236123919486999512e-01
1.939184032380580902e-02
-9.174588322639465332e-02
2.493086270987987518e-02
2.085340619087219238e-01
3.805454820394515991e-02
6.866283714771270752e-02
3.422465622425079346e-01
1.501760929822921753e-01
1.498019695281982422e-02
1.918782740831375122e-01
1.533335298299789429e-01
-1.872549951076507568e-01
1.722928583621978760e-01
3.180486559867858887e-01
1.659847795963287354e-01
3.487770855426788330e-01
3.885547444224357605e-02
-1.952695548534393311e-01
-1.133548915386199951e-01
-1.693825721740722656e-01
-3.350102156400680542e-02
-1.130750998854637146e-01
8.896257728338241577e-02
6.452037394046783447e-02
-6.431338936090469360e-02
4.826212301850318909e-03
1.519710719585418701e-01
1.101047396659851074e-01
1.496573388576507568e-01
-9.810832142829895020e-02
-1.580002345144748688e-02
2.909845113754272461e-01
-2.295405566692352295e-01
-8.667656779289245605e-02
7.027589529752731323e-02
2.326276712119579315e-02
-1.081718057394027710e-01
-2.422701753675937653e-02
2.222649008035659790e-01
3.811429738998413086e-01
-8.838357031345367432e-02
3.084680736064910889e-01
5.413326621055603027e-02
-7.801041752099990845e-02
5.350499972701072693e-02
2.987404763698577881e-01
8.431032299995422363e-02
4.268763065338134766e-01
3.954800590872764587e-02
-4.131705164909362793e-01
-6.023927032947540283e-02
-1.249504685401916504e-01
-9.644325077533721924e-02
-1.443267464637756348e-01
-4.060329794883728027e-01
-3.386583626270294189e-01
-3.915085196495056152e-01
2.416803538799285889e-01
3.608047664165496826e-01
1.197236627340316772e-01
-1.028850823640823364e-01
-1.702668219804763794e-01
-4.474106132984161377e-01
-2.668574154376983643e-01
-3.523976802825927734e-01
-3.537997901439666748e-01
-3.215403258800506592e-01
-1.276029460132122040e-02
1.716618537902832031e-01
-7.697169203311204910e-03
-2.261303812265396118e-01
-9.243241697549819946e-02
1.079664193093776703e-02
5.944702029228210449e-01
2.358739525079727173e-01
2.389920949935913086e-01
1.071137860417366028e-01
-9.100598096847534180e-02
4.838757589459419250e-02
1.466762572526931763e-01
1.536436527967453003e-01
-3.548706471920013428e-01
-1.557059437036514282e-01
2.439728826284408569e-01
-1.501350998878479004e-01
-3.833407759666442871e-01
2.302401959896087646e-01
-4.099165275692939758e-02
-6.537277251482009888e-03
6.999041885137557983e-02
1.583549827337265015e-01
2.127310037612915039e-01
-1.700716316699981689e-01
-1.508311480283737183e-01
-2.859095036983489990e-01
-3.509795665740966797e-01
-7.775814831256866455e-02
-1.640545204281806946e-03
-1.697625815868377686e-01
-4.078988730907440186e-01
-4.734805524349212646e-01
-3.164474070072174072e-01
-4.072907269001007080e-01
-1.384973526000976562e-01
-1.096264272928237915e-01
-7.506652735173702240e-03
1.789667457342147827e-01
2.437150925397872925e-01
1.529133319854736328e-01
6.021232530474662781e-02
6.354941427707672119e-02
-5.446368455886840820e-02
6.548482924699783325e-02
1.133289188146591187e-01
5.813257768750190735e-02
4.101572632789611816e-01
-1.003520488739013672e-01
-4.363896250724792480e-01
-1.986179649829864502e-01
1.963274925947189331e-01
2.900128066539764404e-02
1.370899975299835205e-01
2.898694574832916260e-01
2.668392658233642578e-01
-1.869236864149570465e-02
-4.064240306615829468e-02
1.425715535879135132e-01
-1.141107156872749329e-01
7.822877168655395508e-02
3.856279551982879639e-01
4.089741781353950500e-02
-9.457942843437194824e-02
-2.095103114843368530e-01
-2.114224433898925781e-01
-1.885520964860916138e-01
-2.847715616226196289e-01
-3.443841263651847839e-02
-1.100873723626136780e-01
1.484622210264205933e-01
2.898297607898712158e-01
-1.148448325693607330e-02
9.514242410659790039e-02
-3.220612928271293640e-02
-2.093694657087326050e-01
1.828894317150115967e-01
1.688180267810821533e-01
-2.662258446216583252e-01
1.803472489118576050e-01
-2.937180995941162109e-01
-2.565017938613891602e-01
-2.275988608598709106e-01
1.459943503141403198e-01
-1.975738257169723511e-01
1.905364394187927246e-01
1.093486845493316650e-01
-2.101034075021743774e-01
-3.270592689514160156e-01
1.046333089470863342e-01
3.956018686294555664e-01
-9.743481874465942383e-02
-1.408855766057968140e-01
1.031034905463457108e-02
3.093481361865997314e-01
-4.247285723686218262e-01
-1.406366229057312012e-01
-2.648660242557525635e-01
-2.542861700057983398e-01
-2.138110250234603882e-01
1.280505359172821045e-01
-1.578705608844757080e-01
-2.086593210697174072e-02
1.886251419782638550e-01
7.160808891057968140e-02
2.707311809062957764e-01
5.749680474400520325e-02
-9.976457059383392334e-02
3.404797241091728210e-02
5.543538182973861694e-02
-2.620127238333225250e-02
-7.605372462421655655e-03
1.064552739262580872e-02
3.742762282490730286e-02
-2.507087774574756622e-02
1.736655272543430328e-02
-1.456403452903032303e-02
-5.503325164318084717e-02
-1.731893047690391541e-02
-2.478763461112976074e-03
-4.733234271407127380e-02
-9.033335745334625244e-02
-1.216535493731498718e-01
-1.166670471429824829e-01
-1.261976361274719238e-01
-1.172319203615188599e-01
-1.506507247686386108e-01
-6.253119558095932007e-02
2.063185349106788635e-02
2.284148484468460083e-01
2.931997776031494141e-01
1.641017049551010132e-01
7.624190300703048706e-03
-5.919551476836204529e-03
-8.751744031906127930e-02
-1.775218918919563293e-02
4.412709176540374756e-02
1.576166749000549316e-01
1.563455909490585327e-01
7.713552564382553101e-02
1.170218214392662048e-01
9.089298546314239502e-02
4.216832295060157776e-02
-2.094698511064052582e-02
-5.753349885344505310e-02
-2.682528644800186157e-02
1.252730786800384521e-01
-2.547942288219928741e-02
1.464743819087743759e-02
6.005831807851791382e-02
-3.840829432010650635e-02
-7.112713158130645752e-02
-1.361808180809020996e-01
-5.513980984687805176e-02
6.695280224084854126e-02
3.613958135247230530e-02
3.409793600440025330e-02
8.248461037874221802e-02
2.266659885644912720e-01
1.196583732962608337e-01
1.394796073436737061e-01
1.692599952220916748e-01
1.689451634883880615e-01
4.951392859220504761e-02
7.246743887662887573e-02
1.008173972368240356e-01
-1.203305870294570923e-01
-2.713824212551116943e-01
-2.789754569530487061e-01
-3.112685084342956543e-01
-4.763451218605041504e-01
-4.781863093376159668e-01
1.335558742284774780e-01
-6.734374910593032837e-02
-4.557124525308609009e-02
6.169123575091362000e-02
6.374931335449218750e-02
9.189434349536895752e-02
-6.169301271438598633e-02
1.116595789790153503e-02
1.419230699539184570e-01
-7.993011921644210815e-02
1.933912746608257294e-02
-2.648766711354255676e-02
6.565365940332412720e-02
4.943520948290824890e-02
-8.106277137994766235e-02
-3.679569810628890991e-02
2.228603065013885498e-01
6.210412457585334778e-02
-8.809943497180938721e-02
-6.873739510774612427e-02
-1.318648010492324829e-01
-1.283899843692779541e-01
-9.521870315074920654e-02
4.357127100229263306e-02
-1.729749441146850586e-01
-1.955674886703491211e-01
-9.421744942665100098e-02
1.048720031976699829e-01
2.170918732881546021e-01
2.544279098510742188e-01
2.403557859361171722e-02
1.280575841665267944e-01
2.417322015389800072e-03
-1.209184825420379639e-01
-3.644612058997154236e-02
-1.006571352481842041e-01
6.045400351285934448e-02
-1.502197533845901489e-01
-4.709250107407569885e-02
-9.217639267444610596e-02
1.541508920490741730e-02
-1.861301809549331665e-01
-5.660102516412734985e-02
-7.806345075368881226e-02
-1.327133923768997192e-01
-1.671794988214969635e-02
8.440887182950973511e-02
-5.365533754229545593e-02
8.547268062829971313e-02
-9.163099527359008789e-02
8.496336638927459717e-02
2.386685088276863098e-02
-1.061411425471305847e-01
4.462381079792976379e-02
1.159216463565826416e-01
2.274709939956665039e-01
3.563652634620666504e-01
1.372878551483154297e-01
1.917571127414703369e-01
1.466748267412185669e-01
-1.296075135469436646e-01
-4.167606681585311890e-02
-1.151173114776611328e-01
-1.916958540678024292e-01
-2.616749331355094910e-02
-6.500878930091857910e-02
8.368226140737533569e-02
6.058476492762565613e-02
-7.801178097724914551e-02
-2.054509893059730530e-02
-8.019285649061203003e-02
2.550937235355377197e-01
1.505260616540908813e-01
9.188449382781982422e-02
3.965294361114501953e-01
-4.273719340562820435e-02
-2.152650617063045502e-02
-1.419797074049711227e-02
1.727008521556854248e-01
1.213478147983551025e-01
4.196634888648986816e-02
-1.540274918079376221e-01
2.282375656068325043e-02
1.048329472541809082e-01
-8.142811246216297150e-03
4.572781920433044434e-02
-3.140895813703536987e-02
-4.672764614224433899e-02
-2.402848601341247559e-01
-1.361370086669921875e-01
-1.429206039756536484e-02
-1.958896464202553034e-04
-9.321458637714385986e-02
-1.856510043144226074e-01
-9.669074416160583496e-02
-1.464736759662628174e-01
5.990825220942497253e-02
2.394859045743942261e-01
1.389435827732086182e-01
1.305982768535614014e-01
-1.147854402661323547e-01
-9.847342967987060547e-03
-6.070905923843383789e-02
4.307898506522178650e-02
-9.766467660665512085e-02
7.480702549219131470e-02
3.123625926673412323e-02
-1.303898543119430542e-01
2.229694575071334839e-01
2.068540751934051514e-01
1.137842237949371338e-01
2.206336259841918945e-01
1.555844675749540329e-02
9.905928373336791992e-02
3.070617467164993286e-02
-6.071653962135314941e-02
1.431224346160888672e-01
-1.194646116346120834e-03
-9.762373566627502441e-02
-2.458566278219223022e-01
-2.730261981487274170e-01
-4.326418638229370117e-01
-3.353585302829742432e-01
-2.306148707866668701e-01
-3.171036764979362488e-02
-6.431623548269271851e-02
-9.215041249990463257e-02
7.415585964918136597e-02
3.813606202602386475e-01
1.966749429702758789e-01
3.297290205955505371e-02
-5.433204025030136108e-02
-2.169257551431655884e-01
-1.541808545589447021e-01
-8.365093916654586792e-02
2.385930903255939484e-02
1.600731760263442993e-01
1.427653282880783081e-01
-1.292966902256011963e-01
-1.829541474580764771e-01
3.105987012386322021e-01
6.729914993047714233e-02
8.556266874074935913e-02
-7.333487272262573242e-02
-1.040682941675186157e-02
7.790049165487289429e-02
1.172694340348243713e-01
-2.104805782437324524e-02
6.322763115167617798e-02
-4.642983153462409973e-02
-1.091147437691688538e-01
-8.532162755727767944e-02
-4.117486253380775452e-02
1.243346408009529114e-01
9.935773164033889771e-02
-1.066618338227272034e-01
-2.588535547256469727e-01
-4.674613177776336670e-01
-5.033977031707763672e-01
-3.656348884105682373e-01
-2.960470616817474365e-01
-7.155934721231460571e-02
-1.376789957284927368e-01
3.087161183357238770e-01
-1.227818801999092102e-01
-8.840268477797508240e-03
-9.794940240681171417e-03
-2.322652935981750488e-01
-1.106137111783027649e-01
9.239944815635681152e-02
1.157853081822395325e-01
1.577572971582412720e-01
-5.814597755670547485e-02
1.461247205734252930e-01
2.790755927562713623e-01
-1.886942833662033081e-01
-1.079246923327445984e-01
-8.229242265224456787e-02
-1.011493206024169922e-01
-3.001518547534942627e-01
-2.180600166320800781e-01
-6.893640011548995972e-02
2.472068667411804199e-01
4.662778675556182861e-01
5.130742788314819336e-01
2.836382687091827393e-01
3.840172588825225830e-01
1.425463408231735229e-01
6.990908086299896240e-02
-1.568114757537841797e-01
6.219726055860519409e-02
1.990199536085128784e-01
-3.131743669509887695e-01
-9.779669344425201416e-02
-9.387584775686264038e-02
1.169405207037925720e-01
-6.771052628755569458e-02
-1.763633042573928833e-01
4.144236445426940918e-02
-5.336253717541694641e-02
-7.273543626070022583e-02
-9.699899703264236450e-03
-7.671710103750228882e-02
-5.028646439313888550e-02
-1.186517532914876938e-02
-1.493506282567977905e-01
4.043611884117126465e-01
2.800364494323730469e-01
2.894865907728672028e-02
-2.830262184143066406e-01
-1.756181418895721436e-01
-1.210988089442253113e-01
-1.649793982505798340e-01
-2.040946185588836670e-01
-2.430904209613800049e-01
7.602402567863464355e-02
8.973466604948043823e-02
-4.035324975848197937e-02
1.176124811172485352e-01
2.159397006034851074e-01
3.291505277156829834e-01
2.880929112434387207e-01
2.133363336324691772e-01
2.794674932956695557e-01
1.655209213495254517e-01
-7.916591130197048187e-03
2.325276099145412445e-02
-9.888728149235248566e-03
1.043656989932060242e-01
-3.104086816310882568e-01
-1.269353032112121582e-01
-1.569160819053649902e-01
-2.235128730535507202e-01
-1.172895580530166626e-01
6.770818494260311127e-03
1.290377080440521240e-01
-6.238930672407150269e-02
-7.866432517766952515e-02
1.945348083972930908e-01
-7.369095832109451294e-02
2.524306774139404297e-01
1.110015437006950378e-01
1.483456790447235107e-01
2.417938560247421265e-01
1.861541271209716797e-01
9.472769498825073242e-02
-1.070560142397880554e-02
3.334498777985572815e-02
-9.115017950534820557e-02
-3.917520865797996521e-03
2.082853615283966064e-01
1.779236495494842529e-01
7.563440501689910889e-02
1.893294453620910645e-01
4.124225378036499023e-01
3.220002651214599609e-01
3.154625371098518372e-02
6.898656487464904785e-02
6.137417256832122803e-02
-7.167865335941314697e-02
2.205529212951660156e-01
-7.933010160923004150e-02
3.335400298237800598e-02
3.182964771986007690e-02
-4.603898897767066956e-02
-1.360646486282348633e-01
-1.729539185762405396e-01
1.792003810405731201e-01
-2.836183831095695496e-02
2.554597854614257812e-01
-1.623795181512832642e-01
-2.946260571479797363e-01
2.559837102890014648e-01
3.009398877620697021e-01
2.780332267284393311e-01
1.511626392602920532e-01
5.358604714274406433e-02
-1.343454867601394653e-01
5.422668904066085815e-02
-9.568225592374801636e-02
-1.461832672357559204e-01
-1.294984966516494751e-01
-7.282543927431106567e-02
-1.487181186676025391e-01
2.327066957950592041e-01
-1.194896362721920013e-02
2.661411166191101074e-01
4.219749569892883301e-02
-1.557125449180603027e-01
-3.811439126729965210e-02
9.626191854476928711e-02
-1.223515272140502930e-01
2.050871253013610840e-01
2.108650803565979004e-01
9.851241856813430786e-02
8.382294327020645142e-02
1.673845350742340088e-01
-4.855765402317047119e-02
-1.996391266584396362e-01
-1.391198039054870605e-01
9.560696035623550415e-02
-1.550290547311306000e-02
3.615370020270347595e-02
-3.388193547725677490e-01
2.956178784370422363e-01
8.296782523393630981e-02
1.668745577335357666e-01
3.080078959465026855e-01
-4.407552257180213928e-02
-1.926392912864685059e-01
-2.386323213577270508e-01
-4.196106791496276855e-01
-2.339098602533340454e-01
-9.547419846057891846e-02
1.260059420019388199e-02
4.079616665840148926e-01
4.574276804924011230e-01
3.807223141193389893e-01
3.759924769401550293e-01
1.784632354974746704e-01
8.799445815384387970e-03
-2.701131254434585571e-02
-7.335589826107025146e-02
-6.684575229883193970e-02
8.623445034027099609e-02
9.263991564512252808e-02
-8.368496596813201904e-02
-6.629202514886856079e-02
-1.487256288528442383e-01
7.962357997894287109e-02
-4.321606829762458801e-02
1.859585791826248169e-01
-3.577336668968200684e-02
-1.722688823938369751e-01
-2.506065182387828827e-02
-7.066943496465682983e-02
1.321055144071578979e-01
1.610534489154815674e-01
8.210133761167526245e-02
-9.764815866947174072e-02
-1.751721203327178955e-01
-2.033027708530426025e-01
-1.241316422820091248e-01
-1.605761647224426270e-01
-7.040540874004364014e-02
-1.585378348827362061e-01
2.252429127693176270e-01
1.429195255041122437e-01
5.758604034781455994e-02
1.770717054605484009e-01
1.433655768632888794e-01
1.474297642707824707e-01
-2.134553492069244385e-01
-1.311716288328170776e-01
1.014075651764869690e-01
1.027568653225898743e-01
1.726972609758377075e-01
8.525411784648895264e-02
-2.265879213809967041e-01
-2.904867753386497498e-02
-4.270488768815994263e-02
9.362601488828659058e-02
-3.284249007701873779e-01
7.277860492467880249e-02
-5.527000874280929565e-02
9.571743197739124298e-03
-1.452184282243251801e-02
1.608375608921051025e-01
4.492732286453247070e-01
-7.712554931640625000e-02
-3.501124680042266846e-01
-5.527177825570106506e-02
-1.475324034690856934e-01
-1.921549737453460693e-01
-2.197015797719359398e-03
3.569340407848358154e-01
8.514015376567840576e-02
1.223163753747940063e-01
2.607167363166809082e-01
1.826054602861404419e-01
7.290816307067871094e-02
2.127512395381927490e-01
4.023263752460479736e-01
2.289896756410598755e-01
-3.686406016349792480e-01
-2.698291242122650146e-01
1.247366294264793396e-01
-4.134838879108428955e-01
-3.910143077373504639e-01
-3.875363767147064209e-01
3.057773783802986145e-02
5.456263944506645203e-02
1.091677173972129822e-01
-3.968159854412078857e-02
-3.465082123875617981e-02
-3.127537965774536133e-01
-1.720497906208038330e-01
-6.132455542683601379e-02
-2.287337742745876312e-02
-8.795724064111709595e-02
7.618834823369979858e-02
9.006505459547042847e-02
-1.197250783443450928e-01
-6.775175686925649643e-03
-1.282025575637817383e-01
6.802608817815780640e-02
-1.941342502832412720e-01
1.001139357686042786e-01
-4.281798377633094788e-02
-1.033950895071029663e-01
2.295461297035217285e-01
3.310571312904357910e-01
9.100228548049926758e-02
-2.122302539646625519e-02
-1.602784991264343262e-01
-3.457819223403930664e-01
3.446736931800842285e-02
2.563565410673618317e-02
2.241333425045013428e-01
1.643759459257125854e-01
4.392235577106475830e-01
-2.412209287285804749e-02
1.519220173358917236e-01
9.619059413671493530e-02
-1.494730114936828613e-01
-1.953024417161941528e-01
-5.995399132370948792e-02
1.742798686027526855e-01
-9.253958612680435181e-02
-4.906580597162246704e-02
-6.159257888793945312e-02
-9.008464962244033813e-02
-1.557345688343048096e-01
1.295755356550216675e-01
2.035772055387496948e-01
1.663591861724853516e-01
6.656040996313095093e-02
2.280228435993194580e-01
-2.637719810009002686e-01
-7.545396685600280762e-02
-1.356797665357589722e-02
1.673709228634834290e-02
2.498067170381546021e-01
2.753565311431884766e-01
5.989285185933113098e-02
-2.765832841396331787e-01
-2.852519750595092773e-01
-2.863411903381347656e-01
-5.461848154664039612e-02
-1.377797424793243408e-01
-3.767048940062522888e-02
1.139047816395759583e-01
4.176191389560699463e-01
2.197552658617496490e-02
3.286297321319580078e-01
1.241184547543525696e-01
-1.168153807520866394e-01
-9.628604352474212646e-02
-2.022221833467483521e-01
2.584039568901062012e-01
1.629363000392913818e-01
1.960136145353317261e-01
1.001342162489891052e-01
1.738418824970722198e-02
-3.389860689640045166e-01
-5.933776125311851501e-02
-3.647738322615623474e-02
-1.970680654048919678e-01
3.178835511207580566e-01
-6.619765609502792358e-02
-1.400318741798400879e-01
-1.175132766366004944e-01
7.050578296184539795e-02
-4.820412769913673401e-02
4.827433079481124878e-02
-4.428706318140029907e-02
7.898972928524017334e-02
-1.227814108133316040e-01
-2.025910764932632446e-01
-1.349128633737564087e-01
-1.355093121528625488e-01
-1.097732260823249817e-01
-1.200571879744529724e-01
-1.948506683111190796e-01
-2.372672595083713531e-02
2.675950527191162109e-01
3.088643252849578857e-01
-2.144784927368164062e-01
-2.986993193626403809e-01
1.463386714458465576e-01
-1.416963636875152588e-01
1.009257063269615173e-01
1.740071922540664673e-02
3.487477600574493408e-01
-8.010610938072204590e-02
3.989808261394500732e-02
3.393764793872833252e-01
-1.506005227565765381e-01
-2.588867247104644775e-01
-3.007462322711944580e-01
1.077671945095062256e-01
-1.189921349287033081e-01
-8.414290845394134521e-02
-1.787465065717697144e-01
2.736015617847442627e-01
1.964558809995651245e-01
-2.352608134970068932e-03
-1.571189314126968384e-01
4.286492988467216492e-02
-3.529435023665428162e-02
3.348771929740905762e-01
1.350608468055725098e-01
-2.394539266824722290e-01
-5.043058469891548157e-02
-1.158765032887458801e-01
-2.050219178199768066e-01
-2.290996536612510681e-02
9.422695636749267578e-02
-5.891937762498855591e-02
1.128036081790924072e-01
6.969113647937774658e-02
-8.889089524745941162e-02
4.222914949059486389e-02
2.671817541122436523e-01
1.752626895904541016e-01
3.060162067413330078e-01
9.268151223659515381e-02
-1.039674580097198486e-01
-6.030886899679899216e-03
1.475274413824081421e-01
1.503695547580718994e-01
3.549653291702270508e-02
2.380469590425491333e-01
-1.142323240637779236e-01
-1.321809440851211548e-01
-1.528940647840499878e-01
-2.295898199081420898e-01
-2.587915658950805664e-01
-7.299572974443435669e-02
-2.018434256315231323e-01
-8.201210200786590576e-02
-2.231089770793914795e-01
4.623156785964965820e-02
-1.525737047195434570e-01
1.715943068265914917e-01
-1.588899525813758373e-03
9.139493852853775024e-02
-1.842612400650978088e-02
-2.655939571559429169e-02
-1.568011343479156494e-01
9.424794465303421021e-02
-1.635981947183609009e-01
-1.463364660739898682e-01
-2.350037395954132080e-01
-8.038491755723953247e-02
5.147209390997886658e-02
-5.431767925620079041e-02
2.202041149139404297e-01
-2.534321546554565430e-01
-1.716954261064529419e-02
1.018620878458023071e-01
7.838014513254165649e-02
2.048644274473190308e-01
2.553998231887817383e-01
-2.377180568873882294e-02
-1.126665696501731873e-01
-2.230549305677413940e-01
-1.363435834646224976e-01
1.736150868237018585e-02
-5.780094861984252930e-02
-2.900472879409790039e-01
1.829999685287475586e-01
3.616570308804512024e-02
-2.705366015434265137e-01
-2.218846231698989868e-02
3.236867487430572510e-01
-1.218548566102981567e-01
8.380720019340515137e-02
-2.316913455724716187e-01
-1.735556125640869141e-01
1.353726536035537720e-01
-5.290781706571578979e-02
-1.857099682092666626e-01
-2.120489478111267090e-01
1.040353849530220032e-01
2.174026817083358765e-01
3.008483052253723145e-01
-3.228880167007446289e-01
1.001908108592033386e-01
-2.119782418012619019e-01
-3.402947261929512024e-02
-1.206705719232559204e-02
-5.397936329245567322e-02
4.952807724475860596e-02
2.416409552097320557e-03
-6.798316538333892822e-02
1.991007030010223389e-01
2.435159832239151001e-01
-6.915584206581115723e-02
-7.125140726566314697e-02
-1.853978075087070465e-02
-6.794050335884094238e-02
-8.537604473531246185e-03
-1.268135849386453629e-02
5.268296599388122559e-01
-1.103234291076660156e-01
-5.550593882799148560e-02
2.454328089952468872e-01
-1.818648576736450195e-01
2.251989245414733887e-01
6.717446446418762207e-02
6.772409379482269287e-02
1.693053543567657471e-02
3.181238472461700439e-01
-8.644305914640426636e-02
-4.634925164282321930e-03
3.211175501346588135e-01
3.594199717044830322e-01
1.387615054845809937e-01
-2.235301584005355835e-01
3.485803306102752686e-02
2.215719595551490784e-02
1.396915167570114136e-01
1.652883598580956459e-03
-1.319573968648910522e-01
3.752009570598602295e-01
1.345113962888717651e-01
-1.366738379001617432e-01
-1.708159595727920532e-01
1.994941383600234985e-01
1.293789129704236984e-02
1.331897675991058350e-01
1.028489544987678528e-01
5.922598764300346375e-02
1.097148358821868896e-01
1.749908775091171265e-01
2.343768477439880371e-01
2.423380315303802490e-01
1.304955780506134033e-01
3.866923972964286804e-02
9.750230610370635986e-02
-1.009518951177597046e-01
4.075956065207719803e-03
-2.036307901144027710e-01
-2.922283411026000977e-01
7.440114766359329224e-02
1.209725365042686462e-01
1.075418945401906967e-02
9.366219490766525269e-02
3.013559281826019287e-01
2.334523946046829224e-02
2.716725766658782959e-01
1.052409335970878601e-01
-3.883245587348937988e-01
-7.591240853071212769e-02
-6.838113069534301758e-02
-4.314113035798072815e-02
6.052955985069274902e-02
-7.589466124773025513e-02
-1.775760799646377563e-01
1.097572967410087585e-01
-1.026571094989776611e-01
-8.476270735263824463e-02
-5.582203343510627747e-02
-6.392940133810043335e-02
-2.993511557579040527e-01
-1.825448498129844666e-02
-1.594680547714233398e-01
-4.880109429359436035e-02
-2.384317480027675629e-02
-1.645475625991821289e-01
-4.748263955116271973e-01
1.256918162107467651e-01
-2.999969422817230225e-01
-1.624056696891784668e-01
-2.963926792144775391e-01
-3.909196853637695312e-01
-3.525093570351600647e-02
-1.659631542861461639e-02
4.636274576187133789e-01
4.025510847568511963e-01
3.583057224750518799e-01
2.737781107425689697e-01
-1.011749804019927979e-01
1.375267207622528076e-01
1.678408682346343994e-02
1.922538280487060547e-01
-2.245971113443374634e-01
-1.047837734222412109e-01
-1.495471298694610596e-01
-2.231936156749725342e-01
-2.239148467779159546e-01
-7.099550962448120117e-02
7.890859246253967285e-02
-1.021316498517990112e-01
-1.644367873668670654e-01
-8.357159048318862915e-02
1.458761096000671387e-01
-1.001977995038032532e-01
-2.062056958675384521e-01
-2.111329585313796997e-01
-1.450162231922149658e-01
2.506507337093353271e-01
-2.096198648214340210e-01
1.200480833649635315e-01
-2.062679082155227661e-01
-3.018331825733184814e-01
2.156917005777359009e-01
4.882180392742156982e-01
3.842880725860595703e-01
4.275196418166160583e-02
1.728541553020477295e-01
2.438270747661590576e-01
-6.028046831488609314e-02
-5.898606032133102417e-02
-5.102814361453056335e-02
-2.413792312145233154e-01
-1.145392507314682007e-01
6.037495285272598267e-02
2.072778791189193726e-01
-9.096825867891311646e-02
3.586631640791893005e-02
-7.423521950840950012e-03
-2.944750944152474403e-03
-1.931866556406021118e-01
-1.372172087430953979e-01
-1.166621297597885132e-01
4.491043463349342346e-02
-1.671924740076065063e-01
-2.024008780717849731e-01
1.044142022728919983e-01
5.348707735538482666e-02
-3.050742745399475098e-01
-2.742581963539123535e-01
2.023965716361999512e-01
1.200086921453475952e-01
1.041625440120697021e-01
2.540663778781890869e-01
1.174900978803634644e-01
-1.500794738531112671e-01
1.073376387357711792e-01
8.644618093967437744e-02
-2.537060678005218506e-01
-4.760961607098579407e-02
-1.575900763273239136e-01
-2.395631670951843262e-01
-3.957932069897651672e-02
8.286465704441070557e-02
-6.543606519699096680e-02
-1.232141479849815369e-01
-5.657496862113475800e-03
1.799253821372985840e-01
-6.451352685689926147e-02
-8.231583982706069946e-02
1.246264576911926270e-01
1.811568439006805420e-01
9.862381219863891602e-02
9.595279395580291748e-02
6.348621100187301636e-02
2.276162207126617432e-01
7.671769708395004272e-02
-4.911156743764877319e-02
2.969529032707214355e-01
3.655749857425689697e-01
-1.575816795229911804e-02
1.609064787626266479e-01
-1.171886473894119263e-01
1.774865537881851196e-01
-2.624076008796691895e-01
2.065169960260391235e-01
1.766118705272674561e-01
1.148046646267175674e-02
2.022346109151840210e-01
1.995442807674407959e-01
2.220257669687271118e-01
1.915200352668762207e-01
2.057062387466430664e-01
1.802654415369033813e-01
-2.615274190902709961e-01
2.205362468957901001e-01
-1.055624708533287048e-01
-2.808231711387634277e-01
-7.259880006313323975e-02
-5.546237155795097351e-02
-8.905604481697082520e-02
-6.973944604396820068e-02
3.917787075042724609e-01
1.747213900089263916e-01
1.189592704176902771e-01
1.209097579121589661e-01
-1.673077046871185303e-01
-2.355566322803497314e-01
-2.237842679023742676e-01
4.830600321292877197e-02
-2.602382302284240723e-01
-4.439075887203216553e-01
-7.627491950988769531e-01
-2.643656730651855469e-01
-3.442411124706268311e-01
-1.649311482906341553e-01
-8.678880520164966583e-03
6.062138080596923828e-02
8.726903051137924194e-02
-3.444581627845764160e-01
-3.845587372779846191e-01
-2.042624503374099731e-01
-2.127553075551986694e-01
-4.304567575454711914e-01
7.356443442404270172e-03
-5.379932373762130737e-02
1.204087585210800171e-01
9.020675718784332275e-02
-1.144799068570137024e-01
-2.256527245044708252e-01
-1.175747811794281006e-01
8.034580945968627930e-02
-1.059934049844741821e-01
-1.567810028791427612e-01
-8.643823862075805664e-02
7.835247367620468140e-02
-6.031979620456695557e-02
-3.201227635145187378e-02
-6.443276070058345795e-03
-1.359768062829971313e-01
7.440979033708572388e-02
3.270523548126220703e-01
4.320765137672424316e-01
1.029154211282730103e-01
-9.462874382734298706e-02
-6.509026885032653809e-02
8.515284955501556396e-02
4.817213714122772217e-01
-6.188833713531494141e-02
1.064331680536270142e-01
1.864360868930816650e-01
2.145790010690689087e-01
5.023697614669799805e-01
3.025350570678710938e-01
3.196016550064086914e-01
-1.462675482034683228e-01
-2.505282163619995117e-01
1.336279511451721191e-01
2.381148636341094971e-01
1.810047659091651440e-03
2.628761231899261475e-01
2.544738948345184326e-01
8.028960227966308594e-02
1.979706734418869019e-01
1.737123876810073853e-01
1.113031152635812759e-02
-2.238189727067947388e-01
1.797739863395690918e-01
-4.889196157455444336e-02
1.233182698488235474e-01
-1.485787034034729004e-01
-8.601440489292144775e-02
3.397153224796056747e-03
-2.457898855209350586e-02
8.366177231073379517e-02
-1.209480222314596176e-02
-1.918559521436691284e-01
1.638455837965011597e-01
-1.815242469310760498e-01
-5.023637413978576660e-01
1.919288337230682373e-01
1.326314359903335571e-01
-3.898146748542785645e-01
2.788106501102447510e-01
3.419767022132873535e-01
2.941359281539916992e-01
4.009273052215576172e-01
-1.196799334138631821e-03
1.990447342395782471e-01
1.446872204542160034e-01
-3.100268840789794922e-01
-4.253236353397369385e-01
6.994564831256866455e-02
1.244881004095077515e-01
-2.165589481592178345e-02
-8.303373306989669800e-02
-4.439819231629371643e-02
-8.335421793162822723e-03
-2.708851099014282227e-01
-4.265102446079254150e-01
-1.806052327156066895e-01
-1.684826761484146118e-01
-2.961826920509338379e-01
9.795345366001129150e-02
-2.112250775098800659e-01
-3.281871676445007324e-01
-9.414565749466419220e-03
2.304740995168685913e-02
-3.723415732383728027e-01
-5.389765650033950806e-02
1.262958049774169922e-01
-2.238318324089050293e-02
-4.147301614284515381e-01
5.371258258819580078e-01
2.559438347816467285e-01
9.905742853879928589e-02
-1.308106333017349243e-01
-2.326263189315795898e-01
-4.135006293654441833e-02
-2.176892459392547607e-01
-2.863957285881042480e-01
-7.295744121074676514e-02
-4.517878293991088867e-01
-4.710374474525451660e-01
-2.202321141958236694e-01
-1.978229284286499023e-01
-3.336336910724639893e-01
-1.340284943580627441e-01
1.273384243249893188e-01
1.069443076848983765e-01
1.023974865674972534e-01
-3.687390089035034180e-01
-7.207372039556503296e-02
-1.636911630630493164e-01
-7.127212733030319214e-02
-6.207818910479545593e-02
1.716213673353195190e-01
-1.194667071104049683e-01
4.733146633952856064e-04
-4.967292770743370056e-02
-2.024278789758682251e-02
2.559500634670257568e-01
-5.749259591102600098e-01
-5.411385893821716309e-01
1.968840807676315308e-01
1.491194069385528564e-01
-1.554157435894012451e-01
4.878838732838630676e-02
4.056301712989807129e-01
1.350408345460891724e-01
-3.250176459550857544e-02
2.162414491176605225e-01
-5.567374080419540405e-02
5.010523200035095215e-01
6.289889663457870483e-02
5.978120490908622742e-02
-1.172137334942817688e-01
4.822406768798828125e-01
1.244886592030525208e-02
4.101412594318389893e-01
-2.193812131881713867e-01
-8.074314892292022705e-02
-1.106850430369377136e-01
-3.363548219203948975e-01
1.978871040046215057e-02
-8.585698902606964111e-02
-3.712411224842071533e-01
-7.783736102283000946e-03
1.478967517614364624e-01
1.087464392185211182e-02
1.327575743198394775e-01
8.773574978113174438e-02
1.439500153064727783e-01
3.560165762901306152e-01
1.848356276750564575e-01
-3.023166954517364502e-02
-5.102800205349922180e-02
2.385881394147872925e-01
-1.355661600828170776e-01
-5.479257926344871521e-02
2.780491411685943604e-01
9.139753133058547974e-02
2.966113761067390442e-02
3.357259631156921387e-01
1.412388533353805542e-01
-1.663226517848670483e-03
6.201342865824699402e-02
-2.778181135654449463e-01
-8.755110949277877808e-02
7.214502990245819092e-02
-1.775712072849273682e-01
-2.304327189922332764e-01
-3.862997889518737793e-01
1.616237461566925049e-01
1.328980624675750732e-01
8.485353738069534302e-02
-1.694287806749343872e-01
-1.916341781616210938e-01
-1.322563588619232178e-01
-1.049146428704261780e-01
-6.100917980074882507e-02
-8.694782108068466187e-02
-4.426511824131011963e-01
4.362872801721096039e-03
2.050432264804840088e-01
-1.998833194375038147e-02
1.162866204977035522e-01
2.620888501405715942e-02
-1.546970009803771973e-01
3.675957322120666504e-01
-5.315883755683898926e-01
3.488231003284454346e-01
-1.445876955986022949e-01
-3.805255517363548279e-03
-2.815008908510208130e-02
3.048555254936218262e-01
2.329174876213073730e-01
-5.783063769340515137e-01
-4.577016457915306091e-02
-1.704885512590408325e-01
8.967667073011398315e-02
-1.244222521781921387e-01
3.376265168190002441e-01
-3.054302036762237549e-01
2.069647610187530518e-01
3.900550007820129395e-01
6.876608729362487793e-02
1.017393842339515686e-01
-1.491709202527999878e-01
-1.765136979520320892e-02
8.205231279134750366e-02
1.261091530323028564e-01
1.085746735334396362e-01
2.374298721551895142e-01
1.073207110166549683e-01
2.361400276422500610e-01
4.802116453647613525e-01
-1.476547867059707642e-01
2.002122849225997925e-01
5.185579061508178711e-01
-3.706198558211326599e-02
-2.407470345497131348e-01
-2.915056347846984863e-01
2.921444773674011230e-01
-6.047617644071578979e-02
-7.500897049903869629e-01
-3.224206268787384033e-01
2.351283878087997437e-01
-1.954879015684127808e-01
-2.475752383470535278e-01
-1.588614732027053833e-01
-1.216669380664825439e-01
-6.613781303167343140e-02
1.597803384065628052e-01
1.042548269033432007e-01
-6.143157184123992920e-02
2.555008232593536377e-01
1.514389365911483765e-01
3.315966110676527023e-03
3.392949104309082031e-01
-3.601719737052917480e-01
2.556057088077068329e-02
-1.344983875751495361e-01
-4.475943446159362793e-01
-1.116322129964828491e-01
6.906314939260482788e-02
2.255017310380935669e-01
7.246264815330505371e-02
-1.747520565986633301e-01
-3.144340217113494873e-01
1.973737217485904694e-02
-3.077072463929653168e-02
4.509193301200866699e-01
-9.595529735088348389e-02
3.824236094951629639e-01
-1.576892584562301636e-01
-2.434199303388595581e-01
-1.536600142717361450e-01
1.501498073339462280e-01
1.503561586141586304e-01
-8.648907393217086792e-02
3.198049366474151611e-01
2.465022057294845581e-01
-1.645846217870712280e-01
-1.649721264839172363e-01
-2.002096623182296753e-01
-6.816872209310531616e-02
3.473958671092987061e-01
-9.204068034887313843e-02
-1.881748288869857788e-01
2.410510331392288208e-01
5.350446701049804688e-02
-1.190629228949546814e-01
-1.129994913935661316e-01
5.445784926414489746e-01
1.245416700839996338e-01
7.906936109066009521e-02
2.419602423906326294e-01
7.156024128198623657e-02
5.706939101219177246e-02
-4.375940933823585510e-02
1.479836553335189819e-01
-1.603034734725952148e-01
-1.025249361991882324e-01
6.327793002128601074e-02
-1.791864037513732910e-01
7.016345113515853882e-02
4.025763571262359619e-01
3.422075510025024414e-02
-3.359069228172302246e-01
2.610354311764240265e-02
-9.359940886497497559e-02
-4.056534469127655029e-01
1.635902225971221924e-01
5.153513550758361816e-01
1.731881499290466309e-01
7.487030029296875000e-01
6.513380259275436401e-02
5.491769686341285706e-02
-8.753509819507598877e-02
-1.086536496877670288e-01
2.026054263114929199e-01
3.313620388507843018e-01
1.071186363697052002e-02
-6.704683601856231689e-02
-3.230519965291023254e-02
1.073948740959167480e-01
7.362350821495056152e-03
2.325601279735565186e-01
1.214691847562789917e-01
2.198473215103149414e-01
2.840716205537319183e-02
1.410373859107494354e-02
2.033752053976058960e-01
-4.348906874656677246e-02
-1.672647893428802490e-01
2.420278340578079224e-01
3.685153322294354439e-03
-3.194732666015625000e-01
-2.789522111415863037e-01
-1.557437032461166382e-01
-7.269009351730346680e-01
1.831761598587036133e-01
1.818987578153610229e-01
2.034790515899658203e-01
6.083533167839050293e-01
1.962413787841796875e-01
1.938479579985141754e-02
-5.172501876950263977e-02
5.141904950141906738e-02
1.018205378204584122e-02
8.328003436326980591e-02
1.865267008543014526e-01
-2.100447863340377808e-01
-1.821904927492141724e-01
-1.336410641670227051e-01
1.234903465956449509e-02
2.355371862649917603e-01
-6.676372140645980835e-02
4.547504708170890808e-02
9.158372879028320312e-02
3.016316704452037811e-02
-1.899917572736740112e-01
-1.893393397331237793e-01
4.309606254100799561e-01
1.200430467724800110e-01
2.128680497407913208e-01
2.110835760831832886e-01
-5.572086665779352188e-04
1.944028139114379883e-01
2.947463989257812500e-01
-4.777592606842517853e-03
5.321003198623657227e-01
-6.224068254232406616e-02
1.753628998994827271e-01
-2.524109184741973877e-02
1.437658816576004028e-01
-1.157109215855598450e-01
-2.486997097730636597e-01
1.358200907707214355e-01
-2.222982794046401978e-02
-2.349294424057006836e-01
-4.611530601978302002e-01
-1.041066274046897888e-01
5.500407889485359192e-02
-2.406017929315567017e-01
2.848213315010070801e-01
2.733380198478698730e-01
8.574437350034713745e-02
-2.471887320280075073e-02
-1.037212237715721130e-01
-3.117156773805618286e-02
-1.813227832317352295e-01
-1.229464411735534668e-01
-1.975040733814239502e-01
4.608318209648132324e-01
1.993624120950698853e-01
2.184806019067764282e-01
2.803159356117248535e-01
4.198511838912963867e-01
9.300528466701507568e-02
1.434998810291290283e-01
-1.537392884492874146e-01
-2.410327792167663574e-01
-2.761390805244445801e-02
-1.205631252378225327e-02
-8.899151086807250977e-01
-7.600717544555664062e-01
4.367892816662788391e-02
5.157190561294555664e-02
8.402068167924880981e-02
-3.714146316051483154e-01
-4.000858068466186523e-01
1.304077357053756714e-01
2.409587800502777100e-01
-6.445813179016113281e-02
4.171608090400695801e-01
-3.768493235111236572e-01
4.158639311790466309e-01
4.259930253028869629e-01
-4.368159919977188110e-02
-2.355698943138122559e-01
-3.675850927829742432e-01
-2.724683880805969238e-01
-3.128716945648193359e-01
-4.765515923500061035e-01
-1.017779409885406494e-01
3.348374068737030029e-01
-3.969432413578033447e-01
-1.401133369654417038e-02
1.593098342418670654e-01
5.356827005743980408e-02
-4.914198815822601318e-02
1.046540960669517517e-02
4.081094637513160706e-02
1.448398828506469727e-01
3.606423735618591309e-01
3.694431781768798828e-01
1.621729284524917603e-01
-9.106148779392242432e-02
-2.481138855218887329e-01
-1.819430142641067505e-01
9.724462288431823254e-04
8.370500057935714722e-02
1.286727637052536011e-01
6.492596119642257690e-02
7.866437733173370361e-02
8.145300671458244324e-03
-3.560570627450942993e-02
-6.570845842361450195e-02
-1.765864901244640350e-02
-4.201224446296691895e-02
-3.805375844240188599e-02
-5.279816314578056335e-02
-4.283728078007698059e-02
-3.659706190228462219e-02
-4.597974475473165512e-03
3.939299285411834717e-02
3.160000219941139221e-02
9.166778996586799622e-03
3.339289128780364990e-02
7.538671046495437622e-02
4.573161900043487549e-02
4.915501549839973450e-02
-8.916404843330383301e-02
-1.272838376462459564e-02
5.028392001986503601e-02
9.697785973548889160e-02
2.452163398265838623e-01
2.155229747295379639e-01
7.214295119047164917e-02
8.296804130077362061e-02
1.256256178021430969e-02
-1.283826231956481934e-01
-8.001832664012908936e-02
-1.339706480503082275e-01
-2.240247428417205811e-01
-1.398607790470123291e-01
-1.459492370486259460e-02
8.735512383282184601e-03
-1.032816022634506226e-01
-1.154731288552284241e-01
-7.193250954151153564e-02
-3.166869655251502991e-02
2.381780417636036873e-03
1.744344644248485565e-02
1.975811459124088287e-02
-2.036696858704090118e-02
-1.103308647871017456e-01
-1.011136546730995178e-01
-5.718494951725006104e-02
2.046181634068489075e-02
1.057763956487178802e-02
8.874642662703990936e-03
-7.371105253696441650e-02
-9.625982493162155151e-02
-6.230713725090026855e-01
-4.878481328487396240e-01
-2.847040295600891113e-01
-4.607138633728027344e-01
-1.493152081966400146e-01
2.197227925062179565e-01
2.146388292312622070e-01
2.068355977535247803e-01
2.672442793846130371e-01
1.018991768360137939e-01
1.278440002351999283e-02
1.843121275305747986e-02
2.579497732222080231e-02
-1.230839565396308899e-01
-1.471716463565826416e-01
2.728259190917015076e-02
5.192146077752113342e-02
3.933721780776977539e-02
1.024807766079902649e-01
1.399878710508346558e-01
1.817157678306102753e-02
6.070975586771965027e-02
9.264942258596420288e-02
-2.303469926118850708e-02
5.535824596881866455e-02
-1.559245306998491287e-02
1.063723415136337280e-01
8.901991695165634155e-02
7.155679166316986084e-02
1.487639695405960083e-01
2.876039361581206322e-03
1.005204860121011734e-02
-7.534823566675186157e-02
-1.237669587135314941e-01
-4.506200551986694336e-01
-4.034701883792877197e-01
-1.550547182559967041e-01
-1.174672096967697144e-01
-1.830083280801773071e-01
-3.407651484012603760e-01
-1.562371999025344849e-01
-6.697452813386917114e-02
4.886067472398281097e-03
5.815613642334938049e-02
9.363824874162673950e-02
4.109967872500419617e-02
-5.034862831234931946e-02
-3.574711456894874573e-02
8.882915973663330078e-02
-7.346522808074951172e-02
3.554027900099754333e-02
-1.296084076166152954e-01
-1.240183264017105103e-01
8.050636202096939087e-02
-2.158036641776561737e-02
4.229740425944328308e-02
4.237357899546623230e-02
-8.237857371568679810e-02
3.595698624849319458e-02
-6.117521971464157104e-02
-5.963856726884841919e-02
-9.980005025863647461e-02
-2.351462244987487793e-01
-3.056160211563110352e-01
-1.714003235101699829e-01
-7.730652391910552979e-02
-1.239113882184028625e-01
-2.883749902248382568e-01
-3.547480702400207520e-01
-3.431233763694763184e-01
-2.028951793909072876e-01
-1.436047405004501343e-01
3.649256378412246704e-02
1.203498989343643188e-01
-2.105822041630744934e-02
6.239597499370574951e-02
7.540567964315414429e-02
1.682165712118148804e-01
1.387532502412796021e-01
1.598510593175888062e-01
6.739673018455505371e-02
4.218741506338119507e-02
5.699648708105087280e-02
-1.459231674671173096e-01
3.290441259741783142e-02
2.434663325548171997e-01
-2.371993847191333771e-02
2.034684568643569946e-01
1.038756892085075378e-01
8.830278366804122925e-02
4.201249033212661743e-02
-6.386219710111618042e-02
-1.738411635160446167e-01
-4.684155434370040894e-02
8.500578999519348145e-02
-7.049600780010223389e-02
3.431567847728729248e-01
4.690313041210174561e-01
4.984920620918273926e-01
1.837814003229141235e-01
-1.338036060333251953e-01
-3.366146087646484375e-01
-3.041738569736480713e-01
-3.242192566394805908e-01
-1.858298480510711670e-01
-1.462967544794082642e-01
-7.829137146472930908e-02
-2.560045337304472923e-03
5.923858261667191982e-04
-1.821011421270668507e-03
6.184012815356254578e-02
-8.027680963277816772e-02
-9.454599022865295410e-02
6.118165701627731323e-02
-4.394931718707084656e-02
1.479067802429199219e-01
7.716072350740432739e-02
-1.683586463332176208e-02
4.377680644392967224e-02
9.712760150432586670e-02
1.114056631922721863e-01
-1.335756927728652954e-01
3.481871634721755981e-02
1.923078484833240509e-02
4.976099729537963867e-02
2.195626646280288696e-01
2.136044763028621674e-02
-2.213990837335586548e-01
4.804145395755767822e-01
3.972225785255432129e-01
4.550352990627288818e-01
4.782651066780090332e-01
2.623229622840881348e-01
-2.674637921154499054e-02
-1.078017354011535645e-01
-2.677716016769409180e-01
-2.096521556377410889e-01
-2.903385162353515625e-01
-3.365882039070129395e-01
-1.926392018795013428e-01
-7.845631986856460571e-02
-1.688588559627532959e-01
-1.083554476499557495e-01
-5.568362399935722351e-02
-1.726320944726467133e-02
8.016818761825561523e-02
5.338580161333084106e-02
1.559558808803558350e-01
1.497913450002670288e-01
-4.090957716107368469e-02
9.452425688505172729e-02
-2.776200883090496063e-02
-8.071405813097953796e-03
1.839140504598617554e-01
2.009942680597305298e-01
-6.497005373239517212e-02
2.153029292821884155e-01
1.397989094257354736e-01
9.412304311990737915e-02
-7.136937975883483887e-02
-2.379583865404129028e-01
-1.157800666987895966e-02
1.978751420974731445e-01
4.926059395074844360e-02
1.327269226312637329e-01
2.844070494174957275e-01
2.271032184362411499e-01
4.415490478277206421e-02
2.481467090547084808e-03
-1.239648759365081787e-01
-3.944988846778869629e-01
-4.220593273639678955e-01
-3.238909542560577393e-01
-1.528403162956237793e-01
1.081292927265167236e-01
-9.097455441951751709e-02
8.216142654418945312e-03
1.294017024338245392e-02
2.194615602493286133e-01
2.472604215145111084e-01
1.298537999391555786e-01
1.478350758552551270e-01
3.742891550064086914e-01
-3.323438018560409546e-02
6.198097392916679382e-02
-1.582265459001064301e-02
2.314226776361465454e-01
-4.290270060300827026e-02
-1.820273548364639282e-01
-6.933490931987762451e-02
1.822648756206035614e-02
-3.655648231506347656e-01
2.086133323609828949e-02
2.250306755304336548e-01
-7.470980286598205566e-02
9.639047831296920776e-02
4.429244995117187500e-02
4.189771041274070740e-02
2.084586471319198608e-01
9.996321797370910645e-02
1.147230621427297592e-02
3.084696829319000244e-01
2.608083188533782959e-01
5.123556405305862427e-02
1.939015537500381470e-01
-7.044501602649688721e-02
-1.288641244173049927e-01
-2.714282572269439697e-01
-1.806665025651454926e-02
3.102628141641616821e-02
4.706907644867897034e-02
-3.059170767664909363e-02
1.315007507801055908e-01
1.040239185094833374e-01
-3.331992775201797485e-02
-1.232540048658847809e-02
2.019949257373809814e-01
-6.685708463191986084e-02
4.552941024303436279e-02
-7.952052168548107147e-03
7.738637924194335938e-02
-3.612206131219863892e-02
2.245017327368259430e-02
-7.854573428630828857e-02
-1.071958318352699280e-01
-2.726757228374481201e-01
-1.228152364492416382e-01
-4.035579785704612732e-02
-3.853716254234313965e-01
-7.726918905973434448e-02
1.836153864860534668e-01
1.558461934328079224e-01
4.346700757741928101e-02
1.085291132330894470e-01
4.899160191416740417e-02
1.295963674783706665e-01
1.092815548181533813e-01
7.905815541744232178e-02
5.991467833518981934e-02
1.359837502241134644e-01
1.411108300089836121e-02
-1.035419479012489319e-01
-1.889743953943252563e-01
-9.754021465778350830e-02
-1.433655768632888794e-01
-1.912226825952529907e-01
-3.896452859044075012e-02
-9.898161515593528748e-03
1.673731803894042969e-01
-1.976001858711242676e-01
-9.467431157827377319e-02
5.936393048614263535e-03
-1.933884918689727783e-01
-2.274231612682342529e-01
-9.680921584367752075e-02
-2.542990446090698242e-01
-3.891660273075103760e-01
-2.191382497549057007e-01
-2.571243345737457275e-01
-1.580006331205368042e-01
-1.234070286154747009e-01
8.953719399869441986e-03
1.697068810462951660e-01
3.063301444053649902e-01
3.188571706414222717e-02
1.447035670280456543e-01
4.447690844535827637e-01
3.690011799335479736e-01
-4.347269609570503235e-02
-6.182225886732339859e-03
-2.641520202159881592e-01
-7.409429550170898438e-02
-1.696543395519256592e-01
-2.815696895122528076e-01
-1.518946737051010132e-01
1.940677873790264130e-02
-5.537498742341995239e-02
4.529464989900588989e-02
2.458363622426986694e-01
2.423269748687744141e-01
2.724583148956298828e-01
1.623446792364120483e-01
1.382443159818649292e-01
3.400200307369232178e-01
2.308704107999801636e-01
1.459966599941253662e-01
1.417768746614456177e-01
-1.179845780134201050e-01
-2.912726104259490967e-01
-4.435607492923736572e-01
-4.568622708320617676e-01
-4.675254523754119873e-01
-3.304078578948974609e-01
-2.205602824687957764e-01
1.952983066439628601e-02
1.463478505611419678e-01
1.785837262868881226e-01
3.204591572284698486e-01
3.989424109458923340e-01
1.461554914712905884e-01
-4.463220387697219849e-02
5.987633019685745239e-02
-1.197104454040527344e-01
1.467520743608474731e-02
3.157958853989839554e-03
1.425349563360214233e-01
-5.540249869227409363e-02
8.200981467962265015e-02
1.545417457818984985e-01
5.150768905878067017e-02
-1.159130632877349854e-01
-1.246668770909309387e-01
-8.798641711473464966e-02
7.520599663257598877e-02
3.194460868835449219e-01
1.651160866022109985e-01
6.847064197063446045e-02
9.740872681140899658e-02
-2.517569810152053833e-03
1.671783030033111572e-01
-3.454559445381164551e-01
-3.301877379417419434e-01
-4.899758100509643555e-01
-4.599832594394683838e-01
-4.207170605659484863e-01
-3.073970973491668701e-01
-2.117873132228851318e-01
1.408627927303314209e-01
2.512769103050231934e-01
4.779876470565795898e-01
3.211756944656372070e-01
1.363766938447952271e-01
-3.526220098137855530e-02
-1.978682428598403931e-01
-2.063456028699874878e-01
-2.383596003055572510e-01
1.408088058233261108e-01
8.623647689819335938e-02
8.160126209259033203e-02
3.180212527513504028e-02
1.549655497074127197e-01
2.278097569942474365e-01
-1.417587976902723312e-02
9.564146399497985840e-02
-2.275490947067737579e-02
-8.889268152415752411e-03
-1.054809689521789551e-01
1.083126515150070190e-01
-1.157736107707023621e-01
-1.004136204719543457e-01
-1.081545352935791016e-01
6.634780764579772949e-02
-1.819529831409454346e-01
-4.243047907948493958e-02
-2.388961464166641235e-01
-4.972271323204040527e-01
-3.982001245021820068e-01
-2.077093273401260376e-01
-3.201908469200134277e-01
9.130981564521789551e-02
6.771658360958099365e-02
2.119516879320144653e-01
1.159229576587677002e-01
-3.433624505996704102e-01
-1.846075505018234253e-01
1.480387244373559952e-02
-3.423416242003440857e-02
6.368136499077081680e-03
-6.402868777513504028e-02
-2.730076014995574951e-01
-1.940087378025054932e-01
-8.260960876941680908e-02
-2.161556631326675415e-01
1.053739264607429504e-01
-1.538507193326950073e-01
-2.064090222120285034e-01
4.950362816452980042e-02
8.022380620241165161e-02
-1.231139525771141052e-03
3.838677406311035156e-01
4.904542863368988037e-01
3.290795534849166870e-02
2.770925760269165039e-01
1.687389910221099854e-01
3.339451253414154053e-01
6.419937312602996826e-02
-4.652429744601249695e-02
-1.376899033784866333e-01
-9.642062336206436157e-02
-1.843720674514770508e-01
-1.265698075294494629e-01
-8.183301985263824463e-02
-9.894455969333648682e-02
-1.585405087098479271e-03
3.339305147528648376e-02
-1.466952729970216751e-03
-6.918133050203323364e-02
-2.047626227140426636e-01
-1.347267031669616699e-01
-2.322662323713302612e-01
-4.574651643633842468e-02
-7.910441607236862183e-02
1.820659041404724121e-01
2.146143317222595215e-01
1.280747205018997192e-01
1.016193702816963196e-01
7.240376621484756470e-02
3.130083084106445312e-01
-1.749211736023426056e-02
8.354557305574417114e-02
-9.662294760346412659e-03
-7.548243552446365356e-02
-3.891830891370773315e-02
-2.877786159515380859e-01
5.579460412263870239e-02
1.757435649633407593e-01
-2.438540905714035034e-01
8.132180199027061462e-03
7.211580523289740086e-04
8.613148331642150879e-02
1.042957231402397156e-01
-1.109161227941513062e-01
-2.713604867458343506e-01
-1.679652184247970581e-01
-2.378346621990203857e-01
1.171222552657127380e-01
9.296342730522155762e-02
-9.981505572795867920e-02
1.275417953729629517e-01
5.278119072318077087e-02
9.676218777894973755e-02
6.026447564363479614e-02
2.679116427898406982e-01
1.840273886919021606e-01
2.890240848064422607e-01
1.491801813244819641e-02
5.474419146776199341e-02
1.998600810766220093e-01
-2.376201599836349487e-01
1.252121925354003906e-01
4.013412892818450928e-01
2.614439725875854492e-01
4.147141799330711365e-02
1.444225758314132690e-01
-8.577899634838104248e-02
-7.135786861181259155e-02
1.663710027933120728e-01
1.907839030027389526e-01
2.206740826368331909e-01
4.030638039112091064e-01
2.115945518016815186e-01
9.563586860895156860e-02
6.177496165037155151e-02
1.899026520550251007e-02
-1.596405655145645142e-01
-8.187434077262878418e-02
-1.214648857712745667e-01
1.614690274000167847e-01
-5.548165179789066315e-03
-4.019307196140289307e-01
-3.414614498615264893e-01
-1.141112595796585083e-01
-2.850424945354461670e-01
-1.389144733548164368e-02
1.632308214902877808e-01
7.706875354051589966e-02
-1.091083884239196777e-01
-4.465362429618835449e-02
5.630800127983093262e-02
2.090984731912612915e-01
-8.016155660152435303e-02
1.604890823364257812e-01
1.247213408350944519e-01
-6.006537470966577530e-03
-6.127861887216567993e-02
-1.059204339981079102e-02
3.259269297122955322e-01
7.226965855807065964e-03
-2.386613786220550537e-01
-2.438047230243682861e-01
2.016022801399230957e-01
3.433758914470672607e-01
1.704500913619995117e-01
-9.043522179126739502e-02
3.506624698638916016e-02
1.147097349166870117e-01
-7.329242676496505737e-02
2.662600278854370117e-01
-5.936542153358459473e-02
2.119631171226501465e-01
2.909209020435810089e-02
-1.697109788656234741e-01
-2.391873449087142944e-01
-1.314384043216705322e-01
-1.703451424837112427e-01
-5.689452588558197021e-02
1.731737703084945679e-01
1.952301114797592163e-01
1.322046481072902679e-02
1.024836674332618713e-01
9.792225062847137451e-02
3.078727722167968750e-01
-6.390736252069473267e-02
3.812671825289726257e-02
-4.195859283208847046e-02
-1.735658198595046997e-02
-4.627086222171783447e-02
-1.332918852567672729e-01
6.998766958713531494e-02
2.478012628853321075e-02
1.313189137727022171e-02
3.238565027713775635e-01
8.091190457344055176e-02
9.206934273242950439e-02
-7.382802665233612061e-03
-2.757917530834674835e-02
1.019131392240524292e-02
8.547650277614593506e-02
3.724739328026771545e-02
-2.620214819908142090e-01
-2.625743672251701355e-02
-1.265262961387634277e-01
-1.735445410013198853e-01
-2.200289815664291382e-01
-1.353358011692762375e-02
-1.338684465736150742e-02
3.109568953514099121e-01
1.383647173643112183e-01
1.917284131050109863e-01
2.382820695638656616e-01
2.268681228160858154e-01
-1.634729653596878052e-01
1.597190648317337036e-01
3.776273429393768311e-01
6.046875119209289551e-01
3.797138631343841553e-01
9.252523630857467651e-02
-1.009900271892547607e-01
-3.414976410567760468e-03
1.769527047872543335e-01
-2.135562002658843994e-01
2.686837911605834961e-01
3.097866475582122803e-01
4.447131454944610596e-01
1.003510504961013794e-01
-1.169998422265052795e-01
3.106961585581302643e-02
-3.291293382644653320e-01
-4.814787209033966064e-01
-2.564825117588043213e-01
-1.834115982055664062e-01
-2.191843092441558838e-01
-1.851579993963241577e-01
-2.130934745073318481e-01
-5.103803277015686035e-01
-1.798879206180572510e-01
-5.309752374887466431e-02
-8.098100870847702026e-02
-3.587009385228157043e-02
7.659102976322174072e-02
2.458873242139816284e-01
7.685115933418273926e-02
-6.478921324014663696e-02
-1.441862583160400391e-01
-2.061983048915863037e-01
4.183436185121536255e-02
5.417399406433105469e-01
3.513606786727905273e-01
4.034042954444885254e-01
1.312343627214431763e-01
6.680107861757278442e-02
-2.528766393661499023e-01
-5.714518949389457703e-02
1.509394943714141846e-01
-1.603201776742935181e-01
-1.982057541608810425e-01
-3.613713383674621582e-02
-2.417149543762207031e-01
-6.057855114340782166e-02
-2.086069732904434204e-01
-1.579455733299255371e-01
5.005487799644470215e-02
-4.989986866712570190e-02
-4.209262877702713013e-02
-6.148029118776321411e-02
-5.658570304512977600e-02
7.362754642963409424e-02
-4.547948390245437622e-02
-4.739135503768920898e-02
-1.521193981170654297e-01
7.956468313932418823e-02
7.276153564453125000e-02
3.118446171283721924e-01
3.684616386890411377e-01
2.384013831615447998e-01
-1.533485502004623413e-01
-1.144879907369613647e-01
-8.461176604032516479e-02
-2.650112211704254150e-01
-1.382928043603897095e-01
-2.343698889017105103e-01
-3.718453049659729004e-01
-1.832618415355682373e-01
-1.257329434156417847e-01
7.348711788654327393e-02
1.530375182628631592e-01
-5.361092463135719299e-02
3.246261775493621826e-01
-5.918743088841438293e-02
1.698772460222244263e-01
2.995474040508270264e-01
1.844723373651504517e-01
1.290455162525177002e-01
2.876206338405609131e-01
8.497309684753417969e-02
2.419989258050918579e-01
1.039290279150009155e-01
2.463616132736206055e-01
1.040346547961235046e-01
-5.282691121101379395e-02
-1.273384541273117065e-01
-9.457048773765563965e-02
-1.863785833120346069e-01
-3.711204230785369873e-01
-3.233785629272460938e-01
4.906630888581275940e-02
1.241858825087547302e-01
-4.251886531710624695e-02
5.592137109488248825e-03
3.840798512101173401e-02
6.422118842601776123e-02
-3.805852308869361877e-02
1.062286645174026489e-01
-1.158080026507377625e-01
1.348194032907485962e-01
1.463326513767242432e-01
-9.543150663375854492e-02
-3.389107584953308105e-01
-4.405874013900756836e-01
-1.267499662935733795e-02
1.738520860671997070e-01
4.988145455718040466e-02
-9.342507272958755493e-02
-1.848367750644683838e-01
-3.335034009069204330e-03
-2.591732423752546310e-03
1.633778512477874756e-01
4.217785894870758057e-01
-2.128982171416282654e-02
-2.299169311299920082e-03
7.385152578353881836e-02
3.024879097938537598e-01
3.710305690765380859e-02
-4.394901171326637268e-02
-2.216555550694465637e-02
-1.388905495405197144e-01
-2.433704137802124023e-01
6.597353518009185791e-02
1.837440766394138336e-02
-3.305708989500999451e-02
1.950804591178894043e-01
-1.217063218355178833e-01
2.251175194978713989e-01
-2.909094989299774170e-01
-2.400813400745391846e-01
-3.920493721961975098e-01
-1.663802564144134521e-01
-3.879304230213165283e-01
2.206013649702072144e-01
2.634997367858886719e-01
6.238007545471191406e-02
1.240920722484588623e-01
-1.532778590917587280e-01
-4.156354963779449463e-01
-1.333214044570922852e-01
1.904518753290176392e-01
2.852592468261718750e-01
1.776753664016723633e-01
3.821164369583129883e-02
2.360768616199493408e-01
-1.695892773568630219e-02
-2.839429080486297607e-01
2.535770460963249207e-02
-1.215353757143020630e-01
7.034510781522840261e-05
-1.854708194732666016e-01
-1.908228546380996704e-01
-3.320772647857666016e-01
-9.973239153623580933e-02
2.577193453907966614e-02
-3.256334066390991211e-01
7.791517302393913269e-03
1.568104885518550873e-02
2.146314531564712524e-01
1.098319143056869507e-01
-2.639594078063964844e-01
-6.204585358500480652e-02
5.346992984414100647e-02
-7.175073027610778809e-02
-3.020105361938476562e-01
1.095038559287786484e-02
1.399986296892166138e-01
-6.003170832991600037e-02
2.613363564014434814e-01
-3.388149291276931763e-02
-1.849624663591384888e-01
1.486490368843078613e-01
-1.393144391477108002e-02
-2.647395618259906769e-02
-3.132764017209410667e-03
1.266621947288513184e-01
2.502681910991668701e-01
1.252494007349014282e-01
2.651161849498748779e-01
1.924023181200027466e-01
1.174270361661911011e-01
1.144432649016380310e-01
5.542355030775070190e-02
-3.829646855592727661e-02
1.607191264629364014e-01
1.467242389917373657e-01
1.275750994682312012e-01
-1.145731434226036072e-01
3.097417950630187988e-01
2.539303898811340332e-01
8.174427598714828491e-02
2.582283914089202881e-01
1.855390667915344238e-01
1.628924608230590820e-01
4.463614523410797119e-02
-1.707691848278045654e-01
-1.774406880140304565e-01
-8.412250131368637085e-02
-2.032619863748550415e-01
-1.496803909540176392e-01
2.311960235238075256e-02
2.338940277695655823e-02
-9.364725649356842041e-02
3.856283426284790039e-02
-1.077829301357269287e-01
1.716267317533493042e-01
2.286771088838577271e-01
3.839883953332901001e-02
-1.090225949883460999e-01
9.635958075523376465e-02
-2.484391480684280396e-01
-1.656738072633743286e-01
-1.141823753714561462e-01
1.836802214384078979e-01
2.413686066865921021e-01
6.067859381437301636e-02
-1.438198238611221313e-01
-1.738685071468353271e-01
-5.243668705224990845e-02
-3.060204535722732544e-02
1.865917146205902100e-01
5.267631411552429199e-01
1.430739015340805054e-01
2.373930960893630981e-01
-5.882036685943603516e-02
5.611550435423851013e-02
-9.272247552871704102e-02
-3.647273778915405273e-01
6.311583518981933594e-02
1.750453375279903412e-02
-2.281792461872100830e-01
-1.105563193559646606e-01
-4.516595005989074707e-01
1.276912167668342590e-02
6.880988180637359619e-02
4.329797346144914627e-03
-3.204974830150604248e-01
-1.233569905161857605e-01
-4.332506656646728516e-01
-2.427183687686920166e-01
-1.452751755714416504e-01
3.135086596012115479e-02
-3.360473215579986572e-01
-2.035156786441802979e-01
3.275496065616607666e-01
6.510723847895860672e-03
4.769707843661308289e-02
-3.409261405467987061e-01
-1.733352430164813995e-02
1.545145660638809204e-01
1.234237402677536011e-01
-3.104217350482940674e-02
-9.786530584096908569e-02
-1.516586989164352417e-01
-2.355261743068695068e-01
-2.038773894309997559e-01
9.148868173360824585e-02
4.787177741527557373e-01
-5.870834365487098694e-02
-4.737370833754539490e-02
2.040546387434005737e-01
-9.236525511369109154e-04
1.997600542381405830e-03
-1.348231434822082520e-01
-1.492622643709182739e-01
4.587302450090646744e-03
-8.054891973733901978e-02
1.125155761837959290e-01
-1.157782450318336487e-01
-1.726437509059906006e-01
-1.762171238660812378e-01
-1.207392662763595581e-01
6.647593528032302856e-02
3.100361227989196777e-01
-5.260058119893074036e-02
-3.441753610968589783e-02
3.158154189586639404e-01
2.742992248386144638e-03
-4.321652650833129883e-02
1.131106689572334290e-01
1.229161769151687622e-01
1.763369888067245483e-01
-7.903606444597244263e-02
1.650510430335998535e-01
1.678484678268432617e-01
-2.387515269219875336e-02
-1.835943013429641724e-01
-8.566647768020629883e-02
-1.322477757930755615e-01
2.095852047204971313e-02
-1.522165238857269287e-01
-1.256985962390899658e-01
-2.872264981269836426e-01
2.228295207023620605e-01
3.287102282047271729e-01
2.489662915468215942e-02
-5.105056613683700562e-02
2.124284058809280396e-01
-1.602812856435775757e-01
-3.120492994785308838e-01
-2.744989097118377686e-01
6.971944123506546021e-02
-1.175605878233909607e-01
-3.377202749252319336e-01
-9.172631800174713135e-02
2.068703249096870422e-02
-1.294976919889450073e-01
-6.052018702030181885e-02
-1.097233518958091736e-01
-2.212076336145401001e-01
-6.675776094198226929e-02
1.860354691743850708e-01
2.361962944269180298e-01
1.219197139143943787e-01
8.548885583877563477e-02
-3.196540772914886475e-01
-7.010770589113235474e-02
-1.475130580365657806e-02
-1.110955104231834412e-01
6.306264549493789673e-02
1.097717806696891785e-01
-1.211749538779258728e-01
-6.265219766646623611e-03
-1.744677722454071045e-01
1.492442786693572998e-01
2.610438168048858643e-01
3.645967245101928711e-01
3.066385686397552490e-01
1.713684946298599243e-01
5.977389216423034668e-01
1.853775531053543091e-01
7.723817974328994751e-02
1.201999410986900330e-01
1.197222843766212463e-01
-1.089312806725502014e-01
-1.793929934501647949e-01
1.970564723014831543e-01
1.915091425180435181e-01
-3.913042247295379639e-01
9.515270590782165527e-03
2.421407252550125122e-01
-8.876971900463104248e-02
-2.659519016742706299e-02
-6.543680280447006226e-02
-2.746030390262603760e-01
-2.231529504060745239e-01
2.776022553443908691e-01
-1.219007298350334167e-01
-2.007927894592285156e-01
2.352472022175788879e-02
1.405342370271682739e-01
1.104725822806358337e-01
3.835668042302131653e-02
-2.068260125815868378e-02
1.952033303678035736e-02
-9.896510839462280273e-02
-1.369174122810363770e-01
-5.220746248960494995e-02
-2.568075358867645264e-01
-4.903563261032104492e-01
2.771740555763244629e-01
6.586279273033142090e-01
-1.989078074693679810e-01
1.646714471280574799e-02
2.716676890850067139e-01
4.848911240696907043e-02
7.461746782064437866e-02
-1.189181804656982422e-01
-1.558821648359298706e-01
1.110817641019821167e-01
-1.843018233776092529e-01
2.762030661106109619e-01
7.729075849056243896e-02
-3.562650084495544434e-01
-5.878046154975891113e-02
-2.053633034229278564e-01
-1.785552650690078735e-01
-6.922125816345214844e-02
-2.090125381946563721e-01
-2.815982103347778320e-01
-9.943635016679763794e-02
-4.842947423458099365e-02
2.105538845062255859e-01
-2.106852680444717407e-01
4.951467216014862061e-01
-2.311817556619644165e-02
-1.221936419606208801e-01
-1.189813017845153809e-01
-1.452943682670593262e-01
-1.312289685010910034e-01
1.816276088356971741e-02
-4.332213997840881348e-01
4.567888379096984863e-02
1.858671158552169800e-01
1.221584230661392212e-01
-1.437156796455383301e-01
4.852888640016317368e-03
-3.122639358043670654e-01
-9.756128489971160889e-02
-2.196250706911087036e-01
-2.849002778530120850e-01
-6.940967589616775513e-02
1.741782277822494507e-01
2.056282758712768555e-01
3.329815715551376343e-02
-1.504812836647033691e-01
-2.487014681100845337e-01
-3.662115931510925293e-01
-1.626850664615631104e-02
-1.079335212707519531e-01
-1.311651617288589478e-01
-8.756790310144424438e-02
-6.346219219267368317e-03
5.464447289705276489e-02
-6.027479842305183411e-02
1.290197577327489853e-02
5.571842789649963379e-01
1.912702107802033424e-03
1.799945682287216187e-01
-2.268789261579513550e-01
-1.670301109552383423e-01
2.291858792304992676e-01
-1.084056794643402100e-01
-2.916297018527984619e-01
2.750187814235687256e-01
1.632782220840454102e-01
1.433094590902328491e-01
1.788868457078933716e-01
2.402326911687850952e-01
-2.643158435821533203e-01
-4.733116924762725830e-02
-2.362236082553863525e-01
6.494580954313278198e-02
1.948220431804656982e-01
-1.699942164123058319e-03
3.154464066028594971e-01
1.303167641162872314e-01
-7.452777773141860962e-02
7.415352761745452881e-02
7.128615677356719971e-02
7.283437252044677734e-02
5.529300570487976074e-01
-2.322049438953399658e-01
-4.382746517658233643e-01
-2.394821494817733765e-02
4.766247421503067017e-02
8.984261751174926758e-02
-1.599383354187011719e-01
-7.438261527568101883e-03
-8.886293321847915649e-02
-1.770704984664916992e-01
-2.628425359725952148e-01
1.555899828672409058e-01
1.081242263317108154e-01
3.584033995866775513e-02
-1.566663966514170170e-03
5.522668957710266113e-01
-4.138626456260681152e-01
-3.888256847858428955e-01
-2.494383603334426880e-01
3.603871464729309082e-01
-1.854645088315010071e-02
1.032217144966125488e-01
1.945597529411315918e-01
2.135088443756103516e-01
1.603861898183822632e-01
1.547760218381881714e-01
2.173748612403869629e-01
-2.730152606964111328e-01
2.879648096859455109e-02
8.440382778644561768e-02
3.131448477506637573e-02
-9.633033722639083862e-02
1.618508547544479370e-01
-6.132144480943679810e-02
-6.837868690490722656e-02
-1.771798878908157349e-01
-2.251020371913909912e-01
1.278052181005477905e-01
-3.817506432533264160e-01
-5.936539918184280396e-02
6.552079319953918457e-02
1.122798770666122437e-01
-2.043620645999908447e-01
2.267853468656539917e-01
4.708561599254608154e-01
4.582634940743446350e-02
1.993885338306427002e-01
7.580528855323791504e-01
-3.195998370647430420e-01
9.121245890855789185e-02
8.325964212417602539e-02
8.600328862667083740e-02
7.320021837949752808e-02
9.117278456687927246e-02
1.558837294578552246e-01
3.579929471015930176e-01
5.780195817351341248e-02
6.600450724363327026e-02
-1.048537157475948334e-02
-5.312451124191284180e-01
-1.451848596334457397e-01
2.528034746646881104e-01
-9.737398475408554077e-02
1.697103232145309448e-01
-2.498104274272918701e-01
1.910610496997833252e-01
-2.737653851509094238e-01
-2.722537219524383545e-01
-3.963696658611297607e-01
-1.734923571348190308e-01
-2.464805915951728821e-02
-2.350416779518127441e-01
-2.205189466476440430e-01
-8.254983276128768921e-02
1.313543915748596191e-01
8.864680305123329163e-03
-2.408988215029239655e-02
-1.009286642074584961e-01
1.694125384092330933e-01
7.588396221399307251e-02
2.340058982372283936e-02
1.124815866351127625e-01
7.197981234639883041e-03
2.821541428565979004e-01
2.896491885185241699e-01
1.783983558416366577e-01
2.922013998031616211e-01
2.378709241747856140e-02
-3.362654894590377808e-02
-3.122287429869174957e-02
-1.269329935312271118e-01
-3.688598871231079102e-01
-1.471009403467178345e-01
2.204046398401260376e-01
-1.982244700193405151e-01
3.139449357986450195e-01
-1.095875129103660583e-01
-8.140092343091964722e-02
-5.370848253369331360e-02
-1.645369976758956909e-01
3.932410776615142822e-01
1.060451269149780273e-01
-1.447311490774154663e-01
1.366483718156814575e-01
3.911921083927154541e-01
-1.925967484712600708e-01
-6.925260275602340698e-02
-2.269058525562286377e-01
3.723255172371864319e-02
2.164866626262664795e-01
-9.623742848634719849e-02
3.427085280418395996e-01
2.075110077857971191e-01
-1.750843226909637451e-01
1.483610570430755615e-01
-1.446704659610986710e-02
-1.009426489472389221e-01
-6.063270941376686096e-02
-7.791680842638015747e-02
-3.192315697669982910e-01
-3.066382929682731628e-02
-2.379785291850566864e-02
-3.316791355609893799e-01
-2.084389328956604004e-01
-4.727537930011749268e-02
2.628615200519561768e-01
-1.285911798477172852e-01
-2.659384906291961670e-01
-6.658823043107986450e-02
-3.732850551605224609e-01
4.990324378013610840e-02
-6.076862812042236328e-01
-9.902791678905487061e-02
-3.582164943218231201e-01
1.143831089138984680e-01
1.479463577270507812e-01
1.084129437804222107e-01
1.676904708147048950e-01
3.017679750919342041e-01
7.466244697570800781e-02
-5.950096994638442993e-02
2.959332168102264404e-01
2.791322581470012665e-02
-1.525090634822845459e-01
-3.590763807296752930e-01
1.246459595859050751e-02
-2.035433650016784668e-01
-5.604930520057678223e-01
-3.022880852222442627e-01
8.207097649574279785e-02
-2.695936858654022217e-01
1.450214534997940063e-01
2.553362846374511719e-01
3.058049082756042480e-01
1.527037024497985840e-01
5.887363851070404053e-02
4.581382870674133301e-02
-5.313398689031600952e-02
1.382017582654953003e-01
3.782837986946105957e-01
-1.265305280685424805e-02
-2.714702486991882324e-01
4.946986678987741470e-03
-3.179828524589538574e-01
-2.650909312069416046e-02
-2.897554636001586914e-02
-3.498501777648925781e-01
-1.946824938058853149e-01
-3.354237675666809082e-01
-6.763705611228942871e-02
5.485121011734008789e-01
2.163728177547454834e-01
2.625631168484687805e-03
1.615096926689147949e-01
-2.316698133945465088e-01
-9.480473399162292480e-02
-4.673274699598550797e-03
6.948633491992950439e-02
-2.151523679494857788e-01
-4.614681899547576904e-01
-8.969137817621231079e-02
-1.324167549610137939e-01
-9.484490007162094116e-02
1.148601174354553223e-01
-8.216883987188339233e-02
2.086880654096603394e-01
6.444503366947174072e-02
9.898346662521362305e-02
1.411622203886508942e-02
3.790248185396194458e-02
-2.393325567245483398e-01
-2.120573222637176514e-01
-3.793086409568786621e-01
-2.666045725345611572e-01
-8.451452478766441345e-03
-4.527339637279510498e-01
-3.502330183982849121e-01
-2.901147603988647461e-01
-7.307451963424682617e-02
8.416637033224105835e-02
2.577955462038516998e-02
-8.001813292503356934e-02
5.013173222541809082e-01
1.135684400796890259e-01
3.643159940838813782e-02
-1.451376378536224365e-01
-9.144905209541320801e-02
-1.671620756387710571e-01
7.448010891675949097e-02
3.244936466217041016e-01
-2.972593307495117188e-01
-2.296418398618698120e-01
1.070425584912300110e-01
3.184918761253356934e-01
4.136337339878082275e-01
5.082385540008544922e-01
-1.068004965782165527e-01
-4.266344010829925537e-01
-4.534057900309562683e-02
-1.429956555366516113e-01
-9.386428445577621460e-02
-6.234613806009292603e-02
1.982111483812332153e-02
-5.214198827743530273e-01
-5.754724144935607910e-02
-8.509954065084457397e-02
-1.334635466337203979e-01
-1.748677790164947510e-01
1.140855718404054642e-02
2.682819068431854248e-01
-2.639845907688140869e-01
-2.533077597618103027e-01
-1.952980607748031616e-01
-3.367916047573089600e-01
2.772944867610931396e-01
3.189153969287872314e-02
-1.079273223876953125e-01
-5.500846505165100098e-01
1.281393468379974365e-01
-5.204702615737915039e-01
6.625374406576156616e-02
9.423698484897613525e-02
6.305371224880218506e-02
7.319878786802291870e-02
8.149196952581405640e-02
5.029581114649772644e-02
5.800845101475715637e-02
5.299904569983482361e-02
7.398048788309097290e-02
-8.730911649763584137e-03
8.012861944735050201e-04
-7.346990518271923065e-03
-2.550427429378032684e-02
-8.432666212320327759e-02
-5.179580673575401306e-02
-2.544028684496879578e-02
-2.805818244814872742e-02
-4.540455993264913559e-03
6.704413145780563354e-02
4.492877423763275146e-02
1.856864662840962410e-03
3.466913476586341858e-02
-7.941433228552341461e-03
-1.849342510104179382e-02
-6.523065268993377686e-02
-6.552544236183166504e-02
-2.361020073294639587e-02
3.815256059169769287e-03
2.204971574246883392e-02
1.165082305669784546e-01
1.739121526479721069e-01
2.292857915163040161e-01
-6.888383626937866211e-02
-1.478213723748922348e-02
-7.371880859136581421e-02
-1.418029963970184326e-01
-1.979402303695678711e-01
-1.940249204635620117e-01
-2.305173128843307495e-01
-1.495178788900375366e-01
-1.422632187604904175e-01
-1.111402809619903564e-01
-6.599245965480804443e-02
-5.568163841962814331e-02
-3.457354009151458740e-02
7.334693800657987595e-03
1.816423982381820679e-02
-2.981847338378429413e-02
5.965305492281913757e-02
1.691379994153976440e-01
1.150176748633384705e-01
8.147712796926498413e-02
6.423455476760864258e-02
4.900398477911949158e-02
4.343464225530624390e-02
6.365351378917694092e-02
2.005550824105739594e-02
1.290419418364763260e-02
-8.867198228836059570e-02
-1.498349010944366455e-01
-8.529046177864074707e-02
-1.018032133579254150e-01
-3.770367940887808800e-03
6.778002530336380005e-02
-9.545626491308212280e-02
-5.198187753558158875e-02
1.762939095497131348e-01
1.981247812509536743e-01
2.362671792507171631e-01
2.060216069221496582e-01
2.152810096740722656e-01
1.778836846351623535e-01
1.456637978553771973e-01
1.445167809724807739e-01
1.131229549646377563e-01
1.378759145736694336e-01
7.074450701475143433e-02
-2.829983830451965332e-02
5.456946790218353271e-02
7.523669302463531494e-02
