-5.740633964538574219e+00
-6.037664413452148438e+00
-5.757982730865478516e+00
-4.584542512893676758e-01
2.823909521102905273e-01
1.742745488882064819e-01
6.629711482673883438e-03
3.396973311901092529e-01
-3.131329417228698730e-01
-1.903542131185531616e-01
4.796434566378593445e-02
5.166194215416908264e-02
-3.024401962757110596e-01
-1.183362975716590881e-01
-1.346676200628280640e-01
2.619633264839649200e-02
1.734763383865356445e-01
-3.793440163135528564e-01
-2.727653682231903076e-01
2.966354787349700928e-01
2.796254456043243408e-01
-4.492734745144844055e-02
6.530948728322982788e-02
-3.780502080917358398e-02
-2.954746782779693604e-01
1.765635758638381958e-01
-2.136984281241893768e-02
2.297878861427307129e-01
-4.682644605636596680e-01
3.060856461524963379e-01
-3.077914565801620483e-02
-6.099421024322509766e+00
-1.806015223264694214e-01
-1.653397679328918457e-01
2.426063418388366699e-01
7.342146039009094238e-01
-6.074855804443359375e+00
-3.174673318862915039e-01
-1.242911815643310547e-01
-1.308147460222244263e-01
-3.993602395057678223e-01
