1.532107293605804443e-01
3.475588187575340271e-02
4.868003726005554199e-02
1.449692063033580780e-02
8.954330533742904663e-02
8.206424862146377563e-02
4.848438128829002380e-02
1.166862249374389648e-02
1.654108799993991852e-02
5.898142978549003601e-02
1.267761830240488052e-02
-6.375401862896978855e-04
-1.512419898062944412e-02
-6.801018118858337402e-02
-9.021919965744018555e-02
-1.412428468465805054e-01
-1.508599221706390381e-01
-8.658897131681442261e-02
1.107541993260383606e-01
2.422904074192047119e-01
2.022869586944580078e-01
4.829858988523483276e-02
7.527567446231842041e-02
5.147352069616317749e-02
9.385823458433151245e-02
1.540371626615524292e-01
1.742582954466342926e-02
3.745020925998687744e-02
-8.454675972461700439e-02
-9.901025146245956421e-02
9.310557506978511810e-03
4.883556067943572998e-02
-9.606713056564331055e-02
-4.180944710969924927e-02
-7.177028059959411621e-02
-6.819520890712738037e-02
-3.503886237740516663e-02
-8.827672898769378662e-02
-2.312701568007469177e-02
1.026105252094566822e-03
-4.438424855470657349e-02
-1.804925799369812012e-01
-1.931082457304000854e-01
-1.794501543045043945e-01
-1.918803006410598755e-01
-9.868248552083969116e-02
-1.230207458138465881e-01
-3.015456348657608032e-02
-7.288514822721481323e-02
2.536175586283206940e-02
1.803735084831714630e-02
1.493404339998960495e-02
-3.994549810886383057e-02
-1.013392508029937744e-01
-9.969042986631393433e-02
-5.881459265947341919e-02
-7.470341771841049194e-02
-7.742216438055038452e-02
-1.849080324172973633e-01
-2.807783186435699463e-01
-3.354429304599761963e-01
-3.108649551868438721e-01
-4.360586106777191162e-01
-5.379737615585327148e-01
-1.794263124465942383e-01
4.512542486190795898e-02
7.870272547006607056e-02
3.169130161404609680e-02
-4.994705691933631897e-02
-1.682129502296447754e-01
-1.930431276559829712e-01
-2.327536195516586304e-01
-2.411924302577972412e-01
-1.903017908334732056e-01
-2.152328193187713623e-01
-1.442333608865737915e-01
-8.310825377702713013e-02
2.737608365714550018e-02
-7.415841799229383469e-03
3.106790967285633087e-02
4.147133603692054749e-02
-1.822877675294876099e-01
-1.378587782382965088e-01
-2.416221797466278076e-02
-5.223373323678970337e-02
3.183731576427817345e-03
6.909570842981338501e-02
-4.199925437569618225e-02
-9.790214151144027710e-02
5.427598953247070312e-02
6.656388193368911743e-02
1.796363890171051025e-01
3.554701805114746094e-01
1.954223364591598511e-01
2.026552259922027588e-01
1.332514137029647827e-01
5.039604753255844116e-02
-4.125089570879936218e-02
7.278700917959213257e-02
9.810706973075866699e-02
6.230198591947555542e-02
-1.428612917661666870e-01
-9.242283552885055542e-02
8.467530459165573120e-02
2.813228592276573181e-02
-1.224610060453414917e-01
-6.472977995872497559e-02
-8.915433287620544434e-02
-1.488373428583145142e-01
-6.061898171901702881e-02
1.025010738521814346e-02
9.887208789587020874e-02
7.832136750221252441e-02
-1.346183866262435913e-01
-1.244651377201080322e-01
-1.481677740812301636e-01
-4.874633252620697021e-02
-2.436791732907295227e-02
-5.107878521084785461e-02
-1.237077265977859497e-01
-1.638941317796707153e-01
-2.160159498453140259e-01
-1.614113599061965942e-01
-3.920325264334678650e-02
-1.503089070320129395e-01
-2.710958123207092285e-01
-3.443333804607391357e-01
-4.546630084514617920e-01
-1.852355748414993286e-01
1.091675460338592529e-01
1.592598259449005127e-01
8.850548416376113892e-02
6.489995121955871582e-02
8.680897206068038940e-02
4.461760446429252625e-02
8.893287181854248047e-02
-9.314952767454087734e-04
-4.822719097137451172e-02
1.236854791641235352e-01
-2.325329929590225220e-02
3.261833917349576950e-03
7.785230129957199097e-02
2.789245843887329102e-01
1.514613032341003418e-01
2.250966727733612061e-01
9.535943716764450073e-02
1.254474651068449020e-02
1.536018680781126022e-02
8.566329628229141235e-02
1.256440430879592896e-01
1.686991155147552490e-01
7.866978645324707031e-02
4.147702828049659729e-02
-3.439197782427072525e-03
1.247031986713409424e-01
1.960419863462448120e-01
3.055349588394165039e-01
3.601054847240447998e-01
4.007916152477264404e-01
3.199521303176879883e-01
3.243319317698478699e-02
-2.795294485986232758e-02
-1.574192643165588379e-01
-1.734038442373275757e-01
-1.255578547716140747e-01
-1.737699061632156372e-01
-1.678691208362579346e-01
-1.081612408161163330e-01
-4.065590724349021912e-02
-8.512614667415618896e-02
2.925965785980224609e-01
1.844831258058547974e-01
2.317636087536811829e-02
1.839202828705310822e-02
-5.093218013644218445e-02
1.671764105558395386e-01
2.003044188022613525e-01
2.804122865200042725e-01
4.389631748199462891e-02
1.274906247854232788e-01
1.610597223043441772e-01
2.010420560836791992e-01
2.783641219139099121e-01
2.472417503595352173e-01
1.480294466018676758e-01
1.512784361839294434e-01
2.024837881326675415e-01
2.495122551918029785e-01
9.812700003385543823e-02
-3.188033774495124817e-02
6.585104763507843018e-02
1.110673844814300537e-01
2.005060203373432159e-02
-6.612817943096160889e-02
-1.484086215496063232e-01
-5.517470091581344604e-02
-1.097445115447044373e-01
-7.638453692197799683e-02
-4.744866600958630443e-05
-1.055740267038345337e-01
-7.062083482742309570e-02
-1.745553165674209595e-01
1.758662797510623932e-02
5.602691695094108582e-02
6.733481772243976593e-03
-1.350165577605366707e-03
1.837905496358871460e-02
7.708808034658432007e-02
1.728015989065170288e-01
4.584138393402099609e-01
3.647007048130035400e-01
3.136217892169952393e-01
2.334309965372085571e-01
4.076073169708251953e-01
4.087161123752593994e-01
1.360199153423309326e-01
8.050705946516245604e-05
-4.324799869209527969e-03
-6.270260363817214966e-02
-9.711107611656188965e-02
-2.790450863540172577e-02
6.886703521013259888e-02
-3.345160558819770813e-02
5.426237359642982483e-02
-2.906350195407867432e-01
-2.354940026998519897e-01
-3.648104518651962280e-02
-2.856819629669189453e-01
-1.048850417137145996e-01
-3.012367188930511475e-01
-2.179522067308425903e-01
-1.637398004531860352e-01
-1.448922306299209595e-01
-2.043660879135131836e-01
-1.602547168731689453e-01
-9.035782516002655029e-02
-8.230408281087875366e-02
-4.666278138756752014e-02
3.199102589860558510e-03
5.367824807763099670e-03
-7.296464405953884125e-03
-9.406565129756927490e-02
-1.044401004910469055e-01
9.551455825567245483e-02
-1.261311322450637817e-01
-3.623742982745170593e-02
-1.540526561439037323e-02
-1.213054135441780090e-01
-8.993409574031829834e-02
-1.075825020670890808e-01
-9.590823203325271606e-02
4.813923314213752747e-02
1.495529115200042725e-01
1.216329559683799744e-01
-1.894212067127227783e-01
-9.353499859571456909e-02
1.627545803785324097e-01
1.583944708108901978e-01
1.129131466150283813e-01
4.450307413935661316e-02
7.706015557050704956e-02
7.525061070919036865e-02
1.991246342658996582e-01
7.947306334972381592e-02
2.148672044277191162e-01
4.023042619228363037e-01
4.400088191032409668e-01
4.162349700927734375e-01
3.986466228961944580e-01
8.141502737998962402e-02
2.366034984588623047e-01
3.934023901820182800e-02
-4.454999696463346481e-03
-4.978264868259429932e-02
-1.870031096041202545e-02
-6.936743110418319702e-02
-1.456255614757537842e-01
-7.158274948596954346e-02
1.454541692510247231e-03
9.252627193927764893e-02
-4.274071753025054932e-02
-2.474079281091690063e-02
-2.721402980387210846e-02
5.633324757218360901e-02
3.416437804698944092e-01
2.681176178157329559e-02
-9.795898944139480591e-02
-3.177272900938987732e-02
-2.930036783218383789e-01
-2.415006756782531738e-01
-1.638621538877487183e-01
-7.885294407606124878e-02
-4.808782786130905151e-02
-1.116828247904777527e-01
-7.962086051702499390e-02
-1.946848072111606598e-02
-5.086367949843406677e-02
3.011755645275115967e-01
1.980900019407272339e-01
5.880641564726829529e-02
2.588067948818206787e-02
5.665359273552894592e-02
4.906365275382995605e-02
1.975543238222599030e-02
6.727232784032821655e-02
-1.685276255011558533e-02
-1.737148016691207886e-01
-9.255780279636383057e-02
-3.611660003662109375e-02
-3.790121525526046753e-02
-7.033894304186105728e-03
1.301544066518545151e-02
-9.475354105234146118e-02
-7.390005141496658325e-02
-5.677289515733718872e-02
-2.196468263864517212e-01
7.484328746795654297e-02
-8.869891613721847534e-02
1.262426376342773438e-02
-3.610395640134811401e-02
9.491740912199020386e-02
7.024966180324554443e-02
2.226644009351730347e-01
5.760227143764495850e-02
7.491203397512435913e-02
4.544677585363388062e-02
1.821862012147903442e-01
1.538768708705902100e-01
2.848018109798431396e-01
4.657016396522521973e-01
1.952638924121856689e-01
2.428752779960632324e-01
4.246305301785469055e-02
1.943612992763519287e-01
4.406343773007392883e-02
1.388517469167709351e-01
-3.964119777083396912e-02
-1.294937580823898315e-01
-2.150565683841705322e-01
-3.444125056266784668e-01
-1.494766771793365479e-01
-4.171160981059074402e-02
1.848893612623214722e-02
-8.374046534299850464e-02
-1.662473529577255249e-01
-1.478955000638961792e-01
-1.384187936782836914e-01
1.910024881362915039e-02
8.412755280733108521e-02
1.246692687273025513e-01
-4.288857802748680115e-02
1.627887785434722900e-01
-3.624334037303924561e-01
-3.177627325057983398e-01
-2.493364065885543823e-01
-6.552982330322265625e-02
-2.048099339008331299e-01
-3.025159537792205811e-01
-1.227907165884971619e-01
-6.317956745624542236e-02
-1.702716201543807983e-01
-6.251253932714462280e-02
-2.033483386039733887e-01
-1.459495723247528076e-01
-7.283397018909454346e-02
-4.300867021083831787e-02
-1.072470694780349731e-01
-1.369350682944059372e-02
-1.605388075113296509e-01
-1.565391272306442261e-01
1.381311565637588501e-01
1.592482924461364746e-01
6.461230665445327759e-02
4.608899727463722229e-02
1.759977936744689941e-01
1.652236133813858032e-01
-1.093948110938072205e-01
-1.315891295671463013e-01
3.775995969772338867e-02
-1.787490770220756531e-02
1.414857152849435806e-02
2.672960748896002769e-03
2.863813890144228935e-03
-8.321647346019744873e-02
1.351833790540695190e-01
7.125895470380783081e-02
1.276016533374786377e-01
6.674518436193466187e-02
1.026375293731689453e-01
-5.136292427778244019e-02
1.813395619392395020e-01
2.884265184402465820e-01
3.456286191940307617e-01
2.541882544755935669e-02
-2.632865011692047119e-01
-4.620781913399696350e-02
-7.302527315914630890e-03
-1.582348346710205078e-01
4.509877786040306091e-02
-1.310413479804992676e-01
-1.855186745524406433e-02
-6.365056335926055908e-02
-1.614714856259524822e-03
-5.997183732688426971e-03
8.024380542337894440e-03
1.198972165584564209e-01
2.150404602289199829e-01
4.208033382892608643e-01
3.014501035213470459e-01
1.271005570888519287e-01
7.031669467687606812e-02
-7.103604823350906372e-02
1.325937733054161072e-02
4.632325470447540283e-02
1.406329590827226639e-02
1.455409452319145203e-02
5.392292886972427368e-02
7.131887134164571762e-03
-9.715834259986877441e-02
-1.108659803867340088e-01
-1.029125601053237915e-01
-1.952594667673110962e-01
-7.018811255693435669e-02
5.594482272863388062e-02
-7.933171093463897705e-02
5.702178180217742920e-02
-1.001503169536590576e-01
3.697560727596282959e-02
2.723979414440691471e-04
2.345777116715908051e-03
1.551127284765243530e-01
-2.598619088530540466e-02
1.866077482700347900e-01
2.478989958763122559e-01
-7.596690952777862549e-02
-1.900118738412857056e-01
-7.218330353498458862e-02
3.978743776679039001e-02
7.426887005567550659e-02
1.847902126610279083e-02
1.239560917019844055e-02
-8.908382058143615723e-02
-2.843519747257232666e-01
-1.195521578192710876e-01
-9.169528633356094360e-02
-6.348354369401931763e-02
-1.106031425297260284e-02
-7.022756338119506836e-02
1.070666164159774780e-01
2.954451739788055420e-02
4.105724766850471497e-02
8.328381925821304321e-02
1.966175585985183716e-01
2.171684652566909790e-01
4.349638819694519043e-01
4.737471342086791992e-01
1.262904107570648193e-01
4.179814457893371582e-01
2.070221155881881714e-01
3.318085074424743652e-01
1.373282223939895630e-01
3.641062974929809570e-01
2.120770812034606934e-01
2.578244507312774658e-01
2.730529904365539551e-01
5.590870380401611328e-01
2.911464273929595947e-01
1.789047718048095703e-01
2.781315743923187256e-01
2.481007277965545654e-01
2.223755270242691040e-01
-5.204464495182037354e-02
-1.098608691245317459e-02
-1.431588679552078247e-01
-2.461614012718200684e-01
-9.005123376846313477e-02
4.484957084059715271e-02
-1.513554602861404419e-01
-1.148746460676193237e-01
-1.169350445270538330e-01
-2.590658366680145264e-01
-1.073704659938812256e-01
4.564173519611358643e-03
1.281866431236267090e-01
-1.131053082644939423e-02
-2.177090346813201904e-01
-7.854335010051727295e-02
-1.078891009092330933e-01
-2.309612631797790527e-01
8.436298370361328125e-02
-6.323216110467910767e-02
8.421374857425689697e-02
-1.081192567944526672e-01
2.866623736917972565e-02
1.106892377138137817e-01
-4.885650426149368286e-02
3.420744906179606915e-04
1.618107855319976807e-01
4.205804318189620972e-02
1.247882395982742310e-01
-4.333565756678581238e-02
-1.523165106773376465e-01
-1.272648479789495468e-02
1.573702096939086914e-01
2.968749105930328369e-01
1.332411766052246094e-01
8.471322804689407349e-02
3.000848591327667236e-01
2.019513398408889771e-01
1.487934887409210205e-01
8.637564629316329956e-02
2.483195215463638306e-01
-3.683172166347503662e-02
5.792963877320289612e-02
6.220973655581474304e-02
1.283073723316192627e-01
1.434427946805953979e-01
8.611159026622772217e-02
-3.968194127082824707e-02
8.625615388154983521e-02
-1.283303499221801758e-01
1.083380207419395447e-01
-1.503018140792846680e-01
-6.404295563697814941e-02
7.480908930301666260e-02
3.204859495162963867e-01
1.142486929893493652e-01
8.805262297391891479e-02
1.579828262329101562e-01
1.579410582780838013e-01
2.016449123620986938e-01
3.123781681060791016e-01
2.277213037014007568e-01
7.007750123739242554e-02
-2.977366000413894653e-02
1.469866037368774414e-01
1.046605110168457031e-01
1.195893064141273499e-01
1.521934475749731064e-02
1.567405611276626587e-01
5.833776667714118958e-02
1.825714260339736938e-01
1.240405663847923279e-01
4.444510638713836670e-01
-1.109825372695922852e-01
-2.358094751834869385e-01
-9.949231892824172974e-02
-4.799919947981834412e-02
-1.862823069095611572e-01
-8.737757056951522827e-02
-1.539156585931777954e-01
-1.763170063495635986e-01
-5.929965153336524963e-02
3.369813412427902222e-02
-1.572719961404800415e-01
-2.980071008205413818e-01
-1.718221753835678101e-01
8.650054782629013062e-02
-2.773364782333374023e-01
-2.150240689516067505e-01
-6.099780276417732239e-02
-1.544699221849441528e-01
-8.503153175115585327e-02
-1.993228942155838013e-01
-3.541788086295127869e-02
-1.968484930694103241e-02
3.737885132431983948e-02
-1.354818046092987061e-01
-3.531433641910552979e-01
-4.289176315069198608e-02
-1.124552264809608459e-01
5.464129615575075150e-03
1.674792766571044922e-01
1.231342554092407227e-01
1.412539631128311157e-01
3.455704450607299805e-02
-6.554674822837114334e-03
4.741054028272628784e-03
-6.862948834896087646e-02
-1.982013508677482605e-02
-1.794793158769607544e-01
9.171652793884277344e-02
-2.459209179505705833e-03
-1.362525820732116699e-01
1.651376634836196899e-01
2.070366591215133667e-01
-1.909137144684791565e-02
5.666810087859630585e-03
6.993617862462997437e-04
1.362131983041763306e-01
1.722710132598876953e-01
6.512831151485443115e-02
1.482983976602554321e-01
2.986547052860260010e-01
1.315895020961761475e-01
-2.790817059576511383e-02
5.842677503824234009e-02
1.622843146324157715e-01
2.066990435123443604e-01
-2.363044209778308868e-02
-1.727373898029327393e-01
-1.248547807335853577e-01
3.103354945778846741e-02
9.358076006174087524e-02
1.521832197904586792e-01
-1.672197729349136353e-01
-1.182947531342506409e-01
3.434790074825286865e-01
1.797991544008255005e-01
2.695881761610507965e-02
-1.666733622550964355e-01
-1.756053566932678223e-01
-4.921540617942810059e-01
-2.624745368957519531e-01
-1.972099542617797852e-01
-3.119459748268127441e-01
-6.842046231031417847e-02
5.366474017500877380e-02
-1.253565698862075806e-01
-1.313160061836242676e-01
-1.901114583015441895e-01
-1.453479528427124023e-01
-2.555747330188751221e-01
-4.144524335861206055e-01
-1.680477857589721680e-01
-9.452109038829803467e-02
-1.270188484340906143e-03
-2.499195486307144165e-01
-8.225658535957336426e-02
-1.712765991687774658e-01
-2.095646411180496216e-01
-3.022373616695404053e-01
-1.192229837179183960e-01
7.553271949291229248e-03
-5.214121565222740173e-02
-1.904306560754776001e-02
-4.778791591525077820e-02
-8.418605476617813110e-02
-1.123758926987648010e-01
-3.380364477634429932e-01
-7.046431303024291992e-02
-1.386050600558519363e-02
1.494056824594736099e-02
5.016848817467689514e-02
-2.111606746912002563e-01
4.418424889445304871e-02
2.089662849903106689e-01
-1.686548143625259399e-01
-1.999915987253189087e-01
1.483904421329498291e-01
5.653376504778862000e-02
9.045924991369247437e-02
8.708172291517257690e-02
-7.977645099163055420e-02
-2.150722444057464600e-01
-4.828318953514099121e-02
6.958099454641342163e-02
-3.395060077309608459e-02
6.385223567485809326e-02
-1.771102286875247955e-02
-1.928503438830375671e-02
-1.730503588914871216e-01
-1.668631881475448608e-01
-1.655879467725753784e-01
-1.320376992225646973e-01
-5.783279240131378174e-02
-8.266127109527587891e-02
1.320233196020126343e-01
3.885521739721298218e-02
-4.515246301889419556e-02
2.407430671155452728e-02
-7.869180291891098022e-02
-3.046166002750396729e-01
-2.946517169475555420e-01
-3.214637041091918945e-01
-3.508758842945098877e-01
-3.711962401866912842e-01
-3.121266663074493408e-01
-7.392686605453491211e-02
-6.439167261123657227e-02
-3.090231716632843018e-01
1.892101764678955078e-02
-2.955184318125247955e-02
9.342858940362930298e-02
-5.886413156986236572e-03
-1.252923812717199326e-02
-6.483401358127593994e-02
4.407043009996414185e-02
4.961618036031723022e-02
-2.948644757270812988e-01
-1.751615852117538452e-01
3.021793439984321594e-02
1.575622521340847015e-02
-1.286505907773971558e-01
9.334991872310638428e-02
2.496851682662963867e-01
1.664389073848724365e-01
1.009466825053095818e-03
-1.406317390501499176e-02
-1.305069029331207275e-01
-9.507600218057632446e-02
-1.863339841365814209e-01
-3.086549602448940277e-02
-1.318644583225250244e-01
-3.197446465492248535e-02
-1.644722819328308105e-01
2.605539560317993164e-01
-7.323596160858869553e-03
-6.336021423339843750e-02
1.015874221920967102e-01
5.145181715488433838e-02
1.966410875320434570e-01
2.722528278827667236e-01
3.340031504631042480e-01
3.417648673057556152e-01
2.431918978691101074e-01
3.380623757839202881e-01
1.598955243825912476e-01
3.629376590251922607e-01
2.179043143987655640e-01
1.264495402574539185e-01
-1.903023272752761841e-01
-2.987879328429698944e-02
-9.580500423908233643e-02
-7.132150232791900635e-02
-6.520798057317733765e-02
2.176539152860641479e-01
2.096265256404876709e-01
2.329123169183731079e-01
3.663743138313293457e-01
4.001212418079376221e-01
1.075784564018249512e-01
-8.992310613393783569e-03
1.463050097227096558e-01
4.397460445761680603e-02
-5.529398471117019653e-02
-1.255051195621490479e-01
-3.001756370067596436e-01
-8.172380924224853516e-02
-9.990798681974411011e-02
-3.161227107048034668e-01
2.326970547437667847e-02
-1.266498267650604248e-01
1.390399970114231110e-02
-5.342168733477592468e-02
-2.328153699636459351e-02
-2.675661146640777588e-01
-7.727210968732833862e-02
2.720226161181926727e-02
3.562580794095993042e-02
-9.879449754953384399e-02
-1.929095759987831116e-02
1.158117875456809998e-01
1.620235741138458252e-01
1.771073937416076660e-01
2.394239418208599091e-02
1.975597739219665527e-01
1.545221954584121704e-01
7.168949395418167114e-02
6.402838230133056641e-02
4.346185177564620972e-02
-1.875062584877014160e-01
-4.715360328555107117e-02
-1.854264885187149048e-01
-2.441085427999496460e-01
8.796899020671844482e-02
1.066508516669273376e-01
2.338992245495319366e-02
3.299876451492309570e-01
8.381440490484237671e-02
3.212655186653137207e-01
1.531410962343215942e-01
-5.292065441608428955e-03
1.415134519338607788e-01
1.997885704040527344e-01
1.561551392078399658e-01
4.873206838965415955e-02
-2.922984026372432709e-02
-7.019670680165290833e-03
5.101234465837478638e-02
1.989666223526000977e-01
1.021294966340065002e-01
2.616449892520904541e-01
3.926922678947448730e-01
3.077552914619445801e-01
4.461939930915832520e-01
4.548683762550354004e-01
1.169029027223587036e-01
-3.425971046090126038e-02
1.451040711253881454e-02
4.599770763888955116e-04
1.516560912132263184e-01
9.793003648519515991e-02
-3.810138255357742310e-02
-9.661527583375573158e-04
-1.010803058743476868e-01
-4.204094875603914261e-04
8.385400474071502686e-02
-6.123284995555877686e-02
-9.475713223218917847e-02
1.363082230091094971e-01
1.084087416529655457e-02
4.771411791443824768e-02
5.992628261446952820e-02
-2.665033042430877686e-01
-1.020430326461791992e-01
1.150467619299888611e-01
-2.618250064551830292e-02
-2.037890553474426270e-01
1.624616421759128571e-02
-2.035882174968719482e-01
-5.518971011042594910e-02
1.505607664585113525e-01
2.038068920373916626e-01
9.836748242378234863e-02
2.997421026229858398e-01
3.273321986198425293e-01
2.385273575782775879e-01
2.284674346446990967e-01
2.233190387487411499e-01
8.209106326103210449e-02
-7.885169470682740211e-04
1.781140863895416260e-01
2.397412806749343872e-01
1.124937981367111206e-01
1.025531217455863953e-01
-5.198486149311065674e-02
-1.818914860486984253e-01
8.521327376365661621e-02
2.230994552373886108e-01
-4.563346132636070251e-02
-1.360082179307937622e-01
4.750333428382873535e-01
2.898592650890350342e-01
-5.862211063504219055e-02
3.387370109558105469e-01
2.682140767574310303e-01
2.108321487903594971e-01
4.092160165309906006e-01
3.928033709526062012e-01
4.071523845195770264e-01
1.807531267404556274e-01
2.229037135839462280e-01
4.077581465244293213e-01
5.419977903366088867e-01
3.295971155166625977e-01
2.868177890777587891e-01
3.719065785408020020e-01
3.520051836967468262e-01
2.785101234912872314e-01
3.934072852134704590e-01
4.721517562866210938e-01
1.257271617650985718e-01
7.231786847114562988e-02
1.830923259258270264e-01
2.574969828128814697e-01
2.612835466861724854e-01
3.293298184871673584e-02
-6.193331256508827209e-02
-1.510578244924545288e-01
-8.646837621927261353e-02
2.181404531002044678e-01
5.265677347779273987e-02
-1.332592964172363281e-01
2.821175158023834229e-01
2.073007076978683472e-01
-1.651347428560256958e-01
-1.350679844617843628e-01
-1.013736985623836517e-02
2.190083116292953491e-01
1.431222110986709595e-01
1.099533513188362122e-01
2.155668884515762329e-01
2.999531626701354980e-01
1.167750507593154907e-01
1.156560555100440979e-01
1.631587445735931396e-01
2.108181826770305634e-02
6.409313529729843140e-02
3.766798377037048340e-01
1.980446279048919678e-02
-1.101823672652244568e-01
1.073741763830184937e-01
2.250903099775314331e-01
2.070851996541023254e-02
2.934844046831130981e-02
6.275526434183120728e-02
1.148061305284500122e-01
3.751322254538536072e-02
-1.152193099260330200e-01
-1.152052637189626694e-02
-9.720280766487121582e-02
-9.705521166324615479e-02
5.628370493650436401e-02
1.580947190523147583e-01
-9.133289009332656860e-02
1.225576922297477722e-01
-1.798581629991531372e-01
5.874087661504745483e-02
-4.918202757835388184e-02
1.487543992698192596e-02
-4.120938852429389954e-02
2.600549161434173584e-02
-7.170777022838592529e-02
5.698247998952865601e-02
3.437023460865020752e-01
2.690773010253906250e-01
1.555453538894653320e-01
1.596379578113555908e-01
1.875363588333129883e-01
4.912187159061431885e-02
5.789255723357200623e-02
4.079623892903327942e-02
9.561103582382202148e-02
6.718027591705322266e-02
3.200758397579193115e-01
1.932585388422012329e-01
1.608018428087234497e-01
1.422305256128311157e-01
1.499710530042648315e-01
2.641271054744720459e-01
1.077843829989433289e-01
-3.697064518928527832e-02
-3.464021533727645874e-02
-3.839806467294692993e-02
7.492240518331527710e-03
1.406410783529281616e-01
1.835503429174423218e-01
-3.722873516380786896e-03
1.568823307752609253e-02
1.127185449004173279e-01
-2.918427926488220692e-04
-7.517688721418380737e-02
-3.532971814274787903e-02
2.025962434709072113e-02
2.413751929998397827e-01
2.601692974567413330e-01
1.298383772373199463e-01
-6.059778109192848206e-02
8.576864376664161682e-03
4.801796004176139832e-02
1.939550973474979401e-02
1.444467902183532715e-01
-7.225614786148071289e-02
-7.354016415774822235e-03
8.339859545230865479e-02
2.849749028682708740e-01
4.509388282895088196e-02
3.256954848766326904e-01
2.016835808753967285e-01
-6.821136176586151123e-02
6.930433958768844604e-02
6.292209774255752563e-02
-5.366676300764083862e-02
3.926527127623558044e-02
-6.934663653373718262e-02
-3.126363828778266907e-02
-2.823065221309661865e-02
-5.097732320427894592e-02
-2.238797843456268311e-01
4.054113924503326416e-01
2.533573806285858154e-01
2.502440214157104492e-01
1.656771153211593628e-01
6.198750436305999756e-02
-1.459102332592010498e-01
5.358721315860748291e-02
2.919180318713188171e-02
-2.935172989964485168e-02
-8.272811770439147949e-02
1.147608458995819092e-01
-6.240860745310783386e-02
4.094650223851203918e-02
1.333142220973968506e-01
-1.116388756781816483e-02
7.453857362270355225e-02
1.717170476913452148e-01
-1.925550401210784912e-01
2.494085580110549927e-02
-3.426348865032196045e-01
-7.787530869245529175e-02
-1.647073626518249512e-01
-2.172749191522598267e-01
4.094739258289337158e-02
-7.002052664756774902e-02
-1.408541053533554077e-01
-6.687782704830169678e-02
-1.199924722313880920e-01
-2.333599925041198730e-01
-3.275192081928253174e-01
-4.216956906020641327e-03
7.251746952533721924e-02
1.891559511423110962e-01
1.286409795284271240e-01
2.050078064203262329e-01
2.715721726417541504e-01
1.008511558175086975e-01
1.530425697565078735e-01
1.668266057968139648e-01
-2.088863700628280640e-01
1.939567625522613525e-01
3.446065187454223633e-01
2.623097300529479980e-01
2.492322325706481934e-01
2.168012857437133789e-01
2.690123617649078369e-01
-8.244573324918746948e-02
2.674323506653308868e-03
-2.837852537631988525e-01
-3.064865618944168091e-02
9.683842957019805908e-02
-2.955374866724014282e-02
-8.739039301872253418e-02
-1.452535986900329590e-01
-8.206844329833984375e-02
3.003236139193177223e-03
-4.253048077225685120e-02
-4.394606500864028931e-02
9.968866407871246338e-02
4.224052652716636658e-02
1.913208961486816406e-01
-1.063279435038566589e-01
5.697152391076087952e-02
1.957520246505737305e-01
1.168486252427101135e-01
1.137089580297470093e-01
1.209540069103240967e-01
-8.218554407358169556e-02
2.255788892507553101e-01
3.402072191238403320e-01
4.734796285629272461e-02
3.505567088723182678e-02
1.631201058626174927e-01
4.217445477843284607e-02
2.288023978471755981e-01
1.197332516312599182e-01
1.853540986776351929e-01
4.259466826915740967e-01
3.396231308579444885e-02
1.215272396802902222e-01
1.988290995359420776e-01
6.590979546308517456e-02
1.440899223089218140e-01
1.327757388353347778e-01
-1.816895604133605957e-01
-8.278318494558334351e-02
1.809139251708984375e-01
1.926668919622898102e-02
-2.492807954549789429e-01
-2.618719041347503662e-01
-1.898695975542068481e-01
-2.775840088725090027e-02
2.391454428434371948e-01
1.868430227041244507e-01
8.188838139176368713e-03
-8.793424814939498901e-02
-9.505494683980941772e-02
-9.075682610273361206e-02
-1.835886090993881226e-01
1.232170611619949341e-01
-1.533924639225006104e-01
2.790884301066398621e-02
7.844561338424682617e-02
-1.266117691993713379e-01
-1.238787919282913208e-02
-6.784099340438842773e-02
2.474928945302963257e-01
1.481386716477572918e-03
1.115427725017070770e-02
-2.331334352493286133e-02
-1.185697466135025024e-01
-4.005493596196174622e-02
-3.526293933391571045e-01
-1.388304233551025391e-01
1.047529131174087524e-01
9.617216140031814575e-02
-1.386884897947311401e-01
-4.221089929342269897e-02
-2.804721891880035400e-01
-2.970863133668899536e-02
-1.202019751071929932e-01
-1.306702196598052979e-01
-1.998422443866729736e-01
-1.236386150121688843e-01
1.353398561477661133e-01
2.436487972736358643e-01
4.007835388183593750e-01
5.273702368140220642e-02
2.006101310253143311e-01
4.881644248962402344e-02
1.507036238908767700e-01
3.506159037351608276e-02
1.851708590984344482e-01
3.153905868530273438e-01
1.605895161628723145e-01
1.309833228588104248e-01
-1.609007567167282104e-01
-3.648098185658454895e-02
5.688122287392616272e-02
-2.282490767538547516e-02
1.168642658740282059e-02
1.441507413983345032e-02
-8.206480741500854492e-02
-3.761640191078186035e-02
-7.375728338956832886e-02
2.930627390742301941e-02
-1.324388477951288223e-02
9.146594256162643433e-02
-4.455446451902389526e-02
-4.377297684550285339e-02
4.176931083202362061e-02
9.212406724691390991e-02
-6.235627084970474243e-02
-3.642236813902854919e-02
-2.938790023326873779e-01
-7.763677835464477539e-02
-2.033844217658042908e-02
3.696779161691665649e-02
-1.264400631189346313e-01
-2.332069873809814453e-01
-1.961455941200256348e-01
-4.355814456939697266e-01
5.516637116670608521e-02
1.397513691335916519e-02
1.303237229585647583e-01
-1.293808668851852417e-01
-4.417536258697509766e-01
-2.480924278497695923e-01
-2.786323726177215576e-01
-1.113852635025978088e-01
4.531906917691230774e-03
-3.782096505165100098e-01
1.303253769874572754e-01
-1.699700206518173218e-01
-6.606130301952362061e-02
-1.278000324964523315e-01
-9.874647110700607300e-02
2.763225696980953217e-03
-4.918768256902694702e-02
1.214039549231529236e-01
-1.720349192619323730e-01
-2.004757672548294067e-01
6.137694045901298523e-02
-6.939867138862609863e-02
-2.525881528854370117e-01
-1.681132316589355469e-01
-4.371540844440460205e-01
-2.815925776958465576e-01
-2.237397581338882446e-01
-2.476005107164382935e-01
-2.541550397872924805e-01
2.530325055122375488e-01
-7.152584940195083618e-02
6.364316493272781372e-02
4.036541213281452656e-04
1.590646505355834961e-01
-3.429365903139114380e-02
4.478601738810539246e-03
-3.568572700023651123e-01
-1.218195855617523193e-01
1.255918890237808228e-01
-2.829765677452087402e-01
-1.275299191474914551e-01
-3.959600627422332764e-02
8.124240487813949585e-02
1.520416233688592911e-02
-1.614148020744323730e-01
1.387698054313659668e-01
-1.329378634691238403e-01
1.613834649324417114e-01
-5.999181792140007019e-02
1.149343140423297882e-02
7.164418697357177734e-02
1.851926445960998535e-01
1.595051884651184082e-01
1.459969580173492432e-01
-3.630892336368560791e-01
-2.366756647825241089e-01
-2.138563990592956543e-01
-3.344463407993316650e-01
-2.701388001441955566e-01
-2.872596085071563721e-01
5.186201259493827820e-02
8.315356820821762085e-02
-7.071968168020248413e-02
1.460104882717132568e-01
6.165456771850585938e-02
-1.472157891839742661e-02
7.135774195194244385e-02
2.698414623737335205e-01
2.767186462879180908e-01
2.196286916732788086e-01
1.215986092574894428e-03
-1.329924538731575012e-02
4.766383394598960876e-02
1.043740957975387573e-01
-1.083118990063667297e-01
-1.988428980112075806e-01
-9.364855289459228516e-02
1.838662028312683105e-01
-1.381514314562082291e-02
1.471818983554840088e-01
-2.719239294528961182e-01
-4.220149815082550049e-01
-1.213912069797515869e-01
2.583735883235931396e-01
1.608518213033676147e-01
2.756442725658416748e-01
-6.889769434928894043e-02
1.105740070343017578e-01
-4.992926493287086487e-03
-5.840019136667251587e-02
9.579237550497055054e-02
-3.727954998612403870e-02
-1.644804179668426514e-01
-3.799422979354858398e-01
-1.162647679448127747e-01
-6.803760677576065063e-02
5.830546841025352478e-02
1.463179290294647217e-01
-1.648204475641250610e-01
-1.284264922142028809e-01
-3.959615156054496765e-02
2.512678802013397217e-01
2.777820527553558350e-01
-1.204325333237648010e-01
8.626667410135269165e-02
1.087853834033012390e-01
-3.598445653915405273e-01
-2.736583054065704346e-01
-2.587703801691532135e-02
2.584826052188873291e-01
1.631032526493072510e-01
7.414358109235763550e-02
9.403637796640396118e-02
-1.977480053901672363e-01
-8.002943545579910278e-02
6.935256719589233398e-02
2.661252319812774658e-01
2.200372815132141113e-01
6.383787840604782104e-02
-4.675830528140068054e-02
-1.519432216882705688e-01
1.604759246110916138e-01
-2.600119821727275848e-02
-2.363898456096649170e-01
-6.936347484588623047e-02
-8.363384753465652466e-02
-5.733611807227134705e-02
1.312870532274246216e-01
-1.556352376937866211e-01
-2.549484930932521820e-02
5.733665078878402710e-02
2.145575582981109619e-01
-1.084084287285804749e-01
2.085346430540084839e-01
-4.255286604166030884e-02
-3.580078780651092529e-01
-1.633649617433547974e-01
-1.977463997900485992e-02
-1.877209991216659546e-01
-1.494051665067672729e-01
4.445458576083183289e-02
3.009136021137237549e-01
3.226430341601371765e-02
-1.486541330814361572e-01
-3.455691039562225342e-02
3.773466870188713074e-02
-1.694622337818145752e-01
-1.153258830308914185e-01
1.138794571161270142e-01
-2.873626351356506348e-02
-3.255116343498229980e-01
-3.986299932003021240e-01
7.222731411457061768e-02
-6.580705195665359497e-02
1.799538433551788330e-01
-1.841883957386016846e-01
-2.427106201648712158e-01
6.600157171487808228e-02
2.161199972033500671e-02
1.976080425083637238e-02
-2.616713568568229675e-02
3.621740639209747314e-02
-1.315105613321065903e-02
2.592564560472965240e-02
-2.949219755828380585e-02
-2.861770614981651306e-02
2.587225520983338356e-03
-4.993648082017898560e-02
-3.580096736550331116e-02
-1.915725646540522575e-03
-5.722267669625580311e-04
1.361146569252014160e-02
-3.033351153135299683e-02
-4.990621656179428101e-02
2.863739803433418274e-02
4.146792739629745483e-02
2.771244756877422333e-02
-1.050235889852046967e-02
4.272931721061468124e-03
-3.340727835893630981e-02
4.860778525471687317e-02
9.827703982591629028e-02
2.479135692119598389e-01
-4.022515937685966492e-02
2.915749559178948402e-03
1.915362104773521423e-02
8.047676086425781250e-02
-7.228380069136619568e-03
-1.427313312888145447e-02
-4.510951414704322815e-02
-1.241554394364356995e-01
1.307840272784233093e-02
1.029423531144857407e-02
3.238279744982719421e-02
-1.282000169157981873e-02
-1.317112799733877182e-02
-1.001696214079856873e-01
-1.335729956626892090e-01
-5.030112806707620621e-04
2.693640999495983124e-04
-3.805712610483169556e-02
-5.328007042407989502e-02
2.665434405207633972e-02
9.632898122072219849e-02
-1.912806369364261627e-02
-5.626007542014122009e-02
-8.337526768445968628e-02
-8.555131405591964722e-02
-2.209596931934356689e-01
-1.269701421260833740e-01
-1.485719382762908936e-01
-1.243198942393064499e-02
7.055225223302841187e-02
2.125843912363052368e-01
3.080463409423828125e-01
1.804065704345703125e-01
1.159961596131324768e-01
9.618948400020599365e-02
9.665204584598541260e-02
5.033708736300468445e-02
4.785426892340183258e-03
4.156456887722015381e-02
-1.744623482227325439e-02
8.564692735671997070e-02
1.047857291996479034e-02
-1.000686958432197571e-01
4.072351846843957901e-03
4.558324813842773438e-02
-5.238346010446548462e-02
1.179055944085121155e-01
2.848497964441776276e-02
8.970689028501510620e-02
-1.708430647850036621e-01
-8.350865542888641357e-02
-8.932532370090484619e-02
6.704246997833251953e-02
1.242377981543540955e-01
6.190657243132591248e-02
-9.379357099533081055e-02
6.788162142038345337e-02
-4.126317799091339111e-02
-1.441447734832763672e-01
-1.182038933038711548e-01
3.338628262281417847e-02
1.149157732725143433e-01
1.296211928129196167e-01
2.800130248069763184e-01
2.275824695825576782e-01
2.115305066108703613e-01
4.118571802973747253e-02
5.666932091116905212e-02
-1.541410237550735474e-01
-2.736796736717224121e-01
-1.463311910629272461e-01
1.414732187986373901e-01
1.341715306043624878e-01
-8.573111146688461304e-02
-7.120468467473983765e-02
4.725876729935407639e-03
3.354696556925773621e-02
3.307878226041793823e-02
-6.031135469675064087e-02
-1.953764259815216064e-01
8.346671611070632935e-02
4.088189825415611267e-02
-7.832038402557373047e-02
1.792305409908294678e-01
-1.007004454731941223e-01
-8.846600353717803955e-02
7.342836260795593262e-02
-6.437958776950836182e-02
2.489521354436874390e-01
2.557854652404785156e-01
1.691049933433532715e-01
4.131409525871276855e-02
-3.761113062500953674e-02
-6.718848645687103271e-02
-4.066326320171356201e-01
-3.533861935138702393e-01
-3.843256235122680664e-01
-2.309113293886184692e-01
-1.810270994901657104e-01
-1.384519189596176147e-01
8.035013452172279358e-03
1.509340256452560425e-01
1.725810766220092773e-01
1.147880405187606812e-01
-8.190312981605529785e-02
7.056111842393875122e-02
5.594980437308549881e-03
6.551408022642135620e-02
-5.647850036621093750e-02
1.400088220834732056e-01
-2.125185914337635040e-02
5.140771716833114624e-02
1.575544327497482300e-01
-4.307272378355264664e-03
1.372045725584030151e-01
6.153943762183189392e-02
1.995722204446792603e-01
2.458413690328598022e-01
9.400508366525173187e-03
3.012205846607685089e-02
1.665717065334320068e-01
2.123583108186721802e-01
5.972545593976974487e-02
-5.322390422224998474e-02
-3.105985224246978760e-01
-5.006010532379150391e-01
-5.096005201339721680e-01
-3.403832614421844482e-01
-3.396940827369689941e-01
-1.845947653055191040e-01
-2.252141237258911133e-01
-8.342494815587997437e-02
1.531754285097122192e-01
2.354589104652404785e-01
2.387855648994445801e-01
1.605311222374439240e-02
-6.728816777467727661e-02
-1.461639702320098877e-01
-9.057771414518356323e-02
2.963816188275814056e-02
3.261237591505050659e-02
1.209270432591438293e-01
-4.611942172050476074e-02
-3.213156014680862427e-02
6.007012352347373962e-02
9.036914259195327759e-02
-3.563689067959785461e-02
-4.946443066000938416e-02
-3.862721100449562073e-02
1.287271454930305481e-02
-1.119102314114570618e-01
-1.974458396434783936e-01
-1.662697345018386841e-01
-8.886120468378067017e-02
-7.705426216125488281e-02
-1.635162979364395142e-01
3.320294246077537537e-02
-4.226984083652496338e-02
1.420953124761581421e-01
2.211143523454666138e-01
1.803319007158279419e-01
2.942752838134765625e-01
2.786439359188079834e-01
3.669698238372802734e-01
1.278005689382553101e-01
2.932578623294830322e-01
1.382254064083099365e-01
-1.642302423715591431e-01
7.021139562129974365e-02
-4.293127451092004776e-03
1.953581869602203369e-01
1.361842453479766846e-01
-4.968996718525886536e-02
9.709949046373367310e-02
-1.084430739283561707e-01
-3.563832491636276245e-02
1.241489220410585403e-02
-1.054534167051315308e-01
-4.331140965223312378e-02
-4.613264650106430054e-02
3.079465590417385101e-03
-7.800996303558349609e-03
-7.633554935455322266e-02
-1.948753185570240021e-02
-1.987287253141403198e-01
-1.050549000501632690e-01
-9.837373346090316772e-02
1.650376468896865845e-01
3.354625105857849121e-01
4.182673096656799316e-01
7.291256785392761230e-01
6.210213899612426758e-01
5.118759274482727051e-01
2.660462260246276855e-01
-3.495898842811584473e-02
-2.617622911930084229e-01
-2.787298858165740967e-01
-5.982273072004318237e-02
-1.703318953514099121e-01
-4.478063900023698807e-03
-1.117018796503543854e-02
2.224500291049480438e-03
-9.434946812689304352e-03
3.763459250330924988e-02
-2.654517590999603271e-01
6.979121267795562744e-02
1.455937772989273071e-01
-1.848994642496109009e-01
7.084281742572784424e-02
-9.424734860658645630e-02
8.335057646036148071e-02
-5.292058363556861877e-02
1.188594698905944824e-01
1.779089570045471191e-01
2.994489371776580811e-01
2.887913584709167480e-01
1.883368790149688721e-01
2.023906260728836060e-01
1.152796857059001923e-02
2.356380671262741089e-01
1.481220424175262451e-01
4.557739570736885071e-02
1.734083294868469238e-01
7.906202226877212524e-03
-3.063365817070007324e-01
-2.873541414737701416e-01
-3.539833128452301025e-01
-1.170015409588813782e-01
9.736162424087524414e-02
-9.439885616302490234e-02
-1.095708459615707397e-01
1.151683628559112549e-01
2.240823023021221161e-02
1.950681954622268677e-02
-8.140019327402114868e-02
-3.371826931834220886e-02
5.447270348668098450e-02
-5.922509357333183289e-02
7.011532038450241089e-02
6.106829643249511719e-02
1.018090471625328064e-01
-6.046149134635925293e-02
-4.893603920936584473e-02
-7.506535947322845459e-02
-1.066052988171577454e-01
-3.720545768737792969e-02
4.636800289154052734e-02
2.053093910217285156e-01
1.555300056934356689e-01
4.256742298603057861e-01
4.434904456138610840e-01
4.145294427871704102e-01
1.323184669017791748e-01
9.501663595438003540e-02
-1.738045662641525269e-01
-3.523238003253936768e-01
-6.445117592811584473e-01
-4.088571965694427490e-01
-3.694430291652679443e-01
-4.079490005970001221e-01
-1.838782429695129395e-01
-1.228062342852354050e-02
-5.557987838983535767e-02
-2.248082123696804047e-02
3.353984281420707703e-02
-1.280289292335510254e-01
-1.132320240139961243e-01
-2.582618892192840576e-01
-2.966060489416122437e-02
-2.530156672000885010e-01
-8.970868773758411407e-03
-4.379274323582649231e-02
9.888788312673568726e-02
-3.465709388256072998e-01
5.232236161828041077e-02
-2.900211140513420105e-02
2.166727185249328613e-01
2.807675302028656006e-01
1.284921169281005859e-01
1.239221543073654175e-01
1.220634356141090393e-01
2.922402620315551758e-01
2.410861849784851074e-01
2.159088999032974243e-01
4.085239395499229431e-02
3.388683544471859932e-03
-1.185520365834236145e-01
1.085320562124252319e-01
-1.334359403699636459e-02
8.663770556449890137e-02
-2.739454060792922974e-02
-8.327235281467437744e-02
-1.003606691956520081e-01
-1.959798634052276611e-01
-1.652860827744007111e-02
-9.569229558110237122e-03
9.862332371994853020e-04
1.342904940247535706e-02
-1.179232075810432434e-01
-4.437865689396858215e-02
-1.219085901975631714e-01
-1.700948327779769897e-01
-7.641240954399108887e-02
3.451436012983322144e-02
-2.537736669182777405e-02
8.473667502403259277e-02
1.793853938579559326e-01
-1.927983909845352173e-01
3.227052092552185059e-02
7.445143908262252808e-02
1.041503548622131348e-01
-5.355061218142509460e-02
-2.650944143533706665e-02
-1.142445430159568787e-01
-8.585499227046966553e-02
-5.502141639590263367e-02
-1.994469612836837769e-01
-3.625340014696121216e-02
1.754361689090728760e-01
1.955609023571014404e-01
1.381721496582031250e-01
6.518904119729995728e-02
1.967623233795166016e-01
6.966114789247512817e-02
1.416263431310653687e-01
-8.134082704782485962e-02
-1.084622368216514587e-01
6.868364661931991577e-02
1.761584430932998657e-01
5.818611383438110352e-02
-1.436893790960311890e-01
-1.107548475265502930e-01
-1.205113381147384644e-01
1.196519881486892700e-01
6.396833062171936035e-02
-2.077879160642623901e-01
1.514823138713836670e-01
1.569677591323852539e-01
5.596217513084411621e-02
-1.559809595346450806e-01
9.316749125719070435e-02
-1.555190980434417725e-01
1.639377623796463013e-01
-1.327910125255584717e-01
-2.596856951713562012e-01
-1.194308623671531677e-01
1.125868223607540131e-02
-1.281292736530303955e-01
1.777707189321517944e-01
2.734504640102386475e-01
4.636927843093872070e-01
4.238894581794738770e-01
3.684213757514953613e-01
3.677848875522613525e-01
-8.049753308296203613e-02
-2.801936566829681396e-01
-2.103345990180969238e-01
-2.670805156230926514e-01
-1.360647846013307571e-02
2.825411036610603333e-03
-1.962827891111373901e-01
-8.660979568958282471e-02
9.453828632831573486e-02
-1.427094638347625732e-02
2.245650440454483032e-01
-3.039788268506526947e-02
-3.535734117031097412e-02
-2.636597678065299988e-02
-1.526417881250381470e-01
4.182903841137886047e-02
-3.452054411172866821e-02
1.520861983299255371e-01
-4.691987112164497375e-02
-1.615794897079467773e-01
-5.269300937652587891e-02
3.160576149821281433e-02
5.186900496482849121e-02
-1.344020515680313110e-01
-1.746580451726913452e-01
3.894712775945663452e-02
5.948604643344879150e-02
-5.474393256008625031e-03
4.205605015158653259e-02
-1.240906342864036560e-01
-3.137040883302688599e-02
-2.311619967222213745e-01
-2.303816676139831543e-01
-1.788929700851440430e-01
-7.504827529191970825e-02
-2.595965564250946045e-01
-1.511238813400268555e-01
1.094239354133605957e-01
-5.707604438066482544e-02
-3.045179322361946106e-02
7.630069553852081299e-02
-1.497004777193069458e-01
1.453807502985000610e-01
3.486751019954681396e-01
1.149026006460189819e-01
-2.408169507980346680e-01
-1.637469232082366943e-01
4.672727361321449280e-02
2.356686890125274658e-01
-6.518606096506118774e-02
-7.292351871728897095e-02
-8.358410745859146118e-02
-2.549102604389190674e-01
-1.257132738828659058e-01
-2.235409021377563477e-01
5.712688714265823364e-02
-5.067524313926696777e-02
2.115694880485534668e-01
-1.439646780490875244e-01
-1.653802245855331421e-01
-3.930280208587646484e-01
-4.155850410461425781e-01
-7.933834195137023926e-02
-2.571153640747070312e-01
1.402527093887329102e-02
8.377220481634140015e-02
-5.147681757807731628e-02
1.704357862472534180e-01
5.143062397837638855e-02
2.902865875512361526e-03
1.915690004825592041e-01
-3.011501953005790710e-02
3.154714033007621765e-02
-2.881623208522796631e-01
-1.650871783494949341e-01
-1.905761659145355225e-02
3.545506298542022705e-01
-4.108976572751998901e-02
4.526745155453681946e-02
4.382871463894844055e-02
-1.745593994855880737e-01
-1.121969893574714661e-01
-1.239323243498802185e-01
1.191873773932456970e-01
6.494651734828948975e-02
-8.827901631593704224e-02
-1.122542768716812134e-01
2.529856264591217041e-01
1.363269239664077759e-01
1.884658783674240112e-01
6.532280892133712769e-02
-6.120172888040542603e-02
-1.736213415861129761e-01
8.187267929315567017e-02
-1.720623928122222424e-03
-6.311282515525817871e-02
-2.211573906242847443e-02
3.626078367233276367e-02
-1.892348229885101318e-01
-2.994582056999206543e-01
2.660239348188042641e-03
1.555642783641815186e-01
4.086631163954734802e-02
9.592214226722717285e-02
-1.790008507668972015e-02
-3.472243621945381165e-02
-2.056319862604141235e-01
-1.418648213148117065e-01
-6.071327254176139832e-02
-1.000147312879562378e-01
7.874379307031631470e-02
3.757439553737640381e-01
1.262568831443786621e-01
1.063573211431503296e-01
1.030650809407234192e-01
5.422790534794330597e-03
1.278710365295410156e-01
7.716051489114761353e-02
-3.376558125019073486e-01
8.718172460794448853e-02
1.120674535632133484e-01
6.445786356925964355e-02
5.020511895418167114e-02
3.401103988289833069e-02
6.482856115326285362e-04
-2.775878012180328369e-01
3.316997736692428589e-02
-1.586334109306335449e-01
-4.431288689374923706e-02
7.734467275440692902e-03
-2.227816544473171234e-02
3.238896653056144714e-02
1.155657097697257996e-01
-2.506854757666587830e-02
4.096269607543945312e-02
4.041908681392669678e-01
1.483399868011474609e-01
1.022273451089859009e-01
-5.030366033315658569e-02
6.667272001504898071e-02
2.680062055587768555e-01
-2.175468578934669495e-02
-2.348917126655578613e-01
-1.454189121723175049e-01
-1.113489121198654175e-01
-1.810789853334426880e-01
-6.755898147821426392e-02
1.231597810983657837e-01
1.988161504268646240e-01
1.183809190988540649e-01
1.169567927718162537e-01
1.107523813843727112e-01
2.199758142232894897e-01
7.738944888114929199e-02
5.063012614846229553e-02
-1.295608729124069214e-01
-9.539845585823059082e-02
-1.716980487108230591e-01
-4.269905854016542435e-03
1.571256108582019806e-02
1.256128251552581787e-01
3.131992518901824951e-01
5.387018248438835144e-02
-1.058688387274742126e-02
1.215628944919444621e-04
2.002175003290176392e-01
-1.482424885034561157e-01
1.429138928651809692e-01
-7.127075642347335815e-02
-1.675456762313842773e-01
4.533793311566114426e-03
2.347191981971263885e-02
1.984829641878604889e-02
7.020615786314010620e-02
2.070424407720565796e-01
-1.473108828067779541e-01
-2.417579889297485352e-01
1.177824214100837708e-01
3.146625459194183350e-01
3.717122375965118408e-01
1.338828802108764648e-01
-2.442027628421783447e-02
-1.655403822660446167e-01
2.240046858787536621e-03
3.305594995617866516e-02
-3.902604430913925171e-02
-4.998398944735527039e-02
-3.077763877809047699e-02
-8.910305052995681763e-02
1.600870862603187561e-02
-2.269872874021530151e-01
-2.194723188877105713e-01
6.378485262393951416e-02
-1.055845804512500763e-02
-9.599248319864273071e-02
2.381237000226974487e-01
1.907099783420562744e-01
-3.497430309653282166e-02
1.815317869186401367e-01
2.536968290805816650e-01
-1.214490830898284912e-02
4.225488752126693726e-02
8.635554462671279907e-02
9.547525644302368164e-02
-9.261971712112426758e-02
3.055502176284790039e-01
1.580897867679595947e-01
2.392649650573730469e-02
-1.513550132513046265e-01
-6.755143404006958008e-03
4.005201533436775208e-02
-4.266104847192764282e-02
-1.511890143156051636e-01
-3.694720938801765442e-02
-1.118699610233306885e-01
1.621425338089466095e-02
-2.514768391847610474e-02
5.781571567058563232e-02
-5.858764797449111938e-02
1.612042337656021118e-01
2.383901551365852356e-02
-7.959173619747161865e-02
-2.846436500549316406e-01
-2.035820782184600830e-01
1.593408882617950439e-01
7.207263261079788208e-02
-8.418855071067810059e-02
6.100851111114025116e-03
1.202427297830581665e-01
1.160796061158180237e-01
1.047582104802131653e-01
-5.562515184283256531e-02
-1.963496953248977661e-01
-3.017634451389312744e-01
-2.361967861652374268e-01
-3.861309587955474854e-01
2.533837854862213135e-01
-2.676446735858917236e-02
3.697559237480163574e-02
-2.158209830522537231e-01
4.459859058260917664e-02
-3.301569819450378418e-01
-1.934201270341873169e-02
-1.465463936328887939e-01
-4.421519115567207336e-03
1.567304581403732300e-01
-1.012462899088859558e-01
1.110650449991226196e-01
1.770647764205932617e-01
-4.162533953785896301e-02
1.301052048802375793e-02
3.119719214737415314e-02
-2.184984385967254639e-01
1.268215626478195190e-01
-3.703353926539421082e-02
1.746812313795089722e-01
-4.888982698321342468e-02
-7.942298799753189087e-02
-3.698977828025817871e-02
5.280740186572074890e-02
6.142741814255714417e-02
-8.804895728826522827e-02
-1.001538634300231934e-01
1.207289248704910278e-01
4.767408967018127441e-02
-3.035574257373809814e-01
-2.267382442951202393e-01
-1.332901716232299805e-01
1.034668460488319397e-01
9.189297258853912354e-02
-4.112783446907997131e-02
5.848818272352218628e-02
2.416849508881568909e-02
3.203012049198150635e-01
9.285582602024078369e-02
4.650893434882164001e-02
-1.190175041556358337e-01
1.474874615669250488e-01
-8.744417876005172729e-02
1.040458008646965027e-01
-4.424098506569862366e-02
-1.392519772052764893e-01
-1.478195190429687500e-01
-7.756229490041732788e-02
-8.948551863431930542e-02
-1.123223975300788879e-01
-1.464543491601943970e-01
3.985001519322395325e-02
-2.365457266569137573e-01
-2.579038739204406738e-01
-2.243503741919994354e-02
-1.352482885122299194e-01
8.300929516553878784e-02
1.477824896574020386e-01
4.409229755401611328e-02
8.103220909833908081e-02
-6.383442878723144531e-02
-2.576247155666351318e-01
4.816986620426177979e-02
1.466756910085678101e-01
2.423700243234634399e-01
-2.253833971917629242e-02
1.773099042475223541e-02
-1.838925480842590332e-01
-4.684197250753641129e-03
2.408766597509384155e-01
4.554527625441551208e-02
-1.285651773214340210e-01
1.744708744809031487e-03
3.122696466743946075e-02
7.021997123956680298e-02
-2.187819033861160278e-01
-1.279583573341369629e-01
-8.297783881425857544e-02
-3.265780210494995117e-02
-6.625867635011672974e-02
7.482012361288070679e-02
-1.420482695102691650e-01
1.541310846805572510e-01
-1.386692523956298828e-01
-2.834851741790771484e-01
7.784070074558258057e-02
-2.190773785114288330e-01
1.955597847700119019e-01
3.090031743049621582e-01
5.002190917730331421e-02
-1.820686310529708862e-01
3.086999058723449707e-02
1.312609165906906128e-01
2.175878286361694336e-01
-1.081993132829666138e-01
1.813509315252304077e-01
-2.022578120231628418e-01
-1.231091096997261047e-02
-2.535440921783447266e-01
1.470460444688796997e-01
1.014740206301212311e-02
8.210880309343338013e-02
-4.569550231099128723e-02
-2.338501214981079102e-01
-1.211162731051445007e-01
-3.249329328536987305e-02
-8.872707933187484741e-02
-1.710866689682006836e-01
5.332781746983528137e-02
2.064576558768749237e-02
2.264767289161682129e-01
-2.343639284372329712e-01
-2.741280756890773773e-02
-1.880876719951629639e-02
2.867882847785949707e-01
1.188017204403877258e-01
2.277281694114208221e-02
1.873037070035934448e-01
9.188382327556610107e-02
1.972002685070037842e-01
4.026726186275482178e-01
-1.782347857952117920e-01
-2.569391429424285889e-01
2.130207419395446777e-01
2.302324473857879639e-01
1.713323146104812622e-01
-1.022732183337211609e-01
1.446577813476324081e-02
-1.560194641351699829e-01
-4.409691393375396729e-01
-9.893451631069183350e-02
1.045699417591094971e-01
-3.976438939571380615e-02
1.249523684382438660e-01
-1.979267448186874390e-01
-7.412949204444885254e-02
-8.267216384410858154e-02
-1.402907967567443848e-01
-2.356493622064590454e-01
-4.243867471814155579e-02
6.888234615325927734e-02
2.474355399608612061e-01
2.154480898752808571e-03
-2.696400322020053864e-02
1.513826996088027954e-01
1.627967576496303082e-04
-1.303159743547439575e-01
-2.172945141792297363e-01
-1.451125591993331909e-01
-2.648573927581310272e-02
-3.643518686294555664e-02
-1.969071179628372192e-01
-2.295594476163387299e-02
-2.395299822092056274e-01
-1.199159622192382812e-01
3.418452572077512741e-03
-1.224363669753074646e-01
-5.502792075276374817e-02
1.468364149332046509e-01
-1.318841893225908279e-02
-2.565510384738445282e-02
-1.303015947341918945e-01
-1.475869566202163696e-01
1.442582458257675171e-01
1.661022007465362549e-01
-6.409884989261627197e-02
-2.035765051841735840e-01
-1.399854123592376709e-01
-7.721817493438720703e-02
7.655150443315505981e-02
-8.166173100471496582e-02
6.204618886113166809e-02
1.723721176385879517e-01
1.388298273086547852e-01
1.585364192724227905e-01
2.509352192282676697e-02
-2.420840263366699219e-01
2.563950121402740479e-01
1.424372568726539612e-02
2.827180922031402588e-02
-1.982923410832881927e-02
1.345448195934295654e-01
2.554303705692291260e-01
-3.044951558113098145e-01
-1.823976486921310425e-01
3.508031070232391357e-01
3.677455484867095947e-01
-4.293875396251678467e-02
-8.344782143831253052e-02
-2.684276700019836426e-01
2.215865552425384521e-01
1.846963763236999512e-01
1.909795552492141724e-01
-1.053488906472921371e-02
-2.378808520734310150e-02
1.450105905532836914e-01
2.185564488172531128e-01
4.586361721158027649e-02
8.813050389289855957e-02
-1.072367280721664429e-01
-2.823823094367980957e-01
-1.348906308412551880e-01
1.346925348043441772e-01
-4.654941707849502563e-02
2.122166454792022705e-01
-6.021965667605400085e-02
6.552603840827941895e-02
-8.140239119529724121e-02
-2.043864578008651733e-01
-1.259724944829940796e-01
-3.829472512006759644e-02
-9.898217394948005676e-03
9.711118042469024658e-02
7.564552593976259232e-03
3.043061494827270508e-01
-1.576807647943496704e-01
-1.608697175979614258e-01
1.679847389459609985e-01
2.656645514070987701e-02
4.314557611942291260e-01
-1.857127062976360321e-02
5.988918617367744446e-02
2.376552820205688477e-01
1.179621219635009766e-01
1.110346317291259766e-01
-1.439497172832489014e-01
-2.533893100917339325e-02
-1.421982198953628540e-01
5.189989460632205009e-04
-7.465023081749677658e-03
9.908460080623626709e-02
9.235844016075134277e-02
-5.105284228920936584e-02
1.951309591531753540e-01
6.578904390335083008e-02
-2.072049081325531006e-01
3.635249286890029907e-02
7.859835028648376465e-02
2.385140210390090942e-02
2.733338624238967896e-02
2.105077058076858521e-01
7.769887149333953857e-02
3.913942351937294006e-02
7.779211550951004028e-02
2.099452018737792969e-01
1.825812757015228271e-01
2.324536591768264771e-01
-3.414637222886085510e-02
1.479316353797912598e-01
8.276867680251598358e-03
5.152459442615509033e-02
7.373961061239242554e-02
6.816981360316276550e-03
3.174316883087158203e-01
1.603296846151351929e-01
1.042104214429855347e-01
1.345272809267044067e-01
2.611046135425567627e-01
-1.061234399676322937e-01
2.542078681290149689e-02
2.079687863588333130e-01
-1.620527952909469604e-01
9.456290304660797119e-02
1.413891911506652832e-01
4.714789241552352905e-02
-2.195804417133331299e-01
-3.096958398818969727e-01
-1.734007596969604492e-01
-1.807976216077804565e-01
-7.237101346254348755e-02
-1.758229285478591919e-01
-2.318608760833740234e-01
9.107508510351181030e-02
1.831289380788803101e-01
-8.995326608419418335e-02
-2.429022043943405151e-01
-2.100065052509307861e-01
-2.451566159725189209e-01
2.128538042306900024e-01
-1.076555103063583374e-01
-6.310818344354629517e-02
3.012869060039520264e-01
1.644294857978820801e-01
1.979810297489166260e-01
1.880917251110076904e-01
-7.271876931190490723e-02
-3.564002458006143570e-03
4.422417581081390381e-01
-2.020128220319747925e-01
3.075458705425262451e-01
4.868832975625991821e-02
-3.788241744041442871e-02
3.953681513667106628e-02
-3.176311850547790527e-01
-1.940057277679443359e-01
1.785685718059539795e-01
-2.006770521402359009e-01
2.314539104700088501e-01
-4.205869976431131363e-03
3.548105955123901367e-01
8.104186272248625755e-04
1.773234307765960693e-01
-1.563663333654403687e-01
1.242334619164466858e-01
1.656393706798553467e-02
2.608908712863922119e-02
-1.640171930193901062e-02
2.816418744623661041e-02
1.355431675910949707e-01
-1.172516122460365295e-01
-3.012187480926513672e-01
-1.261828541755676270e-01
3.301406204700469971e-01
-1.066539362072944641e-01
1.934073269367218018e-01
2.170350849628448486e-01
3.940759599208831787e-01
-2.236212939023971558e-01
1.475273221731185913e-01
5.051976442337036133e-02
-1.957387179136276245e-01
-3.778316080570220947e-02
2.969444096088409424e-01
1.896767616271972656e-01
3.168676495552062988e-01
-8.602546155452728271e-02
-3.980436176061630249e-02
2.205935418605804443e-01
-6.678453087806701660e-02
-1.190188750624656677e-01
-1.903529316186904907e-01
3.148165345191955566e-01
1.215927675366401672e-01
1.010344401001930237e-01
-6.906209141016006470e-02
9.382274746894836426e-02
-4.605269059538841248e-04
-1.226450353860855103e-01
-8.127257227897644043e-02
-1.066201105713844299e-01
-2.588660418987274170e-01
8.370436728000640869e-02
-3.357444405555725098e-01
-1.464157644659280777e-02
2.023597359657287598e-01
8.905894309282302856e-02
-9.731780737638473511e-02
-5.037194490432739258e-02
-4.192727804183959961e-01
-2.356073260307312012e-01
-5.227959156036376953e-02
-2.143194824457168579e-01
-8.731831610202789307e-02
1.496446579694747925e-01
-2.459981888532638550e-01
6.364115327596664429e-02
-1.525383889675140381e-01
7.948373258113861084e-02
6.797683238983154297e-02
9.872641414403915405e-02
1.117925792932510376e-01
3.182484209537506104e-01
1.115492433309555054e-01
2.955685183405876160e-02
2.317480146884918213e-01
1.378813832998275757e-01
1.631488054990768433e-01
6.629920750856399536e-02
-1.993538737297058105e-01
-9.975062683224678040e-03
-1.486223842948675156e-02
-2.293018400669097900e-01
-1.590666174888610840e-01
-1.965563558042049408e-02
-2.743879854679107666e-01
3.969386965036392212e-02
3.456104695796966553e-01
2.697672247886657715e-01
-1.059332042932510376e-01
1.770479232072830200e-01
-1.381255537271499634e-01
2.685807049274444580e-01
1.253482047468423843e-02
-1.752480119466781616e-01
-2.371717691421508789e-01
-1.406629336997866631e-03
-4.301194846630096436e-01
1.140301674604415894e-01
2.006239295005798340e-01
1.167104616761207581e-01
8.133058995008468628e-02
-2.360812127590179443e-01
-4.607809707522392273e-02
-3.437459096312522888e-02
-1.868246495723724365e-01
4.483684897422790527e-02
-1.235713288187980652e-01
-1.226602047681808472e-01
1.918135583400726318e-02
-1.414810866117477417e-01
-3.441458940505981445e-01
-4.987885951995849609e-01
-2.750494778156280518e-01
-2.752087116241455078e-01
-4.612440168857574463e-01
-5.001833438873291016e-01
-2.589000761508941650e-01
-9.405528753995895386e-02
1.144993826746940613e-01
-2.801700234413146973e-01
-1.094689071178436279e-01
-3.084182739257812500e-01
3.098072111606597900e-01
-1.230129227042198181e-01
-3.308813869953155518e-01
-1.422733217477798462e-01
9.603682905435562134e-02
1.188760995864868164e-01
-8.615944534540176392e-03
1.462058126926422119e-01
1.367751508951187134e-01
-3.618597984313964844e-01
1.773844100534915924e-02
5.684246867895126343e-02
1.842795014381408691e-01
-1.217018216848373413e-01
-1.759881228208541870e-01
1.705411076545715332e-02
-1.403367370367050171e-01
-8.056811243295669556e-02
-1.272860914468765259e-01
1.315272748470306396e-01
-2.208990752696990967e-01
-2.469515614211559296e-02
-1.046595871448516846e-01
-1.324873231351375580e-02
-2.531139552593231201e-01
3.734112679958343506e-01
-7.743139564990997314e-02
6.983276456594467163e-02
-7.395078986883163452e-02
-3.288264274597167969e-01
-6.622868031263351440e-02
4.948643967509269714e-02
-2.165070921182632446e-01
-1.745191216468811035e-01
-3.893425762653350830e-01
-1.519043147563934326e-01
2.472726255655288696e-01
-2.499564290046691895e-01
1.509101986885070801e-01
-4.012024104595184326e-01
1.278727501630783081e-01
-3.332587704062461853e-02
5.981986969709396362e-02
2.151497267186641693e-02
-6.132214516401290894e-02
-1.261485219001770020e-01
7.908611558377742767e-03
-2.036324739456176758e-01
-1.447543948888778687e-01
-2.250526100397109985e-01
-7.451678812503814697e-02
-4.498717561364173889e-02
-2.649870812892913818e-01
1.312645971775054932e-01
-3.057647049427032471e-01
-5.328499078750610352e-01
1.262090206146240234e-01
1.377366483211517334e-01
-1.965013742446899414e-01
-1.689721047878265381e-01
-2.385495416820049286e-02
2.185311615467071533e-01
1.355014741420745850e-01
1.378992665559053421e-02
2.816509902477264404e-01
2.774092257022857666e-01
1.364121437072753906e-01
3.110301913693547249e-03
-3.150070905685424805e-01
-8.794984966516494751e-02
2.443158924579620361e-01
1.874395161867141724e-01
1.292267739772796631e-01
1.491423929110169411e-03
-1.883900016546249390e-01
-3.851686120033264160e-01
-2.630755305290222168e-01
-2.050118297338485718e-01
-6.363281980156898499e-03
2.049014419317245483e-01
-9.089010953903198242e-02
6.786359101533889771e-02
9.261167608201503754e-03
1.498925387859344482e-01
1.480982005596160889e-01
1.892412751913070679e-01
-2.351480908691883087e-02
-2.392655014991760254e-01
-4.291376098990440369e-02
3.108726441860198975e-01
1.384938508272171021e-02
-6.738603860139846802e-02
2.643828047439455986e-03
-3.345253318548202515e-02
-2.557044029235839844e-01
-4.794099833816289902e-03
1.817286908626556396e-01
1.808787286281585693e-01
1.454979479312896729e-01
-8.940630592405796051e-03
4.558799415826797485e-02
-2.814343571662902832e-01
-1.065967604517936707e-01
-1.502326130867004395e-01
-3.058289289474487305e-01
-1.187856718897819519e-01
4.553498700261116028e-02
-1.444435715675354004e-01
1.245120316743850708e-01
-1.821375489234924316e-01
9.892953932285308838e-02
-2.176588177680969238e-01
-4.925215616822242737e-02
1.555316150188446045e-01
9.906399250030517578e-02
-7.726294547319412231e-02
-2.026995271444320679e-01
-6.523079425096511841e-02
-6.452621519565582275e-02
1.317599713802337646e-01
1.129890978336334229e-01
2.032997831702232361e-02
4.428235441446304321e-02
-5.319269746541976929e-02
1.186049077659845352e-02
3.125779330730438232e-01
1.899584941565990448e-02
1.536830365657806396e-01
-2.254311144351959229e-01
5.215726327151060104e-03
1.903135627508163452e-01
-3.755816519260406494e-01
-7.937122881412506104e-02
1.382268667221069336e-01
2.374866902828216553e-01
1.533423662185668945e-01
5.550387501716613770e-01
1.061073541641235352e-01
3.194917365908622742e-02
-2.426431141793727875e-02
-6.724912673234939575e-02
-1.618922352790832520e-01
-1.421533823013305664e-01
-1.297946721315383911e-01
1.351998895406723022e-01
7.991583645343780518e-02
-5.794073641300201416e-02
-3.142795860767364502e-01
5.559724569320678711e-02
-4.187429845333099365e-01
-2.896544933319091797e-01
-1.052981428802013397e-02
7.721772789955139160e-02
-5.877079814672470093e-02
-3.600539863109588623e-01
-1.939852386713027954e-01
-1.554499194025993347e-02
-3.466385006904602051e-01
-1.676086336374282837e-01
3.417805135250091553e-01
3.284878730773925781e-01
-3.886286169290542603e-02
8.046861737966537476e-02
-1.546029299497604370e-01
4.110155105590820312e-01
1.696494370698928833e-01
-3.455561697483062744e-01
-7.295283954590559006e-03
4.035125374794006348e-01
3.532551229000091553e-01
2.639901041984558105e-01
1.945678442716598511e-01
5.242551565170288086e-01
-1.469426155090332031e-01
4.477896094322204590e-01
2.909911572933197021e-01
-1.777732372283935547e-01
-3.355124890804290771e-01
-4.325448870658874512e-01
-4.088205099105834961e-02
-2.434156686067581177e-01
-2.903827428817749023e-01
-3.216053247451782227e-01
1.723831146955490112e-01
3.819296360015869141e-01
6.204961240291595459e-02
1.878055483102798462e-01
7.945792376995086670e-02
-2.035205997526645660e-02
-3.707539141178131104e-01
-2.875383496284484863e-01
2.532834745943546295e-02
1.796260476112365723e-01
2.921043336391448975e-01
1.356303840875625610e-01
3.014169335365295410e-01
2.710046470165252686e-01
-2.570816576480865479e-01
1.622591763734817505e-01
3.113355338573455811e-01
1.260640919208526611e-01
1.202989518642425537e-01
-5.210675299167633057e-02
2.286871075630187988e-01
7.746627926826477051e-02
-3.496822416782379150e-01
-1.347002983093261719e-01
5.467373412102460861e-03
-6.187638640403747559e-01
-2.189372181892395020e-01
-2.358780056238174438e-02
-3.549392521381378174e-02
6.722868978977203369e-02
1.869443655014038086e-01
-2.784408330917358398e-01
-4.906160011887550354e-02
-5.935627222061157227e-02
-5.479342937469482422e-01
2.675964534282684326e-01
1.784378737211227417e-01
-1.816186159849166870e-01
-3.183841109275817871e-01
-6.828753650188446045e-02
2.447756528854370117e-01
-3.909128606319427490e-01
-5.673113465309143066e-01
-3.403620123863220215e-01
8.351682871580123901e-02
-6.306759268045425415e-02
-9.015580266714096069e-02
-4.247280769050121307e-03
4.777055084705352783e-01
2.300043590366840363e-02
5.491316318511962891e-02
-3.806513845920562744e-01
-3.521760702133178711e-01
-4.672783613204956055e-01
-3.047389388084411621e-01
-3.547154366970062256e-01
-1.139244511723518372e-01
-1.438332796096801758e-01
-4.505353420972824097e-02
-7.692993432283401489e-02
-7.806175202131271362e-02
-1.105730235576629639e-01
2.307452559471130371e-01
-4.366380348801612854e-02
1.813079863786697388e-01
-4.119418263435363770e-01
-8.939893543720245361e-02
-1.184369344264268875e-02
-4.668411910533905029e-01
-1.239468380808830261e-01
-4.359936714172363281e-02
-7.365781348198652267e-03
1.194669120013713837e-02
-3.534230962395668030e-02
2.481635473668575287e-02
7.467585057020187378e-02
4.306662082672119141e-02
1.046562567353248596e-01
2.613129839301109314e-02
1.341086775064468384e-01
6.365431100130081177e-02
1.052167862653732300e-01
1.226280555129051208e-01
2.910326048731803894e-02
8.091998845338821411e-02
5.165560543537139893e-02
6.866901367902755737e-02
-1.214021071791648865e-01
-8.079170435667037964e-02
-1.646851152181625366e-01
-1.007153019309043884e-01
-7.569934427738189697e-02
-1.062635332345962524e-01
-5.916065350174903870e-02
-4.890370368957519531e-02
-1.843200437724590302e-02
2.274978905916213989e-02
1.054848637431859970e-02
5.592739209532737732e-02
6.774216145277023315e-02
7.960069924592971802e-02
8.067028224468231201e-02
-6.855248659849166870e-02
-8.036663755774497986e-03
1.424933504313230515e-02
-5.944466963410377502e-02
1.320591941475868225e-02
-1.132866665720939636e-01
-1.749672740697860718e-01
-3.024359047412872314e-02
-1.132639646530151367e-01
-9.023316949605941772e-02
7.954825647175312042e-03
1.314423829317092896e-01
3.015493154525756836e-01
2.592351734638214111e-01
2.791647315025329590e-01
2.365739792585372925e-01
1.794138550758361816e-01
1.047240868210792542e-01
1.587205678224563599e-01
4.250436276197433472e-02
4.197206720709800720e-02
-1.007684506475925446e-02
-1.726113073527812958e-02
-1.108571514487266541e-01
-1.363254338502883911e-01
-1.235911920666694641e-01
-1.390454471111297607e-01
-1.461753249168395996e-01
-1.810120046138763428e-01
-1.048454120755195618e-01
-9.831582754850387573e-02
-4.759211093187332153e-02
-4.431802779436111450e-02
6.678190082311630249e-02
1.692366600036621094e-02
5.699059739708900452e-02
-1.334087178111076355e-02
3.729174658656120300e-02
1.590031832456588745e-01
1.412237286567687988e-01
1.081685200333595276e-01
1.702002435922622681e-01
8.174590766429901123e-02
2.140932157635688782e-02
1.146220788359642029e-02
5.125813558697700500e-02
8.806283771991729736e-02
1.372291296720504761e-01
9.859823435544967651e-02
1.731715649366378784e-01
5.885478481650352478e-02
-1.901258975267410278e-01
-1.658791303634643555e-02
8.058689534664154053e-02
-1.312626004219055176e-01
-1.306264549493789673e-01
-5.809994041919708252e-02
6.817490607500076294e-02
3.136640414595603943e-02
7.461979053914546967e-03
7.927870005369186401e-02
1.245650835335254669e-02
4.980047792196273804e-02
-1.440569162368774414e-01
-3.730998933315277100e-02
5.067772045731544495e-02
-4.688516631722450256e-02
-5.671330913901329041e-02
-1.930591911077499390e-01
8.229088038206100464e-02
9.263933636248111725e-03
-3.040220960974693298e-02
-1.590736769139766693e-02
-2.696623094379901886e-02
1.038321480154991150e-02
1.476783398538827896e-02
8.937902748584747314e-02
-9.357443079352378845e-03
1.231032237410545349e-01
1.465499252080917358e-01
1.689720749855041504e-01
3.188582658767700195e-01
2.232833057641983032e-01
2.109046727418899536e-01
2.348799407482147217e-01
6.464422680437564850e-03
-1.027016565203666687e-01
-5.994715541601181030e-02
-6.003493815660476685e-02
-2.719216793775558472e-02
-9.463462978601455688e-02
-1.990615427494049072e-01
-1.930062770843505859e-01
-6.798510998487472534e-02
-1.432024240493774414e-01
9.717620909214019775e-02
-2.329725585877895355e-02
-1.140070408582687378e-01
-2.273166924715042114e-01
-5.257506668567657471e-02
-1.585785597562789917e-01
-2.044861465692520142e-01
-1.987826824188232422e-01
-3.036441206932067871e-01
-2.206837683916091919e-01
-2.518785893917083740e-01
-8.989161998033523560e-02
-1.291916146874427795e-02
7.441691309213638306e-02
2.057305574417114258e-01
2.374124228954315186e-01
4.215102791786193848e-01
4.392676353454589844e-01
2.624351382255554199e-01
3.639170527458190918e-01
1.875690221786499023e-01
-1.319983601570129395e-02
1.189743131399154663e-01
1.299110706895589828e-02
-3.386841714382171631e-02
-4.454941302537918091e-02
-1.074208915233612061e-01
-1.337377727031707764e-01
-1.069985143840312958e-02
6.184092909097671509e-02
9.116291254758834839e-02
1.207362627610564232e-03
-4.445442557334899902e-02
1.660797595977783203e-01
3.442869335412979126e-02
-3.191754594445228577e-02
-7.804866135120391846e-02
-1.329492032527923584e-01
-2.310385107994079590e-01
-1.787417829036712646e-01
-3.390280306339263916e-01
-9.237185865640640259e-02
-7.388217747211456299e-02
-2.616652846336364746e-02
7.263954728841781616e-02
1.758086979389190674e-01
1.666961610317230225e-01
1.971939019858837128e-02
-8.206760138273239136e-02
9.182634949684143066e-02
3.450308144092559814e-01
1.685463786125183105e-01
1.016516536474227905e-01
3.093693964183330536e-02
1.357960402965545654e-01
6.249501556158065796e-02
1.029049754142761230e-01
4.881580173969268799e-02
-4.560950398445129395e-02
-7.398486882448196411e-02
6.241540983319282532e-02
1.030085533857345581e-01
1.640321314334869385e-01
-1.828518956899642944e-01
-5.977892130613327026e-02
8.504598401486873627e-03
7.566478103399276733e-02
-4.924802854657173157e-02
8.636985719203948975e-02
8.016297966241836548e-02
1.065039113163948059e-01
3.949199244379997253e-02
5.756789818406105042e-02
5.030104424804449081e-03
1.656281389296054840e-02
3.007038123905658722e-02
3.511236980557441711e-02
1.704152114689350128e-02
3.821022436022758484e-02
-1.176294684410095215e-01
-6.754495948553085327e-02
-1.120575293898582458e-01
-6.442028284072875977e-02
-1.725948750972747803e-01
-3.053079545497894287e-02
1.735479831695556641e-01
-4.927808418869972229e-03
1.896008253097534180e-01
7.202208042144775391e-02
1.106599420309066772e-01
2.620103359222412109e-01
8.278638124465942383e-02
9.973365068435668945e-02
-1.685134693980216980e-02
3.218230232596397400e-02
-1.225918382406234741e-01
-2.105642557144165039e-01
-6.421200931072235107e-02
-5.318988487124443054e-02
1.053348481655120850e-01
1.228680536150932312e-01
2.301851958036422729e-01
4.890240356326103210e-02
1.209991872310638428e-01
-1.313021481037139893e-01
2.719096094369888306e-02
-1.234909296035766602e-01
-1.900905072689056396e-01
-3.727811574935913086e-01
-6.198053359985351562e-01
-3.913965821266174316e-01
-4.247239232063293457e-01
-4.287577867507934570e-01
-2.113711088895797729e-01
-1.004077568650245667e-01
-6.635349243879318237e-02
1.156195998191833496e-01
6.923805177211761475e-02
8.699590712785720825e-02
2.039457708597183228e-01
-4.152733832597732544e-02
-1.427227258682250977e-01
2.448669075965881348e-01
-4.305778443813323975e-02
-5.426910892128944397e-02
5.049589276313781738e-02
-6.422903854399919510e-03
-2.082490175962448120e-01
7.399479299783706665e-02
-1.160110533237457275e-01
1.977857500314712524e-01
-6.957758218050003052e-02
5.797929316759109497e-02
9.442134201526641846e-02
9.436699748039245605e-02
2.864050269126892090e-01
2.278179228305816650e-01
1.398566067218780518e-01
1.181895262561738491e-03
-1.291895359754562378e-01
-9.820306301116943359e-02
-4.415207803249359131e-01
-3.696278035640716553e-01
-6.204761862754821777e-01
-4.710323810577392578e-01
-1.531653404235839844e-01
-1.022336408495903015e-01
-3.855270519852638245e-02
-4.985395446419715881e-02
8.483383804559707642e-02
1.348014324903488159e-01
2.078369110822677612e-01
1.879969388246536255e-01
1.028132960200309753e-01
2.615824937820434570e-01
1.800572574138641357e-01
-1.204278599470853806e-02
1.305243670940399170e-01
2.877165004611015320e-02
-1.838113218545913696e-01
2.329028099775314331e-01
-1.777600198984146118e-01
-6.272245943546295166e-02
1.061271652579307556e-01
-5.975580960512161255e-02
-1.355130076408386230e-01
-2.261333763599395752e-01
-3.164726495742797852e-02
1.499475240707397461e-01
1.160350069403648376e-01
2.467879354953765869e-01
9.575955569744110107e-02
6.019438803195953369e-02
-1.382429748773574829e-01
-3.099403381347656250e-01
-4.029676616191864014e-01
-4.117974936962127686e-01
-3.113703429698944092e-01
-4.099983274936676025e-01
-2.983043193817138672e-01
-9.934537112712860107e-02
-2.033994533121585846e-02
1.188224628567695618e-01
3.971651569008827209e-02
2.872321605682373047e-01
9.124470502138137817e-02
9.584086388349533081e-02
2.634083628654479980e-01
1.325473189353942871e-01
8.705294877290725708e-02
-4.000215232372283936e-02
4.562233015894889832e-02
-1.764982491731643677e-01
2.949460148811340332e-01
2.212079614400863647e-01
1.304354369640350342e-01
-2.067571431398391724e-01
-3.674104064702987671e-02
-1.822878234088420868e-02
-1.319984942674636841e-01
-1.624813079833984375e-01
-1.593203544616699219e-01
-1.001363098621368408e-01
-1.106669902801513672e-01
-1.563718616962432861e-01
-4.835901781916618347e-02
-1.039946973323822021e-01
-1.951184123754501343e-02
4.874727874994277954e-02
5.879187583923339844e-02
-8.975643664598464966e-02
3.441536426544189453e-02
4.995687305927276611e-02
1.709435433149337769e-01
-1.207403168082237244e-01
-8.708513341844081879e-03
1.625575423240661621e-01
1.583879441022872925e-01
1.392925083637237549e-01
-1.518395543098449707e-01
-4.902033880352973938e-02
2.674334347248077393e-01
2.506459355354309082e-01
1.557086259126663208e-01
-1.769165247678756714e-01
1.755682677030563354e-01
-4.913760721683502197e-02
-1.736801117658615112e-01
1.264478894881904125e-03
7.838313467800617218e-03
-5.023927241563796997e-02
-1.765633076429367065e-01
-3.516479581594467163e-02
-1.151744201779365540e-01
-2.802218496799468994e-02
1.145341619849205017e-01
1.529245078563690186e-01
1.287376880645751953e-01
2.219997346401214600e-01
8.251428604125976562e-02
-1.495039314031600952e-01
-2.273055315017700195e-01
-3.585109412670135498e-01
-3.783397972583770752e-01
-4.528135061264038086e-01
-3.986812829971313477e-01
-3.059676289558410645e-01
1.642533987760543823e-01
-5.465176329016685486e-02
-1.732104569673538208e-01
9.517987817525863647e-02
1.909210234880447388e-01
-3.963527083396911621e-02
3.810571506619453430e-02
1.823132857680320740e-02
3.685427904129028320e-01
2.216174602508544922e-01
-6.374319642782211304e-02
-5.511390976607799530e-03
-1.389085948467254639e-01
2.322591841220855713e-02
2.456291951239109039e-02
-1.131689622998237610e-01
-5.486850813031196594e-02
1.718329451978206635e-02
1.353406161069869995e-01
1.737703979015350342e-01
1.216142326593399048e-01
4.456502851098775864e-03
1.064844708889722824e-02
-1.073308140039443970e-01
6.831065565347671509e-02
-8.493325859308242798e-02
-1.341523081064224243e-01
-1.753929257392883301e-01
-9.407451748847961426e-02
2.563061714172363281e-01
-3.798466920852661133e-02
7.049807906150817871e-02
8.635329455137252808e-02
4.671406000852584839e-02
-9.341827780008316040e-02
-1.460747420787811279e-01
2.436064183712005615e-01
2.003946304321289062e-01
1.598344445228576660e-01
1.787149347364902496e-02
9.802365303039550781e-02
-8.827388286590576172e-02
6.747685372829437256e-02
-1.938354372978210449e-01
-4.413393437862396240e-01
-1.405913531780242920e-01
-5.715485662221908569e-02
-2.744327783584594727e-01
-7.364367693662643433e-02
6.229232624173164368e-02
1.571123450994491577e-01
-5.803149938583374023e-02
-4.625507071614265442e-02
1.373498141765594482e-01
1.396115571260452271e-01
-2.387221753597259521e-01
7.712356746196746826e-02
-1.264828294515609741e-01
9.900453686714172363e-02
1.420045644044876099e-01
2.849347293376922607e-01
3.274345993995666504e-01
1.673789322376251221e-01
2.995387315750122070e-01
-1.166164502501487732e-01
2.347086519002914429e-01
2.795426249504089355e-01
-1.771831810474395752e-01
-1.286453306674957275e-01
1.407573223114013672e-01
-3.371887654066085815e-02
1.571065038442611694e-01
1.297552585601806641e-01
-2.105459421873092651e-01
9.028106927871704102e-02
8.469599485397338867e-02
1.896854490041732788e-01
5.488053336739540100e-02
-8.715842664241790771e-02
-5.109050497412681580e-02
-4.789013043045997620e-02
4.203293845057487488e-02
1.442650854587554932e-01
3.774569556117057800e-02
1.279670894145965576e-01
-2.012912556529045105e-02
-5.927075073122978210e-02
1.440306007862091064e-01
-5.238374695181846619e-02
-9.014260023832321167e-02
-9.398920089006423950e-02
-1.346566528081893921e-01
2.128191143274307251e-01
-4.978335276246070862e-02
-1.969030797481536865e-01
1.766964793205261230e-01
1.123439371585845947e-01
2.181531935930252075e-01
1.909821331501007080e-01
1.917193382978439331e-01
-4.125530272722244263e-02
-3.945210576057434082e-02
-1.031604409217834473e-01
-1.019747778773307800e-01
9.263163805007934570e-02
-1.666400134563446045e-01
-6.489814817905426025e-02
8.215823769569396973e-02
-5.384286120533943176e-02
-9.297855943441390991e-02
-3.369667381048202515e-02
-4.220858588814735413e-02
-1.022449806332588196e-01
-2.125711590051651001e-01
-3.450774028897285461e-02
-6.935739517211914062e-02
2.129005938768386841e-01
1.486150920391082764e-01
3.995829224586486816e-01
5.046485662460327148e-01
5.311920121312141418e-02
1.008959561586380005e-01
1.129678785800933838e-01
6.898581236600875854e-02
5.031152069568634033e-02
6.281031668186187744e-02
2.796088717877864838e-02
-1.203433126211166382e-01
8.549767732620239258e-02
-5.427206307649612427e-02
2.319716662168502808e-01
1.329959183931350708e-01
5.185544956475496292e-03
-1.408336162567138672e-01
-2.234619855880737305e-01
-1.516901105642318726e-01
-6.963118165731430054e-02
-2.172589004039764404e-01
-4.701857920736074448e-03
-9.649280458688735962e-02
-2.333006709814071655e-01
-1.090401336550712585e-01
-3.250211104750633240e-02
-1.695852130651473999e-01
1.881717517971992493e-02
-1.365325003862380981e-01
-1.422261595726013184e-01
1.158691197633743286e-01
8.597230166196823120e-02
-4.106818139553070068e-02
-3.155240043997764587e-02
-7.737359404563903809e-02
-2.882198663428425789e-03
8.990263193845748901e-02
5.311897024512290955e-02
1.706947982311248779e-01
-6.457201391458511353e-02
6.707810610532760620e-02
-6.090341880917549133e-02
7.248270511627197266e-02
-1.396885979920625687e-02
4.902796074748039246e-02
-6.036465242505073547e-02
1.098645627498626709e-01
1.441475749015808105e-01
9.340886771678924561e-02
-1.645591408014297485e-01
-1.775785535573959351e-01
9.503881633281707764e-02
2.827979624271392822e-01
-6.785079836845397949e-02
1.559064537286758423e-01
4.619047418236732483e-02
1.867050379514694214e-01
1.183914318680763245e-01
-7.828722149133682251e-02
-8.054700680077075958e-03
9.587792307138442993e-02
6.706517934799194336e-02
1.120423078536987305e-01
-2.000049501657485962e-01
1.492763757705688477e-01
1.017777249217033386e-01
3.009829483926296234e-02
-1.333473026752471924e-01
-3.154332637786865234e-01
-3.120429441332817078e-02
1.549923419952392578e-01
-2.865406572818756104e-01
-2.064836025238037109e-01
-3.426809012889862061e-01
8.940742351114749908e-03
6.815759837627410889e-02
6.585154682397842407e-02
-5.249540880322456360e-02
-1.709970235824584961e-01
3.252411186695098877e-01
2.195604890584945679e-02
-9.323050826787948608e-02
-1.934379339218139648e-01
-7.820104062557220459e-02
-2.663719840347766876e-02
1.173286885023117065e-01
-2.331258542835712433e-02
2.723464928567409515e-02
4.743737168610095978e-03
8.974840492010116577e-02
3.092053905129432678e-02
4.313954152166843414e-03
-2.921154908835887909e-02
-1.727306470274925232e-02
-7.990247011184692383e-02
3.508516401052474976e-02
1.646890044212341309e-01
7.741885632276535034e-02
8.531823009252548218e-02
1.709896475076675415e-01
5.960948765277862549e-02
9.542978554964065552e-02
2.005962580442428589e-01
-2.511532511562108994e-03
5.419967696070671082e-02
-2.403928339481353760e-01
1.220300719141960144e-01
4.051806405186653137e-02
-1.244515553116798401e-02
7.807656656950712204e-03
1.048951316624879837e-02
2.569255232810974121e-01
7.342558354139328003e-02
-1.553818434476852417e-01
3.299500793218612671e-02
-1.372409332543611526e-02
-2.063003554940223694e-02
-9.651967138051986694e-02
-3.247862458229064941e-01
-2.069514691829681396e-01
3.199576437473297119e-01
-1.333855092525482178e-01
1.022012084722518921e-01
-1.713526993989944458e-01
-1.735943555831909180e-01
-1.009018719196319580e-01
-4.070071130990982056e-02
-6.265743076801300049e-02
-3.187661245465278625e-02
8.142269402742385864e-02
1.156294718384742737e-01
4.661857709288597107e-02
-1.471012383699417114e-01
5.542289000004529953e-03
-1.654632762074470520e-02
-1.972588896751403809e-01
-2.301785647869110107e-01
-2.005714178085327148e-01
-2.393796108663082123e-02
-7.681617885828018188e-02
1.761217601597309113e-02
2.224436998367309570e-01
1.185275018215179443e-01
-1.439056396484375000e-01
7.937593758106231689e-02
-9.239874780178070068e-02
-1.045996993780136108e-01
2.887753583490848541e-02
3.121600300073623657e-02
3.628185018897056580e-02
-4.144759848713874817e-02
8.970766514539718628e-02
2.199639528989791870e-01
-1.593759059906005859e-01
9.870532900094985962e-02
4.847170040011405945e-02
-5.284013599157333374e-02
-2.040340155363082886e-01
-1.052418723702430725e-01
-1.268914490938186646e-01
-1.414938718080520630e-01
-1.964372098445892334e-01
7.929893583059310913e-02
-7.263901084661483765e-02
4.040588438510894775e-02
-4.034830629825592041e-01
-4.629909992218017578e-01
-2.009615749120712280e-01
-1.802638918161392212e-01
-2.247225679457187653e-02
2.192377299070358276e-01
4.659374430775642395e-02
2.872710824012756348e-01
1.511128842830657959e-01
3.773497641086578369e-01
3.654112517833709717e-01
2.902297377586364746e-01
2.747295796871185303e-01
2.621851265430450439e-01
3.365944698452949524e-02
-3.834733068943023682e-01
-1.309259682893753052e-01
1.045479029417037964e-01
9.050120413303375244e-02
1.616667360067367554e-01
9.203144162893295288e-02
1.454576402902603149e-01
3.734279796481132507e-02
-6.600776314735412598e-02
-8.289080858230590820e-02
-7.190556824207305908e-02
-1.310937702655792236e-01
-4.852236807346343994e-02
-2.401082366704940796e-01
-3.084703385829925537e-01
-1.646035164594650269e-01
3.902790322899818420e-02
-1.812422461807727814e-02
-6.786227971315383911e-02
2.369342930614948273e-02
3.051676414906978607e-02
2.363952398300170898e-01
1.688300967216491699e-01
-9.961339831352233887e-02
2.471288740634918213e-01
2.371880263090133667e-01
3.653221949934959412e-02
-1.857845038175582886e-01
-4.698361158370971680e-01
1.187779083847999573e-01
-1.627798527479171753e-01
1.067332774400711060e-01
2.253357172012329102e-01
-9.051687270402908325e-02
1.173165142536163330e-01
-5.901848897337913513e-02
1.269174367189407349e-01
3.224819600582122803e-01
-1.355649679899215698e-01
-1.476172357797622681e-01
2.514743618667125702e-02
2.823741920292377472e-02
1.316882520914077759e-01
2.360383868217468262e-01
-1.149218454957008362e-01
1.751054376363754272e-01
8.551530539989471436e-02
5.784051865339279175e-02
1.395028382539749146e-01
3.373224437236785889e-01
2.152465879917144775e-01
1.777112185955047607e-01
1.691139042377471924e-01
9.329810738563537598e-02
2.447981387376785278e-01
-2.385919392108917236e-01
1.537021845579147339e-01
-3.934668377041816711e-02
-4.129427298903465271e-02
3.514392673969268799e-02
-5.377558618783950806e-02
1.015024632215499878e-01
-8.218191564083099365e-02
-1.771542429924011230e-01
5.786483362317085266e-02
-2.421706318855285645e-01
7.325360178947448730e-02
2.370340973138809204e-01
5.061141029000282288e-02
-7.167471200227737427e-02
-2.380838990211486816e-01
4.460172727704048157e-02
3.201521188020706177e-02
9.467011690139770508e-02
2.069978229701519012e-02
-1.727396547794342041e-01
-1.159541457891464233e-01
-6.906502693891525269e-02
2.382017076015472412e-01
-2.589662075042724609e-01
-3.386965692043304443e-01
6.371456384658813477e-02
6.085998844355344772e-03
1.792449355125427246e-01
1.433040350675582886e-01
3.031522333621978760e-01
3.018007874488830566e-01
2.432875037193298340e-01
-2.403004281222820282e-02
-2.229253202676773071e-01
-4.044746160507202148e-01
-1.801615655422210693e-01
-1.854531168937683105e-01
-1.686809360980987549e-01
1.992635279893875122e-01
7.006674259901046753e-02
-3.075925409793853760e-01
-1.350250691175460815e-01
2.136621624231338501e-02
-1.946053057909011841e-01
1.937833428382873535e-01
2.989290058612823486e-01
1.333885341882705688e-01
-1.235444992780685425e-01
1.636238545179367065e-01
-6.365930195897817612e-03
2.883394248783588409e-02
1.925599873065948486e-01
3.581930324435234070e-02
1.604289561510086060e-02
1.030636951327323914e-01
-1.776072196662425995e-02
-3.443590132519602776e-03
4.641952458769083023e-03
2.563465945422649384e-02
-2.076722979545593262e-01
-4.485213384032249451e-02
2.020730450749397278e-02
2.662938535213470459e-01
2.832454144954681396e-01
-1.536876857280731201e-01
-9.139319881796836853e-03
-8.651219308376312256e-02
-7.600225508213043213e-02
-3.507605195045471191e-02
-1.137409955263137817e-01
-1.576938629150390625e-01
1.490018423646688461e-02
-7.834002375602722168e-02
-5.461396276950836182e-02
3.554235398769378662e-01
-1.360426694154739380e-01
7.918241620063781738e-02
-2.046107053756713867e-01
1.383681297302246094e-01
-7.670060545206069946e-02
4.462147876620292664e-02
-1.975582093000411987e-01
-1.111041307449340820e-01
-2.578967809677124023e-01
-4.772516712546348572e-02
1.110163927078247070e-01
6.597088277339935303e-02
2.019445449113845825e-01
1.717340499162673950e-01
3.613866865634918213e-01
-7.814897224307060242e-03
-9.888718277215957642e-02
1.240324135869741440e-02
1.411486268043518066e-01
1.003553271293640137e-01
-7.100717630237340927e-03
3.636579960584640503e-02
-5.725166294723749161e-03
-9.543742984533309937e-02
4.341997206211090088e-02
-1.288354396820068359e-01
2.229744791984558105e-01
2.591076195240020752e-01
1.754570901393890381e-01
1.812645643949508667e-01
1.557651609182357788e-01
2.356168627738952637e-01
1.504890471696853638e-01
1.220021545886993408e-01
-1.684016585350036621e-01
-2.189090251922607422e-01
-1.346278041601181030e-01
-3.157008811831474304e-02
-1.412663757801055908e-01
-2.201051414012908936e-01
-6.814941763877868652e-02
9.329912066459655762e-02
2.059730887413024902e-01
2.465586513280868530e-01
4.025250375270843506e-01
2.427136749029159546e-01
9.849517047405242920e-02
6.013699248433113098e-02
3.090144395828247070e-01
1.593282669782638550e-01
2.906710505485534668e-01
1.098016351461410522e-01
-2.024524062871932983e-01
-2.232244461774826050e-01
-3.586050868034362793e-01
-1.333015784621238708e-02
-2.499567419290542603e-01
-9.135536849498748779e-03
-4.313716590404510498e-01
-4.060686528682708740e-01
-1.109245195984840393e-01
5.474877730011940002e-02
1.215974092483520508e-01
2.699500024318695068e-01
1.268112063407897949e-01
1.162974163889884949e-01
-1.821303367614746094e-01
-5.927956104278564453e-02
-2.135756611824035645e-01
-7.017271965742111206e-02
-9.310890734195709229e-02
-1.859796941280364990e-01
-2.314793691039085388e-02
5.989950150251388550e-02
-2.260195463895797729e-01
-2.048623710870742798e-01
1.466089785099029541e-01
-2.097467333078384399e-01
-9.195260703563690186e-02
-2.475171238183975220e-01
-8.232180029153823853e-03
8.402269333600997925e-02
-1.490845382213592529e-01
2.150825560092926025e-01
7.184049487113952637e-02
2.473425865173339844e-01
-5.199810862541198730e-02
-1.899509280920028687e-01
-3.374025225639343262e-01
1.638020947575569153e-02
-3.529630973935127258e-02
-1.096736732870340347e-02
-5.265415087342262268e-02
-2.795992186293005943e-03
2.110517024993896484e-01
-1.636208146810531616e-01
-3.338481113314628601e-02
2.463479638099670410e-01
1.999801993370056152e-01
2.479840815067291260e-01
1.389551609754562378e-01
-3.519871830940246582e-02
1.101912185549736023e-02
-1.459046453237533569e-01
-2.040796726942062378e-01
1.508139222860336304e-01
2.784235179424285889e-01
5.180171504616737366e-02
3.024195134639739990e-01
-6.542913615703582764e-02
1.186201721429824829e-01
1.232867613434791565e-01
-1.028800904750823975e-01
-1.254095882177352905e-01
2.127484828233718872e-01
-1.850368529558181763e-01
-2.657006680965423584e-01
7.244326174259185791e-02
-2.559352852404117584e-02
-1.515537649393081665e-01
4.938266426324844360e-02
2.622730731964111328e-01
-1.437225788831710815e-01
8.309525251388549805e-02
3.314824104309082031e-01
2.500209026038646698e-02
-1.060928478837013245e-01
-2.821556329727172852e-01
2.681487202644348145e-01
-3.832674920558929443e-01
1.595871448516845703e-01
2.008981853723526001e-01
-2.531069144606590271e-02
5.322613939642906189e-02
-2.646681964397430420e-01
-1.153056845068931580e-01
2.929690480232238770e-02
4.351899027824401855e-02
-1.505652219057083130e-01
-2.075305879116058350e-01
-2.520816326141357422e-01
-1.092867925763130188e-01
-2.263748273253440857e-02
-1.166887357831001282e-01
-4.848140478134155273e-02
1.526750326156616211e-01
1.694214642047882080e-01
3.998429179191589355e-01
-1.390054225921630859e-01
-3.767330199480056763e-02
-2.240921407938003540e-01
-8.578004688024520874e-02
-6.977490335702896118e-02
-6.327025592327117920e-03
-4.313760995864868164e-01
-1.655793040990829468e-01
2.681296169757843018e-01
-1.120637357234954834e-01
2.538761496543884277e-01
8.210483938455581665e-02
3.382870852947235107e-01
1.423029005527496338e-01
-1.241781339049339294e-01
-7.487632334232330322e-02
1.146858092397451401e-03
-1.171674281358718872e-01
-9.747666865587234497e-02
-1.251839995384216309e-01
2.489764690399169922e-01
3.800331950187683105e-01
-3.265148401260375977e-02
-1.627931296825408936e-01
-2.209316045045852661e-01
-4.339674115180969238e-01
-1.123804077506065369e-01
2.237346023321151733e-01
-6.937275826930999756e-02
-1.207868335768580437e-03
1.133771017193794250e-01
2.540807723999023438e-01
-1.007858291268348694e-01
-1.029867926263250411e-04
-4.384964406490325928e-01
-7.772566168569028378e-04
-3.911882638931274414e-01
-4.600050300359725952e-02
-4.686206206679344177e-02
-2.203784510493278503e-02
3.678996562957763672e-01
4.697833657264709473e-01
-1.867791563272476196e-01
1.395837664604187012e-01
1.568856239318847656e-01
-1.967989504337310791e-01
-3.734640777111053467e-01
-3.071273863315582275e-01
-3.605650961399078369e-01
-1.769816726446151733e-01
1.674056500196456909e-01
-1.041517220437526703e-02
-3.151470050215721130e-02
-3.234884440898895264e-01
3.786932677030563354e-02
-3.437019586563110352e-01
-2.561920881271362305e-01
-6.343480944633483887e-02
1.035691872239112854e-01
2.666774392127990723e-01
-3.618730008602142334e-01
1.329100877046585083e-01
7.020716369152069092e-02
1.240359023213386536e-01
-1.020100712776184082e-01
4.525961354374885559e-02
4.197705090045928955e-01
2.812902629375457764e-01
1.958365291357040405e-01
-3.485891595482826233e-02
3.409672155976295471e-02
1.429757326841354370e-01
2.305579632520675659e-01
6.242908164858818054e-02
-2.365668267011642456e-01
-1.601029485464096069e-01
2.469107359647750854e-01
3.418076038360595703e-01
-7.380470633506774902e-02
2.784836478531360626e-02
4.684802591800689697e-01
2.106443494558334351e-01
-3.967810794711112976e-02
3.226182982325553894e-02
1.359838992357254028e-01
-8.569511771202087402e-02
-1.973908096551895142e-01
-2.274009020766243339e-04
-1.576159447431564331e-01
2.501331269741058350e-02
-3.735045343637466431e-02
-1.809071749448776245e-02
-1.326258927583694458e-01
3.299994468688964844e-01
3.109231591224670410e-01
4.245747327804565430e-01
4.818964004516601562e-02
-5.395986139774322510e-02
1.761232316493988037e-01
2.480640560388565063e-01
4.589647054672241211e-01
6.814642250537872314e-02
-4.066312909126281738e-01
-7.997698336839675903e-02
1.501832753419876099e-01
3.916810750961303711e-01
1.154779805801808834e-03
1.240451633930206299e-01
-1.070538349449634552e-02
5.388816446065902710e-02
1.517738550901412964e-01
8.768865466117858887e-02
-2.057518064975738525e-01
-1.373703218996524811e-02
-2.338996976613998413e-01
-2.900431305170059204e-02
1.610807776451110840e-01
3.736250698566436768e-01
-6.135231256484985352e-02
-3.034083843231201172e-01
-4.572508037090301514e-01
-1.169255971908569336e-01
1.813346743583679199e-01
-1.072879973798990250e-02
-1.175792142748832703e-02
2.004578560590744019e-01
-2.168689370155334473e-01
1.356206275522708893e-02
2.339403927326202393e-01
-6.972651928663253784e-02
1.299037188291549683e-01
-7.105861604213714600e-02
-1.082441434264183044e-01
4.867826700210571289e-01
-7.371889799833297729e-02
1.373149752616882324e-01
1.366149038076400757e-01
-3.417325019836425781e-01
1.510072499513626099e-01
3.322739303112030029e-01
1.248252168297767639e-01
-2.738839089870452881e-01
-3.316019475460052490e-02
-2.264687232673168182e-02
7.354556769132614136e-02
-6.293649971485137939e-02
2.876303493976593018e-01
9.466309845447540283e-02
1.263493150472640991e-01
-1.175127085298299789e-02
-6.758550554513931274e-02
5.625879857689142227e-03
-1.654772013425827026e-01
-9.452430903911590576e-02
-2.370352745056152344e-01
-3.895848095417022705e-01
1.296855956315994263e-01
-2.756424844264984131e-01
3.505164757370948792e-02
-1.568593829870223999e-01
1.041164547204971313e-01
-4.814602062106132507e-02
-2.360515445470809937e-01
3.082813024520874023e-01
-7.557795848697423935e-03
9.676390141248703003e-02
4.331244230270385742e-01
-9.024659544229507446e-02
-2.038749009370803833e-01
-1.403545886278152466e-01
4.621079564094543457e-01
6.480488181114196777e-02
1.836493611335754395e-01
-1.291430443525314331e-01
-2.252733409404754639e-01
-9.801871329545974731e-02
1.321728676557540894e-01
5.743798613548278809e-02
-3.412390053272247314e-01
-4.411936402320861816e-01
3.350949287414550781e-02
-1.501526087522506714e-01
-7.662354502826929092e-03
2.047445774078369141e-01
-1.004761904478073120e-01
1.877084746956825256e-02
2.611931860446929932e-01
-1.140536218881607056e-01
2.018369883298873901e-01
-8.773376792669296265e-02
-1.817879974842071533e-01
-2.570128142833709717e-01
4.931847378611564636e-02
2.651893794536590576e-01
-1.500663161277770996e-01
2.226213961839675903e-01
3.694435954093933105e-02
9.557556360960006714e-02
2.031375914812088013e-01
-1.235277056694030762e-01
5.491760000586509705e-02
-2.060227990150451660e-01
-9.214032441377639771e-02
-2.256025075912475586e-01
-1.639915555715560913e-01
-3.496168851852416992e-01
-1.541786193847656250e-01
-2.042282968759536743e-01
-2.276290953159332275e-02
1.504399627447128296e-01
-2.007463127374649048e-01
1.778844147920608521e-01
-9.497852064669132233e-03
-2.407035604119300842e-02
1.331088040024042130e-02
3.449045121669769287e-02
-7.797031104564666748e-02
-3.403406962752342224e-02
-2.909572795033454895e-02
-3.961209952831268311e-01
-5.062302350997924805e-01
-3.908880949020385742e-01
-3.285543322563171387e-01
-2.546921968460083008e-01
3.820244371891021729e-01
4.618216156959533691e-01
2.620246410369873047e-01
-3.294506371021270752e-01
-2.808773815631866455e-01
2.691182494163513184e-01
-3.250754475593566895e-01
-2.068904191255569458e-01
1.567125916481018066e-01
2.984471246600151062e-02
3.591540157794952393e-01
2.126115001738071442e-02
3.194931149482727051e-01
-8.465354144573211670e-02
1.163738667964935303e-01
-2.558953464031219482e-01
-2.142973691225051880e-01
-2.315133959054946899e-01
-2.649149596691131592e-01
3.282013535499572754e-02
3.621202409267425537e-01
-9.883039444684982300e-02
-8.556798100471496582e-03
1.313114315271377563e-01
3.434563875198364258e-01
-2.167019248008728027e-01
-1.664447933435440063e-01
-3.134138286113739014e-01
-2.836834788322448730e-01
4.872403293848037720e-02
1.355040520429611206e-01
2.107369303703308105e-01
4.325954616069793701e-01
4.824281632900238037e-01
-4.232592135667800903e-02
-3.590333759784698486e-01
-2.593763172626495361e-01
5.407474935054779053e-02
1.921461671590805054e-01
-1.623697727918624878e-01
-7.311894744634628296e-02
3.160706758499145508e-01
-7.003159821033477783e-02
1.022994890809059143e-01
-5.004502087831497192e-02
-1.343347132205963135e-01
-2.943802857771515846e-03
1.484559178352355957e-01
3.275872468948364258e-01
9.958647191524505615e-02
-3.085405752062797546e-02
-2.704989612102508545e-01
1.518056988716125488e-01
2.103717178106307983e-01
-5.615708883851766586e-03
-1.464821994304656982e-01
3.398727253079414368e-02
-1.916895359754562378e-01
2.643585503101348877e-01
-8.087243884801864624e-02
3.559271246194839478e-02
4.159325957298278809e-01
2.112422883510589600e-01
-2.565166056156158447e-01
9.172490239143371582e-02
6.781035661697387695e-02
1.154577806591987610e-01
-3.847171366214752197e-02
1.966068893671035767e-01
9.167003631591796875e-02
7.217504829168319702e-02
-4.876071959733963013e-02
-2.178771235048770905e-02
-3.349289065226912498e-03
3.045103549957275391e-01
-1.538390368223190308e-01
-1.901772320270538330e-01
-1.701497584581375122e-01
-3.625720739364624023e-01
-4.885169565677642822e-01
1.055756434798240662e-01
2.359213531017303467e-01
1.385923475027084351e-01
-1.240566447377204895e-01
-4.344758018851280212e-02
1.040176004171371460e-01
-1.479662656784057617e-01
-5.274800583720207214e-02
-1.590276136994361877e-02
-7.283634692430496216e-02
1.748870760202407837e-01
1.333652138710021973e-01
-1.258847652934491634e-03
-4.588777124881744385e-01
2.331472635269165039e-01
3.031305670738220215e-01
9.297184646129608154e-02
2.259166836738586426e-01
-1.298115700483322144e-01
-4.838502500206232071e-03
6.363110989332199097e-02
-6.284408271312713623e-02
-7.572910934686660767e-02
4.877139627933502197e-02
3.994944989681243896e-01
3.642347157001495361e-01
1.731809973716735840e-01
1.602521985769271851e-01
1.919214129447937012e-01
1.582942605018615723e-01
1.389502882957458496e-01
6.758413463830947876e-02
2.236042544245719910e-02
-2.326882630586624146e-02
6.166205555200576782e-02
6.176694482564926147e-02
-2.330030128359794617e-02
-1.340103894472122192e-01
-1.213941499590873718e-01
-1.466280519962310791e-01
-3.995478898286819458e-02
3.344119340181350708e-02
2.197339087724685669e-01
2.015711665153503418e-01
1.610233336687088013e-01
1.815026104450225830e-01
1.778557002544403076e-01
2.377080172300338745e-01
1.428246051073074341e-01
-1.109740883111953735e-01
-7.354479283094406128e-02
-2.953714877367019653e-02
-6.857192516326904297e-02
-7.584623247385025024e-02
-4.662004113197326660e-02
6.590047385543584824e-03
-1.734616234898567200e-02
1.678998582065105438e-02
-6.443947553634643555e-02
-5.954042077064514160e-02
-1.386939454823732376e-02
-1.115583907812833786e-02
2.400214970111846924e-02
1.459607575088739395e-02
-4.551400488708168268e-04
2.165328897535800934e-02
-7.266142964363098145e-02
-3.487695753574371338e-02
2.900981530547142029e-02
-4.966636002063751221e-02
2.796861808747053146e-03
7.727238349616527557e-03
1.007309416308999062e-03
1.857859827578067780e-02
-1.746745780110359192e-02
-1.298541575670242310e-01
-1.450117081403732300e-01
-7.381396740674972534e-02
-9.631758928298950195e-02
5.699050799012184143e-02
1.135300546884536743e-01
1.126771979033946991e-02
-1.132293567061424255e-01
-5.428829789161682129e-02
-1.170432101935148239e-02
1.152092940174043179e-03
1.397666335105895996e-02
4.321542382240295410e-02
-6.755648553371429443e-02
-1.383946985006332397e-01
-2.745900452136993408e-01
-2.156627327203750610e-01
-1.120509281754493713e-01
-9.723763912916183472e-02
-6.446566432714462280e-02
9.824854135513305664e-02
1.150634661316871643e-01
9.690684080123901367e-02
7.430313527584075928e-02
1.119589060544967651e-01
2.015307545661926270e-01
1.189553514122962952e-01
-1.370688062161207199e-02
-7.297336310148239136e-02
-9.471131116151809692e-02
-1.322777271270751953e-01
-9.888453036546707153e-02
2.149823494255542755e-02
