5.539719760417938232e-02
5.460166931152343750e-02
1.384221855551004410e-02
-1.836988180875778198e-01
-2.834201604127883911e-02
8.522108197212219238e-02
-2.761808037757873535e-02
4.165882989764213562e-02
4.160503670573234558e-02
6.547284126281738281e-02
-2.250224947929382324e-01
3.390210121870040894e-02
-3.199120983481407166e-02
1.157788187265396118e-01
5.799585580825805664e-02
-8.458905853331089020e-03
8.277177810668945312e-03
-2.587792649865150452e-02
-1.063027903437614441e-01
-1.451257318258285522e-01
7.403522729873657227e-02
-2.018642276525497437e-01
-1.051150709390640259e-01
-8.053438365459442139e-02
-1.956500485539436340e-02
3.619457036256790161e-02
5.487246438860893250e-02
4.981153458356857300e-02
-1.692785322666168213e-01
-8.466798812150955200e-02
-1.771858632564544678e-01
2.692129462957382202e-02
8.249731361865997314e-02
5.996656045317649841e-02
2.909418428316712379e-03
-8.514809608459472656e-02
1.859296485781669617e-02
-7.803409546613693237e-02
4.486031457781791687e-02
-1.153675541281700134e-01
-2.497619250789284706e-03
-1.004092693328857422e-01
-3.323380276560783386e-02
8.976204693317413330e-02
-5.519557371735572815e-02
-2.819599211215972900e-02
1.177991554141044617e-01
-7.414931058883666992e-02
-2.427271939814090729e-02
8.795946836471557617e-02
4.822994396090507507e-02
9.836342930793762207e-02
1.466435343027114868e-01
-2.136148065328598022e-01
-1.911554671823978424e-02
-8.480359613895416260e-02
2.089770324528217316e-02
9.645631909370422363e-02
-3.744414821267127991e-02
-1.516819596290588379e-01
-9.282170981168746948e-02
-5.770780891180038452e-02
2.521946653723716736e-02
1.101159676909446716e-02
-6.445934623479843140e-02
-1.913499832153320312e-01
-1.963665708899497986e-02
1.997061669826507568e-01
6.296531111001968384e-02
3.952637780457735062e-05
8.070405572652816772e-03
6.646888703107833862e-02
-9.955340623855590820e-02
-1.263086199760437012e-01
6.829192489385604858e-02
1.432500127702951431e-02
1.587901115417480469e-01
1.307698618620634079e-02
1.354315783828496933e-02
1.783136278390884399e-02
-3.760408610105514526e-02
-8.971098810434341431e-02
-2.067578397691249847e-02
1.496672630310058594e-01
-3.108417987823486328e-02
-8.728435635566711426e-02
2.518831007182598114e-02
5.061791092157363892e-02
1.420748978853225708e-01
1.048062928020954132e-02
-1.090191975235939026e-01
1.146760284900665283e-01
-1.012780424207448959e-02
5.263950303196907043e-02
-5.395139008760452271e-02
-2.286078184843063354e-01
-1.216376274824142456e-01
1.874597510322928429e-03
-5.746480077505111694e-02
-7.226260751485824585e-02
-1.520281732082366943e-01
-9.981018304824829102e-02
1.238189861178398132e-01
1.747365482151508331e-02
-1.855223439633846283e-02
1.174090988934040070e-02
-7.187984138727188110e-02
-1.424456536769866943e-01
-7.471375912427902222e-02
-7.274864614009857178e-02
-3.379235789179801941e-02
4.615680500864982605e-02
-2.515214681625366211e-01
-8.387710899114608765e-03
-4.789590463042259216e-02
2.331966534256935120e-02
2.698765508830547333e-02
1.508820205926895142e-01
-7.021766901016235352e-02
4.272511228919029236e-02
-8.890181779861450195e-03
2.623974345624446869e-02
-1.343582719564437866e-01
-1.399938017129898071e-01
4.403879493474960327e-02
6.742396950721740723e-02
-1.626563817262649536e-01
-9.852456860244274139e-03
-1.460809540003538132e-02
-7.183054834604263306e-02
5.684006493538618088e-03
-2.001881003379821777e-01
2.947678044438362122e-02
1.267170906066894531e-01
-1.654683202505111694e-01
-2.796659059822559357e-02
1.095134671777486801e-02
1.272589862346649170e-01
-2.947517484426498413e-02
-1.343864649534225464e-01
-1.355060786008834839e-01
2.399574965238571167e-02
-4.797610267996788025e-02
-1.051497012376785278e-01
-1.839656978845596313e-01
-1.357094794511795044e-01
-6.308014690876007080e-02
1.120203733444213867e-02
1.016084849834442139e-01
-6.875584833323955536e-03
2.923739515244960785e-02
5.882746353745460510e-02
2.043211609125137329e-01
-9.206768125295639038e-03
4.264314845204353333e-02
1.911135762929916382e-02
9.263084828853607178e-02
-9.535929188132286072e-03
-2.498032599687576294e-01
1.794724017381668091e-01
-3.703787550330162048e-02
-1.431046798825263977e-02
-1.397758275270462036e-01
-3.420845791697502136e-02
-1.319398134946823120e-01
-1.607074141502380371e-01
-9.692073613405227661e-02
-2.349256910383701324e-02
-6.054523214697837830e-02
-2.503295242786407471e-01
-1.600934714078903198e-01
-1.726311072707176208e-02
4.191999137401580811e-02
1.054744943976402283e-01
-6.750363856554031372e-02
-1.520107779651880264e-02
6.660963594913482666e-02
-7.160533964633941650e-02
-1.352733224630355835e-01
-7.971848547458648682e-02
-4.258559271693229675e-02
5.497835204005241394e-02
-4.437710624188184738e-03
-8.587431162595748901e-02
3.342931717634201050e-02
2.795343287289142609e-02
5.466601252555847168e-02
-9.815546125173568726e-02
-2.556132152676582336e-02
-1.073173582553863525e-01
3.390390053391456604e-02
6.488984916359186172e-03
-8.169389516115188599e-02
3.526613861322402954e-02
-1.173475384712219238e-01
3.094940260052680969e-02
-5.155022814869880676e-02
1.392778158187866211e-01
-5.755499005317687988e-02
8.482579141855239868e-03
-8.161825686693191528e-02
-6.079940125346183777e-02
-1.531911343336105347e-01
-1.056357771158218384e-01
5.084291100502014160e-02
-2.337218672037124634e-01
-1.002060845494270325e-01
-9.997615963220596313e-02
4.542303830385208130e-02
1.229877471923828125e-01
9.677332639694213867e-02
-1.920464821159839630e-02
1.920332945883274078e-02
-1.707616597414016724e-01
-1.077894717454910278e-01
-8.954347670078277588e-02
4.581111669540405273e-02
-9.518611431121826172e-02
-4.585145413875579834e-02
7.563520222902297974e-03
3.688745573163032532e-02
1.459315605461597443e-02
-2.351110614836215973e-02
9.591366350650787354e-02
-8.350866287946701050e-02
-1.407587975263595581e-01
-2.310291491448879242e-02
-3.560605645179748535e-02
1.790308505296707153e-01
-8.656650036573410034e-02
-2.015958279371261597e-01
-1.798545718193054199e-01
-8.894470334053039551e-02
1.234528794884681702e-02
2.658267505466938019e-02
-2.391530126333236694e-01
1.350279748439788818e-01
-6.670180708169937134e-03
-2.078019268810749054e-02
5.974097177386283875e-02
-2.285301536321640015e-01
-5.771500524133443832e-03
7.393388450145721436e-02
-8.524817228317260742e-02
-7.885471731424331665e-02
-2.402529865503311157e-01
-1.762202382087707520e-01
-1.295230388641357422e-01
-8.452211506664752960e-03
7.698491215705871582e-02
1.782264560461044312e-02
-1.123281493782997131e-01
-1.892128773033618927e-02
1.207790430635213852e-02
-9.568454325199127197e-02
-4.352188110351562500e-02
1.843004114925861359e-02
2.228916063904762268e-02
-2.641169726848602295e-01
9.524276852607727051e-02
-2.198455296456813812e-02
1.048691011965274811e-02
4.048123583197593689e-02
-5.206879973411560059e-02
-2.715095691382884979e-02
-7.060766965150833130e-02
-1.931200921535491943e-01
5.920376256108283997e-02
-6.230532377958297729e-02
1.377167832106351852e-02
-1.518736928701400757e-01
3.452068194746971130e-02
5.818377062678337097e-02
5.820785462856292725e-02
-3.668756410479545593e-02
1.458941847085952759e-01
-2.108483761548995972e-01
7.378467917442321777e-02
1.230508461594581604e-01
-5.379346013069152832e-02
-2.537796795368194580e-01
4.924077540636062622e-02
-1.579947620630264282e-01
1.090484554879367352e-03
-1.205382943153381348e-01
-1.421331912279129028e-01
-7.906170189380645752e-02
-2.220332808792591095e-02
-1.821095347404479980e-01
-1.222604736685752869e-01
-8.411275595426559448e-02
-1.627819389104843140e-01
5.970114469528198242e-02
4.770567640662193298e-03
-3.771602408960461617e-03
6.102016195654869080e-02
-1.895681470632553101e-01
-1.554747764021158218e-02
2.274136431515216827e-02
-2.935485243797302246e-01
-1.112745180726051331e-01
-1.533712744712829590e-01
3.407294303178787231e-02
-3.010860085487365723e-01
8.663688786327838898e-03
-2.063403651118278503e-02
-3.853876590728759766e-01
-1.131434664130210876e-01
2.323517110198736191e-03
-2.297938615083694458e-01
9.111741930246353149e-02
-1.054698079824447632e-01
-1.624622493982315063e-01
-2.360316179692745209e-02
-2.056073397397994995e-01
-5.124022252857685089e-03
5.762718990445137024e-02
-1.607658118009567261e-01
-1.967347115278244019e-01
-4.436086863279342651e-02
4.053569957613945007e-02
2.985862083733081818e-02
-1.160026863217353821e-01
-1.723332703113555908e-01
-5.964794754981994629e-02
-1.590807586908340454e-01
-1.403734087944030762e-01
-6.504853814840316772e-02
-9.840962290763854980e-02
8.004304021596908569e-02
1.599421650171279907e-01
1.150296479463577271e-01
-7.362573593854904175e-02
-1.668360233306884766e-01
2.404074417427182198e-03
-4.387185350060462952e-02
-1.342238765209913254e-02
8.954739570617675781e-02
7.478866726160049438e-02
-1.809241771697998047e-01
1.068965345621109009e-01
-1.459981799125671387e-01
1.253160275518894196e-02
-9.654115885496139526e-02
1.748038642108440399e-02
9.643843024969100952e-02
-2.234317809343338013e-01
-1.130120754241943359e-01
-1.255286764353513718e-02
9.712105244398117065e-02
-6.154661625623703003e-02
-6.951664388179779053e-02
-2.119121402502059937e-01
6.009164080023765564e-02
1.291132438927888870e-02
-1.662687659263610840e-01
9.140459448099136353e-02
-4.421804845333099365e-02
-6.905991584062576294e-02
-1.462657600641250610e-01
-2.988716363906860352e-01
-1.614748239517211914e-01
-3.531297296285629272e-02
6.805448234081268311e-02
-1.022927761077880859e-01
-6.033226475119590759e-02
8.543149568140506744e-03
9.508498013019561768e-03
-3.772285580635070801e-02
2.898024581372737885e-02
3.276937082409858704e-02
-5.764916539192199707e-02
-3.453925624489784241e-02
-8.851043134927749634e-02
-1.638428121805191040e-01
3.453423827886581421e-02
-2.265100479125976562e-01
8.598010241985321045e-02
-1.071969345211982727e-01
-3.822687268257141113e-02
1.698110019788146019e-03
8.423928916454315186e-02
-9.791664034128189087e-02
-1.052272692322731018e-01
-1.048133969306945801e-01
1.189480647444725037e-01
6.449590623378753662e-02
-2.075868248939514160e-01
-1.380342990159988403e-01
-5.380004271864891052e-02
-2.182651013135910034e-01
-7.668612897396087646e-02
1.310005336999893188e-01
-1.873110681772232056e-01
-1.860902458429336548e-01
2.177153714001178741e-02
5.832785367965698242e-02
-2.886748313903808594e-01
5.620013177394866943e-02
1.197547465562820435e-01
-1.800853312015533447e-01
-2.460733652114868164e-01
-1.403529047966003418e-01
-2.005802525673061609e-05
8.218994736671447754e-02
-7.422747462987899780e-02
6.149784475564956665e-02
-3.399369865655899048e-02
-5.523804575204849243e-02
-4.576712381094694138e-03
-5.429424718022346497e-02
-1.104397326707839966e-02
-1.701478511095046997e-01
-7.099632173776626587e-02
3.699753805994987488e-02
-5.879446119070053101e-02
1.282606273889541626e-01
-1.649675332009792328e-02
-4.100658744573593140e-02
-1.997632160782814026e-02
-2.166534364223480225e-01
1.087032072246074677e-02
5.338760837912559509e-02
-4.404010623693466187e-02
-1.588382874615490437e-03
-7.521673291921615601e-02
-5.468103662133216858e-02
3.124854061752557755e-03
1.073913276195526123e-01
1.288773268461227417e-01
8.659826964139938354e-02
-9.913489967584609985e-02
-9.540605545043945312e-02
4.111135005950927734e-02
-1.108512505888938904e-01
-9.498491883277893066e-02
-8.628781139850616455e-02
-6.692593544721603394e-02
4.844181612133979797e-02
-4.465518891811370850e-02
-3.408222645521163940e-02
-3.479613363742828369e-02
5.237739160656929016e-02
-1.419011801481246948e-01
-1.421035975217819214e-01
-6.648600101470947266e-02
3.520022612065076828e-03
-4.298369213938713074e-02
-1.739733815193176270e-01
5.519927665591239929e-02
-1.723758690059185028e-02
-1.142255514860153198e-01
4.889185726642608643e-02
-1.050267294049263000e-01
-1.429533027112483978e-02
-8.276264369487762451e-02
-1.423964947462081909e-01
-5.177668109536170959e-02
1.094939559698104858e-02
-1.557498723268508911e-01
-8.145182579755783081e-02
5.989525467157363892e-02
-2.462305314838886261e-02
6.018806016072630882e-04
3.933300450444221497e-02
-1.187682002782821655e-01
-1.351996660232543945e-01
4.275802895426750183e-02
-4.964952170848846436e-02
-1.229112874716520309e-02
9.962105751037597656e-02
1.430980861186981201e-01
1.538467407226562500e-02
1.818888261914253235e-02
1.179388463497161865e-01
-3.882400318980216980e-02
-4.142492637038230896e-02
-7.950495183467864990e-02
1.200017109513282776e-01
8.842284977436065674e-02
-2.544708549976348877e-02
1.378787159919738770e-01
7.504557073116302490e-02
-1.905553042888641357e-01
-2.062270045280456543e-01
-2.135207131505012512e-02
-1.729318648576736450e-01
2.468946389853954315e-02
-6.223695352673530579e-02
-1.702301502227783203e-01
2.179162018001079559e-02
-9.581434726715087891e-02
-5.101660639047622681e-02
-5.576843395829200745e-02
6.618501991033554077e-02
6.493877619504928589e-02
-1.279216259717941284e-01
7.147210836410522461e-02
5.766477435827255249e-02
6.009979173541069031e-02
-5.555863305926322937e-02
-5.900022014975547791e-02
-5.816477909684181213e-02
1.169852353632450104e-02
7.902465760707855225e-02
-4.776844009757041931e-02
-3.017108142375946045e-01
1.004305109381675720e-01
5.627743527293205261e-02
-4.140123724937438965e-02
-1.980354264378547668e-02
-3.156380727887153625e-02
1.414409875869750977e-01
-1.587971299886703491e-01
-1.952734142541885376e-01
-1.478003859519958496e-01
2.476727962493896484e-02
-5.474323034286499023e-02
-9.086985886096954346e-02
6.364762783050537109e-02
1.371997296810150146e-01
1.312000863254070282e-02
-7.382725179195404053e-02
5.361487343907356262e-02
-1.264701634645462036e-01
9.605225175619125366e-02
5.676842480897903442e-02
1.425790488719940186e-01
-2.818529605865478516e-01
5.214963480830192566e-02
-5.149191990494728088e-02
-6.938418000936508179e-02
1.177173331379890442e-01
1.468178909271955490e-02
-3.078095614910125732e-01
-1.051032636314630508e-02
7.711944729089736938e-02
2.693663164973258972e-02
4.731506481766700745e-02
-7.368383556604385376e-02
-5.846960470080375671e-02
-5.319046787917613983e-03
1.418638825416564941e-01
-8.968659490346908569e-02
-2.585249245166778564e-01
2.858495153486728668e-02
8.918018639087677002e-02
1.687188148498535156e-01
-2.493323236703872681e-01
1.207795068621635437e-01
1.173605993390083313e-01
1.889284849166870117e-01
-1.014544069766998291e-01
2.114117518067359924e-02
-9.917926043272018433e-02
-7.057349383831024170e-02
4.067738354206085205e-02
-2.633144557476043701e-01
-9.742411226034164429e-02
3.104490227997303009e-02
1.211199611425399780e-01
1.509044021368026733e-01
-2.854115888476371765e-02
2.914387360215187073e-02
-9.479226171970367432e-02
-1.413500774651765823e-02
6.156764924526214600e-02
1.301626116037368774e-02
7.633042335510253906e-02
6.330203614197671413e-04
-5.650930106639862061e-02
-1.281835287809371948e-01
1.323605626821517944e-01
3.822875395417213440e-02
3.512978181242942810e-02
1.152356043457984924e-01
-5.451660230755805969e-02
-8.757250010967254639e-02
1.511518470942974091e-02
7.389597594738006592e-02
1.004662271589040756e-02
1.216850355267524719e-01
-1.653706841170787811e-02
1.828790269792079926e-02
2.309609949588775635e-02
1.545222126878798008e-03
1.860560104250907898e-02
-9.809696674346923828e-02
-3.182871267199516296e-02
4.507293924689292908e-02
-1.112226024270057678e-02
-2.871022224426269531e-01
-1.670896112918853760e-01
3.029506094753742218e-02
1.034886017441749573e-01
-2.849559485912322998e-01
-7.966974377632141113e-02
-3.924335539340972900e-02
-2.197407037019729614e-01
1.020869612693786621e-01
-5.800888314843177795e-02
5.969975516200065613e-02
-1.376035511493682861e-01
-3.209218010306358337e-02
-1.255193501710891724e-01
6.825842708349227905e-02
-1.793020814657211304e-01
-7.081288844347000122e-02
1.181268766522407532e-01
-5.149633809924125671e-02
-9.173174202442169189e-02
-1.725975237786769867e-02
8.459094911813735962e-02
7.113280892372131348e-02
1.405303776264190674e-01
-1.010304689407348633e-01
1.324888616800308228e-01
-2.405330538749694824e-01
-4.450399801135063171e-02
-4.237879067659378052e-03
-3.088507987558841705e-02
6.720212101936340332e-02
2.378480136394500732e-01
5.669699236750602722e-02
-1.481313854455947876e-01
9.575288742780685425e-02
-3.054617159068584442e-02
-1.878112852573394775e-01
-1.770925074815750122e-01
-1.827330291271209717e-01
-2.241795510053634644e-02
5.068797618150711060e-02
7.563163340091705322e-02
-1.181056052446365356e-01
-2.324475347995758057e-01
9.569322317838668823e-02
2.881191857159137726e-02
1.450701057910919189e-01
-6.521596014499664307e-02
8.733488619327545166e-02
-1.038704439997673035e-01
3.319523856043815613e-02
-2.686701118946075439e-01
3.677685186266899109e-02
-5.800401419401168823e-02
-5.051109194755554199e-02
-1.077326163649559021e-01
-3.790101036429405212e-02
-8.061832934617996216e-02
-1.020671613514423370e-02
6.026595085859298706e-02
-1.275913715362548828e-01
-9.551708400249481201e-02
-2.526800632476806641e-01
7.146320492029190063e-02
-6.472331285476684570e-02
-1.877189129590988159e-01
-4.845404997467994690e-02
1.615331694483757019e-02
-1.237534135580062866e-01
6.487059593200683594e-02
8.030590415000915527e-02
1.722505129873752594e-02
7.005283981561660767e-02
-2.258098572492599487e-01
-1.353452354669570923e-01
-1.942252367734909058e-02
-3.452950343489646912e-02
1.511053275316953659e-02
-8.502357453107833862e-02
-8.508949726819992065e-02
-3.459370136260986328e-02
-7.865205407142639160e-02
8.351887762546539307e-02
-1.067715436220169067e-01
-1.372053325176239014e-01
-2.850920520722866058e-02
-4.813190177083015442e-02
-2.126705460250377655e-02
-8.559048920869827271e-02
5.440655723214149475e-02
1.196085661649703979e-02
-2.836922928690910339e-02
-1.578884720802307129e-01
-5.978299304842948914e-02
2.642809879034757614e-03
-1.789989471435546875e-01
-1.552968919277191162e-01
-8.333607763051986694e-02
9.484763443470001221e-02
-2.312022075057029724e-02
-1.155951246619224548e-01
-4.199103266000747681e-02
-8.729320764541625977e-02
-1.325638499110937119e-02
-4.938445985317230225e-02
-1.992195397615432739e-01
-1.035716161131858826e-01
1.803783923387527466e-01
-3.294090926647186279e-02
-7.092864066362380981e-02
6.044805049896240234e-02
1.285980939865112305e-01
4.454192519187927246e-02
-8.833792805671691895e-02
1.497010588645935059e-01
-1.854210859164595604e-03
3.349114954471588135e-02
-1.307229548692703247e-01
-2.130200117826461792e-01
-4.554144665598869324e-02
6.336298771202564240e-03
1.678805425763130188e-02
-4.255025088787078857e-02
2.324985153973102570e-02
9.788290597498416901e-03
-1.086405292153358459e-01
7.029240485280752182e-03
-8.475233800709247589e-03
-1.390539854764938354e-01
1.208589822053909302e-01
2.403747104108333588e-02
-9.392797201871871948e-02
-2.856632471084594727e-01
1.117765605449676514e-01
-1.083648949861526489e-01
-5.707822740077972412e-03
-1.842235177755355835e-01
-9.981656074523925781e-02
-2.250649183988571167e-01
3.988369554281234741e-02
3.458927944302558899e-02
-4.193127900362014771e-02
-1.098935157060623169e-01
2.479127794504165649e-02
6.423489004373550415e-02
-2.029412984848022461e-02
-5.490345507860183716e-02
-3.696571337059140205e-03
1.103797331452369690e-01
-1.396502703428268433e-01
-2.169252783060073853e-01
1.296040862798690796e-01
8.263637870550155640e-02
-1.324369758367538452e-01
1.787788420915603638e-02
2.069086767733097076e-02
2.438075244426727295e-01
-2.815602160990238190e-02
3.028420032933354378e-03
-1.152780023403465748e-03
2.199942022562026978e-01
-2.268026024103164673e-02
-1.533015519380569458e-01
-1.477211564779281616e-01
-4.828487988561391830e-03
-1.461954861879348755e-01
1.925598233938217163e-01
-8.827751874923706055e-02
-1.599337160587310791e-01
7.179284002631902695e-03
-8.231915533542633057e-02
2.166745811700820923e-02
-6.133091822266578674e-02
-1.539758443832397461e-01
5.594849959015846252e-02
-1.462027430534362793e-01
8.703337609767913818e-02
-4.095679894089698792e-02
-4.758194461464881897e-02
-9.783214330673217773e-02
-5.765037983655929565e-02
-7.385968416929244995e-02
2.568225748836994171e-02
-5.537573015317320824e-04
4.118777438998222351e-02
-6.284843385219573975e-02
-1.954572051763534546e-01
-1.470346301794052124e-01
4.383951798081398010e-02
-2.779588401317596436e-01
-6.599256396293640137e-02
-1.021306291222572327e-01
-8.357810229063034058e-02
-2.579984068870544434e-01
4.831578955054283142e-02
-4.751225560903549194e-02
-1.385040134191513062e-01
-8.699856698513031006e-02
1.630897261202335358e-02
-2.987318336963653564e-01
7.974284380907192826e-05
1.227758452296257019e-01
-1.264129392802715302e-02
7.040020078420639038e-02
5.539396032691001892e-02
-8.808463066816329956e-02
-1.474326550960540771e-01
-7.510289549827575684e-02
-2.571817487478256226e-02
-1.358374059200286865e-01
-8.686754107475280762e-02
8.974824100732803345e-02
-2.776337554678320885e-03
1.218915805220603943e-01
-1.731123030185699463e-01
-1.687025427818298340e-01
4.802314564585685730e-02
-1.004656255245208740e-01
-1.074739024043083191e-01
-1.105702444911003113e-01
-2.017956674098968506e-01
-8.351166546344757080e-02
-8.140911161899566650e-02
-2.608222886919975281e-03
1.348652541637420654e-01
-6.597103178501129150e-02
6.842739880084991455e-02
-1.681806445121765137e-01
-1.724167764186859131e-01
-8.013350516557693481e-02
8.313348889350891113e-02
-6.146600842475891113e-02
1.141151785850524902e-02
-2.466195030137896538e-03
-3.152907267212867737e-02
-7.367351651191711426e-02
-1.541609168052673340e-01
-2.278239093720912933e-02
-6.934411078691482544e-02
-3.772994130849838257e-02
8.572357892990112305e-02
2.983656898140907288e-02
-1.708300784230232239e-02
-9.066496975719928741e-03
-2.094297111034393311e-01
-5.091204121708869934e-02
-2.359456010162830353e-02
-5.472026467323303223e-01
1.445551514625549316e-01
2.017096728086471558e-01
-1.064805611968040466e-01
-4.670630209147930145e-03
-1.473742071539163589e-02
-4.530514031648635864e-02
-3.010039031505584717e-02
-7.148109376430511475e-02
-1.747846454381942749e-01
-7.819395512342453003e-02
-1.493410905823111534e-03
-2.171356827020645142e-01
-1.583760082721710205e-01
-1.114240437746047974e-01
-3.501050546765327454e-02
-1.964751631021499634e-01
-1.599369803443551064e-03
1.843040436506271362e-02
-5.388136208057403564e-02
1.760621368885040283e-02
-2.030058354139328003e-01
7.483305037021636963e-02
-1.498512029647827148e-01
1.453638225793838501e-01
-9.622571058571338654e-03
4.103985056281089783e-02
-8.776896446943283081e-02
-5.782712996006011963e-02
-1.317572891712188721e-01
1.912198262289166451e-03
6.516044586896896362e-02
1.172881014645099640e-02
-2.575951218605041504e-01
-3.277521729469299316e-01
-4.529402405023574829e-02
1.175018325448036194e-01
-7.401214540004730225e-02
-4.394361376762390137e-02
1.254969835281372070e-01
5.632976442575454712e-02
-1.630743499845266342e-04
-6.358364969491958618e-02
-9.417323023080825806e-02
-8.584079891443252563e-02
-1.086573898792266846e-01
6.696827709674835205e-02
-8.512977510690689087e-02
2.780755748972296715e-04
-9.974167495965957642e-02
-4.458843171596527100e-02
3.655734285712242126e-02
-1.263275444507598877e-01
2.309680171310901642e-02
-3.736279904842376709e-02
4.091956466436386108e-02
-4.360260069370269775e-02
3.583750501275062561e-02
-5.359259620308876038e-02
-8.472274988889694214e-02
6.577522493898868561e-03
-2.956534326076507568e-01
4.044086672365665436e-03
1.479745507240295410e-01
-3.817027807235717773e-02
-3.820082545280456543e-02
-1.861200481653213501e-01
-9.055797755718231201e-02
-4.382117688655853271e-01
-1.924684494733810425e-01
-9.667275846004486084e-02
-1.427229642868041992e-01
8.339210599660873413e-02
-1.345516443252563477e-01
-5.076298490166664124e-03
7.639918476343154907e-02
2.746596746146678925e-02
-9.644893556833267212e-02
-2.394478321075439453e-01
4.308485239744186401e-02
2.090839147567749023e-01
4.188434407114982605e-02
-9.255418926477432251e-02
-1.430503278970718384e-02
8.872445672750473022e-02
-9.231193363666534424e-02
-1.910837367177009583e-02
2.833301946520805359e-02
-1.071684155613183975e-02
-6.936075538396835327e-02
3.976212069392204285e-02
-7.224607281386852264e-03
-6.140647083520889282e-02
-2.191143035888671875e-01
-1.537955254316329956e-01
-3.252067416906356812e-02
1.230417191982269287e-01
-1.434953063726425171e-01
-4.274250864982604980e-01
4.616573080420494080e-02
-7.856660336256027222e-02
9.891091287136077881e-02
-8.591769635677337646e-02
-4.150962084531784058e-02
-1.050011962652206421e-01
-1.243376284837722778e-01
3.061457769945263863e-03
-1.330150514841079712e-01
-1.181268040090799332e-02
-1.350423842668533325e-01
-8.890173584222793579e-02
-1.260304823517799377e-02
-5.452237650752067566e-02
3.458253294229507446e-02
-1.291267126798629761e-01
9.337377850897610188e-04
-3.374540209770202637e-01
-2.402615249156951904e-01
-6.242468208074569702e-02
-2.360321283340454102e-01
-1.690164767205715179e-02
9.357138723134994507e-02
-9.568803757429122925e-02
1.426754742860794067e-01
1.809978634119033813e-01
6.695663928985595703e-02
6.426402833312749863e-03
-6.994148343801498413e-02
-2.225674092769622803e-01
-3.286034762859344482e-01
6.174195930361747742e-02
-2.309123985469341278e-02
-1.392522007226943970e-01
1.180363833555020392e-04
-7.016847282648086548e-02
1.013592034578323364e-01
-4.926643148064613342e-02
-4.989109933376312256e-02
-4.246001318097114563e-02
-9.632493555545806885e-02
7.835949957370758057e-02
1.537125110626220703e-01
3.249766677618026733e-02
-3.085408173501491547e-02
-5.029932036995887756e-02
-3.929791599512100220e-02
-1.889864727854728699e-02
-1.392318755388259888e-01
2.305141463875770569e-02
-1.711739599704742432e-01
-7.627183198928833008e-02
-1.448696404695510864e-01
-1.188530325889587402e-01
1.332749575376510620e-01
-4.794693738222122192e-02
-1.642947643995285034e-01
-4.027605801820755005e-02
-1.181963756680488586e-01
-1.058752611279487610e-01
-8.599796891212463379e-02
2.777636796236038208e-02
-1.238093078136444092e-01
-1.754007786512374878e-01
3.474015742540359497e-02
-1.236213147640228271e-01
-8.976922929286956787e-02
7.760537415742874146e-02
-1.886727213859558105e-01
1.284570842981338501e-01
7.852694950997829437e-03
-2.297793626785278320e-01
1.075401902198791504e-01
3.984303027391433716e-02
-8.911556750535964966e-02
-2.585847117006778717e-02
3.143205493688583374e-02
1.188261434435844421e-02
2.283524908125400543e-02
-5.641873460263013840e-03
-7.706213742494583130e-02
-3.426532074809074402e-02
7.939609885215759277e-02
1.181541848927736282e-02
8.275748789310455322e-02
9.729843586683273315e-02
1.224713027477264404e-01
4.219804704189300537e-02
-1.539850533008575439e-01
-2.214195728302001953e-01
-2.091540768742561340e-02
-5.673459172248840332e-02
2.368859946727752686e-02
1.849719882011413574e-01
1.280405931174755096e-02
-1.009633615612983704e-01
-1.947283297777175903e-01
-1.236452385783195496e-01
-1.060094088315963745e-01
-1.139409840106964111e-02
6.289858371019363403e-02
-6.642547249794006348e-02
9.022355079650878906e-03
-2.269009053707122803e-01
-5.611784756183624268e-02
-1.447682920843362808e-02
1.250472366809844971e-01
-1.350532323122024536e-01
1.036391183733940125e-01
-3.851777315139770508e-02
1.259950101375579834e-01
-1.246758326888084412e-01
-1.974416673183441162e-01
-6.291376799345016479e-02
-3.252794966101646423e-02
-1.157508268952369690e-01
-7.964245229959487915e-02
3.680128231644630432e-02
-5.104959011077880859e-03
-4.537408426403999329e-02
-4.336966201663017273e-02
-4.397497698664665222e-02
2.601391822099685669e-02
-1.072478890419006348e-01
-2.860178351402282715e-01
4.152107983827590942e-02
6.449022889137268066e-02
-5.026689916849136353e-02
-2.851237356662750244e-02
-6.667780131101608276e-02
-1.237302869558334351e-01
8.787585422396659851e-03
-5.281941220164299011e-02
-2.005044184625148773e-02
-2.334574311971664429e-01
5.178951844573020935e-02
-1.361445635557174683e-01
-1.557389944791793823e-01
-1.700015515089035034e-01
-8.452349156141281128e-02
-2.469022721052169800e-01
7.790892571210861206e-02
-9.034086018800735474e-02
-3.718133270740509033e-02
-2.234619483351707458e-02
-1.255967020988464355e-01
2.836569957435131073e-02
3.199909999966621399e-02
5.516515672206878662e-02
-1.891917139291763306e-01
-5.872659850865602493e-03
-3.494531288743019104e-02
7.757597416639328003e-02
-2.666045129299163818e-01
-1.101776063442230225e-01
1.325823813676834106e-01
6.881591677665710449e-02
-6.972437351942062378e-02
-1.746582239866256714e-01
-9.057110548019409180e-02
-1.068730023689568043e-03
-5.874327570199966431e-02
7.030735164880752563e-02
8.984390646219253540e-03
5.391107127070426941e-02
-1.271800994873046875e-01
-7.799412310123443604e-02
-3.067466989159584045e-02
-4.387419670820236206e-02
2.320545725524425507e-02
-9.806581586599349976e-02
-2.274370789527893066e-01
-2.579335868358612061e-02
-1.587006002664566040e-01
-1.420458257198333740e-01
3.757382929325103760e-02
-9.008537745103240013e-04
-5.825594812631607056e-02
3.567236289381980896e-02
-1.165916323661804199e-01
-7.707402110099792480e-02
-1.557454615831375122e-01
-2.655033022165298462e-03
-2.546619176864624023e-01
-1.205907464027404785e-01
9.705174714326858521e-03
-6.248173490166664124e-02
-2.164063416421413422e-02
1.379584372043609619e-01
-2.631293050944805145e-02
3.929590433835983276e-02
-1.524116247892379761e-01
1.546599995344877243e-02
-4.390296339988708496e-02
-7.247076183557510376e-02
1.261202394962310791e-01
-2.433886937797069550e-02
-3.753168880939483643e-02
-1.740810573101043701e-01
-1.749401167035102844e-02
-1.157007068395614624e-01
1.868936792016029358e-02
-1.853557080030441284e-01
-1.988633275032043457e-01
-1.446136683225631714e-01
2.536768466234207153e-02
1.713911071419715881e-02
-2.578287124633789062e-01
1.189471930265426636e-01
1.135850604623556137e-02
3.795445896685123444e-03
1.243813857436180115e-01
2.617889642715454102e-02
-5.064867064356803894e-02
-8.169039338827133179e-02
7.251168042421340942e-02
6.879068445414304733e-03
-2.782599255442619324e-02
2.053983137011528015e-02
-6.793347746133804321e-02
-5.746974050998687744e-02
-4.983298853039741516e-02
3.741857036948204041e-02
-7.616193592548370361e-02
-1.572736501693725586e-01
3.855415061116218567e-02
-8.087848871946334839e-02
-1.922313682734966278e-02
1.942630507983267307e-03
-1.220062840729951859e-03
1.262551668332889676e-04
-1.083530932664871216e-01
2.455882728099822998e-02
-1.380313280969858170e-02
6.080504506826400757e-02
-1.246908977627754211e-01
-3.572637587785720825e-02
-9.057980030775070190e-02
-1.976924575865268707e-02
-7.632096111774444580e-02
-1.184502020478248596e-01
-1.959682852029800415e-01
-9.070196747779846191e-02
-1.492367088794708252e-01
6.029204651713371277e-02
1.868216320872306824e-02
-6.246819347143173218e-02
-9.862934798002243042e-02
-1.691959202289581299e-01
-8.478227257728576660e-02
5.798471719026565552e-02
-1.819414645433425903e-01
-1.899915747344493866e-02
1.178112905472517014e-02
-1.501216273754835129e-02
-1.816382110118865967e-01
-8.577547967433929443e-02
-6.367561966180801392e-02
-1.254381984472274780e-01
5.987061653286218643e-03
-2.030365914106369019e-02
5.489374697208404541e-02
-7.332041859626770020e-02
2.440559212118387222e-03
-2.252474240958690643e-02
-1.220094636082649231e-01
-1.262142658233642578e-01
-1.987392827868461609e-02
-1.024644225835800171e-01
-7.227957248687744141e-02
8.630977571010589600e-02
5.414620414376258850e-02
-3.061099443584680557e-03
-1.195567175745964050e-01
-1.720372289419174194e-01
-2.471975237131118774e-02
2.284475788474082947e-02
-1.827667504549026489e-01
1.622788049280643463e-02
-6.534942984580993652e-02
-3.438165783882141113e-02
-5.227149277925491333e-02
-5.198264122009277344e-02
-6.694943457841873169e-02
-2.309522405266761780e-02
-1.440228968858718872e-01
-8.041810989379882812e-02
-7.857628166675567627e-02
-3.140803799033164978e-02
2.316365763545036316e-02
-1.194761842489242554e-01
-1.216273568570613861e-02
-1.210728734731674194e-01
8.902202546596527100e-02
4.072553664445877075e-02
-1.087167933583259583e-01
-7.520435005426406860e-02
-1.226119138300418854e-02
-1.424522250890731812e-01
-8.901187218725681305e-03
-4.429418221116065979e-02
-1.580576002597808838e-01
-8.560882508754730225e-02
-1.453750859946012497e-02
2.590954117476940155e-02
-4.648487269878387451e-02
-1.537419855594635010e-01
-1.303947716951370239e-01
-3.619419410824775696e-02
-3.488800674676895142e-02
7.728726416826248169e-02
5.219675367698073387e-04
-1.907610446214675903e-01
-9.625261276960372925e-02
5.943397060036659241e-02
-1.381580717861652374e-02
-1.010036468505859375e-01
5.617232248187065125e-02
-5.199849233031272888e-02
-2.886102162301540375e-02
-1.934224516153335571e-01
-9.999155998229980469e-02
3.035842627286911011e-02
-4.537100344896316528e-02
3.966546803712844849e-02
-2.861874736845493317e-02
-1.999539285898208618e-01
-2.284223027527332306e-02
-1.639221981167793274e-02
1.608491875231266022e-02
-1.026513949036598206e-01
9.895876795053482056e-02
-9.164934605360031128e-02
-8.064295351505279541e-02
-1.017962172627449036e-01
-1.418035775423049927e-01
-3.719643456861376762e-03
-1.748831756412982941e-02
9.221126139163970947e-02
6.106869131326675415e-02
4.345509409904479980e-02
-3.188460320234298706e-02
-1.868129707872867584e-02
7.042622193694114685e-03
-3.313171863555908203e-01
-4.807050898671150208e-02
8.167500048875808716e-02
1.017813682556152344e-01
-3.092971146106719971e-01
-4.955217614769935608e-02
1.405881252139806747e-02
8.259763568639755249e-02
8.141432702541351318e-02
5.636198446154594421e-02
4.560830071568489075e-03
-2.119720578193664551e-01
3.857180476188659668e-02
-2.936981432139873505e-02
1.389263421297073364e-01
-9.731689095497131348e-02
-4.497894644737243652e-02
-2.454041540622711182e-01
2.143388241529464722e-01
4.594810772687196732e-03
-7.500588148832321167e-02
-1.449713017791509628e-02
-1.707669943571090698e-01
6.615979224443435669e-02
-1.035669520497322083e-01
6.710613612085580826e-03
-4.337279498577117920e-02
-1.916643083095550537e-01
-2.506320178508758545e-02
1.388121545314788818e-01
2.307244762778282166e-02
-1.694169640541076660e-01
3.655539080500602722e-02
-1.475942730903625488e-01
4.060881584882736206e-02
1.185347810387611389e-01
-2.629493474960327148e-01
-8.951552212238311768e-02
5.451338738203048706e-02
-2.676551342010498047e-01
7.919660210609436035e-02
7.346531748771667480e-02
8.257986605167388916e-02
-6.467756349593400955e-03
-1.724973320960998535e-01
-1.038706526160240173e-01
-2.735136151313781738e-01
-3.076803311705589294e-02
-1.838090121746063232e-01
-9.337086230516433716e-04
6.202652677893638611e-02
-6.634831428527832031e-02
4.735786467790603638e-02
-4.608784802258014679e-03
-3.304511774331331253e-03
-2.138216793537139893e-01
-1.508434861898422241e-01
-1.062453538179397583e-01
-1.734185591340065002e-02
-4.240171611309051514e-02
2.972885966300964355e-02
3.212207555770874023e-02
-4.907962866127490997e-03
3.042793646454811096e-02
-2.169904066249728203e-03
9.456454962491989136e-02
1.727384477853775024e-01
3.190261870622634888e-02
8.355788886547088623e-02
1.300700753927230835e-01
1.454885005950927734e-01
-4.314071498811244965e-03
-2.174021117389202118e-02
-2.056483328342437744e-01
1.003598496317863464e-01
-6.762763112783432007e-02
-2.814144492149353027e-01
-8.056477457284927368e-02
-9.888470917940139771e-02
-1.330748647451400757e-01
1.185174211859703064e-01
-7.826407998800277710e-02
1.529096812009811401e-02
7.199093699455261230e-02
4.922254383563995361e-02
5.482106003910303116e-03
-1.063972245901823044e-02
-1.567378193140029907e-01
5.970552563667297363e-02
-1.374280601739883423e-01
2.793090231716632843e-02
-8.140382170677185059e-02
-3.415231406688690186e-02
-7.429177314043045044e-02
7.668691687285900116e-03
3.883421048521995544e-02
-1.903688907623291016e-01
1.838073506951332092e-02
-1.097300127148628235e-01
-3.655897080898284912e-02
1.181832477450370789e-01
-9.625178761780261993e-03
-4.855533689260482788e-02
6.174853071570396423e-02
1.340944468975067139e-01
-2.170807570219039917e-01
-2.897250950336456299e-01
-9.869475848972797394e-03
6.816881150007247925e-02
1.267965696752071381e-02
-1.554058026522397995e-02
-1.167277023196220398e-01
-9.625768661499023438e-02
4.200590029358863831e-02
-2.270366623997688293e-02
2.477707155048847198e-02
8.916985988616943359e-02
4.097928851842880249e-02
5.257071927189826965e-02
-9.504339843988418579e-02
-3.921749070286750793e-02
7.342336326837539673e-02
-2.644761651754379272e-02
-3.348238766193389893e-01
-1.451384574174880981e-01
1.329077035188674927e-01
1.946985907852649689e-02
7.741969823837280273e-02
-1.412515789270401001e-01
2.225553803145885468e-02
-4.858375340700149536e-02
-1.083915233612060547e-01
-7.953327894210815430e-02
9.237007237970829010e-03
1.019571200013160706e-01
-6.248206831514835358e-03
-2.408387362957000732e-01
-7.325345650315284729e-03
-2.684163674712181091e-02
-3.784884884953498840e-02
-3.838429972529411316e-02
4.680736456066370010e-03
-8.014895021915435791e-02
-1.510763168334960938e-02
-5.127111449837684631e-02
-1.683187484741210938e-01
8.049731701612472534e-02
-1.599683985114097595e-02
1.859319396317005157e-02
4.271352663636207581e-02
8.871676772832870483e-02
1.609929651021957397e-02
1.668035984039306641e-01
1.739205606281757355e-02
3.871312737464904785e-02
-4.033567011356353760e-02
-3.298262506723403931e-02
6.396269798278808594e-02
-3.072104416787624359e-02
1.283695697784423828e-01
-2.027016580104827881e-01
-1.662251949310302734e-01
-7.863882184028625488e-02
-2.615322768688201904e-01
-1.120417714118957520e-01
-9.294001013040542603e-02
-9.748836606740951538e-02
4.049063473939895630e-02
-2.809510193765163422e-02
1.160445362329483032e-01
2.802004292607307434e-02
1.458692457526922226e-02
4.944988340139389038e-02
-1.193992793560028076e-01
-1.501415222883224487e-01
-1.775214076042175293e-02
-1.343013439327478409e-02
-1.300860941410064697e-01
-1.319053955376148224e-02
7.066830992698669434e-02
-1.810840517282485962e-01
1.711994111537933350e-01
1.236769137904047966e-03
-1.367158591747283936e-01
-8.260870724916458130e-02
1.040005311369895935e-01
5.510005354881286621e-02
-3.002529442310333252e-01
1.729728132486343384e-01
-1.641037166118621826e-01
3.671547397971153259e-02
-5.638575553894042969e-02
4.367379471659660339e-02
-1.660126075148582458e-02
-4.733041673898696899e-02
-1.192483901977539062e-01
2.039041183888912201e-02
1.030876580625772476e-02
-1.127690076828002930e-02
-2.298803813755512238e-02
-1.452876329421997070e-01
-1.127952188253402710e-01
-1.338189989328384399e-01
-1.979797333478927612e-01
4.843245819211006165e-02
-7.672537863254547119e-02
-1.742900460958480835e-01
9.263901412487030029e-02
-1.473388671875000000e-01
-2.720423601567745209e-02
-6.626513600349426270e-02
-7.134160026907920837e-03
4.633247852325439453e-02
9.151019901037216187e-02
2.407564781606197357e-03
-1.117100641131401062e-01
8.587939292192459106e-02
1.150486711412668228e-02
-1.580995135009288788e-02
1.555194705724716187e-01
1.101079061627388000e-01
-8.864424377679824829e-02
-3.878805413842201233e-02
3.288745135068893433e-02
-8.258965611457824707e-02
7.356015592813491821e-02
-1.791903376579284668e-01
-1.769766956567764282e-02
4.881689324975013733e-02
-4.896483942866325378e-02
2.477415278553962708e-02
-2.100066840648651123e-01
-6.404512375593185425e-02
-1.824540495872497559e-01
5.208917334675788879e-02
-1.774474233388900757e-02
1.276385784149169922e-01
7.879085838794708252e-02
-2.417350262403488159e-01
-8.773729205131530762e-02
5.400433391332626343e-02
2.769169211387634277e-02
-1.047618165612220764e-01
-1.100215241312980652e-01
-1.410559862852096558e-01
1.036911234259605408e-01
8.040747046470642090e-02
1.487771980464458466e-02
-5.640022829174995422e-02
-1.027055755257606506e-01
-8.372205495834350586e-02
-1.839410066604614258e-01
7.224521040916442871e-02
1.985913608223199844e-03
1.280885636806488037e-01
-3.319593379274010658e-03
6.010553240776062012e-02
-6.372997909784317017e-02
-2.348211593925952911e-02
-1.336202607490122318e-03
7.361041009426116943e-02
4.397511109709739685e-02
-1.244853958487510681e-01
4.633807763457298279e-02
-2.373432815074920654e-01
-6.692067533731460571e-02
1.528718695044517517e-02
6.760630011558532715e-02
-4.633983969688415527e-02
-1.808287948369979858e-01
-1.271920949220657349e-01
-1.792739182710647583e-01
-1.640201210975646973e-01
2.325400523841381073e-02
-8.058677613735198975e-02
-2.098131775856018066e-01
-4.434790834784507751e-02
-6.902171671390533447e-02
6.208712235093116760e-02
-1.666387915611267090e-01
-3.435928523540496826e-01
-4.496326744556427002e-01
-7.694000750780105591e-02
-1.014437526464462280e-01
-2.847694158554077148e-01
-2.487776800990104675e-02
-1.125846058130264282e-01
2.539085969328880310e-02
-1.158074140548706055e-01
-9.011977910995483398e-02
-1.074963212013244629e-01
7.071786373853683472e-02
-2.471844404935836792e-01
-1.106617972254753113e-01
1.395500153303146362e-01
-1.260020285844802856e-01
-3.777182847261428833e-02
-7.208663038909435272e-03
8.305183053016662598e-02
1.825891318731009960e-03
-1.620084643363952637e-01
9.801012277603149414e-02
-1.718428134918212891e-01
-1.336273401975631714e-01
1.304528415203094482e-01
1.934218592941761017e-02
-2.073476314544677734e-01
-3.207751549780368805e-03
-2.152549326419830322e-01
8.651139587163925171e-02
1.522658485919237137e-02
1.065908297896385193e-01
3.383297845721244812e-02
-4.297536239027976990e-02
6.545719504356384277e-02
-5.191301461309194565e-03
-1.753271520137786865e-01
-9.092082083225250244e-02
3.780888020992279053e-02
-1.540033984929323196e-02
7.310695946216583252e-02
-9.706121683120727539e-02
-1.649187505245208740e-01
9.716656059026718140e-02
-1.463484615087509155e-01
-6.710819900035858154e-02
-5.353366024792194366e-03
-2.500940561294555664e-01
-9.991144388914108276e-02
-7.587387412786483765e-02
-3.545277938246726990e-02
-1.269991993904113770e-01
8.632971346378326416e-02
-6.043973192572593689e-02
-1.999336630105972290e-01
-2.845283783972263336e-02
3.044782206416130066e-02
8.409585058689117432e-02
9.113272652029991150e-03
-1.657378673553466797e-02
-4.278879240155220032e-02
3.161970525979995728e-02
-4.552091285586357117e-02
1.440102886408567429e-02
3.239895775914192200e-02
-1.448054611682891846e-01
1.316049247980117798e-01
-6.499895453453063965e-02
6.802076846361160278e-02
-3.376421704888343811e-02
4.131719935685396194e-03
1.093410551548004150e-01
-2.812117636203765869e-01
-1.200528517365455627e-01
1.494388282299041748e-01
1.455320417881011963e-01
9.207191318273544312e-02
1.542080566287040710e-02
-2.402537316083908081e-01
-1.253630965948104858e-01
-2.158107794821262360e-02
-8.599334955215454102e-02
7.906390726566314697e-02
-4.284691214561462402e-01
7.295867055654525757e-02
7.758648134768009186e-03
-8.253430575132369995e-02
-2.617778480052947998e-01
5.323331803083419800e-02
-7.946391403675079346e-02
-1.032082270830869675e-02
4.044011980295181274e-02
-5.002626031637191772e-02
1.968544721603393555e-02
-2.349523827433586121e-02
6.335736066102981567e-02
3.328019753098487854e-03
5.061547830700874329e-02
8.379652164876461029e-03
4.689991474151611328e-02
-1.502823531627655029e-01
-1.935590058565139771e-01
-3.019189462065696716e-02
-2.046573348343372345e-02
1.325738877058029175e-01
1.134329959750175476e-01
-5.160643160343170166e-02
1.321745067834854126e-01
-2.626442909240722656e-02
-2.900643460452556610e-02
-2.682452499866485596e-01
-9.372539073228836060e-02
-1.545315328985452652e-02
8.364535868167877197e-02
-5.124320834875106812e-02
4.395937547087669373e-02
-9.122063964605331421e-02
2.033199556171894073e-02
3.961019590497016907e-02
-7.376980036497116089e-02
1.455533951520919800e-01
-1.054197177290916443e-01
7.351184636354446411e-02
-1.306317895650863647e-01
-1.608263701200485229e-01
-4.748491942882537842e-02
6.066742166876792908e-02
-2.601866424083709717e-01
8.625038713216781616e-02
1.154112219810485840e-01
5.850977264344692230e-03
-2.376823686063289642e-02
1.033316254615783691e-01
1.680864691734313965e-01
-9.685876965522766113e-02
1.425781566649675369e-02
7.276304811239242554e-02
-5.017939582467079163e-02
-1.496172398328781128e-01
9.931646287441253662e-03
-1.919503808021545410e-01
4.560357704758644104e-02
-9.021568112075328827e-03
-2.432675510644912720e-01
1.515985000878572464e-02
1.575609203428030014e-03
1.166660413146018982e-01
-6.058656051754951477e-02
-6.331852823495864868e-02
-3.089125081896781921e-02
-7.496696710586547852e-02
-4.739714413881301880e-02
-1.368268430233001709e-01
-7.213739305734634399e-02
5.540177598595619202e-02
1.349786370992660522e-01
2.595752594061195850e-04
-7.861343771219253540e-02
-7.051214575767517090e-02
-9.094300866127014160e-02
9.367898106575012207e-02
-1.404488980770111084e-01
-6.450670957565307617e-02
-1.788317561149597168e-01
-5.993498861789703369e-02
6.209292449057102203e-03
-8.561363071203231812e-02
-2.490139752626419067e-02
3.930928930640220642e-02
1.258799284696578979e-01
3.835580497980117798e-02
-1.920725554227828979e-01
5.848798900842666626e-03
7.546414434909820557e-02
1.057525649666786194e-01
-5.087736644782125950e-04
6.032255664467811584e-02
-1.788901835680007935e-01
7.762471679598093033e-03
3.436387330293655396e-02
-2.735977470874786377e-01
1.220522150397300720e-01
4.882962442934513092e-03
-7.351991534233093262e-02
-3.745999559760093689e-02
-1.297526955604553223e-01
-2.701761014759540558e-02
-4.682656377553939819e-02
-8.627343922853469849e-02
1.216448750346899033e-02
1.719954609870910645e-01
-1.536677926778793335e-01
-1.605068743228912354e-01
-7.774844020605087280e-02
-2.386553958058357239e-02
1.098174601793289185e-01
5.562078952789306641e-02
-9.890428930521011353e-02
-2.635407261550426483e-02
1.375631801784038544e-02
6.955680903047323227e-03
-9.915907680988311768e-02
1.715913414955139160e-02
4.642967507243156433e-02
-1.971046812832355499e-02
-3.856179118156433105e-02
1.254650801420211792e-01
-1.592469029128551483e-02
1.653605885803699493e-02
-1.974421087652444839e-03
-6.809659302234649658e-02
8.544322848320007324e-02
-4.226245731115341187e-02
-2.361362800002098083e-02
-5.968892201781272888e-02
-1.486011594533920288e-01
-2.330756001174449921e-02
9.095801942748948932e-05
1.042135059833526611e-02
2.345552667975425720e-02
-8.649159967899322510e-02
-9.093146771192550659e-02
-1.133300960063934326e-01
-1.354237645864486694e-01
-7.438670098781585693e-02
-1.709144376218318939e-02
-4.596248641610145569e-02
-3.274751827120780945e-02
-6.745216250419616699e-02
-1.478132903575897217e-01
-1.142954304814338684e-01
1.644442826509475708e-01
-1.286694109439849854e-01
-3.934669948648661375e-04
-6.646407395601272583e-02
-1.045612543821334839e-01
-1.203800141811370850e-01
-1.147550642490386963e-01
-4.947389289736747742e-02
1.901042275130748749e-02
-1.381666362285614014e-01
-4.420353472232818604e-02
5.403245240449905396e-02
4.308969527482986450e-02
2.495932392776012421e-02
-1.118778437376022339e-01
3.854756057262420654e-02
3.894585743546485901e-02
-1.706517785787582397e-01
2.071450464427471161e-02
1.521426625549793243e-02
-3.857142850756645203e-02
2.319645695388317108e-02
-9.097839891910552979e-02
-9.006951004266738892e-04
-7.953768968582153320e-02
-2.030096352100372314e-01
-8.104883879423141479e-02
-5.133614316582679749e-02
5.201077088713645935e-02
-2.840802073478698730e-01
-1.636249362491071224e-03
-3.284658864140510559e-02
-2.322974503040313721e-01
4.441005736589431763e-02
-1.274521797895431519e-01
5.039598047733306885e-02
-1.077868789434432983e-01
-8.685835450887680054e-02
-3.798995167016983032e-02
7.064898312091827393e-02
-6.905158609151840210e-02
7.629435509443283081e-02
2.456234942656010389e-04
3.176039084792137146e-02
7.147527486085891724e-02
-3.247435390949249268e-02
-6.440775841474533081e-02
-1.959856003522872925e-01
1.272389013320207596e-02
9.458781033754348755e-02
-2.128921598196029663e-01
-6.275374442338943481e-02
6.839276850223541260e-02
-1.156791672110557556e-01
-1.165591403841972351e-01
8.355505764484405518e-02
-6.704507023096084595e-02
4.452106729149818420e-02
-3.962696194648742676e-01
-2.891187071800231934e-01
1.376862674951553345e-01
-5.453888326883316040e-02
-3.999148681759834290e-02
1.377755552530288696e-01
-1.690322160720825195e-01
-5.933091416954994202e-02
8.220416307449340820e-02
-9.969856590032577515e-02
-4.769886800204403698e-05
-1.440667957067489624e-01
1.387350559234619141e-01
-1.013053581118583679e-01
-2.273262888193130493e-01
-5.674972385168075562e-02
7.285977900028228760e-02
1.444286294281482697e-02
4.452035948634147644e-02
-8.626995980739593506e-02
6.591679155826568604e-02
1.204637885093688965e-01
-7.504235487431287766e-03
7.475830614566802979e-02
-3.554085269570350647e-02
-1.703174859285354614e-01
4.049783945083618164e-02
-9.341812133789062500e-02
1.317265331745147705e-01
5.314292013645172119e-02
7.693136483430862427e-02
3.181543201208114624e-03
-2.256744801998138428e-01
-1.696551293134689331e-01
-6.171431019902229309e-02
-2.111663855612277985e-02
-1.826801151037216187e-02
-1.678258329629898071e-01
4.867316409945487976e-02
-2.489991486072540283e-01
1.216918379068374634e-01
-3.560204803943634033e-02
2.153576761484146118e-01
7.766652107238769531e-02
-7.255888730287551880e-02
2.129705995321273804e-02
7.573811337351799011e-03
6.255283951759338379e-02
1.995775401592254639e-01
-3.952406719326972961e-02
-1.075657010078430176e-01
1.653461530804634094e-02
3.929341211915016174e-02
-3.840417787432670593e-02
-1.098147332668304443e-01
5.476134270429611206e-02
3.055202588438987732e-02
-8.082760125398635864e-02
-1.484185904264450073e-01
-7.479387521743774414e-02
-5.959634110331535339e-02
2.017375826835632324e-01
-3.660246729850769043e-02
2.793483622372150421e-02
9.447040408849716187e-02
-1.194088608026504517e-01
-4.101219028234481812e-02
-1.003000140190124512e-02
6.813563406467437744e-02
6.180934235453605652e-02
-4.070399329066276550e-02
-1.379174739122390747e-01
4.022331535816192627e-02
6.537242233753204346e-02
-7.551190908998250961e-03
-1.988441348075866699e-01
3.206918016076087952e-03
-8.306594192981719971e-02
1.602610349655151367e-01
6.003727763891220093e-02
-1.807172894477844238e-01
-4.624594468623399734e-03
8.445502072572708130e-02
-3.506968030706048012e-03
4.218981415033340454e-02
1.506423670798540115e-02
1.449630223214626312e-02
6.150339543819427490e-02
1.384713798761367798e-01
-8.241475373506546021e-02
-1.064550429582595825e-01
-5.117013305425643921e-02
8.563227951526641846e-02
1.041697934269905090e-01
-1.320712715387344360e-01
-1.328359842300415039e-01
3.202082216739654541e-02
-2.621371112763881683e-02
-7.349977642297744751e-02
-1.445639133453369141e-01
4.346672818064689636e-02
5.080447718501091003e-02
9.839955717325210571e-02
-1.901476234197616577e-01
1.063654106110334396e-02
-1.065154448151588440e-01
-1.753860712051391602e-01
8.187417685985565186e-02
-3.316967561841011047e-02
-4.935836791992187500e-02
-1.166631653904914856e-01
-7.009847089648246765e-03
2.630708515644073486e-01
-6.575150787830352783e-02
-1.563225686550140381e-02
-1.435250639915466309e-01
1.359717454761266708e-02
-4.816908240318298340e-01
1.229661926627159119e-01
-3.085384331643581390e-02
-1.415926665067672729e-01
-1.263079047203063965e-01
-6.566739175468683243e-03
1.192368194460868835e-01
-9.500041604042053223e-02
-4.378430917859077454e-02
-1.216300427913665771e-01
-2.390057407319545746e-02
1.517306733876466751e-02
-1.865450590848922729e-01
-7.831284403800964355e-02
9.526487439870834351e-02
-2.167614400386810303e-01
1.913414746522903442e-01
8.482314646244049072e-03
-2.026833593845367432e-02
-1.143992245197296143e-01
-2.674966678023338318e-02
8.348733186721801758e-02
-1.424189358949661255e-01
-1.730683445930480957e-01
-4.091766476631164551e-02
-1.331949699670076370e-02
-1.046576127409934998e-01
-1.038083955645561218e-01
-8.598029613494873047e-02
-1.649180799722671509e-01
2.979675307869911194e-02
1.077035740017890930e-01
-7.075899094343185425e-02
-1.076716408133506775e-01
-1.217464804649353027e-01
-2.573411464691162109e-01
-2.255813777446746826e-01
7.602184265851974487e-02
-4.945848137140274048e-02
2.559912577271461487e-02
-1.524586323648691177e-02
-9.879638254642486572e-02
-3.774797916412353516e-02
-9.305457770824432373e-02
-5.410822853446006775e-02
-1.345071047544479370e-01
7.495126873254776001e-02
-1.006626337766647339e-01
-7.012233138084411621e-02
-2.411932051181793213e-01
2.407803945243358612e-02
1.596519201993942261e-01
5.917662382125854492e-02
-8.055310696363449097e-02
-6.180232018232345581e-02
-1.272956002503633499e-02
-6.310329586267471313e-02
-1.131733506917953491e-01
-6.358036398887634277e-02
-1.738258302211761475e-01
1.560533884912729263e-02
-7.432489842176437378e-02
-1.805028170347213745e-01
-9.098397940397262573e-02
-2.354315221309661865e-01
-1.776435822248458862e-01
-1.244743075221776962e-02
-5.391935259103775024e-02
-2.213421463966369629e-01
-1.047015786170959473e-01
-1.730810850858688354e-01
-5.799093842506408691e-02
5.268052965402603149e-02
-5.387814342975616455e-02
-1.101408153772354126e-02
-5.824069306254386902e-02
1.080611944198608398e-01
4.264440014958381653e-02
-6.657343357801437378e-02
-8.354310691356658936e-02
1.104948017746210098e-02
-2.085195109248161316e-02
-2.729047238826751709e-01
-4.280556738376617432e-02
-3.063891269266605377e-02
7.896529138088226318e-02
-1.211679950356483459e-01
1.377600878477096558e-01
-1.678745076060295105e-02
1.134477779269218445e-01
3.308584913611412048e-02
-2.724179923534393311e-01
-1.229181662201881409e-01
-1.907296031713485718e-01
-2.103176712989807129e-01
7.125271111726760864e-02
8.605022728443145752e-02
-3.462087363004684448e-02
4.430039227008819580e-02
-5.103855580091476440e-02
-1.064829304814338684e-01
-1.610440015792846680e-01
-1.546728312969207764e-01
7.709956169128417969e-02
6.837972998619079590e-02
1.174709722399711609e-01
-2.699002623558044434e-02
-1.790270507335662842e-01
-4.885677620768547058e-02
-2.165333926677703857e-02
-1.131701543927192688e-01
5.666716396808624268e-02
-1.894589215517044067e-01
1.225382164120674133e-01
1.183124631643295288e-02
-1.691750735044479370e-01
-1.354992389678955078e-01
-5.299939587712287903e-02
5.140684917569160461e-02
-8.195769786834716797e-02
4.315329249948263168e-03
-1.385618001222610474e-01
-6.078054755926132202e-02
-1.335815340280532837e-01
-1.378083527088165283e-01
-1.530799269676208496e-02
1.127803698182106018e-02
-1.279081702232360840e-01
1.051630377769470215e-01
1.007886379957199097e-01
4.150103777647018433e-02
-5.242776125669479370e-02
-1.443982273340225220e-01
1.430443208664655685e-02
1.362723298370838165e-03
-9.748061746358871460e-02
-8.841076493263244629e-02
2.447340264916419983e-02
-4.577968642115592957e-02
-2.173918932676315308e-01
-5.345597863197326660e-03
-1.751588284969329834e-01
-5.300644040107727051e-02
-1.813343539834022522e-02
1.657007783651351929e-01
-4.622099548578262329e-02
-1.586516052484512329e-01
-1.644123643636703491e-01
3.347851336002349854e-03
-1.129107028245925903e-01
-8.001439273357391357e-02
3.124769218266010284e-02
1.031826213002204895e-01
1.553499698638916016e-01
-1.132678240537643433e-01
1.200666874647140503e-01
-6.030108779668807983e-02
-1.303066313266754150e-01
-2.614100091159343719e-02
-1.789668761193752289e-02
7.636354118585586548e-02
-1.325782388448715210e-01
-3.901759535074234009e-02
-4.025939851999282837e-02
-1.448074579238891602e-01
-1.528825424611568451e-02
-1.222184225916862488e-01
-1.952643245458602905e-01
-1.228836402297019958e-01
-4.794709011912345886e-02
1.244198307394981384e-01
-7.639543712139129639e-02
9.854283183813095093e-02
-2.536360174417495728e-02
5.900156497955322266e-02
-2.379989475011825562e-01
6.508564949035644531e-02
-1.131898015737533569e-01
-8.623199909925460815e-02
-1.017777174711227417e-01
5.794426053762435913e-02
-1.280420422554016113e-01
5.518376361578702927e-03
4.399306606501340866e-03
-4.481182992458343506e-02
-1.439652442932128906e-01
-7.940888404846191406e-02
-1.127424836158752441e-01
2.933899126946926117e-02
-2.627328410744667053e-02
-6.608335673809051514e-02
-9.454958885908126831e-02
-2.496150135993957520e-02
-1.769819408655166626e-01
-7.355999946594238281e-02
-6.244035437703132629e-02
-4.802430421113967896e-02
-1.786957979202270508e-01
6.316013634204864502e-02
-1.721005886793136597e-01
7.958557456731796265e-02
4.995377734303474426e-02
-3.670251742005348206e-02
-1.095044426620006561e-02
-1.419298201799392700e-01
-1.976261474192142487e-02
-4.914921149611473083e-02
1.567924171686172485e-01
-3.211360797286033630e-02
-1.463411375880241394e-02
-6.813607364892959595e-02
-3.757114335894584656e-02
1.011558398604393005e-01
3.643678873777389526e-02
-1.259556263685226440e-01
5.749682895839214325e-04
1.325807422399520874e-01
1.789993345737457275e-01
-5.005569383502006531e-02
-5.970202386379241943e-03
3.303073346614837646e-02
-5.850836168974637985e-03
-5.507018044590950012e-02
2.332072705030441284e-03
-4.215030744671821594e-02
-6.492605805397033691e-02
-5.679922178387641907e-03
-3.809552267193794250e-02
-2.515301406383514404e-01
-4.186094179749488831e-02
2.308126725256443024e-02
1.386824715882539749e-02
-1.014156267046928406e-01
-1.281771063804626465e-01
-2.541331015527248383e-02
5.025283992290496826e-02
-1.120484713464975357e-02
-8.061414211988449097e-02
-3.400093317031860352e-02
6.935510784387588501e-02
3.529230132699012756e-02
-3.164842724800109863e-01
-1.310074627399444580e-01
-2.472837455570697784e-02
6.148454919457435608e-02
-1.327911913394927979e-01
8.027672767639160156e-02
2.999601326882839203e-02
-9.735689312219619751e-02
1.080487389117479324e-02
1.060377657413482666e-01
-9.227847307920455933e-02
7.387858629226684570e-02
-7.632920145988464355e-02
1.157256960868835449e-01
3.982734307646751404e-02
8.264931291341781616e-02
-8.840291202068328857e-02
-1.439418643712997437e-01
2.500882744789123535e-02
7.489182800054550171e-02
-2.229631841182708740e-01
1.192537993192672729e-01
2.727016806602478027e-02
1.593328863382339478e-01
7.363677024841308594e-02
2.325127273797988892e-02
-4.154056683182716370e-02
-8.654490858316421509e-02
3.039968013763427734e-02
2.068089693784713745e-02
-1.854832023382186890e-01
1.368393898010253906e-01
1.316990517079830170e-02
5.009720474481582642e-02
7.901374250650405884e-02
-7.393625378608703613e-02
-5.897447094321250916e-02
-6.921912543475627899e-03
-5.624512210488319397e-02
-7.673129439353942871e-02
-6.424937397241592407e-02
-4.375522583723068237e-02
-6.390078365802764893e-02
-2.638395316898822784e-02
-7.133777439594268799e-02
-6.519182771444320679e-02
4.400220885872840881e-02
-3.820256143808364868e-02
-1.084616482257843018e-01
-4.192680492997169495e-02
-1.206643320620059967e-02
-1.698140949010848999e-01
-1.697210818529129028e-01
2.852392848581075668e-03
-1.684108749032020569e-02
6.964810937643051147e-02
7.088651508092880249e-02
1.363107468932867050e-02
-4.430298879742622375e-02
-5.120348557829856873e-02
-6.599228829145431519e-02
6.598781049251556396e-02
-5.817462131381034851e-02
-1.313400119543075562e-01
5.913300439715385437e-02
2.373057650402188301e-03
7.046183943748474121e-02
6.672994047403335571e-02
9.877502173185348511e-02
5.844849348068237305e-02
8.783927187323570251e-03
3.538372740149497986e-02
-1.493999212980270386e-01
1.441156715154647827e-01
2.098524384200572968e-02
-4.467233642935752869e-02
-1.804535090923309326e-02
2.040621824562549591e-02
2.611345984041690826e-02
-2.719434499740600586e-01
1.966706244274973869e-03
9.506375342607498169e-02
2.045816369354724884e-02
-7.223504036664962769e-02
-8.196619898080825806e-02
-1.422165781259536743e-01
-3.543759509921073914e-02
9.107126295566558838e-02
-2.550471108406782150e-03
-1.486829668283462524e-01
4.121594130992889404e-02
-9.237837791442871094e-02
-1.271609589457511902e-02
2.277185767889022827e-02
9.891270101070404053e-02
-1.089729741215705872e-01
5.737026780843734741e-02
7.521115243434906006e-02
3.276984672993421555e-03
3.766184672713279724e-02
-2.470872998237609863e-01
-2.668435275554656982e-01
1.167791113257408142e-01
3.168130293488502502e-02
-1.044565364718437195e-01
-1.876323856413364410e-02
-1.797514259815216064e-01
-1.245189756155014038e-01
1.511421948671340942e-01
-1.724181175231933594e-01
-6.773813068866729736e-02
-6.514671444892883301e-02
2.488463819026947021e-01
2.000974267721176147e-01
2.952437661588191986e-02
-5.441185459494590759e-02
-9.202621877193450928e-02
1.879124203696846962e-03
-1.062049269676208496e-01
2.407875657081604004e-02
-9.048169851303100586e-02
9.492111206054687500e-02
1.247151847928762436e-02
-1.396809816360473633e-01
-2.560677528381347656e-01
-9.213449060916900635e-02
8.896910399198532104e-02
-1.334869489073753357e-02
4.409164190292358398e-02
-8.961566537618637085e-02
-6.415040791034698486e-02
-8.353941887617111206e-02
1.377119962126016617e-02
4.897709563374519348e-02
1.513902992010116577e-01
-1.320740878582000732e-01
-3.665486350655555725e-03
-1.400684705004096031e-03
-8.306563249789178371e-04
1.199597269296646118e-01
5.491758137941360474e-02
7.127909362316131592e-02
-7.424671202898025513e-02
-8.057053200900554657e-03
1.403799802064895630e-01
-1.221583317965269089e-02
-2.730096280574798584e-01
-2.755359411239624023e-01
8.288009464740753174e-02
-5.264402180910110474e-02
-8.239931613206863403e-02
-1.610731147229671478e-02
-8.182469010353088379e-02
-2.209169231355190277e-02
-2.664920985698699951e-01
-2.353697121143341064e-01
-1.020026430487632751e-01
-1.902728341519832611e-02
-2.696042656898498535e-01
2.076055407524108887e-01
-1.972400993108749390e-01
7.671532779932022095e-02
1.398378461599349976e-01
3.337458940222859383e-03
-1.990042999386787415e-02
1.888540014624595642e-02
-2.314992547035217285e-01
-6.209051981568336487e-02
5.610344931483268738e-02
-1.557851284742355347e-01
-1.455609407275915146e-02
6.087626889348030090e-02
-5.568445473909378052e-02
-2.676411718130111694e-02
-1.243473365902900696e-01
-1.349028348922729492e-01
-2.370583713054656982e-01
-8.735723048448562622e-02
1.160727813839912415e-01
-2.783556878566741943e-01
-4.892960935831069946e-02
-2.170577794313430786e-01
-1.701618582010269165e-01
3.193452358245849609e-01
-1.073450371623039246e-01
-2.193979322910308838e-01
-1.998715847730636597e-01
-3.810350596904754639e-02
9.098852053284645081e-03
5.339652765542268753e-03
-7.387381047010421753e-02
7.726867496967315674e-02
-9.147512167692184448e-02
-1.018852666020393372e-01
3.719358518719673157e-02
2.344613373279571533e-01
-1.119091361761093140e-01
1.037050262093544006e-01
-2.034642174839973450e-02
-2.175125926733016968e-01
-1.599941849708557129e-01
-6.038248538970947266e-03
1.845446228981018066e-01
-1.076331436634063721e-01
-1.809211075305938721e-02
1.514993906021118164e-01
-4.785243049263954163e-02
-1.312314569950103760e-01
-4.904891550540924072e-02
-2.372773364186286926e-02
-1.731076538562774658e-01
1.689528301358222961e-02
-2.021580040454864502e-01
-3.888743817806243896e-01
1.739162020385265350e-02
1.658195406198501587e-01
-3.235759213566780090e-03
-4.211674258112907410e-02
-1.615442037582397461e-01
-3.212565183639526367e-02
-1.381450891494750977e-01
-5.030628293752670288e-02
-7.010081410408020020e-02
-1.954926699399948120e-01
-6.636948138475418091e-02
-1.022634357213973999e-01
2.483933232724666595e-02
-8.137160539627075195e-02
-3.805204108357429504e-02
-2.538084387779235840e-01
-7.842854410409927368e-02
-1.363912671804428101e-01
-9.066692739725112915e-02
1.189243197441101074e-01
1.082260347902774811e-02
-9.707052260637283325e-02
3.474175557494163513e-02
8.007206022739410400e-02
7.402471452951431274e-02
4.684978630393743515e-03
7.367144525051116943e-02
-3.304370865225791931e-02
1.000499725341796875e-02
-1.241003628820180893e-02
-2.524674311280250549e-02
-1.201920285820960999e-01
-1.812717691063880920e-02
6.487186253070831299e-02
9.799846261739730835e-02
2.156971096992492676e-01
5.764872953295707703e-02
-3.449457138776779175e-02
-1.052567586302757263e-01
-3.123159334063529968e-02
2.105356566607952118e-02
1.901140064001083374e-01
-7.645159959793090820e-02
-6.272283941507339478e-02
1.758777797222137451e-01
1.204569786787033081e-01
-3.399313613772392273e-02
5.161554086953401566e-03
2.575239352881908417e-02
1.625780574977397919e-02
-2.437916398048400879e-01
9.386010468006134033e-03
-1.049293056130409241e-01
4.066980630159378052e-02
1.975381933152675629e-02
-6.797152012586593628e-02
-5.447532981634140015e-02
1.077176257967948914e-01
4.742192476987838745e-02
-1.875886023044586182e-01
-4.458607360720634460e-02
-1.083043813705444336e-01
-1.242830976843833923e-02
3.715401887893676758e-02
-1.180132776498794556e-01
1.782071543857455254e-03
5.037683248519897461e-02
-1.019529718905687332e-02
-2.270946800708770752e-01
-3.727376461029052734e-02
7.640442252159118652e-02
-3.405210748314857483e-02
-1.759869754314422607e-01
-1.587793976068496704e-02
3.498739376664161682e-02
1.533679962158203125e-01
-1.044028326869010925e-01
-6.774329394102096558e-02
1.003907322883605957e-01
4.660905152559280396e-02
3.984611853957176208e-02
-1.332015395164489746e-01
1.368491351604461670e-01
-1.093272119760513306e-01
-6.064014509320259094e-02
-6.361291557550430298e-02
1.878437958657741547e-02
-5.651284754276275635e-02
1.560097932815551758e-01
2.290849760174751282e-02
-1.060388684272766113e-01
2.884124405682086945e-02
9.072267264127731323e-02
-4.130665212869644165e-03
-8.990889787673950195e-02
4.491987079381942749e-02
-3.167686983942985535e-02
1.645146310329437256e-01
1.389901190996170044e-01
-5.419292487204074860e-03
-1.542370580136775970e-02
-7.341995835304260254e-02
2.040794305503368378e-02
-9.314215183258056641e-02
-7.298969477415084839e-02
-1.167774572968482971e-01
-7.605692744255065918e-02
6.347905844449996948e-02
-4.401345551013946533e-02
-5.389478523284196854e-03
1.539927273988723755e-01
3.197017684578895569e-02
-1.668543554842472076e-02
-3.257989138364791870e-02
8.803213387727737427e-02
3.331729397177696228e-02
-4.117601364850997925e-02
6.671455688774585724e-03
-1.307327002286911011e-01
-6.594075262546539307e-02
-1.042611524462699890e-01
-1.171513944864273071e-01
-1.370299160480499268e-01
4.202140867710113525e-02
-1.153124030679464340e-02
-1.930141448974609375e-02
-3.508678451180458069e-02
-1.126442998647689819e-01
3.166261315345764160e-02
-5.686153843998908997e-02
9.636493027210235596e-02
6.047499552369117737e-02
-4.591989219188690186e-01
-1.076658591628074646e-01
-1.715748757123947144e-01
2.961312793195247650e-02
1.815465986728668213e-01
7.433447986841201782e-02
1.008065715432167053e-01
1.280945837497711182e-01
-8.525643497705459595e-03
2.098654210567474365e-02
-7.611022889614105225e-02
9.140059351921081543e-02
-2.278359234333038330e-01
1.934641152620315552e-01
-1.758652031421661377e-01
-7.342741638422012329e-02
-1.830710917711257935e-01
1.623509451746940613e-02
-2.419727891683578491e-01
-1.107459515333175659e-01
-1.792076826095581055e-01
-8.012861013412475586e-02
-1.187850460410118103e-01
-8.164186775684356689e-02
-5.323179531842470169e-03
4.813198372721672058e-02
-3.647487610578536987e-02
-5.227543041110038757e-02
-1.126546226441860199e-02
7.646159827709197998e-02
-1.973198205232620239e-01
-9.550527483224868774e-02
-1.554820686578750610e-02
-2.424669712781906128e-01
5.411032214760780334e-02
-6.878691911697387695e-02
-9.928074479103088379e-02
-1.266049593687057495e-01
-1.661751866340637207e-01
7.148737460374832153e-02
1.370421946048736572e-01
2.491819262504577637e-01
-1.227899491786956787e-01
-3.255135715007781982e-01
-1.124559864401817322e-01
1.117828711867332458e-01
-7.582210935652256012e-03
-4.082271084189414978e-02
2.136891707777976990e-02
-3.315872848033905029e-01
2.164958566427230835e-01
-1.029093936085700989e-01
-3.630815306678414345e-03
-2.070157527923583984e-01
-1.498136576265096664e-02
-2.919434569776058197e-02
-9.301318973302841187e-02
-2.300409674644470215e-01
-1.091258414089679718e-02
-2.993831224739551544e-02
-1.554289311170578003e-01
-2.628349661827087402e-01
7.273202389478683472e-02
-8.481346815824508667e-02
-1.363432258367538452e-01
-7.017365843057632446e-02
6.687740981578826904e-02
-1.749538034200668335e-01
-1.741114705801010132e-01
1.058112308382987976e-01
-2.509515546262264252e-02
5.583610758185386658e-02
-1.045012548565864563e-01
-2.702854871749877930e-01
-1.164759993553161621e-01
-7.114283740520477295e-02
-2.748732864856719971e-01
-2.198017388582229614e-01
-2.501599863171577454e-02
-1.874287985265254974e-02
-1.100218039937317371e-03
1.609226763248443604e-01
4.053004458546638489e-02
-1.519764214754104614e-02
-3.847256302833557129e-02
-9.248897433280944824e-02
-1.813330352306365967e-01
1.123252077377401292e-04
-3.813832532614469528e-03
-2.233856357634067535e-02
1.054038479924201965e-01
7.005216181278228760e-02
-6.392010487616062164e-03
-2.914095111191272736e-02
-1.245724931359291077e-01
8.025472611188888550e-02
-1.097280159592628479e-01
-8.961118757724761963e-02
-3.058975189924240112e-02
9.313498437404632568e-02
7.819771417416632175e-04
3.976070508360862732e-02
-9.992379695177078247e-02
-9.649728983640670776e-02
1.031550392508506775e-01
1.444368530064821243e-02
4.372616112232208252e-02
1.120765879750251770e-01
8.254493027925491333e-02
-7.742033153772354126e-02
1.395800337195396423e-02
4.571812227368354797e-02
2.088342979550361633e-02
-5.719476565718650818e-02
4.246876016259193420e-02
-8.869746327400207520e-02
1.697802394628524780e-01
-2.113994956016540527e-01
1.131033711135387421e-02
-4.108097404241561890e-02
1.747719794511795044e-01
-1.543681025505065918e-01
2.751791290938854218e-02
-3.253731131553649902e-02
8.906239271163940430e-02
-9.926339611411094666e-03
1.615546457469463348e-02
-2.405079267919063568e-02
-2.970951497554779053e-01
1.570942997932434082e-02
1.689104549586772919e-02
1.068843454122543335e-01
6.238059699535369873e-02
-7.957115769386291504e-02
9.595745801925659180e-02
-2.902721613645553589e-02
-1.551247388124465942e-01
4.841630533337593079e-02
-2.262150198221206665e-01
-2.670970372855663300e-02
8.613317273557186127e-03
3.515023365616798401e-02
-5.213565006852149963e-02
-2.030269242823123932e-02
-2.701702341437339783e-02
1.301462948322296143e-01
1.007410958409309387e-01
1.672457456588745117e-01
-9.855879843235015869e-02
-1.098015308380126953e-01
1.245491579174995422e-01
-5.204471945762634277e-02
-5.810515489429235458e-03
7.235690951347351074e-02
1.595716224983334541e-03
-2.258276343345642090e-01
1.544083561748266220e-02
-8.308013528585433960e-02
-9.464812278747558594e-02
-2.021180838346481323e-02
-6.599493324756622314e-02
-5.072710290551185608e-02
-8.685923367738723755e-02
-8.328948169946670532e-02
-6.592071056365966797e-02
4.201973974704742432e-02
-1.372231729328632355e-02
-6.714610755443572998e-02
-7.139961421489715576e-02
4.000688716769218445e-02
-1.768185012042522430e-02
-2.372256070375442505e-01
-2.998895756900310516e-02
-1.594603359699249268e-01
-3.531013429164886475e-02
9.355776011943817139e-02
-2.124297171831130981e-01
3.155089542269706726e-02
4.412200301885604858e-03
-2.199282124638557434e-02
1.465685218572616577e-01
-5.604040995240211487e-02
5.322083365172147751e-03
1.240755468606948853e-01
-3.247244656085968018e-02
7.495082914829254150e-02
-3.593167662620544434e-02
-8.666060119867324829e-02
-2.657492086291313171e-02
-2.758246846497058868e-02
3.011358901858329773e-03
-1.143859475851058960e-01
-1.319980993866920471e-02
7.027490437030792236e-02
-4.020481929183006287e-02
-2.624438889324665070e-02
3.264431282877922058e-02
-4.291641339659690857e-02
-9.739190340042114258e-02
-2.551052272319793701e-01
-6.007912755012512207e-02
-1.070673614740371704e-01
1.411213446408510208e-02
-8.621048182249069214e-02
9.370655566453933716e-02
3.740949183702468872e-02
-5.840304866433143616e-02
-7.706707715988159180e-02
-2.633093670010566711e-02
3.384091332554817200e-02
-4.426790773868560791e-02
1.964686661958694458e-01
6.833915598690509796e-03
3.104437515139579773e-02
-7.095940411090850830e-02
-8.684866875410079956e-02
1.094515994191169739e-01
-4.799464717507362366e-02
-2.209908962249755859e-01
3.872163966298103333e-02
1.530680954456329346e-01
-1.209368184208869934e-01
-8.456786163151264191e-03
-6.897675991058349609e-02
2.313074469566345215e-02
-1.347238942980766296e-02
5.190512165427207947e-02
-2.295293100178241730e-02
1.752934008836746216e-01
6.901940703392028809e-02
-1.032496094703674316e-01
5.777581594884395599e-03
-6.786013836972415447e-04
2.519204467535018921e-02
-8.699861913919448853e-02
1.431039422750473022e-01
-2.122622281312942505e-01
1.053561121225357056e-01
-2.159409970045089722e-02
-1.570679396390914917e-01
1.159105747938156128e-01
1.568628400564193726e-01
2.019911855459213257e-01
4.069358110427856445e-02
-9.705657511949539185e-02
-1.478090602904558182e-02
-7.609912008047103882e-02
2.694412171840667725e-01
-1.440988034009933472e-01
1.366328895092010498e-01
-3.577026724815368652e-02
-2.367349807173013687e-03
6.518547981977462769e-02
-2.499117981642484665e-04
-9.251832216978073120e-02
6.859237700700759888e-02
-1.697785593569278717e-02
-2.026876993477344513e-02
1.216429769992828369e-01
-8.094312250614166260e-02
-1.079138070344924927e-01
-3.024292886257171631e-01
4.742620140314102173e-02
-7.854910194873809814e-02
-1.289663016796112061e-01
-7.529110182076692581e-03
6.669535487890243530e-02
3.869074583053588867e-02
1.245182156562805176e-01
-1.670401841402053833e-01
-7.576019852422177792e-04
5.742936860769987106e-03
-2.890762388706207275e-01
6.270857411436736584e-04
-3.240724503993988037e-01
-1.249521672725677490e-01
4.210231080651283264e-02
-2.533496916294097900e-01
9.217304736375808716e-02
-4.736468195915222168e-02
1.243199501186609268e-02
-8.981373906135559082e-02
-6.270106881856918335e-02
-7.406765967607498169e-02
-3.063173778355121613e-02
5.545593425631523132e-02
-8.886232972145080566e-02
-3.983056843280792236e-01
1.671368721872568130e-03
1.006612479686737061e-01
2.383382059633731842e-02
1.279902411624789238e-03
-2.474336512386798859e-02
-6.724909693002700806e-02
-3.682863712310791016e-02
-2.304116934537887573e-01
2.369579225778579712e-01
-1.496081501245498657e-01
1.183560565114021301e-01
4.984359070658683777e-02
-2.227321267127990723e-01
-8.898895233869552612e-02
2.197778970003128052e-02
-4.969974234700202942e-02
-7.345124334096908569e-02
-7.787816971540451050e-02
-1.939601264894008636e-02
-2.044268995523452759e-01
-8.135816454887390137e-02
-2.901649177074432373e-01
1.367241293191909790e-01
-1.421533431857824326e-02
-1.674785315990447998e-01
1.329404711723327637e-01
-1.877578673884272575e-03
-5.768512189388275146e-02
1.182631626725196838e-01
-1.011209413409233093e-01
-1.244738791137933731e-02
5.048126354813575745e-02
3.625874174758791924e-03
-1.748740226030349731e-01
6.839042063802480698e-03
-5.804656818509101868e-02
-3.986636400222778320e-01
1.784310191869735718e-01
8.710389956831932068e-03
-1.810998618602752686e-01
-3.354182466864585876e-02
-1.359354704618453979e-01
-5.995253473520278931e-02
8.662712760269641876e-03
-3.682860359549522400e-02
-3.609961569309234619e-01
-1.558616161346435547e-01
9.377830475568771362e-02
-3.443779051303863525e-02
1.121584512293338776e-02
9.458668529987335205e-02
-1.192377135157585144e-01
8.909390307962894440e-03
1.949997991323471069e-02
5.480608437210321426e-03
1.216793283820152283e-01
-1.098411902785301208e-02
7.271443307399749756e-02
-4.800201579928398132e-02
3.438366809859871864e-03
-3.995248377323150635e-01
2.602456323802471161e-02
-4.553358629345893860e-02
1.954019442200660706e-02
4.625943675637245178e-02
-8.324259892106056213e-03
7.670266181230545044e-02
-6.026520207524299622e-02
6.384578347206115723e-02
5.154692917130887508e-04
5.850133672356605530e-02
-2.631662786006927490e-01
-2.898801304399967194e-02
-9.393879026174545288e-02
3.462658822536468506e-02
-2.426307881250977516e-03
-2.965441159904003143e-02
3.566916286945343018e-02
-1.099982559680938721e-01
-3.052249252796173096e-01
-1.821955293416976929e-01
3.402347210794687271e-03
-2.627467215061187744e-01
8.421087265014648438e-02
3.233210742473602295e-02
-1.479399055242538452e-01
-2.092165797948837280e-01
-2.921731583774089813e-02
-8.888804912567138672e-02
-1.697089672088623047e-01
-2.313292957842350006e-02
8.395200967788696289e-02
2.066572010517120361e-02
-5.293246731162071228e-02
-6.898044794797897339e-02
-1.817310303449630737e-01
-1.211389377713203430e-01
-1.627998054027557373e-02
-8.475030958652496338e-02
-4.396342858672142029e-02
-1.006047129631042480e-01
-3.146363422274589539e-02
6.498625129461288452e-02
7.926113903522491455e-02
-8.059610426425933838e-02
-1.668291538953781128e-02
-1.144720390439033508e-01
-6.752669066190719604e-02
-2.016844451427459717e-01
-5.269235745072364807e-02
3.544102236628532410e-02
-1.969984471797943115e-01
1.010364107787609100e-02
-1.485130339860916138e-01
5.386754870414733887e-02
-1.548935920000076294e-01
-1.318992376327514648e-01
6.989223510026931763e-02
-1.500803381204605103e-01
-5.967833474278450012e-02
-3.763409703969955444e-02
2.342384308576583862e-01
-1.230354234576225281e-01
8.853331208229064941e-02
8.759313262999057770e-03
-3.687207028269767761e-02
-5.204131826758384705e-02
1.471046805381774902e-01
-3.049515187740325928e-02
-1.960467919707298279e-02
8.463987708091735840e-02
-7.307910919189453125e-02
1.650632619857788086e-01
1.160376798361539841e-02
-3.923665583133697510e-01
-2.298975437879562378e-01
8.522769436240196228e-03
-5.606457963585853577e-02
-5.222960561513900757e-02
1.179483607411384583e-01
-3.785169497132301331e-02
-7.634652405977249146e-02
1.986965723335742950e-02
-3.650937974452972412e-02
-1.091038882732391357e-01
-3.567589819431304932e-02
1.531575918197631836e-01
-1.049549784511327744e-02
-2.643538080155849457e-02
-7.302100211381912231e-02
-9.058881551027297974e-02
8.397644013166427612e-02
-1.957085281610488892e-01
-2.778868675231933594e-01
1.048579737544059753e-01
-1.166083570569753647e-02
1.129556447267532349e-01
-4.626164212822914124e-02
-2.197075262665748596e-02
-8.000375330448150635e-02
-7.708829641342163086e-02
7.027764338999986649e-03
1.345607172697782516e-02
2.555428072810173035e-02
-4.401529580354690552e-02
6.049787253141403198e-02
7.273540645837783813e-02
-5.426489934325218201e-02
-4.119813442230224609e-03
8.328253775835037231e-02
-1.372196525335311890e-01
6.662537343800067902e-04
1.381104290485382080e-01
-8.740914613008499146e-02
-8.403204381465911865e-02
-9.192657470703125000e-02
1.587699539959430695e-02
9.843633323907852173e-02
-7.592025399208068848e-02
-6.513616442680358887e-02
-8.248016238212585449e-02
9.357212483882904053e-02
-1.652805507183074951e-02
1.069510206580162048e-01
-7.849370688199996948e-02
-5.606914311647415161e-02
-2.207100391387939453e-01
6.051041930913925171e-02
-6.975745409727096558e-02
2.576106786727905273e-01
8.362851291894912720e-02
-1.087671890854835510e-02
1.013934835791587830e-01
-4.499248415231704712e-02
-9.351519984193146229e-04
-1.545199453830718994e-01
-2.899883687496185303e-02
1.166827976703643799e-01
-3.044012933969497681e-02
-7.446820288896560669e-02
1.342031806707382202e-01
-5.482604727149009705e-02
-2.043101340532302856e-01
-1.126658022403717041e-01
7.486623525619506836e-02
-2.607348263263702393e-01
2.053987234830856323e-02
5.169936455786228180e-03
1.071149706840515137e-01
4.284501075744628906e-03
-1.684437841176986694e-01
1.147552728652954102e-01
1.077464520931243896e-01
-5.175605043768882751e-02
-4.966266918927431107e-03
-2.554958872497081757e-02
1.762957572937011719e-01
-1.034373864531517029e-01
-3.495289012789726257e-02
-5.313615128397941589e-02
2.044248729944229126e-01
2.076683491468429565e-01
-1.222557350993156433e-01
-1.520245969295501709e-01
1.009736806154251099e-01
-5.579413101077079773e-02
-9.494237601757049561e-02
6.583325564861297607e-02
7.945065945386886597e-02
-2.571373432874679565e-02
-6.504435092210769653e-02
8.097279816865921021e-03
-1.898336410522460938e-01
-6.312766671180725098e-02
8.247356861829757690e-02
1.235051751136779785e-01
5.658818408846855164e-02
2.765081822872161865e-02
-1.039320826530456543e-01
-1.080832816660404205e-02
-3.745808498933911324e-03
-8.634493499994277954e-02
2.456851303577423096e-03
9.467028081417083740e-02
6.081886589527130127e-02
-6.404707580804824829e-02
-1.191218290477991104e-02
5.242098122835159302e-02
3.489067777991294861e-02
-1.409568190574645996e-01
-1.067362353205680847e-01
-1.677043288946151733e-01
-1.340153664350509644e-01
1.140428893268108368e-02
-1.045045107603073120e-01
1.320787370204925537e-01
4.652671143412590027e-02
1.812453009188175201e-02
-8.427540212869644165e-02
-4.962538182735443115e-02
1.436810195446014404e-01
-1.081348136067390442e-01
-5.316195893101394176e-04
5.293264240026473999e-02
-5.280593410134315491e-02
5.869478359818458557e-02
-2.593616247177124023e-01
4.445336014032363892e-02
-3.495075274258852005e-03
-1.086952909827232361e-01
-2.105168551206588745e-01
3.341980651021003723e-02
4.316792637109756470e-02
7.049832493066787720e-02
-1.047957539558410645e-01
4.699327796697616577e-02
4.054452106356620789e-02
-1.657646298408508301e-01
-1.166710779070854187e-01
-8.259617537260055542e-02
-1.700792163610458374e-01
3.047987259924411774e-02
-1.658602803945541382e-01
-1.709294766187667847e-01
7.399047911167144775e-02
-1.594982892274856567e-01
1.077352240681648254e-01
-8.385421335697174072e-02
-5.815462768077850342e-02
-8.680991828441619873e-02
1.410658657550811768e-02
7.961457222700119019e-02
6.189732998609542847e-02
2.549510821700096130e-02
-5.527552589774131775e-02
7.453229278326034546e-02
-1.120917648077011108e-01
2.495252527296543121e-03
5.396978463977575302e-03
-1.359258443117141724e-01
6.960994750261306763e-02
1.547948271036148071e-01
-1.876676678657531738e-01
-3.268411755561828613e-02
-3.372835367918014526e-02
2.912691235542297363e-02
-1.274977624416351318e-01
2.494672685861587524e-02
-1.597626805305480957e-01
-1.406605690717697144e-01
-9.825377911329269409e-02
-6.622733175754547119e-02
-7.066059857606887817e-02
6.042352318763732910e-02
-2.764732390642166138e-02
-1.142951920628547668e-01
-3.666537702083587646e-01
-5.862031504511833191e-02
-3.811511024832725525e-02
-4.210089892148971558e-02
4.499771818518638611e-02
4.101298004388809204e-02
1.080742627382278442e-01
-6.218329444527626038e-02
-9.981396049261093140e-02
-9.932381659746170044e-02
-1.050625666975975037e-01
-1.670201569795608521e-01
8.941158652305603027e-02
-1.417664885520935059e-01
1.208226084709167480e-01
-3.316836897283792496e-03
1.126027628779411316e-01
-1.235797926783561707e-01
-6.461045891046524048e-02
-1.592955440282821655e-01
2.720395848155021667e-02
7.387758046388626099e-02
3.604099154472351074e-02
1.644133776426315308e-01
1.405271589756011963e-01
-1.939959824085235596e-01
-9.568928182125091553e-02
-1.501273214817047119e-01
-5.696260556578636169e-02
1.888660490512847900e-01
-2.994965016841888428e-02
-2.293906658887863159e-01
-1.146561503410339355e-01
-4.156702011823654175e-02
-7.097262889146804810e-02
-7.702111452817916870e-02
3.484473004937171936e-02
3.678871691226959229e-02
-1.411414444446563721e-01
6.300594657659530640e-02
-1.333369463682174683e-01
-1.206658557057380676e-01
-6.655897200107574463e-02
-2.717810869216918945e-01
5.851331725716590881e-02
5.280336365103721619e-02
4.547386988997459412e-02
5.553806945681571960e-02
-9.813723713159561157e-02
1.493859663605690002e-02
1.045776065438985825e-02
1.010534465312957764e-01
-2.025218605995178223e-01
2.056925445795059204e-01
-1.951847672462463379e-01
-1.537256129086017609e-02
-1.321825385093688965e-02
-5.264498759061098099e-03
1.453951373696327209e-02
-1.191822588443756104e-01
-3.276780620217323303e-02
4.653365537524223328e-02
-7.445532828569412231e-02
4.577195271849632263e-02
5.957053974270820618e-02
-8.252786099910736084e-02
5.447172746062278748e-02
-6.471333652734756470e-02
7.707525789737701416e-02
4.190308600664138794e-02
-1.534372419118881226e-01
6.801852583885192871e-02
-4.434467107057571411e-02
1.639811396598815918e-01
-1.326517462730407715e-01
1.509495228528976440e-01
7.344317436218261719e-02
-1.015915125608444214e-01
1.983802951872348785e-02
-1.608854532241821289e-01
-1.731695383787155151e-01
-2.018669247627258301e-02
-1.478738635778427124e-01
1.202023401856422424e-01
-1.052487939596176147e-01
-8.377258479595184326e-02
-8.980175107717514038e-02
-9.244524687528610229e-02
-7.618951797485351562e-02
-2.427940517663955688e-01
-9.675846993923187256e-02
-5.727512016892433167e-02
-2.428517490625381470e-02
-9.829705953598022461e-02
-4.039185866713523865e-02
-6.252619624137878418e-02
-9.492796659469604492e-02
-1.297871619462966919e-01
-9.501981548964977264e-03
-1.850755326449871063e-02
-1.323215365409851074e-01
-2.001625113189220428e-02
3.379196673631668091e-02
-2.728496491909027100e-02
-1.750969439744949341e-01
-1.817416585981845856e-02
-1.993161626160144806e-02
2.122605592012405396e-01
6.924680899828672409e-03
4.050648212432861328e-02
-7.066490501165390015e-02
1.563963592052459717e-01
-1.373253762722015381e-01
-8.980417251586914062e-02
-2.641173303127288818e-01
-1.004075333476066589e-01
2.969116531312465668e-02
5.576795339584350586e-02
-3.154774755239486694e-02
-9.866178035736083984e-02
4.722309857606887817e-02
8.681748062372207642e-02
-1.176594849675893784e-02
-6.643845885992050171e-02
7.245672494173049927e-02
-1.770049333572387695e-01
1.168097928166389465e-01
2.944577950984239578e-03
-1.581016778945922852e-01
-3.451855480670928955e-02
2.877116575837135315e-02
9.756493568420410156e-02
-1.738208681344985962e-01
-1.194561943411827087e-01
1.259752959012985229e-01
1.559741515666246414e-02
1.086144824512302876e-03
-7.349880784749984741e-02
-1.712623685598373413e-01
-1.926934421062469482e-01
2.237043343484401703e-02
-4.008565098047256470e-02
-1.210620701313018799e-01
9.219110943377017975e-03
-1.158944610506296158e-02
-2.464399486780166626e-01
-1.051570400595664978e-01
-5.316330492496490479e-02
-2.510806024074554443e-01
-4.550377652049064636e-02
-3.384463489055633545e-02
-1.021654754877090454e-01
-5.279916152358055115e-02
-1.705985963344573975e-01
-1.072318553924560547e-01
5.259598046541213989e-02
-1.294886134564876556e-02
1.029494218528270721e-03
5.199921131134033203e-02
-2.422452718019485474e-02
3.785946965217590332e-02
-1.808980107307434082e-02
-1.766165345907211304e-01
-4.961825907230377197e-02
-5.846503004431724548e-02
1.431032456457614899e-02
8.773967623710632324e-03
1.712330430746078491e-02
-9.779965132474899292e-02
-6.225337088108062744e-02
-1.749704033136367798e-01
-1.650440692901611328e-01
4.164594411849975586e-02
-1.916809193789958954e-02
-2.156314998865127563e-01
-1.772438287734985352e-01
3.515531867742538452e-02
-2.512367069721221924e-01
-1.112267002463340759e-01
-5.856384336948394775e-02
6.674555689096450806e-02
-1.106406822800636292e-01
4.589407891035079956e-02
1.959755085408687592e-03
1.356601808220148087e-02
7.165393978357315063e-02
1.082010790705680847e-01
9.686569124460220337e-02
-1.259724516421556473e-02
-8.309907466173171997e-02
-1.094746440649032593e-01
-2.468899786472320557e-01
1.092685014009475708e-01
1.643931120634078979e-01
-1.040524765849113464e-01
-1.426572352647781372e-01
-1.057629473507404327e-02
-1.170517504215240479e-02
-2.233322858810424805e-01
-2.083172649145126343e-02
-5.195205658674240112e-02
2.752944454550743103e-02
-7.470634579658508301e-02
-1.586343497037887573e-01
-1.183641180396080017e-01
-6.969065964221954346e-02
2.174324914813041687e-02
-7.224816828966140747e-02
1.219052672386169434e-01
-8.464355766773223877e-02
-2.187026441097259521e-01
-3.335189074277877808e-02
3.614097088575363159e-02
2.031262964010238647e-02
1.842918246984481812e-02
-1.125599592924118042e-01
8.592464961111545563e-03
-7.139325886964797974e-02
5.123433470726013184e-02
1.449806522578001022e-02
1.808957010507583618e-02
3.567371144890785217e-02
-1.597664505243301392e-01
6.165872886776924133e-02
-1.265300363302230835e-01
-8.757781237363815308e-02
1.694779284298419952e-02
-1.755865104496479034e-02
-3.672882020473480225e-01
-2.752431631088256836e-01
-2.498303353786468506e-01
-1.512672007083892822e-01
-1.423064023256301880e-01
9.668503701686859131e-02
-9.296312183141708374e-02
-5.841797217726707458e-02
9.411884844303131104e-02
-6.345535069704055786e-02
-2.587611600756645203e-02
4.086104035377502441e-02
1.904025301337242126e-02
3.079165890812873840e-02
1.033013593405485153e-02
9.265604615211486816e-02
-9.833992272615432739e-02
-5.425189435482025146e-02
1.025083065032958984e-01
-2.462375164031982422e-01
4.194339271634817123e-03
8.990737795829772949e-02
-1.770204156637191772e-01
-8.610422909259796143e-02
1.694677770137786865e-02
-1.657087728381156921e-02
-2.134470641613006592e-01
2.371701411902904510e-02
1.176605522632598877e-01
1.160113960504531860e-01
2.545833215117454529e-02
-4.827539250254631042e-02
3.221173584461212158e-02
-4.270746186375617981e-02
-6.818337738513946533e-02
5.712419748306274414e-02
-5.170964635908603668e-03
-2.353519760072231293e-02
2.886599861085414886e-02
-1.261228471994400024e-01
1.003963351249694824e-01
9.871171414852142334e-02
-1.935955733060836792e-01
-1.419667750597000122e-01
-2.203773260116577148e-01
4.336195811629295349e-02
-8.190851658582687378e-02
2.132829278707504272e-01
9.275941178202629089e-03
-4.625457525253295898e-02
1.233954876661300659e-01
-1.660655625164508820e-02
1.110257208347320557e-01
-1.232415586709976196e-01
-1.032421067357063293e-01
-5.835858732461929321e-02
-6.206277757883071899e-02
1.606308668851852417e-01
1.207027211785316467e-01
-1.609698385000228882e-01
6.329425424337387085e-02
1.577122658491134644e-01
-3.118097223341464996e-02
2.147210575640201569e-02
-7.775764167308807373e-02
1.098723709583282471e-01
-2.409882470965385437e-02
1.072007566690444946e-01
-1.094173714518547058e-01
-1.147974357008934021e-01
-6.707826256752014160e-02
7.421986758708953857e-02
-2.026528678834438324e-02
8.848784863948822021e-02
2.696406282484531403e-02
-5.019847676157951355e-02
1.068834140896797180e-01
4.463236033916473389e-02
1.268964409828186035e-01
-1.594144403934478760e-01
-2.994831651449203491e-02
6.771318614482879639e-02
-1.613698899745941162e-01
-2.553277276456356049e-02
-1.113338917493820190e-01
-6.331934779882431030e-02
-4.358306992799043655e-03
4.063864424824714661e-02
2.693338692188262939e-02
-9.875997900962829590e-03
1.528142485767602921e-02
2.598347701132297516e-02
1.397299468517303467e-01
-3.427713364362716675e-02
8.882749825716018677e-02
6.308503448963165283e-02
-3.000487945973873138e-02
1.821333914995193481e-01
-3.389495983719825745e-02
-1.114276424050331116e-01
5.763483792543411255e-02
-1.686648279428482056e-02
-3.943646326661109924e-02
-1.496431678533554077e-01
-1.023939549922943115e-01
-1.273817569017410278e-01
3.995808586478233337e-02
2.028163708746433258e-02
6.898096948862075806e-02
-8.608683198690414429e-02
-2.513893693685531616e-02
1.241850480437278748e-01
6.362437456846237183e-02
-1.360357552766799927e-01
1.910862028598785400e-01
1.115064695477485657e-02
-1.164736449718475342e-01
-6.037319824099540710e-02
-5.485767871141433716e-02
-5.777393281459808350e-02
-1.028264760971069336e-01
-8.916557580232620239e-02
-9.819039702415466309e-02
-1.852661371231079102e-01
-1.908554881811141968e-01
4.005373641848564148e-02
-6.769745051860809326e-02
-1.916215009987354279e-02
-2.660309523344039917e-02
-1.776233315467834473e-02
2.722888952121138573e-03
7.314554601907730103e-02
-6.333647668361663818e-02
8.693733066320419312e-02
-5.427630618214607239e-02
2.135181725025177002e-01
1.054917275905609131e-01
-6.115839350968599319e-03
-8.875557035207748413e-02
5.924095213413238525e-02
-9.524643421173095703e-03
-1.821371018886566162e-01
-3.295130431652069092e-01
-1.012073680758476257e-01
-1.610655896365642548e-02
-4.216845706105232239e-02
1.158909574151039124e-01
-9.449291042983531952e-03
5.346795916557312012e-02
6.987359374761581421e-02
4.058513324707746506e-03
8.941250294446945190e-02
1.143026649951934814e-01
-2.516032457351684570e-01
2.132614329457283020e-02
-9.094154462218284607e-03
9.752954542636871338e-02
-5.510180070996284485e-02
2.970149181783199310e-02
2.361271297559142113e-03
-1.938942372798919678e-01
-1.050187181681394577e-02
-1.165089979767799377e-01
1.648366264998912811e-02
-7.999338209629058838e-03
-6.392657756805419922e-02
-7.436068356037139893e-02
6.091852672398090363e-03
7.373004220426082611e-03
1.108384877443313599e-01
5.189505219459533691e-02
7.262277603149414062e-02
-1.166541576385498047e-01
-1.895898878574371338e-01
6.235902011394500732e-02
-5.824878066778182983e-02
-1.894506365060806274e-01
-1.607629954814910889e-01
-1.492841988801956177e-01
-1.960274428129196167e-01
-7.037620246410369873e-02
-2.304416745901107788e-01
-2.881014905869960785e-02
7.725995033979415894e-02
-3.257926320657134056e-03
-2.158792875707149506e-02
-1.012702509760856628e-01
-1.949140280485153198e-01
4.595281556248664856e-03
-1.064930227585136890e-03
6.868969649076461792e-02
-1.247008889913558960e-01
-8.992306143045425415e-02
2.746577374637126923e-02
1.144826561212539673e-01
5.711034312844276428e-02
1.661232858896255493e-01
5.740171670913696289e-02
-9.012617915868759155e-02
1.150766387581825256e-01
-1.936325877904891968e-01
1.069840416312217712e-01
-5.907417833805084229e-02
-1.998823694884777069e-02
-3.469841778278350830e-01
1.347654014825820923e-01
1.730800233781337738e-02
-1.347178816795349121e-01
-2.519196271896362305e-01
4.495415836572647095e-03
1.597180962562561035e-02
-4.225182905793190002e-02
-8.848767727613449097e-02
9.324563667178153992e-03
-2.365345060825347900e-01
2.209988981485366821e-02
-5.861581489443778992e-02
-2.962411940097808838e-02
-2.489439845085144043e-01
-2.081118151545524597e-02
-2.475592344999313354e-01
-1.566191762685775757e-01
-3.223808854818344116e-02
4.484768956899642944e-02
-1.561648398637771606e-01
9.885207563638687134e-02
-1.398272514343261719e-01
-2.042377293109893799e-01
1.551663279533386230e-01
-1.943441927433013916e-01
-1.073355749249458313e-01
-1.639998555183410645e-01
-6.338635832071304321e-02
-1.376185268163681030e-01
-1.452021449804306030e-01
9.679850935935974121e-02
3.498843312263488770e-02
-3.165371716022491455e-02
-6.594611704349517822e-02
1.648134738206863403e-01
1.050235778093338013e-01
-2.595136165618896484e-01
9.124223142862319946e-04
-3.551058471202850342e-02
-1.524609923362731934e-01
6.222874671220779419e-02
-4.046231508255004883e-02
1.720509976148605347e-01
-1.130273789167404175e-01
-4.853405058383941650e-02
1.149840466678142548e-02
-1.747955754399299622e-02
1.753681451082229614e-01
-1.762172579765319824e-01
8.273824304342269897e-02
-1.889687404036521912e-02
-1.148729324340820312e-01
-6.812094151973724365e-02
2.220669090747833252e-01
-3.683313727378845215e-02
-8.543425798416137695e-02
5.562809295952320099e-03
-6.663282960653305054e-02
-4.901145026087760925e-02
-4.968312755227088928e-02
3.923423960804939270e-02
8.831094950437545776e-02
-9.258455038070678711e-02
5.323171243071556091e-02
-3.123702108860015869e-02
-1.272223144769668579e-02
-1.316555738449096680e-01
-1.395172923803329468e-01
-1.267562955617904663e-01
-1.706013977527618408e-01
6.502775102853775024e-02
-1.846676878631114960e-02
-6.634162738919258118e-03
-2.148071080446243286e-01
-2.912613563239574432e-02
-3.898964449763298035e-02
1.629935204982757568e-01
-2.210458368062973022e-02
9.177743643522262573e-02
-2.556210160255432129e-01
1.427586227655410767e-01
1.007655411958694458e-01
-1.297671794891357422e-01
-1.897201756946742535e-03
-6.839312613010406494e-03
-1.982868164777755737e-01
-9.687809646129608154e-02
1.041456311941146851e-01
-7.972551137208938599e-02
-3.753368929028511047e-02
4.076265543699264526e-02
1.342034246772527695e-02
1.379388421773910522e-01
-1.473057121038436890e-01
-5.016894638538360596e-02
3.848042339086532593e-02
-7.527377456426620483e-02
-2.784323990345001221e-01
-2.675226628780364990e-01
1.242811884731054306e-02
1.485846340656280518e-01
-1.422492414712905884e-01
5.624376237392425537e-02
-1.671384572982788086e-01
2.550470456480979919e-02
-8.166690170764923096e-02
-4.223114252090454102e-02
1.018959134817123413e-01
1.846439577639102936e-02
-1.288410425186157227e-01
-7.250019162893295288e-02
4.258892685174942017e-02
3.855625912547111511e-02
4.436047002673149109e-02
2.081127092242240906e-02
1.073566600680351257e-01
1.866929791867733002e-02
2.720459699630737305e-01
-3.937626257538795471e-02
-3.703405708074569702e-02
-8.077105879783630371e-02
-4.049979522824287415e-02
-1.542002707719802856e-01
1.185747329145669937e-02
1.199259087443351746e-01
5.640563741326332092e-02
-5.817421898245811462e-02
-2.851286716759204865e-02
7.334921509027481079e-02
-1.665572673082351685e-01
-1.097014620900154114e-01
-1.698800595477223396e-03
7.977472245693206787e-02
-9.256052970886230469e-02
-1.158283352851867676e-01
-6.359346956014633179e-02
3.668852522969245911e-02
1.354715973138809204e-01
-9.209424257278442383e-02
-1.652446538209915161e-01
1.338265091180801392e-01
-2.265455424785614014e-01
-1.087545156478881836e-01
-1.164850369095802307e-01
-4.303147643804550171e-02
-4.939676076173782349e-02
6.766732037067413330e-02
-2.486996352672576904e-02
-2.056145668029785156e-02
-8.122470229864120483e-02
-1.231057569384574890e-01
7.125511765480041504e-02
-2.026241570711135864e-01
-3.111060895025730133e-02
3.713539987802505493e-02
-5.960544198751449585e-02
-2.494243718683719635e-02
1.717086881399154663e-01
-1.230549663305282593e-01
-1.327266991138458252e-01
-2.962066829204559326e-01
-9.997545927762985229e-02
-9.987117350101470947e-02
-7.508208602666854858e-02
1.589324697852134705e-02
-4.365989938378334045e-02
-7.125113904476165771e-02
-3.680673241615295410e-02
1.032539270818233490e-02
-2.940419828519225121e-03
-3.183939680457115173e-02
4.874178767204284668e-02
-5.722763016819953918e-02
-1.729589141905307770e-02
-1.197907030582427979e-01
-2.188510447740554810e-02
-5.937184020876884460e-02
-2.880157232284545898e-01
-2.240868359804153442e-01
-4.506039619445800781e-02
-3.848632797598838806e-02
-1.504756789654493332e-02
-3.094072937965393066e-01
-7.319468259811401367e-02
4.755706712603569031e-02
-8.773723244667053223e-02
-1.153000518679618835e-01
-2.422533370554447174e-02
-6.478247046470642090e-02
-2.517551183700561523e-02
2.346599474549293518e-02
2.318489924073219299e-02
-6.968303117901086807e-03
-8.679400384426116943e-02
-1.545597165822982788e-01
-8.929847180843353271e-02
1.556950807571411133e-02
-2.340524084866046906e-02
-2.566607296466827393e-02
-1.010656729340553284e-02
-4.736779257655143738e-02
6.843927502632141113e-02
-8.721660077571868896e-02
5.755298957228660583e-02
-5.412076041102409363e-02
-6.550770252943038940e-02
-4.478263482451438904e-02
-1.354263047687709332e-03
-4.786829277873039246e-02
1.078453436493873596e-01
3.469339758157730103e-02
1.418752968311309814e-01
8.869094401597976685e-02
4.158013314008712769e-02
-4.173133522272109985e-02
-1.659968197345733643e-01
6.744579970836639404e-02
-1.690786629915237427e-01
1.092996634542942047e-02
-3.296616673469543457e-02
1.636873185634613037e-02
-4.180510342121124268e-02
4.810176044702529907e-02
2.445318363606929779e-02
8.239431679248809814e-02
1.378363668918609619e-01
4.216894507408142090e-02
-1.285804808139801025e-01
5.802302062511444092e-02
7.537540793418884277e-02
2.392479032278060913e-01
3.707827255129814148e-02
-6.431653350591659546e-02
-1.094044670462608337e-01
-2.180554904043674469e-02
-3.311864659190177917e-02
-6.131834536790847778e-02
-5.191716924309730530e-02
-1.351138502359390259e-01
-1.734670549631118774e-01
6.316069513559341431e-02
-1.847320199012756348e-01
-9.195526689291000366e-02
-1.055375188589096069e-01
-8.416438847780227661e-02
5.771116167306900024e-02
-1.594693809747695923e-01
6.586311012506484985e-02
6.539978086948394775e-02
-1.487755775451660156e-01
-9.522312879562377930e-02
-3.782378137111663818e-02
-8.505117148160934448e-02
3.463781625032424927e-02
-1.787402629852294922e-01
5.850576329976320267e-03
5.113951861858367920e-02
-2.010114490985870361e-02
8.770147711038589478e-02
-2.889743745326995850e-01
9.702260792255401611e-02
-1.722134649753570557e-02
-2.431556954979896545e-02
-2.682776749134063721e-02
1.479553580284118652e-01
-4.453444108366966248e-02
-1.932193785905838013e-01
2.470738068222999573e-02
5.149936303496360779e-03
4.147166758775711060e-02
6.501896679401397705e-02
5.987685173749923706e-02
-3.023181483149528503e-02
-2.322417870163917542e-02
-7.723024487495422363e-02
5.342149361968040466e-02
5.183911323547363281e-02
-2.339155524969100952e-01
-7.066398113965988159e-02
-1.011506021022796631e-01
-1.178677193820476532e-02
6.845850497484207153e-02
1.124679073691368103e-01
1.158564817160367966e-02
4.843932017683982849e-02
-2.175530493259429932e-01
-4.525966197252273560e-02
-5.743673443794250488e-02
-3.896133229136466980e-02
-3.177925646305084229e-01
-1.044632270932197571e-01
8.645600825548171997e-02
-1.395531296730041504e-01
-1.700976938009262085e-01
-4.145103693008422852e-02
-1.304908394813537598e-01
-1.619988679885864258e-01
-5.694813653826713562e-02
-3.791364654898643494e-02
-8.259175717830657959e-02
-3.368698358535766602e-01
1.506221145391464233e-01
6.679550278931856155e-03
3.511965274810791016e-02
-9.942433796823024750e-03
-7.359161227941513062e-02
4.039193037897348404e-03
1.246096864342689514e-01
7.046811282634735107e-02
-1.570624560117721558e-01
1.352504361420869827e-03
1.154414564371109009e-01
-1.164980530738830566e-01
