1.491052955389022827e-01
-3.281373158097267151e-02
-1.364493817090988159e-01
-2.742899060249328613e-01
-3.795765638351440430e-01
4.691174626350402832e-02
8.168723434209823608e-03
1.837667375802993774e-01
-3.558247089385986328e-01
-2.993744909763336182e-01
-5.002471804618835449e-01
-4.228781759738922119e-01
-3.385553658008575439e-01
-3.665626347064971924e-01
-3.308817446231842041e-01
-4.707091450691223145e-01
-4.729532450437545776e-02
-5.114803314208984375e-01
-1.458295434713363647e-01
-1.589501053094863892e-01
7.040200382471084595e-02
6.695284247398376465e-01
-3.857593983411788940e-02
-3.944559991359710693e-01
-3.037112355232238770e-01
-3.499710857868194580e-01
7.687482051551342010e-03
7.814188301563262939e-02
1.788052916526794434e-02
1.941714063286781311e-02
3.964176028966903687e-02
1.419335603713989258e-01
-3.691596686840057373e-01
-2.864131033420562744e-01
1.423126608133316040e-01
-2.570681571960449219e-01
-2.464097738265991211e-01
-5.998027324676513672e-01
-3.671927452087402344e-01
-4.395504295825958252e-01
-5.158395767211914062e-01
-4.677668213844299316e-01
-2.661617994308471680e-01
-1.949427872896194458e-01
7.874566912651062012e-01
2.034545242786407471e-01
-1.387769579887390137e-01
-1.782125681638717651e-01
-4.991260766983032227e-01
-6.475083529949188232e-02
-1.118783652782440186e-01
-2.310986518859863281e-01
-5.708262324333190918e-01
-5.471574664115905762e-01
6.031821295619010925e-02
-1.689320951700210571e-01
4.108161330223083496e-01
4.270949959754943848e-01
-4.258384704589843750e-01
-2.148656360805034637e-02
-3.592738211154937744e-01
-2.546751201152801514e-01
3.169490024447441101e-02
1.030828878283500671e-01
