-2.735345624387264252e-02
3.131170570850372314e-02
-6.773672252893447876e-02
-1.105002015829086304e-01
1.761850863695144653e-01
-9.199369698762893677e-02
1.838172227144241333e-02
1.726687699556350708e-02
-3.107651323080062866e-02
4.431619122624397278e-02
-1.059819012880325317e-01
1.826122850179672241e-01
-2.443694137036800385e-02
-8.027207851409912109e-02
-4.823486134409904480e-02
2.671632915735244751e-02
1.562452763319015503e-01
4.113958030939102173e-02
1.270781457424163818e-01
4.585121199488639832e-02
1.590940505266189575e-01
4.878612235188484192e-02
2.480115182697772980e-02
1.001867651939392090e-01
4.229834675788879395e-02
-8.598797768354415894e-02
-9.000157564878463745e-02
-7.845918089151382446e-02
3.703876584768295288e-02
-1.528653353452682495e-01
-5.933434888720512390e-02
-1.405778247863054276e-02
5.736596882343292236e-02
7.801236212253570557e-02
8.494364470243453979e-02
1.415063859894871712e-03
-3.427409753203392029e-02
-9.043679386377334595e-02
-1.697973348200321198e-02
1.663157194852828979e-01
-1.787293143570423126e-02
-8.802251517772674561e-02
-1.450957171618938446e-02
-8.746629208326339722e-02
-2.131398953497409821e-02
5.587476864457130432e-02
6.549252569675445557e-02
-4.758221656084060669e-02
2.398177050054073334e-02
-4.007031396031379700e-02
6.566355936229228973e-03
-1.600304543972015381e-01
-5.305793881416320801e-02
1.007792577147483826e-01
-3.853823244571685791e-02
-1.423206459730863571e-02
-7.391435652971267700e-02
-8.953297883272171021e-02
-2.978019975125789642e-02
-1.239484772086143494e-01
-4.806184023618698120e-02
3.321583569049835205e-02
-6.304199993610382080e-02
-5.894298106431961060e-02
-9.205901063978672028e-03
5.536075681447982788e-02
-3.082713857293128967e-02
6.997389346361160278e-02
4.236612841486930847e-02
5.806001275777816772e-02
-6.161938607692718506e-02
5.994514003396034241e-02
-7.271014899015426636e-02
1.033012270927429199e-01
-5.704831331968307495e-02
-4.596375301480293274e-02
-6.604573130607604980e-02
-5.164514482021331787e-02
-1.368714570999145508e-01
1.252349168062210083e-01
-1.958857849240303040e-02
1.001402437686920166e-01
7.284335047006607056e-02
-3.404658660292625427e-02
1.027809269726276398e-02
-3.946273401379585266e-02
-1.000980287790298462e-02
4.592129588127136230e-02
3.897148370742797852e-02
-1.984024196863174438e-01
6.818098574876785278e-02
9.573634713888168335e-02
3.978443518280982971e-02
-7.351523637771606445e-02
1.380982398986816406e-01
1.106248199939727783e-01
3.540087863802909851e-02
2.658084034919738770e-01
-1.160429641604423523e-01
-4.100683704018592834e-02
-2.970219254493713379e-01
-1.401582807302474976e-01
-1.186748370528221130e-01
-4.264583811163902283e-02
6.320725381374359131e-02
-3.950355201959609985e-02
-4.681995511054992676e-02
-7.341637741774320602e-03
-2.033997327089309692e-03
-3.251175954937934875e-02
-1.462111324071884155e-01
-2.586964368820190430e-01
8.020995557308197021e-02
-2.973692305386066437e-02
-5.084554105997085571e-02
-8.270728588104248047e-02
3.791818022727966309e-02
2.618925832211971283e-02
-2.820804528892040253e-02
5.668963864445686340e-02
-1.217683032155036926e-01
-1.457459330558776855e-01
-2.085703611373901367e-02
6.335501372814178467e-02
-2.406683005392551422e-02
-1.029011420905590057e-02
-7.352235913276672363e-02
-1.068462580442428589e-01
-7.281637936830520630e-02
1.004898473620414734e-01
-6.648392975330352783e-02
-5.739236623048782349e-02
-1.139680370688438416e-01
-8.349392563104629517e-02
-7.116740942001342773e-02
-3.552498063072562218e-03
1.636341065168380737e-01
8.932847529649734497e-02
-5.983540415763854980e-02
2.679413557052612305e-01
7.585586048662662506e-03
-1.253620386123657227e-01
-1.158531848341226578e-02
-1.423881947994232178e-01
-1.533360220491886139e-02
-5.912554264068603516e-02
4.412582516670227051e-02
8.145434781908988953e-03
3.993953764438629150e-02
-9.417136758565902710e-02
-7.685902714729309082e-02
-2.468643486499786377e-01
-2.254929952323436737e-02
-4.102497547864913940e-02
5.435435101389884949e-02
8.907997049391269684e-03
1.400084048509597778e-01
9.042719006538391113e-02
-1.791167259216308594e-01
1.192158460617065430e-02
-1.134167462587356567e-01
-2.082675136625766754e-02
-2.595063112676143646e-02
4.842949658632278442e-02
-1.169974431395530701e-01
-1.489372402429580688e-01
-1.637438195757567883e-03
5.138820037245750427e-02
-9.958001226186752319e-02
-1.063262578099966049e-02
-9.443775564432144165e-02
5.239727720618247986e-02
7.217928767204284668e-02
1.833461672067642212e-01
1.139614433050155640e-01
-9.317752718925476074e-02
-2.357591316103935242e-02
-1.676920652389526367e-01
9.345515631139278412e-03
6.760655343532562256e-02
2.049926109611988068e-02
-2.770445495843887329e-02
-8.984331786632537842e-02
1.655976660549640656e-02
-1.309640556573867798e-01
-1.189754232764244080e-01
3.117408789694309235e-02
-1.046492680907249451e-01
-1.247947588562965393e-01
1.506913360208272934e-02
1.300504617393016815e-02
-2.688299864530563354e-03
-1.092271655797958374e-01
8.403734862804412842e-02
-1.204223837703466415e-03
1.500808298587799072e-01
-3.800364211201667786e-02
1.051504239439964294e-01
1.048191785812377930e-01
-2.371770888566970825e-02
3.298497200012207031e-02
1.148116737604141235e-01
-8.796789497137069702e-02
6.753537803888320923e-02
4.847966507077217102e-02
-1.153055950999259949e-01
3.427317738533020020e-02
-8.360870182514190674e-02
-1.567706838250160217e-02
-2.068792283535003662e-01
4.968047887086868286e-02
-1.019319891929626465e-01
3.358746692538261414e-02
-1.046006754040718079e-01
5.041233822703361511e-02
-1.069746538996696472e-02
-1.148989051580429077e-01
-2.645482718944549561e-01
-6.046012789011001587e-02
9.391788393259048462e-03
4.129945486783981323e-02
-9.297389537096023560e-02
-7.988372445106506348e-02
3.910656273365020752e-02
-6.727823615074157715e-02
1.218331456184387207e-01
4.345108568668365479e-02
-8.547431975603103638e-02
-9.304927289485931396e-02
-1.815880388021469116e-01
1.256589293479919434e-01
3.200192749500274658e-02
4.885577782988548279e-02
3.326025232672691345e-02
-1.485615372657775879e-01
-1.459202021360397339e-01
-2.555009722709655762e-02
-1.194143444299697876e-01
-3.915848210453987122e-03
-9.036026895046234131e-02
-7.559943944215774536e-02
-2.620771527290344238e-02
-1.449957489967346191e-01
4.586774855852127075e-02
-1.253111958503723145e-01
2.463839482516050339e-03
-1.293757185339927673e-02
-1.143332496285438538e-01
-1.447939276695251465e-01
5.918426904827356339e-03
-3.145213425159454346e-01
1.117044594138860703e-02
-7.429306954145431519e-02
3.855207189917564392e-02
-6.749258935451507568e-02
-1.673478633165359497e-01
7.501731067895889282e-02
-8.533846586942672729e-02
-1.401076745241880417e-02
8.280194364488124847e-03
-1.548888906836509705e-02
7.444098591804504395e-02
8.219540119171142578e-02
-1.093640401959419250e-01
-2.738313004374504089e-02
1.856861822307109833e-02
-2.557316049933433533e-02
1.618880778551101685e-01
-7.243155688047409058e-02
5.093474686145782471e-02
9.395890682935714722e-02
1.062900424003601074e-01
-1.251126378774642944e-01
2.921259030699729919e-02
-2.011328339576721191e-01
-5.270602181553840637e-02
1.179757434874773026e-02
-2.451201900839805603e-02
-1.479921489953994751e-01
-6.572278589010238647e-02
-1.013578032143414021e-03
-1.640746593475341797e-01
-1.854180730879306793e-02
1.220705918967723846e-02
-1.333045586943626404e-02
-7.454789429903030396e-02
3.058474510908126831e-02
-1.065005809068679810e-01
-2.923478558659553528e-02
7.596068829298019409e-02
-5.368497967720031738e-02
-2.318562716245651245e-01
-1.847879216074943542e-02
-1.074620056897401810e-02
-4.979805275797843933e-02
-6.324113905429840088e-02
-5.239560827612876892e-02
9.497880935668945312e-02
5.649631470441818237e-02
3.101439401507377625e-02
1.372729390859603882e-01
-1.836472600698471069e-01
1.899504475295543671e-02
-6.531881541013717651e-02
1.154501959681510925e-01
1.141939871013164520e-02
7.358171045780181885e-02
8.772335201501846313e-02
1.238571926951408386e-01
-5.088160559535026550e-02
3.079279139637947083e-02
-5.301511846482753754e-03
-7.384391874074935913e-02
2.440914697945117950e-02
-4.019939340651035309e-03
-2.398496270179748535e-01
-9.639938175678253174e-02
8.169519156217575073e-02
9.877177327871322632e-02
1.413881406188011169e-02
-5.583639722317457199e-05
4.204018041491508484e-02
4.005495458841323853e-02
-1.060765832662582397e-01
-1.894202455878257751e-02
-1.846031546592712402e-01
-8.096457272768020630e-02
-3.046865202486515045e-02
5.829255655407905579e-02
-9.928538650274276733e-02
1.001825854182243347e-01
-1.334169064648449421e-03
1.081712245941162109e-01
9.535503387451171875e-02
3.127401322126388550e-02
-6.606999784708023071e-02
1.058450043201446533e-01
-4.942009970545768738e-02
-9.664946794509887695e-02
-8.915908634662628174e-02
5.588063970208168030e-02
2.367081679403781891e-02
1.188214123249053955e-01
5.534372851252555847e-02
-1.820591390132904053e-01
8.836568892002105713e-02
7.540688663721084595e-02
6.302098929882049561e-02
-1.167949214577674866e-01
-1.012659911066293716e-02
-8.116990327835083008e-02
-3.599088639020919800e-03
4.213092476129531860e-02
2.742927968502044678e-01
-9.802398085594177246e-02
2.947988361120223999e-02
9.938098490238189697e-02
-2.441889606416225433e-02
1.977212354540824890e-02
7.841012626886367798e-02
-1.310794502496719360e-01
-5.672913417220115662e-02
-8.491588383913040161e-02
7.885348051786422729e-02
-1.493897736072540283e-01
4.450491815805435181e-02
1.006787568330764771e-01
-4.090660251677036285e-03
1.593493074178695679e-01
-6.247607246041297913e-02
-1.195168420672416687e-01
1.382970809936523438e-01
-1.034543476998806000e-02
-1.086950302124023438e-02
1.562339365482330322e-01
-7.846145890653133392e-04
-1.917426586151123047e-01
2.138242125511169434e-01
-1.676821112632751465e-01
4.491668194532394409e-02
-1.571352928876876831e-01
-3.156568855047225952e-03
-5.469732359051704407e-02
-6.406697630882263184e-02
8.582467585802078247e-02
-8.758362382650375366e-02
3.425147011876106262e-02
-9.646277129650115967e-02
-8.280136436223983765e-02
-2.528486028313636780e-02
1.177677735686302185e-01
-5.962997302412986755e-02
-1.937400549650192261e-01
-2.227829396724700928e-02
-3.044301085174083710e-02
-1.211282215081155300e-03
2.961481548845767975e-02
8.791413903236389160e-02
-9.979692101478576660e-02
4.868773277848958969e-03
1.458785403519868851e-02
-1.023236382752656937e-02
-5.669831484556198120e-02
-7.320694625377655029e-02
2.964692004024982452e-02
6.216246634721755981e-02
1.456090956926345825e-01
-1.665346622467041016e-01
9.546720422804355621e-03
-2.102827727794647217e-01
1.420945823192596436e-01
1.488659679889678955e-01
3.615180030465126038e-02
1.397519651800394058e-02
-1.547244489192962646e-01
-4.069855436682701111e-03
1.030011698603630066e-01
2.423633038997650146e-01
5.982355773448944092e-02
-2.079203128814697266e-01
-5.749365314841270447e-02
1.079240292310714722e-01
1.086474768817424774e-02
-2.258316874504089355e-01
-7.856336236000061035e-02
4.773012176156044006e-02
3.062433004379272461e-02
6.953501701354980469e-02
4.662967845797538757e-02
-6.674195826053619385e-02
-6.797756534069776535e-03
4.272215440869331360e-02
-5.001821368932723999e-02
-1.813647896051406860e-01
-1.398555468767881393e-02
4.771815985441207886e-02
5.513775348663330078e-02
5.201207473874092102e-02
-4.386328160762786865e-02
7.884453237056732178e-02
-8.645547181367874146e-02
6.843174248933792114e-02
-3.903430188074707985e-03
3.121207468211650848e-03
6.968349684029817581e-03
5.267175287008285522e-02
-1.398606300354003906e-01
-2.485766308382153511e-03
1.034138947725296021e-01
-8.285932987928390503e-02
-2.204778790473937988e-01
-2.053267136216163635e-02
5.235432833433151245e-02
-7.019148766994476318e-02
-2.614074945449829102e-01
6.736011803150177002e-02
-6.992665678262710571e-02
-1.651184558868408203e-01
6.900450587272644043e-02
1.023768186569213867e-01
1.188955903053283691e-01
6.917906552553176880e-02
-8.795512467622756958e-02
1.037772446870803833e-01
2.587483450770378113e-02
1.849765516817569733e-02
-3.489124029874801636e-02
-1.299442052841186523e-01
-1.939947307109832764e-01
-3.086989000439643860e-02
1.130680739879608154e-01
9.466610848903656006e-02
4.308780655264854431e-02
1.225416362285614014e-01
1.414480954408645630e-01
-3.414573892951011658e-02
-9.780244529247283936e-02
-1.366271227598190308e-01
-2.445335835218429565e-01
-8.615863323211669922e-02
3.853273764252662659e-02
-5.172112956643104553e-02
-1.913123726844787598e-01
-6.666901707649230957e-02
-1.781972497701644897e-01
5.760537087917327881e-02
1.132788956165313721e-01
4.605888575315475464e-02
-9.025500714778900146e-02
-9.800050407648086548e-02
1.308072656393051147e-01
-4.597888793796300888e-03
-9.956490993499755859e-02
1.892981380224227905e-01
-4.578741267323493958e-02
7.936888188123703003e-02
6.733553111553192139e-02
8.675248920917510986e-02
4.118289053440093994e-02
1.140178963541984558e-01
-1.503859013319015503e-01
-5.761447176337242126e-02
1.003176048398017883e-01
-1.295927166938781738e-01
1.344833406619727612e-03
3.916100412607192993e-02
-2.334668040275573730e-01
-6.426739692687988281e-02
2.743980847299098969e-02
-8.532162010669708252e-02
1.809852197766304016e-02
-2.231675572693347931e-02
-7.613885402679443359e-02
9.227890521287918091e-03
-1.509206742048263550e-01
9.337232448160648346e-03
1.643724888563156128e-01
5.126498267054557800e-02
-2.474546246230602264e-02
1.774904280900955200e-01
-8.467795699834823608e-02
-5.511552467942237854e-02
3.047614730894565582e-02
1.554130017757415771e-02
-1.950415968894958496e-02
9.264345467090606689e-02
-1.398858577013015747e-01
1.314777694642543793e-02
2.193043678998947144e-01
1.360920220613479614e-01
-5.802840366959571838e-02
-1.855323314666748047e-01
4.966528713703155518e-02
7.921809703111648560e-02
-1.036300137639045715e-01
5.835252627730369568e-02
2.671818807721138000e-02
-1.255146563053131104e-01
3.903109813109040260e-03
2.571507915854454041e-02
-1.130827795714139938e-02
-6.844888627529144287e-02
-2.163561135530471802e-01
5.902046337723731995e-02
-8.397391438484191895e-02
8.881711214780807495e-02
-4.403593484312295914e-03
-1.769569069147109985e-01
6.570506840944290161e-02
-8.111441880464553833e-02
-9.432400763034820557e-02
-2.820840775966644287e-01
7.311069220304489136e-02
-2.223843783140182495e-01
-1.241419650614261627e-02
-1.193213984370231628e-01
8.764585107564926147e-02
-6.234619021415710449e-02
4.367981851100921631e-02
-4.731406643986701965e-02
3.746827691793441772e-02
-6.937360856682062149e-03
1.577623188495635986e-02
5.833465233445167542e-02
-4.983048420399427414e-03
-5.134798213839530945e-02
7.602127641439437866e-02
-2.058665901422500610e-01
-4.678283631801605225e-02
4.816170036792755127e-02
-3.652305155992507935e-02
-8.733722567558288574e-02
-1.627023518085479736e-01
-2.157848887145519257e-02
-5.292176455259323120e-02
-1.232199929654598236e-02
-8.030904084444046021e-02
-5.715990439057350159e-02
-1.516481041908264160e-01
1.075434461236000061e-01
1.194004416465759277e-01
1.218437179923057556e-01
7.790089398622512817e-02
2.582719363272190094e-02
-2.711760438978672028e-02
-1.294947713613510132e-01
1.073566302657127380e-01
1.961668580770492554e-02
1.457576919347047806e-02
6.774000823497772217e-02
-3.336418187245726585e-03
1.359292189590632915e-03
5.492242053151130676e-03
-1.747595220804214478e-01
-4.825677350163459778e-02
5.669943522661924362e-03
-8.577295392751693726e-02
7.761642336845397949e-02
1.307916790246963501e-01
1.305561065673828125e-01
-9.874904155731201172e-02
-6.112047284841537476e-02
1.457623839378356934e-01
5.814234167337417603e-02
-2.853511646389961243e-02
-8.392849564552307129e-02
5.191009119153022766e-02
5.529731884598731995e-02
-9.626529365777969360e-02
-8.599028736352920532e-02
-1.361335217952728271e-01
-4.635274410247802734e-02
2.457209117710590363e-02
1.357173640280961990e-02
-3.118861699476838112e-03
-5.427125841379165649e-02
-1.371325254440307617e-01
-1.085017547011375427e-01
-9.636447578668594360e-02
7.145990151911973953e-03
-5.844249203801155090e-02
-1.857990585267543793e-02
-1.382469534873962402e-01
1.368472259491682053e-02
1.136567071080207825e-01
2.648694440722465515e-02
3.158895671367645264e-02
6.336632370948791504e-02
-5.788742378354072571e-02
2.409630687907338142e-03
-8.309734612703323364e-02
3.334977477788925171e-02
-4.570967331528663635e-02
-3.430264070630073547e-02
3.833802044391632080e-02
-3.119865432381629944e-02
2.922335453331470490e-02
-1.042758226394653320e-01
-3.135665506124496460e-02
1.246898900717496872e-02
-4.055574536323547363e-02
-4.227538779377937317e-02
-7.248531281948089600e-02
2.156850323081016541e-02
1.843234151601791382e-01
-6.752274185419082642e-02
5.814165249466896057e-02
1.145345792174339294e-01
-1.676260977983474731e-01
3.008783422410488129e-02
-3.812915086746215820e-02
-1.164722815155982971e-01
-1.718081980943679810e-01
8.757010102272033691e-03
-8.507698029279708862e-02
2.650486677885055542e-02
4.865671321749687195e-02
-6.594422459602355957e-02
1.528012454509735107e-01
-7.176687568426132202e-02
-6.625271588563919067e-02
-2.342290729284286499e-01
-1.568558625876903534e-02
-2.363409250974655151e-01
1.366999465972185135e-02
2.009745836257934570e-01
1.380378007888793945e-01
2.749244216829538345e-03
-1.346130669116973877e-02
-1.102920845150947571e-01
3.813395276665687561e-02
9.591506095603108406e-04
-1.030297949910163879e-01
-1.154166311025619507e-01
-3.512259572744369507e-02
-2.219429798424243927e-02
-2.810589224100112915e-02
5.634312331676483154e-02
-6.334388256072998047e-02
-1.183822527527809143e-01
-2.138920575380325317e-01
3.700696304440498352e-02
-6.292577832937240601e-02
3.050297684967517853e-02
-1.788773834705352783e-01
1.744918152689933777e-02
-6.698982417583465576e-02
4.015085846185684204e-02
-1.315498203039169312e-01
-1.570570468902587891e-01
-8.771352469921112061e-02
1.894251257181167603e-02
-8.144327998161315918e-02
-1.067866832017898560e-01
-8.046990633010864258e-02
4.440679401159286499e-02
-5.833839066326618195e-03
-6.507764011621475220e-02
2.971477434039115906e-02
-9.183552861213684082e-02
-6.439808011054992676e-02
-2.393128164112567902e-02
-5.391661450266838074e-02
6.008510291576385498e-02
-3.179844468832015991e-02
-4.444648325443267822e-02
-5.954033229500055313e-03
-1.856076866388320923e-01
-9.575143456459045410e-03
4.705804958939552307e-02
7.177073508501052856e-02
-7.433630991727113724e-03
-1.613692939281463623e-01
-3.153873682022094727e-01
1.068620085716247559e-01
-2.483467757701873779e-02
-4.490369558334350586e-02
-5.993536859750747681e-02
2.436810545623302460e-02
-1.759443618357181549e-02
-8.555171638727188110e-02
-2.294690608978271484e-01
4.463535174727439880e-02
-5.376999080181121826e-02
-6.825845688581466675e-02
-5.513638630509376526e-02
9.911430068314075470e-03
-1.025700010359287262e-03
-7.122982642613351345e-04
-1.420349031686782837e-01
-3.067805059254169464e-02
-7.215936481952667236e-02
-3.404011204838752747e-02
8.099562674760818481e-02
4.930323734879493713e-02
-2.761449106037616730e-02
-7.865306735038757324e-02
2.442667074501514435e-02
-1.397905349731445312e-01
-1.918852478265762329e-01
-1.021749898791313171e-01
-1.120305992662906647e-02
-9.050478786230087280e-02
-3.794831410050392151e-02
-9.141796827316284180e-02
3.048186935484409332e-02
-6.655988097190856934e-02
1.063315011560916901e-02
1.562103927135467529e-01
-3.369552642107009888e-02
1.558938622474670410e-02
1.051696464419364929e-01
-1.549776047468185425e-01
-9.783557057380676270e-02
-2.578232586383819580e-01
1.242415979504585266e-01
-3.656544163823127747e-02
-3.699661418795585632e-02
-6.236332654953002930e-02
-8.663552999496459961e-02
-2.890473604202270508e-02
-4.807934537529945374e-02
-1.319339033216238022e-02
-8.611097931861877441e-02
-2.103954553604125977e-01
-2.674681134521961212e-02
-1.037913113832473755e-01
-2.271161973476409912e-02
-3.947477042675018311e-02
1.879047788679599762e-02
-1.301429569721221924e-01
-1.054643914103507996e-01
-1.676309555768966675e-01
-6.052551418542861938e-02
-2.578366547822952271e-02
-2.699630334973335266e-02
-1.057726591825485229e-01
-1.413808763027191162e-02
-8.722295612096786499e-02
1.722110062837600708e-01
1.774992421269416809e-02
1.006301790475845337e-01
-1.072818506509065628e-02
8.682446181774139404e-02
4.488878697156906128e-02
4.441929981112480164e-02
-1.233834177255630493e-01
-1.012957543134689331e-01
-1.338253468275070190e-01
-1.501198858022689819e-01
1.540046483278274536e-01
2.506658621132373810e-02
-3.616868704557418823e-02
-1.456447392702102661e-01
-9.171420335769653320e-02
1.826451160013675690e-02
5.934512615203857422e-02
-2.782297432422637939e-01
1.944485008716583252e-01
2.532958984375000000e-02
8.934558369219303131e-03
-1.271116584539413452e-01
-1.595053076744079590e-01
-3.832177817821502686e-02
-7.007151842117309570e-02
-2.269485890865325928e-01
-9.025282412767410278e-02
-3.294284269213676453e-02
2.914251945912837982e-02
-1.255729496479034424e-01
-4.869876801967620850e-02
5.183090269565582275e-02
2.770472317934036255e-02
-8.758649975061416626e-02
4.335037432610988617e-03
-1.215146109461784363e-01
-6.241431832313537598e-02
4.150904715061187744e-02
-1.276356726884841919e-01
-8.120827376842498779e-02
6.342936307191848755e-02
1.041732076555490494e-02
-2.941837348043918610e-02
1.734765060245990753e-02
-7.189812511205673218e-02
-3.163233771920204163e-02
-1.826899871230125427e-02
4.717668518424034119e-02
-1.363734900951385498e-01
-4.232426732778549194e-02
-1.155798435211181641e-01
7.636258844286203384e-03
-3.882838413119316101e-02
1.451340317726135254e-02
1.230812445282936096e-02
4.411586746573448181e-02
-1.113094985485076904e-01
-4.346666857600212097e-02
9.066497534513473511e-02
-1.136077661067247391e-02
-2.245417982339859009e-02
-1.924453526735305786e-01
-1.165483891963958740e-01
-9.952976554632186890e-02
-7.596243172883987427e-02
1.655004359781742096e-02
-1.031243950128555298e-01
2.315376140177249908e-02
-2.549547255039215088e-01
1.695909909904003143e-02
-7.182534784078598022e-02
-4.647561535239219666e-02
-3.283286094665527344e-02
1.163618192076683044e-01
1.416441053152084351e-02
-3.506423160433769226e-02
4.912682250142097473e-02
5.044412240386009216e-02
6.169808655977249146e-02
9.383742511272430420e-02
2.216201461851596832e-02
4.532720148563385010e-02
-1.051901355385780334e-01
-1.045872792601585388e-01
4.917310178279876709e-02
1.215182691812515259e-01
-5.791607499122619629e-02
-2.028109431266784668e-01
-5.001645907759666443e-02
9.429325908422470093e-02
4.719119518995285034e-02
-9.396877884864807129e-02
4.220377188175916672e-03
1.402424741536378860e-02
1.990192197263240814e-02
-5.570456013083457947e-02
-1.399560421705245972e-01
-5.434209480881690979e-02
-8.500610291957855225e-02
-9.086398035287857056e-02
1.890158280730247498e-02
-2.272737398743629456e-02
-9.770037978887557983e-02
-2.067928016185760498e-02
4.649290442466735840e-02
-2.315820753574371338e-01
3.106872318312525749e-03
-1.103343591094017029e-01
7.520694285631179810e-03
1.731642186641693115e-01
-1.455163955688476562e-01
8.303350210189819336e-02
-1.912333667278289795e-01
3.608795255422592163e-02
-1.108806729316711426e-01
-2.852386236190795898e-02
-3.168695420026779175e-02
2.909562736749649048e-02
-1.107200831174850464e-01
-8.981481939554214478e-02
-5.971755087375640869e-02
-2.636549249291419983e-02
6.819067895412445068e-02
6.136804446578025818e-02
-7.781722396612167358e-02
-8.888792246580123901e-02
-1.110785305500030518e-01
-9.895682334899902344e-02
1.159085929393768311e-01
-1.017115339636802673e-01
-1.745433174073696136e-02
-3.985517472028732300e-02
-1.925138011574745178e-02
3.696209192276000977e-02
-1.018247231841087341e-01
9.328804910182952881e-03
-6.566498428583145142e-02
-1.399956494569778442e-01
-7.924857735633850098e-02
2.811489999294281006e-02
-6.870675832033157349e-02
1.169596165418624878e-01
6.583474576473236084e-02
-1.340751200914382935e-01
-6.692197173833847046e-02
8.022848516702651978e-02
9.522162377834320068e-02
7.861865311861038208e-02
9.174368530511856079e-02
-2.950683981180191040e-02
-5.387936159968376160e-02
-9.771751612424850464e-02
-6.464087963104248047e-02
6.925763445906341076e-04
-5.682829767465591431e-02
-4.017658904194831848e-02
5.820398684591054916e-03
8.364562690258026123e-02
-1.943351775407791138e-01
-2.053743042051792145e-02
2.795294299721717834e-02
-1.921984404325485229e-01
7.806646754033863544e-04
-8.194039016962051392e-02
1.802266389131546021e-02
1.073572337627410889e-01
-2.133515477180480957e-01
-9.464653581380844116e-02
5.921184644103050232e-02
2.432161383330821991e-02
-1.156092286109924316e-01
-9.512993693351745605e-02
-8.418413251638412476e-02
1.479383907280862331e-03
-5.206939205527305603e-02
-2.523151598870754242e-02
7.428487390279769897e-02
1.140620633959770203e-01
6.381981819868087769e-02
-1.380224376916885376e-01
-3.928793594241142273e-02
7.095035910606384277e-02
-4.352750256657600403e-02
-5.842130258679389954e-02
-3.210067283362150192e-03
-1.252911835908889771e-01
-4.571738839149475098e-02
-7.354784756898880005e-02
-5.161430686712265015e-02
-5.410083755850791931e-02
-4.878900572657585144e-02
-9.255981445312500000e-02
-7.329962402582168579e-02
-1.002831980586051941e-01
-6.217683851718902588e-02
-4.832984134554862976e-02
1.572216115891933441e-02
1.145511120557785034e-01
-8.427397906780242920e-02
-1.315568238496780396e-01
-2.167027741670608521e-01
6.518298387527465820e-02
-1.351614296436309814e-01
-2.444006055593490601e-01
-5.741348490118980408e-02
-4.275485500693321228e-02
-6.412662565708160400e-02
-4.032061621546745300e-02
-6.376200914382934570e-02
-1.388034969568252563e-01
-3.877062350511550903e-02
1.617881506681442261e-01
-9.569384157657623291e-02
-1.638434231281280518e-01
2.388624474406242371e-02
1.685644984245300293e-01
-8.818249404430389404e-02
-8.767480403184890747e-02
4.213847965002059937e-02
-1.110263541340827942e-01
-1.081881672143936157e-02
-1.129641085863113403e-01
-8.885768055915832520e-02
7.977599650621414185e-02
-1.470159366726875305e-02
-3.209661459550261497e-03
1.091801095753908157e-04
-4.224258288741111755e-02
-9.094928205013275146e-02
-1.091418191790580750e-01
8.382856100797653198e-02
7.467827945947647095e-02
-1.026972830295562744e-01
-1.307444125413894653e-01
5.827123299241065979e-03
5.640048533678054810e-02
2.834257669746875763e-03
-1.374614536762237549e-01
3.393720136955380440e-03
-1.419543027877807617e-01
1.436402834951877594e-02
-9.676846116781234741e-02
-1.090506687760353088e-01
-1.076317429542541504e-01
-4.009413719177246094e-02
1.775286495685577393e-01
-1.240440085530281067e-01
-7.555902004241943359e-02
-1.797638460993766785e-02
-9.827915579080581665e-02
-2.087059020996093750e-01
-4.715644288808107376e-03
-2.366355434060096741e-02
-1.068224385380744934e-01
-9.572717547416687012e-02
1.262504607439041138e-01
2.003988437354564667e-02
6.865508854389190674e-02
1.937189698219299316e-02
5.066293478012084961e-02
-1.279217749834060669e-01
-1.387829929590225220e-01
-3.247627988457679749e-02
-2.437015995383262634e-02
-4.668095335364341736e-02
9.521917253732681274e-02
-1.668023616075515747e-01
-6.045142561197280884e-02
-1.450417786836624146e-01
8.601304143667221069e-02
5.858350172638893127e-02
1.223890706896781921e-01
3.799394145607948303e-02
2.268529310822486877e-02
-8.957630395889282227e-02
-2.335637062788009644e-02
3.636749088764190674e-02
1.032646819949150085e-01
6.608729064464569092e-02
-4.550066590309143066e-02
-8.906493335962295532e-02
5.724953114986419678e-02
-6.099916622042655945e-02
-2.058205604553222656e-01
-7.414163555949926376e-03
1.312918514013290405e-01
1.845816522836685181e-02
-3.551622107625007629e-02
5.533007532358169556e-02
2.151870634406805038e-03
1.852361671626567841e-02
6.985913217067718506e-02
5.356287583708763123e-02
-8.200309425592422485e-02
8.797005563974380493e-02
2.260023914277553558e-02
3.166481154039502144e-03
-1.978825218975543976e-02
1.060968078672885895e-02
-2.664565108716487885e-02
-2.790917083621025085e-02
-6.890511512756347656e-02
9.201072156429290771e-02
-3.811615705490112305e-02
-2.877997756004333496e-01
6.065867096185684204e-02
6.693077087402343750e-02
-1.558111160993576050e-01
-4.701023176312446594e-02
-1.152749434113502502e-01
1.223329454660415649e-01
-1.616673320531845093e-01
-1.735097914934158325e-01
7.241946458816528320e-02
9.368898719549179077e-02
-2.873951941728591919e-02
7.819534838199615479e-02
-1.110959202051162720e-01
1.668156832456588745e-01
6.424806779250502586e-04
5.584561824798583984e-02
3.769892454147338867e-02
1.170483306050300598e-01
-9.919557720422744751e-02
-3.728253766894340515e-02
-1.057313531637191772e-01
-1.074215918779373169e-01
-8.997464179992675781e-02
1.245896816253662109e-01
1.073336973786354065e-01
3.680181875824928284e-02
-1.432368811219930649e-02
8.371256291866302490e-02
-5.789133533835411072e-02
9.752101451158523560e-02
5.839273333549499512e-03
-7.875413447618484497e-02
-8.691421151161193848e-02
-5.280264839529991150e-02
-6.059682369232177734e-02
-1.515251863747835159e-02
1.264738440513610840e-01
-9.592290222644805908e-02
-1.330140046775341034e-02
-7.043813914060592651e-02
-1.166661903262138367e-01
-1.090268045663833618e-01
2.681314945220947266e-02
4.435141757130622864e-02
-1.901987642049789429e-01
1.508483737707138062e-01
-2.416249364614486694e-02
-7.478267699480056763e-02
8.434925228357315063e-02
-5.100794881582260132e-02
-9.328486770391464233e-02
-6.553113460540771484e-02
3.741613402962684631e-02
-1.501373052597045898e-01
2.134925872087478638e-02
-6.394326686859130859e-02
-7.710297405719757080e-02
1.390637755393981934e-01
-1.103171333670616150e-01
-8.100836537778377533e-03
-1.625471413135528564e-01
-1.436028908938169479e-02
9.457848221063613892e-02
-2.639776282012462616e-02
8.351385593414306641e-03
-7.108263671398162842e-02
-9.822623431682586670e-02
-6.330538541078567505e-02
7.779289036989212036e-02
-1.150670498609542847e-01
-8.781061321496963501e-02
-7.245343178510665894e-02
3.747657686471939087e-02
1.085148658603429794e-02
-4.421214014291763306e-02
-8.499670773744583130e-02
4.417169094085693359e-02
-9.111052751541137695e-02
1.400544345378875732e-01
-6.008886545896530151e-02
-9.182118810713291168e-03
-3.725343570113182068e-02
-1.080944947898387909e-02
-9.640764445066452026e-02
-2.543248794972896576e-02
-9.126346558332443237e-02
-2.405991256237030029e-01
1.435881853103637695e-02
8.137976750731468201e-03
-2.286546304821968079e-02
4.239606205374002457e-03
9.481222927570343018e-02
-6.294593214988708496e-02
8.297421038150787354e-02
2.640865929424762726e-02
1.095827594399452209e-01
1.272770613431930542e-01
-6.472145020961761475e-02
-4.625416547060012817e-02
-2.467317730188369751e-01
-2.405731379985809326e-02
-1.564544392749667168e-03
-8.672905713319778442e-02
4.112189635634422302e-02
1.160866692662239075e-01
3.857363015413284302e-02
1.585519164800643921e-01
-5.608969554305076599e-02
-5.658520013093948364e-02
3.026187792420387268e-02
4.633456096053123474e-02
-3.830220922827720642e-02
5.043205805122852325e-03
4.986734315752983093e-02
1.679763011634349823e-02
-1.259324699640274048e-01
-2.608851529657840729e-02
-1.181437969207763672e-01
-1.775788068771362305e-01
-2.010380849242210388e-02
2.900019846856594086e-02
2.191672101616859436e-02
-1.042258441448211670e-01
-2.615134418010711670e-01
1.661606132984161377e-02
-1.213948652148246765e-01
-7.604961097240447998e-02
-1.551650613546371460e-01
1.087543834000825882e-02
-2.167570963501930237e-02
6.171472743153572083e-02
9.014280885457992554e-02
-2.271038480103015900e-02
-2.899937098845839500e-03
7.989896833896636963e-02
7.404468953609466553e-02
-8.147586137056350708e-02
6.298064254224300385e-03
1.358793582767248154e-02
3.321892395615577698e-02
-5.074493214488029480e-02
8.682551234960556030e-02
-1.286862194538116455e-01
1.734702847898006439e-02
6.309498846530914307e-02
3.786041587591171265e-02
-8.565241843461990356e-02
-1.399376243352890015e-02
-1.046059653162956238e-01
-9.886648505926132202e-03
2.204320393502712250e-02
-1.634210050106048584e-01
6.506189703941345215e-02
1.062581315636634827e-01
-6.500105559825897217e-02
-1.472894381731748581e-02
1.774337142705917358e-01
2.315065450966358185e-02
1.663629524409770966e-02
-3.550118952989578247e-02
-2.057199552655220032e-02
-1.247610449790954590e-01
-1.273713856935501099e-01
-8.344471454620361328e-02
-7.452166825532913208e-02
-2.063972204923629761e-01
-1.917397677898406982e-01
-1.837808871641755104e-03
-6.799909472465515137e-02
3.994327038526535034e-02
1.258886477444320917e-04
-7.976561784744262695e-02
-1.583174765110015869e-01
-7.002978771924972534e-02
1.737103611230850220e-02
-8.871359378099441528e-02
1.936552673578262329e-02
-8.466200530529022217e-02
-5.633500590920448303e-02
8.632131665945053101e-02
2.086165547370910645e-02
-1.176059842109680176e-01
-1.154322251677513123e-01
4.232013598084449768e-02
-1.503055989742279053e-01
1.102105341851711273e-02
9.359581023454666138e-02
-7.611646503210067749e-02
-4.735729098320007324e-02
4.454860463738441467e-02
3.592970594763755798e-02
3.560177981853485107e-02
-3.303106501698493958e-02
5.716111510992050171e-02
-6.855927407741546631e-02
7.610818371176719666e-03
2.432223409414291382e-02
1.077526211738586426e-01
2.528033033013343811e-02
9.718458354473114014e-02
5.616487562656402588e-02
9.925692528486251831e-02
3.360424935817718506e-02
6.626022607088088989e-02
-6.963052600622177124e-02
-6.316521018743515015e-02
-5.777282267808914185e-02
-6.288728863000869751e-02
-1.171284019947052002e-01
1.359823439270257950e-02
9.119834005832672119e-02
-1.667767763137817383e-01
6.167777627706527710e-02
-1.872728317975997925e-01
-2.738838829100131989e-02
-7.995754480361938477e-02
6.530786305665969849e-02
-5.785327404737472534e-02
-1.468202378600835800e-02
3.836177289485931396e-02
-1.408205274492502213e-02
1.302564330399036407e-02
-2.687465399503707886e-02
5.083619058132171631e-02
-9.650516510009765625e-02
9.330696612596511841e-02
2.239807136356830597e-02
8.033658564090728760e-02
4.429727420210838318e-02
-1.184407342225313187e-02
4.623930528759956360e-02
-4.466734454035758972e-02
-7.688036561012268066e-02
-6.712646782398223877e-02
-8.526191115379333496e-02
-1.075750216841697693e-01
2.729682251811027527e-03
-7.645124942064285278e-02
-8.153745532035827637e-02
-3.889184445142745972e-02
1.111069470643997192e-01
2.424614736810326576e-03
-7.439730316400527954e-02
-6.142162904143333435e-02
-6.075844168663024902e-02
-7.667689770460128784e-02
-9.938719868659973145e-02
-2.590770088136196136e-02
-1.258705463260412216e-02
-5.041006207466125488e-02
-1.494437754154205322e-01
-7.404660433530807495e-02
5.016858875751495361e-02
-1.704080104827880859e-01
-1.872400380671024323e-02
1.083550136536359787e-02
1.515869982540607452e-02
-2.654156386852264404e-01
-6.672098487615585327e-02
-3.178241848945617676e-02
-3.265206469222903252e-03
1.599435321986675262e-02
-3.809263929724693298e-02
-3.621326014399528503e-02
-1.710929870605468750e-01
5.089417099952697754e-02
-1.318262666463851929e-01
-2.188140898942947388e-02
9.049524366855621338e-02
-2.292413264513015747e-01
1.594172557815909386e-03
-1.671580597758293152e-02
-4.549717903137207031e-02
-1.407495439052581787e-01
7.991631515324115753e-03
-9.724482893943786621e-02
-3.057769685983657837e-02
-1.134444996714591980e-01
2.814904749393463135e-01
1.608722656965255737e-02
-7.244072109460830688e-02
-1.367731951177120209e-02
-4.255111888051033020e-02
-2.175311325117945671e-03
-1.112044751644134521e-01
-1.083562616258859634e-02
1.399694085121154785e-01
1.012370735406875610e-02
5.746714398264884949e-02
-1.873257569968700409e-02
-9.226289391517639160e-02
-6.883040070533752441e-02
1.670416817069053650e-02
-2.202796489000320435e-01
-2.405530214309692383e-01
3.535340726375579834e-02
1.656702533364295959e-02
-1.103703677654266357e-01
-6.642891466617584229e-02
-1.571321040391921997e-01
-7.872577011585235596e-02
-6.444765627384185791e-02
5.884056538343429565e-02
9.734054654836654663e-02
3.395258635282516479e-02
-1.341986935585737228e-02
8.914934098720550537e-02
-1.634085327386856079e-01
1.091644987463951111e-01
-6.113483384251594543e-02
5.561063438653945923e-02
2.767927385866641998e-02
-7.746331393718719482e-04
4.247194621711969376e-03
8.489191532135009766e-02
1.158183440566062927e-02
-1.608171686530113220e-02
1.644577365368604660e-03
6.303165107965469360e-02
2.908022888004779816e-02
4.168640077114105225e-02
-3.396472707390785217e-02
3.004520386457443237e-02
5.956538394093513489e-02
1.627528481185436249e-02
-9.493809193372726440e-02
2.684531919658184052e-02
-9.997192770242691040e-02
-7.890900224447250366e-02
-6.050438433885574341e-02
8.571003377437591553e-02
6.438367813825607300e-02
-5.471261218190193176e-03
4.783374816179275513e-02
3.000891394913196564e-02
-7.017639279365539551e-02
1.015679724514484406e-02
-1.079001054167747498e-01
2.137495204806327820e-02
3.052127920091152191e-02
-5.240260437130928040e-02
-2.683825418353080750e-02
1.009306535124778748e-01
-9.456969052553176880e-02
1.512918621301651001e-01
2.329971268773078918e-02
-1.976826637983322144e-01
-3.555324673652648926e-02
8.985737711191177368e-02
-1.435709744691848755e-01
-1.257141977548599243e-01
5.511855706572532654e-03
6.548011675477027893e-03
1.904174983501434326e-01
5.533830821514129639e-02
6.010511890053749084e-02
1.069493591785430908e-01
-5.941593553870916367e-03
-1.302265673875808716e-01
5.759648978710174561e-03
-3.349648416042327881e-02
-7.607231289148330688e-02
2.947700396180152893e-02
3.238822333514690399e-03
-3.311440115794539452e-03
1.376817375421524048e-01
5.547077208757400513e-02
-1.899065263569355011e-02
-6.193694099783897400e-02
2.568469755351543427e-02
9.745154529809951782e-02
1.510224193334579468e-01
-3.712853044271469116e-02
1.182801835238933563e-02
9.597562998533248901e-02
3.927562758326530457e-02
4.744011163711547852e-02
4.089273884892463684e-02
-3.743996098637580872e-02
-5.986208841204643250e-02
1.537439376115798950e-01
2.611878886818885803e-02
-1.497193872928619385e-01
-2.430409006774425507e-02
-6.381949782371520996e-02
1.405992452055215836e-02
-1.849101334810256958e-01
-8.345038443803787231e-02
4.920042678713798523e-02
2.095925249159336090e-02
4.599467664957046509e-02
-1.587085425853729248e-01
-1.041854768991470337e-01
1.462358087301254272e-01
3.786162659525871277e-02
-1.454777177423238754e-02
4.613885655999183655e-03
1.164066884666681290e-02
1.202491000294685364e-01
1.680337078869342804e-02
1.921785809099674225e-02
-7.462929934263229370e-02
-7.258301228284835815e-02
-5.188133940100669861e-02
1.365286409854888916e-01
3.391775535419583321e-03
-5.110654607415199280e-02
4.863264411687850952e-02
3.141026198863983154e-02
-4.666651785373687744e-02
-7.017233222723007202e-02
-8.915649354457855225e-02
-1.110529974102973938e-01
5.612261593341827393e-02
-8.922968804836273193e-02
-3.891363367438316345e-02
-6.404128670692443848e-02
3.802562877535820007e-02
3.772016614675521851e-02
1.495493110269308090e-02
7.160937041044235229e-02
4.590794444084167480e-02
-1.294195950031280518e-01
-1.367072388529777527e-02
-9.687550365924835205e-03
5.757110565900802612e-02
-6.045260280370712280e-02
-1.131381019949913025e-01
4.528028145432472229e-02
3.668341040611267090e-02
-9.335666894912719727e-02
7.568924129009246826e-02
3.086098656058311462e-02
1.229187324643135071e-01
9.749417193233966827e-03
9.026457369327545166e-02
2.228603884577751160e-02
9.390180930495262146e-03
-1.084495037794113159e-01
1.068220213055610657e-01
-4.579185694456100464e-02
4.121281951665878296e-02
1.901691779494285583e-02
-2.484230138361454010e-02
8.214233070611953735e-02
1.513218432664871216e-01
-2.456445991992950439e-02
-8.994964510202407837e-02
4.438900202512741089e-02
1.913306117057800293e-02
-1.229529269039630890e-02
8.738225698471069336e-02
2.030814252793788910e-02
1.673431098461151123e-01
2.100446261465549469e-03
-2.285118773579597473e-02
5.940003320574760437e-02
-1.096834149211645126e-02
-1.805906184017658234e-02
7.447970658540725708e-02
-7.869944907724857330e-03
-1.156218051910400391e-01
-1.491792052984237671e-01
7.205235213041305542e-02
-6.596927344799041748e-02
-1.645767129957675934e-02
5.451146978884935379e-03
-2.075362578034400940e-02
4.264440387487411499e-02
1.647978872060775757e-01
6.859427690505981445e-02
-1.245919615030288696e-01
7.690154016017913818e-02
-1.105173602700233459e-01
7.579881697893142700e-02
-9.579809755086898804e-02
5.012113600969314575e-02
8.533882349729537964e-02
1.880689859390258789e-01
-1.417052149772644043e-01
-1.477899998426437378e-01
-6.337970495223999023e-02
-1.506324508227407932e-03
-1.732794046401977539e-01
3.538323938846588135e-02
-9.056832641363143921e-02
8.002530783414840698e-02
3.919837251305580139e-02
-1.641643345355987549e-01
-1.492872089147567749e-01
3.499074652791023254e-02
-4.128579795360565186e-02
2.136260829865932465e-02
-1.759668253362178802e-02
-1.998249627649784088e-02
-5.900934338569641113e-02
-9.411158412694931030e-02
1.444623619318008423e-01
2.406857535243034363e-02
2.944198064506053925e-02
-6.671166419982910156e-02
-2.615837380290031433e-02
-1.142267882823944092e-02
-6.108898669481277466e-02
-2.537517808377742767e-02
5.491567030549049377e-02
-9.942667186260223389e-02
6.429715454578399658e-02
1.211023032665252686e-01
2.912537567317485809e-02
-2.476960122585296631e-01
-1.315742582082748413e-01
1.023437920957803726e-02
-5.002492666244506836e-02
-1.776654645800590515e-02
-7.134760916233062744e-02
-9.642218053340911865e-02
-1.339118331670761108e-01
-1.507711112499237061e-01
2.403226494789123535e-02
1.938328891992568970e-02
-1.017767749726772308e-02
1.059311553835868835e-01
5.064323917031288147e-02
5.608133226633071899e-02
-6.443125661462545395e-03
-5.246346071362495422e-02
1.394258625805377960e-02
4.520434886217117310e-02
9.116624295711517334e-02
5.326327309012413025e-02
3.975821658968925476e-02
-4.435046017169952393e-02
1.070980429649353027e-01
4.909244552254676819e-02
-1.735455542802810669e-02
1.950374543666839600e-01
1.118413433432579041e-01
-7.975751906633377075e-02
2.536809444427490234e-02
7.280190289020538330e-02
1.171981617808341980e-01
-8.486126363277435303e-02
-1.806410588324069977e-02
-8.217775076627731323e-02
-3.555092215538024902e-02
3.972430899739265442e-02
-6.267490983009338379e-02
-1.220566555857658386e-01
2.959303674288094044e-04
1.279333978891372681e-01
7.655411958694458008e-02
3.543758019804954529e-02
1.837715692818164825e-02
1.621295362710952759e-01
2.713933028280735016e-02
-4.647282510995864868e-02
-9.581502526998519897e-03
-5.666864290833473206e-02
-6.075201928615570068e-02
4.534940421581268311e-02
-1.219226568937301636e-01
-1.866249949671328068e-03
1.677871681749820709e-02
2.226422727108001709e-02
-1.030985033139586449e-03
4.940358176827430725e-02
-2.187721990048885345e-02
3.663099557161331177e-02
3.866986185312271118e-02
-1.899314112961292267e-03
-3.276065886020660400e-01
-4.822080582380294800e-02
-1.327864825725555420e-01
1.346566155552864075e-02
1.006798585876822472e-03
-8.369746804237365723e-02
6.023630872368812561e-02
8.495262265205383301e-02
-1.845800131559371948e-02
6.662640720605850220e-02
-5.818723887205123901e-02
-1.804860308766365051e-02
-5.554333329200744629e-02
7.301388308405876160e-03
-9.266953915357589722e-02
-7.018493860960006714e-02
-8.464314043521881104e-02
4.522202163934707642e-02
-6.577312201261520386e-02
-2.393722720444202423e-02
-1.735886186361312866e-01
-4.138383641839027405e-02
-3.131138533353805542e-02
-7.537480443716049194e-03
-6.782175600528717041e-02
3.218497335910797119e-02
-4.380281642079353333e-02
-1.235376745462417603e-01
3.838580846786499023e-02
-1.590369939804077148e-01
-2.309053763747215271e-02
1.072180364280939102e-02
-2.726268395781517029e-02
-1.543827801942825317e-01
4.777827858924865723e-02
-2.679083123803138733e-02
-1.062027644366025925e-02
-8.970598876476287842e-02
-1.819356083869934082e-01
6.236793100833892822e-02
2.491408027708530426e-02
-3.559391945600509644e-03
-1.291112005710601807e-01
-6.068605929613113403e-02
5.065982788801193237e-02
-6.495984643697738647e-02
-8.287795633077621460e-02
-1.881411671638488770e-02
1.045353803783655167e-02
3.301117569208145142e-02
-7.898772135376930237e-03
-1.113357990980148315e-01
-3.018019907176494598e-02
3.421287611126899719e-02
7.059485465288162231e-02
-6.700069457292556763e-02
-4.752157628536224365e-02
5.877629294991493225e-02
-1.002575159072875977e-01
-1.402297019958496094e-01
6.952940672636032104e-02
-1.425700038671493530e-01
-5.995807796716690063e-02
2.097217738628387451e-02
-1.072306092828512192e-02
-1.959357783198356628e-02
-9.587025642395019531e-02
-1.693629175424575806e-01
-3.280828706920146942e-03
4.178776964545249939e-02
-1.426293551921844482e-01
-6.287001073360443115e-02
-9.928283840417861938e-02
-5.639045685529708862e-02
1.627586409449577332e-02
-7.988034188747406006e-02
7.536469399929046631e-02
-1.198704261332750320e-02
-5.356696248054504395e-02
-6.922233849763870239e-02
-1.229352224618196487e-02
-6.708368659019470215e-02
-4.403319582343101501e-02
8.497776836156845093e-02
5.516594648361206055e-02
-2.119442634284496307e-02
5.019337683916091919e-02
-6.462521106004714966e-02
3.008486703038215637e-02
-8.645297959446907043e-03
-8.398248255252838135e-02
2.335177659988403320e-01
-5.709781497716903687e-02
5.570061132311820984e-02
2.920956909656524658e-02
-9.468514472246170044e-02
2.849153243005275726e-03
-9.163628518581390381e-02
7.394866552203893661e-03
-3.615614399313926697e-02
-4.913728311657905579e-02
-1.112430095672607422e-01
4.301719367504119873e-02
-1.077260524034500122e-01
-4.048649966716766357e-02
-4.847740754485130310e-02
-2.344173379242420197e-02
-8.015894144773483276e-02
2.239476144313812256e-02
-8.381581306457519531e-02
-6.461734324693679810e-02
-8.724574744701385498e-02
-1.647451892495155334e-02
-4.569723084568977356e-02
-4.888065159320831299e-02
9.858692437410354614e-02
-8.138534426689147949e-02
6.813915073871612549e-02
-5.248302593827247620e-02
-5.559356883168220520e-02
-4.278518259525299072e-02
-8.667647838592529297e-02
-5.747908726334571838e-02
-4.605444148182868958e-02
-8.631571382284164429e-02
-1.489764750003814697e-01
1.696742698550224304e-02
5.981691181659698486e-03
-4.982383921742439270e-02
-9.783683717250823975e-02
-1.111418306827545166e-01
2.436403185129165649e-02
-1.124534830451011658e-01
-7.221166044473648071e-02
1.944528706371784210e-02
-3.290168941020965576e-03
6.984981149435043335e-02
1.657213456928730011e-02
-3.614462912082672119e-02
-9.119630604982376099e-02
-1.772201657295227051e-01
3.411812707781791687e-02
9.194305166602134705e-03
2.665654569864273071e-02
-3.463997691869735718e-02
1.139138985308818519e-04
-7.880625315010547638e-03
1.817808151245117188e-01
7.073578238487243652e-02
3.337713703513145447e-02
-7.373331487178802490e-02
7.341697067022323608e-02
-3.221957385540008545e-02
1.109060924500226974e-02
-6.002134829759597778e-02
-8.718390949070453644e-03
5.970900878310203552e-02
-1.478540897369384766e-01
-3.391620144248008728e-02
-2.326491475105285645e-02
6.347130984067916870e-02
-1.073331013321876526e-01
-3.573691472411155701e-02
4.528376739472150803e-03
-5.717774108052253723e-02
-8.240183442831039429e-02
1.026644185185432434e-02
-9.598184376955032349e-03
-3.861840814352035522e-02
-8.033931255340576172e-03
-1.426295936107635498e-01
-1.077758148312568665e-01
2.980001037940382957e-03
-1.653520576655864716e-02
1.507094223052263260e-02
-1.481836885213851929e-01
5.285699665546417236e-02
-6.879337131977081299e-02
6.994400639086961746e-03
-8.395732939243316650e-02
-8.563809841871261597e-02
-2.372670732438564301e-02
-5.649066716432571411e-02
-8.490732312202453613e-02
-2.077176049351692200e-02
1.555401384830474854e-01
-1.371472775936126709e-01
-1.486124396324157715e-01
-8.378186076879501343e-02
-6.642211228609085083e-02
-1.829047687351703644e-02
-9.322515875101089478e-02
-2.079721689224243164e-01
-6.688815355300903320e-02
-4.828973487019538879e-02
-8.355225622653961182e-02
-1.455150693655014038e-01
7.649192586541175842e-03
-2.271535806357860565e-02
-2.956432849168777466e-02
4.667265713214874268e-02
-8.564483374357223511e-02
-8.987940847873687744e-02
-2.900813333690166473e-02
5.609281361103057861e-02
-1.716261170804500580e-02
-4.882234334945678711e-02
-1.097011193633079529e-01
-1.076446175575256348e-01
3.489156812429428101e-02
-1.918718814849853516e-01
3.044509515166282654e-02
-7.009209133684635162e-03
-1.003640219569206238e-01
-6.708189845085144043e-02
-9.288741648197174072e-02
-6.543286610394716263e-03
-1.642763018608093262e-01
-6.825730670243501663e-03
-9.096989780664443970e-02
-3.107995167374610901e-02
-7.745096832513809204e-02
-1.011396348476409912e-01
-8.515628427267074585e-02
-5.682209972292184830e-03
-1.773106120526790619e-02
-6.000917032361030579e-02
4.053973406553268433e-02
-2.085454203188419342e-02
-1.516763865947723389e-01
-1.418457776308059692e-01
2.371837943792343140e-02
-6.787829101085662842e-02
-8.092225342988967896e-02
2.737811766564846039e-02
-7.194686681032180786e-02
-9.650332480669021606e-02
-3.495835885405540466e-02
-7.729895412921905518e-02
-8.483392000198364258e-02
-3.891318291425704956e-02
-1.085861027240753174e-02
-5.435755848884582520e-02
-1.720089279115200043e-02
-1.709108054637908936e-01
2.723543904721736908e-02
-6.802848726511001587e-02
2.782197669148445129e-02
-1.031031385064125061e-01
7.310487329959869385e-02
-7.044024020433425903e-02
-3.636912629008293152e-02
4.723190143704414368e-02
-9.809829294681549072e-02
3.101371228694915771e-02
-8.686894923448562622e-02
-6.296666711568832397e-02
-9.741561859846115112e-02
6.636919826269149780e-02
-4.807102680206298828e-02
-4.030996467918157578e-03
2.287677302956581116e-02
3.531074896454811096e-02
-9.614568948745727539e-02
1.618978381156921387e-01
2.796757500618696213e-03
-1.195065975189208984e-01
1.481134295463562012e-01
-7.031849818304181099e-04
2.123011648654937744e-02
8.474209159612655640e-02
5.982978641986846924e-02
-3.163187205791473389e-01
-4.751966800540685654e-03
7.425074279308319092e-02
-1.120458394289016724e-01
-4.548018053174018860e-02
-5.077386274933815002e-03
1.157458499073982239e-02
6.502679735422134399e-02
-2.157898098230361938e-01
-1.636886410415172577e-02
-2.146749198436737061e-02
-1.164516434073448181e-01
-1.268136315047740936e-02
-9.710388258099555969e-04
-2.818561391904950142e-03
-1.564031541347503662e-01
8.541575819253921509e-02
3.634070605039596558e-02
1.639799475669860840e-01
-1.313356496393680573e-02
1.063215658068656921e-01
8.901124965632334352e-05
-1.299905776977539062e-01
-3.665205091238021851e-02
1.830033808946609497e-01
-1.821625605225563049e-02
-6.489005684852600098e-02
-3.357289358973503113e-02
-1.275328993797302246e-01
-1.535169929265975952e-01
1.169283390045166016e-01
1.312282681465148926e-01
-3.905308665707707405e-03
2.360088676214218140e-01
-5.384831223636865616e-03
3.630535677075386047e-02
-1.467908769845962524e-01
-1.421814505010843277e-02
-1.171972136944532394e-02
4.150875657796859741e-02
9.878383576869964600e-02
-1.879765838384628296e-01
-9.151850640773773193e-02
-8.779697120189666748e-02
-1.521017588675022125e-02
1.225039064884185791e-01
-1.044585369527339935e-02
-1.035522595047950745e-01
-5.938470736145973206e-02
-1.476152092218399048e-01
6.550444662570953369e-02
6.134257838129997253e-02
-4.104766249656677246e-02
6.111620739102363586e-02
-3.859428316354751587e-02
8.206412196159362793e-02
1.946844346821308136e-02
-3.505463898181915283e-02
1.935132220387458801e-02
-6.755361706018447876e-02
-3.749362379312515259e-02
-2.875555157661437988e-01
-9.194799512624740601e-02
8.703551441431045532e-02
1.325181312859058380e-02
6.816282868385314941e-02
4.099257290363311768e-02
-1.251145601272583008e-01
3.448945283889770508e-02
-5.056446418166160583e-02
-7.356855273246765137e-02
8.222608268260955811e-02
1.348998248577117920e-01
8.507658541202545166e-02
1.347386986017227173e-01
5.520542711019515991e-02
-6.689926236867904663e-02
8.345390111207962036e-02
1.118384185247123241e-03
-1.207242384552955627e-01
-1.289064586162567139e-01
-8.864931762218475342e-02
-4.611274227499961853e-02
-3.851673379540443420e-02
-5.446266010403633118e-02
-1.124044880270957947e-01
-3.467950737103819847e-03
3.833516314625740051e-02
7.796452939510345459e-02
-5.167043954133987427e-02
-1.069326177239418030e-01
1.751436851918697357e-02
-4.118379577994346619e-02
7.985974848270416260e-02
-8.622397668659687042e-03
-1.080236807465553284e-01
-1.905139721930027008e-02
-1.069970056414604187e-01
-4.489232227206230164e-02
1.946130543947219849e-01
-6.479357182979583740e-02
-9.450223878957331181e-04
-9.528055787086486816e-02
9.672653675079345703e-02
-7.591459900140762329e-02
-6.983123719692230225e-02
-6.481299176812171936e-03
3.255768492817878723e-02
6.361612584441900253e-03
-5.932104960083961487e-02
4.510381445288658142e-02
-1.231558248400688171e-01
-1.050248518586158752e-01
8.401811122894287109e-02
-7.713609933853149414e-02
7.528962939977645874e-02
-2.546139359474182129e-01
-7.992751151323318481e-02
-2.199224568903446198e-02
-9.668546169996261597e-02
7.387116551399230957e-02
-3.053684905171394348e-02
-3.571904450654983521e-02
1.251337677240371704e-01
-7.724704593420028687e-02
-8.213038556277751923e-03
9.001332521438598633e-02
9.130563586950302124e-03
-8.013872802257537842e-02
-1.872476190328598022e-01
1.869738399982452393e-01
-1.879448443651199341e-01
1.632326096296310425e-01
1.570870168507099152e-02
1.016127765178680420e-01
8.055976359173655510e-04
7.394257187843322754e-02
-8.094099164009094238e-02
-7.633096724748611450e-02
1.239057555794715881e-01
5.630379542708396912e-02
1.286219805479049683e-01
-1.018861755728721619e-01
-1.455181688070297241e-01
-6.730678956955671310e-03
1.518911775201559067e-02
2.106653526425361633e-02
-6.748920679092407227e-02
1.191680878400802612e-01
9.951598197221755981e-02
3.015282563865184784e-02
3.611771017313003540e-02
-1.249959990382194519e-01
6.313978135585784912e-02
2.144146710634231567e-01
5.637650610879063606e-04
9.862236678600311279e-02
-1.667971611022949219e-01
-7.069850713014602661e-02
6.565272063016891479e-02
-6.097377743571996689e-03
-1.003143340349197388e-01
8.665974438190460205e-02
5.064107850193977356e-02
-2.795403450727462769e-02
1.735123097896575928e-01
-1.088571548461914062e-01
1.149157285690307617e-01
1.055622249841690063e-01
-9.989613294601440430e-02
-1.130655314773321152e-02
8.681966923177242279e-03
1.525557488203048706e-01
-1.272956728935241699e-01
2.552075497806072235e-02
-1.469027549028396606e-01
3.223384544253349304e-02
-5.436639487743377686e-02
8.379179984331130981e-02
-1.667718738317489624e-01
-7.573983073234558105e-02
-3.729571774601936340e-02
-1.150725111365318298e-01
-1.419775038957595825e-01
-7.255309820175170898e-02
9.957402944564819336e-02
5.113174393773078918e-02
-1.386189609766006470e-01
-1.705882996320724487e-01
-5.731662735342979431e-02
-9.063389152288436890e-03
-3.131559863686561584e-02
-1.236440837383270264e-01
1.422166824340820312e-01
-4.464335739612579346e-02
1.981489919126033783e-02
4.673036746680736542e-03
2.580284606665372849e-03
1.916447468101978302e-02
6.886106729507446289e-02
-7.477357983589172363e-02
-1.267354562878608704e-02
-3.366516157984733582e-02
9.273640066385269165e-02
-1.300242543220520020e-01
-1.560306847095489502e-01
5.241579562425613403e-02
5.226293951272964478e-02
-3.285811468958854675e-02
-4.315390437841415405e-02
1.454684287309646606e-01
-2.151412330567836761e-02
3.024436533451080322e-02
-6.302598118782043457e-02
1.219730824232101440e-01
-8.690563589334487915e-02
1.302116364240646362e-01
-5.201480910181999207e-02
-1.047231853008270264e-01
-1.095207110047340393e-01
2.433413639664649963e-02
-4.792627692222595215e-02
-1.451618075370788574e-01
-1.351020857691764832e-02
-7.885408587753772736e-03
-1.026942431926727295e-01
-1.107152774930000305e-01
1.236009821295738220e-01
-1.273413468152284622e-02
-4.611777141690254211e-02
-8.094257116317749023e-02
1.036523357033729553e-01
7.484699785709381104e-02
7.533944398164749146e-02
-1.056635379791259766e-01
1.048144549131393433e-01
-1.394670456647872925e-01
4.431341961026191711e-02
3.613593429327011108e-02
9.397689998149871826e-02
-1.030468493700027466e-01
5.664500221610069275e-02
-7.715245336294174194e-02
7.404815405607223511e-02
7.413323968648910522e-02
8.792576938867568970e-02
-6.028288602828979492e-02
-5.236797034740447998e-02
6.266967952251434326e-02
-8.570405095815658569e-02
-2.805126011371612549e-01
-9.410403668880462646e-02
9.558587521314620972e-02
1.607673987746238708e-02
-5.152381584048271179e-02
8.814972639083862305e-02
-4.439548403024673462e-02
1.150343101471662521e-02
5.631107091903686523e-02
6.588497757911682129e-02
-3.625707700848579407e-02
-1.291919313371181488e-02
5.704782158136367798e-02
-8.255591243505477905e-02
1.294743716716766357e-01
5.665323510766029358e-02
-4.019081220030784607e-02
-1.549671590328216553e-01
-2.469122409820556641e-02
-9.695671498775482178e-02
-4.902690649032592773e-02
2.040949091315269470e-02
-2.149275876581668854e-02
-7.469126582145690918e-02
-9.166351705789566040e-02
-9.654392488300800323e-03
7.145243138074874878e-02
-2.745709121227264404e-01
-2.722580544650554657e-02
3.160439431667327881e-02
5.754705984145402908e-03
8.977438509464263916e-02
-2.340001054108142853e-02
-1.146470084786415100e-01
-6.583954393863677979e-02
-8.776394650340080261e-03
3.172868117690086365e-02
-1.985086649656295776e-01
-3.010535240173339844e-02
5.899032577872276306e-03
-2.465511485934257507e-02
7.535456120967864990e-02
-1.227885633707046509e-01
4.126951098442077637e-02
-5.143288522958755493e-02
-2.806548029184341431e-02
2.604165486991405487e-02
-1.209083348512649536e-01
6.077275797724723816e-02
-2.089161239564418793e-02
-2.298987284302711487e-02
1.079754903912544250e-01
-8.384025096893310547e-02
-6.232481822371482849e-02
-7.505693286657333374e-02
-8.782227337360382080e-02
-3.107306361198425293e-02
-8.551948517560958862e-02
9.202422946691513062e-02
-4.130412638187408447e-02
3.698603436350822449e-02
1.106146350502967834e-02
-1.713966727256774902e-01
3.347499668598175049e-02
-3.488161414861679077e-02
-9.606602042913436890e-02
7.233862578868865967e-02
4.140330478549003601e-02
4.299382120370864868e-02
-3.897958993911743164e-02
-2.337494492530822754e-02
-9.511159360408782959e-02
-4.043634235858917236e-02
-2.230954170227050781e-02
4.060322418808937073e-03
9.653777629137039185e-02
-2.274754224345088005e-03
1.117261126637458801e-01
3.294342430308461189e-03
-1.334416270256042480e-01
-3.055230900645256042e-02
-1.060485765337944031e-01
-1.158631518483161926e-01
-8.993463218212127686e-02
-6.985568255186080933e-02
5.691786110401153564e-02
-4.005784168839454651e-02
1.487039681524038315e-02
-1.990449726581573486e-01
-2.631278149783611298e-02
6.940731778740882874e-03
-7.251978665590286255e-02
5.899065732955932617e-02
8.735672384500503540e-02
4.745600745081901550e-02
5.594111233949661255e-02
9.484738111495971680e-02
-8.858776837587356567e-02
-3.267841786146163940e-02
-2.062110975384712219e-02
9.899700433015823364e-02
-8.505019359290599823e-03
1.288157654926180840e-03
3.626962006092071533e-02
-2.771298587322235107e-01
2.819703891873359680e-02
-1.339605301618576050e-01
6.155403703451156616e-02
-8.307580836117267609e-03
1.026313602924346924e-01
-9.307214990258216858e-03
-6.419631838798522949e-02
7.647900283336639404e-02
9.210621565580368042e-02
5.104727670550346375e-02
1.067156791687011719e-01
-6.824349611997604370e-02
-1.085264161229133606e-01
-9.877159446477890015e-02
-1.094228774309158325e-01
-8.114946633577346802e-02
-2.454946190118789673e-02
-1.323842350393533707e-02
-3.870813921093940735e-02
-1.038121711462736130e-02
-2.200747877359390259e-01
7.165861129760742188e-02
5.105397477746009827e-02
3.996631875634193420e-02
2.160303108394145966e-02
-1.053658574819564819e-01
-1.098649352788925171e-01
7.080446463078260422e-03
-1.135419905185699463e-01
-6.824734807014465332e-02
-1.319618970155715942e-01
-1.021731942892074585e-01
6.194247398525476456e-03
4.161017760634422302e-02
1.032670065760612488e-01
3.992323577404022217e-02
6.812066584825515747e-02
-1.055194959044456482e-01
-1.344157308340072632e-01
1.335643930360674858e-03
1.209029555320739746e-01
-1.432464718818664551e-01
-3.596172109246253967e-02
-5.770642310380935669e-02
-7.224973291158676147e-02
-9.390994906425476074e-03
-1.508994400501251221e-01
-5.135275796055793762e-02
-1.028384491801261902e-01
-1.819391697645187378e-01
-1.030877679586410522e-01
-1.041352748870849609e-01
-4.803138598799705505e-02
-1.736806035041809082e-01
-1.210443004965782166e-01
-1.548208594322204590e-01
7.923548668622970581e-02
-1.436899751424789429e-01
-3.508812561631202698e-02
-1.274591684341430664e-01
-5.113929882645606995e-02
-7.626345753669738770e-02
-3.964643925428390503e-02
-1.379147619009017944e-01
2.925768494606018066e-02
2.452481165528297424e-02
7.831430435180664062e-02
6.634358316659927368e-02
-5.416103824973106384e-02
-1.792700588703155518e-01
9.848587960004806519e-02
-7.433193922042846680e-02
-2.382813254371285439e-04
-3.309261426329612732e-02
-9.357622265815734863e-02
-1.097540091723203659e-02
1.292043179273605347e-01
6.728990375995635986e-02
-2.610726095736026764e-02
-5.859100818634033203e-02
2.331772260367870331e-02
-3.900584951043128967e-02
-7.947249710559844971e-02
1.124556176364421844e-02
1.569735854864120483e-01
-1.347727328538894653e-01
-3.932484984397888184e-02
7.768699526786804199e-02
-1.392405666410923004e-02
-7.814644835889339447e-03
7.852987945079803467e-02
-2.296965755522251129e-02
1.838630288839340210e-01
-1.843420267105102539e-01
-2.080449461936950684e-01
-1.296260803937911987e-01
3.597027435898780823e-02
2.782683447003364563e-02
-1.231859922409057617e-01
-4.669893160462379456e-02
-3.954954817891120911e-02
4.601760953664779663e-02
2.064252831041812897e-02
2.219722121953964233e-01
-5.644467473030090332e-02
5.313908681273460388e-02
1.666056811809539795e-01
-4.438000544905662537e-02
-2.850958891212940216e-02
-1.865389496088027954e-01
-2.709243297576904297e-01
1.429575216025114059e-02
3.691619634628295898e-02
3.800225257873535156e-02
-4.149433597922325134e-02
7.274225354194641113e-02
-3.292934969067573547e-02
7.566501945257186890e-02
-1.611940115690231323e-01
-7.092119194567203522e-03
-6.336955726146697998e-02
1.079567074775695801e-01
7.832390069961547852e-02
1.537628937512636185e-02
5.013460665941238403e-02
7.714129984378814697e-02
-6.589654833078384399e-02
8.626464009284973145e-02
6.091121211647987366e-02
1.144319549202919006e-01
-1.648326637223362923e-03
-6.719875335693359375e-02
1.066424399614334106e-01
8.206698298454284668e-02
-2.451622635126113892e-01
5.526028573513031006e-02
1.160175353288650513e-01
1.269481331110000610e-01
4.846850037574768066e-02
2.652950398623943329e-02
1.973527856171131134e-02
3.949663788080215454e-02
-1.674296855926513672e-01
-3.076467290520668030e-02
1.511419266462326050e-01
1.210760250687599182e-01
-1.148298033513128757e-03
-3.168785199522972107e-02
-3.399914503097534180e-02
-5.431620404124259949e-02
2.132177911698818207e-02
1.025583073496818542e-01
-6.624353677034378052e-02
1.222337409853935242e-01
7.129698246717453003e-02
-1.550120650790631771e-03
-4.041387699544429779e-03
-4.198558256030082703e-02
1.108708530664443970e-01
2.407893911004066467e-02
-6.379220634698867798e-02
4.203106090426445007e-02
1.671878062188625336e-02
-8.370471000671386719e-02
-1.212564855813980103e-02
-7.951173931360244751e-02
-2.295786887407302856e-02
-8.937682956457138062e-02
-2.366644330322742462e-02
2.885147230699658394e-03
4.833389073610305786e-02
9.680137783288955688e-02
-4.953065514564514160e-02
2.105511352419853210e-02
-2.549432776868343353e-02
2.491430938243865967e-02
-1.367953605949878693e-02
-6.277872622013092041e-02
-3.775031864643096924e-02
-3.645193995907902718e-03
-1.057568341493606567e-01
-4.160220175981521606e-02
5.056246183812618256e-03
2.400862053036689758e-02
-7.007033377885818481e-02
2.309086918830871582e-02
-5.372243002057075500e-02
-6.976599991321563721e-02
-1.577294915914535522e-01
8.135388046503067017e-02
-5.514851957559585571e-02
7.646453566849231720e-03
-4.147879779338836670e-02
3.631530329585075378e-02
-9.061473608016967773e-02
-7.752988487482070923e-03
-5.583535134792327881e-02
8.048298209905624390e-02
-6.751615554094314575e-02
-1.026658713817596436e-02
-1.016666144132614136e-01
5.442500486969947815e-02
-1.519937366247177124e-01
-9.508823603391647339e-02
-9.907508641481399536e-02
-3.247495368123054504e-02
-2.591656148433685303e-02
6.265041977167129517e-02
-1.497478038072586060e-01
-3.225660696625709534e-02
-4.088889062404632568e-02
-2.165718525648117065e-01
-2.688627503812313080e-02
5.755029618740081787e-02
-5.991218611598014832e-02
9.150413423776626587e-02
-2.049368023872375488e-01
-6.395348906517028809e-02
-1.191094741225242615e-01
4.483772069215774536e-02
-9.531766176223754883e-02
-9.026663005352020264e-02
-6.630965322256088257e-02
4.386493563652038574e-02
-5.447724089026451111e-02
-3.188405930995941162e-02
-1.387832313776016235e-01
4.153426736593246460e-02
-1.601924560964107513e-02
2.823278307914733887e-02
-2.114131152629852295e-01
-8.948621107265353203e-04
-1.707745492458343506e-01
1.191818062216043472e-02
7.976987957954406738e-02
-3.801298886537551880e-02
4.288960620760917664e-02
-1.202372163534164429e-01
1.662981808185577393e-01
-2.475124225020408630e-02
1.994239911437034607e-02
-9.936645627021789551e-02
-5.149085074663162231e-02
-7.330061495304107666e-02
-6.739505380392074585e-02
-6.212138570845127106e-03
-1.251919660717248917e-02
-9.777147322893142700e-02
-1.056452393531799316e-01
6.193363107740879059e-03
7.220683619379997253e-03
-4.236003756523132324e-02
3.610531240701675415e-02
-1.526903659105300903e-01
1.090135872364044189e-01
-9.825057536363601685e-02
3.316575195640325546e-03
-2.013728171586990356e-01
-2.349087502807378769e-03
2.557319961488246918e-02
-1.238810941576957703e-01
9.515911340713500977e-02
-1.155950650572776794e-01
-2.864398062229156494e-03
4.497374221682548523e-02
-1.641553491353988647e-01
-1.406968683004379272e-01
-3.463384136557579041e-02
9.727660566568374634e-02
2.759004477411508560e-03
-2.684627100825309753e-02
2.986085973680019379e-02
4.030518606305122375e-02
-8.047240972518920898e-02
-1.312612439505755901e-03
1.223384961485862732e-02
-1.287630498409271240e-01
-5.066533386707305908e-02
8.079753257334232330e-03
8.964513987302780151e-02
7.609209511429071426e-03
1.755451560020446777e-01
-1.127440035343170166e-01
4.261154972482472658e-04
3.984180465340614319e-02
-5.554187297821044922e-02
-8.551258593797683716e-03
-1.687431484460830688e-01
-9.552903473377227783e-02
-5.598339065909385681e-02
3.761998564004898071e-02
-9.065447002649307251e-02
-9.538494981825351715e-03
-1.024946570396423340e-01
-7.834047824144363403e-02
-3.179255872964859009e-02
-2.042719423770904541e-01
9.893602132797241211e-02
-5.470168218016624451e-02
2.721581794321537018e-02
6.976558361202478409e-03
-1.109428983181715012e-02
1.692298613488674164e-02
4.539066180586814880e-02
1.070555299520492554e-01
-1.486345659941434860e-02
-4.272547364234924316e-02
5.594842601567506790e-03
9.253019094467163086e-02
-4.314864426851272583e-02
6.440057605504989624e-02
-5.256543308496475220e-02
9.481913596391677856e-02
8.283080160617828369e-02
-3.442557528614997864e-02
-9.181170165538787842e-02
-1.733296513557434082e-01
7.454201579093933105e-02
-3.415564447641372681e-02
-6.523676961660385132e-02
-4.218317102640867233e-03
-1.263142228126525879e-01
-2.055522985756397247e-02
-6.696369498968124390e-02
-1.502186525613069534e-02
-4.160659015178680420e-02
1.096792891621589661e-01
-1.360082030296325684e-01
-2.399546802043914795e-01
2.964231558144092560e-02
-7.939817756414413452e-02
-5.016434192657470703e-02
-1.398692876100540161e-01
1.298827230930328369e-01
-1.114697903394699097e-01
-1.021657809615135193e-01
-1.313405483961105347e-01
3.118086419999599457e-02
9.920443594455718994e-02
-7.383890450000762939e-02
-1.135437935590744019e-01
-1.088806390762329102e-01
8.766227960586547852e-02
6.794149428606033325e-02
1.289716660976409912e-01
1.327594071626663208e-01
1.444831490516662598e-01
-1.014545466750860214e-02
5.771800130605697632e-02
-1.061561852693557739e-01
2.360111102461814880e-02
1.359891444444656372e-01
-1.339248418807983398e-01
3.935106843709945679e-02
1.692079380154609680e-02
-1.648339629173278809e-01
-4.783931374549865723e-02
2.588811039458960295e-04
-1.666114032268524170e-01
-6.410962343215942383e-02
-9.703998267650604248e-02
-3.636486828327178955e-02
1.394488215446472168e-01
8.610188961029052734e-03
4.020201414823532104e-02
8.049202710390090942e-02
-5.455790460109710693e-02
-1.360280811786651611e-01
-1.028749793767929077e-01
6.413381546735763550e-03
-7.669865339994430542e-02
8.038095384836196899e-02
-1.225931495428085327e-01
1.974193379282951355e-03
-4.185866191983222961e-02
-5.502892285585403442e-02
-4.003902897238731384e-02
1.135655343532562256e-01
-3.082367777824401855e-02
-2.208824642002582550e-02
9.829869121313095093e-02
-6.959908455610275269e-02
-1.263505872339010239e-02
-8.326884359121322632e-02
-6.287289410829544067e-02
-7.532725483179092407e-02
3.322006762027740479e-02
3.317036479711532593e-02
5.164768919348716736e-02
6.745453923940658569e-02
1.272942125797271729e-01
-8.954143524169921875e-02
4.557297751307487488e-02
-1.013868153095245361e-01
-8.325269818305969238e-02
7.367630302906036377e-02
-8.405688405036926270e-02
-2.073881179094314575e-01
-9.833705425262451172e-02
-2.694823592901229858e-02
-5.226038396358489990e-02
2.131053479388356209e-03
8.075582981109619141e-02
-4.460800811648368835e-02
-2.134695649147033691e-02
-7.509124279022216797e-02
-1.345066428184509277e-01
1.653568893671035767e-01
-3.548806160688400269e-02
-1.260672360658645630e-01
3.050492517650127411e-02
-2.377095259726047516e-02
1.286700926721096039e-02
6.094864755868911743e-02
-3.839969402179121971e-03
-6.648329086601734161e-03
-2.778745293617248535e-01
8.701021224260330200e-02
1.006868556141853333e-01
-1.741548441350460052e-02
4.324071481823921204e-02
-1.031204760074615479e-01
-4.716812819242477417e-02
-1.377667337656021118e-01
-3.632438555359840393e-02
-2.961876615881919861e-02
-4.424047097563743591e-02
1.439504176378250122e-01
-1.070210859179496765e-01
-8.803608268499374390e-02
4.972591251134872437e-02
5.259715393185615540e-02
-1.290800869464874268e-01
-1.070454418659210205e-01
-4.029265791177749634e-02
5.043832585215568542e-03
-1.882632076740264893e-01
-1.339276134967803955e-01
-6.825853139162063599e-02
-4.912481829524040222e-02
1.707971468567848206e-02
-8.009459823369979858e-02
1.305861491709947586e-02
1.985308341681957245e-02
-1.708391308784484863e-01
8.069553412497043610e-03
-2.201631292700767517e-02
-1.282509118318557739e-01
-7.715100795030593872e-02
3.826919570565223694e-02
5.617765709757804871e-02
-1.026602685451507568e-01
-2.262093685567378998e-02
-4.022373259067535400e-02
-6.675216555595397949e-02
-7.277415692806243896e-02
7.609087973833084106e-02
2.607024461030960083e-02
-1.202438324689865112e-01
-6.334761530160903931e-02
-1.078135520219802856e-01
2.626415900886058807e-02
1.679991558194160461e-02
2.000711858272552490e-02
1.059335693717002869e-01
-1.411751508712768555e-01
-2.284808084368705750e-02
1.450960636138916016e-01
4.435218404978513718e-03
2.928064018487930298e-02
5.365041270852088928e-02
-1.722553819417953491e-01
7.244270294904708862e-02
-1.517339944839477539e-01
-2.343492023646831512e-02
-3.284148871898651123e-02
1.305384039878845215e-01
2.096337825059890747e-01
9.372860938310623169e-02
-3.646524250507354736e-02
1.197517965920269489e-03
-1.523591727018356323e-01
5.771392211318016052e-02
9.258956462144851685e-02
-1.736751198768615723e-01
-2.728055603802204132e-02
6.875091791152954102e-02
-2.439896762371063232e-02
8.272876590490341187e-02
-6.897883117198944092e-02
7.665104232728481293e-03
-3.179578483104705811e-02
-1.202406287193298340e-01
-1.417322903871536255e-01
-1.408199518918991089e-01
-6.450113654136657715e-02
5.322908237576484680e-02
-4.954016581177711487e-02
-8.390782028436660767e-02
-1.085257008671760559e-01
5.640210211277008057e-02
5.727230757474899292e-02
-1.113395839929580688e-01
-6.228271499276161194e-02
1.340718008577823639e-02
1.362716108560562134e-01
2.555059082806110382e-02
-2.480540610849857330e-02
9.200486354529857635e-03
-1.054918467998504639e-01
-1.119580790400505066e-01
1.727009862661361694e-01
6.718502193689346313e-02
9.757661819458007812e-02
-1.974712871015071869e-02
7.952398061752319336e-02
-8.862931281328201294e-03
-4.669687524437904358e-02
1.293131522834300995e-02
7.619618438184261322e-03
4.116077348589897156e-02
-4.639480635523796082e-02
-3.773870319128036499e-02
3.280683979392051697e-02
-3.979469090700149536e-02
1.036636605858802795e-01
-5.551682412624359131e-02
-1.595228351652622223e-02
-4.652394447475671768e-03
4.435633867979049683e-02
3.027480840682983398e-02
8.079821616411209106e-02
-3.190295770764350891e-02
-9.081084281206130981e-04
-4.659080877900123596e-02
-5.281259864568710327e-02
5.933752283453941345e-02
-7.737254351377487183e-02
-8.862032555043697357e-03
5.781827028840780258e-03
-7.703502662479877472e-03
-1.291357725858688354e-01
2.659947611391544342e-02
8.674080483615398407e-03
-1.315431147813796997e-01
-1.143841221928596497e-01
2.197891939431428909e-03
-1.317078340798616409e-02
6.492527574300765991e-02
-1.377307623624801636e-01
7.684583775699138641e-03
-1.274817138910293579e-01
-4.251221567392349243e-02
6.553220748901367188e-02
-3.398105874657630920e-02
1.375568751245737076e-02
-8.646158128976821899e-02
-4.721757397055625916e-02
-1.112160459160804749e-02
-2.421818114817142487e-02
-8.151639997959136963e-02
-9.724500775337219238e-02
1.840326637029647827e-01
-6.583948433399200439e-02
8.075504447333514690e-04
-7.141573727130889893e-02
7.734347134828567505e-02
7.052973657846450806e-02
-3.107598051428794861e-02
-4.446540027856826782e-02
1.540063042193651199e-02
-2.971260435879230499e-02
-7.461910694837570190e-02
1.347919702529907227e-01
1.756718605756759644e-01
-1.554396897554397583e-01
-1.165184453129768372e-01
-1.367273479700088501e-01
5.417805165052413940e-02
3.928440064191818237e-02
1.114727407693862915e-01
6.590546667575836182e-02
-4.375793412327766418e-02
-1.481154710054397583e-01
1.352919936180114746e-01
1.205986589193344116e-01
-3.125282004475593567e-02
-1.187541801482439041e-02
-1.371471863240003586e-02
7.906512916088104248e-02
1.285710036754608154e-01
-5.918968934565782547e-03
-2.702903449535369873e-01
6.895030289888381958e-02
5.621528252959251404e-02
-5.175922065973281860e-02
3.214882314205169678e-02
8.300139568746089935e-03
-1.974400877952575684e-02
-1.338325999677181244e-02
-4.167366400361061096e-02
9.951877593994140625e-02
1.245435141026973724e-02
1.374139189720153809e-01
-6.618697196245193481e-02
9.922511875629425049e-02
-1.011822819709777832e-01
-8.059058338403701782e-02
-1.297952830791473389e-01
-2.712044119834899902e-02
2.050415873527526855e-01
-9.956677258014678955e-02
-1.833902299404144287e-02
4.613360390067100525e-02
3.491514548659324646e-02
-7.978211343288421631e-02
4.566722735762596130e-02
-1.817123144865036011e-01
1.862988024950027466e-01
2.499889582395553589e-02
1.147000566124916077e-01
-6.484050303697586060e-02
-4.039842262864112854e-02
-3.837263211607933044e-02
-4.825336486101150513e-02
-5.407493188977241516e-02
-2.478203922510147095e-01
-1.727187074720859528e-02
-3.907467797398567200e-02
8.487653732299804688e-02
-5.182613432407379150e-02
-9.410201013088226318e-02
4.541254788637161255e-02
-1.209540590643882751e-01
6.897748261690139771e-02
-2.346133813261985779e-02
-8.194004744291305542e-02
5.790726281702518463e-03
2.489777468144893646e-02
-8.670527487993240356e-02
1.345385145395994186e-02
-4.907973483204841614e-02
4.173907265067100525e-02
1.241976674646139145e-02
7.620154879987239838e-03
3.877348452806472778e-02
3.518446907401084900e-02
-2.373536825180053711e-01
-9.448000229895114899e-03
4.680811241269111633e-02
-1.011348888278007507e-01
-5.304265068843960762e-04
-2.255304902791976929e-02
-9.090532362461090088e-02
-1.736298650503158569e-01
-9.005242586135864258e-02
6.286343932151794434e-02
-9.082239121198654175e-02
8.356057852506637573e-02
-6.545652449131011963e-02
-1.578668653964996338e-01
-8.043333888053894043e-02
4.236347228288650513e-02
1.513283234089612961e-02
3.909943997859954834e-02
1.586533784866333008e-01
1.281996071338653564e-01
7.472147047519683838e-02
-2.068381011486053467e-02
-2.024595066905021667e-02
7.419366389513015747e-02
-2.162381112575531006e-01
-8.551867306232452393e-02
-1.445436179637908936e-01
-1.770620979368686676e-02
-2.521146088838577271e-02
-8.153668045997619629e-02
-6.336740218102931976e-03
-6.605701148509979248e-02
5.760684981942176819e-02
-8.987612277269363403e-02
-2.262183129787445068e-01
2.441900596022605896e-02
-2.563784718513488770e-01
4.409270733594894409e-02
1.095262691378593445e-01
-1.447771675884723663e-02
5.168353393673896790e-02
-1.252381950616836548e-01
-1.731198430061340332e-01
-2.762332186102867126e-02
-3.645971044898033142e-02
-3.606951795518398285e-03
7.228961586952209473e-02
1.363333016633987427e-01
-3.600536659359931946e-02
-2.494783885776996613e-02
1.706695705652236938e-01
-6.385017186403274536e-02
-1.575099825859069824e-01
-5.446996912360191345e-02
1.847978495061397552e-02
1.817183494567871094e-01
-6.603585928678512573e-02
-4.364357516169548035e-02
-6.190704181790351868e-02
-1.865600496530532837e-01
-1.062460467219352722e-01
-5.164559930562973022e-02
3.448415664024651051e-04
1.727160215377807617e-01
-1.364792231470346451e-02
-1.465601817471906543e-04
-2.913541905581951141e-02
7.002981845289468765e-03
1.330693364143371582e-01
-1.524911224842071533e-01
-1.524099707603454590e-01
-1.425526663661003113e-02
-4.651159793138504028e-02
-3.154180943965911865e-02
-1.609641015529632568e-01
1.194560006260871887e-01
-1.625836342573165894e-01
1.445665955543518066e-01
2.541036345064640045e-02
-1.053708642721176147e-01
4.271570593118667603e-02
-1.349348872900009155e-01
-1.124532744288444519e-01
2.286296188831329346e-01
1.275908052921295166e-01
-1.033519767224788666e-02
-1.896072179079055786e-01
-1.273577958345413208e-01
7.362532615661621094e-02
-4.515039175748825073e-02
6.347235757857561111e-03
-2.097024023532867432e-02
2.662681974470615387e-02
-6.212147697806358337e-02
4.968433175235986710e-03
1.052957326173782349e-01
-1.906662061810493469e-02
-8.693201839923858643e-02
7.303641736507415771e-02
1.089873611927032471e-01
-5.786421149969100952e-02
1.038984581828117371e-02
4.150943085551261902e-02
1.793746603652834892e-03
-2.383424527943134308e-02
-7.035765796899795532e-02
-2.744348254054784775e-03
-5.518766865134239197e-02
1.997734792530536652e-02
3.824836341664195061e-03
7.996145635843276978e-02
-1.053138896822929382e-01
1.626827195286750793e-02
3.322685835883021355e-03
2.161158015951514244e-03
-1.026189774274826050e-01
1.115133147686719894e-02
6.309861689805984497e-02
8.151228539645671844e-03
1.095285452902317047e-02
6.340552121400833130e-03
4.487214144319295883e-03
-7.798102498054504395e-02
-5.576403345912694931e-03
-1.256660670042037964e-01
-9.722815826535224915e-03
-6.221205741167068481e-02
-6.638392060995101929e-02
8.307218551635742188e-03
-1.586306244134902954e-01
9.104230999946594238e-02
-1.355341374874114990e-01
-4.320966824889183044e-02
1.035407409071922302e-01
3.208697773516178131e-03
-1.273705363273620605e-01
5.301760882139205933e-02
-1.715608835220336914e-01
4.358024150133132935e-02
-1.206801235675811768e-01
6.256779283285140991e-02
-1.395778357982635498e-01
-7.166754454374313354e-02
-3.644924610853195190e-02
-1.027629822492599487e-01
-5.988884344696998596e-02
-1.661941856145858765e-01
1.928628794848918915e-02
1.722040213644504547e-02
-6.794901937246322632e-02
-5.386069416999816895e-02
5.476696789264678955e-02
9.072458744049072266e-02
2.802587300539016724e-02
-3.629110008478164673e-02
1.825259439647197723e-02
3.919856389984488487e-04
-6.161775067448616028e-02
-9.162292815744876862e-03
5.312513560056686401e-02
2.267655730247497559e-02
7.026844471693038940e-02
-5.084770172834396362e-02
1.325470358133316040e-01
-7.613518275320529938e-03
2.551158145070075989e-02
-9.460167586803436279e-02
-1.846165955066680908e-02
-5.029259249567985535e-02
-1.176874116063117981e-01
1.313347741961479187e-02
1.002324223518371582e-01
3.023187257349491119e-02
-6.490299850702285767e-02
9.906790219247341156e-03
5.334417149424552917e-02
1.721522659063339233e-01
-6.870257854461669922e-02
-4.147786274552345276e-02
-4.125548154115676880e-02
2.391761355102062225e-02
1.645549982786178589e-01
1.534516662359237671e-01
-1.454855650663375854e-01
6.029902771115303040e-02
-5.343109369277954102e-02
2.169257961213588715e-02
-4.286804050207138062e-02
3.481697663664817810e-02
1.185694634914398193e-01
-2.938850224018096924e-02
1.468301564455032349e-01
-6.661301851272583008e-02
-1.851549744606018066e-01
-2.870547585189342499e-02
3.220614744350314140e-03
3.380930749699473381e-03
3.642843663692474365e-02
-2.600086666643619537e-02
-3.734274953603744507e-02
-7.737973332405090332e-02
-8.159663528203964233e-03
-1.418106257915496826e-02
6.522467732429504395e-02
-1.370828747749328613e-01
1.192635484039783478e-02
-1.167124211788177490e-01
-1.288990080356597900e-01
7.792953401803970337e-02
-1.315476000308990479e-01
4.935836419463157654e-02
-8.290269970893859863e-02
-1.181351393461227417e-02
-7.477939128875732422e-02
-1.465868670493364334e-02
-2.385743334889411926e-02
-8.068372309207916260e-02
2.318527400493621826e-01
-7.231285423040390015e-02
1.149427369236946106e-01
-1.387116312980651855e-01
-8.921539783477783203e-02
-1.994648575782775879e-01
2.683490216732025146e-01
4.045051708817481995e-02
-6.584370136260986328e-02
3.096004249528050423e-03
-7.504253089427947998e-02
-8.369482308626174927e-02
5.769836530089378357e-02
-1.666945517063140869e-01
-3.096712939441204071e-02
8.340250700712203979e-03
1.530197169631719589e-02
5.804715678095817566e-02
-3.724847361445426941e-02
1.357899904251098633e-01
-1.099695800803601742e-04
-1.864732615649700165e-02
1.152410730719566345e-01
1.991776935756206512e-02
6.310085207223892212e-02
-4.038176313042640686e-02
-1.161713227629661560e-01
2.862995117902755737e-02
-5.543031916022300720e-02
4.057651851326227188e-03
2.193530090153217316e-02
-2.548693418502807617e-01
-9.702347218990325928e-02
1.522411778569221497e-02
-6.002123281359672546e-02
-3.723341226577758789e-02
-9.389814734458923340e-02
1.846973225474357605e-02
5.107758566737174988e-02
-1.618767976760864258e-01
-9.555786103010177612e-02
1.015569269657135010e-01
-2.976077422499656677e-02
-6.584305316209793091e-02
-1.072847843170166016e-01
8.090359158813953400e-03
1.325843036174774170e-01
4.843605309724807739e-02
-1.098058372735977173e-01
-8.754999190568923950e-02
1.758777163922786713e-02
-1.179254353046417236e-01
7.076708972454071045e-02
-1.931472681462764740e-02
-5.646048113703727722e-02
-8.062165230512619019e-02
-4.746379703283309937e-02
9.387060999870300293e-02
-6.169769167900085449e-02
-6.304015405476093292e-04
7.508962601423263550e-02
1.070223655551671982e-02
-5.658745020627975464e-02
-1.836811751127243042e-01
4.310046508908271790e-02
-1.585476398468017578e-01
9.747599065303802490e-02
8.554628491401672363e-02
-8.320261724293231964e-03
1.101609990000724792e-01
9.377823770046234131e-02
-2.612332813441753387e-02
6.006801128387451172e-02
-3.629604354500770569e-03
-6.472878158092498779e-02
-4.222315549850463867e-02
2.415578514337539673e-01
3.063959069550037384e-02
-8.925787359476089478e-02
-1.384411100298166275e-02
1.174551919102668762e-01
-1.503721326589584351e-01
-3.371050059795379639e-01
-4.813173413276672363e-02
1.066568959504365921e-02
7.749976217746734619e-02
-5.471083521842956543e-02
-1.885182112455368042e-01
-1.475241780281066895e-01
-5.910694226622581482e-02
-2.006723284721374512e-01
1.383961178362369537e-03
3.889144957065582275e-02
-3.063892573118209839e-02
-4.634609445929527283e-02
-1.170948743820190430e-01
-6.764650344848632812e-02
9.320754557847976685e-02
-8.561891503632068634e-03
-7.801171392202377319e-02
2.680517919361591339e-02
1.101575791835784912e-01
7.167351990938186646e-02
-7.459758222103118896e-02
-2.157765477895736694e-01
-1.399806886911392212e-01
-5.179824680089950562e-02
1.019253134727478027e-01
8.034680783748626709e-02
-6.904034316539764404e-02
-2.587592229247093201e-02
1.338065713644027710e-01
1.152112111449241638e-01
-6.735596060752868652e-02
1.036431044340133667e-01
-1.140947081148624420e-02
2.224939763545989990e-01
-4.998265649192035198e-04
-9.058497846126556396e-02
9.996071457862854004e-03
-4.240784794092178345e-02
3.582360921427607536e-03
-5.492155626416206360e-02
-3.551614284515380859e-02
-3.418666124343872070e-02
-1.933627761900424957e-02
3.942936193197965622e-03
-6.724341213703155518e-02
1.787961460649967194e-02
-2.266351366415619850e-03
-1.254024505615234375e-01
-2.159889042377471924e-01
-3.405929729342460632e-02
1.444105437258258462e-04
-6.289373338222503662e-02
1.044693216681480408e-01
-1.940234680660068989e-03
6.565634906291961670e-02
-3.809864073991775513e-02
-2.620687708258628845e-02
3.615837544202804565e-02
-1.218149438500404358e-01
-1.181618645787239075e-01
6.656999886035919189e-02
9.894914180040359497e-02
7.797150313854217529e-02
-8.315484970808029175e-03
7.321080192923545837e-03
-1.602659700438380241e-03
-5.522880819626152515e-04
-3.442366793751716614e-02
-1.223215162754058838e-01
-8.791709691286087036e-02
-8.145628124475479126e-02
1.010851711034774780e-01
-1.491009630262851715e-02
2.271086536347866058e-02
6.832189392298460007e-03
8.657562732696533203e-02
-1.721664816141128540e-01
1.298195868730545044e-02
-8.278698474168777466e-02
-5.889701843261718750e-02
1.441050786525011063e-03
-3.151967003941535950e-02
-1.028938964009284973e-01
-9.308953583240509033e-02
-2.180180512368679047e-02
4.651054367423057556e-02
3.785170614719390869e-02
-2.035042457282543182e-02
-4.512141644954681396e-02
1.927981078624725342e-01
-1.498934030532836914e-01
3.837704658508300781e-03
-2.201232314109802246e-01
6.629018485546112061e-02
-1.152403652667999268e-01
-8.338464796543121338e-02
7.151241600513458252e-02
-3.205565735697746277e-02
-1.031089946627616882e-01
1.104178279638290405e-01
9.345654398202896118e-02
-3.769208118319511414e-02
1.758470684289932251e-01
-3.922549635171890259e-02
6.461285799741744995e-02
6.329761818051338196e-03
-7.733422331511974335e-03
-1.902019232511520386e-02
-4.783770069479942322e-02
-3.208166733384132385e-02
-5.372942239046096802e-02
1.200734730809926987e-02
-3.297848626971244812e-03
-9.306354820728302002e-02
8.696211129426956177e-02
1.114648729562759399e-01
-3.098873980343341827e-02
-6.989708542823791504e-02
5.756408348679542542e-02
-1.631402373313903809e-01
-1.366069465875625610e-01
-2.400193735957145691e-02
1.925930976867675781e-01
-2.000708319246768951e-02
4.533309116959571838e-02
-1.264385995455086231e-03
4.731651768088340759e-02
-4.258186742663383484e-02
-1.272599250078201294e-01
-1.203318610787391663e-01
1.245680674910545349e-01
-8.464147150516510010e-02
-3.667265549302101135e-02
-5.369215458631515503e-02
2.218697406351566315e-02
-9.252643585205078125e-02
-5.336362868547439575e-02
1.950621604919433594e-01
1.671024225652217865e-02
8.344922214746475220e-02
-3.708375990390777588e-02
-1.074111312627792358e-01
3.345701098442077637e-02
6.711786985397338867e-02
5.445342138409614563e-02
4.600232094526290894e-02
-1.647846959531307220e-02
-1.857090741395950317e-02
7.893113791942596436e-02
8.513817563652992249e-03
-5.992435663938522339e-02
-9.379625320434570312e-02
-1.269480329938232899e-03
-8.139313012361526489e-02
5.963424593210220337e-02
1.356868539005517960e-02
-4.916596692055463791e-03
-1.884151436388492584e-02
-4.230924323201179504e-02
-4.500171169638633728e-03
8.240994811058044434e-02
2.262983098626136780e-02
2.997827716171741486e-03
3.054891340434551239e-02
-2.097891271114349365e-02
7.505815476179122925e-02
5.773581191897392273e-02
9.033889323472976685e-02
6.946771591901779175e-02
-7.755126804113388062e-02
-1.282057613134384155e-01
-1.833271682262420654e-01
5.737412720918655396e-03
-1.063484027981758118e-01
-7.285320758819580078e-02
-5.300848558545112610e-02
-9.413621574640274048e-02
-5.425826460123062134e-02
-1.036134315654635429e-03
-7.273821532726287842e-02
-1.150676980614662170e-01
6.022550165653228760e-03
-4.387716576457023621e-02
-1.340222507715225220e-01
-1.307317018508911133e-01
7.929905503988265991e-02
2.413666546344757080e-01
1.766331791877746582e-01
1.526775304228067398e-02
-3.192876279354095459e-02
-5.654903873801231384e-02
1.016568839550018311e-01
-5.462810769677162170e-02
-8.131652325391769409e-02
-3.479827137198299170e-04
2.703846059739589691e-02
-1.281056255102157593e-01
-1.921479851007461548e-01
-2.671488188207149506e-02
8.358141407370567322e-03
9.421452134847640991e-02
1.589195989072322845e-02
2.072064578533172607e-02
4.075282067060470581e-02
-1.504829674959182739e-01
-3.196007385849952698e-02
1.765851229429244995e-01
8.234006166458129883e-02
-9.534834884107112885e-03
-5.537661537528038025e-02
-7.298969477415084839e-02
-4.294420778751373291e-02
-2.370508573949337006e-02
1.997739076614379883e-03
-8.882443606853485107e-02
2.162749879062175751e-02
-8.296619355678558350e-02
-4.200598970055580139e-02
5.621613934636116028e-02
-1.020613219588994980e-02
-1.919053941965103149e-01
6.574887782335281372e-02
6.573327630758285522e-02
-3.060964681208133698e-02
4.434294253587722778e-02
6.423443555831909180e-02
-8.552175015211105347e-02
1.575775071978569031e-02
9.958629310131072998e-02
-5.028927326202392578e-02
-1.028955280780792236e-01
-6.438168138265609741e-02
-1.714319586753845215e-01
-1.766116172075271606e-02
3.061058931052684784e-02
1.143062300980091095e-02
9.001100063323974609e-02
-9.801610559225082397e-02
-5.244882404804229736e-02
-6.918151676654815674e-02
4.146920517086982727e-02
1.083089858293533325e-01
-1.671021878719329834e-01
9.408747404813766479e-02
-1.912695467472076416e-01
-1.028852164745330811e-01
3.593236953020095825e-02
-1.004083305597305298e-01
-1.130530387163162231e-01
7.343031466007232666e-02
-1.406326293945312500e-01
1.610899344086647034e-02
-1.094271540641784668e-01
5.786941573023796082e-02
2.812644094228744507e-02
3.011394664645195007e-02
8.507449179887771606e-02
-5.467126518487930298e-02
-7.348927110433578491e-02
-1.127065569162368774e-01
8.121954649686813354e-02
7.063201069831848145e-02
3.039472550153732300e-02
2.796637825667858124e-02
7.806099206209182739e-02
-1.021791175007820129e-01
4.974110517650842667e-03
7.915194332599639893e-02
-9.792906790971755981e-02
1.522907614707946777e-01
-4.480995237827301025e-02
6.871139630675315857e-03
-2.531144209206104279e-02
-5.667546764016151428e-02
7.124926149845123291e-02
-1.454911977052688599e-01
-1.330457925796508789e-01
1.093450114130973816e-01
-1.856653578579425812e-02
-1.628867685794830322e-01
-4.583571851253509521e-02
-4.833652079105377197e-02
-2.254971489310264587e-02
-4.978374019265174866e-02
-1.624325513839721680e-01
9.673082828521728516e-02
3.219828754663467407e-02
-5.611459165811538696e-02
1.371353119611740112e-01
-2.186440825462341309e-01
-7.594079524278640747e-02
1.572576463222503662e-01
6.863985955715179443e-02
-1.255127340555191040e-01
-4.254078865051269531e-02
-3.216780722141265869e-02
-6.942103803157806396e-02
-6.465021870099008083e-04
2.261410653591156006e-01
9.276979416608810425e-02
-6.597761809825897217e-02
-2.891971170902252197e-02
-1.607071980834007263e-02
5.439376458525657654e-02
1.576504111289978027e-02
-1.866190284490585327e-01
2.114187693223357201e-03
8.021331578493118286e-02
-4.485467448830604553e-02
2.952419966459274292e-02
4.847015812993049622e-02
4.025678709149360657e-02
-2.110159583389759064e-02
-3.799824789166450500e-02
5.146358534693717957e-02
1.197154447436332703e-01
5.459066107869148254e-02
4.302766919136047363e-02
2.159836702048778534e-02
-8.846316486597061157e-02
-1.632845550775527954e-01
-3.848818689584732056e-02
-5.472557246685028076e-02
3.026059456169605255e-02
-1.368047446012496948e-01
2.916225232183933258e-02
6.991023570299148560e-02
3.796772286295890808e-02
5.791859328746795654e-02
1.022678241133689880e-01
-1.001060754060745239e-02
6.414962559938430786e-02
-6.270126998424530029e-02
9.313522279262542725e-02
-5.410853400826454163e-02
6.228499487042427063e-02
-6.172366067767143250e-02
-1.171805933117866516e-01
-9.077988564968109131e-02
-3.532920777797698975e-02
-1.144296955317258835e-02
4.330603033304214478e-02
-9.087494015693664551e-02
1.461317092180252075e-01
-7.827275991439819336e-02
-2.479736506938934326e-02
6.861873716115951538e-02
8.672443032264709473e-02
-1.302006840705871582e-01
1.652092039585113525e-01
4.618391767144203186e-02
1.157028079032897949e-01
-1.051393747329711914e-01
8.134530484676361084e-02
-4.295397922396659851e-02
-1.176176518201828003e-01
-5.983504280447959900e-02
8.149344474077224731e-02
-7.848703302443027496e-03
-7.006339728832244873e-02
3.770435228943824768e-03
-6.958913058042526245e-02
-5.465266108512878418e-02
5.606956407427787781e-02
6.138271093368530273e-02
1.588147133588790894e-02
1.747765392065048218e-01
6.038918346166610718e-02
-3.309126198291778564e-02
-6.723832339048385620e-02
1.347324228845536709e-03
-4.442560672760009766e-02
1.087634731084108353e-02
3.189516812562942505e-02
3.879683092236518860e-03
-5.163842067122459412e-02
-2.448397502303123474e-02
-2.155028656125068665e-02
-1.325546205043792725e-02
-5.563746765255928040e-02
1.328916102647781372e-01
1.164653152227401733e-01
-1.721975207328796387e-01
-8.501204848289489746e-02
6.343349069356918335e-02
4.692124668508768082e-03
-2.320202440023422241e-01
-3.732457756996154785e-02
-3.929087147116661072e-02
1.196183934807777405e-01
-2.215631119906902313e-02
1.132322289049625397e-02
6.205859035253524780e-02
4.669982194900512695e-02
-1.745720058679580688e-01
-8.601032942533493042e-02
-2.176750823855400085e-02
7.923126220703125000e-02
6.524135917425155640e-02
1.843390911817550659e-01
3.717216197401285172e-03
2.597417123615741730e-02
-1.082551181316375732e-01
-1.162135004997253418e-01
-7.805498689413070679e-02
-2.840128168463706970e-02
-3.797484189271926880e-02
-4.885965585708618164e-02
-3.089589253067970276e-02
-1.530627310276031494e-01
9.090996533632278442e-02
-6.850986927747726440e-02
-7.591846399009227753e-03
-8.743952214717864990e-02
-7.274519652128219604e-02
-9.567426145076751709e-02
-8.154696226119995117e-02
-8.886970579624176025e-02
-1.672629415988922119e-01
8.272781968116760254e-02
1.349309682846069336e-01
-5.662475898861885071e-02
1.088187471032142639e-01
8.597863838076591492e-03
-1.321486532688140869e-01
-1.348344832658767700e-01
6.880132108926773071e-02
-1.048857271671295166e-01
-2.338260598480701447e-02
6.813350319862365723e-02
5.067530553787946701e-03
-7.681189477443695068e-02
6.668357551097869873e-02
-1.695733070373535156e-01
-6.628419458866119385e-02
-9.388564527034759521e-02
-1.239252015948295593e-01
5.469031259417533875e-02
-3.235762938857078552e-02
1.315507888793945312e-01
6.751461327075958252e-02
-6.015014275908470154e-02
-5.012729018926620483e-02
-4.217589274048805237e-02
-5.523655936121940613e-02
3.432224038988351822e-03
-2.026789933443069458e-01
-1.532933712005615234e-01
-3.554847836494445801e-02
-2.980519272387027740e-02
1.598326116800308228e-02
1.090916320681571960e-01
-1.950257122516632080e-01
1.337875723838806152e-01
3.375462442636489868e-02
-1.063346937298774719e-01
1.123169362545013428e-01
8.760023862123489380e-02
-6.402347981929779053e-02
-2.320865634828805923e-03
4.976403713226318359e-02
-9.142510592937469482e-02
-1.602475941181182861e-01
-3.742372849956154823e-03
1.783573776483535767e-01
2.401125803589820862e-02
-1.088464707136154175e-01
-1.321425288915634155e-02
3.476045094430446625e-03
-7.829128950834274292e-02
-1.568536758422851562e-01
6.579200923442840576e-02
-1.176365017890930176e-01
6.352423876523971558e-02
-1.759719103574752808e-01
-3.672534227371215820e-02
-1.440068148076534271e-02
1.380486190319061279e-01
4.338076710700988770e-02
-2.673393813893198967e-03
1.200591912493109703e-03
3.612221777439117432e-02
-1.206085667945444584e-03
-1.940996050834655762e-01
-4.097196459770202637e-02
1.961936987936496735e-02
-5.664716288447380066e-02
5.838623270392417908e-02
-5.098788440227508545e-02
-2.927509136497974396e-02
4.788789432495832443e-03
8.975106477737426758e-02
9.884915500879287720e-02
4.889038205146789551e-02
-1.108869537711143494e-01
7.025185227394104004e-02
2.773690037429332733e-02
-7.859871536493301392e-02
5.191494524478912354e-02
6.315962970256805420e-02
-1.105523109436035156e-01
-1.388096660375595093e-01
-1.126549858599901199e-02
3.297058120369911194e-02
-3.638345748186111450e-02
-3.397570177912712097e-02
2.502563595771789551e-02
-1.551245898008346558e-01
-1.174967214465141296e-01
2.352033741772174835e-03
-1.822571903467178345e-01
-3.930304944515228271e-02
-7.926312834024429321e-02
-6.083708256483078003e-02
-7.559029757976531982e-02
1.772567816078662872e-02
6.871374696493148804e-02
-1.285665035247802734e-01
-1.782533898949623108e-02
-3.401822969317436218e-02
-7.870457321405410767e-02
-5.141557380557060242e-02
-2.572661451995372772e-02
-2.360879629850387573e-02
-2.412998117506504059e-02
-7.932022213935852051e-02
8.853710256516933441e-03
1.759672071784734726e-03
3.594493120908737183e-02
1.886304654181003571e-02
-1.086182519793510437e-02
-5.034580081701278687e-02
-1.930952072143554688e-01
-2.100354805588722229e-02
-2.766793407499790192e-02
-2.258976846933364868e-01
-7.753476500511169434e-02
-1.040060743689537048e-01
-3.306273743510246277e-02
8.070015907287597656e-02
-1.699278205633163452e-01
-1.144115477800369263e-01
-2.250782400369644165e-01
-5.887414142489433289e-02
-1.303493380546569824e-01
5.727868899703025818e-02
3.267566906288266182e-03
-1.100856531411409378e-02
2.887289784848690033e-02
-5.277565121650695801e-02
6.402652710676193237e-02
-1.172576025128364563e-01
9.355187416076660156e-03
2.612101286649703979e-02
-2.630638144910335541e-02
-2.500024437904357910e-01
-9.675893932580947876e-02
-9.294579178094863892e-02
-8.669860661029815674e-02
-5.497876182198524475e-02
-7.075794786214828491e-02
6.501527875661849976e-02
5.711304396390914917e-02
-1.751811355352401733e-01
2.325315587222576141e-02
6.431634724140167236e-02
-6.895980983972549438e-02
-3.239778801798820496e-02
1.458837930113077164e-02
4.378823190927505493e-02
-6.660536676645278931e-02
3.312513977289199829e-02
1.623785197734832764e-01
-1.343096941709518433e-01
-5.375459045171737671e-02
-1.700788885354995728e-01
5.320990458130836487e-03
-5.834959447383880615e-02
-1.096981391310691833e-01
-1.049848124384880066e-01
-7.043004781007766724e-02
-6.633255630731582642e-02
-1.958552151918411255e-01
-4.195057228207588196e-02
5.808648094534873962e-02
-2.019608616828918457e-01
-1.665650159120559692e-01
-1.551886200904846191e-01
9.432587772607803345e-03
1.719358749687671661e-02
-8.761857450008392334e-02
1.724787056446075439e-03
-8.574979007244110107e-02
-1.045005321502685547e-01
-8.823549002408981323e-02
7.220134139060974121e-03
8.053135871887207031e-02
-9.290328621864318848e-02
6.186318770051002502e-02
-1.055109649896621704e-01
-4.458792135119438171e-02
8.340652100741863251e-03
-1.340609043836593628e-02
-1.693864017724990845e-01
8.994781970977783203e-02
2.046087756752967834e-02
7.447781972587108612e-03
-7.349178194999694824e-02
-2.736672526225447655e-03
-8.752179890871047974e-02
-3.404448553919792175e-02
2.114665880799293518e-02
-3.447658196091651917e-02
-9.161163121461868286e-02
-1.266053915023803711e-01
-5.188034474849700928e-02
-6.797171384096145630e-02
-5.844351276755332947e-02
4.827215149998664856e-02
-3.079483844339847565e-02
7.798337191343307495e-02
1.719344854354858398e-01
-8.914378285408020020e-02
-4.364431370049715042e-03
-6.203957647085189819e-02
-8.673547208309173584e-02
-1.845083683729171753e-01
-1.357320602983236313e-02
-1.332600414752960205e-01
6.461812183260917664e-03
-3.226896515116095543e-03
-1.409192532300949097e-01
-8.693183213472366333e-02
-1.917847804725170135e-02
9.829368442296981812e-02
6.315278261899948120e-02
1.671982556581497192e-02
7.607197016477584839e-02
-1.280403137207031250e-01
-8.801560616120696068e-04
8.545161783695220947e-02
-4.240108281373977661e-02
6.599196046590805054e-02
-2.850108966231346130e-02
9.278757125139236450e-02
-5.298499390482902527e-02
-6.195816397666931152e-02
-1.254149377346038818e-01
-7.517175283282995224e-03
-3.602183610200881958e-02
-7.674799300730228424e-03
-8.398228138685226440e-02
-1.857809163630008698e-02
-7.788600772619247437e-02
-3.880842123180627823e-03
1.023951694369316101e-01
-7.181026786565780640e-02
-4.179842397570610046e-02
-5.653636157512664795e-02
-6.890486925840377808e-02
-1.193548515439033508e-01
9.217842482030391693e-03
2.090195566415786743e-02
-9.541460871696472168e-02
-1.833867281675338745e-01
-1.379160732030868530e-01
1.554040517657995224e-02
6.729100644588470459e-02
1.096207723021507263e-01
-1.076078787446022034e-01
1.108788978308439255e-02
-6.091344729065895081e-02
5.331610143184661865e-02
-7.281638681888580322e-02
3.667540848255157471e-02
-1.017211824655532837e-01
-1.442218571901321411e-01
6.153190974146127701e-03
