-4.493979737162590027e-02
7.322343438863754272e-02
-6.390756368637084961e-02
1.862152218818664551e-01
2.372108213603496552e-02
-1.019026935100555420e-01
-2.057236246764659882e-02
-1.589833796024322510e-01
3.360910117626190186e-01
-6.226223707199096680e-02
-2.827493660151958466e-02
1.044496595859527588e-01
8.252029120922088623e-02
-7.132831960916519165e-02
-1.932375133037567139e-01
-1.535144895315170288e-01
-1.804894804954528809e-01
-5.190368369221687317e-02
-1.628921478986740112e-01
-9.930884093046188354e-02
-4.584141448140144348e-02
-1.492144614458084106e-01
-2.769902646541595459e-01
1.027269661426544189e-01
-2.841805219650268555e-01
-5.066224187612533569e-02
-5.885144695639610291e-02
-1.921345442533493042e-01
-3.573976829648017883e-02
1.511280715931206942e-04
-1.075746938586235046e-01
-3.749227151274681091e-02
-2.728396840393543243e-02
-2.591882944107055664e-01
1.462761312723159790e-01
5.242686718702316284e-02
1.027727797627449036e-01
-2.559652924537658691e-01
1.076042354106903076e-01
-9.730117022991180420e-02
-1.205492615699768066e-01
1.152648590505123138e-02
4.613786563277244568e-02
6.932637095451354980e-02
7.372285425662994385e-02
8.619036525487899780e-02
2.476852089166641235e-01
-1.215039864182472229e-01
1.166118681430816650e-01
-9.401626139879226685e-02
-1.171975731849670410e-01
-1.805961132049560547e-01
7.760999351739883423e-02
-2.353716045618057251e-01
1.349866949021816254e-02
-2.788891782984137535e-03
-1.495469659566879272e-01
5.654607899487018585e-03
-7.781073451042175293e-02
-1.195859387516975403e-01
-1.600650399923324585e-01
1.581957638263702393e-01
-1.999920904636383057e-01
1.712716370820999146e-02
