2.379629388451576233e-02,2.112585492432117462e-02,-8.629686199128627777e-03,-2.741245739161968231e-02,-4.216786939650774002e-03,-1.890131458640098572e-02,2.271151542663574219e-02,1.438100542873144150e-02,-2.672473713755607605e-02,2.278360538184642792e-02,-4.456024616956710815e-03,-1.396539248526096344e-02,1.961111463606357574e-02,8.325004018843173981e-04,2.641198784112930298e-02,-1.767962053418159485e-02,1.037670020014047623e-02,-4.990987479686737061e-03,1.481040380895137787e-02,-1.132251229137182236e-02,-2.216207422316074371e-02,1.446603890508413315e-02,-2.158712036907672882e-02,1.837261021137237549e-02,1.947057433426380157e-02,-1.909033954143524170e-02,-1.970938220620155334e-02,-2.378365211188793182e-02,-2.053140290081501007e-02,1.179080177098512650e-02,-6.075030658394098282e-03,-4.085336346179246902e-03,-2.347942441701889038e-02,2.264650352299213409e-02,-1.302032638341188431e-02,8.695392869412899017e-03,1.581319980323314667e-02,1.948517188429832458e-02,8.101116865873336792e-03,7.329409010708332062e-03,2.789933048188686371e-02,1.554581685923039913e-03,-2.766163786873221397e-03,-2.330454066395759583e-02,1.837400533258914948e-02,6.182197947055101395e-03,1.754047535359859467e-02,1.494249142706394196e-02,1.050890050828456879e-02,-1.426502224057912827e-02,4.711212590336799622e-03,-2.679286524653434753e-02,-1.886830478906631470e-02,-2.100123465061187744e-02,2.483663521707057953e-02,-5.123987793922424316e-03,2.582114189863204956e-03,1.565596647560596466e-02,1.842225342988967896e-02,-1.211494579911231995e-02,1.802065991796553135e-03,-2.435781992971897125e-02,-1.553728710860013962e-03,-2.377789840102195740e-02,-2.079511433839797974e-02,-3.364311298355460167e-03,-1.812600158154964447e-02,9.035086841322481632e-04,2.665954828262329102e-02,-1.682255603373050690e-02,-2.505426108837127686e-02,1.814687624573707581e-02,2.123340964317321777e-03,2.599820261821150780e-03,2.233751118183135986e-02,-8.063792251050472260e-03,1.273568999022245407e-02,-1.030449941754341125e-02,1.900426112115383148e-02,1.833449862897396088e-02,-1.390099804848432541e-02,1.201850362122058868e-02,2.442067116498947144e-02,5.456331185996532440e-03,4.450317006558179855e-03,-2.154223248362541199e-02,-3.985202871263027191e-03,4.075127188116312027e-03,-1.390088163316249847e-02,-1.182188559323549271e-02,1.687694713473320007e-02,1.151930354535579681e-02,-1.139246392995119095e-02,-1.354249473661184311e-02,2.521870844066143036e-02,8.490251377224922180e-03,-2.611712925136089325e-02,1.779801584780216217e-02,-3.891413798555731773e-03,-2.391299046576023102e-02,-8.868603967130184174e-03,-2.115290798246860504e-02,4.676066804677248001e-03,1.472993008792400360e-02,-8.368383161723613739e-03,1.359290070831775665e-02,8.437129668891429901e-03,-6.211459636688232422e-03,1.947961002588272095e-02,1.455641910433769226e-02,-1.688828691840171814e-02,2.189349196851253510e-02,4.343916196376085281e-03,-6.493940018117427826e-03,-2.374552376568317413e-02,2.678733505308628082e-02,-1.151851005852222443e-02,2.640385739505290985e-02,2.739619463682174683e-02,3.245562082156538963e-03,-9.351950138807296753e-03,2.468700148165225983e-02,-2.625092491507530212e-02,1.428396813571453094e-02,3.063101787120103836e-03,-1.903069391846656799e-02,6.683577317744493484e-03,9.844036772847175598e-03,1.607783720828592777e-03,-2.375340834259986877e-02,8.816557936370372772e-03,1.010645180940628052e-02,-2.061636187136173248e-02,-1.978381164371967316e-02,-1.869294233620166779e-02,1.489205844700336456e-02,-1.942688226699829102e-02,-1.293691340833902359e-02,-9.666174650192260742e-03,3.520861966535449028e-03,-1.300925109535455704e-02,2.520625665783882141e-02,4.311225842684507370e-03,-1.173755619674921036e-02,2.562054060399532318e-02,9.655612520873546600e-03,5.854561924934387207e-03,1.901919487863779068e-03,-6.386825814843177795e-03,1.009981799870729446e-02,-2.844216069206595421e-03,2.783021517097949982e-02,2.781590260565280914e-02,-2.198577858507633209e-02,-9.341597557067871094e-03,-1.243128534406423569e-02,-1.385413017123937607e-02,1.206321269273757935e-02,-5.365541204810142517e-03,-1.049838494509458542e-02,3.068629652261734009e-03,2.409189939498901367e-02,-1.413546409457921982e-02,5.891993641853332520e-03,1.273543015122413635e-02,-8.128276094794273376e-03,-5.873664282262325287e-03,7.440467830747365952e-03,-5.725467111915349960e-03,1.134482305496931076e-02,5.931544583290815353e-03,2.588641084730625153e-02,2.546816505491733551e-02,7.553012692369520664e-04,1.934182457625865936e-02,2.009574323892593384e-02,-1.098784618079662323e-02,2.072141319513320923e-02,-2.366486936807632446e-03,1.757797785103321075e-02,-5.667167250066995621e-03,2.283901348710060120e-02,-2.336059138178825378e-02,-1.603380776941776276e-02,-9.960627183318138123e-03,2.198285982012748718e-02,2.765820594504475594e-03,1.941472291946411133e-02,1.679798215627670288e-02,-1.306768786162137985e-02,2.912098774686455727e-03,-1.182199921458959579e-02,-1.005298364907503128e-02,1.994548738002777100e-02,2.464667335152626038e-02,-9.285939857363700867e-03,-2.538280934095382690e-02,2.133173635229468346e-03,-2.327239373698830605e-03,-2.477142773568630219e-02,-1.714988611638545990e-02,-1.469299476593732834e-02,6.802243180572986603e-03,-1.232498139142990112e-02,6.340284366160631180e-03,-1.311629172414541245e-02,-1.300430949777364731e-02,2.521089836955070496e-02,-1.365529932081699371e-02,1.128744333982467651e-02,-8.765781298279762268e-03,-1.858510449528694153e-02,6.890344666317105293e-04,-1.967346854507923126e-02,1.733361929655075073e-02,1.312756352126598358e-02,1.131746731698513031e-02,9.739741683006286621e-03,-1.418532774550840259e-04,-2.182547561824321747e-02,9.898321703076362610e-03,-9.150341065833345056e-05,4.600387066602706909e-03,-1.124283764511346817e-03,-1.681053452193737030e-02,1.392972003668546677e-02,-2.075484022498130798e-02,-2.271131798624992371e-02,-1.474406383931636810e-02,1.874331384897232056e-02,-1.512975338846445084e-02,7.285903207957744598e-03,-2.595625352114439011e-03,-2.362268418073654175e-02,1.416482217609882355e-02,3.585849422961473465e-03,-7.544116582721471786e-03,-1.501493901014328003e-02,1.537182647734880447e-02,-7.748804520815610886e-03,2.737846411764621735e-02,-1.589813269674777985e-02,-1.570026576519012451e-02,-5.407914053648710251e-03,-1.048859581351280212e-02,2.188534103333950043e-02,2.250557951629161835e-02,4.326176829636096954e-03,3.717086976394057274e-03,1.586706191301345825e-02,-1.402194611728191376e-02,-2.086602896451950073e-02,-1.391005795449018478e-02,-1.483773376094177365e-04,2.038001641631126404e-02,8.302989415824413300e-03,-2.380134537816047668e-02,-6.096418946981430054e-03,-1.696088723838329315e-02,9.791807271540164948e-03,2.722147479653358459e-02,8.170599117875099182e-03,-1.216783095151185989e-02,-2.349868603050708771e-02,-2.158465795218944550e-02,2.461102232336997986e-02,-9.990091435611248016e-03,-2.048704400658607483e-02,1.196304918266832829e-03,1.923325471580028534e-02,4.748394712805747986e-03,-2.714063040912151337e-02,2.413229271769523621e-02,1.892683841288089752e-02,4.029618576169013977e-03,-5.247504916042089462e-03,2.732132747769355774e-02,-1.898032613098621368e-02,-2.877422608435153961e-03,2.183677069842815399e-02,2.057494968175888062e-02,2.285562688484787941e-03,7.697181776165962219e-03,-8.696352131664752960e-03,-2.351932227611541748e-02,-2.180601656436920166e-02,1.448589749634265900e-02,-1.070284377783536911e-02,1.750176772475242615e-03,1.348769944161176682e-02,1.620177365839481354e-02,-1.889241114258766174e-02,-2.693206258118152618e-02,2.630159631371498108e-02,1.682255603373050690e-02,1.317413151264190674e-02,-1.949739642441272736e-02,-2.276838570833206177e-02,2.544062398374080658e-02,6.852599792182445526e-03,6.168869789689779282e-03,-4.195495508611202240e-03,-9.281328879296779633e-03,-1.339302770793437958e-02,-2.635796368122100830e-02,7.643313612788915634e-03,1.057857275009155273e-02,-6.156604504212737083e-04,1.014797855168581009e-02,2.983820158988237381e-03,2.062868140637874603e-02,1.922268979251384735e-02,2.428483590483665466e-02,2.732583321630954742e-02,3.093456383794546127e-03,1.997490227222442627e-02,-1.864495314657688141e-02,1.075468957424163818e-02,-1.343249529600143433e-02,3.234539879485964775e-03,-1.872141100466251373e-02,-2.416938543319702148e-02,-2.688013017177581787e-02,8.829629048705101013e-03,1.696199364960193634e-02,2.389317844063043594e-03,-2.252976037561893463e-02,1.082715392112731934e-02,8.030145429074764252e-03,2.049282193183898926e-02,2.058665081858634949e-02,-2.035748586058616638e-02,6.369466427713632584e-03,2.325341477990150452e-02,-1.347150653600692749e-02,-9.372868575155735016e-03,-1.064670924097299576e-02,-1.293615344911813736e-02,2.488187327980995178e-02,-1.305902469903230667e-02,3.858383744955062866e-03,-8.241821080446243286e-03,-2.493512816727161407e-02,2.116071805357933044e-02,-1.145880483090877533e-02,6.899667438119649887e-03,9.933941066265106201e-03,-1.070737466216087341e-02,-2.423102781176567078e-02,-6.438491865992546082e-03,-1.821753755211830139e-02,-3.676483174785971642e-03,2.476461604237556458e-02,-3.463101806119084358e-03,1.705143041908740997e-02,-6.484447047114372253e-03,1.361745409667491913e-03,-1.197073329240083694e-02,-1.916397013701498508e-03,1.270120777189731598e-02,-2.180417999625205994e-03,8.864721748977899551e-04,-1.350759848719462752e-04,-1.629823260009288788e-02,8.609963580965995789e-03,-2.120352350175380707e-02,-6.915158126503229141e-03,-1.644578762352466583e-02,-2.700849622488021851e-02,1.035443227738142014e-02,-7.032257970422506332e-03,1.526485569775104523e-02,-6.787789054214954376e-03,-2.261421084403991699e-02,1.733997836709022522e-02,2.325061149895191193e-02,-2.215610258281230927e-02,-1.509396731853485107e-02,-2.435155957937240601e-02,-2.752006240189075470e-02,2.723650773987174034e-03,2.025056892307475209e-04,-7.517716847360134125e-03,4.433576948940753937e-03,-9.260636754333972931e-03,-1.665648259222507477e-02,2.278558537364006042e-02,-3.622484626248478889e-03,1.587062026374042034e-03,1.871296763420104980e-02,-1.627352274954319000e-02,2.709733135998249054e-02,-6.741847377270460129e-03,1.105595566332340240e-02,2.750279195606708527e-02,-2.197863720357418060e-02,-8.709046989679336548e-03,-1.707786321640014648e-02,6.438592099584639072e-04,1.384306466206908226e-03,1.785023882985115051e-02,-1.744254492223262787e-02,1.442362181842327118e-02,9.707847610116004944e-03,9.527456946671009064e-03,2.657997794449329376e-02,-1.609889586688950658e-04,-1.185924466699361801e-02,-1.323130261152982712e-02,2.626296132802963257e-02,5.975087173283100128e-03,5.763228517025709152e-03,-1.898953923955559731e-03,2.361340448260307312e-02,8.191877044737339020e-03,3.520715516060590744e-03,7.114108651876449585e-03,-1.147348526865243912e-02,1.645959541201591492e-02,1.643283851444721222e-02,6.107077933847904205e-03,-9.962149197235703468e-04,4.923384636640548706e-03,1.459524035453796387e-02,-2.643846161663532257e-02,-4.146228544414043427e-03,2.003230527043342590e-02,-2.442193776369094849e-02,-2.573860064148902893e-02,-2.647869847714900970e-02,-2.667426690459251404e-02,1.689974218606948853e-02,3.645099001005291939e-03,-7.678905967622995377e-03,-1.544602680951356888e-02,-2.172365598380565643e-02,1.472374540753662586e-03,-2.165353111922740936e-02,-6.015104707330465317e-03,-1.874260231852531433e-02,2.547594159841537476e-02,-8.941100910305976868e-03,-1.943868026137351990e-02,-6.975553929805755615e-03,7.255692034959793091e-03,8.738172618905082345e-05,2.461797185242176056e-02,-1.898376457393169403e-02,2.121941419318318367e-03,1.419892162084579468e-02,-2.298024296760559082e-02,2.128228917717933655e-02,2.005200460553169250e-02,-7.544386200606822968e-03,1.994970627129077911e-02,2.978745382279157639e-03,-2.246460691094398499e-02,-2.289595454931259155e-02,6.949247792363166809e-03,-6.481041782535612583e-04,-2.353879064321517944e-02,-2.634439431130886078e-02,8.952990174293518066e-03,1.328518730588257313e-03,-2.328105084598064423e-02,-5.344216246157884598e-03,-1.404452696442604065e-02,1.880953833460807800e-02,4.558653570711612701e-03,-1.589315384626388550e-02,-1.244520302861928940e-02,6.341937463730573654e-03,6.341340951621532440e-03,-2.050837501883506775e-02,-1.948428899049758911e-02,-2.038000337779521942e-02,2.000449039041996002e-02,2.053282223641872406e-03,-1.407980266958475113e-02,-1.077320892363786697e-02,2.626846544444561005e-02,9.899658150970935822e-03,2.276191487908363342e-02,-2.122014388442039490e-02,1.760515943169593811e-02,5.548690911382436752e-03,9.809101000428199768e-03,-2.783794514834880829e-02,-7.726923562586307526e-03,2.366336435079574585e-02,2.221096120774745941e-02,2.432196773588657379e-02,-3.561632474884390831e-03,-1.422436814755201340e-02,1.045371964573860168e-02,-1.906415633857250214e-02,2.545320242643356323e-02,1.253364142030477524e-02,1.607302948832511902e-02,1.245874166488647461e-02,2.281809598207473755e-02,2.674982324242591858e-02,-4.331388045102357864e-03,-2.073403447866439819e-02,-1.997823454439640045e-02,-1.712741144001483917e-02,-1.656778529286384583e-02,-1.822349987924098969e-02,1.114871539175510406e-02,8.301709778606891632e-03,2.022181637585163116e-02,1.358082890510559082e-02,-1.836743205785751343e-02,-2.697217976674437523e-03,1.977473497390747070e-02,2.198961935937404633e-02,-1.989800948649644852e-03,3.438591666053980589e-04,-2.530540712177753448e-02,4.309436772018671036e-03,4.792866762727499008e-03,-1.998199336230754852e-02,-2.340805344283580780e-02,2.529999986290931702e-02,2.355286106467247009e-02,-6.793839856982231140e-03,-6.979219149798154831e-03,7.936269976198673248e-03,-6.003829184919595718e-03,6.105741485953330994e-03,-2.486093528568744659e-02,6.708460859954357147e-03,-3.533410374075174332e-03,-5.645422264933586121e-03,6.706924643367528915e-03,-1.443573366850614548e-02,4.199777264147996902e-03,-2.238847129046916962e-02,4.607150796800851822e-03,-9.039218421094119549e-04,-2.990734064951539040e-03,-2.082785777747631073e-02,1.127474475651979446e-02,9.834517724812030792e-03,-1.337188947945833206e-02,-1.946454308927059174e-02,1.000015437602996826e-02,-2.316300384700298309e-02,-2.102968655526638031e-02,8.320386521518230438e-03,2.109791338443756104e-02,5.989225115627050400e-03,8.108657202683389187e-04,1.238894532434642315e-03,9.070252999663352966e-03,2.571991086006164551e-02,5.691980477422475815e-03,4.016760503873229027e-04,2.358326502144336700e-02,9.968494065105915070e-03,-1.985949464142322540e-02,2.547227032482624054e-02,-8.916008286178112030e-03,-1.429079193621873856e-02,1.650383346714079380e-03,-2.459379099309444427e-02,-2.698517963290214539e-02,-1.306045707315206528e-02,-6.327096372842788696e-03,-1.977067813277244568e-02,1.740131713449954987e-02,-1.180481258779764175e-02,-1.480885781347751617e-02,-2.051569335162639618e-02,-1.784299872815608978e-02,-1.647141575813293457e-02,1.244277786463499069e-02,2.151619270443916321e-02,5.751166609115898609e-04,-2.331614680588245392e-02,3.061932278797030449e-03,1.498263515532016754e-02,-1.400041766464710236e-02,7.283987011760473251e-03,-1.993489824235439301e-02,-6.723741069436073303e-03,-6.934950128197669983e-03,-6.876976694911718369e-03,-1.813326217234134674e-02,-1.210010424256324768e-02,-1.175875402987003326e-02,1.780223101377487183e-02,1.823258586227893829e-02,3.068529535084962845e-03,-2.347327972529456019e-04,-9.615061804652214050e-03,-2.710831910371780396e-02,-2.418645098805427551e-02,-1.196947041898965836e-02,-1.016341242939233780e-02,-1.187344826757907867e-02,-2.442375011742115021e-02,-2.402179688215255737e-02,-2.556731551885604858e-02,-1.316593494266271591e-02,-1.335640251636505127e-02,-9.841557592153549194e-03,-1.121525466442108154e-02,-8.359057246707379818e-04,-1.511081028729677200e-02,-1.636445894837379456e-02,-1.020707841962575912e-02,7.942227646708488464e-03,-1.395039167255163193e-02,-2.120945136994123459e-03,4.583363886922597885e-03,-1.854167506098747253e-02,-1.718749105930328369e-02,3.451566444709897041e-03,-1.735091395676136017e-02,1.154046878218650818e-02,5.787892267107963562e-03,5.715787410736083984e-03,-1.599458791315555573e-02,-1.446750108152627945e-02,-2.406240068376064301e-02,-3.113524988293647766e-03,-7.020825985819101334e-03,-1.465756818652153015e-02,1.005479879677295685e-02,-2.728538215160369873e-02,8.596562111051753163e-05,-2.026184834539890289e-02,-1.324905548244714737e-02,1.347626466304063797e-02,7.057281211018562317e-03,1.930671557784080505e-02,7.990044541656970978e-03,-1.274478994309902191e-02,-2.181695960462093353e-02,-1.511378958821296692e-02,1.777582452632486820e-03,-1.808490138500928879e-03,2.214664360508322716e-03,-2.093669492751359940e-03,1.558574382215738297e-02,1.436961069703102112e-02,1.164745539426803589e-02,8.039807900786399841e-03,1.148567721247673035e-02,1.393471471965312958e-02,-2.329684421420097351e-02,-7.371405605226755142e-03,-1.538854651153087616e-02,-2.267230069264769554e-03,9.987153112888336182e-03,1.962682418525218964e-02,1.115622557699680328e-02,9.559366852045059204e-03,-1.983382180333137512e-02,1.822044327855110168e-02,9.585946798324584961e-03,9.023788385093212128e-03,-1.771964714862406254e-03,-8.902477100491523743e-03,1.116621494293212891e-02,1.407694071531295776e-02,-7.122148759663105011e-03,1.577456109225749969e-02,-1.472896710038185120e-02,-2.300097793340682983e-02,-1.580331660807132721e-02,-2.373158745467662811e-02,1.329326070845127106e-02,1.978140324354171753e-02,-1.267955638468265533e-02,-8.160117082297801971e-03,7.627193350344896317e-03,1.726359594613313675e-03,2.233259193599224091e-02,6.649674382060766220e-03,1.892406493425369263e-02,-2.254405803978443146e-02,5.575293675065040588e-03,-2.209412120282649994e-02,1.259555295109748840e-02,-1.621660217642784119e-02,-1.043946854770183563e-02,1.725465245544910431e-02,-1.605844474397599697e-03,-5.330754909664392471e-03,-1.085270661860704422e-02,-2.171883173286914825e-02,1.401617191731929779e-02,-2.735449746251106262e-02,5.304309073835611343e-03,-8.870952762663364410e-03,4.676543176174163818e-03,-1.457796059548854828e-02,-5.078965798020362854e-03,1.451236288994550705e-02,1.028175465762615204e-03,1.776755414903163910e-02,-1.274281088262796402e-02,-7.031281478703022003e-03,2.752923779189586639e-02,-1.872114278376102448e-02,-2.494795992970466614e-02,-1.820561662316322327e-02,-2.372358366847038269e-02,-1.452637463808059692e-02,-3.519255900755524635e-03,-6.950930226594209671e-03,-1.420606207102537155e-02,2.520651929080486298e-02,-5.690187681466341019e-03,4.102499224245548248e-03,-4.854345228523015976e-03,-1.254209131002426147e-02,1.310067810118198395e-02,-4.026596434414386749e-03,-1.733716693706810474e-03,2.081766538321971893e-02,-2.528595924377441406e-02,1.071333885192871094e-02,6.188924890011548996e-04,1.328306458890438080e-02,9.636163711547851562e-03,2.634286507964134216e-02,-1.227142568677663803e-02,-1.814144849777221680e-02,7.382807787507772446e-03,1.772460155189037323e-02,7.828572764992713928e-03,9.775747545063495636e-03,-6.938535254448652267e-03,-7.392963394522666931e-03,4.574147518724203110e-03,2.547682821750640869e-02,-8.189824875444173813e-04,-3.971478436142206192e-04,-9.413102641701698303e-03,8.378813043236732483e-03,1.742028072476387024e-02,7.567277178168296814e-03,-1.594774983823299408e-02,1.720154099166393280e-02,-2.930634655058383942e-03,2.382904477417469025e-02,1.679681614041328430e-02,-1.029721577651798725e-03,5.289671476930379868e-03,-1.418179599568247795e-03,-4.409706685692071915e-03,-2.061657607555389404e-02,-2.751880139112472534e-02,-1.145798480138182640e-03,1.111132651567459106e-02,2.088922262191772461e-02,-8.132951334118843079e-03,-1.556761097162961960e-02,-1.422881986945867538e-02,2.512904442846775055e-02,-2.719125710427761078e-02,-5.915427580475807190e-03,2.160616964101791382e-02,1.087007299065589905e-02,-1.764542795717716217e-02,-9.889565408229827881e-03,2.022812142968177795e-02,-1.839452423155307770e-02,1.125929784029722214e-02,9.736330248415470123e-03,-3.569622524082660675e-03,1.470804866403341293e-02,-2.710442803800106049e-02,-3.962878603488206863e-03,1.548187248408794403e-02,2.170550636947154999e-02,2.311445586383342743e-02,-2.066945843398571014e-02,-8.034670725464820862e-03,6.652926094830036163e-03,1.218507438898086548e-02,-2.442902699112892151e-02,-1.557810697704553604e-02,1.347711402922868729e-02,-1.756960339844226837e-02,-8.385933004319667816e-03,-3.275586757808923721e-03,1.738122291862964630e-02,1.080609206110239029e-02,1.582463830709457397e-02,2.543065696954727173e-02,2.808953402563929558e-03,-1.752887107431888580e-02,-8.623824454843997955e-03,2.615435421466827393e-02,-2.044637314975261688e-02,2.331445738673210144e-02,2.635363489389419556e-02,2.411729656159877777e-02,-2.739558182656764984e-02,-7.038618437945842743e-03,1.883956044912338257e-02,2.618456259369850159e-03,-1.175452303141355515e-02,4.450976848602294922e-03,-1.219095778651535511e-03,2.124964632093906403e-02,1.660417020320892334e-02,-2.772787818685173988e-03,-2.137921378016471863e-02,-2.606665343046188354e-02,-1.364887505769729614e-02,2.631723880767822266e-02,-2.114711701869964600e-02,2.574385143816471100e-02,-3.514218144118785858e-03,6.316810846328735352e-03,-2.515056170523166656e-02,-1.052662730216979980e-02,2.908303576987236738e-04,-2.755854278802871704e-02,-2.584085986018180847e-02,2.193166315555572510e-02,6.320429034531116486e-03,9.470376186072826385e-03,1.957199349999427795e-02,2.709525823593139648e-02,3.260506084188818932e-03,2.138883061707019806e-02,-1.004406996071338654e-02,7.702816277742385864e-03,-6.310683209449052811e-03,-1.757289282977581024e-02,-6.226773373782634735e-03,1.126907020807266235e-02,-9.377930313348770142e-03,8.389928378164768219e-03,6.442313548177480698e-03,2.733827754855155945e-02,-2.193148992955684662e-02,-2.777276001870632172e-02,5.264061503112316132e-03,1.819429360330104828e-02,-8.718106895685195923e-03,-4.693489987403154373e-03,-7.896692492067813873e-03,-4.382494371384382248e-03,7.899544201791286469e-03,1.828831247985363007e-02,1.274862233549356461e-02,-4.893306642770767212e-03,1.793539500795304775e-03,4.386838991194963455e-03,1.031750440597534180e-02,-1.517317909747362137e-02,1.804444752633571625e-02,-1.096101384609937668e-02,-2.158839069306850433e-02,-5.949867423623800278e-03,2.364326827228069305e-02,-5.308627150952816010e-03,9.388612583279609680e-03,1.087293867021799088e-02,5.352959269657731056e-04,7.749634329229593277e-03,2.037791348993778229e-02,1.775376126170158386e-02,-3.822494763880968094e-03,-1.935357786715030670e-02,-1.835159212350845337e-02,2.087436243891716003e-02,-1.990023255348205566e-02,-6.810599938035011292e-03,-3.711935598403215408e-03,1.433526072651147842e-02,-5.967843346297740936e-03,-4.714721348136663437e-03,1.945363357663154602e-02,4.762442316859960556e-03,6.002716254442930222e-03,-7.707484764978289604e-04,-3.483406908344477415e-04,-2.073480188846588135e-02,-1.029041828587651253e-03,-2.529032714664936066e-02,-1.856766454875469208e-02,-1.316341292113065720e-02,-6.983887404203414917e-03,1.842354238033294678e-02,-2.157747186720371246e-02,9.684457443654537201e-03,-2.640088647603988647e-02,-1.485691871494054794e-02,2.939547877758741379e-03,2.329378575086593628e-02,-4.613808356225490570e-03,1.347090303897857666e-02,-3.054914996027946472e-03,-7.523701526224613190e-03,1.968417875468730927e-02,-1.378157176077365875e-02,2.562348358333110809e-02,4.244106356054544449e-03,-1.332511473447084427e-02,-1.365090836770832539e-03,-9.222191758453845978e-03,2.589774318039417267e-03,-1.870852522552013397e-02,-4.724423866719007492e-03,1.791783492080867290e-03,-1.975494995713233948e-02,-1.029811147600412369e-02,-2.319994196295738220e-02,-2.186848223209381104e-02,1.642989739775657654e-02,2.063301205635070801e-02,1.474828552454710007e-02,-1.034150831401348114e-02,-2.548461221158504486e-02,1.513568405061960220e-02,1.404078491032123566e-02,2.377078123390674591e-02,7.595862261950969696e-04,-9.720406495034694672e-03,1.781594939529895782e-02,-1.970860548317432404e-02,-2.480591088533401489e-02,7.717460393905639648e-03,2.891060663387179375e-03,1.549752615392208099e-02,2.545868977904319763e-02,-2.556759864091873169e-02,4.265647381544113159e-03,4.877282772213220596e-03,9.677516296505928040e-03,-1.720726490020751953e-02,-2.107011340558528900e-02,1.813677325844764709e-02,1.785589009523391724e-02,7.514924742281436920e-03,2.102092839777469635e-03,-1.021154318004846573e-02,2.517273277044296265e-02,1.896654837764799595e-03,-5.827599670737981796e-03,2.858556981664150953e-04,-2.100557647645473480e-02,2.413410507142543793e-02,-2.307333052158355713e-02,-2.066241391003131866e-02,-2.421679534018039703e-02,7.618230301886796951e-03,-1.001165341585874557e-02,-1.482577435672283173e-02,5.789664573967456818e-03,-1.907677156850695610e-03,-1.134765241295099258e-02,-3.427525982260704041e-03,-2.464587055146694183e-02,-1.647258549928665161e-02,-3.883933415636420250e-03,2.296661585569381714e-02,-5.363485310226678848e-03,-5.260199774056673050e-03,-2.533200383186340332e-02,1.566021144390106201e-02,1.754351519048213959e-02,1.620955765247344971e-02,-2.722192369401454926e-02,3.108280245214700699e-03,2.300886670127511024e-03,2.149972319602966309e-02,1.262539438903331757e-02,-1.690635271370410919e-02,-2.092289365828037262e-02,5.437895655632019043e-03,2.012640237808227539e-02,2.851149765774607658e-03,2.597484365105628967e-02,2.247248962521553040e-02,1.566860079765319824e-02,-1.884249853901565075e-03,7.798754610121250153e-03,4.460166208446025848e-03,-2.536771260201931000e-02,-1.962675154209136963e-02,4.285092931240797043e-03,2.219765074551105499e-02,5.557887256145477295e-03,-3.577242838218808174e-03,3.992396872490644455e-03,2.137843705713748932e-02,2.724840678274631500e-02,1.308374479413032532e-02,2.264137938618659973e-02,-2.399167977273464203e-02,-2.056882716715335846e-02,2.599041350185871124e-02,-2.235579676926136017e-02,-1.952016726136207581e-02,3.384040202945470810e-03,1.192049682140350342e-02,2.352086827158927917e-02,1.131047680974006653e-02,2.250882610678672791e-02,-4.284016788005828857e-03,-2.353373914957046509e-02,-1.019552233628928661e-03,2.128217555582523346e-02,1.319153513759374619e-02,2.026012167334556580e-02,-4.476966336369514465e-03,-1.699520391412079334e-03,7.106228265911340714e-03,1.917795836925506592e-02,-1.068213209509849548e-02,6.727859377861022949e-03,1.404998824000358582e-02,1.356466580182313919e-02,-2.163750492036342621e-02,1.843029633164405823e-03,-6.334923207759857178e-03,1.821783185005187988e-02,-2.281332015991210938e-02,1.582580059766769409e-02,-1.979557424783706665e-02,-1.474277116358280182e-03,1.010941434651613235e-02,7.293450180441141129e-04,-1.837665098719298840e-03,1.282466854900121689e-02,2.894069300964474678e-03,-1.868587173521518707e-02,1.228344440460205078e-02,2.564318850636482239e-02,6.037519196979701519e-04,-1.939898170530796051e-02,4.479045514017343521e-03,-4.906194750219583511e-03,3.510106354951858521e-03,1.038721669465303421e-02,5.900027230381965637e-03,2.379070036113262177e-02,9.580052457749843597e-03,2.093293331563472748e-02,-1.078816596418619156e-02,-2.801316557452082634e-03,-2.299613691866397858e-02,-8.665135130286216736e-03,7.438878528773784637e-03,-2.273645438253879547e-02,-2.908593509346246719e-03,-1.126844342797994614e-02,-9.132874198257923126e-03,8.551763370633125305e-03,-2.071768604218959808e-02,-2.725368179380893707e-02,9.487269446253776550e-03,2.411185763776302338e-03,1.074055116623640060e-02,-1.035348325967788696e-02,3.959060180932283401e-03,2.097798697650432587e-02,1.054471638053655624e-02,-2.257683128118515015e-02,4.494842607527971268e-03,-5.098667927086353302e-03,-4.880188498646020889e-03,6.528615951538085938e-03,1.155523210763931274e-02,6.927019916474819183e-03,-2.525726333260536194e-02,-1.535067427903413773e-02,-2.260529436171054840e-03,-1.848445460200309753e-02,2.092242240905761719e-02,-1.973087899386882782e-02,-1.758430525660514832e-02,1.248804293572902679e-02,-1.657100953161716461e-02,-1.227828674018383026e-02,-1.555329002439975739e-02,-1.629763282835483551e-02,-1.161401905119419098e-02,-1.840630546212196350e-02,3.622717922553420067e-04,5.144442897289991379e-03,-1.193106919527053833e-02,-1.865122467279434204e-02,-2.026133006438612938e-03,2.052950300276279449e-02,-8.716997690498828888e-03,2.439427888020873070e-03,-2.400200441479682922e-02,1.720879785716533661e-02,-1.339844195172190666e-03,-2.739927731454372406e-03,-2.665915340185165405e-02,-1.699105836451053619e-02,-2.104963175952434540e-02,-1.530172117054462433e-02,-2.616433659568428993e-03,2.588606812059879303e-02,-1.815227442421019077e-03,-1.977216266095638275e-02,6.655968260020017624e-03,-1.060211379081010818e-02,-1.326911337673664093e-02,-1.831497997045516968e-02,1.235862448811531067e-02,-2.325135841965675354e-02,-2.156724967062473297e-02,-1.772085763514041901e-02,2.065906487405300140e-02,-2.705556713044643402e-02,2.277772501111030579e-02,1.146764121949672699e-02,-1.821710914373397827e-02,1.590967178344726562e-03,3.334539942443370819e-03,2.406802587211132050e-02,-6.532027851790189743e-03,1.925886492244899273e-03,-6.925767287611961365e-03,1.598235219717025757e-02,8.382714586332440376e-04,-1.009251084178686142e-02,6.983204279094934464e-03,-2.745348401367664337e-02,-1.026898063719272614e-02,7.904882542788982391e-03,-2.378797344863414764e-02,-8.434770628809928894e-03,2.534484118223190308e-02,1.754368422552943230e-03,-2.737526968121528625e-02,-2.504269592463970184e-02,3.450850024819374084e-03,-9.071872336789965630e-04,-8.619219879619777203e-04,-2.218226529657840729e-02,-8.322608657181262970e-03,-7.705678697675466537e-03,2.631924487650394440e-02,-5.190864205360412598e-03,-1.805537380278110504e-02,2.194004878401756287e-02,2.190384082496166229e-03,3.196305129677057266e-03,-1.504278508946299553e-03,5.276246927678585052e-03,1.030169334262609482e-02,-1.416190294548869133e-03,1.446794718503952026e-03,2.126151695847511292e-02,-2.245375420898199081e-03,-1.849346421658992767e-02,1.041112653911113739e-02,1.151335611939430237e-02,7.523391395807266235e-04,-2.778328396379947662e-02,-2.440099231898784637e-02,2.529503777623176575e-02,-1.396912429481744766e-02,-1.166869048029184341e-02,6.905308458954095840e-03,-7.707084878347814083e-04,-1.446630153805017471e-02,2.707291953265666962e-02,1.787882298231124878e-02,1.676813699305057526e-02,-1.982060633599758148e-02,1.922931708395481110e-02,-2.365344204008579254e-03,1.459318399429321289e-02,-1.741781458258628845e-02,-2.787489257752895355e-02,-2.152008377015590668e-02,-1.586837694048881531e-02,-1.120323687791824341e-02,1.166326925158500671e-03,-1.002799347043037415e-02,-5.585836246609687805e-03,-2.628357335925102234e-02,-2.097827754914760590e-02,2.214863710105419159e-02,9.347898885607719421e-03,-6.487069185823202133e-03,2.730169519782066345e-02,2.541293762624263763e-02,-2.491900138556957245e-02,1.434271782636642456e-02,2.661706693470478058e-02,-1.919127814471721649e-02,2.321631647646427155e-03,-2.303942106664180756e-03,2.410571090877056122e-02,-2.114434167742729187e-02,-2.486310712993144989e-02,-1.035935431718826294e-02,1.744160242378711700e-02,-1.962292008101940155e-03,6.491281092166900635e-03,1.490251719951629639e-02,2.247210964560508728e-02,1.059778220951557159e-02,1.428555347956717014e-03,-2.791960537433624268e-02,-9.638022631406784058e-03,2.430591732263565063e-02,-1.647786423563957214e-02,1.817999966442584991e-02,4.232783801853656769e-03,1.670178025960922241e-02,-2.583790011703968048e-02,7.920356467366218567e-03,2.545834891498088837e-02,-9.067474165931344032e-04,1.679551787674427032e-02,2.234054915606975555e-02,-1.179835200309753418e-02,2.215768955647945404e-02,1.966307684779167175e-02,9.354812093079090118e-03,2.207412943243980408e-02,-1.842192374169826508e-02,-1.648029685020446777e-02,5.324274301528930664e-03,2.270682714879512787e-02,7.879032753407955170e-03,1.653858646750450134e-02,-2.102982485666871071e-03,1.285929419100284576e-02,2.557767089456319809e-03,-2.523104287683963776e-02,-4.992813337594270706e-03,2.228100039064884186e-02,-1.990623027086257935e-02,-5.184823181480169296e-03,2.672888524830341339e-02,1.459111552685499191e-02,8.559446781873703003e-03,-2.486743219196796417e-02,8.152419701218605042e-03,-9.901193901896476746e-03,-2.233820036053657532e-02,-2.516265027225017548e-02,-2.539542503654956818e-02,-4.730475135147571564e-03,-2.110324800014495850e-02,-1.824227534234523773e-02,-2.437093108892440796e-02,-1.389455702155828476e-02,-2.398958057165145874e-02,1.711742137558758259e-03,7.523444946855306625e-03,1.163166482001543045e-02,2.391288988292217255e-02,1.919348165392875671e-02,-2.002911642193794250e-02,7.448284886777400970e-03,-5.648607620969414711e-04,8.443056605756282806e-03,7.359880022704601288e-03,1.204037200659513474e-02,-2.051657252013683319e-02,-2.701024524867534637e-02,-2.793264575302600861e-02,-2.128699049353599548e-02,-1.564015261828899384e-02,-3.063981421291828156e-03,1.741870120167732239e-02,-6.963142193853855133e-03,-9.140101261436939240e-03,2.397385984659194946e-02,1.992179267108440399e-02,-3.064314601942896843e-03
-1.650360971689224243e-02,2.044310420751571655e-02,-1.509827189147472382e-02,2.142498828470706940e-02,-9.131414815783500671e-03,-9.495969279669225216e-04,-1.190365292131900787e-02,6.825667340308427811e-03,-5.119016394019126892e-03,-1.687203347682952881e-02,9.008177556097507477e-03,6.390940863639116287e-03,1.795519702136516571e-02,-9.082627482712268829e-03,-1.511182729154825211e-02,6.784560158848762512e-03,1.716998778283596039e-02,-1.756963692605495453e-02,1.082252524793148041e-02,5.519046448171138763e-03,-6.785626523196697235e-03,-2.267796546220779419e-02,2.154096588492393494e-02,1.722662150859832764e-02,8.936412632465362549e-03,2.048250660300254822e-02,5.687248893082141876e-03,1.514344383031129837e-02,-2.457077428698539734e-02,-6.172628141939640045e-03,3.806884400546550751e-03,-3.191547002643346786e-03,6.375600583851337433e-03,-1.839371398091316223e-02,1.010139379650354385e-02,-1.107054669409990311e-02,-8.593127131462097168e-03,2.262232080101966858e-02,6.114221643656492233e-03,-1.958530768752098083e-02,4.936798941344022751e-03,-8.941447362303733826e-03,2.709600143134593964e-02,-2.470176108181476593e-02,-2.246420271694660187e-02,-5.994869279675185680e-04,2.375675365328788757e-02,1.824929192662239075e-02,1.610273681581020355e-02,-2.774886973202228546e-02,4.040807485580444336e-03,-1.174032222479581833e-02,-2.209918573498725891e-02,7.420689333230257034e-03,-2.315690740942955017e-03,2.161258459091186523e-02,-2.308809757232666016e-02,5.838065408170223236e-03,4.265054594725370407e-03,-1.511675119400024414e-02,5.078406073153018951e-03,-1.457483787089586258e-02,1.416322588920593262e-02,1.749140955507755280e-02,-9.966201148927211761e-03,2.671165764331817627e-02,-1.689089462161064148e-02,9.201887063682079315e-03,-1.856944151222705841e-02,4.866970237344503403e-03,-1.434636302292346954e-03,-1.686942065134644508e-03,6.061249412596225739e-03,-2.121087163686752319e-02,-2.276139147579669952e-02,-2.322772145271301270e-02,-1.121949683874845505e-02,8.563009323552250862e-04,1.862092316150665283e-02,3.616650355979800224e-03,1.541155017912387848e-02,2.398994751274585724e-02,1.631816849112510681e-02,4.890944343060255051e-03,-2.576527930796146393e-02,-1.044754870235919952e-02,-6.904042325913906097e-03,1.159429363906383514e-02,-1.826444268226623535e-02,-1.698015257716178894e-02,-1.007665414363145828e-02,-1.009999122470617294e-02,2.087786048650741577e-02,-2.537715435028076172e-02,-6.735016591846942902e-03,-8.427639491856098175e-03,1.822367496788501740e-02,1.856174133718013763e-02,1.666211709380149841e-02,-5.869609303772449493e-03,-1.582033373415470123e-02,-1.435854472219944000e-02,-1.138687692582607269e-02,-2.549480414018034935e-03,-7.920056581497192383e-03,4.987742286175489426e-03,-1.455843821167945862e-02,-5.007850937545299530e-03,-2.105246484279632568e-02,6.697321805404499173e-05,-1.448141597211360931e-02,2.548014512285590172e-03,8.371885865926742554e-03,-1.540602929890155792e-02,4.581964574754238129e-03,1.626540534198284149e-02,-1.548781991004943848e-02,3.598361043259501457e-03,-4.235592670738697052e-03,-1.400480978190898895e-02,-7.519393227994441986e-03,1.988693326711654663e-02,6.894179619848728180e-03,-1.700304076075553894e-02,-1.004723180085420609e-02,1.580308075062930584e-03,-6.674000993371009827e-03,-2.659272216260433197e-02,8.387476205825805664e-03,-2.149607054889202118e-02,4.685216583311557770e-03,2.161279320716857910e-02,1.293441094458103180e-02,-1.682601869106292725e-02,1.719083636999130249e-02,8.131082169711589813e-03,-4.405701532959938049e-03,-2.607274800539016724e-02,1.355038769543170929e-02,-8.615068159997463226e-03,-9.979352355003356934e-03,-1.548361498862504959e-02,1.005197688937187195e-02,-2.784919366240501404e-02,2.655172906816005707e-02,-1.815990731120109558e-02,1.556821446865797043e-02,-2.304328605532646179e-03,-1.740114181302487850e-03,-2.189809642732143402e-02,1.761839725077152252e-02,-2.190335467457771301e-02,4.208386875689029694e-03,7.904236204922199249e-03,9.868153370916843414e-03,1.301646139472723007e-02,-3.096868284046649933e-03,-1.957051083445549011e-02,-9.047372266650199890e-03,-1.405370049178600311e-02,2.786000259220600128e-02,1.537051983177661896e-03,8.830089122056961060e-03,1.545526925474405289e-02,1.948655769228935242e-02,2.185425348579883575e-02,-2.534417249262332916e-02,2.205660566687583923e-02,-8.412986062467098236e-03,-1.956202648580074310e-02,2.061741799116134644e-02,-2.035204134881496429e-02,2.541174553334712982e-02,2.512869425117969513e-02,2.387228980660438538e-02,-8.459120988845825195e-03,-6.232057698071002960e-03,-1.957923639565706253e-03,-1.791801489889621735e-02,-1.948956213891506195e-02,1.066492497920989990e-02,2.794568054378032684e-02,-9.159253910183906555e-03,1.567986607551574707e-02,-1.398150925524532795e-03,-1.092342473566532135e-02,-1.312544103711843491e-02,-2.536998828873038292e-03,2.230484038591384888e-02,1.498210243880748749e-02,-2.774750348180532455e-03,-1.029197406023740768e-02,6.430521607398986816e-03,-1.950329355895519257e-02,-1.521792076528072357e-02,2.038051607087254524e-03,-5.529808811843395233e-03,-1.678735949099063873e-02,-1.197971310466527939e-02,6.418520119041204453e-03,-2.587346918880939484e-02,-2.706374041736125946e-02,1.361591182649135590e-02,2.159294113516807556e-02,2.516082860529422760e-02,1.056115329265594482e-02,-7.079189177602529526e-03,1.127705350518226624e-02,2.437063865363597870e-02,-2.631521085277199745e-03,-5.489191506057977676e-03,1.369794923812150955e-02,9.393529966473579407e-03,-6.328112911432981491e-03,6.628419272601604462e-03,2.260419726371765137e-02,1.220970042049884796e-02,2.428022027015686035e-02,1.902999915182590485e-02,-2.727123163640499115e-02,-7.700490765273571014e-03,3.066560486331582069e-03,-1.236884389072656631e-02,2.189906686544418335e-02,1.101448573172092438e-02,-2.034001983702182770e-02,2.606850862503051758e-02,-6.598874460905790329e-03,2.027854695916175842e-02,2.500331215560436249e-02,-2.433629147708415985e-02,1.062755379825830460e-02,1.498391106724739075e-02,2.490366809070110321e-02,-9.503336623311042786e-03,-6.829015910625457764e-03,1.814744621515274048e-02,2.671867609024047852e-02,7.306661456823348999e-03,-1.124058850109577179e-02,-2.172644250094890594e-02,-3.138784784823656082e-03,2.541549317538738251e-02,-1.700145751237869263e-02,4.424300976097583771e-03,-1.023378409445285797e-02,2.425700612366199493e-02,2.354182675480842590e-02,-7.882054895162582397e-03,1.272327173501253128e-02,6.070652510970830917e-03,4.446858540177345276e-03,-1.434312760829925537e-02,7.930335588753223419e-03,-1.043265778571367264e-02,-1.091460231691598892e-02,-1.023595035076141357e-02,1.694044843316078186e-02,-1.499429438263177872e-02,2.536640688776969910e-02,5.456687882542610168e-03,-9.952423162758350372e-03,-4.185059806331992149e-04,-2.355576120316982269e-02,-2.487708581611514091e-03,-1.975056948140263557e-03,-1.095929369330406189e-02,-1.836152398027479649e-03,-1.301117334514856339e-02,1.819472014904022217e-02,6.259730085730552673e-03,1.816221699118614197e-02,-1.189727615565061569e-02,1.263547409325838089e-02,1.949687674641609192e-02,-1.522992923855781555e-02,1.939547061920166016e-02,1.906037703156471252e-02,2.353134378790855408e-02,7.984196767210960388e-03,3.392320126295089722e-03,1.442133635282516479e-02,-2.441570395603775978e-03,2.382969669997692108e-02,1.565923728048801422e-02,-1.602204702794551849e-02,-2.139320224523544312e-02,4.227672703564167023e-03,2.091590873897075653e-02,2.642535604536533356e-02,-1.054918114095926285e-02,2.270207554101943970e-02,2.014992199838161469e-02,1.422034669667482376e-02,-2.277547307312488556e-02,8.052952587604522705e-03,6.076550111174583435e-03,2.648284286260604858e-02,1.384586002677679062e-02,-1.380439009517431259e-02,-1.123516075313091278e-02,-1.449735276401042938e-02,7.278472650796175003e-03,-1.535591576248407364e-02,3.450683550909161568e-03,-1.352152600884437561e-02,9.240804240107536316e-03,1.978361792862415314e-02,1.022135280072689056e-02,-3.408996853977441788e-03,-1.220922078937292099e-02,6.287895608693361282e-03,1.834131218492984772e-02,-1.345963124185800552e-02,-2.436723932623863220e-02,8.552536368370056152e-03,2.654922381043434143e-02,4.618949722498655319e-03,2.510849013924598694e-02,-2.018219977617263794e-02,2.286960743367671967e-02,-9.039152413606643677e-03,4.980031866580247879e-03,-1.776344329118728638e-02,4.648311063647270203e-03,2.329509519040584564e-02,8.691441267728805542e-03,2.293107658624649048e-02,2.587798517197370529e-03,6.283354014158248901e-03,-4.012968391180038452e-03,-1.688584801740944386e-03,-1.699933968484401703e-02,-1.508987229317426682e-02,-2.806531032547354698e-03,-2.416359633207321167e-02,1.885239500552415848e-03,-9.453016333281993866e-03,1.744163595139980316e-02,3.841083962470293045e-03,-1.685911230742931366e-02,2.696794271469116211e-02,1.487162988632917404e-02,1.355794491246342659e-03,-2.703152969479560852e-02,-1.275579258799552917e-02,-3.521258477121591568e-03,2.495818212628364563e-02,-2.777173370122909546e-02,-4.399330820888280869e-03,-1.286410260945558548e-02,1.081844698637723923e-02,2.246010489761829376e-02,1.330039091408252716e-02,-1.476185396313667297e-02,-4.967386834323406219e-03,-9.350550360977649689e-03,-1.261168625205755234e-02,-1.947420276701450348e-02,-7.552693132311105728e-03,-7.913005538284778595e-03,1.528176851570606232e-02,9.647511877119541168e-03,-3.587322076782584190e-03,1.980334147810935974e-02,2.247847057878971100e-02,-1.604440808296203613e-02,4.057433921843767166e-03,1.123557332903146744e-02,-2.892006887122988701e-03,-2.437948482111096382e-03,2.517340704798698425e-02,-9.164461866021156311e-03,2.333381958305835724e-02,-4.533806815743446350e-03,1.946880854666233063e-02,-9.997651912271976471e-03,-4.789224825799465179e-03,1.611073501408100128e-02,-4.449660424143075943e-03,-1.179608982056379318e-02,1.875226735137403011e-03,-6.192930042743682861e-03,2.194856293499469757e-02,-3.788045141845941544e-03,-2.687896043062210083e-02,-7.513978518545627594e-03,-4.454492125660181046e-03,2.093596121994778514e-04,-2.636556699872016907e-02,1.328995171934366226e-02,-2.365375682711601257e-02,-9.223744855262339115e-04,2.144948812201619148e-03,3.208883572369813919e-03,2.420465461909770966e-04,1.069159805774688721e-02,2.568609453737735748e-02,-2.389642409980297089e-02,8.228423073887825012e-03,2.199422754347324371e-02,2.263297885656356812e-02,-1.954261586070060730e-02,-2.307788841426372528e-02,1.451445929706096649e-02,-1.820445992052555084e-02,4.368126392364501953e-03,2.156269364058971405e-02,6.028096191585063934e-03,1.059360057115554810e-02,1.854868605732917786e-02,8.594799786806106567e-03,-1.902501843869686127e-02,-3.843049751594662666e-03,-3.873917448800057173e-04,-1.442216895520687103e-02,1.609391346573829651e-02,-6.060586310923099518e-03,1.178039610385894775e-02,-1.236217655241489410e-02,2.121258294209837914e-03,-1.437766756862401962e-02,-2.757352776825428009e-02,-1.058137230575084686e-02,-5.053279455751180649e-04,1.631820760667324066e-02,1.110171061009168625e-02,-1.683447137475013733e-02,-3.133103717118501663e-03,2.335567958652973175e-02,7.093116641044616699e-03,1.375554595142602921e-02,-2.758111804723739624e-02,-1.638224907219409943e-02,3.692246740683913231e-03,1.592062599956989288e-02,-1.486953347921371460e-02,-1.150540541857481003e-02,5.773124867118895054e-04,1.910752244293689728e-02,1.742901653051376343e-02,1.178162172436714172e-03,-7.328546140342950821e-03,7.289545144885778427e-03,-6.133557297289371490e-03,3.425650065764784813e-03,2.512476965785026550e-02,2.506983466446399689e-02,7.571915164589881897e-03,-1.940653659403324127e-02,9.324434213340282440e-03,-1.467866357415914536e-02,4.725656937807798386e-03,-2.038718014955520630e-02,1.195920445024967194e-02,-1.629338413476943970e-02,-1.855548657476902008e-02,-1.440753880888223648e-02,-1.265479251742362976e-02,-2.572450973093509674e-02,-2.872841199859976768e-03,1.047245226800441742e-02,-1.937625184655189514e-02,1.763263531029224396e-02,1.311807427555322647e-02,1.731975749135017395e-02,-2.110935933887958527e-02,1.269675232470035553e-02,-1.457257312722504139e-03,3.662328701466321945e-03,-3.089227946475148201e-03,-2.639792673289775848e-02,1.883305795490741730e-02,1.018809899687767029e-02,-3.946185111999511719e-03,-1.515828166157007217e-02,1.627483591437339783e-02,2.381229773163795471e-02,-7.511396543122828007e-04,-6.563871633261442184e-03,-1.432846020907163620e-02,1.389579661190509796e-02,-1.192370522767305374e-02,2.577521279454231262e-02,-8.650973439216613770e-03,2.150144241750240326e-02,2.439667098224163055e-02,-2.415625751018524170e-02,1.099539641290903091e-02,-1.771247386932373047e-02,-1.764814928174018860e-02,-1.075144764035940170e-02,-9.678502567112445831e-03,-1.761236973106861115e-02,5.452196579426527023e-03,-2.759191021323204041e-02,4.799857269972562790e-03,-2.241948060691356659e-02,-2.102338708937168121e-02,2.595215570181608200e-03,1.088699977844953537e-02,6.934420205652713776e-03,-2.518372610211372375e-02,-1.690344326198101044e-02,-1.771281287074089050e-02,1.042386516928672791e-02,1.506955083459615707e-02,1.747405156493186951e-02,2.432723902165889740e-02,1.035714522004127502e-02,-1.655486412346363068e-02,-8.218993432819843292e-03,-1.901822537183761597e-02,-2.675710618495941162e-02,-1.862094737589359283e-02,4.796225577592849731e-03,2.105186134576797485e-02,-5.985116586089134216e-03,6.146345287561416626e-03,2.129997313022613525e-02,2.275979518890380859e-02,2.365755289793014526e-02,-2.393840812146663666e-02,1.870035938918590546e-02,6.377873010933399200e-03,-9.271935559809207916e-03,-1.282092276960611343e-02,5.702682770788669586e-03,-1.074376981705427170e-03,2.576496638357639313e-02,2.253435924649238586e-02,-9.897558949887752533e-03,9.724637493491172791e-03,-1.707641407847404480e-02,-6.428596097975969315e-04,1.765557331964373589e-03,2.177184633910655975e-02,-1.553506404161453247e-02,-1.504749897867441177e-02,2.659288607537746429e-02,2.430593967437744141e-02,-2.737333066761493683e-02,-2.387265302240848541e-02,1.017430145293474197e-02,-4.937375430017709732e-03,-2.766223438084125519e-02,2.929495240096002817e-04,-7.619636133313179016e-03,2.504408592358231544e-03,3.052212763577699661e-03,1.785889454185962677e-02,1.457387232221662998e-03,2.311100438237190247e-02,1.350376289337873459e-02,1.898806355893611908e-02,2.611131779849529266e-02,-1.616364344954490662e-02,-2.527238801121711731e-02,2.402056381106376648e-02,-1.181726064532995224e-02,5.785179790109395981e-03,-1.814159192144870758e-02,3.702592803165316582e-03,1.302972622215747833e-02,-2.188344858586788177e-02,1.185102760791778564e-02,-2.052537910640239716e-02,-1.336059346795082092e-02,-2.240245416760444641e-02,7.018853444606065750e-03,-1.407555770128965378e-02,2.784061990678310394e-02,-2.104293555021286011e-02,-1.066719461232423782e-02,1.160522270947694778e-02,7.320455741137266159e-03,1.740345358848571777e-02,2.366665564477443695e-02,2.104820683598518372e-02,2.012934722006320953e-02,-3.114737803116440773e-03,-6.156867835670709610e-03,9.443550370633602142e-03,1.358659379184246063e-02,2.669293247163295746e-02,8.604468777775764465e-03,-2.418026700615882874e-02,-2.677153423428535461e-02,-2.437238814309239388e-03,-7.114028558135032654e-03,-2.461158111691474915e-02,6.512872409075498581e-03,2.554148621857166290e-02,-1.703483052551746368e-02,1.259204093366861343e-02,-2.603692747652530670e-02,-1.895045861601829529e-02,-6.303402595221996307e-03,3.900080453604459763e-03,-1.222878694534301758e-02,8.025093935430049896e-03,-2.585430443286895752e-02,-4.823141265660524368e-03,1.939842291176319122e-02,1.417800690978765488e-02,-2.170950919389724731e-02,1.645513996481895447e-02,-1.392955612391233444e-02,-2.360587380826473236e-02,-1.390635594725608826e-02,7.312166038900613785e-03,-1.546174008399248123e-02,1.841586641967296600e-02,9.925707243382930756e-03,-1.689324155449867249e-02,-2.778336592018604279e-02,1.693709380924701691e-02,1.039854157716035843e-02,-8.980458602309226990e-03,-3.429895034059882164e-03,2.389750629663467407e-02,7.008617278188467026e-03,-1.339404378086328506e-02,9.268930181860923767e-03,-6.454498972743749619e-03,4.987315740436315536e-03,-2.026504650712013245e-02,1.895711570978164673e-02,2.791906893253326416e-02,-2.065064152702689171e-03,-7.780988235026597977e-03,-1.740414090454578400e-02,2.047795429825782776e-02,-3.729608433786779642e-04,-2.394759096205234528e-03,1.877285540103912354e-02,2.470798976719379425e-02,2.437433600425720215e-02,1.778052560985088348e-02,4.207617312204092741e-04,-2.316175401210784912e-02,-2.314626052975654602e-02,2.608370268717408180e-03,-1.626230031251907349e-02,-2.479148562997579575e-03,-2.032691054046154022e-02,-7.133397273719310760e-03,8.036466315388679504e-03,8.793150482233613729e-05,-1.797865703701972961e-02,-8.904785849153995514e-03,8.935326710343360901e-03,-2.485388144850730896e-02,-2.154412865638732910e-02,-2.387105487287044525e-02,-1.112876646220684052e-02,-6.482654251158237457e-03,-1.083504408597946167e-02,-1.157480524852871895e-03,5.583507008850574493e-03,-2.598362974822521210e-02,-1.441538240760564804e-02,-1.838503777980804443e-02,-6.027190014719963074e-03,-1.190184429287910461e-02,1.700454019010066986e-02,-1.789277419447898865e-02,-2.214566059410572052e-02,1.233673392562195659e-04,-2.814924344420433044e-03,1.883698813617229462e-02,1.941888406872749329e-02,-1.807753811590373516e-03,-6.155961658805608749e-03,2.384248562157154083e-02,-1.120656169950962067e-02,1.488787960261106491e-02,2.223910018801689148e-02,-5.624087527394294739e-03,-2.311333455145359039e-02,9.857808239758014679e-03,-4.966204054653644562e-03,-5.093500018119812012e-03,2.618216443806886673e-03,1.494399085640907288e-02,1.621896028518676758e-02,1.427949313074350357e-02,-7.611372973769903183e-03,-9.310813620686531067e-03,-1.500175800174474716e-02,5.540341138839721680e-03,-9.437059634365141392e-04,-5.364534910768270493e-03,-1.300031505525112152e-02,1.166514866054058075e-02,8.616054430603981018e-03,-2.733036503195762634e-02,2.530677430331707001e-02,-1.992774754762649536e-02,-2.740358188748359680e-02,-4.646848421543836594e-03,-5.360949318856000900e-03,2.770556136965751648e-02,-3.601269796490669250e-03,1.027252245694398880e-02,-1.766696805134415627e-03,2.066752500832080841e-02,1.880909875035285950e-02,2.330867946147918701e-02,1.052148267626762390e-02,2.117554470896720886e-02,1.380305364727973938e-02,2.123099006712436676e-02,6.205115467309951782e-03,-3.877256298437714577e-03,-7.764655165374279022e-03,-2.746038604527711868e-03,2.295904979109764099e-02,1.032929308712482452e-02,-1.583500392735004425e-02,-8.216927759349346161e-03,1.945943199098110199e-02,-1.879140548408031464e-02,-8.098441176116466522e-03,7.657251320779323578e-03,2.573524136096239090e-03,-9.756645187735557556e-03,2.634947001934051514e-02,-4.870142322033643723e-03,-2.416333742439746857e-02,-1.304578327108174562e-04,4.544822499155998230e-03,-1.016042381525039673e-02,2.537029422819614410e-02,-2.645817026495933533e-02,2.045917138457298279e-02,3.953538835048675537e-03,1.335296034812927246e-02,2.266104891896247864e-02,-8.767640218138694763e-03,1.415631920099258423e-02,-2.063142322003841400e-02,1.577109657227993011e-02,1.270152046345174313e-03,-2.271644957363605499e-02,1.021005096845328808e-03,-2.239064546301960945e-03,2.310339733958244324e-02,-5.240767728537321091e-03,-1.218508090823888779e-02,-6.832860875874757767e-03,1.883377879858016968e-02,-2.712773904204368591e-02,1.916820183396339417e-02,8.234214037656784058e-03,1.088917255401611328e-02,2.494574151933193207e-02,1.696095429360866547e-02,-2.652894146740436554e-02,-6.020825821906328201e-04,1.579869911074638367e-02,6.040694192051887512e-03,-1.740443706512451172e-02,1.820304989814758301e-02,6.523258052766323090e-04,2.296715974807739258e-02,-2.914394484832882881e-03,-7.126183481886982918e-04,2.110429480671882629e-02,-8.681028266437351704e-04,7.997568696737289429e-03,-1.587902009487152100e-02,-1.703868620097637177e-03,2.619301155209541321e-02,-6.724827457219362259e-03,-5.444379523396492004e-03,-1.655940525233745575e-02,1.212104968726634979e-02,-2.771256119012832642e-02,2.406286075711250305e-02,2.587843127548694611e-02,2.241190522909164429e-03,2.556627616286277771e-03,-6.908180657774209976e-03,-8.585756644606590271e-03,1.200480572879314423e-02,1.426117029041051865e-02,-1.694620959460735321e-02,1.432057353667914867e-03,2.655754610896110535e-02,2.529484406113624573e-02,-1.865712180733680725e-02,-2.741359360516071320e-02,1.653303205966949463e-02,9.260363294743001461e-04,2.256763912737369537e-02,8.338368497788906097e-03,1.477783732116222382e-02,9.734643623232841492e-03,-6.517550442367792130e-03,-6.780578289180994034e-03,-1.937438547611236572e-02,-2.080706879496574402e-02,7.964211516082286835e-03,-5.528522306121885777e-04,-1.086455537006258965e-03,-1.873312518000602722e-02,-1.175912097096443176e-02,-1.142552401870489120e-02,9.307004511356353760e-03,1.040984038263559341e-02,9.400487877428531647e-03,-1.176708098500967026e-02,-4.730938002467155457e-03,-1.674406044185161591e-02,2.647713199257850647e-02,2.442357689142227173e-02,-1.651989109814167023e-02,-2.322948724031448364e-02,3.804411971941590309e-04,1.635994762182235718e-02,-7.710736710578203201e-03,2.670084871351718903e-02,-1.990288123488426208e-02,2.522041555494070053e-03,-6.002862937748432159e-03,2.419309224933385849e-03,8.640747517347335815e-03,-7.920902222394943237e-03,-5.538481753319501877e-03,-2.509847283363342285e-02,7.716790772974491119e-03,1.062724739313125610e-02,-1.182293519377708435e-02,-6.836299435235559940e-04,-7.048088125884532928e-03,9.727460332214832306e-03,1.201614458113908768e-02,-1.816228777170181274e-02,-2.653242321684956551e-03,-5.546925123780965805e-03,-2.630705945193767548e-02,1.879137568175792694e-02,-2.516949735581874847e-02,-1.846772432327270508e-02,-1.662785001099109650e-02,1.923494413495063782e-02,2.602353319525718689e-02,2.691228128969669342e-02,3.132697194814682007e-03,-6.864521652460098267e-03,-3.005981212481856346e-03,-1.322850026190280914e-02,-1.407625433057546616e-02,-2.371148765087127686e-02,-3.876056754961609840e-03,1.209049878525547683e-04,1.064092852175235748e-02,-1.934324763715267181e-02,-8.068623021245002747e-03,-1.073903877113480121e-05,2.496008574962615967e-02,1.401747763156890869e-02,-2.116269990801811218e-02,1.466037053614854813e-02,1.227370183914899826e-02,-5.153422709554433823e-03,-1.225358340889215469e-02,1.972954254597425461e-03,-2.067559584975242615e-02,-2.340872958302497864e-02,2.032036706805229187e-02,-1.922404579818248749e-02,-1.280844118446111679e-02,-2.333794720470905304e-02,1.979728415608406067e-02,-4.112752154469490051e-03,-1.685909554362297058e-02,-1.812948100268840790e-02,-1.043083239346742630e-02,2.521448023617267609e-02,-3.302546101622283459e-04,9.775924496352672577e-03,2.489629387855529785e-02,6.430754903703927994e-03,-1.214341027662158012e-03,2.701284736394882202e-02,6.379578728228807449e-03,1.687913015484809875e-02,2.604829333722591400e-02,1.358513440936803818e-02,1.320352312177419662e-02,-1.140876114368438721e-02,1.741756871342658997e-02,1.647505536675453186e-02,-1.540311705321073532e-02,-2.487592212855815887e-02,-2.105344831943511963e-02,1.423789933323860168e-02,1.646091043949127197e-02,8.508980274200439453e-03,1.376814395189285278e-02,-1.685483381152153015e-02,-1.495846454054117203e-02,2.606715634465217590e-02,-3.402819158509373665e-03,-1.802816055715084076e-02,-2.153431810438632965e-02,-9.450770914554595947e-03,-1.590436697006225586e-02,1.602150313556194305e-02,1.326640788465738297e-02,-3.054971573874354362e-03,-1.571661792695522308e-02,-5.814365111291408539e-03,-1.437006983906030655e-02,-1.695968769490718842e-02,1.623934879899024963e-02,5.907317623496055603e-03,7.121768780052661896e-03,1.148510724306106567e-03,-4.779888782650232315e-03,2.168338932096958160e-02,2.160179242491722107e-02,2.692914381623268127e-02,1.022781990468502045e-02,1.648360863327980042e-03,1.900243456475436687e-03,-3.562352154403924942e-03,1.982440589927136898e-04,-2.183018997311592102e-02,6.644956301897764206e-03,2.049924619495868683e-02,1.166290254332125187e-03,-1.978964544832706451e-02,2.622023224830627441e-02,-1.990790851414203644e-02,2.265236526727676392e-02,6.939058657735586166e-04,-1.994329039007425308e-03,-1.910391077399253845e-02,-1.369473710656166077e-02,3.770615439862012863e-03,4.202009644359350204e-03,9.362412616610527039e-03,8.400414139032363892e-03,2.725321799516677856e-02,-1.361561845988035202e-02,-1.958306506276130676e-02,-2.190572023391723633e-02,1.264409348368644714e-02,-9.052462875843048096e-03,1.017317175865173340e-02,-1.416471879929304123e-02,1.726987399160861969e-02,3.655531443655490875e-03,-5.682284478098154068e-03,2.229586429893970490e-02,-7.510723080486059189e-03,1.319826580584049225e-02,2.110897935926914215e-02,-2.224683761596679688e-03,-3.433087142184376717e-03,3.619075985625386238e-03,2.139087021350860596e-02,-1.539111882448196411e-02,1.360813528299331665e-02,-1.417692750692367554e-02,-2.142981067299842834e-02,-2.358721382915973663e-02,1.571864821016788483e-02,1.206097379326820374e-02,1.498840656131505966e-02,1.168213132768869400e-02,2.174703637138009071e-03,1.582623831927776337e-02,2.249994315207004547e-02,1.037353835999965668e-02,-1.451196987181901932e-02,-2.672008238732814789e-02,1.430742163211107254e-02,-8.078892715275287628e-03,-2.370248734951019287e-02,1.210459275171160698e-03,9.073727764189243317e-03,2.021371945738792419e-02,1.001596823334693909e-02,6.016094237565994263e-03,1.005518529564142227e-02,-1.648761332035064697e-02,9.685980156064033508e-03,1.551709137856960297e-02,-2.720418199896812439e-02,-2.491700835525989532e-02,2.749212272465229034e-02,-2.206945046782493591e-02,2.641545049846172333e-02,1.424080575816333294e-03,2.696171402931213379e-02,-1.388738304376602173e-02,-8.466774597764015198e-03,-5.755348596721887589e-03,-2.730270475149154663e-02,1.272783055901527405e-02,4.302312736399471760e-04,-3.267056774348020554e-03,-9.936283342540264130e-03,5.092976614832878113e-03,-9.859090670943260193e-03,-1.178547367453575134e-02,-3.670328995212912560e-03,-1.854952238500118256e-02,1.973954029381275177e-02,-2.356104552745819092e-03,-2.846118528395891190e-03,-1.333173597231507301e-03,-1.699086464941501617e-02,-1.469036843627691269e-02,-2.566586993634700775e-02,-1.938181184232234955e-02,2.331306785345077515e-02,2.635906264185905457e-02,2.271133102476596832e-02,-1.923519186675548553e-02,-1.707910001277923584e-02,2.733427844941616058e-02,1.443710364401340485e-02,2.172225713729858398e-02,4.275190178304910660e-03,5.681124981492757797e-03,-2.371165528893470764e-02,-6.128182634711265564e-03,2.036964520812034607e-02,1.188281178474426270e-02,1.411634124815464020e-02,4.562961868941783905e-03,-2.152735833078622818e-03,2.403759770095348358e-02,2.825713250786066055e-03,2.067834511399269104e-02,-1.346761477179825306e-03,-1.137621421366930008e-02,-3.177892416715621948e-03,-6.195589085109531879e-04,3.760502906516194344e-03,-4.171701613813638687e-03,-2.502628974616527557e-02,-2.002984099090099335e-02,-5.947971250861883163e-03,-2.769071422517299652e-02,2.130587957799434662e-02,5.873404443264007568e-03,-1.927780732512474060e-02,-2.639468200504779816e-02,2.453502453863620758e-02,1.659796200692653656e-02,-1.646145014092326164e-03,1.946057192981243134e-02,1.735796593129634857e-02,-1.122581074014306068e-03,1.688542775809764862e-02,1.716057024896144867e-02,6.638278719037771225e-03,-1.492619793862104416e-02,8.534117601811885834e-03,-1.303218887187540531e-03,-1.282364223152399063e-02,1.785973459482192993e-02,2.437175065279006958e-02,-2.497458271682262421e-02,1.343375444412231445e-02,-1.699355058372020721e-02,2.464571781456470490e-02,-2.776756184175610542e-03,6.023387890309095383e-03,9.005098603665828705e-03,-2.589609846472740173e-02,-2.019678987562656403e-02,1.383195538073778152e-02,-2.211651578545570374e-02,4.075903561897575855e-04,-1.897735521197319031e-02,8.017433807253837585e-03,1.595302671194076538e-02,1.290368009358644485e-02,1.051996019668877125e-03,-9.641244541853666306e-04,1.438295189291238785e-02,-7.148741278797388077e-04,-2.349964343011379242e-02,-1.961943507194519043e-02,-2.728464826941490173e-02,-2.339880913496017456e-02,-4.091687034815549850e-03,3.711195895448327065e-03,1.993058063089847565e-02,1.116615440696477890e-02,7.690331432968378067e-03,-1.677373237907886505e-02,-1.123474095948040485e-03,-2.409699745476245880e-02,2.481067553162574768e-02,-1.879978924989700317e-02,1.844198256731033325e-02,2.210649289190769196e-02,-1.617611199617385864e-02,1.183177530765533447e-02,-1.257830299437046051e-04,-2.172871679067611694e-02,-2.598830498754978180e-02,-5.237458739429712296e-03,1.277881301939487457e-02,4.426323343068361282e-03,-8.607584983110427856e-03,1.543241180479526520e-02,-5.442157271318137646e-04,-2.501144073903560638e-02,1.896125148050487041e-03,-2.398735098540782928e-02,-1.459659636020660400e-02,1.737107709050178528e-02,-9.365804493427276611e-03,8.340025320649147034e-03,1.293587405234575272e-02,1.408399082720279694e-02,4.418179858475923538e-03,1.239687576889991760e-02,1.197168231010437012e-02,-1.330278348177671432e-02,2.104826271533966064e-02,1.695996522903442383e-02,7.748881354928016663e-03,-1.792432181537151337e-02,2.356514334678649902e-02,-9.408770711161196232e-04,1.855576224625110626e-02,1.440489944070577621e-02,-1.179156173020601273e-02,-1.715862564742565155e-02,1.112718041986227036e-02,-1.360106049105525017e-03,1.751096732914447784e-02,-2.331709861755371094e-02,-1.468086894601583481e-02,-5.771125666797161102e-03,2.139242552220821381e-02,8.778509683907032013e-03,-1.312758401036262512e-02,9.505328722298145294e-03,2.312489971518516541e-02,-1.252490095794200897e-02,2.589802071452140808e-02,-4.716220777481794357e-03,-2.787979133427143097e-02,4.509996622800827026e-03,7.288242224603891373e-03,2.334198914468288422e-02,2.708087116479873657e-02,2.157398685812950134e-02,-1.065463945269584656e-02,1.660612598061561584e-02,1.668536849319934845e-02,2.237584628164768219e-02,-3.314184723421931267e-03,-1.246371539309620857e-03,3.586722305044531822e-03,1.895132125355303288e-03,-1.660382747650146484e-02,5.700340494513511658e-03,-1.269313786178827286e-02,-2.606943249702453613e-02,-1.371638150885701180e-03,1.967092044651508331e-02,2.074048295617103577e-02,-6.180202122777700424e-03,2.196424081921577454e-02,8.887366391718387604e-03,2.629369124770164490e-02,-2.181212045252323151e-02,9.882894344627857208e-03,2.578236907720565796e-02,1.835622591897845268e-03,2.111579664051532745e-02,1.970785297453403473e-02,-3.124583745375275612e-03,-9.679063223302364349e-03,-2.724489755928516388e-02,5.476893391460180283e-03,-8.081834530457854271e-04,1.477352250367403030e-02,-1.220952067524194717e-02,-2.662574872374534607e-02,9.088002145290374756e-03,1.622387208044528961e-02,2.770308591425418854e-02,-2.684069983661174774e-02,-2.217399887740612030e-02,-1.384454034268856049e-02,3.627179423347115517e-03,-9.972525760531425476e-03,-2.748163975775241852e-02,4.901236854493618011e-03,-1.646262407302856445e-02,2.668175660073757172e-02,-2.149639464914798737e-02,-1.162844989448785782e-02,1.300284732133150101e-02,6.195345893502235413e-03,5.633444059640169144e-03,-1.372817641822621226e-04,1.020687818527221680e-02,-2.599143050611019135e-02,2.758361957967281342e-02,2.242991141974925995e-02,-2.226183190941810608e-03,1.056540198624134064e-02,1.483110897243022919e-02,1.791556924581527710e-02,2.270419336855411530e-02,1.505661942064762115e-02,1.630131714046001434e-02,-1.677481271326541901e-02,5.887405481189489365e-03,-9.894100017845630646e-03,1.592473126947879791e-03,-9.463801980018615723e-03,7.905298843979835510e-03,2.612527646124362946e-02,-8.201430551707744598e-03,9.072029031813144684e-03,-2.873557619750499725e-03,-1.172036025673151016e-02,1.947007142007350922e-02,-1.268229819834232330e-02,9.592707268893718719e-03,8.983873995020985603e-04,1.135119423270225525e-02,2.022441290318965912e-02,-2.433044090867042542e-02,-8.487719111144542694e-03,3.646058728918433189e-03,-1.036186609417200089e-02,1.528777368366718292e-02,-1.168748922646045685e-02,-1.722540520131587982e-02,-1.697101257741451263e-02,1.732222922146320343e-02,1.412599440664052963e-02,3.206511028110980988e-03,-2.510709688067436218e-02,2.018804103136062622e-02,2.707415260374546051e-02,-1.255101431161165237e-02,2.294612675905227661e-02,2.005964488489553332e-04,-4.841547459363937378e-03,6.484756711870431900e-03,1.046474836766719818e-02,1.296076364815235138e-02,1.238554716110229492e-02,-1.440392341464757919e-02,2.084742300212383270e-02,-2.431324124336242676e-02,8.522901684045791626e-03,-9.147758595645427704e-03,8.043353445827960968e-03,-1.913644000887870789e-02,1.305437646806240082e-02,-6.415178067982196808e-03,1.367349550127983093e-02,-2.683524228632450104e-02,-1.607866398990154266e-02,-4.603322595357894897e-03,-2.759218588471412659e-02,2.030026912689208984e-02,-8.013691753149032593e-03,2.645234204828739166e-02,2.682490646839141846e-02,2.497667810530401766e-05,2.764632366597652435e-02
-1.700273342430591583e-02,1.049564313143491745e-02,-1.658684387803077698e-02,2.723776735365390778e-02,-1.461383234709501266e-02,2.214854024350643158e-02,2.509840764105319977e-02,2.538382634520530701e-02,-1.834900304675102234e-02,-1.269339118152856827e-03,2.166820131242275238e-02,2.508124709129333496e-02,-1.235016155987977982e-02,-2.443071082234382629e-02,2.058130223304033279e-03,-4.663258325308561325e-03,-1.663573831319808960e-02,-2.258220221847295761e-03,-2.338214963674545288e-02,1.658178493380546570e-02,-8.114058524370193481e-03,1.429975125938653946e-02,2.501917444169521332e-02,-2.381731197237968445e-02,-2.221992798149585724e-02,9.315508417785167694e-03,-1.500173471868038177e-03,-2.035518921911716461e-02,2.367198653519153595e-02,2.754376642405986786e-02,2.201424725353717804e-02,1.791792176663875580e-02,1.566154696047306061e-02,4.049580544233322144e-03,-1.221379265189170837e-02,1.615928113460540771e-02,-1.223090919665992260e-03,-9.741138201206922531e-04,1.076297555118799210e-02,-2.298934012651443481e-02,1.288444455713033676e-02,-2.620110660791397095e-02,1.377203594893217087e-02,-1.071982365101575851e-02,-2.166449278593063354e-02,-1.551891397684812546e-02,2.506317757070064545e-02,8.950813673436641693e-03,9.792437776923179626e-03,6.936099845916032791e-03,-7.847788743674755096e-03,-2.168769482523202896e-03,3.812532173469662666e-03,2.371001616120338440e-02,1.588081568479537964e-02,-1.014871802181005478e-02,-7.303952705115079880e-03,1.919567771255970001e-02,-6.175983697175979614e-03,-3.184289904311299324e-03,1.895173080265522003e-02,7.573021575808525085e-03,-1.433624327182769775e-02,2.519692108035087585e-02,1.213596668094396591e-02,2.316248789429664612e-02,1.948775351047515869e-02,-4.070625640451908112e-03,9.135460481047630310e-03,1.270513888448476791e-02,-6.987225729972124100e-03,-1.960946433246135712e-02,2.806364325806498528e-03,-2.414115890860557556e-02,-6.628049537539482117e-03,1.085024792701005936e-02,8.228123188018798828e-03,-1.580029167234897614e-02,2.663980051875114441e-02,2.454544045031070709e-02,8.307580836117267609e-03,-1.837026327848434448e-02,2.484710700809955597e-02,-7.964251562952995300e-03,-1.764438487589359283e-02,-2.317166328430175781e-02,-1.640635170042514801e-02,-8.722841739654541016e-03,-2.138632722198963165e-02,1.140551920980215073e-02,1.815035194158554077e-02,-1.849396713078022003e-02,2.079795673489570618e-02,-3.928495571017265320e-04,1.273341104388237000e-02,-2.537290006875991821e-02,9.455318562686443329e-03,1.369866169989109039e-02,1.987648196518421173e-02,-3.430531593039631844e-03,5.516673903912305832e-03,-1.207322534173727036e-02,-1.838300563395023346e-02,-5.887652281671762466e-03,-4.334339872002601624e-03,-1.335344649851322174e-02,-1.273860572837293148e-03,-2.080921269953250885e-02,5.220325663685798645e-03,-8.118100464344024658e-03,-1.566680520772933960e-02,-2.197273075580596924e-02,1.543662697076797485e-02,6.104958709329366684e-03,1.319755893200635910e-02,-1.585522294044494629e-02,1.655318960547447205e-02,3.436569124460220337e-03,1.870749890804290771e-02,-5.887762177735567093e-03,-2.540725655853748322e-02,-2.081345766782760620e-02,1.666705869138240814e-02,8.413928560912609100e-03,3.247561398893594742e-03,1.846391893923282623e-02,-2.577544003725051880e-02,-1.206310931593179703e-02,-2.749839611351490021e-02,-8.047925308346748352e-03,2.360279858112335205e-02,1.054750569164752960e-02,-1.842425577342510223e-02,1.700403727591037750e-02,-1.279035233892500401e-03,2.239374816417694092e-02,1.817079447209835052e-02,-1.042465772479772568e-02,3.622028278186917305e-03,1.131624169647693634e-02,-1.762695796787738800e-02,-6.292423699051141739e-03,-1.999262534081935883e-02,6.700873840600252151e-03,-1.099953427910804749e-03,-1.040263008326292038e-02,2.791040204465389252e-02,-2.646221220493316650e-02,-6.480548530817031860e-03,9.466314688324928284e-03,1.051539834588766098e-02,-7.985496893525123596e-03,-1.581608504056930542e-02,-2.531019225716590881e-02,-6.468143314123153687e-03,2.338515780866146088e-02,2.378234267234802246e-02,1.248567737638950348e-02,-1.404430344700813293e-02,1.131279580295085907e-02,-1.571197994053363800e-02,-1.803058572113513947e-02,-1.867019012570381165e-02,-2.198197320103645325e-02,-1.014252752065658569e-02,-2.584101632237434387e-02,2.486365474760532379e-02,-2.119458094239234924e-02,-1.867442578077316284e-02,-1.929591759108006954e-03,-2.218043990433216095e-02,7.328436244279146194e-03,-2.241853810846805573e-02,4.707491025328636169e-03,-6.980778649449348450e-03,-1.814539358019828796e-02,2.186893858015537262e-02,-2.156060747802257538e-02,8.486079983413219452e-03,-2.621148480102419853e-03,8.220346062444150448e-04,-2.249099314212799072e-02,1.039254385977983475e-02,7.548248395323753357e-03,8.839132264256477356e-03,1.061044353991746902e-02,2.422777190804481506e-02,-1.997360214591026306e-02,-2.186479978263378143e-02,1.270508300513029099e-02,2.397210337221622467e-02,1.730641270114574581e-05,-2.065233886241912842e-02,-1.102681737393140793e-02,1.714150235056877136e-02,2.614095248281955719e-02,-2.352278679609298706e-02,-6.618789862841367722e-03,1.958801969885826111e-02,-1.125693134963512421e-02,-6.590714212507009506e-03,4.120945464819669724e-03,-2.045383490622043610e-02,-5.389125086367130280e-03,-2.891620388254523277e-03,2.314614132046699524e-02,-2.015613019466400146e-02,-1.771268993616104126e-02,-2.600897289812564850e-02,-2.458488568663597107e-02,-8.678928948938846588e-03,5.507960915565490723e-03,1.749753602780401707e-03,3.997541498392820358e-03,7.627433165907859802e-03,-5.838118493556976318e-03,1.538825314491987228e-02,-1.680441945791244507e-02,-1.975166797637939453e-02,6.601503584533929825e-03,1.221825089305639267e-02,-1.488558761775493622e-02,-2.438036352396011353e-02,-1.867265626788139343e-02,-2.043004333972930908e-02,-8.997581899166107178e-03,-8.146689273416996002e-03,-1.020173076540231705e-02,1.968366466462612152e-02,1.484445016831159592e-02,-2.318443171679973602e-02,8.015448227524757385e-03,-2.334000729024410248e-02,4.626240115612745285e-03,-1.028927881270647049e-02,3.016720293089747429e-03,-3.149310592561960220e-03,1.483274530619382858e-02,-2.289396151900291443e-02,1.765969768166542053e-02,2.650166861712932587e-02,-1.412304211407899857e-02,-1.382702775299549103e-02,4.534263629466295242e-03,-2.585085853934288025e-02,-2.284999191761016846e-02,2.557238750159740448e-02,-1.146331243216991425e-02,2.973370952531695366e-03,-2.637245319783687592e-02,-1.284901145845651627e-02,-6.755321752279996872e-03,2.506041899323463440e-02,1.850332133471965790e-02,-3.490477567538619041e-03,-2.379014715552330017e-02,-2.215526998043060303e-02,-8.300570771098136902e-03,2.514296583831310272e-02,-2.320336177945137024e-02,-2.046664245426654816e-02,1.769432798027992249e-02,7.055635098367929459e-03,-1.147609762847423553e-02,1.263364800252020359e-03,-1.822960935533046722e-02,2.576196379959583282e-02,-5.529055837541818619e-03,1.304661948233842850e-02,2.313564764335751534e-03,-8.281447924673557281e-03,2.070598769932985306e-03,1.805613376200199127e-02,-1.504032593220472336e-02,-1.736104488372802734e-02,8.882198482751846313e-03,5.360959563404321671e-03,-9.720879606902599335e-04,-2.630665339529514313e-02,-1.306505873799324036e-02,1.734692975878715515e-02,2.483608759939670563e-02,6.840224843472242355e-03,-4.265437833964824677e-03,1.460984442383050919e-02,-1.729296147823333740e-02,2.262328937649726868e-02,-2.121248655021190643e-02,2.032188326120376587e-02,-1.036022044718265533e-02,-2.117143478244543076e-03,2.122728154063224792e-02,-2.565554715692996979e-02,-2.009229792747646570e-04,-1.616211608052253723e-02,-1.665366441011428833e-02,-7.958633825182914734e-03,1.003301795572042465e-02,4.111672285944223404e-03,1.047164946794509888e-02,-1.436671521514654160e-02,-4.458873532712459564e-03,-1.093193795531988144e-02,-2.667447738349437714e-02,1.174864172935485840e-02,-1.475193724036216736e-02,5.137749016284942627e-03,-2.518355660140514374e-02,1.350222434848546982e-02,2.147340960800647736e-02,-1.440217066556215286e-02,7.901170291006565094e-03,-1.316460222005844116e-02,1.594193466007709503e-02,-4.985703155398368835e-03,1.785145513713359833e-02,-1.189922448247671127e-02,-1.386896427720785141e-02,1.500410959124565125e-02,-1.588078332133591175e-03,8.204492740333080292e-03,-5.922498530708253384e-04,2.687699533998966217e-02,-2.329327538609504700e-02,-1.880129426717758179e-02,6.647414993494749069e-03,-4.190207924693822861e-03,-2.021601656451821327e-03,-2.903868677094578743e-03,6.852516438812017441e-03,1.922834431752562523e-03,1.327571459114551544e-02,-2.745974622666835785e-02,-7.556541357189416885e-03,-3.022184828296303749e-03,1.915388740599155426e-02,1.290518231689929962e-02,-8.012016303837299347e-03,-9.671482257544994354e-03,2.433142252266407013e-02,-1.552604138851165771e-02,-1.397809665650129318e-02,2.192679233849048615e-02,8.771372027695178986e-03,7.248461246490478516e-03,-1.382628735154867172e-02,-5.144172813743352890e-03,-2.505767857655882835e-03,2.782488055527210236e-02,1.704455120489001274e-03,2.147534303367137909e-02,1.511326991021633148e-02,1.215094118379056454e-03,1.810947805643081665e-02,2.320011518895626068e-02,-5.945442244410514832e-03,-2.535402029752731323e-02,-2.461261674761772156e-02,1.922407560050487518e-02,2.341634593904018402e-02,2.612624876201152802e-02,1.031190343201160431e-02,-2.300789579749107361e-02,-1.153680309653282166e-02,2.595119178295135498e-02,4.761725664138793945e-03,2.036830224096775055e-02,-2.147015370428562164e-02,-2.463855408132076263e-02,6.131251342594623566e-03,-1.508655678480863571e-02,-8.901840075850486755e-03,-1.790765486657619476e-02,-2.639516443014144897e-02,2.512517198920249939e-02,2.398024313151836395e-02,1.480249688029289246e-02,-5.559939891099929810e-03,3.604765050113201141e-03,4.908070433884859085e-03,-1.511892070993781090e-03,2.342344634234905243e-02,-1.523983897641301155e-03,-5.405811592936515808e-03,-2.558555267751216888e-02,-1.720558619126677513e-03,1.220743171870708466e-02,3.419629298150539398e-03,-1.000960730016231537e-02,2.448824001476168633e-03,5.271082278341054916e-03,-1.677413471043109894e-02,-2.501203119754791260e-02,-2.519420161843299866e-02,2.577185444533824921e-02,-2.009102515876293182e-02,-6.076316814869642258e-03,1.373201515525579453e-02,3.340354189276695251e-03,3.179705236107110977e-03,2.668623812496662140e-02,2.186320349574089050e-02,-1.725599355995655060e-02,-2.401810511946678162e-02,-9.042550809681415558e-03,-2.590119279921054840e-02,-3.938708454370498657e-03,-2.260625921189785004e-02,3.543696133419871330e-03,-2.642661519348621368e-02,-2.496835216879844666e-02,1.173243485391139984e-02,-9.722121991217136383e-03,-2.387751080095767975e-02,-1.803288795053958893e-02,-1.084372983314096928e-03,-2.041292749345302582e-02,8.181551471352577209e-03,1.689493656158447266e-02,-9.987389668822288513e-03,-9.829709306359291077e-03,3.148454241454601288e-03,6.969996262341737747e-03,-2.060765214264392853e-02,-1.785199157893657684e-02,-1.914979144930839539e-02,1.097681745886802673e-02,-1.083102542906999588e-02,2.711165882647037506e-02,-1.528535783290863037e-02,2.757856436073780060e-02,-2.113838680088520050e-02,2.653080411255359650e-02,5.396112333983182907e-03,4.404238890856504440e-03,-6.840294692665338516e-03,8.659870218252763152e-06,5.784740205854177475e-03,3.178652143105864525e-03,2.066606888547539711e-03,1.517326571047306061e-03,-2.771957777440547943e-02,2.533120289444923401e-02,-2.787670306861400604e-02,1.368859969079494476e-02,-1.032234262675046921e-02,-2.582357265055179596e-02,1.945360004901885986e-02,-4.010112956166267395e-03,-4.760089796036481857e-03,-1.411681808531284332e-02,3.794995835050940514e-03,2.358607202768325806e-02,-1.265469938516616821e-02,-1.955287996679544449e-03,3.972447942942380905e-03,5.301566794514656067e-03,-2.785489521920681000e-02,-2.436454594135284424e-02,-2.196696959435939789e-02,9.431218728423118591e-03,-8.246579207479953766e-03,-1.944426074624061584e-02,1.334924809634685516e-02,-2.159218862652778625e-02,-4.321515094488859177e-03,-1.605121046304702759e-02,2.018510736525058746e-02,-8.761996286921203136e-04,-2.296998724341392517e-02,1.522496156394481659e-02,-2.566010877490043640e-02,-6.999907549470663071e-03,-7.455341983586549759e-03,-7.875907234847545624e-03,-1.290094107389450073e-02,2.683873102068901062e-02,1.314498018473386765e-02,-6.992776878178119659e-03,2.728327922523021698e-02,-2.083739452064037323e-02,-2.396495081484317780e-02,-6.687152665108442307e-03,2.306228689849376678e-02,2.712148800492286682e-02,2.719989232718944550e-02,-1.722689159214496613e-02,-9.053552523255348206e-03,2.473467960953712463e-02,2.109767682850360870e-02,1.360007189214229584e-02,2.322459965944290161e-02,-2.686545066535472870e-02,-2.730570733547210693e-02,1.109601277858018875e-02,2.515385113656520844e-02,-1.266046427190303802e-02,9.260617196559906006e-03,-1.739427819848060608e-02,2.725556120276451111e-02,1.865226402878761292e-02,1.513556391000747681e-02,9.892017580568790436e-03,1.870068907737731934e-02,2.515019848942756653e-02,-2.005205489695072174e-02,1.048450707457959652e-03,2.247076481580734253e-02,1.754792220890522003e-02,2.364497818052768707e-02,-9.555011987686157227e-03,5.932291038334369659e-03,1.358633395284414291e-02,-1.010637171566486359e-02,-2.817203523591160774e-03,2.442665584385395050e-02,-1.291067339479923248e-02,1.339324098080396652e-02,-6.238538771867752075e-04,-2.669038623571395874e-02,-2.692724578082561493e-02,5.486906040459871292e-03,1.841604895889759064e-02,-1.898562721908092499e-02,2.444385550916194916e-02,-2.894885605201125145e-03,-1.700527220964431763e-02,-6.633367389440536499e-03,2.298955619335174561e-02,-1.768989674746990204e-02,9.061892516911029816e-03,1.991697959601879120e-02,1.985710673034191132e-02,-2.503336220979690552e-02,1.258326508104801178e-02,1.822700537741184235e-02,-3.905454883351922035e-03,1.355515979230403900e-02,-1.161091402173042297e-02,-2.074833959341049194e-02,-1.122221536934375763e-02,1.327427476644515991e-02,2.055271528661251068e-03,-1.813081279397010803e-02,2.301607653498649597e-02,-1.721479557454586029e-02,-7.984234020113945007e-03,-1.461937371641397476e-02,-3.750763367861509323e-03,1.329266466200351715e-02,2.137931995093822479e-02,-2.124083600938320160e-02,-1.871549524366855621e-02,-8.701753802597522736e-03,-2.618215605616569519e-02,-2.120777964591979980e-02,-3.841100726276636124e-03,2.368694357573986053e-02,-1.055632159113883972e-02,1.580139063298702240e-02,-1.605898886919021606e-02,2.736222743988037109e-02,7.811866234987974167e-03,-9.285720065236091614e-03,-6.074164528399705887e-03,1.663113012909889221e-02,-1.610882207751274109e-02,2.787992730736732483e-02,4.277999047189950943e-03,1.797507889568805695e-02,1.973929628729820251e-02,-2.682351693511009216e-02,2.705190517008304596e-02,-2.628449001349508762e-04,-1.338356174528598785e-02,-3.145608818158507347e-03,-2.313312515616416931e-02,-2.234250120818614960e-02,-2.241671271622180939e-02,-3.316007321700453758e-03,1.197617407888174057e-02,-5.667130462825298309e-03,-7.311879191547632217e-03,1.259659230709075928e-02,-1.552527863532304764e-02,-7.844106294214725494e-03,1.734921522438526154e-02,-3.901569871231913567e-03,4.342196916695684195e-04,-3.123550850432366133e-04,9.611636400222778320e-03,-2.307096682488918304e-02,-1.804397441446781158e-02,-1.747855357825756073e-02,-8.276853710412979126e-03,1.771017722785472870e-02,2.366912178695201874e-02,-2.427866496145725250e-02,2.097278647124767303e-02,1.625496661290526390e-03,1.913574757054448128e-03,-5.674580577760934830e-03,-2.614229917526245117e-02,-2.829761710017919540e-03,-1.212823297828435898e-02,-1.105416286736726761e-02,-4.532101098448038101e-03,4.226609889883548021e-04,-1.028010901063680649e-02,-2.481097169220447540e-02,4.479888360947370529e-03,-1.987118460237979889e-02,-4.881287924945354462e-03,-1.763734780251979828e-02,-1.562821306288242340e-02,-2.360655926167964935e-03,-2.979425247758626938e-03,-2.391369640827178955e-02,2.197434660047292709e-03,-1.962976343929767609e-02,2.720223926007747650e-02,-2.524914965033531189e-02,2.202701568603515625e-02,2.476439438760280609e-02,-1.393723953515291214e-02,4.690420813858509064e-03,-1.023476384580135345e-02,3.070165636017918587e-03,-1.999463653191924095e-03,-4.873258061707019806e-03,-6.257507484406232834e-03,1.850790157914161682e-02,-2.316698618233203888e-02,5.033996887505054474e-03,-1.504406705498695374e-02,-7.563631981611251831e-03,-1.708092354238033295e-02,2.237623557448387146e-02,-1.452082674950361252e-02,5.144806113094091415e-03,2.393339201807975769e-02,2.413835376501083374e-02,-2.661112463101744652e-03,-1.287968270480632782e-02,-1.037652045488357544e-02,-7.197445258498191833e-03,-3.239860991016030312e-03,-1.651315391063690186e-02,-1.283196173608303070e-02,2.062023431062698364e-02,8.061606436967849731e-03,7.691487669944763184e-03,2.094263583421707153e-02,-2.237866446375846863e-02,-8.898342028260231018e-03,1.815012469887733459e-02,2.742179669439792633e-02,-2.295857295393943787e-02,1.696587167680263519e-02,-1.389787532389163971e-03,2.794212661683559418e-02,-1.396554242819547653e-02,1.425231434404850006e-02,-1.317190937697887421e-02,-1.113174203783273697e-02,1.496996730566024780e-02,-2.415034919977188110e-02,1.904307864606380463e-02,2.056815102696418762e-02,8.636943064630031586e-03,-3.344176104292273521e-03,1.545661874115467072e-02,9.793686680495738983e-03,2.833603648468852043e-03,2.746824920177459717e-02,-2.439172565937042236e-02,-1.391701772809028625e-02,-7.898737676441669464e-03,2.013051323592662811e-02,1.784595288336277008e-02,2.229056693613529205e-02,-8.080782368779182434e-03,-5.300316959619522095e-03,2.262046746909618378e-02,3.556634299457073212e-03,-2.073819749057292938e-02,8.813642198219895363e-04,5.057770758867263794e-03,-9.237665683031082153e-03,-1.944525353610515594e-02,-1.165714487433433533e-02,-1.340351998805999756e-02,8.223571814596652985e-03,-1.007681712508201599e-02,1.768890395760536194e-02,-1.723011583089828491e-02,9.121945127844810486e-03,7.047758437693119049e-03,-4.740337841212749481e-03,-2.168113924562931061e-02,2.035575732588768005e-02,-4.794322885572910309e-03,-1.913997903466224670e-02,-3.226433182135224342e-03,1.715199463069438934e-02,-1.878537423908710480e-02,-2.135933190584182739e-02,1.721775904297828674e-02,2.189927501603960991e-03,-1.515262760221958160e-02,-1.930311135947704315e-02,-2.222514525055885315e-02,1.256159041076898575e-02,4.400403704494237900e-03,-8.361709304153919220e-03,8.770152926445007324e-03,1.549152843654155731e-02,2.728768810629844666e-02,2.737264148890972137e-02,-9.469229727983474731e-03,-1.194222085177898407e-02,1.357673783786594868e-03,1.894113607704639435e-02,-1.702695735730230808e-03,-6.895805709064006805e-03,-2.437865128740668297e-03,-2.375719882547855377e-02,1.516684517264366150e-02,-6.687985733151435852e-03,-3.806897671893239021e-03,-1.242409460246562958e-02,8.901436813175678253e-03,2.330411039292812347e-02,1.070017740130424500e-02,-2.454756759107112885e-02,-2.466226741671562195e-02,2.666462771594524384e-02,5.993203376419842243e-04,-3.584243357181549072e-03,-1.118146162480115891e-02,4.561156034469604492e-03,-4.815707448869943619e-03,-1.051291637122631073e-02,-1.126986369490623474e-02,-7.700004149228334427e-03,2.177397347986698151e-02,1.623115688562393188e-02,2.008072659373283386e-02,-2.609006687998771667e-02,1.001051999628543854e-02,1.406132057309150696e-02,1.846934785135090351e-03,1.406414201483130455e-03,-9.928093291819095612e-03,-2.577316015958786011e-02,6.839931476861238480e-03,2.044235914945602417e-02,2.295646071434020996e-02,1.529512740671634674e-02,1.827002130448818207e-02,-2.412138134241104126e-02,5.042010452598333359e-03,2.503013983368873596e-02,-1.378560066223144531e-02,1.947860047221183777e-02,1.402185996994376183e-03,1.937540248036384583e-02,-1.160589884966611862e-02,2.348765172064304352e-02,-2.026738226413726807e-02,2.017302997410297394e-02,-1.792574860155582428e-02,-2.208933234214782715e-03,-2.049729600548744202e-02,1.402825396507978439e-02,2.597475238144397736e-02,-2.390171773731708527e-02,1.665523648262023926e-02,3.089531091973185539e-04,-2.466161735355854034e-02,-6.999574135988950729e-03,-7.252706214785575867e-03,1.851356029510498047e-02,-2.644784748554229736e-02,-2.785387448966503143e-02,2.623618580400943756e-02,-8.880565874278545380e-03,1.097184885293245316e-02,2.565807662904262543e-02,-1.496983412653207779e-02,-4.499923903495073318e-03,-2.470117621123790741e-02,7.243260275572538376e-03,1.072956249117851257e-02,-1.147851999849081039e-02,-5.434450227767229080e-03,-2.505584061145782471e-02,2.585774660110473633e-02,-8.907304727472364902e-04,3.434000071138143539e-03,-1.001640781760215759e-02,2.321782149374485016e-02,-1.228671334683895111e-02,1.903800107538700104e-02,-2.015667269006371498e-03,1.820793934166431427e-02,6.415207870304584503e-03,1.105490233749151230e-02,-8.254835382103919983e-03,1.198449730873107910e-02,-4.419932374730706215e-04,-5.146511830389499664e-03,2.482637204229831696e-02,-2.088033035397529602e-02,2.411105111241340637e-02,-2.308313921093940735e-02,2.583743538707494736e-03,2.771029621362686157e-02,-2.236776240170001984e-02,-6.697664968669414520e-03,-2.689991705119609833e-02,-1.954298466444015503e-03,2.420899830758571625e-02,9.842757135629653931e-03,3.347651334479451180e-03,2.654773369431495667e-02,-2.373373508453369141e-02,2.665560133755207062e-02,-2.325959131121635437e-02,1.428477466106414795e-02,-1.905924454331398010e-02,5.793046671897172928e-03,-1.989728957414627075e-02,-1.493436098098754883e-02,-2.087909728288650513e-02,-1.326769415754824877e-04,-2.200054936110973358e-02,-6.169542670249938965e-03,1.231388561427593231e-02,-1.606927369721233845e-03,-9.588219225406646729e-03,2.603887394070625305e-02,1.144668902270495892e-03,-2.316724881529808044e-02,-1.686516217887401581e-02,-3.145222319290041924e-03,-2.079404518008232117e-02,2.053015679121017456e-02,1.809055544435977936e-02,4.506704397499561310e-03,1.759609393775463104e-02,2.642629481852054596e-02,1.480837818235158920e-02,-1.311242376687005162e-04,2.164801955223083496e-02,5.291187204420566559e-03,-1.765563967637717724e-03,-2.383365295827388763e-02,2.265787217766046524e-03,7.743143476545810699e-03,-2.551444992423057556e-02,4.880271852016448975e-03,1.543279504403471947e-03,-1.535495929419994354e-02,6.611089338548481464e-04,1.222873013466596603e-02,-2.655013278126716614e-02,3.247491316869854927e-03,-7.307534571737051010e-03,1.305607892572879791e-02,1.579704880714416504e-02,1.807393878698348999e-02,-5.155974999070167542e-03,-2.321647293865680695e-02,1.119356695562601089e-02,4.792250401806086302e-04,-2.770887687802314758e-02,-1.148618664592504501e-02,-8.575936779379844666e-03,1.137727405875921249e-02,1.750781573355197906e-02,-7.012492511421442032e-03,-5.521232262253761292e-03,2.637593261897563934e-02,-5.581108387559652328e-03,9.940801188349723816e-03,-8.610423537902534008e-04,-1.778475753962993622e-02,-4.311205819249153137e-03,6.697818171232938766e-03,-8.706511929631233215e-03,-2.343796007335186005e-02,8.300543762743473053e-03,2.667213790118694305e-02,1.819521375000476837e-02,-2.894342644140124321e-03,3.667216747999191284e-03,-4.060775972902774811e-03,-3.395578823983669281e-03,2.305990457534790039e-02,2.350300736725330353e-02,2.494261600077152252e-02,2.311276458203792572e-02,2.268746495246887207e-02,-1.967513235285878181e-04,-1.373109593987464905e-02,1.348706334829330444e-02,-4.168126732110977173e-03,2.066955156624317169e-02,1.291471533477306366e-02,3.703792113810777664e-03,-4.582567489705979824e-04,-6.590727716684341431e-03,-1.316686812788248062e-02,1.010826416313648224e-02,-8.921069093048572540e-03,3.456371137872338295e-03,3.636792302131652832e-03,-1.893359236419200897e-02,-2.273241989314556122e-02,-1.006281562149524689e-02,-1.065693795680999756e-03,2.314460463821887970e-02,4.943320062011480331e-03,1.399536966346204281e-03,-1.207671035081148148e-02,7.438845466822385788e-03,-6.780165247619152069e-03,2.329981653019785881e-03,-4.752133099827915430e-04,-2.597574517130851746e-02,1.082187891006469727e-02,1.356288604438304901e-02,1.934395544230937958e-02,-5.476589780300855637e-03,-1.782489567995071411e-02,-1.547752693295478821e-02,7.167477160692214966e-03,1.241017016582190990e-03,2.745820395648479462e-02,-3.236042568460106850e-03,2.684939652681350708e-03,1.201052684336900711e-02,2.765787299722433090e-03,-6.596848834306001663e-03,-2.704356797039508820e-02,1.143816579133272171e-02,-2.128473110496997833e-02,-1.448160852305591106e-03,2.069496177136898041e-02,-1.075543556362390518e-02,9.664478711783885956e-03,1.695633865892887115e-02,-1.822541467845439911e-02,6.222874857485294342e-03,8.147608488798141479e-03,2.390070818364620209e-02,-2.660764008760452271e-02,-5.291580688208341599e-03,-2.113234996795654297e-02,-1.828849688172340393e-02,2.636563591659069061e-02,2.128744311630725861e-02,1.183152571320533752e-02,-2.167369984090328217e-02,-2.163585834205150604e-02,2.687119133770465851e-02,2.043559215962886810e-02,-2.288150601089000702e-02,2.619486488401889801e-02,2.171796932816505432e-02,9.275624528527259827e-03,-1.507578138262033463e-02,2.694790065288543701e-02,-9.760683402419090271e-03,-2.276293374598026276e-02,2.699479833245277405e-02,1.298025250434875488e-02,-4.077009856700897217e-03,2.526200748980045319e-02,-4.267133772373199463e-03,-2.200812660157680511e-02,9.478319436311721802e-03,1.382457185536623001e-02,2.289699390530586243e-02,-2.067891322076320648e-02,1.952447928488254547e-02,-2.685092575848102570e-02,-1.453791977837681770e-03,2.985109575092792511e-03,-1.326273661106824875e-02,2.610296197235584259e-02,-1.396546512842178345e-02,-1.131172664463520050e-02,-1.321311574429273605e-02,2.023612521588802338e-02,-2.351739630103111267e-02,-1.389545015990734100e-02,-1.252519083209335804e-03,-2.208110690116882324e-02,1.403555739670991898e-02,1.569768972694873810e-02,-7.642177399247884750e-03,-2.596703916788101196e-02,2.599118277430534363e-02,-2.492523193359375000e-02,4.048897419124841690e-03,8.983677253127098083e-03,2.221096493303775787e-02,2.458595484495162964e-02,-5.894293077290058136e-03,-1.627535559237003326e-02,2.334706299006938934e-02,2.512911520898342133e-02,1.988595165312290192e-02,2.451047115027904510e-02,-1.040084098349325359e-04,1.019192766398191452e-02,-2.946998225525021553e-03,-1.540983468294143677e-02,-2.411667630076408386e-02,-1.673189550638198853e-02,-1.948574092239141464e-03,5.938692018389701843e-03,2.081594197079539299e-03,2.132396586239337921e-02,-1.004181802272796631e-03,1.108809956349432468e-03,2.628504484891891479e-02,2.472119778394699097e-02,-1.256646122783422470e-02,-1.297413464635610580e-02,1.987675204873085022e-02,2.179451752454042435e-03,1.067254226654767990e-02,1.839207485318183899e-02,-9.915485046803951263e-03,1.995039544999599457e-02,2.095394022762775421e-02,-5.079208873212337494e-03,-1.750998385250568390e-02,1.750540360808372498e-02,-1.436893083155155182e-02,-2.502268366515636444e-02,-1.400862168520689011e-02,1.678698696196079254e-02,2.349006943404674530e-02,1.463327184319496155e-02,-1.704473420977592468e-02,-8.528263308107852936e-03,-4.771824926137924194e-03,2.215053886175155640e-02,1.496222335845232010e-02,2.745622768998146057e-02,6.496155634522438049e-03,-1.766152307391166687e-02,-1.222148910164833069e-02,-3.074064152315258980e-03,-1.061279606074094772e-02,-2.435938827693462372e-02,-2.040004543960094452e-02,-2.297476306557655334e-02,-1.866170391440391541e-02,-1.103216502815485001e-02,2.074251510202884674e-02,-1.553045585751533508e-03,-3.853622358292341232e-03,-2.206732891499996185e-02,7.467333693057298660e-03,3.292906563729047775e-03,-1.281754765659570694e-02,2.764135040342807770e-02,2.080635353922843933e-02,-8.502962999045848846e-03,-2.252769190818071365e-03,-2.590727247297763824e-02,8.729629218578338623e-03,3.952366299927234650e-03,2.253354527056217194e-02,8.048757910728454590e-03,3.045865334570407867e-03,-4.772791289724409580e-04,-2.029394544661045074e-02,2.447960712015628815e-02,1.786093786358833313e-02,-1.624814234673976898e-02,1.290975790470838547e-02,-1.295985747128725052e-02,3.496035235002636909e-03,-9.171475656330585480e-03,-1.235993113368749619e-02,-2.362489327788352966e-02,-2.491898089647293091e-02,-1.558355148881673813e-02,-9.264928521588444710e-04,-2.690486423671245575e-02,-1.855910569429397583e-02,-2.681294572539627552e-04,8.502726443111896515e-03,-2.214987576007843018e-02,2.659622393548488617e-02,1.741066761314868927e-02,-1.550318673253059387e-02,1.890902593731880188e-02,2.388418652117252350e-02,1.426686160266399384e-02,-2.626324445009231567e-02,-1.004547253251075745e-02,1.256711408495903015e-02,-1.856659911572933197e-02,-1.200760155916213989e-02,2.008759975433349609e-02,5.254792049527168274e-03,2.599610760807991028e-02,2.032271400094032288e-02,2.058840123936533928e-03,-1.410759147256612778e-02,-3.657064167782664299e-03,-9.874171577394008636e-03,-7.815614342689514160e-03,2.330193854868412018e-02,-2.477194741368293762e-02,-1.477914955466985703e-02,2.272123098373413086e-02,-1.501005794852972031e-02,-9.858224540948867798e-03,-1.132208574563264847e-02,9.076086804270744324e-03,-2.524193562567234039e-02,1.578388852067291737e-03,-2.794981375336647034e-02,-1.305538602173328400e-02,-2.767088077962398529e-02,2.747699804604053497e-02,1.015880052000284195e-02,8.014785125851631165e-03,-2.714192681014537811e-02,-2.209891937673091888e-02,4.062148742377758026e-03,-8.234227076172828674e-03,6.499147508293390274e-03,1.446030102670192719e-02,-1.495171803981065750e-02,5.466933827847242355e-03,-5.435822997242212296e-03,-3.481997642666101456e-03,-2.460274472832679749e-02,2.409431897103786469e-02,-1.779155619442462921e-02,-1.623744703829288483e-02,-1.300043426454067230e-03,-2.420890517532825470e-02,2.866270486265420914e-03,-9.956921450793743134e-03,-1.575875468552112579e-02,1.855347119271755219e-02,-2.100688964128494263e-02,1.291027106344699860e-02,2.468598075211048126e-02,-1.797775179147720337e-02,4.535519474302418530e-05,6.299544125795364380e-03,9.176024235785007477e-03,1.710764877498149872e-02,1.973492838442325592e-02,4.422808066010475159e-03,-2.726549096405506134e-02,-6.655878387391567230e-03,7.798737846314907074e-03,-3.662332193925976753e-03,-2.505581453442573547e-02,-2.546881511807441711e-02,2.284166961908340454e-02,-6.784450262784957886e-03,1.545106805860996246e-02,-2.614297904074192047e-03,-6.669596303254365921e-03,8.288918761536478996e-04,7.792533840984106064e-03,-1.814578101038932800e-02,-2.174433507025241852e-02,1.683903671801090240e-02,-1.591745764017105103e-02,-1.018356438726186752e-02,-1.191916037350893021e-02,-2.665670774877071381e-02,1.996954344213008881e-02,-6.540384492836892605e-04,-2.312457188963890076e-02,1.867522113025188446e-02,-8.542650379240512848e-03,-7.833041250705718994e-03,1.426581200212240219e-02,1.481372583657503128e-02,-2.449966035783290863e-02,1.175584550946950912e-02,-8.908337913453578949e-04,-2.649150229990482330e-02,1.322996616363525391e-02,-1.316956710070371628e-02,-2.412968687713146210e-02,-2.162461914122104645e-02,-2.427420578896999359e-02,-1.699247397482395172e-02,-2.082451246678829193e-02,1.966340653598308563e-02,-3.843726357445120811e-03,2.241502702236175537e-02,-1.926502212882041931e-02,-4.739844705909490585e-03,-2.372507937252521515e-03,-1.025383267551660538e-02,-7.595532573759555817e-03,2.017998322844505310e-02,-1.300388015806674957e-02,2.784512192010879517e-02,1.748373173177242279e-02,-5.290390923619270325e-03,2.794434502720832825e-02,-4.434923175722360611e-03,1.464975532144308090e-02,4.922591615468263626e-03,4.447504878044128418e-03,-4.083780106157064438e-03,-9.036193601787090302e-03,-3.101426409557461739e-04,-2.736986801028251648e-02,-1.058704312890768051e-02,-2.336516976356506348e-02,1.510741561651229858e-02,2.347988076508045197e-02,5.959746893495321274e-03,2.237611822783946991e-02,2.261943556368350983e-02,-2.776945196092128754e-02,6.486266385763883591e-03,2.416923409327864647e-03,9.299580939114093781e-03,-2.076227776706218719e-02,-2.488104626536369324e-02,-1.398024242371320724e-02,-2.732158824801445007e-02,1.913272216916084290e-02,9.546861983835697174e-03,1.021722424775362015e-02,-1.382330525666475296e-02,1.678502745926380157e-02,-1.420628931373357773e-02,1.981571502983570099e-02,-1.447897963225841522e-02,-7.894543232396245003e-04,-2.352094091475009918e-02,1.787894032895565033e-02,-1.233158912509679794e-02,-1.514563988894224167e-02,-6.634613382630050182e-04,2.148573845624923706e-02,2.407792210578918457e-02,2.469856292009353638e-02,1.896698144264519215e-03,9.801483713090419769e-03,-2.243379317224025726e-02,-5.428445991128683090e-03,2.629766426980495453e-02,-1.958330534398555756e-02,8.058857172727584839e-03,4.157220944762229919e-03,2.362140826880931854e-02,1.743428781628608704e-02,-2.381870895624160767e-02,6.091907154768705368e-03,1.977729145437479019e-03,-5.540880840271711349e-03,9.220626205205917358e-03,-1.422185264527797699e-02,1.649260520935058594e-02,6.052226293832063675e-03,3.735672798939049244e-04,2.780992165207862854e-02,2.530574426054954529e-02
