3.432900703046470881e-04
-3.999210149049758911e-02
-4.516400024294853210e-02
-4.007012024521827698e-02
-2.144517144188284874e-03
-4.583698883652687073e-02
-4.408065229654312134e-02
-3.221062570810317993e-02
4.314601793885231018e-02
-5.621800199151039124e-03
-3.751098178327083588e-03
-1.192592456936836243e-02
3.173787146806716919e-02
2.603570558130741119e-02
1.015701889991760254e-02
-1.671604113653302193e-03
-6.589796976186335087e-04
-4.565747827291488647e-02
-1.125429850071668625e-02
2.780734375119209290e-02
-1.434028847143054008e-03
-3.247752785682678223e-03
-1.265796832740306854e-02
-2.489638142287731171e-02
-1.576911471784114838e-02
-1.420243084430694580e-02
-1.399806700646877289e-02
1.087117008864879608e-02
1.363910548388957977e-02
3.253807313740253448e-03
4.370901361107826233e-02
3.509920090436935425e-02
2.122360281646251678e-02
-1.801748946309089661e-02
-1.265481952577829361e-02
9.823669679462909698e-03
2.943582832813262939e-02
-1.791314594447612762e-02
2.521527558565139771e-02
-8.496623486280441284e-03
3.001033328473567963e-02
-3.280401695519685745e-03
-5.137879773974418640e-02
5.748743657022714615e-03
-4.309695959091186523e-02
7.571756839752197266e-03
-4.734142124652862549e-02
-1.701384782791137695e-02
-4.845931543968617916e-04
-2.152297645807266235e-02
-1.477132085710763931e-03
5.323408171534538269e-03
-7.051919121295213699e-03
3.394845500588417053e-02
-2.881476655602455139e-02
-3.151471540331840515e-02
-1.029021013528108597e-02
-1.159106660634279251e-02
-4.607217758893966675e-02
4.459480568766593933e-02
6.508616497740149498e-04
1.200092956423759460e-02
-1.536564435809850693e-02
-2.730806358158588409e-02
-2.177159301936626434e-02
-4.561723768711090088e-02
-4.919740557670593262e-02
4.734063893556594849e-02
-1.871738396584987640e-02
-3.376398235559463501e-02
-2.270963974297046661e-03
3.112240228801965714e-03
-6.768680177628993988e-04
-2.461951039731502533e-02
-3.276066272519528866e-04
2.540703117847442627e-02
3.242237865924835205e-02
-3.369694948196411133e-02
4.152039531618356705e-03
5.867257714271545410e-03
4.642483964562416077e-02
-9.840127080678939819e-03
-4.955631867051124573e-02
-4.607174778357148170e-04
3.787861764430999756e-02
2.374010160565376282e-02
3.170087188482284546e-02
-2.152182161808013916e-02
-2.253309125080704689e-03
-3.215805441141128540e-02
2.807389199733734131e-02
9.293916635215282440e-03
4.943775478750467300e-03
3.390499576926231384e-02
2.256901934742927551e-02
2.367639727890491486e-02
-2.937357639893889427e-03
2.191152796149253845e-02
-5.074552074074745178e-02
-1.070550549775362015e-02
-6.665553897619247437e-03
3.154167532920837402e-02
-1.860203035175800323e-02
-1.918908953666687012e-02
-1.245233789086341858e-02
3.637215495109558105e-02
6.822389084845781326e-03
-8.970649912953376770e-03
-7.084753829985857010e-03
4.020556807518005371e-02
-2.395624667406082153e-02
-3.038183413445949554e-02
2.375970780849456787e-02
3.484645485877990723e-02
-3.972571808844804764e-03
2.366256434470415115e-03
-4.682890139520168304e-03
7.375812623649835587e-03
3.394825756549835205e-02
2.551252953708171844e-02
-2.151247113943099976e-02
-4.206187278032302856e-02
5.023644119501113892e-02
-2.985789440572261810e-02
-3.772680088877677917e-02
-1.533987279981374741e-02
-2.059058658778667450e-02
3.783664479851722717e-02
