3.954071179032325745e-02
-5.914280563592910767e-02
-2.200326882302761078e-02
-4.794507473707199097e-02
-6.657388992607593536e-03
3.103701211512088776e-02
-3.417554777115583420e-03
7.970225811004638672e-02
-8.309221826493740082e-03
2.056454308331012726e-02
-5.711043626070022583e-02
-3.412473713979125023e-03
-6.080164760351181030e-02
-6.620989739894866943e-02
-5.373206734657287598e-02
-8.788964711129665375e-03
9.517930448055267334e-02
-1.015214323997497559e-01
2.324479864910244942e-04
3.313427092507481575e-03
5.601394549012184143e-02
-1.077088937163352966e-01
6.644879281520843506e-02
-1.413333229720592499e-02
-7.547894865274429321e-02
4.968589916825294495e-02
3.430010750889778137e-02
-8.867820352315902710e-02
7.786202430725097656e-02
-6.935332715511322021e-02
3.180455788969993591e-02
-1.013519689440727234e-01
1.666285097599029541e-02
-9.188176691532135010e-02
4.388928040862083435e-02
5.790347978472709656e-02
-3.424784541130065918e-02
5.868496000766754150e-02
-6.728434562683105469e-02
7.479853928089141846e-02
-2.634482644498348236e-02
-9.755539149045944214e-02
-5.733913276344537735e-03
-6.396914273500442505e-02
-2.530588768422603607e-02
-1.827783696353435516e-02
4.636293277144432068e-02
3.617703169584274292e-02
5.074737966060638428e-02
-2.420173026621341705e-03
-5.286116153001785278e-02
6.656714528799057007e-02
8.118819445371627808e-02
-9.541109204292297363e-02
3.976695984601974487e-02
-2.332576178014278412e-02
6.431937962770462036e-02
6.216056272387504578e-02
6.349211931228637695e-02
9.542327374219894409e-02
2.637096447870135307e-03
-2.585694193840026855e-02
5.083525553345680237e-03
7.633967697620391846e-02
