-6.678118556737899780e-02,-7.485209405422210693e-02,-2.033750899136066437e-02,6.808932870626449585e-02,3.132750093936920166e-02,6.998483836650848389e-02,-4.982256889343261719e-02,8.559747785329818726e-02,2.503531239926815033e-02,-6.731106340885162354e-02,4.664823878556489944e-03,-4.645160213112831116e-02,5.186515301465988159e-02,-2.292224764823913574e-02,-1.091797277331352234e-02,-4.366340860724449158e-02,-5.146593600511550903e-02,-3.937605023384094238e-02,3.094198182225227356e-02,-8.305278606712818146e-03,-8.801344037055969238e-02,-2.737832814455032349e-02,-5.313961952924728394e-02,-3.710107877850532532e-02,-3.568797931075096130e-02,5.071273073554039001e-02,-4.944729432463645935e-02,-7.995737344026565552e-02,1.052651274949312210e-02,7.378923892974853516e-02,1.623028703033924103e-02,-5.052052065730094910e-02,-5.623378977179527283e-02,6.579175591468811035e-02,-8.650495857000350952e-02,-8.603521436452865601e-02,2.858035638928413391e-02,7.047610729932785034e-02,-4.771565645933151245e-02,6.801629811525344849e-02,8.141735941171646118e-02,8.350612968206405640e-02,3.928117919713258743e-03,-4.821115732192993164e-02,5.379468947649002075e-02,6.415569782257080078e-02,-9.189235046505928040e-03,2.559037506580352783e-02,-2.966786175966262817e-02,-1.926963403820991516e-02,-5.015414953231811523e-02,-3.100643493235111237e-02,6.204549223184585571e-02,3.249517828226089478e-02,-5.388536676764488220e-02,-3.171689435839653015e-02,-6.461550295352935791e-02,5.036708340048789978e-02,2.430029213428497314e-03,-4.448547214269638062e-02,5.640839226543903351e-03,3.990145400166511536e-02,-1.277206465601921082e-02,8.090352267026901245e-02,4.391815513372421265e-02,-4.757127538323402405e-02,5.478077754378318787e-02,3.253963217139244080e-02,-3.559195902198553085e-03,-1.744868932291865349e-03,4.985855147242546082e-02,-6.387323141098022461e-02,1.011450588703155518e-02,-4.968418926000595093e-02,-8.073261380195617676e-02,8.872670121490955353e-03,-7.845991104841232300e-02,-7.897358387708663940e-02,4.504097625613212585e-02,-7.302264869213104248e-02,-1.093230210244655609e-02,9.751084260642528534e-03,-6.645356770604848862e-03,-4.970714822411537170e-02,-6.764547899365425110e-03,-6.943330913782119751e-02,8.295532315969467163e-03,5.695791542530059814e-02,2.219166420400142670e-02,-3.285744041204452515e-02,-6.286875903606414795e-02,-6.897996366024017334e-02,7.856341078877449036e-03,5.729761719703674316e-02,-4.198624566197395325e-02,6.530288606882095337e-02,-7.384749595075845718e-03,-5.640451610088348389e-02,5.575570836663246155e-02,-1.639605127274990082e-02,5.761135742068290710e-02,-7.440604269504547119e-02,3.063035942614078522e-02,8.487077057361602783e-02,3.013392165303230286e-02,-1.114518567919731140e-02,4.123584367334842682e-03,4.876524209976196289e-02,1.041077729314565659e-02,-8.294329047203063965e-02,-7.053624093532562256e-02,8.156619220972061157e-02,-2.995729446411132812e-02,-7.634447515010833740e-02,-5.879439786076545715e-02,6.872512400150299072e-02,-2.596651576459407806e-02,-5.168362706899642944e-02,7.004851102828979492e-02,4.654687363654375076e-03,2.653774246573448181e-02,2.986788004636764526e-02,1.539279799908399582e-02,-3.043939173221588135e-02,4.566549882292747498e-02,6.155322864651679993e-02,6.416386365890502930e-02,7.967846840620040894e-02
-4.442306235432624817e-02,-3.663879260420799255e-02,5.526116490364074707e-02,3.774777054786682129e-03,4.601029306650161743e-02,-8.240542560815811157e-02,3.440245985984802246e-02,5.074366554617881775e-02,5.191862583160400391e-02,3.262262046337127686e-02,7.480319589376449585e-02,3.873006626963615417e-02,-1.385664008557796478e-02,6.794041395187377930e-02,4.448837786912918091e-02,-1.559875905513763428e-02,-5.180269014090299606e-03,-8.227732032537460327e-02,4.180169850587844849e-02,-3.424761071801185608e-02,-3.036898560822010040e-02,8.478428423404693604e-02,-3.532699123024940491e-02,-5.688876286149024963e-02,4.405469819903373718e-02,-8.714595437049865723e-02,-4.876876994967460632e-02,2.974449470639228821e-02,-7.909663021564483643e-02,-6.218757852911949158e-02,-3.709719330072402954e-02,4.049488157033920288e-02,-5.766310542821884155e-02,-9.888293221592903137e-03,-3.853237628936767578e-02,7.303854823112487793e-02,-8.477734029293060303e-02,7.776976376771926880e-02,9.592675603926181793e-03,6.748522818088531494e-02,5.263916775584220886e-02,-7.490469515323638916e-02,-1.107014343142509460e-02,3.000523708760738373e-02,3.804070129990577698e-02,4.882243275642395020e-02,7.524322718381881714e-02,-2.794308587908744812e-02,-4.624383524060249329e-03,-1.203502155840396881e-02,-3.051888011395931244e-02,-2.895160764455795288e-02,1.597170531749725342e-02,8.600828051567077637e-02,-4.100140184164047241e-03,8.320646733045578003e-02,-6.262824684381484985e-02,-1.874993182718753815e-02,1.812693779356777668e-03,4.314045945648103952e-04,7.732121646404266357e-02,8.462180942296981812e-02,7.199104875326156616e-02,-5.985268577933311462e-02,-1.281755138188600540e-02,-5.021610483527183533e-02,7.158371061086654663e-02,-6.039798259735107422e-02,5.984434112906455994e-02,-6.148370727896690369e-02,-4.126788675785064697e-02,4.065725207328796387e-02,-2.090973593294620514e-02,-8.217178285121917725e-02,-5.274737998843193054e-02,2.532470226287841797e-02,-4.246621578931808472e-02,-1.908759027719497681e-02,2.397956512868404388e-02,1.631845906376838684e-02,-5.919764935970306396e-02,3.036129288375377655e-02,-1.883152686059474945e-02,2.391853556036949158e-02,8.270366489887237549e-02,-6.981287896633148193e-02,-7.516609877347946167e-02,4.949248582124710083e-02,3.323402255773544312e-02,-2.039202488958835602e-02,6.615322828292846680e-02,-6.080622598528862000e-02,1.587448455393314362e-02,8.772084861993789673e-02,4.599191620945930481e-02,2.866466157138347626e-02,1.690421625971794128e-02,5.922441184520721436e-02,-6.195903941988945007e-02,-1.022858731448650360e-02,7.088327407836914062e-02,6.165331602096557617e-02,-8.379900455474853516e-02,-8.277576416730880737e-02,7.776473462581634521e-02,-3.845234960317611694e-02,5.926143750548362732e-02,6.842408329248428345e-02,-1.976560801267623901e-02,-4.978125542402267456e-02,-5.230335146188735962e-02,-4.810814186930656433e-02,7.821143418550491333e-02,3.757887706160545349e-02,7.082387804985046387e-02,7.192391157150268555e-02,-4.650021716952323914e-02,-3.529364243149757385e-02,-2.208016440272331238e-02,-3.232119604945182800e-02,3.184351325035095215e-02,-6.217211112380027771e-02,4.422648996114730835e-02,7.469619810581207275e-02,-4.367450252175331116e-02,3.586020320653915405e-02,-6.242264434695243835e-02,8.104071021080017090e-02
5.632636323571205139e-02,5.572427436709403992e-02,-4.556887596845626831e-02,-7.196885347366333008e-02,2.688501030206680298e-02,-5.294651538133621216e-02,-4.441479966044425964e-02,-8.685660362243652344e-02,-8.422175794839859009e-02,-2.204343304038047791e-02,1.027831993997097015e-02,-6.909766793251037598e-02,3.299581818282604218e-03,5.604308564215898514e-03,-3.786034509539604187e-02,6.928409636020660400e-02,5.123781785368919373e-02,6.042687222361564636e-02,-5.660323798656463623e-02,3.193229436874389648e-02,-4.823445528745651245e-02,-2.918716706335544586e-02,-7.244454324245452881e-02,-2.072800882160663605e-02,6.910784542560577393e-02,-1.310735382139682770e-02,-8.106239140033721924e-02,-2.170829288661479950e-02,7.677417248487472534e-03,6.331227719783782959e-02,-2.295120246708393097e-02,1.130535453557968140e-02,8.323618769645690918e-02,7.472726702690124512e-02,7.751147449016571045e-02,-6.607551872730255127e-02,3.649863228201866150e-02,-3.773343190550804138e-02,2.974241971969604492e-02,-1.241393270902335644e-03,-3.852049261331558228e-02,-4.961871355772018433e-02,4.502149298787117004e-02,4.618186131119728088e-02,-8.316445350646972656e-02,-2.957981638610363007e-02,7.559433579444885254e-02,-6.831637024879455566e-02,4.562019929289817810e-02,8.767198771238327026e-02,2.606962621212005615e-02,-2.917826361954212189e-02,3.531373664736747742e-02,4.469901695847511292e-02,-2.356546185910701752e-02,-7.355543971061706543e-02,-4.544625058770179749e-02,-4.538245126605033875e-02,3.109570220112800598e-02,-1.781026832759380341e-02,-1.438717450946569443e-02,4.585430398583412170e-02,-1.080875936895608902e-02,-5.117898061871528625e-02,1.379782427102327347e-02,7.066793739795684814e-02,3.355521184857934713e-04,6.372561305761337280e-02,-4.523700103163719177e-02,-2.999643795192241669e-03,-3.706177696585655212e-02,6.611998379230499268e-02,-3.935604169964790344e-02,-6.572106480598449707e-02,2.295434288680553436e-02,8.401834964752197266e-02,-2.639571763575077057e-02,2.863527461886405945e-02,2.962590381503105164e-02,-6.717267632484436035e-02,-4.391754046082496643e-02,3.787394613027572632e-02,-6.048156879842281342e-03,4.689635336399078369e-02,7.144492119550704956e-02,-7.940717041492462158e-02,4.016986489295959473e-02,-5.004305858165025711e-03,-5.537349730730056763e-02,9.396566078066825867e-03,-1.683502085506916046e-02,-1.240731589496135712e-02,4.255719110369682312e-02,5.358949676156044006e-02,-6.479454785585403442e-02,-5.141865834593772888e-02,-4.323777556419372559e-02,1.472762599587440491e-02,-6.118555739521980286e-02,7.621420919895172119e-02,8.449243009090423584e-02,-4.726203158497810364e-02,1.730573736131191254e-02,-4.703402891755104065e-02,-3.016394004225730896e-02,-5.864944774657487869e-03,1.327236928045749664e-02,-3.974226303398609161e-03,7.207318395376205444e-02,3.524853661656379700e-02,5.066523328423500061e-02,-3.181187063455581665e-02,-6.013176217675209045e-02,-1.866453140974044800e-02,-5.571167543530464172e-02,-8.478549867868423462e-02,5.552204325795173645e-03,-3.590985201299190521e-03,-1.432230975478887558e-02,-7.865616679191589355e-02,5.912974104285240173e-02,5.212132260203361511e-02,5.740631371736526489e-02,2.084367163479328156e-02,3.977028280496597290e-02,-4.757777601480484009e-02,-3.898214548826217651e-03,3.949283808469772339e-02
-2.428417094051837921e-03,4.878497747995425016e-06,-7.603044807910919189e-02,2.986074611544609070e-02,-4.845665395259857178e-02,2.569309808313846588e-02,1.285573653876781464e-02,4.889983683824539185e-02,7.418604195117950439e-02,4.004210978746414185e-02,1.816449128091335297e-02,4.014944657683372498e-02,-2.323229052126407623e-02,-3.028536587953567505e-02,-4.226421564817428589e-02,-5.498627200722694397e-02,-4.555763304233551025e-02,2.738798037171363831e-02,-1.504134573042392731e-02,7.537145167589187622e-02,-2.694149874150753021e-02,-3.054662421345710754e-02,-4.910660907626152039e-02,-6.897881627082824707e-02,-8.096503466367721558e-02,-8.796560019254684448e-02,7.183910161256790161e-02,5.720521137118339539e-02,-4.779415577650070190e-02,2.545605413615703583e-02,3.450971096754074097e-02,2.744274958968162537e-02,-4.823304340243339539e-02,2.472051791846752167e-02,5.708332359790802002e-02,-8.127883821725845337e-02,-6.227711960673332214e-02,-7.084656506776809692e-02,-4.458072129637002945e-03,-8.754657953977584839e-02,-1.906056329607963562e-02,-5.822835862636566162e-02,-8.797643333673477173e-02,-4.444837197661399841e-02,3.763997927308082581e-02,-2.982865087687969208e-02,6.308364123106002808e-02,7.599587738513946533e-02,3.310145810246467590e-02,6.632928550243377686e-02,5.871279165148735046e-02,-6.426774710416793823e-02,1.698968932032585144e-02,3.060257248580455780e-02,1.107491645961999893e-02,7.491672784090042114e-02,-4.453934356570243835e-02,7.905145734548568726e-02,1.684848777949810028e-02,7.864122092723846436e-02,-6.384683400392532349e-02,6.177042145282030106e-03,-3.777652606368064880e-02,-5.597535520792007446e-02,1.140784472227096558e-02,2.124543488025665283e-02,-8.614838868379592896e-02,-8.738693594932556152e-02,2.453846298158168793e-02,1.921739242970943451e-02,2.742685144767165184e-03,7.978316396474838257e-02,-5.996886268258094788e-02,-4.785141348838806152e-02,7.424170523881912231e-02,-3.516003862023353577e-02,6.108783185482025146e-02,2.214539796113967896e-02,2.014860697090625763e-02,-6.174618611112236977e-04,-4.579526931047439575e-02,-8.260275423526763916e-02,-6.768537312746047974e-02,-8.316989988088607788e-02,6.204615533351898193e-02,-7.909858971834182739e-02,2.583063393831253052e-02,6.330612301826477051e-02,3.470584377646446228e-02,-5.219287425279617310e-02,5.602451041340827942e-02,-4.830677807331085205e-02,-8.416476100683212280e-02,-2.848452515900135040e-02,5.285606533288955688e-02,-5.589484423398971558e-02,-3.785935463383793831e-03,4.115728288888931274e-02,7.341344654560089111e-02,-6.745381653308868408e-02,5.828060954809188843e-02,3.377507254481315613e-02,-3.514460101723670959e-02,-5.273568630218505859e-02,1.162554416805505753e-02,-3.801469877362251282e-02,5.703122913837432861e-02,3.567451611161231995e-02,7.683672010898590088e-02,-7.974334061145782471e-02,1.782729476690292358e-02,4.953556880354881287e-02,-4.120047017931938171e-02,-4.775698482990264893e-02,2.242327108979225159e-02,-8.447635173797607422e-02,-3.057208098471164703e-02,-6.968040019273757935e-02,3.271544724702835083e-02,5.689198523759841919e-02,6.043204665184020996e-02,2.776336111128330231e-02,-6.289741396903991699e-02,-9.316729381680488586e-03,-8.374629169702529907e-02,-7.186558097600936890e-02,8.437053114175796509e-02,2.893962711095809937e-02
-2.180424984544515610e-03,8.237022161483764648e-02,2.343299426138401031e-02,-3.142753383144736290e-03,4.535453766584396362e-02,-2.299140021204948425e-02,5.386027693748474121e-02,4.393247142434120178e-02,-7.071945816278457642e-03,8.061756193637847900e-02,2.749413810670375824e-02,3.572661802172660828e-02,3.280360996723175049e-02,-2.295905351638793945e-02,6.211746856570243835e-02,7.467626780271530151e-02,-4.534363374114036560e-02,5.389673635363578796e-02,4.216444492340087891e-02,-2.024251967668533325e-02,-2.780838496983051300e-02,-8.306915313005447388e-02,-3.812000155448913574e-02,7.487541437149047852e-02,-5.224138498306274414e-02,-3.924123197793960571e-02,-2.775793522596359253e-02,7.818742841482162476e-02,-2.832159586250782013e-02,6.858399510383605957e-02,-5.076453834772109985e-02,-3.086460009217262268e-02,2.593588456511497498e-02,-3.373216465115547180e-02,1.792904734611511230e-02,6.115529686212539673e-02,-3.370322287082672119e-02,8.246104419231414795e-02,-1.227084430865943432e-03,2.559392713010311127e-02,8.800451643764972687e-03,-7.750109583139419556e-02,4.761785641312599182e-02,-5.244647338986396790e-02,-3.938345983624458313e-02,-3.368174657225608826e-02,-2.955638244748115540e-02,-2.797518158331513405e-03,3.926655277609825134e-02,5.176912248134613037e-02,-4.598074778914451599e-02,-5.641132220625877380e-02,8.637480437755584717e-02,-7.263988256454467773e-03,5.896118655800819397e-02,4.870921745896339417e-02,1.568427495658397675e-02,2.744491025805473328e-02,-5.283169448375701904e-02,3.647534549236297607e-02,-4.377792030572891235e-02,-5.757291987538337708e-02,-5.568032711744308472e-02,-6.424222886562347412e-02,-3.393983468413352966e-02,1.876885443925857544e-02,-2.692428044974803925e-02,-4.780455678701400757e-02,-5.424578487873077393e-02,7.194289565086364746e-02,-8.610244095325469971e-02,8.715293556451797485e-02,2.525513991713523865e-02,-6.779297441244125366e-02,7.189135532826185226e-03,2.294066548347473145e-02,5.704588443040847778e-02,-4.844066873192787170e-02,4.995877668261528015e-02,-4.585184156894683838e-02,-5.488506704568862915e-02,6.946118921041488647e-02,-4.698773100972175598e-02,6.795196235179901123e-02,-2.476948127150535583e-02,-1.878695729828905314e-05,3.390743583440780640e-02,-9.998897090554237366e-03,2.278610318899154663e-02,-8.421496301889419556e-02,6.896325200796127319e-02,-2.638429589569568634e-02,-4.566667973995208740e-02,-2.955322153866291046e-02,-4.538868740200996399e-02,6.785168312489986420e-03,3.405644325539469719e-03,-5.121635273098945618e-02,-7.054307498037815094e-03,8.305555582046508789e-02,7.873000949621200562e-02,4.233664646744728088e-02,-7.343852519989013672e-02,5.951207503676414490e-02,8.370803296566009521e-02,-8.151017129421234131e-02,4.329114407300949097e-02,-9.649657644331455231e-03,4.809091240167617798e-02,-4.070474952459335327e-02,3.069019690155982971e-02,-2.070982381701469421e-02,1.416861079633235931e-02,8.120285347104072571e-03,-6.370980758219957352e-03,-8.746912330389022827e-02,-2.408758737146854401e-02,-8.411999791860580444e-02,7.465787976980209351e-02,3.494918718934059143e-02,-1.181632187217473984e-02,-9.967550635337829590e-03,7.296558469533920288e-02,3.125436231493949890e-02,-6.792691349983215332e-02,-2.815198712050914764e-02,5.138821899890899658e-02,1.207485049962997437e-02
5.851782113313674927e-02,-8.523666858673095703e-02,6.394646130502223969e-03,-6.451907753944396973e-02,-3.948171436786651611e-02,8.759883791208267212e-02,2.701813168823719025e-02,3.007211349904537201e-02,2.667019888758659363e-02,5.677654594182968140e-02,6.147583574056625366e-02,7.191564887762069702e-02,-4.422850161790847778e-02,-3.636338189244270325e-02,5.433143675327301025e-02,5.618529766798019409e-02,-8.823538571596145630e-02,7.488154619932174683e-02,-6.039715930819511414e-02,5.126792192459106445e-02,-8.066899329423904419e-02,-4.724258184432983398e-02,5.998422577977180481e-02,-4.613615199923515320e-02,-3.982036188244819641e-02,2.713062055408954620e-02,-2.579808642622083426e-04,4.128079488873481750e-02,-5.765605717897415161e-02,1.281213574111461639e-02,-1.513059157878160477e-02,4.466734454035758972e-02,7.844111323356628418e-02,8.133505284786224365e-02,-3.949401900172233582e-02,7.217467576265335083e-02,-8.010478317737579346e-02,-8.315953612327575684e-02,-4.718530178070068359e-02,2.413583546876907349e-02,-5.911707505583763123e-02,7.578804343938827515e-02,7.791600376367568970e-02,-1.681335829198360443e-02,-2.106161229312419891e-02,4.516170546412467957e-02,-2.268290705978870392e-02,-1.641107723116874695e-02,8.678502589464187622e-02,7.318612933158874512e-02,-8.121059834957122803e-02,1.107924710959196091e-02,-7.984214462339878082e-03,9.845229797065258026e-03,-3.268454223871231079e-02,2.248495258390903473e-02,-8.399997651576995850e-02,-8.859478402882814407e-04,-3.757832944393157959e-02,-7.009090483188629150e-02,-4.089967906475067139e-02,-2.862484380602836609e-02,3.378068655729293823e-02,-6.991284340620040894e-02,-6.846978515386581421e-02,-6.803084909915924072e-02,-3.208938613533973694e-02,-7.671368867158889771e-02,-1.699154451489448547e-02,2.477626688778400421e-02,-7.673224806785583496e-02,-7.334531098604202271e-02,5.342278257012367249e-02,-6.494934670627117157e-03,7.540521770715713501e-02,6.355301942676305771e-03,-1.517595257610082626e-02,2.819816954433917999e-02,-8.514545112848281860e-02,7.473406195640563965e-02,8.397253230214118958e-03,1.650162972509860992e-02,-6.631440669298171997e-02,4.563462734222412109e-02,-7.598180323839187622e-02,-5.583959072828292847e-02,2.495884709060192108e-02,1.666128076612949371e-02,-2.478219941258430481e-02,8.111761882901191711e-03,5.695380643010139465e-02,-8.148450404405593872e-03,-8.377423509955406189e-03,-5.508687812834978104e-03,8.415578305721282959e-02,2.512519992887973785e-02,-1.417465880513191223e-02,8.787108957767486572e-02,4.613108560442924500e-02,-6.667051929980516434e-03,-2.459701709449291229e-02,4.373944923281669617e-02,7.122848182916641235e-02,8.724565058946609497e-02,-1.482008583843708038e-02,-6.650945544242858887e-02,4.443269222974777222e-02,-2.784668654203414917e-02,-8.210862427949905396e-02,-8.225532621145248413e-02,-5.331123247742652893e-02,-4.018666222691535950e-02,-6.032335013151168823e-02,-2.717038616538047791e-03,-2.846862562000751495e-02,8.758578449487686157e-02,7.161824032664299011e-03,-5.146709736436605453e-03,5.876100808382034302e-02,3.559880703687667847e-02,7.073346525430679321e-02,5.385303869843482971e-02,1.627514138817787170e-02,1.474290434271097183e-02,-2.358787320554256439e-02,-1.812378689646720886e-02,-6.287860125303268433e-02,3.713091090321540833e-02
-1.936243101954460144e-02,7.955213636159896851e-02,-9.135845117270946503e-03,3.250760212540626526e-02,-2.709961123764514923e-02,4.966900451108813286e-04,-7.780165970325469971e-02,-7.470768690109252930e-02,4.357821866869926453e-02,7.326390594244003296e-02,5.848637968301773071e-02,3.754984959959983826e-02,-7.810935378074645996e-02,1.749819144606590271e-02,-2.640439942479133606e-02,-1.879847422242164612e-02,-4.906165972352027893e-02,3.290524706244468689e-02,-1.883958838880062103e-02,-1.966382190585136414e-02,4.503095522522926331e-02,1.980806933715939522e-03,-6.432475149631500244e-02,6.194722838699817657e-03,2.766239829361438751e-02,-2.319371514022350311e-02,-1.843292411649599671e-04,6.398240476846694946e-02,-6.845448166131973267e-02,5.218083038926124573e-02,-8.449895307421684265e-03,-4.677070304751396179e-02,-3.323481231927871704e-02,-3.730417520273476839e-04,-1.918630860745906830e-02,4.797847568988800049e-02,2.106405608355998993e-02,6.337756663560867310e-02,-2.253659442067146301e-02,-1.513087656348943710e-02,2.452809549868106842e-02,-3.527190536260604858e-02,5.336847901344299316e-02,-6.770584732294082642e-02,-5.209113284945487976e-02,-4.179376177489757538e-03,-1.708605885505676270e-02,6.287673115730285645e-02,1.444508414715528488e-02,-1.756165362894535065e-02,4.908760264515876770e-02,1.947774435393512249e-03,5.462136585265398026e-03,7.289899140596389771e-02,5.704351514577865601e-02,2.993111032992601395e-03,-3.345382958650588989e-02,4.643895477056503296e-02,2.242215536534786224e-02,6.193035840988159180e-02,-7.785665243864059448e-02,-3.779497463256120682e-03,3.045944310724735260e-02,4.662459343671798706e-02,-1.951614022254943848e-02,5.124223232269287109e-02,-7.130198925733566284e-02,8.667849004268646240e-02,-3.479464724659919739e-02,2.138828113675117493e-02,-4.153740592300891876e-03,2.192214503884315491e-02,1.169892214238643646e-02,-7.023348659276962280e-02,-4.060336574912071228e-02,-6.879777461290359497e-02,-3.215498849749565125e-02,5.910108238458633423e-02,7.255871593952178955e-02,5.000493675470352173e-02,1.608347892761230469e-02,-3.533212468028068542e-02,-5.784160643815994263e-02,1.200278988108038902e-03,-1.821007230319082737e-03,-4.330963641405105591e-02,5.499435588717460632e-02,4.414286091923713684e-02,-6.115011498332023621e-02,7.892759889364242554e-02,-7.423000037670135498e-02,6.118433550000190735e-02,2.097133360803127289e-02,-6.966031156480312347e-03,4.684419929981231689e-02,-7.768241316080093384e-02,-2.811036771163344383e-03,-3.835132345557212830e-02,-3.280878067016601562e-02,4.892106726765632629e-02,4.952394589781761169e-02,4.714866727590560913e-02,2.465841360390186310e-02,4.796838015317916870e-02,-3.546568751335144043e-02,-5.725100263953208923e-02,-8.125351369380950928e-02,2.557829022407531738e-02,6.799363344907760620e-02,-3.387509658932685852e-02,6.155705079436302185e-02,7.934186607599258423e-02,-2.268635295331478119e-02,-4.572832956910133362e-02,-6.904254201799631119e-03,-4.273130744695663452e-02,-4.256614670157432556e-02,5.436494573950767517e-02,-2.071734704077243805e-02,-1.124610658735036850e-02,1.728357933461666107e-02,-1.008789055049419403e-02,-7.963687181472778320e-02,-2.833182737231254578e-02,-5.922114849090576172e-02,-4.767924174666404724e-02,3.104625269770622253e-02,-3.093878924846649170e-02
5.227794870734214783e-02,4.828987643122673035e-02,1.558181643486022949e-02,3.334999084472656250e-02,-4.969688504934310913e-02,4.377170279622077942e-02,3.497060015797615051e-02,8.025299012660980225e-02,-6.053587421774864197e-02,4.413832724094390869e-02,8.502317219972610474e-02,-1.376348547637462616e-02,7.330933958292007446e-02,-3.627263009548187256e-02,3.597627580165863037e-02,6.114431843161582947e-02,-7.456550747156143188e-02,1.980673149228096008e-02,2.815620275214314461e-03,-4.958303645253181458e-02,-8.818036317825317383e-02,6.276229023933410645e-02,-3.845681622624397278e-02,-6.695101410150527954e-02,-6.212750915437936783e-03,-3.764702752232551575e-02,8.768658339977264404e-02,-6.399452686309814453e-02,3.800144046545028687e-02,-2.992179617285728455e-02,8.355084806680679321e-02,5.242648348212242126e-02,-1.089190412312746048e-02,1.546130795031785965e-02,6.479224190115928650e-03,1.796203781850636005e-03,5.836530402302742004e-02,5.506704747676849365e-02,4.044482111930847168e-02,-2.386046759784221649e-02,6.324381381273269653e-02,-8.403768390417098999e-02,5.544254556298255920e-02,-5.435520783066749573e-03,3.081020899116992950e-02,6.846387684345245361e-02,-1.853071525692939758e-02,-5.675488337874412537e-02,3.089310228824615479e-02,-5.541853234171867371e-02,6.559778749942779541e-02,5.186451971530914307e-02,-7.807108014822006226e-02,-5.563910584896802902e-03,6.273196637630462646e-02,4.276198334991931915e-03,-2.393182367086410522e-02,-5.545010045170783997e-02,-5.458945035934448242e-02,-4.821863770484924316e-02,-4.356468841433525085e-02,5.639137700200080872e-02,-7.673246413469314575e-02,2.418470382690429688e-02,-3.155064582824707031e-02,-2.815243043005466461e-02,-6.823769956827163696e-02,-2.817357704043388367e-02,-9.497212246060371399e-03,-3.981557860970497131e-02,2.325703017413616180e-02,1.070242282003164291e-02,2.747488766908645630e-02,-6.132757291197776794e-02,-5.273436754941940308e-02,-2.560932002961635590e-02,4.883360490202903748e-02,1.918955519795417786e-02,-6.257700175046920776e-02,-8.726805448532104492e-02,5.583136901259422302e-02,5.464553833007812500e-02,-8.179515600204467773e-02,-5.091812461614608765e-02,2.809911407530307770e-02,-6.369272619485855103e-02,-7.301287353038787842e-02,4.314255714416503906e-02,5.850571393966674805e-02,-7.702831644564867020e-03,-2.572086267173290253e-02,-1.844946667551994324e-02,-1.009101979434490204e-02,-6.668037921190261841e-02,-1.632569730281829834e-02,-1.197403576225042343e-02,-8.407863229513168335e-02,-1.515922043472528458e-02,-5.831088125705718994e-02,-7.310800999402999878e-02,-8.783560991287231445e-02,8.647808432579040527e-02,-4.925238434225320816e-03,-4.298477992415428162e-02,-6.443929672241210938e-02,-4.997471719980239868e-02,6.196872144937515259e-02,-8.186016976833343506e-02,7.248885184526443481e-02,4.933860525488853455e-02,-3.368692239746451378e-03,5.960737168788909912e-02,-5.677278339862823486e-02,3.717667981982231140e-02,4.853230714797973633e-02,7.921960204839706421e-02,-8.507994934916496277e-03,7.911181449890136719e-02,-8.431199938058853149e-02,-1.193221472203731537e-02,-1.103835459798574448e-02,-5.645763128995895386e-02,7.957407832145690918e-02,-5.743596330285072327e-02,8.524385094642639160e-02,-3.460778668522834778e-02,1.233881618827581406e-02,-8.590832352638244629e-02
4.852866008877754211e-02,8.464547246694564819e-02,-1.518689002841711044e-02,-7.937937043607234955e-03,2.829309552907943726e-02,-2.275058440864086151e-02,8.755355328321456909e-02,-6.260929256677627563e-02,-2.239501290023326874e-02,-4.395322129130363464e-02,4.061691835522651672e-02,-8.837004750967025757e-02,5.044242367148399353e-02,9.992153383791446686e-03,5.825251713395118713e-02,-6.923586875200271606e-02,-7.381107658147811890e-02,-7.982558012008666992e-02,-4.447962343692779541e-02,-4.062835872173309326e-02,3.125648200511932373e-02,3.721549734473228455e-02,1.394442189484834671e-02,-4.818496480584144592e-02,1.475142873823642731e-02,6.075754761695861816e-02,-7.359840720891952515e-02,7.951113581657409668e-02,-4.802657663822174072e-02,8.973896503448486328e-03,-3.039000555872917175e-02,2.702019736170768738e-02,1.853009313344955444e-02,6.952369213104248047e-02,7.424654066562652588e-02,5.503175035119056702e-02,7.197712361812591553e-02,2.150023356080055237e-02,1.763964630663394928e-02,2.672980539500713348e-02,-5.814631655812263489e-02,3.488275408744812012e-02,6.319598108530044556e-02,-6.751640699803829193e-03,4.121542349457740784e-02,-3.982692584395408630e-02,-3.144356980919837952e-02,-6.019921600818634033e-02,-3.500994294881820679e-02,-6.569443643093109131e-02,6.828560680150985718e-02,1.766571402549743652e-02,2.926869876682758331e-02,-5.362294986844062805e-02,4.720499739050865173e-03,-4.289643093943595886e-02,3.279703482985496521e-02,-8.131854981184005737e-02,4.981272667646408081e-02,7.321554422378540039e-02,-6.641342490911483765e-02,2.775127626955509186e-02,7.526904344558715820e-02,-8.245927840471267700e-02,6.586182396858930588e-03,7.605833560228347778e-02,7.272735983133316040e-02,5.269119888544082642e-02,-6.832145154476165771e-02,-5.166035145521163940e-02,5.854728072881698608e-02,-2.623413689434528351e-02,-3.363048657774925232e-02,7.278233766555786133e-02,-7.369516789913177490e-02,8.047801256179809570e-02,-8.523997664451599121e-02,2.012278139591217041e-02,-2.747273817658424377e-02,-4.312219843268394470e-02,-3.181654959917068481e-03,5.068188905715942383e-02,-3.526286780834197998e-02,-3.025387227535247803e-02,-7.934632152318954468e-02,-6.642408668994903564e-02,-2.078671008348464966e-02,2.293513529002666473e-02,8.690308779478073120e-02,-5.201213061809539795e-02,4.701022431254386902e-02,-2.349346503615379333e-02,-6.543271988630294800e-02,-3.128023073077201843e-02,8.570055477321147919e-03,-7.743132114410400391e-02,1.208278443664312363e-02,-2.050448395311832428e-02,5.956781655550003052e-02,-6.082647666335105896e-02,2.236033603549003601e-02,3.843668103218078613e-02,2.272460050880908966e-02,5.253547802567481995e-02,2.185034751892089844e-02,1.996755413711071014e-02,-3.289035707712173462e-02,2.726383693516254425e-02,-3.407992050051689148e-02,-1.324591110460460186e-03,-3.528536111116409302e-02,3.960862755775451660e-02,-3.880691900849342346e-02,4.097880050539970398e-02,4.671219270676374435e-03,4.159908741712570190e-02,8.404063433408737183e-02,-9.921209886670112610e-03,-5.032239016145467758e-03,4.979765973985195160e-03,2.049799263477325439e-02,-3.400237858295440674e-02,-3.176894411444664001e-02,-1.799662038683891296e-02,-7.380334660410881042e-03,4.785141348838806152e-02,7.733666151762008667e-02,-1.529804151505231857e-02
-5.528844520449638367e-02,-8.392667770385742188e-02,3.524736687541007996e-02,1.444039493799209595e-02,3.423734009265899658e-02,-6.614705547690391541e-03,7.548999041318893433e-02,8.383736014366149902e-02,-1.217647735029459000e-02,7.825915515422821045e-02,-6.048055738210678101e-02,-6.951168179512023926e-02,3.855766355991363525e-02,-6.945541501045227051e-02,-1.489996444433927536e-03,3.827459737658500671e-02,-6.659360136836767197e-03,-6.668198108673095703e-02,-5.397696048021316528e-02,-6.852655787952244282e-04,1.083732466213405132e-03,-2.320870943367481232e-02,-6.338538229465484619e-02,5.594811588525772095e-02,3.918458893895149231e-02,2.286236733198165894e-02,-8.174414932727813721e-02,-4.475359991192817688e-02,-5.745187401771545410e-02,5.714375898241996765e-02,3.357949852943420410e-02,-5.947887524962425232e-02,-7.024621218442916870e-02,-5.474813282489776611e-02,-2.035711705684661865e-02,2.584349922835826874e-02,-8.321364223957061768e-02,-6.145652011036872864e-02,8.158038556575775146e-02,-6.519177556037902832e-02,-1.479067746549844742e-02,2.971890149638056755e-03,3.975130617618560791e-02,2.909001708030700684e-02,8.736947923898696899e-02,4.485326632857322693e-02,-8.705035597085952759e-02,-8.404908329248428345e-02,-2.257678098976612091e-02,-2.902304567396640778e-02,7.018133997917175293e-02,-6.508616358041763306e-02,4.636319726705551147e-02,8.040001243352890015e-02,-6.207113713026046753e-02,-8.397866040468215942e-02,-6.010930612683296204e-02,8.594969660043716431e-02,6.514512002468109131e-02,-7.213725149631500244e-02,1.922560110688209534e-02,-1.970277726650238037e-02,3.870771825313568115e-02,-8.099678903818130493e-02,-6.471334397792816162e-02,8.473289757966995239e-02,7.302410155534744263e-02,8.551330119371414185e-02,9.281284175813198090e-03,-2.978507243096828461e-02,7.053884118795394897e-02,4.652336612343788147e-02,7.210057973861694336e-02,-6.602838635444641113e-02,2.410916611552238464e-02,-6.528351455926895142e-02,-2.996841073036193848e-02,3.320636227726936340e-02,-1.338741974905133247e-03,-5.422586947679519653e-02,-8.695393800735473633e-02,3.340378031134605408e-02,7.346557080745697021e-02,-6.872455775737762451e-02,3.472489304840564728e-03,8.551596105098724365e-02,3.170633688569068909e-02,6.223638355731964111e-02,-7.437822874635457993e-03,4.387404769659042358e-02,-6.544900685548782349e-02,-7.829788327217102051e-02,2.935848198831081390e-02,-2.748435921967029572e-02,-4.613967239856719971e-02,4.848105460405349731e-02,-7.215730845928192139e-02,-2.883573621511459351e-02,2.848321944475173950e-02,-7.053765654563903809e-02,-4.914069548249244690e-03,5.170557275414466858e-02,2.139993570744991302e-02,-2.309961244463920593e-02,5.728285387158393860e-02,-5.534715577960014343e-02,4.447952657938003540e-02,7.692656666040420532e-02,-4.091183096170425415e-02,-6.872619688510894775e-02,-7.580351829528808594e-02,7.469295989722013474e-03,6.888844072818756104e-02,-8.431740105152130127e-03,5.664530023932456970e-02,6.648144870996475220e-02,-1.471536140888929367e-02,2.674024738371372223e-02,8.060435950756072998e-02,4.669080302119255066e-02,-7.871585339307785034e-02,5.378676578402519226e-02,6.806796044111251831e-02,-7.777231186628341675e-02,5.853230878710746765e-02,7.307133823633193970e-02,-7.534774392843246460e-02,-4.925506189465522766e-02
-8.500762283802032471e-02,-4.167269449681043625e-03,-1.846778020262718201e-02,-7.608290761709213257e-02,5.712606757879257202e-02,8.210513740777969360e-02,6.547166407108306885e-02,1.641756738536059856e-03,-8.097046613693237305e-02,6.525158882141113281e-02,-2.839130721986293793e-02,-5.313197150826454163e-02,7.525215297937393188e-02,4.177178442478179932e-02,-5.526979453861713409e-03,-1.291116001084446907e-03,-1.463194191455841064e-02,4.343121871352195740e-02,2.889708057045936584e-02,-3.966318815946578979e-02,-1.522038597613573074e-02,-4.002433270215988159e-03,2.287141978740692139e-02,-6.999982148408889771e-02,1.585520245134830475e-02,-1.026662439107894897e-02,-8.444710075855255127e-02,1.371415238827466965e-02,-2.024698816239833832e-02,-1.968808844685554504e-02,-1.713198795914649963e-02,4.583944752812385559e-02,-1.668362878262996674e-02,3.517526388168334961e-02,4.122970253229141235e-02,1.198533084243535995e-02,4.385651275515556335e-02,-2.739085629582405090e-02,4.532722756266593933e-02,-8.791387826204299927e-02,-7.600428164005279541e-02,1.166219078004360199e-02,-2.861756272614002228e-02,4.699310287833213806e-02,3.653158992528915405e-02,-5.317741632461547852e-02,-6.039432436227798462e-02,5.976702272891998291e-02,-5.373293161392211914e-02,-7.323489058762788773e-03,5.196421872824430466e-03,5.362961068749427795e-02,-2.386038395343348384e-04,-3.508741781115531921e-02,3.115853294730186462e-02,3.636986389756202698e-02,5.569769069552421570e-02,6.611346453428268433e-02,-1.782769570127129555e-03,7.358676195144653320e-02,8.699049055576324463e-02,3.863977640867233276e-02,-7.484369724988937378e-02,3.389769792556762695e-02,1.173379831016063690e-02,-4.795246198773384094e-02,5.390903353691101074e-02,8.199094235897064209e-02,2.516787499189376831e-02,-2.701202034950256348e-02,-4.542039334774017334e-02,-7.028718292713165283e-02,-8.252129703760147095e-02,7.141443341970443726e-02,8.300849795341491699e-02,-2.672016434371471405e-02,-8.384411782026290894e-02,2.981404773890972137e-02,-6.004561483860015869e-02,1.339072827249765396e-02,-2.086279541254043579e-02,1.127225905656814575e-02,-2.048252522945404053e-02,4.127619788050651550e-02,3.535499796271324158e-02,-1.394858397543430328e-02,-2.686500176787376404e-02,2.164348028600215912e-02,5.831395741552114487e-03,-8.278329670429229736e-02,4.878145828843116760e-02,6.264198571443557739e-02,5.077774077653884888e-02,3.372516110539436340e-02,-7.371410727500915527e-02,-7.666578143835067749e-02,-4.420037940144538879e-02,5.040702968835830688e-02,6.791964173316955566e-02,6.090794876217842102e-02,-4.195210710167884827e-02,-3.760980442166328430e-02,2.290145866572856903e-02,-2.033772878348827362e-02,-5.368841439485549927e-02,-7.830141484737396240e-02,-3.941907361149787903e-02,6.381268054246902466e-02,5.328078288584947586e-03,-4.272953793406486511e-02,5.918063223361968994e-02,3.603488206863403320e-02,7.813870906829833984e-02,3.078455291688442230e-02,-1.083067525178194046e-02,-7.601542025804519653e-02,3.925935551524162292e-02,1.456336956471204758e-02,6.726129353046417236e-02,6.197034195065498352e-02,8.695200085639953613e-02,5.002267286181449890e-02,5.640944465994834900e-03,8.338505029678344727e-02,-7.242976874113082886e-02,7.885018736124038696e-02,-2.417990937829017639e-02,5.976800248026847839e-02
2.402627468109130859e-02,-4.969572648406028748e-02,1.984416879713535309e-02,6.979104876518249512e-02,-4.894923418760299683e-02,2.092937566339969635e-02,-3.295701369643211365e-02,-1.096576685085892677e-03,1.891889795660972595e-02,-3.962161764502525330e-02,-7.458327338099479675e-03,4.037813469767570496e-02,1.825569570064544678e-02,-7.601918280124664307e-02,-5.391165614128112793e-02,-4.876618832349777222e-02,2.409547939896583557e-02,-1.904168166220188141e-02,7.755399215966463089e-03,-8.691543340682983398e-02,5.993586406111717224e-02,2.542418986558914185e-02,5.626118555665016174e-02,7.345712929964065552e-02,-3.170829638838768005e-02,-2.300924994051456451e-02,2.221005037426948547e-02,4.152033478021621704e-03,8.655142039060592651e-02,-4.970132187008857727e-02,-5.220045149326324463e-02,6.555332243442535400e-02,6.204382702708244324e-02,6.490804255008697510e-02,5.374275147914886475e-02,7.250943453982472420e-04,5.655169021338224411e-03,-2.898864448070526123e-02,-6.511601805686950684e-02,3.603054955601692200e-02,1.934146322309970856e-02,-2.091816626489162445e-02,1.064388081431388855e-02,-7.278355211019515991e-02,3.739868989214301109e-03,9.165991214103996754e-04,5.594414658844470978e-03,-2.505328692495822906e-02,-7.391569763422012329e-02,-7.728298660367727280e-03,-6.470311433076858521e-02,9.204703383147716522e-03,-3.454511612653732300e-02,3.883656114339828491e-02,-7.438106089830398560e-02,8.191239833831787109e-02,4.987799003720283508e-02,8.418180793523788452e-02,-8.037535846233367920e-02,3.932840377092361450e-02,-8.746663480997085571e-02,1.465298421680927277e-02,8.392430841922760010e-02,-6.592422723770141602e-02,3.711827471852302551e-02,-2.736816182732582092e-02,8.794679492712020874e-02,-7.906696945428848267e-02,-7.961170747876167297e-03,2.900119312107563019e-02,8.072510361671447754e-02,-8.550693839788436890e-02,-5.678737908601760864e-02,2.668588794767856598e-02,7.469487935304641724e-02,2.924655191600322723e-02,1.654349081218242645e-02,4.168959707021713257e-02,2.177624404430389404e-02,4.759679362177848816e-02,3.160250559449195862e-02,2.942210249602794647e-02,-4.097877070307731628e-02,-5.562305077910423279e-02,1.778450608253479004e-02,-1.461038365960121155e-02,-5.420198291540145874e-02,-5.786628276109695435e-02,5.768609419465065002e-02,2.135987579822540283e-02,-7.490825653076171875e-02,-5.415826663374900818e-02,-5.018868669867515564e-02,-6.081558391451835632e-02,-1.482024323195219040e-02,8.565367758274078369e-02,-4.756735172122716904e-03,5.938338115811347961e-02,-1.236496865749359131e-02,-9.173450991511344910e-03,2.388988650636747479e-04,-7.978699356317520142e-02,-7.580234110355377197e-02,6.985089927911758423e-02,-2.042068541049957275e-02,-4.056351631879806519e-02,-4.734255373477935791e-02,1.298235636204481125e-02,-8.110886812210083008e-02,5.907437205314636230e-02,-3.336573019623756409e-02,6.283015757799148560e-02,-1.225863210856914520e-02,1.903330557979643345e-03,-2.803907543420791626e-02,-1.166665833443403244e-02,2.591945789754390717e-02,6.661687791347503662e-02,-6.908498704433441162e-02,-1.892036199569702148e-02,-7.154490798711776733e-03,-7.200676202774047852e-02,1.968995347851887345e-04,3.941386565566062927e-02,-6.620246917009353638e-02,-4.426892101764678955e-02,5.171059072017669678e-02,-8.176022022962570190e-02
2.385659143328666687e-02,4.025763645768165588e-02,5.838924273848533630e-02,4.416557494550943375e-03,8.260849863290786743e-02,3.407319635152816772e-02,8.316937834024429321e-02,-4.198565706610679626e-02,-7.040110230445861816e-02,-4.894584044814109802e-02,5.251878499984741211e-02,-6.639150530099868774e-02,5.512730777263641357e-02,-6.318443268537521362e-02,-4.661960899829864502e-02,6.649287045001983643e-02,3.590851277112960815e-02,7.931569963693618774e-02,-4.760486539453268051e-03,-6.066754460334777832e-03,5.862384289503097534e-02,5.393304675817489624e-02,3.279845416545867920e-02,-5.442205443978309631e-02,5.965551361441612244e-02,5.341147631406784058e-02,6.418564356863498688e-03,3.352115675806999207e-02,7.444877177476882935e-02,3.267145529389381409e-02,6.995786726474761963e-02,7.531280070543289185e-02,-5.398318916559219360e-02,8.171525783836841583e-03,-5.523380264639854431e-02,5.073105543851852417e-02,-2.827580459415912628e-02,-3.719148412346839905e-02,-4.323730245232582092e-02,-4.239372443407773972e-03,5.140912160277366638e-02,8.720731735229492188e-02,-9.304548613727092743e-03,4.879063367843627930e-02,4.809515923261642456e-02,4.493413493037223816e-02,3.797074779868125916e-02,-4.390710964798927307e-03,5.342248827219009399e-02,3.462970629334449768e-02,7.394763827323913574e-02,2.705910801887512207e-02,-5.825068429112434387e-02,8.570621907711029053e-02,4.611652344465255737e-02,8.776132599450647831e-04,-3.627096489071846008e-02,9.788268245756626129e-03,3.923745080828666687e-02,-8.269516378641128540e-02,-4.486269503831863403e-02,-6.617861986160278320e-02,3.985276445746421814e-02,6.434134393930435181e-02,-7.492075115442276001e-02,2.964583970606327057e-02,8.290027081966400146e-02,-3.955406695604324341e-02,-4.551648744381964207e-04,7.230029255151748657e-02,-4.852462559938430786e-02,6.260813027620315552e-02,5.018947646021842957e-02,7.531679421663284302e-02,6.041856016963720322e-03,8.391698449850082397e-02,1.831079274415969849e-02,4.125231131911277771e-02,-5.826257914304733276e-02,7.673771679401397705e-02,7.331421971321105957e-02,1.890696026384830475e-02,4.273156076669692993e-02,-8.214920014142990112e-02,3.092821128666400909e-02,2.793461550027132034e-03,-2.681539393961429596e-02,-4.274806380271911621e-02,5.154800787568092346e-02,7.424054294824600220e-02,-8.027065545320510864e-02,2.033670805394649506e-02,-3.389846906065940857e-02,-6.137292087078094482e-02,-4.771695286035537720e-02,2.095952257513999939e-02,1.591364853084087372e-02,-5.566494166851043701e-02,1.348963566124439240e-02,-4.277821630239486694e-02,-6.035083159804344177e-02,-3.529564663767814636e-02,-4.367553442716598511e-02,-3.679936053231358528e-03,6.828402727842330933e-02,-2.202407829463481903e-02,-1.447479706257581711e-02,3.064911440014839172e-02,-6.089599803090095520e-02,-2.503914758563041687e-02,-3.979023918509483337e-02,1.069295033812522888e-02,-2.890695258975028992e-02,5.642658844590187073e-02,-6.079532206058502197e-02,-7.521315664052963257e-02,-1.166519336402416229e-02,-8.674669265747070312e-02,5.700575932860374451e-02,-6.689313799142837524e-02,7.154037710279226303e-03,5.989408493041992188e-02,-1.093335635960102081e-02,-8.587063848972320557e-02,2.294031903147697449e-03,6.862251460552215576e-02,2.659095264971256256e-02,-6.591282039880752563e-02
-3.647963330149650574e-02,4.671006649732589722e-02,-4.848931729793548584e-02,-6.769626867026090622e-03,1.252428349107503891e-02,2.088807336986064911e-02,5.480004847049713135e-02,-6.938871741294860840e-02,-5.873389914631843567e-02,-7.116990629583597183e-03,6.418085098266601562e-02,-2.551643876358866692e-03,3.676702454686164856e-02,-3.791899234056472778e-02,-6.280411034822463989e-02,-8.068328723311424255e-03,3.396346792578697205e-02,6.546305119991302490e-02,1.322146563325077295e-04,-8.187229931354522705e-02,-7.047774642705917358e-02,-8.814904838800430298e-02,1.078369282186031342e-02,5.750592797994613647e-02,7.725553959608078003e-02,-8.319471962749958038e-03,-6.543990224599838257e-02,7.269066758453845978e-03,2.359436452388763428e-02,-4.571478813886642456e-02,-1.909651607275009155e-02,4.953569546341896057e-02,7.231883704662322998e-02,-5.651082098484039307e-02,7.781227678060531616e-02,8.436198532581329346e-02,4.050335288047790527e-02,-7.681635767221450806e-02,-5.440027639269828796e-02,-2.024576533585786819e-03,-3.141853585839271545e-02,6.335697323083877563e-02,-1.275616465136408806e-03,2.462058700621128082e-02,4.456484317779541016e-02,-1.045572664588689804e-02,-5.692487210035324097e-02,-2.380356937646865845e-02,3.729276359081268311e-02,5.466549471020698547e-02,-1.906588487327098846e-02,-7.852790504693984985e-02,2.319544367492198944e-02,2.240100689232349396e-02,5.561690777540206909e-02,7.887502014636993408e-02,7.945230603218078613e-02,-7.155480852816253901e-05,8.827178925275802612e-02,-2.922145277261734009e-02,-2.559207193553447723e-02,8.524255454540252686e-02,7.584599312394857407e-03,-1.379172317683696747e-02,-4.674265533685684204e-02,1.666262932121753693e-02,3.316367790102958679e-02,-8.435436338186264038e-02,-3.648962453007698059e-02,-7.356841117143630981e-02,-6.203814595937728882e-02,2.880606427788734436e-02,-4.065920040011405945e-02,7.659779489040374756e-02,7.555312663316726685e-02,6.675214320421218872e-02,-4.948699474334716797e-02,-5.896673724055290222e-02,-5.608121678233146667e-02,7.187900692224502563e-02,7.068531215190887451e-02,-2.384964749217033386e-02,-7.374301552772521973e-02,1.118176989257335663e-02,4.403379559516906738e-02,6.040251255035400391e-02,-7.645857334136962891e-02,-5.248041357845067978e-03,4.315820336341857910e-02,5.308618769049644470e-02,9.413393214344978333e-03,6.397706270217895508e-02,5.954764783382415771e-02,1.290506962686777115e-02,-3.792023658752441406e-02,2.960625290870666504e-02,2.160692960023880005e-02,1.234545465558767319e-02,5.362033843994140625e-02,-2.731020934879779816e-02,-4.095063731074333191e-02,4.014681279659271240e-02,-7.885923981666564941e-02,4.643647000193595886e-02,-3.882756084203720093e-02,4.997115582227706909e-02,-9.407861158251762390e-03,-5.666920915246009827e-02,-6.143611297011375427e-02,-4.601549729704856873e-02,-6.422125734388828278e-03,-6.861194223165512085e-02,1.027913112193346024e-02,-3.694753721356391907e-02,8.450411260128021240e-03,-7.427778095006942749e-02,9.780112653970718384e-03,4.976173117756843567e-02,1.749347080476582050e-03,4.301279783248901367e-02,-5.428587645292282104e-02,-2.965174056589603424e-02,2.320795133709907532e-02,-8.268731087446212769e-02,-8.903753012418746948e-03,-6.247982382774353027e-02,8.589780889451503754e-03,6.499217450618743896e-02
-6.423511356115341187e-02,-6.263506133109331131e-03,-8.110261708498001099e-02,-1.243368908762931824e-02,-3.910205513238906860e-02,7.760345935821533203e-02,-1.577880047261714935e-02,-8.611102402210235596e-02,-1.082467008382081985e-02,2.322657965123653412e-02,8.765561133623123169e-02,2.100758999586105347e-02,1.448032911866903305e-02,-8.261657506227493286e-02,4.822577163577079773e-02,-4.110267013311386108e-02,-5.640829727053642273e-02,-3.380967304110527039e-02,5.691125616431236267e-02,7.413332164287567139e-02,-1.893997192382812500e-02,5.067017301917076111e-02,2.262986451387405396e-02,-3.943340107798576355e-02,8.533539623022079468e-02,-3.259362280368804932e-02,-5.678242444992065430e-02,-7.735398411750793457e-02,6.386739760637283325e-02,4.008043184876441956e-02,-3.324054554104804993e-02,-8.818619698286056519e-02,6.909146159887313843e-02,7.001663744449615479e-02,-8.427635580301284790e-02,-7.267852872610092163e-02,4.941242560744285583e-02,5.134835839271545410e-02,-8.835250139236450195e-02,-4.230253770947456360e-02,5.038560926914215088e-02,1.640668325126171112e-02,1.907218620181083679e-02,-7.269801944494247437e-02,1.712818443775177002e-02,1.336046680808067322e-02,-6.526719778776168823e-02,5.140487849712371826e-02,8.837376534938812256e-02,-8.819036930799484253e-02,-1.002276316285133362e-02,8.164229989051818848e-02,-5.841216072440147400e-03,-5.428503453731536865e-02,-6.496132910251617432e-02,-7.329383492469787598e-02,-8.208351582288742065e-02,-3.230865672230720520e-02,-3.789037466049194336e-02,3.476214036345481873e-02,-6.206128746271133423e-02,-3.280242905020713806e-02,-6.265521049499511719e-02,-4.638184607028961182e-02,7.417240738868713379e-02,6.296221911907196045e-02,-1.202023867517709732e-02,5.649173632264137268e-02,-7.170305401086807251e-02,5.875146389007568359e-02,-5.881887674331665039e-02,-4.901495203375816345e-02,3.449236974120140076e-02,4.228443652391433716e-02,2.680286532267928123e-03,-1.273998059332370758e-02,-4.816952627152204514e-03,9.599260520190000534e-04,-6.972479633986949921e-03,5.563686415553092957e-02,6.944804638624191284e-02,5.773977935314178467e-02,2.922647818922996521e-02,2.437886409461498260e-02,4.288990795612335205e-02,-6.691793352365493774e-02,-5.828252434730529785e-02,-2.506067417562007904e-02,6.774493306875228882e-02,-4.211300238966941833e-02,-5.921428650617599487e-02,-3.159597516059875488e-02,2.717009186744689941e-02,-5.000931024551391602e-02,8.650805056095123291e-02,6.680306792259216309e-02,3.259696066379547119e-02,-4.522591829299926758e-02,-6.530274450778961182e-02,-7.361257076263427734e-02,-6.537179648876190186e-02,-5.746041983366012573e-02,-2.197893895208835602e-02,4.587265104055404663e-02,3.451124206185340881e-02,3.003307431936264038e-02,-2.347726933658123016e-02,2.918735519051551819e-02,7.637129724025726318e-02,-7.098601758480072021e-02,8.501299470663070679e-02,-8.424983918666839600e-02,-5.143879354000091553e-02,-7.251156866550445557e-02,-5.149509385228157043e-02,-7.339027523994445801e-02,3.559892252087593079e-02,5.627371370792388916e-02,7.526344060897827148e-02,-5.607932060956954956e-02,9.712056256830692291e-03,-3.137502074241638184e-02,8.596776984632015228e-03,-3.002315945923328400e-02,8.702204376459121704e-02,5.484143644571304321e-02,8.748680353164672852e-02,-4.335287958383560181e-02
7.239738106727600098e-02,-5.856537446379661560e-02,-5.483722314238548279e-02,-3.290584683418273926e-02,6.093366816639900208e-02,-4.544873535633087158e-02,5.960820242762565613e-02,-4.938980564475059509e-02,-7.551070302724838257e-02,-5.958747863769531250e-02,5.730568990111351013e-02,2.920711226761341095e-02,6.866368651390075684e-02,-7.595571130514144897e-02,1.622667349874973297e-02,-5.883631482720375061e-02,-7.832545787096023560e-02,4.478039219975471497e-03,8.394382148981094360e-02,5.978971719741821289e-02,-6.292018294334411621e-02,7.449636608362197876e-02,7.124067842960357666e-02,-6.018951162695884705e-02,1.928072795271873474e-02,3.697421774268150330e-02,-8.485087007284164429e-02,-7.959844917058944702e-02,-6.229139864444732666e-02,-8.581161499023437500e-02,-5.093258991837501526e-02,-2.360529033467173576e-03,-6.016983091831207275e-02,-3.609960898756980896e-02,4.043726623058319092e-02,-5.733898282051086426e-02,-1.451932545751333237e-02,2.487981133162975311e-02,6.667872518301010132e-02,1.702390238642692566e-02,-2.829941734671592712e-02,6.128460541367530823e-02,2.319181896746158600e-02,3.856709599494934082e-02,-7.406651228666305542e-02,6.797672063112258911e-02,-7.549589872360229492e-02,4.780453629791736603e-03,-8.797207474708557129e-02,-8.567106723785400391e-02,-1.695700362324714661e-02,-5.700665712356567383e-02,8.635509014129638672e-02,4.739059135317802429e-02,3.990526776760816574e-03,4.503430798649787903e-02,-6.183703243732452393e-02,-1.250482257455587387e-02,-6.770884990692138672e-02,-7.848878949880599976e-02,-4.020429775118827820e-02,-5.493602529168128967e-02,-4.822725802659988403e-02,-5.525776371359825134e-02,4.939537867903709412e-02,-1.491256617009639740e-02,-1.074062939733266830e-02,1.229664869606494904e-02,-2.592871896922588348e-02,7.245028018951416016e-02,4.289185628294944763e-02,4.439495131373405457e-02,2.747938595712184906e-02,1.848754659295082092e-02,4.689515382051467896e-02,4.025411605834960938e-02,1.155486423522233963e-02,-3.907844051718711853e-02,3.636258095502853394e-02,-5.906387418508529663e-02,6.749308854341506958e-02,1.253025839105248451e-04,5.558032169938087463e-02,7.784561812877655029e-02,8.491277694702148438e-02,8.716092258691787720e-02,6.320513784885406494e-02,-8.426315337419509888e-02,-6.140300631523132324e-02,7.034098356962203979e-02,-4.253996163606643677e-02,-2.762873424217104912e-03,2.498601004481315613e-02,-1.294297073036432266e-02,-3.424831666052341461e-03,2.615598589181900024e-02,5.461337789893150330e-02,3.896957635879516602e-02,-4.042533785104751587e-02,-1.748858205974102020e-02,8.652283251285552979e-02,1.878284849226474762e-02,-6.405518203973770142e-02,3.230419009923934937e-02,5.383977293968200684e-02,6.824357807636260986e-02,1.422983966767787933e-02,-2.388113178312778473e-02,6.377539038658142090e-02,-6.028516683727502823e-03,6.522182375192642212e-03,4.607957974076271057e-02,-3.019089251756668091e-02,7.781684398651123047e-02,4.091157764196395874e-02,1.933018863201141357e-02,-9.322092868387699127e-03,6.902585178613662720e-02,3.505447134375572205e-02,1.456310623325407505e-03,6.979618966579437256e-02,-1.807243190705776215e-02,-6.276963651180267334e-02,-2.999041229486465454e-02,3.760161623358726501e-02,-8.942949585616588593e-03,-6.412743031978607178e-02,-5.503593385219573975e-02
4.275329783558845520e-02,6.948110461235046387e-02,-7.567800581455230713e-02,-7.211458683013916016e-02,7.834308594465255737e-02,3.973498567938804626e-02,-4.240661114454269409e-02,-1.879478618502616882e-02,-1.143081486225128174e-02,-1.798458769917488098e-02,-1.743899541907012463e-03,-3.228733083233237267e-03,8.496180921792984009e-02,6.700819730758666992e-02,-7.015206664800643921e-02,-7.481375336647033691e-02,-6.097785010933876038e-02,-7.118898630142211914e-02,-7.832878082990646362e-02,-7.793121784925460815e-02,1.968947984278202057e-02,-6.472498923540115356e-02,-6.747406721115112305e-02,2.400603331625461578e-02,4.876520857214927673e-02,7.156600803136825562e-02,2.359989471733570099e-02,-1.263843849301338196e-02,8.089932799339294434e-02,6.561802327632904053e-02,8.259886875748634338e-03,-5.348956584930419922e-02,-3.120368160307407379e-02,-5.886043235659599304e-02,3.604822978377342224e-02,4.219439998269081116e-02,5.097015202045440674e-02,-5.136283487081527710e-02,-7.870649546384811401e-02,-4.330083727836608887e-02,-1.510423980653285980e-02,-8.222638070583343506e-02,2.645150944590568542e-02,-6.754732877016067505e-02,-3.712557628750801086e-02,5.989787727594375610e-02,-5.109207332134246826e-02,2.891232632100582123e-02,1.692031510174274445e-02,4.154623299837112427e-02,2.622126042842864990e-02,9.493008255958557129e-03,-6.674383580684661865e-02,2.340909652411937714e-02,-7.673404365777969360e-02,-4.627975821495056152e-02,-5.355402827262878418e-02,-7.638543844223022461e-02,5.603253841400146484e-02,-8.476378768682479858e-02,8.619674295186996460e-02,7.031921297311782837e-02,-4.006836563348770142e-02,-6.992035359144210815e-02,-1.641388982534408569e-02,-4.502741619944572449e-02,2.248856797814369202e-02,1.128514483571052551e-02,-5.626120418310165405e-02,-7.342763990163803101e-02,-4.689719900488853455e-02,-2.020790614187717438e-02,-3.218187764286994934e-02,8.372782915830612183e-02,-2.085012942552566528e-02,7.099225372076034546e-02,3.335436061024665833e-02,-3.247193293645977974e-03,6.656863540410995483e-02,-6.875560432672500610e-02,1.107939518988132477e-02,7.232484221458435059e-02,-2.566060237586498260e-02,-2.461760491132736206e-02,3.663124889135360718e-02,-4.104307293891906738e-02,7.093430310487747192e-02,3.452420234680175781e-02,-9.002503007650375366e-03,-8.750412613153457642e-03,-6.418404728174209595e-02,6.378579884767532349e-02,-4.479321837425231934e-02,2.443412877619266510e-02,-3.384397178888320923e-02,7.218179851770401001e-02,8.526625484228134155e-02,4.748593643307685852e-02,-6.963508576154708862e-02,5.422923341393470764e-02,-5.117746442556381226e-02,3.003879683092236519e-03,-8.822949230670928955e-02,-8.673101663589477539e-02,-1.458588615059852600e-02,-4.085097834467887878e-02,7.421919703483581543e-02,-4.218688700348138809e-04,3.491354361176490784e-02,2.867721021175384521e-02,1.161010749638080597e-02,4.198342189192771912e-02,8.062142878770828247e-02,5.522998794913291931e-02,-6.961985677480697632e-02,-2.361989393830299377e-02,6.222284585237503052e-02,-5.251749232411384583e-02,-7.269417494535446167e-02,7.095316424965858459e-03,3.365765139460563660e-02,-4.772556200623512268e-02,4.101353883743286133e-02,5.479310452938079834e-02,2.928517945110797882e-02,-4.666144028306007385e-02,-5.381970107555389404e-02,-6.484477221965789795e-02
4.626848176121711731e-02,-2.746209502220153809e-02,1.453539443900808692e-04,-8.007255196571350098e-02,-3.092488087713718414e-02,-7.319506257772445679e-03,5.128322169184684753e-02,8.488794416189193726e-02,2.500922232866287231e-02,-5.947482958436012268e-02,-2.221745811402797699e-02,-5.771638825535774231e-02,2.127256739186123013e-04,-3.415682911872863770e-02,-6.012007594108581543e-02,4.325713217258453369e-02,-4.012627527117729187e-02,-1.066704094409942627e-02,-2.961067855358123779e-02,3.059323690831661224e-02,4.398295283317565918e-02,7.284237444400787354e-02,5.161932110786437988e-02,4.849892482161521912e-02,5.209014192223548889e-02,-7.781618088483810425e-02,2.457729168236255646e-02,6.224037706851959229e-02,-1.714283972978591919e-02,2.545105852186679840e-02,4.358522593975067139e-02,6.559606641530990601e-02,-1.917234808206558228e-02,-4.384748265147209167e-02,-6.577886641025543213e-02,-5.697063356637954712e-02,6.289193779230117798e-02,-2.141895517706871033e-02,-6.690412759780883789e-02,7.758835703134536743e-02,-3.158147633075714111e-02,-5.181843414902687073e-02,8.600796759128570557e-02,6.547489762306213379e-02,7.545980811119079590e-02,6.030981987714767456e-02,-6.725410372018814087e-02,-6.472406908869743347e-03,7.347966730594635010e-02,4.423534125089645386e-02,5.544241890311241150e-02,6.703981757164001465e-02,4.780231043696403503e-02,3.255239129066467285e-02,-3.228289261460304260e-02,-5.087187979370355606e-03,-3.951003775000572205e-03,4.404612258076667786e-02,-7.017780095338821411e-02,4.045088961720466614e-02,2.344502694904804230e-02,-6.134376674890518188e-02,-5.927206203341484070e-02,-4.336295276880264282e-02,6.421824544668197632e-02,7.717224955558776855e-02,1.086476165801286697e-02,6.583566218614578247e-02,-2.697206474840641022e-02,-1.577309891581535339e-02,-4.632022697478532791e-03,-1.863301545381546021e-02,-7.863117009401321411e-02,8.569936454296112061e-02,2.250030636787414551e-03,-1.136694196611642838e-02,-3.070743381977081299e-02,3.931601345539093018e-02,-7.887068390846252441e-02,1.555585395544767380e-02,-8.756364881992340088e-02,-7.180450856685638428e-02,4.341387748718261719e-02,-7.583846151828765869e-02,-1.240994967520236969e-02,-2.870237268507480621e-02,-5.752133205533027649e-02,-3.417170420289039612e-02,7.846202701330184937e-02,-4.643626883625984192e-02,3.299034014344215393e-02,7.889887690544128418e-02,6.681308150291442871e-03,-8.444326370954513550e-02,4.801689088344573975e-02,-4.631696268916130066e-02,-8.255449682474136353e-02,6.794496625661849976e-02,3.133113309741020203e-02,-1.840606518089771271e-02,-4.553341120481491089e-02,7.414533197879791260e-02,-8.419007807970046997e-02,-5.384333431720733643e-02,-8.808607235550880432e-03,7.543886452913284302e-02,-8.468810468912124634e-02,5.077458173036575317e-02,-3.453984856605529785e-02,-7.433402538299560547e-02,5.120651423931121826e-02,5.913081392645835876e-02,-1.966562494635581970e-02,8.188486844301223755e-02,-5.774832516908645630e-02,-3.603200241923332214e-02,3.388323262333869934e-02,3.041484020650386810e-02,7.704810798168182373e-02,5.920860916376113892e-02,-7.703628391027450562e-02,-8.698415756225585938e-02,5.244452506303787231e-02,-6.195565685629844666e-02,5.341266840696334839e-02,1.171292550861835480e-02,-3.537908568978309631e-02,8.665654063224792480e-02
-7.722456008195877075e-02,-2.827540412545204163e-02,5.972039885818958282e-03,-7.877237349748611450e-02,6.620720028877258301e-02,1.673912629485130310e-02,-1.395151298493146896e-02,-6.093451008200645447e-02,5.632336065173149109e-02,-2.482110075652599335e-02,7.207102328538894653e-02,2.504024282097816467e-02,-3.056907653808593750e-02,-8.621229231357574463e-02,7.630326598882675171e-02,1.307141315191984177e-02,1.044019591063261032e-03,-4.338945448398590088e-02,4.411404207348823547e-02,-2.098468318581581116e-02,-1.395112276077270508e-02,2.926979586482048035e-02,1.307837758213281631e-02,-5.852280557155609131e-02,-2.372163720428943634e-02,-2.690846472978591919e-02,-3.508036956191062927e-02,3.197126090526580811e-02,-4.231645539402961731e-02,-8.255381882190704346e-02,8.596114069223403931e-02,-8.540511131286621094e-02,-5.390883237123489380e-02,7.077028602361679077e-02,-8.141741901636123657e-02,1.024941820651292801e-02,-3.298471495509147644e-02,-3.606760874390602112e-02,-6.126036867499351501e-02,-8.430546522140502930e-02,-1.975145563483238220e-02,-8.665286935865879059e-03,-3.733856603503227234e-02,-4.595471173524856567e-02,5.033590644598007202e-02,-5.881202593445777893e-02,7.747037708759307861e-02,-9.484231472015380859e-03,7.367122173309326172e-02,2.708805352449417114e-02,-2.087796805426478386e-03,4.112308099865913391e-02,-2.991649694740772247e-02,1.203958410769701004e-02,7.590832561254501343e-02,6.209112703800201416e-02,2.364011481404304504e-02,7.304462790489196777e-02,7.794184237718582153e-02,6.845670938491821289e-02,7.693766057491302490e-02,-6.062845233827829361e-03,5.813688784837722778e-02,-4.919312521815299988e-02,1.347970031201839447e-02,-5.388230085372924805e-02,-7.538765668869018555e-02,2.747682668268680573e-02,3.881568834185600281e-02,-3.956790268421173096e-02,3.868078440427780151e-02,3.172092884778976440e-02,-5.165239423513412476e-02,5.493185296654701233e-02,-6.114410609006881714e-02,2.515903487801551819e-02,2.194784395396709442e-02,-4.778390377759933472e-02,4.300885647535324097e-02,-5.391201376914978027e-02,-2.852248959243297577e-02,-4.263988137245178223e-02,3.973685950040817261e-02,7.640217244625091553e-02,8.581601828336715698e-02,-1.714919321238994598e-02,3.294295445084571838e-02,6.711248308420181274e-02,3.841787204146385193e-02,-1.667078584432601929e-02,-1.882746070623397827e-02,-6.033370643854141235e-02,6.664407998323440552e-02,-6.926573812961578369e-02,2.781994268298149109e-02,7.248509675264358521e-02,1.117702806368470192e-03,3.675469756126403809e-02,3.899446502327919006e-02,2.504070661962032318e-02,-8.820176124572753906e-03,-1.579245552420616150e-02,2.372729592025279999e-02,3.951388224959373474e-02,-2.252268604934215546e-02,-7.152868062257766724e-02,-8.755151927471160889e-02,-1.924972981214523315e-03,-7.508477568626403809e-02,7.034143805503845215e-02,4.381042718887329102e-02,3.473598882555961609e-02,-5.612257495522499084e-02,-2.301982790231704712e-02,-8.796921931207180023e-03,4.415016248822212219e-02,7.134350389242172241e-02,-6.261783838272094727e-02,-5.183786153793334961e-02,-1.382890739478170872e-03,1.994988322257995605e-02,1.325122173875570297e-02,5.407568067312240601e-02,-4.028741270303726196e-02,-8.950357325375080109e-03,-1.065592467784881592e-02,9.538032114505767822e-03,8.667775243520736694e-02
4.531713202595710754e-03,-5.729872360825538635e-02,-1.793273538351058960e-02,3.390650730580091476e-03,7.770817726850509644e-02,-3.026523999869823456e-02,6.342880427837371826e-02,-3.472524136304855347e-02,4.641444608569145203e-02,7.158970832824707031e-02,-3.515117615461349487e-02,-2.864528447389602661e-02,-6.936376541852951050e-02,-6.164101883769035339e-02,-1.456208340823650360e-02,-7.432945072650909424e-02,-4.256636649370193481e-02,-4.045308008790016174e-02,-7.366563193500041962e-03,7.343245088122785091e-04,6.310390681028366089e-02,-4.448922351002693176e-02,-1.762600056827068329e-02,-7.575841248035430908e-02,5.930105596780776978e-02,-5.475390702486038208e-02,3.884548554196953773e-03,7.304635643959045410e-02,-4.088830202817916870e-02,5.411802604794502258e-02,1.565884985029697418e-02,-8.493565768003463745e-02,-6.757032871246337891e-02,3.320685774087905884e-02,-2.780448645353317261e-03,8.145660907030105591e-02,6.591271609067916870e-03,5.485040321946144104e-02,-8.392511866986751556e-03,2.634776383638381958e-02,-6.965390592813491821e-02,-3.637143224477767944e-02,2.401915192604064941e-02,-3.523434279486536980e-03,8.013103157281875610e-02,7.649052422493696213e-03,-8.602813631296157837e-02,-4.959927499294281006e-02,-7.921967655420303345e-02,8.139170706272125244e-02,7.147587835788726807e-02,4.269577935338020325e-02,3.314466029405593872e-02,4.561087489128112793e-02,2.305620163679122925e-02,-3.402979671955108643e-02,-5.947910621762275696e-02,-2.389227971434593201e-02,-8.272854238748550415e-02,-6.187953799962997437e-02,-4.739879816770553589e-02,2.807256206870079041e-02,5.360553413629531860e-02,-4.731594771146774292e-02,-8.221872150897979736e-02,-4.106168076395988464e-02,-5.330348759889602661e-02,-5.119282752275466919e-02,-6.656984239816665649e-02,8.231047540903091431e-03,-6.347206979990005493e-02,1.340472046285867691e-02,-2.493196807336062193e-04,-4.325735569000244141e-02,-4.698316752910614014e-02,2.071160450577735901e-02,-6.634476780891418457e-02,9.367758408188819885e-03,-1.593958958983421326e-02,6.214591860771179199e-02,-4.011628776788711548e-02,-7.662339136004447937e-03,4.121750965714454651e-02,-7.849874347448348999e-02,-2.606707811355590820e-02,3.536144644021987915e-02,-3.416009247303009033e-02,5.225291475653648376e-02,-4.101466760039329529e-02,4.350802302360534668e-02,2.072424814105033875e-02,-4.055918753147125244e-02,-7.525742053985595703e-02,-6.288922578096389771e-02,-3.938693553209304810e-02,-7.385645061731338501e-03,8.675452321767807007e-02,-1.343451812863349915e-02,-6.039484217762947083e-02,-3.719490952789783478e-03,-5.752978473901748657e-02,-7.202184200286865234e-02,-3.430194919928908348e-03,4.304530099034309387e-02,-2.865812927484512329e-02,4.701279476284980774e-02,8.695925027132034302e-02,-1.275688130408525467e-02,7.695643603801727295e-02,-7.642814517021179199e-02,1.530506927520036697e-02,4.879172891378402710e-02,4.065125808119773865e-02,6.639128178358078003e-02,3.792640939354896545e-02,6.564535945653915405e-02,8.709981292486190796e-02,7.456502318382263184e-02,-1.544319465756416321e-02,8.451332151889801025e-02,-4.434594511985778809e-02,-2.239570766687393188e-02,-3.035213612020015717e-02,-2.992451563477516174e-02,-4.688080400228500366e-02,-6.299231201410293579e-02,-4.089905694127082825e-02,8.083311468362808228e-02
6.543593015521764755e-03,-8.304868638515472412e-02,-7.982384413480758667e-02,1.302611548453569412e-03,-1.607902161777019501e-02,-7.888645678758621216e-02,-8.268983662128448486e-02,2.617948316037654877e-02,1.852230727672576904e-02,3.619708120822906494e-02,7.869771867990493774e-02,7.804466784000396729e-02,-7.975195534527301788e-03,-5.257607623934745789e-02,-6.347675621509552002e-02,-4.192171990871429443e-02,7.087381184101104736e-02,1.975226774811744690e-02,8.823371678590774536e-02,4.121531918644905090e-02,-4.783531278371810913e-02,-5.797100812196731567e-02,-4.375679418444633484e-02,-5.719896405935287476e-03,3.225724771618843079e-02,1.569378934800624847e-02,-3.213507588952779770e-03,-6.967237591743469238e-02,-5.893030390143394470e-02,-5.370215326547622681e-02,-3.530778456479310989e-03,3.389112418517470360e-03,-8.528722077608108521e-02,2.745355106890201569e-02,-7.690719515085220337e-02,-9.262264706194400787e-03,-2.920042164623737335e-02,-8.745218068361282349e-02,2.801248105242848396e-03,4.950190335512161255e-02,-1.431139372289180756e-02,2.413285337388515472e-02,-7.542406022548675537e-02,-8.159061521291732788e-02,-8.461766690015792847e-02,-8.659627288579940796e-02,4.777298867702484131e-02,2.517219446599483490e-02,-4.118814319372177124e-02,-2.771513536572456360e-02,-5.142853129655122757e-03,-1.879872754216194153e-02,1.225614547729492188e-02,-4.171259701251983643e-02,-4.358837381005287170e-03,7.139989733695983887e-02,-2.819791622459888458e-02,-1.617706567049026489e-02,8.061040192842483521e-02,-2.472323551774024963e-02,-6.070410460233688354e-02,1.285749673843383789e-02,-2.293013036251068115e-02,-7.235220819711685181e-02,6.529992073774337769e-02,4.771438241004943848e-02,2.547546103596687317e-02,8.173478394746780396e-02,-1.478132093325257301e-03,3.574550151824951172e-02,-2.172905951738357544e-02,-6.467792391777038574e-02,-8.728469908237457275e-02,-1.608206704258918762e-02,-4.991449043154716492e-02,-6.423354148864746094e-02,8.123951964080333710e-03,2.381831035017967224e-02,-3.375134244561195374e-02,3.403914347290992737e-02,6.177444383502006531e-02,-2.420587278902530670e-02,2.261791564524173737e-02,-2.504391036927700043e-02,-6.334791332483291626e-02,4.100684821605682373e-02,7.466702163219451904e-02,4.633735120296478271e-02,2.107189595699310303e-02,-3.659543395042419434e-02,5.913091078400611877e-02,2.986728027462959290e-02,3.591684997081756592e-02,5.118475481867790222e-02,3.538151830434799194e-02,-8.354113250970840454e-02,4.698017612099647522e-02,-6.231309100985527039e-02,-4.133841767907142639e-02,-2.827988192439079285e-02,3.820323199033737183e-02,1.964560523629188538e-02,-4.610633477568626404e-03,1.539645437151193619e-02,5.280277132987976074e-02,7.550235092639923096e-02,2.539777569472789764e-02,-5.107507854700088501e-02,3.489513322710990906e-02,7.536496967077255249e-02,6.084419041872024536e-02,1.729787699878215790e-02,-2.859999798238277435e-02,2.166590420529246330e-03,8.363894373178482056e-02,-3.065228462219238281e-02,4.088076576590538025e-02,3.437709808349609375e-02,1.714330352842807770e-02,-5.172692239284515381e-02,-2.337560057640075684e-02,3.921182453632354736e-02,-3.199998289346694946e-02,-4.077387228608131409e-02,-7.474306225776672363e-02,-3.869427368044853210e-02,3.800032660365104675e-02,-7.230386603623628616e-03
8.697634935379028320e-02,5.057851597666740417e-02,-5.117722973227500916e-02,-2.241119556128978729e-02,2.985148504376411438e-02,1.134228613227605820e-02,5.154345557093620300e-02,5.798378959298133850e-02,-1.269863452762365341e-02,4.773765802383422852e-02,5.806059017777442932e-02,-1.108630676753818989e-03,2.577437786385416985e-03,8.250296860933303833e-02,8.519785851240158081e-02,7.789527531713247299e-03,5.536254122853279114e-02,1.401674561202526093e-02,-6.110300496220588684e-02,8.834472298622131348e-02,-3.066350705921649933e-02,-4.443483054637908936e-02,5.376769229769706726e-02,-1.053496263921260834e-02,-6.329889595508575439e-02,3.407561033964157104e-02,7.331696152687072754e-02,1.531034801155328751e-02,-5.687042698264122009e-02,-1.105790026485919952e-02,-6.170950829982757568e-02,-6.940536201000213623e-02,-3.367825970053672791e-02,-1.873946934938430786e-02,6.512703746557235718e-02,-2.353409305214881897e-02,-3.689973428845405579e-02,6.644462049007415771e-02,8.370158821344375610e-02,-3.472346067428588867e-02,7.941411435604095459e-02,3.486334579065442085e-03,1.504302117973566055e-02,4.332590475678443909e-02,-2.290169149637222290e-02,-7.441904395818710327e-02,-2.180505171418190002e-02,-6.467092037200927734e-02,-1.537306234240531921e-03,7.368419319391250610e-02,-2.788571454584598541e-02,7.914187759160995483e-02,6.698507070541381836e-02,-5.845558270812034607e-02,-2.073919959366321564e-02,3.318654373288154602e-02,-7.402675598859786987e-02,6.488637626171112061e-02,-3.786901757121086121e-02,-2.182995958719402552e-04,7.267234474420547485e-02,7.671913504600524902e-02,5.073911324143409729e-02,-9.764201939105987549e-03,-6.982485204935073853e-02,1.435662806034088135e-02,4.998478293418884277e-02,-1.416736748069524765e-02,-5.440151691436767578e-02,3.232542052865028381e-02,-2.015996538102626801e-02,-1.957534626126289368e-02,-1.705957949161529541e-02,7.732140272855758667e-02,-7.363408058881759644e-02,8.476705849170684814e-02,-5.928473547101020813e-02,6.250983476638793945e-02,5.110074579715728760e-02,3.225435037165880203e-03,7.638888806104660034e-02,1.564976759254932404e-02,1.439330633729696274e-02,5.720089003443717957e-02,-4.048521816730499268e-02,-7.160161435604095459e-02,-4.699768498539924622e-02,-4.965105280280113220e-02,7.087034638971090317e-03,3.584377467632293701e-02,-3.540736809372901917e-02,-6.075397506356239319e-02,-4.945291951298713684e-02,-4.630597308278083801e-02,-8.394785225391387939e-02,9.897165000438690186e-03,3.931247338186949492e-04,-1.844814978539943695e-02,1.221889746375381947e-03,-3.616631496697664261e-03,3.094828315079212189e-02,-8.514548651874065399e-03,7.711043208837509155e-02,7.898724079132080078e-02,-3.312965482473373413e-02,5.878435820341110229e-02,3.852703422307968140e-02,-1.771431043744087219e-02,-4.060881584882736206e-02,-3.529450856149196625e-03,-1.675699651241302490e-02,2.625888772308826447e-02,-5.727123469114303589e-02,1.764348149299621582e-02,-5.823221430182456970e-02,5.486160516738891602e-03,1.376389618963003159e-02,1.065788418054580688e-02,5.175679177045822144e-02,-2.054469101130962372e-02,1.481591258198022842e-02,2.187458239495754242e-02,-7.752228528261184692e-02,-8.178111165761947632e-03,3.674421086907386780e-02,-7.026422023773193359e-02,3.706794232130050659e-02,1.421003136783838272e-02
-1.392558217048645020e-02,-4.245327785611152649e-02,8.781770616769790649e-02,5.998362600803375244e-02,-1.943146623671054840e-02,-5.610979348421096802e-02,2.435360848903656006e-02,7.312214374542236328e-02,7.750895619392395020e-02,-5.832447111606597900e-02,3.597294539213180542e-02,-5.229496397078037262e-03,-9.129312820732593536e-03,4.498387873172760010e-02,-4.941981285810470581e-03,-7.949867099523544312e-02,7.595349848270416260e-02,-2.733613923192024231e-02,-4.920071363449096680e-02,-5.131413415074348450e-02,-5.714046210050582886e-02,6.210017576813697815e-02,-6.432192772626876831e-02,-4.804732277989387512e-02,-7.105763256549835205e-02,-8.395411074161529541e-02,1.014574710279703140e-02,6.792718917131423950e-02,-7.006768137216567993e-02,-7.442505657672882080e-02,-7.019568234682083130e-03,-5.349756404757499695e-02,1.988550461828708649e-02,-7.434756308794021606e-02,-6.896914541721343994e-02,5.906591936945915222e-02,1.194553356617689133e-02,-1.786347851157188416e-02,-5.144707858562469482e-03,-7.181356102228164673e-02,-7.721124589443206787e-02,-3.843351081013679504e-02,8.181646466255187988e-02,5.157311633229255676e-02,-3.157217055559158325e-02,-8.279585838317871094e-02,-5.104283615946769714e-02,-2.681183256208896637e-02,6.509598344564437866e-02,-5.928447097539901733e-02,-4.996131733059883118e-02,-3.914893046021461487e-02,-2.058578468859195709e-02,-2.282796613872051239e-02,2.362404484301805496e-03,-1.990682072937488556e-02,-1.604090072214603424e-02,8.070081472396850586e-02,6.794609129428863525e-02,-4.428908601403236389e-02,7.976581901311874390e-02,6.342904269695281982e-02,-9.771125391125679016e-03,8.617249317467212677e-03,6.064353883266448975e-02,-4.506230354309082031e-02,7.348063588142395020e-02,-2.961451373994350433e-02,1.436542626470327377e-02,3.485996276140213013e-02,-3.327825665473937988e-02,1.280973386019468307e-02,6.261462345719337463e-03,1.115448959171772003e-02,5.041785072535276413e-03,-5.764338001608848572e-02,-3.952225670218467712e-02,-4.118674248456954956e-02,7.041600532829761505e-03,8.681145310401916504e-02,7.603718340396881104e-02,-1.752613461576402187e-03,-4.923991858959197998e-02,6.678245961666107178e-02,2.444575168192386627e-02,-5.131552740931510925e-02,-8.588772267103195190e-02,-8.453254401683807373e-02,2.756362780928611755e-02,-7.167902588844299316e-02,-1.504198834300041199e-02,-6.165103986859321594e-02,7.178606837987899780e-02,1.067810412496328354e-02,-5.365747958421707153e-02,-7.297551631927490234e-02,-1.260900963097810745e-02,1.453565713018178940e-02,-6.648381799459457397e-02,-3.860740736126899719e-02,1.815976947546005249e-02,8.933235076256096363e-04,-6.152021512389183044e-02,-3.348651342093944550e-03,5.894656106829643250e-02,2.994218468666076660e-02,-2.189113572239875793e-02,6.356780230998992920e-02,8.648482710123062134e-02,5.062101036310195923e-02,6.747040152549743652e-02,1.435180287808179855e-02,3.683753684163093567e-02,-4.224255308508872986e-02,8.443272858858108521e-02,-8.673213422298431396e-02,3.795377537608146667e-02,-7.300733774900436401e-02,-1.715608499944210052e-02,-5.270503461360931396e-02,-7.661976665258407593e-02,-1.952476985752582550e-02,-6.223663687705993652e-02,-2.270545577630400658e-03,1.001029741019010544e-03,-8.231433480978012085e-02,-7.797441631555557251e-02,5.269601568579673767e-02
-2.898923493921756744e-02,-3.865679353475570679e-02,-6.287972442805767059e-03,-5.438081454485654831e-03,-5.865826457738876343e-02,-5.326107516884803772e-02,-4.145170748233795166e-02,-7.455673813819885254e-02,4.669462889432907104e-02,3.536172211170196533e-02,-2.245240472257137299e-02,-7.630402594804763794e-02,-4.272028803825378418e-02,-2.108554122969508171e-03,5.981954745948314667e-03,1.725197955965995789e-02,-9.636349859647452831e-04,-7.397285103797912598e-02,-3.696177527308464050e-02,-3.111650049686431885e-02,4.853691160678863525e-02,-6.409678608179092407e-02,4.008155688643455505e-02,-8.542829006910324097e-02,6.793995201587677002e-02,3.807508200407028198e-02,3.600669652223587036e-02,-4.756539314985275269e-02,-2.275456674396991730e-02,-6.354075670242309570e-02,1.862764242105185986e-03,8.331672102212905884e-02,6.405100971460342407e-02,-3.272286430001258850e-02,2.734508551657199860e-02,1.635054312646389008e-02,5.568298324942588806e-02,5.976978316903114319e-02,8.727500587701797485e-02,-5.385513603687286377e-02,1.764233410358428955e-02,3.200624138116836548e-02,-3.992569819092750549e-02,3.531635180115699768e-02,1.215680502355098724e-02,3.597716987133026123e-02,-8.146969974040985107e-02,-3.619015961885452271e-02,-3.511355072259902954e-02,-6.276416778564453125e-02,1.460446231067180634e-02,-9.287332184612751007e-03,6.854520738124847412e-02,9.767984971404075623e-03,-8.125279098749160767e-02,4.749377444386482239e-02,-8.529652655124664307e-02,9.795180521905422211e-03,-6.951006501913070679e-02,2.741148881614208221e-02,-2.505847066640853882e-02,-5.288237705826759338e-02,-7.081721723079681396e-02,3.692855313420295715e-02,-6.042643263936042786e-02,-5.158703401684761047e-02,-4.834938794374465942e-02,6.149782612919807434e-02,1.869212649762630463e-02,6.320383399724960327e-03,-3.161460161209106445e-02,6.231800094246864319e-02,-5.470140278339385986e-02,7.221516966819763184e-02,-7.455123960971832275e-02,2.036338672041893005e-02,5.337631702423095703e-02,5.190103128552436829e-02,1.799786277115345001e-02,6.061349064111709595e-03,6.565579771995544434e-02,-7.495747506618499756e-02,-1.941539905965328217e-02,-2.844400145113468170e-02,7.746552675962448120e-02,6.222182512283325195e-02,4.993130639195442200e-02,-7.278191857039928436e-03,-2.328032813966274261e-02,4.930423572659492493e-02,1.726488769054412842e-02,2.923422306776046753e-02,-5.208544433116912842e-02,-8.586937934160232544e-02,5.622138828039169312e-02,7.616107165813446045e-02,-4.810326173901557922e-02,3.753138706088066101e-02,6.413829326629638672e-02,7.983613014221191406e-02,-4.477455466985702515e-02,-4.598113521933555603e-02,-1.586947962641716003e-02,6.119006872177124023e-02,-3.626736361184157431e-05,-5.786163732409477234e-02,-1.726967096328735352e-02,-4.457502067089080811e-02,-2.178907766938209534e-02,-1.291913632303476334e-02,-4.498740658164024353e-02,3.994413837790489197e-02,-4.453882947564125061e-02,3.514855355024337769e-02,-8.059388399124145508e-02,7.690714672207832336e-03,-8.666999638080596924e-02,6.545063853263854980e-02,8.036295324563980103e-02,1.255475543439388275e-02,-5.799265950918197632e-02,-3.136716037988662720e-02,5.347132682800292969e-02,-2.868185751140117645e-02,3.966374695301055908e-02,-5.756014958024024963e-02,8.302652835845947266e-02,-6.214459985494613647e-02
-6.929775327444076538e-02,1.686399616301059723e-02,-2.034907788038253784e-02,-7.100682705640792847e-02,2.788233198225498199e-02,5.375958979129791260e-02,7.412374764680862427e-02,-8.612193912267684937e-02,1.492988876998424530e-02,-7.688231766223907471e-02,-4.720034077763557434e-02,4.187720268964767456e-02,4.829748347401618958e-02,5.098788812756538391e-02,1.822565682232379913e-02,3.874949738383293152e-02,1.050843112170696259e-02,-6.322539597749710083e-02,-2.626498788595199585e-02,-1.887043006718158722e-02,-1.592288911342620850e-02,-1.018980145454406738e-02,2.181872725486755371e-02,-5.601745843887329102e-02,5.042897909879684448e-02,-3.749509900808334351e-02,5.376620683819055557e-03,3.462438285350799561e-02,-5.271029099822044373e-02,-7.264299690723419189e-02,-7.054766267538070679e-02,2.062124013900756836e-02,-4.880162421613931656e-03,-7.832415401935577393e-02,1.778585463762283325e-02,8.189969509840011597e-02,-4.742934554815292358e-02,-4.333586245775222778e-02,8.192072063684463501e-02,-2.000668784603476524e-03,-3.874839097261428833e-02,6.396356225013732910e-02,3.125787153840065002e-02,-3.368939831852912903e-02,4.620723426342010498e-02,2.836478687822818756e-02,-2.077523386105895042e-03,-5.341457575559616089e-02,-4.333877190947532654e-02,-4.893931746482849121e-02,-3.187727183103561401e-02,-5.074956640601158142e-02,-8.495438843965530396e-02,8.720764517784118652e-02,-7.209576666355133057e-02,1.633101888000965118e-02,-4.279598221182823181e-02,3.682389110326766968e-02,1.700211130082607269e-02,2.134459652006626129e-02,8.202282339334487915e-02,-6.784466654062271118e-02,-7.718118280172348022e-02,-2.445091493427753448e-02,-7.378584146499633789e-02,-5.457247793674468994e-02,-4.060141742229461670e-02,-2.391063421964645386e-02,-8.326964080333709717e-02,-1.880527101457118988e-02,4.420889168977737427e-02,-3.882096707820892334e-02,-5.000972002744674683e-02,2.868940122425556183e-02,-5.707375332713127136e-02,-6.271461397409439087e-02,-3.680855780839920044e-02,-3.445000201463699341e-02,-9.658677503466606140e-03,-3.456946462392807007e-02,-6.914155930280685425e-02,-2.810353972017765045e-02,7.437373697757720947e-02,-6.492343544960021973e-02,7.080271095037460327e-02,-7.203245162963867188e-02,-5.620874464511871338e-02,1.777703501284122467e-02,-6.578090135008096695e-03,1.620317623019218445e-02,8.317700773477554321e-02,-7.908616960048675537e-02,1.783900149166584015e-02,-6.093597412109375000e-02,-5.125144124031066895e-02,-4.870384291280061007e-04,8.037688583135604858e-02,-8.805352449417114258e-02,-3.473268076777458191e-02,-6.018626689910888672e-02,-3.894560411572456360e-02,-7.319641858339309692e-02,8.613691478967666626e-02,-7.373296190053224564e-03,-4.800178110599517822e-02,-7.821422070264816284e-03,1.554161868989467621e-02,-1.373878680169582367e-02,-3.540569171309471130e-02,2.320692874491214752e-02,6.279941648244857788e-02,7.578139007091522217e-02,-6.750186532735824585e-02,-1.599835418164730072e-02,-5.125918611884117126e-02,1.053250767290592194e-02,5.039962381124496460e-02,1.828794926404953003e-02,3.685040026903152466e-02,-8.582127839326858521e-02,-5.538011342287063599e-02,-8.260418474674224854e-02,5.369849875569343567e-02,-9.139754809439182281e-03,-6.186353415250778198e-02,7.310996949672698975e-02,-3.052938496693968773e-03,-5.519932508468627930e-02
6.337981671094894409e-02,7.629580330103635788e-03,6.206861883401870728e-02,1.463462878018617630e-02,-4.801829531788825989e-02,-1.607417501509189606e-02,-1.172740291804075241e-02,-4.751487076282501221e-02,5.218712240457534790e-02,6.418715417385101318e-02,-8.682403713464736938e-02,6.848127394914627075e-02,-6.319350004196166992e-02,6.491589546203613281e-02,5.166293308138847351e-02,3.612227272242307663e-03,-8.455089479684829712e-02,2.541082911193370819e-02,7.489559054374694824e-02,-6.505534518510103226e-03,-4.857584461569786072e-02,8.240027725696563721e-02,-6.170039251446723938e-02,7.017038017511367798e-02,3.324647620320320129e-02,2.919638529419898987e-03,-1.777715049684047699e-02,3.324120864272117615e-02,-3.702779859304428101e-02,-3.634149953722953796e-02,-5.425402522087097168e-02,-5.548208951950073242e-02,7.403525989502668381e-03,-6.403648853302001953e-02,4.653377458453178406e-02,6.043676659464836121e-02,-5.516519770026206970e-02,3.105489350855350494e-02,8.519624173641204834e-02,4.386158287525177002e-02,-5.078057572245597839e-02,-6.825070083141326904e-02,6.711111217737197876e-02,-1.614977605640888214e-02,-6.592955440282821655e-02,8.438009768724441528e-03,7.351782172918319702e-02,8.138641715049743652e-02,8.141412585973739624e-02,-1.845094142481684685e-03,4.161121323704719543e-02,2.908960729837417603e-02,6.085215508937835693e-02,-2.892153523862361908e-02,8.105628192424774170e-02,3.058968670666217804e-02,6.312151253223419189e-02,-7.279281318187713623e-02,-5.911120772361755371e-02,2.959880419075489044e-02,-4.008366540074348450e-02,-8.759415894746780396e-02,-2.644995972514152527e-02,7.577571272850036621e-02,-5.506149679422378540e-02,5.391772463917732239e-02,2.535147592425346375e-02,6.856531649827957153e-02,-3.720519319176673889e-02,6.858873367309570312e-02,2.331753261387348175e-02,-2.061548829078674316e-02,4.917711019515991211e-02,6.380419433116912842e-02,5.013469606637954712e-02,5.079801380634307861e-02,-2.287704497575759888e-02,2.453909628093242645e-02,7.463883608579635620e-02,-5.352362990379333496e-02,-9.785676375031471252e-03,1.630363427102565765e-02,5.129637941718101501e-02,1.137079764157533646e-02,-3.714727237820625305e-02,3.891247883439064026e-02,-2.215486019849777222e-02,-9.741326794028282166e-03,7.449813652783632278e-03,3.729039430618286133e-02,-4.332139715552330017e-02,-5.454275384545326233e-02,-4.246854409575462341e-02,-4.887815192341804504e-02,-3.461710177361965179e-03,-6.723096221685409546e-02,-5.558023974299430847e-02,-3.692186996340751648e-02,-1.322436332702636719e-02,-6.817321479320526123e-02,2.097033336758613586e-02,-6.133313477039337158e-02,-3.609542548656463623e-02,-2.977827563881874084e-02,8.081925660371780396e-02,-3.830130770802497864e-02,-7.930567115545272827e-02,-3.188290074467658997e-02,5.923605710268020630e-02,-1.629692129790782928e-02,8.418849855661392212e-02,6.875816732645034790e-02,-8.241070806980133057e-02,2.189950173487886786e-04,-2.899065613746643066e-02,6.563634146004915237e-03,2.316343411803245544e-02,-1.115837803808972239e-04,3.055956214666366577e-02,-5.071206763386726379e-02,7.715121656656265259e-02,1.288144662976264954e-02,-3.000121191143989563e-02,7.054702937602996826e-02,3.359964489936828613e-02,5.061724781990051270e-02,6.635901331901550293e-02,-3.858682885766029358e-02
6.179307401180267334e-02,-1.008085161447525024e-02,-8.675963431596755981e-02,-2.182534523308277130e-02,-3.138570464216172695e-04,8.502098917961120605e-02,-6.560660153627395630e-02,-1.144811604171991348e-02,-7.469615340232849121e-02,-8.337993919849395752e-02,-4.644992575049400330e-02,-8.246941119432449341e-02,2.811112627387046814e-02,-7.506917417049407959e-02,-7.794485241174697876e-02,8.382550626993179321e-02,-4.236059635877609253e-02,-2.780801616609096527e-02,4.319544136524200439e-02,-6.231759116053581238e-02,-7.636365294456481934e-02,-2.070622052997350693e-03,-4.923603311181068420e-02,7.184171676635742188e-02,-4.939231090247631073e-03,5.438661947846412659e-02,4.328429698944091797e-02,-2.700628899037837982e-02,-1.064664125442504883e-02,2.371466159820556641e-02,3.664909675717353821e-02,-7.035154104232788086e-02,-7.571890950202941895e-02,-6.892748177051544189e-03,2.779836393892765045e-02,-5.987638235092163086e-02,6.902758032083511353e-03,-9.990215301513671875e-03,-9.801565669476985931e-03,-5.421580746769905090e-02,-8.452982641756534576e-03,-6.679173558950424194e-02,-3.400512970983982086e-03,-4.864318296313285828e-02,-3.211417049169540405e-02,-4.886429756879806519e-02,2.766297897323966026e-03,4.327894374728202820e-02,4.528092965483665466e-02,-3.685013577342033386e-02,-7.354527711868286133e-02,7.607985287904739380e-02,-4.209838062524795532e-02,-3.478546813130378723e-02,-7.309403270483016968e-02,2.108787000179290771e-02,6.804535537958145142e-02,-6.391764432191848755e-02,-7.086984068155288696e-02,-3.649250045418739319e-02,-1.269745454192161560e-02,-1.411501131951808929e-02,2.250034734606742859e-02,-7.257641851902008057e-02,-2.689786627888679504e-02,-8.028183132410049438e-02,-3.506956994533538818e-02,1.464642956852912903e-02,-8.161941170692443848e-02,-5.308801308274269104e-02,-1.043314673006534576e-02,7.575608044862747192e-02,-7.210545986890792847e-02,7.266168296337127686e-02,4.767082259058952332e-02,7.085976004600524902e-02,2.620249427855014801e-02,7.929026335477828979e-02,-6.077105551958084106e-02,-8.052976801991462708e-03,-6.139162462204694748e-03,-6.574264168739318848e-02,-1.836829259991645813e-02,5.367935448884963989e-02,5.567100271582603455e-02,-3.102125041186809540e-02,5.759813636541366577e-02,5.846124887466430664e-02,8.646725863218307495e-02,-2.223568595945835114e-02,3.828433156013488770e-02,-7.556451112031936646e-02,-5.543111357837915421e-03,-3.439465165138244629e-02,1.048364862799644470e-02,5.424493178725242615e-02,-3.687775507569313049e-02,4.660026356577873230e-02,-8.373866230249404907e-02,2.447111345827579498e-02,4.264878481626510620e-02,5.236297100782394409e-02,-6.389709562063217163e-02,-6.512048095464706421e-02,-4.664818197488784790e-02,-8.498082309961318970e-02,-9.059770032763481140e-03,-4.681686684489250183e-02,4.253196343779563904e-02,-3.296220675110816956e-03,-8.745797723531723022e-02,2.842612005770206451e-02,9.323504753410816193e-03,-5.092223361134529114e-02,3.610360249876976013e-02,2.871300280094146729e-02,-3.916102647781372070e-02,5.193382874131202698e-02,-6.579045206308364868e-02,3.045683912932872772e-02,7.798155397176742554e-02,-8.826606720685958862e-02,-8.358585834503173828e-02,5.241174250841140747e-02,8.177140355110168457e-02,5.907504633069038391e-02,-8.230071514844894409e-02,-7.310250401496887207e-02
4.655751399695873260e-04,7.702092081308364868e-02,-3.771479008719325066e-03,6.292787939310073853e-02,1.607370190322399139e-02,-8.774016052484512329e-02,-6.918855756521224976e-02,-4.136605560779571533e-02,-7.100464403629302979e-02,2.694793604314327240e-02,-1.122213527560234070e-02,-8.566120266914367676e-02,-4.749760031700134277e-02,-8.127363026142120361e-02,-7.416748255491256714e-02,8.040263503789901733e-02,-1.948091574013233185e-02,2.063238807022571564e-02,-4.360175877809524536e-02,7.467719912528991699e-02,-3.967889770865440369e-02,-7.208297401666641235e-02,3.096313960850238800e-02,-2.856360375881195068e-02,4.723178967833518982e-02,-4.308124259114265442e-02,-7.902126014232635498e-02,-8.187425881624221802e-02,5.010364577174186707e-03,7.562500238418579102e-02,8.409779518842697144e-02,-7.085664663463830948e-03,6.861470639705657959e-02,-7.467912137508392334e-02,4.800518602132797241e-02,-7.008443027734756470e-02,-4.195128567516803741e-03,4.131814464926719666e-02,-7.075137645006179810e-02,6.188163533806800842e-02,3.515346348285675049e-02,2.103314176201820374e-02,5.078463349491357803e-03,2.941924706101417542e-02,-7.579343765974044800e-02,3.342540003359317780e-03,3.400558233261108398e-02,-7.386910170316696167e-02,7.876769453287124634e-02,5.824213847517967224e-02,2.799248136579990387e-02,-5.703355744481086731e-02,8.189331740140914917e-02,3.962690755724906921e-02,8.384295552968978882e-02,-1.718906452879309654e-03,3.880807897076010704e-03,-4.532390832901000977e-02,-2.908990159630775452e-02,6.093369796872138977e-02,1.330491737462580204e-03,-4.594427882693707943e-04,7.285138219594955444e-02,7.448301464319229126e-02,2.571569941937923431e-02,7.958733290433883667e-02,-6.391730904579162598e-02,-7.274454087018966675e-02,3.392153233289718628e-02,6.938105821609497070e-02,-6.565675884485244751e-02,4.675711318850517273e-02,4.171278700232505798e-02,-4.556928947567939758e-02,-6.625773012638092041e-02,5.587470717728137970e-03,3.127796575427055359e-02,4.209129884839057922e-02,-6.852155178785324097e-02,-1.607312238775193691e-03,-5.016952008008956909e-02,2.791327796876430511e-02,-2.091477252542972565e-02,-8.541277796030044556e-02,3.756147250533103943e-02,-5.561624094843864441e-02,-4.068917781114578247e-02,2.523127384483814240e-02,-2.550343610346317291e-02,-1.546992640942335129e-02,-7.307483814656734467e-03,-1.664419099688529968e-02,5.280158296227455139e-02,-8.627862483263015747e-02,3.157873824238777161e-02,7.355704158544540405e-02,6.115727871656417847e-02,2.920327708125114441e-02,8.371948450803756714e-02,8.519624173641204834e-02,3.101275674998760223e-02,3.403142839670181274e-02,-7.908688485622406006e-02,-4.414005577564239502e-02,-3.546252474188804626e-02,3.882301971316337585e-02,6.418234854936599731e-02,6.750972568988800049e-02,-5.353010073304176331e-02,-5.028956755995750427e-02,4.435362666845321655e-02,-6.631748378276824951e-02,-3.048103302717208862e-02,-8.525392413139343262e-02,1.853291690349578857e-02,-1.450217142701148987e-02,-5.065747722983360291e-02,3.056847723200917244e-03,-2.527206204831600189e-02,5.108656361699104309e-02,2.625879272818565369e-02,3.641818463802337646e-02,1.866866089403629303e-02,8.816910535097122192e-02,-5.976686254143714905e-02,1.405221223831176758e-02,-2.753006853163242340e-02,1.306796725839376450e-02
-7.365991175174713135e-02,5.792574211955070496e-02,2.494076639413833618e-02,-1.435299310833215714e-02,-1.579353027045726776e-02,-3.535156324505805969e-02,-6.951043754816055298e-02,1.532326638698577881e-02,4.175438731908798218e-02,2.457024157047271729e-02,-5.971689894795417786e-02,-5.183105543255805969e-02,-7.359007000923156738e-02,-8.658350259065628052e-02,-4.260445944964885712e-03,8.061817847192287445e-03,-7.233695127069950104e-03,8.081607520580291748e-02,4.822807013988494873e-02,-5.716174840927124023e-02,6.638327986001968384e-02,-4.615542292594909668e-02,-4.551758244633674622e-02,-3.766984120011329651e-02,-1.560099329799413681e-02,-6.440255045890808105e-02,1.753362640738487244e-02,1.381719112396240234e-02,3.622733429074287415e-02,5.154822953045368195e-03,6.332600861787796021e-02,-7.813768833875656128e-02,-6.934717297554016113e-02,-6.458935886621475220e-02,-1.763146929442882538e-02,-1.704975962638854980e-02,-1.973572559654712677e-02,9.704933501780033112e-03,-3.764900937676429749e-02,2.591180801391601562e-02,9.603286162018775940e-03,7.178707420825958252e-02,-4.414164647459983826e-02,-8.219967037439346313e-02,2.634860761463642120e-02,-2.971270494163036346e-02,5.971776321530342102e-02,-1.795083843171596527e-02,-6.287487596273422241e-02,7.492904365062713623e-02,8.535488694906234741e-02,8.284350484609603882e-02,7.264125160872936249e-03,4.927252978086471558e-02,-3.160139173269271851e-02,-7.233092188835144043e-02,-2.994803339242935181e-02,-2.844284288585186005e-02,7.036609202623367310e-02,3.195776417851448059e-02,-1.697747781872749329e-02,-9.593865834176540375e-03,-4.524115473031997681e-02,2.571461349725723267e-02,-7.532256841659545898e-02,-6.497993320226669312e-02,-5.262777954339981079e-02,-8.656182885169982910e-02,-4.045601189136505127e-02,-7.782794535160064697e-03,8.428910374641418457e-02,-8.239986747503280640e-02,-4.825786501169204712e-02,-1.480099279433488846e-02,5.539576336741447449e-02,-8.133652806282043457e-02,-1.557927671819925308e-02,-3.167483024299144745e-03,4.456902667880058289e-02,-7.054693996906280518e-02,-7.885047048330307007e-02,7.237365096807479858e-02,-3.123044595122337341e-02,4.306660965085029602e-02,-8.489496260881423950e-02,3.025485202670097351e-02,3.653158247470855713e-02,-4.349237680435180664e-02,-5.443121120333671570e-02,3.845772519707679749e-02,-5.801243707537651062e-02,6.692305952310562134e-02,-2.491258084774017334e-03,-3.984864428639411926e-02,-7.278750184923410416e-03,-1.313406415283679962e-02,-1.694714184850454330e-03,2.611239627003669739e-02,-5.641642212867736816e-02,-4.113727435469627380e-02,6.691602617502212524e-02,3.205646993592381477e-03,4.018248990178108215e-02,-9.407418780028820038e-03,-8.565034717321395874e-02,3.154268860816955566e-02,-3.023458831012248993e-02,-3.515978530049324036e-02,4.545456543564796448e-02,-7.907197624444961548e-02,3.365959972143173218e-02,8.264912664890289307e-02,-2.422726154327392578e-02,-5.834954977035522461e-02,-3.496307507157325745e-02,-2.932043373584747314e-02,-3.672626614570617676e-02,-2.413558214902877808e-02,6.499649584293365479e-02,-7.059653848409652710e-02,5.870259180665016174e-02,-3.453691676259040833e-02,-2.429354935884475708e-03,8.673463016748428345e-02,4.003133997321128845e-02,-5.413477122783660889e-02,-2.809097990393638611e-03,2.892726846039295197e-02
-7.307866215705871582e-02,-4.697183892130851746e-02,-7.643211632966995239e-02,6.991297006607055664e-02,-7.499235868453979492e-02,2.591723389923572540e-02,-3.973394166678190231e-03,1.026317849755287170e-02,-3.652995824813842773e-02,-4.975637793540954590e-02,5.200848355889320374e-02,-2.390895783901214600e-02,6.402021739631891251e-03,8.632966130971908569e-02,1.138424314558506012e-02,-4.522458091378211975e-02,2.040988579392433167e-02,2.866053022444248199e-02,1.598659530282020569e-02,-6.948224036023020744e-04,-8.057036995887756348e-02,5.565175320953130722e-03,5.689631775021553040e-02,3.855660185217857361e-02,-1.339214015752077103e-02,-1.247780583798885345e-02,3.186916932463645935e-02,-3.421215713024139404e-02,1.486599445343017578e-02,-7.117907050997018814e-03,-7.246859371662139893e-02,7.741898298263549805e-02,-4.737846180796623230e-02,1.892233267426490784e-02,6.284251064062118530e-02,-8.195296674966812134e-02,4.497555270791053772e-02,-7.273477315902709961e-02,-2.678693458437919617e-02,-5.546849593520164490e-02,-3.898964822292327881e-02,-4.595639649778604507e-03,5.928431451320648193e-02,-1.921685470733791590e-04,-4.186077788472175598e-02,-1.637631654739379883e-02,-8.538065105676651001e-02,5.622041877359151840e-03,-1.958306878805160522e-02,-1.876273378729820251e-02,-1.942042447626590729e-02,2.202625945210456848e-02,-8.854083716869354248e-03,3.652308834716677666e-03,-1.747662201523780823e-02,-5.521339178085327148e-02,1.559137273579835892e-02,-3.665706142783164978e-02,-1.559633575379848480e-02,-5.759494379162788391e-02,-8.523030206561088562e-03,8.914416655898094177e-03,4.281992092728614807e-02,-4.733868688344955444e-02,5.698796361684799194e-02,-6.040781270712614059e-03,-6.831850111484527588e-02,2.445992268621921539e-02,-4.974650219082832336e-02,5.624918267130851746e-02,-2.147546224296092987e-02,-2.838185615837574005e-02,-6.854183971881866455e-02,-3.976366296410560608e-02,-3.123827464878559113e-02,-6.270607933402061462e-03,6.076762080192565918e-02,-2.651050500571727753e-02,-7.911751419305801392e-02,3.037249296903610229e-02,-6.982292234897613525e-02,7.675082981586456299e-02,-5.264668166637420654e-02,2.475451864302158356e-02,3.380011767148971558e-02,1.341403555124998093e-02,7.983293384313583374e-02,-6.815363466739654541e-02,-3.654521703720092773e-02,4.288989584892988205e-03,4.596483707427978516e-02,-6.927422434091567993e-02,3.705481439828872681e-02,-5.040552350692451000e-04,8.483431488275527954e-02,-4.891268163919448853e-02,5.496763437986373901e-02,-6.025746464729309082e-02,-6.171540915966033936e-02,-6.032994762063026428e-02,-1.384712569415569305e-02,3.382422402501106262e-02,-6.369613111019134521e-02,2.398416958749294281e-02,2.855244465172290802e-02,4.362547397613525391e-02,-8.522005379199981689e-02,4.517609998583793640e-02,-3.937187790870666504e-02,6.583309918642044067e-02,-1.597106270492076874e-02,6.287688761949539185e-02,-3.282799944281578064e-02,-1.024111546576023102e-02,2.012248616665601730e-03,5.271289497613906860e-02,4.402516409754753113e-02,2.443611063063144684e-02,6.143084168434143066e-02,4.888552799820899963e-02,-1.543733640573918819e-03,-2.688220702111721039e-03,8.264423906803131104e-02,5.366298928856849670e-02,-6.070718169212341309e-02,3.158347681164741516e-02,3.897279873490333557e-02,-3.307994455099105835e-02
